tree
version=v4
num_class=1
num_tree_per_iteration=1
label_index=0
max_feature_idx=9
objective=regression
feature_names=Column_0 Column_1 Column_2 Column_3 Column_4 Column_5 Column_6 Column_7 Column_8 Column_9
feature_infos=[-4.9281487464904785:0.63685661554336548] [-2.6146364212036133:3.7100627422332764] [-5.1990861892700195:1.272971510887146] [-2.2269694805145264:2.5527749061584473] [-5.5711894035339355:1.3641557693481445] [-1.9902403354644775:2.1465384960174561] [-1.982926607131958:1.6860036849975586] [-2.3018357753753662:1.4582350254058838] [-2.4405524730682373:1.9915002584457397] [-1.7305047512054443:1.7332621812820435]
tree_sizes=9664 9503 10284 9438

Tree=0
num_leaves=111
num_cat=0
split_feature=9 9 9 9 9 5 9 9 9 9 9 9 9 9 5 6 9 3 8 9 9 0 9 9 9 9 9 9 9 9 9 9 9 2 9 9 9 9 9 9 9 1 4 3 9 6 2 9 6 9 1 9 9 9 2 5 2 9 9 9 9 2 5 3 9 9 1 9 9 9 2 5 3 4 0 0 9 9 9 2 2 9 9 4 2 3 6 2 2 0 3 2 1 6 3 2 5 2 8 2 9 9 3 0 2 2 2 9 3 3
split_gain=1736.11 494.492 699.705 516.887 290.559 254.885 218.647 114.968 105.76 98.383 152.133 94.6675 90.7776 117.724 99.2694 66.3556 60.9378 58.6576 56.5491 50.6776 46.5297 43.0774 53.2281 48.2122 54.2907 70.7 37.1668 33.1033 30.5006 27.3748 24.7345 24.6275 22.2501 19.0706 16.9216 47.0136 35.6032 16.8856 16.6262 26.348 13.0418 11.7172 11.3951 10.3116 9.59759 9.00937 8.333 7.35734 7.08533 9.80411 9.38132 7.06175 6.68643 5.91787 4.53824 3.64907 4.33129 3.9898 3.4822 3.4738 3.4484 3.41191 3.22447 3.19262 3.16306 2.9357 2.93341 2.80666 2.64724 2.48671 2.39522 2.19541 2.55515 2.16793 2.13698 2.06673 1.90618 1.83402 1.81343 1.72388 1.70645 1.67434 1.28347 1.21059 1.14337 1.07888 1.0676 0.90346 0.684891 0.667791 0.664447 0.646419 0.592842 0.525103 0.51774 0.510369 0.493085 0.49286 0.416815 0.403817 0.369144 0.886823 0.324842 0.317754 0.262843 0.238682 0.219153 0.158849 0.00877214 0.00434798
threshold=0.73065117001533519 -1.1392327547073362 0.16489368677139285 -0.10666989907622336 -0.75407394766807545 1.0197294950485232 0.21991638094186786 0.5500524938106538 -0.21316542476415631 1.6269885301589968 1.5604287981987002 1.1708326339721682 -0.35959677398204798 -0.42615647614002222 -1.3265030980110166 0.10028097406029703 1.6003646254539492 1.9201549887657168 -1.3927702903747556 0.44000713527202612 1.102054297924042 0.45280016958713537 -1.6481926441192625 -1.6069256067275999 -1.5106359124183653 -1.4693688750267027 1.0195202827453616 1.4539332389831545 0.99200892448425304 -0.31966094672679896 -1.1117213964462278 0.027336971834301952 0.12362667545676233 0.024168025236576799 -0.71280694007873524 -0.49271617829799647 -0.45278035104274744 1.3740616440773012 -1.249278128147125 -1.3318121433258054 0.46751846373081213 -0.90169563889503468 -0.67232638597488392 -1.0320318043231962 0.75816252827644359 1.3439886569976809 0.56712579727172863 1.5338048934936526 0.16246472299098971 0.24742772430181506 1.2065384984016421 -1.6757040023803709 1.4273093938827517 -0.68529558181762684 -0.51878973841667164 -0.5855882167816161 0.26306973397731787 -1.249278128147125 0.7031398117542268 0.3024504035711289 -0.86411932110786427 0.58884355425834667 -0.73994550108909596 1.0000000180025095e-35 -0.23978930711746213 -0.040110195055603974 1.0000000180025095e-35 1.6536123752593996 -0.58900588750839222 -0.63027289509773243 0.78430870175361644 0.58752840757370006 1.3578336834907534 -1.1438745856285093 0.17130158096551898 0.32287797331810003 -0.80909663438796986 -0.080046016722917543 -1.0154317021369932 0.69743552803993236 0.89290067553520214 0.05484831519424916 -1.5519028902053831 -0.40346042811870569 0.15447776764631274 -0.89145144820213307 0.5977628529071809 0.024168025236576799 0.26306973397731787 0.23626267164945605 -1.5943564176559446 0.30650527775287634 0.1524230241775513 0.65994662046432506 -1.0320318043231962 0.37166170775890356 -0.67820259928703297 0.34994289278984075 0.098220024257898345 -0.36676120758056635 -0.90538632869720448 -0.93289768695831288 0.65493208169937145 0.084686793386936202 0.50197042524814617 0.52368924021720897 0.67571672797203075 -1.2767894864082334 -0.32913015782833094 -0.18854984268546102
decision_type=2 2 2 2 2 2 2 2 2 2 2 2 2 2 2 2 2 2 2 2 2 2 2 2 2 2 2 2 2 2 2 2 2 2 2 2 2 2 2 2 2 2 2 2 2 2 2 2 2 2 2 2 2 2 2 2 2 2 2 2 2 2 2 2 2 2 2 2 2 2 2 2 2 2 2 2 2 2 2 2 2 2 2 2 2 2 2 2 2 2 2 2 2 2 2 2 2 2 2 2 2 2 2 2 2 2 2 2 2 2
left_child=1 18 3 4 30 11 15 19 12 10 27 20 13 14 53 -4 46 37 38 48 26 22 51 63 43 -26 -2 28 44 -14 -3 65 81 -28 -16 84 -37 45 39 95 -21 62 -27 82 -7 71 -12 -29 49 -8 54 -20 70 -6 -50 56 -44 -57 61 -52 -43 94 74 -24 89 77 -35 -11 69 88 -30 -13 102 -10 100 104 -62 -5 103 97 93 -33 -25 -76 -36 -51 87 -42 -55 -31 -41 -75 -70 -63 -9 -1 -80 -56 -47 -96 101 -32 106 -64 -15 -102 -73 -92 -71 -93
right_child=5 2 6 31 8 9 7 58 73 67 16 17 29 75 34 -17 -18 -19 21 40 -22 -23 23 24 25 42 33 47 52 64 41 32 -34 66 35 36 -38 -39 -40 90 86 60 55 -45 -46 98 -48 -49 50 85 59 -53 -54 68 79 57 -58 -59 -60 -61 76 80 78 -65 -66 -67 -68 -69 92 108 -72 72 -74 91 83 -77 -78 -79 96 -81 -82 -83 -84 -85 -86 -87 -88 -89 -90 -91 107 109 -94 -95 99 -97 -98 -99 -100 -101 105 -103 -104 -105 -106 -107 -108 -109 -110 -111
leaf_value=-0.033630383126881935 0.051890200879736399 -0.010580993080385155 -0.13298772997473668 0.035958685388819099 -0.022418929798083843 0.034520910384289019 -0.04475176207393132 -0.010132599539761778 0.022506310490713152 0.070171575666626212 -0.013006897600516647 -0.010114323814455766 -0.073778135177192325 0.033977384542784692 -0.066619648355128666 -0.054099733934736605 0.037577887508835332 -0.04568362819501056 -0.028637738664613145 -0.086861505808896289 0.059787518595722809 -0.0885232140753308 -0.074727428130008017 -0.014853121424980785 -0.10265930864383502 -0.06527477947745669 -0.017182413343497877 0.077388575823110511 0.013995039352118824 -0.034616045128998379 0.019104462114028907 0.059102426531697845 0.038160582878373366 0.012156370959304859 -0.0065477811926146993 -0.079025518108603601 -0.024564195442768163 0.031646431718453896 -0.049900293937738274 -0.013783778975866705 -0.067527779493247883 0.020011804935604501 -0.036578723517849826 -0.047906088729966337 0.057282728568852567 0.021827732874257145 -0.045352209082938459 0.053479353480612744 -0.018125831835416183 -0.024964118666065217 -0.063947617029324666 -0.004193157942323362 0.043587994326608009 0.00082586028287534585 -0.03598809900958154 -0.026436322248319866 -0.061895300632698276 -0.045064816173610314 0.0018720430170945648 -0.041321573999223336 0.040290757007791292 -0.014833535919739583 0.021135222234215448 -0.10182593408734784 -0.027739725449485077 0.033697709851382339 0.0309025931082221 0.088577835212809861 -0.0026801261814976894 -0.013139607804930942 0.029961991221115043 0.008750617867303332 -0.00908783429862179 0.0068537456342232976 0.030292132224616599 0.016651160364319326 0.026249582368782772 0.050597933344958386 0.011471193973816851 -0.028448539225551458 -0.0078345630774060634 0.073934259423200754 -0.02466380179788048 0.019765775760699451 -0.017777813641148964 -0.015466801135244746 -0.049084394321451848 -0.052385705640793742 -0.0077266244340885668 -0.045207316673703299 -0.0047016283989531685 0.014492283666790996 0.0037824546936115417 -0.022958351936530664 -0.0067439747021222074 -0.041895687782605572 0.003723942442553928 -0.047863719832596407 0.013938008940399371 -0.00033953134928509901 0.023824838560458132 0.0094721235616036029 0.0020413094752992447 0.014791319145174299 0.025748598394341234 0.017051294189772193 0.0036742803028362507 -0.0086480603039361271 -0.016583982339129645 0.011742723403382956
leaf_weight=99 68 61 73 50 54 58 55 59 48 55 40 47 79 50 76 45 56 55 59 51 135 71 44 80 74 70 51 162 58 41 71 57 82 47 52 79 50 67 70 40 54 45 40 41 443 44 41 54 43 58 45 59 51 51 43 69 41 59 57 43 109 40 44 40 56 142 40 160 71 40 43 51 42 77 85 44 42 77 41 46 40 141 68 54 42 80 68 48 42 118 73 45 69 70 61 62 43 40 42 41 44 41 71 68 42 43 40 44 41 50
leaf_count=99 68 61 73 50 54 58 55 59 48 55 40 47 79 50 76 45 56 55 59 51 135 71 44 80 74 70 51 162 58 41 71 57 82 47 52 79 50 67 70 40 54 45 40 41 443 44 41 54 43 58 45 59 51 51 43 69 41 59 57 43 109 40 44 40 56 142 40 160 71 40 43 51 42 77 85 44 42 77 41 46 40 141 68 54 42 80 68 48 42 118 73 45 69 70 61 62 43 40 42 41 44 41 71 68 42 43 40 44 41 50
internal_value=-2.30577e-05 -0.0157765 -0.00696182 0.00718482 -0.00407585 0.0390956 -0.0393432 -0.031973 -0.0184571 0.0534624 0.0468127 0.0171288 -0.0247991 -0.0160603 -0.0247033 -0.103611 -0.00214592 0.00228617 -0.0437155 -0.044232 0.0370425 -0.0512081 -0.0475331 -0.053337 -0.0477066 -0.0592873 0.02192 0.0545248 0.0487475 -0.0485321 0.0198618 0.0503513 0.0608325 0.00688508 -0.0460534 -0.0387781 -0.0582678 0.00891339 -0.0278859 -0.0228987 -0.0638944 0.0224166 -0.0474581 -0.0258787 0.0547216 0.00431351 -0.0297326 0.0716853 -0.0345199 -0.026968 -0.040001 -0.0165534 0.0288275 -0.00727857 -0.0328353 -0.0412084 -0.0499918 -0.0353057 -0.00946125 -0.0534802 0.0328998 -0.0115378 0.0185146 -0.0886776 -0.038957 0.0392567 0.0210285 0.0842159 -0.00461191 -0.00871173 0.0210199 -0.000490534 0.00176524 0.0131354 0.0214984 0.0261995 0.0365837 0.0451604 0.0132859 -0.0375613 -0.0169499 0.0699829 -0.019496 0.0263731 -0.0116998 -0.0196093 -0.0565366 -0.0609799 -0.00307767 -0.0427097 -0.00824189 0.0104053 0.000509236 -0.0201641 -0.00642187 -0.0370523 0.0075958 -0.042213 0.0181791 -0.00419793 0.0179786 0.0156934 0.00461749 0.0174485 0.030538 0.0207088 0.00658345 -0.00624647 -0.015064 0.0131825
internal_weight=7041 5020 3817 2657 2108 2021 1160 1042 1317 1221 1006 800 1097 803 667 118 137 459 1203 674 341 815 744 626 542 353 206 869 653 294 791 549 280 138 299 223 129 404 388 318 221 730 279 189 501 337 81 216 453 193 260 118 152 368 172 209 81 128 368 88 196 311 534 84 215 269 87 215 314 174 101 251 204 220 338 136 151 127 196 129 150 198 148 139 94 138 170 102 93 159 157 172 140 110 161 161 84 83 86 102 199 112 162 112 92 87 91 117 81 95
internal_count=7041 5020 3817 2657 2108 2021 1160 1042 1317 1221 1006 800 1097 803 667 118 137 459 1203 674 341 815 744 626 542 353 206 869 653 294 791 549 280 138 299 223 129 404 388 318 221 730 279 189 501 337 81 216 453 193 260 118 152 368 172 209 81 128 368 88 196 311 534 84 215 269 87 215 314 174 101 251 204 220 338 136 151 127 196 129 150 198 148 139 94 138 170 102 93 159 157 172 140 110 161 161 84 83 86 102 199 112 162 112 92 87 91 117 81 95
is_linear=0
shrinkage=1


Tree=1
num_leaves=109
num_cat=0
split_feature=9 9 9 9 9 5 9 9 9 9 9 9 9 9 7 7 9 9 9 6 9 9 9 9 9 9 9 9 9 9 9 9 9 7 7 9 9 2 2 9 9 9 9 4 9 9 5 9 9 9 9 6 9 1 9 6 6 2 9 9 9 2 9 0 1 9 4 9 9 7 4 4 2 2 5 6 4 9 5 9 1 2 0 0 9 6 7 9 2 4 7 8 6 9 2 9 9 2 2 0 0 4 9 0 4 2 8 2
split_gain=1514.31 432.956 593.341 455.547 264.986 239.377 191.632 99.4385 96.5541 93.0605 87.3885 135.66 83.2568 105.704 104.864 58.5647 55.5437 54.1808 46.1623 45.6744 43.4596 34.6343 33.56 58.6791 42.376 50.7165 80.297 31.5654 26.1129 24.1285 20.5418 20.2823 18.2055 18.004 21.8069 38.7362 17.6582 17.1699 14.7848 14.4106 12.1109 10.7035 10.132 8.54519 8.47259 7.7345 7.38364 7.36433 7.36101 7.18985 6.55197 6.10816 8.1895 8.10463 5.46035 5.00658 3.90486 3.4333 3.30711 2.97635 2.89994 3.29821 2.78847 2.60621 2.39535 2.3523 2.31095 2.28981 2.1713 2.0402 1.9468 1.76802 1.65074 1.44305 1.23262 1.08019 1.02509 1.02487 0.980577 0.914685 2.06027 0.710371 0.682458 0.632996 0.632445 0.622296 0.606048 1.49583 0.597302 0.584945 0.573919 0.509453 0.497676 0.470326 0.467341 0.459988 0.459609 0.882995 0.322546 0.306356 0.260839 0.204761 0.204145 0.403995 0.200327 0.0611157 0.0496276 0.00617431
threshold=0.73065117001533519 -1.1392327547073362 0.16489368677139285 -0.10666989907622336 -0.75407394766807545 1.0197294950485232 0.21991638094186786 0.5500524938106538 -0.21316542476415631 1.1708326339721682 1.6269885301589968 1.5604287981987002 -0.35959677398204798 -0.42615647614002222 -1.4077746868133543 -1.5581775307655332 1.2143183350563052 1.6003646254539492 0.44000713527202612 0.10028097406029703 1.102054297924042 1.0195202827453616 -1.7032153010368345 -1.6481926441192625 -1.6069256067275999 -1.5106359124183653 -1.4693688750267027 1.4539332389831545 1.0195202827453616 -0.31966094672679896 -1.1117213964462278 0.027336971834301952 0.12362667545676233 -0.1209946498274803 -0.8562977910041808 -0.71280694007873524 -1.3318121433258054 0.024168025236576799 0.43681606650352484 1.3740616440773012 -1.249278128147125 0.46751846373081213 -0.86411932110786427 -0.066345751285552965 1.4273093938827517 -0.79534095525741566 0.55665695667266857 1.5338048934936526 0.75816252827644359 -1.1667441129684446 -1.441857576370239 0.16246472299098971 0.24742772430181506 1.2065384984016421 -0.68529558181762684 1.3439886569976809 -1.8274627923965452 -0.58394512534141529 -1.5381472110748289 -0.040110195055603974 0.7031398117542268 0.58884355425834667 -0.23978930711746213 0.19295527786016467 0.1524230241775513 -0.080046016722917543 -0.70610728859901417 -0.399532601237297 1.6536123752593996 -1.7252916097640989 -1.1438745856285093 -0.47033214569091791 0.69743552803993236 0.89290067553520214 -0.64733111858367909 0.5977628529071809 1.0442760586738589 0.05484831519424916 -0.64733111858367909 -0.63027289509773243 1.0000000180025095e-35 0.32822409272193914 0.23626267164945605 0.30122427642345434 -1.0291873812675474 -0.08627621084451674 -1.3576400279998777 -0.98792037367820729 0.024168025236576799 -0.47033214569091791 0.79813382029533397 -0.26998245716094965 0.65994662046432506 -0.90538632869720448 0.26306973397731787 -1.5656585693359373 0.64811712503433239 -0.58394512534141529 0.41509725153446203 0.25791636854410177 0.27957032620906835 -0.16768633574247357 1.2542541623115542 0.3878390789031983 -0.57167378067970265 0.45853486657142645 -1.2745789289474485 0.54540804028511058
decision_type=2 2 2 2 2 2 2 2 2 2 2 2 2 2 2 2 2 2 2 2 2 2 2 2 2 2 2 2 2 2 2 2 2 2 2 2 2 2 2 2 2 2 2 2 2 2 2 2 2 2 2 2 2 2 2 2 2 2 2 2 2 2 2 2 2 2 2 2 2 2 2 2 2 2 2 2 2 2 2 2 2 2 2 2 2 2 2 2 2 2 2 2 2 2 2 2 2 2 2 2 2 2 2 2 2 2 2 2
left_child=1 15 3 4 30 9 19 18 12 20 11 27 13 14 54 36 -11 -13 51 -4 21 -2 -17 56 91 43 38 28 48 -14 -3 59 77 34 35 -16 83 -23 -27 46 50 -20 63 58 -30 -44 -18 -29 -7 66 -28 52 -8 57 -6 76 -24 -53 95 65 61 96 82 78 79 -5 -42 -15 -12 99 -10 -65 81 92 100 88 102 -33 86 94 104 -59 -31 -1 -73 101 -32 -88 -43 -89 -39 -25 -63 -91 -56 -26 97 -9 -61 107 -54 -72 -48 -104 -81 -82 -47 -38
right_child=5 2 6 31 8 10 7 60 70 16 68 17 29 67 33 22 39 -19 41 -21 -22 37 23 24 25 26 40 47 44 62 42 32 -34 -35 -36 -37 69 90 -40 -41 49 75 45 -45 -46 106 55 -49 -50 -51 -52 53 74 -55 64 -57 -58 72 -60 98 -62 73 -64 71 -66 -67 -68 -69 -70 -71 85 84 -74 -75 -76 -77 -78 -79 -80 80 105 -83 -84 -85 -86 -87 87 89 -90 93 -92 -93 -94 -95 -96 -97 -98 -99 -100 -101 -102 -103 103 -105 -106 -107 -108 -109
leaf_value=-0.03873885790985751 0.049245958591716876 -0.0094236123123032575 -0.12460995546501617 0.033312111306521633 -0.022430206004682245 0.032943134462194788 -0.041503560281636424 -0.012351716946189603 0.021350409535691145 -0.036862421497935428 0.067256943274427342 -0.029528134557394649 -0.069295662393172586 0.017285968464883891 -0.065744912713202416 -0.086240753972971887 -0.015204040236061528 0.0352758916196498 -0.080624854998155082 -0.056208423637720044 0.056879489421844488 -0.016686048903414664 -0.023275816059774825 -0.091445830593938418 -0.016417849078079909 -0.119259022500204 -0.046110219547623087 0.07369507235639236 0.015358397082891315 -0.032652033546141219 0.020418004444174805 0.056176054726044339 0.036452186924506379 -0.017400999320670962 -0.07431275587023041 -0.013747959844768049 -0.0064252742588883499 0.024066641181707385 -0.073219678692874463 0.029441659801772664 -0.066360736427022449 -0.064128116250038156 0.037575899482631001 -0.044337307973656544 0.041119381146771571 0.015554389021285302 0.0082751947173545538 0.04944547242667599 0.053495252178878197 -0.035510654853922984 -0.023655480203557424 -0.017581072935789099 -0.011500081837015308 -0.051172256718079248 -6.8266892454541122e-05 0.018142832173397402 -0.0043692501190687634 -0.032495195981932852 -0.029074196911083081 0.034777781564523193 0.0018707466760783326 -0.014073342816638097 -0.026382349980995059 0.02876984116581964 0.0037264855539875241 0.048770755380392078 -0.050800236990285477 0.031388047792307743 0.084454510953181836 -0.020326474232768472 0.0094833445275293252 0.02234975482995917 -0.026317739331473907 -0.0077399592103791388 -0.024642444885613627 -0.046090817762844599 -0.0025901636784781881 0.068971217248369673 0.008536818955125737 -0.011377944181334566 -0.0017110677339454612 -0.044865811389425525 -0.04297828921867955 -0.029556916667414564 0.013113892415276496 0.0063695657910623898 0.0070579920826410805 0.02197328070376782 -0.049862846963935427 0.011371461485302256 0.014753351042546879 -0.072343241960503332 -0.022003251083481772 0.018280847971750933 -0.0068100374150607329 -0.009250105553023193 -0.001361381827036337 -0.0032123562556901769 0.027533647943945496 -0.011090622052804313 -0.017775627997304713 0.014847691565821018 0.0014366759126254868 0.0078390087100810232 -0.017069810906121897 -0.0045277444015416066 0.020098355851535285 -0.0049069632421292015
leaf_weight=82 68 58 68 53 48 55 56 47 49 79 53 77 83 54 75 53 41 54 54 42 139 52 44 45 58 45 56 169 79 41 66 59 82 43 80 69 40 42 41 69 66 49 138 42 55 43 42 50 448 55 87 40 45 77 60 76 71 40 52 67 55 41 54 70 69 79 85 76 155 43 40 40 47 41 56 66 56 135 57 43 40 45 123 55 47 74 53 46 44 61 40 42 64 54 44 45 48 61 67 43 41 53 61 41 42 40 41 41
leaf_count=82 68 58 68 53 48 55 56 47 49 79 53 77 83 54 75 53 41 54 54 42 139 52 44 45 58 45 56 169 79 41 66 59 82 43 80 69 40 42 41 69 66 49 138 42 55 43 42 50 448 55 87 40 45 77 60 76 71 40 52 67 55 41 54 70 69 79 85 76 155 43 40 40 47 41 56 66 56 135 57 43 40 45 123 55 47 74 53 46 44 61 40 42 64 54 44 45 48 61 67 43 41 53 61 41 42 40 41 41
internal_value=3.67676e-05 -0.0148425 -0.00648306 0.00658505 -0.00408713 0.0367146 -0.0367958 -0.0299515 -0.0178727 0.0156299 0.0509107 0.0446178 -0.0239522 -0.015326 -0.0235217 -0.0410864 0.00106622 -0.00275015 -0.0414376 -0.0992347 0.0354283 0.0204599 -0.0475817 -0.0450246 -0.0503244 -0.0456813 -0.0552172 0.0518616 0.0460745 -0.0462667 0.0190601 0.0473552 0.0569537 -0.047552 -0.0532369 -0.0410963 -0.0220406 0.0055955 -0.0984039 0.00890401 -0.0443244 -0.06062 0.0213773 -0.0244525 0.0261582 0.0302761 0.00435514 0.0684086 0.0513178 -0.0521912 -0.0327081 -0.032182 -0.0253563 -0.0374866 -0.00681981 0.00730507 -0.0117414 -0.0310995 -0.0188147 0.0372198 -0.00866024 -0.010578 -0.0372225 0.0173252 -0.00454332 0.042861 -0.0579934 0.0257069 0.0804152 -0.0110231 0.0126075 0.0227118 -0.0350329 -0.0159617 -0.0187427 -0.0533645 0.00311695 0.0653879 0.0147559 -0.00667051 -0.00897845 -0.0394899 -0.0406103 -0.0352936 0.017566 0.00993042 0.015987 0.0145319 -0.0579812 0.0169335 0.0197561 -0.0831508 -0.0190688 0.0147455 -0.00295825 -0.0134054 -0.00546978 -0.0072665 0.0313865 -0.00766013 -0.0146618 0.0126659 0.00533894 0.00406128 -0.0143562 -0.00315792 0.0179826 -0.00572596
internal_weight=6935 4934 3743 2616 2074 2001 1127 1017 1300 806 1195 987 1084 783 653 1191 465 131 660 110 341 202 887 834 719 632 435 856 637 301 774 542 276 267 224 144 304 134 86 386 349 213 716 197 134 222 317 219 503 206 143 447 198 249 386 276 115 172 155 266 357 302 218 494 338 132 151 130 208 167 216 157 132 146 142 159 200 194 337 269 165 85 164 137 87 167 280 214 93 161 82 87 105 115 104 103 156 108 134 124 86 93 144 102 85 80 84 81
internal_count=6935 4934 3743 2616 2074 2001 1127 1017 1300 806 1195 987 1084 783 653 1191 465 131 660 110 341 202 887 834 719 632 435 856 637 301 774 542 276 267 224 144 304 134 86 386 349 213 716 197 134 222 317 219 503 206 143 447 198 249 386 276 115 172 155 266 357 302 218 494 338 132 151 130 208 167 216 157 132 146 142 159 200 194 337 269 165 85 164 137 87 167 280 214 93 161 82 87 105 115 104 103 156 108 134 124 86 93 144 102 85 80 84 81
is_linear=0
shrinkage=0.05


Tree=2
num_leaves=118
num_cat=0
split_feature=9 9 9 9 9 5 9 9 9 9 9 9 9 9 9 7 7 9 6 9 0 9 9 9 9 9 9 9 1 9 9 9 9 9 7 7 9 2 9 9 9 1 9 3 6 7 9 6 9 1 9 9 3 9 9 5 9 2 9 9 2 9 5 9 6 2 9 9 1 3 1 3 9 9 6 0 2 6 9 6 2 9 9 1 5 9 9 3 2 0 2 0 8 9 2 2 5 0 6 2 8 6 3 2 8 2 2 3 9 6 2 7 8 9 8 5 7
split_gain=1394.77 397.378 578.531 431.574 239.364 220.993 174.326 98.2229 96.6431 91.8434 84.7791 83.4994 129.706 72.2729 98.1262 96.7761 55.1835 48.9482 46.4828 41.6748 31.5435 34.1184 41.3276 37.0554 63.8147 27.953 34.9224 26.2153 21.0767 20.7979 20.1264 19.4657 19.2477 17.798 17.6848 20.1511 30.7243 15.3674 15.07 12.1161 10.8964 9.98859 9.9284 9.39855 8.28283 7.0277 6.97561 6.87946 7.59563 6.94967 4.96276 4.25471 4.18344 4.04595 3.96142 3.83219 3.4269 3.2154 3.15586 3.14387 3.00747 2.87184 2.84251 2.69345 2.56868 2.56009 2.58428 2.54632 2.2471 2.16779 2.10638 2.06882 1.91523 1.88883 1.54718 1.44381 1.41445 1.30189 1.28315 1.25834 1.15835 1.10797 1.04383 1.92536 0.998626 0.925059 0.884311 0.878962 1.04072 0.851255 0.836439 0.708362 0.619312 0.553416 0.784047 0.461657 0.428294 0.393151 0.388929 0.952651 0.339734 0.310376 0.306421 0.232117 0.198538 0.195125 0.187946 0.179821 0.163084 0.137054 0.0963971 0.0881123 0.0591586 0.0301869 0.0250276 0.006785 0.0038475
threshold=0.73065117001533519 -1.1392327547073362 0.16489368677139285 -0.10666989907622336 -0.75407394766807545 1.0506009459495547 0.21991638094186786 0.5500524938106538 1.1845883131027224 1.2143183350563052 -0.21316542476415631 1.6269885301589968 1.5604287981987002 -0.35959677398204798 -0.42615647614002222 -1.4077746868133543 -1.5748887658119199 1.6003646254539492 0.10028097406029703 0.44000713527202612 0.47445386648178106 -1.6481926441192625 -1.6069256067275999 -1.5106359124183653 -1.4693688750267027 1.102054297924042 1.0195202827453616 1.4539332389831545 -0.63816359639167775 -0.31966094672679896 0.027336971834301952 -1.1117213964462278 -1.3318121433258054 0.12362667545676233 -0.070860028266906724 -0.8562977910041808 -0.71280694007873524 0.024168025236576799 1.3740616440773012 -1.249278128147125 0.46751846373081213 -0.90169563889503468 -1.6757040023803709 -1.0320318043231962 1.3439886569976809 -1.2740830183029173 -1.1667441129684446 0.16246472299098971 0.24742772430181506 1.2065384984016421 1.5338048934936526 -0.68529558181762684 1.0000000180025095e-35 1.4273093938827517 0.99200892448425304 0.58752840757370006 0.3024504035711289 -0.51878973841667164 1.6802362799644472 0.7031398117542268 0.58884355425834667 -0.86411932110786427 -0.73994550108909596 -0.23978930711746213 1.2818019390106203 0.63228118419647228 -0.399532601237297 -0.040110195055603974 -0.37463472038507456 1.9201549887657168 0.1524230241775513 1.0000000180025095e-35 -1.0291873812675474 -0.080046016722917543 -1.4543513655662534 0.17130158096551898 0.69743552803993236 -0.08627621084451674 -1.001676023006439 -1.1434266567230222 0.65399897098541271 0.05484831519424916 -0.63027289509773243 1.0000000180025095e-35 -0.64733111858367909 -0.1865415424108505 -0.90538632869720448 0.65493208169937145 0.37166170775890356 0.21460897475481036 0.87118187546730053 0.19295527786016467 -1.0245677828788755 0.64811712503433239 -0.62738069891929615 0.32822409272193914 0.71101421117782604 0.27957032620906835 0.5977628529071809 0.024168025236576799 -0.54726958274841297 0.65994662046432506 0.5143517702817918 0.43681606650352484 -1.7427870035171507 0.34994289278984075 0.41509725153446203 -1.0320318043231962 -0.26641319692134852 0.90868753194808971 0.67571672797203075 -1.4077746868133543 -0.92001578211784352 -1.4281018972396848 -1.851882755756378 -0.70907405018806446 -1.9258291721343992
decision_type=2 2 2 2 2 2 2 2 2 2 2 2 2 2 2 2 2 2 2 2 2 2 2 2 2 2 2 2 2 2 2 2 2 2 2 2 2 2 2 2 2 2 2 2 2 2 2 2 2 2 2 2 2 2 2 2 2 2 2 2 2 2 2 2 2 2 2 2 2 2 2 2 2 2 2 2 2 2 2 2 2 2 2 2 2 2 2 2 2 2 2 2 2 2 2 2 2 2 2 2 2 2 2 2 2 2 2 2 2 2 2 2 2 2 2 2 2
left_child=1 16 3 4 31 8 18 19 25 -10 13 12 27 14 15 51 32 -14 -4 47 21 42 52 43 -25 26 54 28 71 -15 67 -3 89 81 35 36 -17 -28 44 45 -21 62 -18 74 55 113 79 48 -8 57 -29 -6 -23 64 -2 -11 -51 -49 -13 60 93 -43 75 108 -30 66 -16 73 -39 -27 82 109 111 -5 100 102 105 85 -74 -41 -40 -32 95 114 97 -12 112 110 -89 -1 101 116 -63 94 -9 -53 -46 -50 99 -42 -24 -62 -33 -69 -93 -59 -87 -85 -31 -7 -57 -64 -77 -26 -84 -35 -34
right_child=5 2 6 30 10 11 7 59 9 38 77 58 17 29 65 34 20 -19 -20 40 -22 22 23 24 39 69 37 50 53 63 33 41 91 115 -36 -37 -38 68 80 46 98 61 -44 -45 96 -47 -48 49 84 56 -52 70 -54 -55 -56 87 -58 76 -60 -61 90 92 72 -65 -66 -67 -68 103 -70 -71 -72 -73 78 -75 -76 86 -78 -79 -80 -81 -82 -83 83 107 -86 106 -88 88 -90 -91 -92 104 -94 -95 -96 -97 -98 -99 -100 -101 -102 -103 -104 -105 -106 -107 -108 -109 -110 -111 -112 -113 -114 -115 -116 -117 -118
leaf_value=-0.040517494051406783 0.057594278984599651 -0.0096599886967342792 -0.11983586037662669 0.032058454345573077 -0.02018881268054247 0.044132845714444022 -0.039800829780206354 -0.011995306715369226 -0.058476606422457202 -0.01250263795318117 0.0094254989626864766 0.068321113820586893 -0.028184050196432511 -0.065736833893800084 0.017237045289394223 -0.060336757122882105 -0.031561386576504445 0.033092948638580061 -0.05042983262640674 -0.077413682008193707 -0.081670850515365601 -0.065181016376832643 -0.0088206406376074731 -0.094424347111157006 -0.027163593697807065 0.039765432341532278 -0.015279089574994265 0.070169447577974331 0.028907644003629687 -0.040804451234914642 0.053512066956293784 0.018155482891373909 -0.0045874330720568936 0.030357525479502795 -0.01527198939055035 -0.069271766959310893 -0.013812629498526172 0.011380709211902732 0.021020436050688349 -0.062268639618859568 -0.061349456894154455 0.018600623589029055 -0.0029437650424061776 -0.042970409585783881 0.013503161185356076 -0.048475009202957157 -0.03400282330811024 -0.017592325251231469 -0.010463165802260241 -0.058104720529244869 0.049843393631831365 0.00015244679476241941 -0.093699838859694351 0.038171174377202993 0.03506832313537598 0.0074052467780087936 -0.036438916928388854 -0.03350850742223651 0.083872124993282823 0.0023813595726215817 -0.013903463161664038 0.027659515772368116 0.019131325464178291 -0.024778901599347591 0.011290121029394315 0.012266883867033314 0.034323360125223794 0.033079346237887795 0.027639506579864595 0.054433638108894233 0.0035897797512678578 0.036393753573207593 0.00084836099898287411 0.045900059491395952 -0.023522453870752764 0.023388514069204287 -0.026343761788060267 0.0063993056482286193 0.012027038072579002 -0.04974368693346673 0.034406605117568156 0.066090835630893713 -0.015664412001413958 -0.00092248371857706285 -0.023395883485122962 0.020827487478077056 0.017795550860195502 0.0043440166824998769 -0.0057091221524922945 -0.030379493856116348 -0.009291777965104716 -0.0092641494407628977 0.036195069259589478 -0.0011493071758498748 -0.0032979250942732682 -0.0063320050559317071 0.021609713099527788 -0.017755441274493935 -0.045111146893190304 -0.04676258978890438 -0.015630892352403506 -0.020665599398037967 0.013329955524087007 0.026470396358233235 -0.01472086555937805 -0.043084894293962527 0.014735514416121122 -0.0056324016074252477 -0.033557676441139647 0.051564824408151237 0.004032776954713776 0.014653719270427246 0.029788661985234784 -0.022293446721353881 -0.012260169391223092 0.037890949167988519 -0.0059432682694821829
leaf_weight=47 44 58 70 54 49 60 56 49 57 52 58 111 79 78 41 75 63 54 40 58 56 40 40 69 45 54 50 158 41 107 58 129 40 40 43 90 68 48 40 67 48 49 58 47 42 43 59 40 44 48 53 64 41 51 49 55 43 42 114 60 40 57 44 55 45 41 59 70 41 109 64 40 47 83 57 40 47 79 56 93 40 149 41 41 53 41 52 51 50 94 43 44 96 53 56 47 40 43 68 50 45 57 67 64 40 42 42 40 53 378 42 55 43 71 46 43 40
leaf_count=47 44 58 70 54 49 60 56 49 57 52 58 111 79 78 41 75 63 54 40 58 56 40 40 69 45 54 50 158 41 107 58 129 40 40 43 90 68 48 40 67 48 49 58 47 42 43 59 40 44 48 53 64 41 51 49 55 43 42 114 60 40 57 44 55 45 41 59 70 41 109 64 40 47 83 57 40 47 79 56 93 40 149 41 41 53 41 52 51 50 94 43 44 96 53 56 47 40 43 68 50 45 57 67 64 40 42 42 40 53 378 42 55 43 71 46 43 40
internal_value=0.00028357 -0.0138913 -0.0060159 0.00673145 -0.00361561 0.0350531 -0.0356585 -0.029267 0.0157999 0.000441887 -0.0166388 0.0490775 0.042562 -0.0222933 -0.0145552 -0.0225535 -0.0389958 -0.00324337 -0.095279 -0.0403879 -0.0452646 -0.0427373 -0.0468844 -0.0424728 -0.0503295 0.033988 0.02268 0.0499325 0.0445547 -0.0435368 0.0456775 0.0180888 -0.020533 0.0549234 -0.0451782 -0.0506085 -0.038463 0.00670915 0.00871508 -0.0420525 -0.0580937 0.0202886 -0.0179804 -0.0237239 0.00398445 -0.0311722 -0.0497743 -0.0316206 -0.0242848 -0.0369952 0.065323 -0.00654946 -0.0805831 0.0269447 0.0462251 -0.000557024 -0.0483744 -0.0306936 0.0765365 -0.00802794 -0.0101247 0.0297793 0.0166427 -0.0352158 0.0199249 0.0232293 0.027558 0.0356178 0.0190946 0.0498463 -0.00454796 0.0495351 0.011861 0.0407161 -0.0170977 0.0195164 -0.0345304 0.0116581 0.00698329 -0.0553427 0.0280557 0.0628406 -0.00642083 -0.00889826 -0.0178401 0.0145386 0.0236235 0.00262727 -0.000639964 -0.0340204 -0.0154432 -0.00880122 0.0332154 -0.00534471 -0.00743158 -0.00262524 0.0176703 -0.0142282 -0.0509203 -0.0544547 -0.0125659 -0.0180474 0.016582 0.0301423 -0.0120052 -0.0387473 0.0179569 -0.00328869 -0.0386273 0.0506496 0.00600105 0.0168152 0.0270194 -0.0243987 -0.0140242 0.034665 -0.00533036
internal_weight=7073 5025 3826 2676 2115 2048 1150 1040 864 469 1322 1184 959 1102 809 668 1199 133 110 682 894 838 717 636 447 395 232 826 615 293 561 793 305 290 276 233 143 139 412 378 224 735 121 189 332 159 219 458 196 262 211 392 81 137 93 250 91 171 225 358 298 202 533 215 86 141 100 271 89 163 343 478 202 137 142 331 131 220 103 160 80 207 279 168 140 141 135 198 101 141 140 164 153 158 105 111 82 87 166 98 85 97 196 134 84 84 83 81 160 438 97 99 83 116 87 83 80
internal_count=7073 5025 3826 2676 2115 2048 1150 1040 864 469 1322 1184 959 1102 809 668 1199 133 110 682 894 838 717 636 447 395 232 826 615 293 561 793 305 290 276 233 143 139 412 378 224 735 121 189 332 159 219 458 196 262 211 392 81 137 93 250 91 171 225 358 298 202 533 215 86 141 100 271 89 163 343 478 202 137 142 331 131 220 103 160 80 207 279 168 140 141 135 198 101 141 140 164 153 158 105 111 82 87 166 98 85 97 196 134 84 84 83 81 160 438 97 99 83 116 87 83 80
is_linear=0
shrinkage=0.05


Tree=3
num_leaves=108
num_cat=0
split_feature=9 9 9 9 9 5 9 9 9 9 9 9 9 9 9 7 7 9 9 9 9 9 9 9 9 9 9 9 5 9 9 5 9 9 7 7 9 9 9 2 9 2 3 9 9 1 7 5 9 9 9 4 2 3 9 9 9 5 9 4 9 9 9 2 2 4 9 0 0 9 9 0 9 8 4 4 2 9 2 0 9 9 2 2 0 7 7 3 2 2 5 2 9 9 0 8 4 3 2 3 1 2 0 2 7 2 3
split_gain=1258.43 357.211 533.802 372.536 215.715 191.132 182.183 86.7774 79.2555 74.4358 72.4913 70.9187 109.113 69.4867 90.3337 86.7265 49.8912 44.5991 37.3305 32.7409 37.3512 34.5848 38.8637 63.3078 26.3907 35.0172 24.8027 22.6486 19.4926 19.2354 17.1495 16.0512 15.8255 15.7264 13.4386 16.6078 30.4823 11.8214 11.1669 11.0397 8.92796 7.93038 7.2179 6.54493 6.38415 5.94574 5.72787 5.60605 5.03282 4.90654 4.24526 3.9584 3.58652 3.11467 3.11205 11.1508 7.79227 5.59087 3.67435 2.86735 2.49375 2.40461 2.38843 2.33523 2.25164 2.22769 2.0554 1.83212 1.81697 1.78785 1.76743 1.72384 1.70918 1.68469 1.6009 1.60013 1.54155 1.5078 1.12879 1.1157 1.0492 0.86005 0.806912 0.745711 0.707028 0.677728 0.640155 0.598843 0.597557 0.565297 0.519659 0.502786 0.434006 0.721253 0.425522 0.306339 0.256825 0.250934 0.225129 0.330141 0.22014 0.196774 0.185379 0.113659 0.0700159 0.058376 0.0236654
threshold=0.73065117001533519 -1.1392327547073362 0.16489368677139285 -0.10666989907622336 -0.75407394766807545 1.0197294950485232 0.21991638094186786 0.5500524938106538 -0.21316542476415631 1.1845883131027224 1.2143183350563052 1.6269885301589968 1.5604287981987002 -0.35959677398204798 -0.42615647614002222 -1.4077746868133543 -1.5916000008583067 1.6003646254539492 0.44000713527202612 -1.7032153010368345 -1.6481926441192625 -1.6069256067275999 -1.5106359124183653 -1.4693688750267027 1.0882986783981325 1.0195202827453616 1.4539332389831545 1.0057646036148074 -0.95604565739631642 -0.31966094672679896 0.027336971834301952 -0.67820259928703297 0.12362667545676233 -1.3318121433258054 -0.070860028266906724 -0.8562977910041808 -0.71280694007873524 -1.249278128147125 1.3740616440773012 0.39337947964668279 0.46751846373081213 -0.01926855510100722 -1.0320318043231962 0.75816252827644359 -1.1667441129684446 -0.90169563889503468 -1.2740830183029173 0.55665695667266857 1.4273093938827517 -1.1117213964462278 1.5338048934936526 -0.60545364022254933 0.93633723258972179 1.9201549887657168 0.3162060827016831 0.27493907511234289 0.24742772430181506 -0.24600152671337125 0.41249577701091772 -0.10012559592723845 -0.23978930711746213 -0.040110195055603974 0.7031398117542268 0.58884355425834667 0.045885797590017326 -0.67232638597488392 1.6802362799644472 0.32287797331810003 0.32287797331810003 -0.68529558181762684 -0.63027289509773243 0.17130158096551898 -0.080046016722917543 -1.2745789289474485 -1.1438745856285093 1.0442760586738589 0.7408721148967744 -1.0154317021369932 -0.71425384283065785 0.30122427642345434 -1.5519028902053831 0.05484831519424916 0.87118187546730053 0.26306973397731787 0.19295527786016467 0.71457675099372875 -1.8924056887626646 -0.89145144820213307 0.32822409272193914 0.50197042524814617 -0.95604565739631642 1.0000000180025095e-35 -0.90538632869720448 -0.93289768695831288 0.25791636854410177 -0.51999363303184498 -0.47033214569091791 0.93609276413917553 1.0000000180025095e-35 -0.46971046924591059 1.0000000180025095e-35 0.56712579727172863 0.23626267164945605 0.52368924021720897 -1.3743512630462644 -0.040987364016473286 -0.18854984268546102
decision_type=2 2 2 2 2 2 2 2 2 2 2 2 2 2 2 2 2 2 2 2 2 2 2 2 2 2 2 2 2 2 2 2 2 2 2 2 2 2 2 2 2 2 2 2 2 2 2 2 2 2 2 2 2 2 2 2 2 2 2 2 2 2 2 2 2 2 2 2 2 2 2 2 2 2 2 2 2 2 2 2 2 2 2 2 2 2 2 2 2 2 2 2 2 2 2 2 2 2 2 2 2 2 2 2 2 2 2
left_child=1 16 3 4 31 9 28 18 13 24 -11 12 26 14 15 51 33 -14 54 -18 59 -22 42 39 25 -2 27 43 -4 -15 61 45 81 79 35 36 -17 46 47 -24 -20 -27 80 -7 65 71 -25 -12 76 -33 -28 86 64 -26 55 56 -8 83 89 -21 100 72 63 87 -49 -39 -13 85 -57 -53 -71 92 -5 -47 -10 97 -29 104 -73 -1 95 -32 94 -56 -35 -16 -6 105 -76 -59 -75 -42 93 101 -65 -23 -80 -66 -88 -100 -31 -3 -63 -94 -51 -9 -90
right_child=5 2 6 30 8 11 7 62 74 10 38 66 17 29 67 34 19 -19 40 20 21 22 23 37 53 41 50 48 -30 60 32 49 -34 84 -36 -37 -38 44 -40 -41 91 -43 -44 -45 -46 73 -48 52 -50 77 -52 69 -54 -55 57 68 -58 58 -60 -61 -62 102 -64 82 75 -67 -68 -69 -70 70 -72 78 -74 90 88 -77 -78 -79 96 -81 -82 -83 -84 -85 -86 -87 98 -89 106 -91 -92 -93 103 -95 -96 -97 -98 -99 99 -101 -102 -103 -104 -105 -106 -107 -108
leaf_value=-0.036435263733069101 0.044762989423341226 0.012822995968828244 -0.12172877335030099 0.030319222175287753 0.0030561968371211018 0.029199433565702079 -0.037614563893188131 -0.0066289353823332595 0.019346289256086144 -0.05473108059511736 -0.013093284431208925 0.065201064974069606 -0.02627825044238797 -0.062607393315039492 0.031447605545423467 -0.058780373690220024 -0.079422046740849822 0.032207563725699273 -0.073592980883338238 -0.021755451177980039 -0.075837140613132056 -0.0089280720781210032 -0.10802672789210366 -0.023227217697593221 0.035914685582401046 -0.01525499264006408 0.066573366335353018 0.01005074631733199 -0.075721011855709022 -0.032162475768934218 0.050777442966188704 -0.0085430236330086545 0.033286063599117691 -0.004586317478195317 -0.015860186810264503 -0.065956399203783059 -0.013092114970507758 -0.059859393091944907 0.026524746730266249 -0.066736005828147982 -0.054508200710389157 0.011856767360380521 -0.040115685193311601 0.048972342885557879 -0.032090570512464493 0.018323139668578601 -0.045329830263342176 0.010844658964122527 0.036136856675148009 0.015350507821237511 0.047073269009590149 -0.019839927034967758 0.018173154573887587 0.051115496164925826 -0.021811518163942709 -0.057431164456576839 -0.010958630707243393 -0.033189251839086928 -0.021252751000748391 -0.0050225312470347956 -0.023739336772788583 0.025669286182013959 0.0017384450694184778 -0.019585086032748222 0.0014026549349849425 -0.045779574889203783 0.079403460248608462 0.013676220772051535 -0.039718573207550865 -0.0030338050905955147 -0.013940585984072338 0.015095070684597325 0.043791733172875422 0.033079954905918356 0.0058246775854473255 -0.0075420309321230479 0.023539266193848711 0.0018915955267018742 0.027974611989877843 -0.02508462821038402 -0.021055140918579657 0.06270883188402053 -0.0088384469707478899 -0.01238945823098565 -0.01148553419821932 0.021595233246684078 -0.00010508431534452195 -0.0019939205163003256 0.013244452027782322 -0.044080009184232577 0.024872055465433127 -0.045138625786938801 0.020423476344181433 0.0073470565078910012 -0.012206417958183988 -0.015531822541876265 0.021231789965116019 0.006222952040387135 -0.0015381592886560425 -0.0075065430835820736 -0.039362393135116219 0.017463050293554262 0.031740986972542136 0.015235424248708619 0.011198365597676192 -0.0098203681136776761 0.010295083403276901
leaf_weight=74 71 69 45 52 60 52 54 42 51 51 40 99 77 82 48 77 59 55 54 46 80 42 41 118 70 48 158 47 66 56 55 54 88 76 40 82 70 76 67 40 66 59 41 456 58 40 41 77 55 40 49 46 54 105 40 40 57 57 56 58 55 81 52 61 59 91 106 42 46 75 74 51 78 107 78 44 42 44 53 48 68 138 52 57 76 49 43 71 46 40 47 108 44 42 40 40 55 50 48 45 104 63 58 44 40 40 44
leaf_count=74 71 69 45 52 60 52 54 42 51 51 40 99 77 82 48 77 59 55 54 46 80 42 41 118 70 48 158 47 66 56 55 54 88 76 40 82 70 76 67 40 66 59 41 456 58 40 41 77 55 40 49 46 54 105 40 40 57 57 56 58 55 81 52 61 59 91 106 42 46 75 74 51 78 107 78 44 42 44 53 48 68 138 52 57 76 49 43 71 46 40 47 108 44 42 40 40 55 50 48 45 104 63 58 44 40 40 44
internal_value=-0.000130354 -0.0135745 -0.00612852 0.00616417 -0.0034026 0.0334531 -0.0346701 -0.02807 -0.0158191 0.0144264 0.000741281 0.0460779 0.0404627 -0.0213034 -0.0135972 -0.0213109 -0.0376832 -0.00185023 -0.0386126 -0.0433786 -0.0407556 -0.0447172 -0.0408125 -0.0486168 0.0315114 0.0178036 0.0469594 0.042031 -0.0952931 -0.0419199 0.0427706 0.0171812 0.0514983 -0.0189066 -0.0431076 -0.0477773 -0.0372595 -0.0399536 0.00809797 -0.0886988 -0.0551082 -0.000334154 -0.0216582 0.0470097 -0.0474081 0.0210034 -0.0291743 0.0042176 0.0242641 0.00393162 0.0622059 -0.00624351 0.00669314 0.0452738 -0.0300946 -0.0349791 -0.0241464 -0.0261216 -0.0321017 -0.0125603 -0.0337765 0.0334965 -0.00814006 -0.00981895 0.00393083 -0.0525053 0.0728945 0.0229198 -0.0485224 -0.0112683 -0.00850742 0.0175838 0.0386753 0.0282961 0.0115997 0.000403496 0.0166069 0.009389 0.0217785 -0.0322097 -0.0163809 0.059588 -0.0141765 -0.0164578 -0.00808845 0.0267418 -0.00121252 -0.00539767 0.00914744 -0.0380843 0.0307516 -0.0489838 0.0149651 0.013321 -0.0168112 -0.0122977 0.0247671 0.00365027 -0.00310434 -0.00447522 -0.0370578 0.0151522 0.0284114 0.0180298 0.0134383 -0.00828529 0.0119315
internal_weight=6966 4975 3802 2658 2108 1991 1144 1033 1315 795 442 1196 991 1096 799 660 1173 132 675 899 840 736 656 465 353 178 859 652 111 297 550 793 281 274 269 229 147 384 391 81 228 107 191 508 225 615 159 324 144 178 207 391 284 175 447 197 111 250 153 104 215 269 358 306 230 167 205 139 86 195 149 421 130 194 219 153 89 124 159 122 150 193 153 97 152 97 196 153 168 97 154 174 262 174 101 82 108 109 136 93 160 132 139 88 80 82 90
internal_count=6966 4975 3802 2658 2108 1991 1144 1033 1315 795 442 1196 991 1096 799 660 1173 132 675 899 840 736 656 465 353 178 859 652 111 297 550 793 281 274 269 229 147 384 391 81 228 107 191 508 225 615 159 324 144 178 207 391 284 175 447 197 111 250 153 104 215 269 358 306 230 167 205 139 86 195 149 421 130 194 219 153 89 124 159 122 150 193 153 97 152 97 196 153 168 97 154 174 262 174 101 82 108 109 136 93 160 132 139 88 80 82 90
is_linear=0
shrinkage=0.05


end of trees

feature_importances:
Column_9=225
Column_2=62
Column_0=23
Column_3=23
Column_5=22
Column_6=22
Column_7=22
Column_4=17
Column_1=15
Column_8=11

parameters:
[boosting: gbdt]
[objective: regression]
[metric: l2]
[tree_learner: serial]
[device_type: cpu]
[data_sample_strategy: bagging]
[data: ]
[valid: ]
[num_iterations: 600]
[learning_rate: 0.05]
[num_leaves: 128]
[num_threads: 16]
[seed: 2023]
[deterministic: 0]
[force_col_wise: 0]
[force_row_wise: 0]
[histogram_pool_size: -1]
[max_depth: 20]
[min_data_in_leaf: 40]
[min_sum_hessian_in_leaf: 0.001]
[bagging_fraction: 0.9]
[pos_bagging_fraction: 1]
[neg_bagging_fraction: 1]
[bagging_freq: 1]
[bagging_seed: 26561]
[bagging_by_query: 0]
[feature_fraction: 0.85]
[feature_fraction_bynode: 1]
[feature_fraction_seed: 22040]
[extra_trees: 0]
[extra_seed: 25715]
[early_stopping_round: 0]
[early_stopping_min_delta: 0]
[first_metric_only: 0]
[max_delta_step: 0]
[lambda_l1: 0]
[lambda_l2: 1]
[linear_lambda: 0]
[min_gain_to_split: 0]
[drop_rate: 0.1]
[max_drop: 50]
[skip_drop: 0.5]
[xgboost_dart_mode: 0]
[uniform_drop: 0]
[drop_seed: 17353]
[top_rate: 0.2]
[other_rate: 0.1]
[min_data_per_group: 100]
[max_cat_threshold: 32]
[cat_l2: 10]
[cat_smooth: 10]
[max_cat_to_onehot: 4]
[top_k: 20]
[monotone_constraints: ]
[monotone_constraints_method: basic]
[monotone_penalty: 0]
[feature_contri: ]
[forcedsplits_filename: ]
[refit_decay_rate: 0.9]
[cegb_tradeoff: 1]
[cegb_penalty_split: 0]
[cegb_penalty_feature_lazy: ]
[cegb_penalty_feature_coupled: ]
[path_smooth: 0]
[interaction_constraints: ]
[verbosity: 1]
[saved_feature_importance_type: 0]
[use_quantized_grad: 0]
[num_grad_quant_bins: 4]
[quant_train_renew_leaf: 0]
[stochastic_rounding: 1]
[linear_tree: 0]
[max_bin: 255]
[max_bin_by_feature: ]
[min_data_in_bin: 3]
[bin_construct_sample_cnt: 200000]
[data_random_seed: 6644]
[is_enable_sparse: 1]
[enable_bundle: 1]
[use_missing: 1]
[zero_as_missing: 0]
[feature_pre_filter: 1]
[pre_partition: 0]
[two_round: 0]
[header: 0]
[label_column: ]
[weight_column: ]
[group_column: ]
[ignore_column: ]
[categorical_feature: ]
[forcedbins_filename: ]
[precise_float_parser: 0]
[parser_config_file: ]
[objective_seed: 2023]
[num_class: 1]
[is_unbalance: 0]
[scale_pos_weight: 1]
[sigmoid: 1]
[boost_from_average: 1]
[reg_sqrt: 0]
[alpha: 0.9]
[fair_c: 1]
[poisson_max_delta_step: 0.7]
[tweedie_variance_power: 1.5]
[lambdarank_truncation_level: 30]
[lambdarank_norm: 1]
[label_gain: ]
[lambdarank_position_bias_regularization: 0]
[eval_at: ]
[multi_error_top_k: 1]
[auc_mu_weights: ]
[num_machines: 1]
[local_listen_port: 12400]
[time_out: 120]
[machine_list_filename: ]
[machines: ]
[gpu_platform_id: -1]
[gpu_device_id: -1]
[gpu_use_dp: 0]
[num_gpu: 1]

end of parameters

pandas_categorical:null
