tree
version=v4
num_class=1
num_tree_per_iteration=1
label_index=0
max_feature_idx=9
objective=regression
feature_names=Column_0 Column_1 Column_2 Column_3 Column_4 Column_5 Column_6 Column_7 Column_8 Column_9
feature_infos=[-4.9281487464904785:0.63685661554336548] [-2.6146364212036133:3.7100627422332764] [-5.1990861892700195:1.272971510887146] [-2.2269694805145264:2.5527749061584473] [-5.5711894035339355:1.3641557693481445] [-1.9902403354644775:2.1465384960174561] [-1.982926607131958:1.6860036849975586] [-2.3018357753753662:1.4582350254058838] [-2.4405524730682373:1.9915002584457397] [-1.7305047512054443:1.7332621812820435]
tree_sizes=9771 9828 10012 10470 10396 10469 10210 10038 10615 10802 10615 10923 10950 11223 10796 11238 11255 11266 11121 11282 11243 11270 11266 11287 11286 11337 11323 11302 11345 11375 11359 11336 11399 11368 11425 11405 11432 11386 11402 11458 11433 11423 11427 11401 11461 11367 11452 11423 11414 11423 11457 11382 11499 11487 11504 11473 11452 11484 11501 11473 11496 11505 11418 11512 11467 11493 11498 11451 11496 11514 8390 10738 10098 11487

Tree=0
num_leaves=112
num_cat=0
split_feature=5 9 8 9 1 1 8 1 3 8 5 9 9 6 9 3 9 3 9 9 3 4 1 9 3 4 9 3 9 9 9 9 1 9 4 9 5 9 9 5 9 9 8 8 9 5 9 4 4 6 5 5 9 4 9 9 3 9 6 6 3 9 3 4 9 3 9 9 9 9 9 3 1 4 4 9 9 9 9 2 9 4 5 6 2 1 5 0 6 0 9 9 3 0 3 8 2 3 9 9 8 4 2 9 3 3 5 5 2 9 9
split_gain=1672.12 670.562 914.897 664.015 408.835 407.866 261.204 81.1736 64.6625 55.8688 45.2443 44.9663 42.594 40.4693 37.2849 36.472 34.5576 32.035 30.9406 54.9515 37.0384 27.127 26.1451 24.1362 22.587 17.5884 16.9478 15.7179 17.8594 19.7418 14.8357 15.1516 15.3487 14.3088 14.0065 13.7157 13.4731 11.8677 10.3443 10.1576 9.7134 8.5825 7.58304 7.35569 6.83145 6.75908 6.75744 6.38474 5.93296 5.71318 6.40172 5.65103 5.11047 8.53758 5.03816 6.23296 4.39572 3.83397 3.51292 3.27919 3.62584 3.27651 2.73656 2.65247 3.47798 2.48942 4.20349 2.26127 2.22507 2.17529 2.09595 1.97562 2.50688 1.90272 1.79739 1.7623 1.63877 1.53351 1.91107 1.70019 1.51205 1.49152 1.38086 1.35509 1.20291 1.18773 1.15637 1.14978 0.946447 0.998198 0.857382 0.795488 0.781424 0.735493 0.668357 0.619854 0.551661 0.538036 0.497853 0.457647 0.442171 0.435285 0.367026 0.300191 0.266834 0.256857 0.24303 0.225531 0.128813 0.0827282 0.242359
threshold=-1.2647601962089536 -1.4143462181091306 0.40732413530349737 -0.60276153683662403 -0.63816359639167775 0.41595189273357397 0.057307431474328048 1.2065384984016421 0.3737714439630509 -1.2927647233009336 -0.49297311902046198 -0.57525020837783802 1.6536123752593996 -0.27283042669296259 -0.10666989907622336 -0.18854984268546102 -0.65778425335884083 -0.18854984268546102 -0.63027289509773243 -0.47940422594547266 -0.89145144820213307 -0.33589969575405115 1.4700673818588259 -0.15991766005754468 -0.75087112188339222 -0.36968058347702021 -1.4556132555007932 1.7795746922492983 0.19240503013134005 -0.01348631316795945 0.63436147570610057 1.0882986783981325 -1.692285358905792 -0.399532601237297 -0.84053975343704213 -1.1117213964462278 -0.77081695199012745 -1.6757040023803709 -0.093357957899570451 0.49491403996944433 -1.2630338072776792 -1.0154317021369932 -1.5927786231040952 -1.0563874840736387 -0.63027289509773243 1.3593154549598696 -0.37290871143341059 0.33764275908470159 0.97740429639816295 1.4061723947525027 0.46404260396957403 -0.98691710829734791 0.24742772430181506 0.97740429639816295 -1.1117213964462278 -1.0154317021369932 -1.4537760615348814 -1.5106359124183653 1.3439886569976809 -0.83249902725219715 1.0000000180025095e-35 -0.75407394766807545 -0.89145144820213307 1.0111852288246157 0.53629684448242199 -1.0320318043231962 0.7994295358657838 1.1979002952575686 1.3740616440773012 -0.066734075546264635 0.2886947393417359 0.65493208169937145 0.94300961494445812 -0.53789392113685597 0.97740429639816295 0.21991638094186786 0.041092643514275558 -0.96040901541709889 -0.83660796284675587 -0.062705134972929941 -0.69905126094818104 0.70784932374954235 -0.86343130469322193 -1.0190532207489011 0.50197042524814617 1.4700673818588259 0.71101421117782604 0.25791636854410177 1.4683561325073244 0.30122427642345434 -1.1392327547073362 1.4406213760375979 0.65493208169937145 0.43114647269248968 -0.46971046924591059 0.766433745622635 0.15447776764631274 -1.172612130641937 -0.87787500023841847 1.0607873201370241 0.6527942717075349 1.0780558586120608 0.50197042524814617 0.66187280416488659 -0.18854984268546102 -0.75087112188339222 1.3901869058609011 1.9150022864341738 0.82774528861045849 0.13738234341144565 0.082359660416841521
decision_type=2 2 2 2 2 2 2 2 2 2 2 2 2 2 2 2 2 2 2 2 2 2 2 2 2 2 2 2 2 2 2 2 2 2 2 2 2 2 2 2 2 2 2 2 2 2 2 2 2 2 2 2 2 2 2 2 2 2 2 2 2 2 2 2 2 2 2 2 2 2 2 2 2 2 2 2 2 2 2 2 2 2 2 2 2 2 2 2 2 2 2 2 2 2 2 2 2 2 2 2 2 2 2 2 2 2 2 2 2 2 2
left_child=3 26 4 16 9 10 8 17 18 21 14 -5 13 -7 33 -9 80 39 20 -20 56 24 74 46 42 43 37 28 29 -15 38 32 62 -4 -21 40 75 93 -25 -8 -26 83 -3 54 -18 49 -12 82 68 50 -30 -27 -10 70 -11 -56 -6 -39 -47 60 -53 -43 97 64 86 66 -34 -29 -24 -16 -54 87 -73 -42 -17 -19 -31 79 96 -45 -1 -66 -36 -37 -71 88 -52 -38 -60 108 -23 -51 -48 -2 100 105 -79 -32 -62 103 -88 107 109 -67 -57 -83 -68 -14 -90 110 -78
right_child=1 2 5 11 6 12 7 15 52 25 23 -13 101 27 69 22 44 36 19 34 -22 90 48 30 35 51 -28 67 45 76 31 -33 65 -35 47 41 71 57 -40 -41 73 61 -44 77 -46 58 92 -49 -50 91 63 59 53 -55 55 104 -58 -59 85 -61 98 -63 -64 -65 81 99 106 -69 -70 84 -72 72 -74 -75 -76 -77 102 78 -80 -81 -82 95 -84 -85 -86 -87 94 -89 89 -91 -92 -93 -94 -95 -96 -97 -98 -99 -100 -101 -102 -103 -104 -105 -106 -107 -108 -109 -110 -111 -112
leaf_value=0.022806196647321243 -0.055610996499975272 0.054754320178341538 -0.0075203288754072681 0.1486478605794338 0.1000171164672211 -0.053673106957869511 0.052444765902577455 0.093297924652323241 0.024994521452785873 -0.0087096198520042155 -0.034790326251885023 0.21908084474690981 -0.027418650146226187 0.02258567045081257 -0.0070735802936363551 0.024932834695433097 0.057143875046586461 0.0072013858132943314 0.14268453961221828 0.049869307207049317 0.023802519808815308 -0.015201190838796142 0.071091348159377551 -0.037532223831984922 0.020276536887733156 -0.0040339615612052359 -0.038461311213414263 -0.020692765743595801 0.030268766491012376 -0.0020704813412145461 -0.031441382188520557 -0.01778469391990067 -0.052099830277924884 -0.048001329912335265 0.10643209922418043 0.044101500676542539 -0.010727606713807899 -0.075570140196874414 -0.0068195203628479365 0.015836512708585781 -0.0027955250759636695 4.999923137348817e-07 0.023634081250670302 -0.012403096410594177 0.090045436732712147 -0.010102358598551771 -0.057094817313673628 0.068297007361593595 0.034481367165836441 0.03381886549892664 0.014882290536033861 -0.0080644041261086832 0.050407143430652966 0.028814543326714945 0.031264222730174963 0.0068849994879355966 0.069193554872728422 -0.060713078199085849 0.011816725955825374 -0.03703913083230756 -0.030895792059997818 0.021292048665158117 -0.043158417353786283 -0.00055897348417533951 0.0077289363122162742 -0.046951739072480105 -0.02893194731290152 -0.0049660339798469752 0.049570706484260901 0.014467396512049192 0.072643137107892039 -0.021481103298323596 -0.0034492038188559753 -0.018548726807307864 0.0096585441971641667 0.021705646130009002 -0.010104306721122227 -0.022376574067483713 -0.0022520808421631054 0.0033813846025318151 0.036244055429494541 0.018323082948705872 0.084377603040876742 0.028182342335174009 0.00061337979170161827 0.014956675429804927 0.0028649635192386372 0.0031769854081778051 0.004416841152805934 -0.0020834728851278211 -0.0047113918144254833 0.021853165910230052 -0.066536354882186358 -0.041887238423755697 -0.00039808837883894427 0.013981453056874626 -0.012944965817428222 -0.021649902225062786 -0.02062442161606385 -0.045296640147330695 0.011846604947880517 -0.031151257233921703 -0.018453501439342334 -0.057051365960134673 0.00018826009685074508 0.026823821907638511 -0.038796424122723404 -0.018613815646537104 0.0098061337048736732 -0.0092861774879624062 -0.017583259262595251
leaf_weight=64 63 73 42 59 52 42 57 50 41 57 45 128 41 73 52 50 54 78 78 43 54 74 58 85 56 53 88 76 64 45 170 80 151 134 77 43 42 357 75 55 62 52 51 43 59 49 192 49 47 51 44 55 54 49 42 40 48 119 55 70 69 50 89 71 44 56 41 61 49 49 42 89 42 51 70 52 45 51 42 54 87 40 54 61 43 56 43 41 40 79 50 58 141 56 71 44 60 40 43 58 41 92 79 274 49 59 68 41 41 41 41
leaf_count=64 63 73 42 59 52 42 57 50 41 57 45 128 41 73 52 50 54 78 78 43 54 74 58 85 56 53 88 76 64 45 170 80 151 134 77 43 42 357 75 55 62 52 51 43 59 49 192 49 47 51 44 55 54 49 42 40 48 119 55 70 69 50 89 71 44 56 41 61 49 49 42 89 42 51 70 52 45 51 42 54 87 40 54 61 43 56 43 41 40 79 50 58 141 56 71 44 60 40 43 58 41 92 79 274 49 59 68 41 41 41 41
internal_value=-0.000265824 -0.00752095 -0.00137893 0.111566 0.0243843 -0.0217166 0.0468402 0.0234623 0.0751974 0.000743364 -0.0407052 0.197799 0.000290994 0.00366036 -0.0200252 0.0463802 0.0499453 0.00709951 0.0874258 0.0988333 0.064597 0.0139253 0.0374886 -0.0449144 0.0201635 -0.0105327 -0.0639377 0.00540801 0.00748969 -0.00465077 -0.0406146 -0.0432802 -0.0454067 -0.0384721 0.0828999 0.0127365 -0.00198308 -0.0676248 -0.0233047 0.0348198 1.82925e-05 0.023091 0.0422943 -0.00291327 0.0750144 0.0116371 -0.0582581 0.0904382 0.0538066 0.0152447 0.0125661 -0.0219704 0.0449441 0.0503341 0.00601534 0.0124853 0.0861128 -0.0720035 0.0044904 -0.0259225 -0.0210345 0.010486 -0.0338679 0.0100132 0.0119698 -0.0506612 -0.0452999 -0.0138206 0.0618419 0.00258936 0.0608458 -0.0112347 -0.0158153 -0.0100584 0.0162259 0.0131703 -0.0126541 -0.00964871 -0.01339 -0.0036098 0.0307755 0.0178492 0.0980945 0.0351788 0.00813288 0.00717844 0.00635328 -0.0038316 0.00506484 0.00264764 -0.011091 0.0277629 -0.0612978 -0.0496056 0.0038138 0.0208461 -0.0174931 -0.0297162 -0.0272228 -0.0541128 0.00740724 -0.027671 -0.0149159 -0.0555026 0.00330775 0.0236668 -0.0354372 -0.0233658 0.00730424 -0.0125415 -0.0138999
internal_weight=7418 6967 6284 451 2772 3512 1421 780 641 1351 1885 187 1627 1453 320 324 264 456 455 301 154 623 274 1565 499 728 683 1411 1274 324 1187 1027 947 176 223 375 344 595 160 112 169 206 124 438 113 950 378 180 154 630 521 290 186 145 188 131 100 476 320 237 167 102 299 457 386 648 260 137 107 144 96 214 131 113 120 130 251 250 153 97 151 187 131 104 92 271 199 83 215 160 124 109 333 119 155 143 111 210 112 388 84 174 206 330 89 99 109 82 81 127 86
internal_count=7418 6967 6284 451 2772 3512 1421 780 641 1351 1885 187 1627 1453 320 324 264 456 455 301 154 623 274 1565 499 728 683 1411 1274 324 1187 1027 947 176 223 375 344 595 160 112 169 206 124 438 113 950 378 180 154 630 521 290 186 145 188 131 100 476 320 237 167 102 299 457 386 648 260 137 107 144 96 214 131 113 120 130 251 250 153 97 151 187 131 104 92 271 199 83 215 160 124 109 333 119 155 143 111 210 112 388 84 174 206 330 89 99 109 82 81 127 86
is_linear=0
shrinkage=1


Tree=1
num_leaves=113
num_cat=0
split_feature=7 1 9 5 7 9 9 7 7 7 7 9 9 7 1 9 1 7 7 7 7 5 4 7 5 9 7 7 5 7 7 9 9 7 9 4 7 4 1 7 7 1 7 9 7 7 9 5 9 7 7 9 9 6 7 7 4 9 7 7 7 7 7 9 6 7 7 6 9 7 7 4 7 5 8 7 7 6 7 4 7 9 7 9 7 7 6 4 9 0 4 7 7 9 2 7 9 0 7 7 4 4 7 7 7 7 7 7 7 0 7 6
split_gain=1594.1 649.395 579.901 449.459 410.25 380.538 227.54 317.762 89.0343 82.8519 70.737 66.0578 79.3653 54.1802 48.5487 45.9246 41.4905 35.4214 29.8793 29.6872 19.7298 17.5391 23.9425 16.8453 16.1825 15.6212 15.3353 14.605 14.2097 12.3542 11.7103 10.7726 10.0893 8.51792 9.13423 8.32176 7.77745 7.52372 11.9777 13.5744 12.7288 10.4377 19.6454 6.72992 5.92568 5.90674 5.62194 5.50026 5.41775 5.2644 5.01485 4.56573 4.36289 4.32114 4.28058 4.18322 4.10202 4.30163 4.09183 3.95279 3.84489 3.74931 3.45708 3.43727 2.83915 2.68518 2.49442 3.54743 2.42051 5.1933 3.15817 2.24245 2.1382 1.79542 1.69625 1.69216 1.6849 1.66326 1.66272 1.55654 1.44406 1.43686 1.33064 2.93333 1.32339 1.11114 1.0931 0.947442 0.934726 0.928377 0.901456 0.873578 0.849247 0.849712 0.809108 0.749053 0.738961 0.67495 0.666597 0.607054 0.488529 0.478921 0.454095 0.452877 0.354117 0.283271 0.229072 0.222904 0.219716 0.211172 0.149613 0.0964712
threshold=-1.5916000008583067 0.67948076128959667 -0.60276153683662403 -0.83255985379219044 0.1798110976815224 -0.53398320078849781 -1.4556132555007932 0.79813382029533397 -0.672471523284912 -1.0066996812820432 0.96524789929389965 0.7856738567352296 -1.125477075576782 0.94853666424751293 0.1524230241775513 -0.56149452924728382 -0.63816359639167775 1.0000000180025095e-35 0.29679055511951452 -1.3743512630462644 -1.3242176771163938 -0.43123023211956019 0.97740429639816295 -1.8924056887626646 0.15532734990119937 -1.3455678224563596 -0.78945198655128468 -1.3743512630462644 -0.46210168302059168 0.69786554574966442 0.51403927803039562 -1.6757040023803709 1.5471168756484988 1.2159190177917483 0.64811712503433239 0.23630111664533618 -0.80616319179534901 0.2700809538364411 1.0000000180025095e-35 0.64773091673851024 -1.0066996812820432 -0.63816359639167775 0.06283064000308515 -1.373079180717468 0.76471036672592174 0.58088508248329174 0.96449759602546703 0.30968534946441656 -1.2767894864082334 1.1657853722572329 0.66444215178489696 -0.23978930711746213 1.3208138942718508 0.72213333845138561 0.38034759461879736 -1.6918681859970091 0.30386185646057134 1.3208138942718508 0.096254054456949248 -1.1738147735595701 -0.88972023129463185 -0.33824335038661951 0.58088508248329174 -1.0842100381851194 1.0000000180025095e-35 -1.2573717832565305 0.79813382029533397 0.72213333845138561 1.2542541623115542 0.66444215178489696 0.46390463411808019 -0.13390543684363362 -0.90643143653869618 1.2975725531578066 1.3391937613487246 -1.4411970973014829 -1.1738147735595701 -1.1434266567230222 0.99867027997970592 -0.20077716559171674 -1.4077746868133543 -0.79534095525741566 -1.1571035385131834 -1.0429430603981016 0.89840203523635875 0.74799916148185741 0.53557908535003673 0.842971831560135 0.95074191689491283 0.21460897475481036 0.67406946420669567 0.84826743602752697 0.46390463411808019 0.19240503013134005 0.71915432810783397 -0.10428344085812567 1.4273093938827517 0.17130158096551898 0.88169082999229442 0.24665692448616031 -1.1100937128067014 0.80919095873832714 -1.5080429315567014 0.64773091673851024 1.0989395380020144 1.0488049387931826 -1.4913316965103147 1.0822283029556277 -1.2239483594894407 0.27957032620906835 -1.4913316965103147 0.10028097406029703
decision_type=2 2 2 2 2 2 2 2 2 2 2 2 2 2 2 2 2 2 2 2 2 2 2 2 2 2 2 2 2 2 2 2 2 2 2 2 2 2 2 2 2 2 2 2 2 2 2 2 2 2 2 2 2 2 2 2 2 2 2 2 2 2 2 2 2 2 2 2 2 2 2 2 2 2 2 2 2 2 2 2 2 2 2 2 2 2 2 2 2 2 2 2 2 2 2 2 2 2 2 2 2 2 2 2 2 2 2 2 2 2 2 2
left_child=2 3 16 5 17 9 31 11 59 20 18 12 27 14 46 -4 23 95 56 63 80 45 30 -1 28 -18 72 48 37 62 47 61 68 34 51 -19 -33 38 40 -40 82 60 -43 -25 -34 92 84 -23 106 74 -26 107 58 64 -44 -27 -6 99 -37 -7 -42 -5 -13 -14 79 77 67 86 70 -70 -24 -41 -11 94 -12 102 108 -29 -53 -16 110 -78 83 -21 -9 -73 -32 97 -64 -45 -69 -46 93 -20 -31 -3 -49 -66 109 -58 -35 -52 -50 -90 -80 -36 -8 -15 -22 -99 -2 -47
right_child=1 4 15 6 10 8 7 13 -10 26 49 29 19 33 53 -17 25 35 21 24 76 22 32 43 50 55 -28 65 -30 73 66 36 44 100 105 52 -38 -39 39 71 41 42 54 89 91 111 -48 96 75 -51 101 78 -54 -55 -56 -57 57 -59 -60 -61 -62 -63 88 -65 87 -67 -68 90 69 -71 -72 85 -74 -75 -76 -77 81 -79 104 -81 -82 -83 -84 -85 -86 -87 -88 -89 103 -91 -92 -93 -94 -95 -96 -97 -98 98 -100 -101 -102 -103 -104 -105 -106 -107 -108 -109 -110 -111 -112 -113
leaf_value=0.066659900501370425 0.038145450807199242 0.11140041269975549 0.15295316670985704 -0.031202540240685139 0.047858821403980248 0.16825884159599863 -0.019924575709870881 -0.036181501920003509 0.053705963699452908 -0.011130863966442734 -0.023627613596047741 0.0014517673476664131 0.022251767516499613 -0.046580521729130006 -0.03024995427524171 0.22139785368101933 0.044262530300698495 0.078434368435340587 0.0095920998694193436 0.0043499086174242042 0.01408769970034298 0.051457596022635693 -0.0010367717428699783 0.0052355106939872102 0.035885933174420209 0.090461691455594434 -0.054454266684836349 -0.040050304925069211 -0.026879841993673371 -0.038969761156997122 0.01644330070073121 -0.054353289834223689 0.027277767591855739 -0.054445226447582241 -0.056133967492315508 0.057477664089761668 -0.073506807995895471 -0.018383414806250265 0.045302440983329979 -6.8784417759161436e-05 -0.01097063758735687 0.035567644732121678 0 0.039163096154645333 0.010539989300915655 -0.016944864300420373 -0.055835405729112837 0.021385188818964011 0.0040519925615683725 -0.037512567013688387 0.011037638996003402 -0.025646687527949158 0.066188530462352846 -0.03106524048115198 -0.026885795498390989 0.06536192923671795 0.024706070073462764 0.042351256613731382 0.034342180341143495 0.12610758259079674 -0.033218598671636339 -0.05515353160782864 -0.0096909191826979324 0.045415229399204254 -0.0036701091517778958 -0.049183623000979421 0.00047343357696019592 0.00048159815100176878 0.011164562229726269 -0.011330190509256028 -0.018895427058946777 0.018715075991665747 -0.024787069404752629 -0.024437799411181071 -0.0098484074559603493 -0.013581563725695014 0.0064670364044229437 -0.024039598316699266 -0.035519177414476868 -0.01288977212036505 0.021868275457226173 -0.0057772660881174028 0.0049067023050209336 0.024711446513162282 -0.047170915127384014 0.0067407455059154981 0.02899470791877326 -0.00079501742697902957 -0.015101000387119711 0.025545023780712418 0.012719612131436589 0.00016949290620244068 -0.0069590588362929834 -0.0021146479769668072 -0.028650682719332757 0.09070330353624681 0.032380758904191578 -0.0063006581206573181 -0.018845442731678486 0.015598037662723198 -0.067837171816185815 0.019668980400142973 -0.0044767641917569561 -0.02411116710467183 -0.044041791716643741 -0.06655954850238302 -0.028854644270737962 -0.056827818618545051 0.0074287394770057649 -0.012750618485201683 0.029900188011943166 -0.024001338305088073
leaf_weight=47 81 50 88 44 44 40 41 176 66 82 79 42 40 77 40 83 54 78 40 46 56 47 68 44 58 115 57 47 58 153 60 127 65 49 161 63 316 50 46 63 58 42 40 58 52 40 136 67 41 79 80 43 75 51 44 52 86 49 65 43 58 75 44 74 43 47 46 44 76 70 76 70 94 77 61 59 78 69 83 42 50 60 65 60 82 52 58 47 47 46 44 68 43 47 60 84 54 50 44 57 148 42 47 68 104 68 44 78 40 41 52 40
leaf_count=47 81 50 88 44 44 40 41 176 66 82 79 42 40 77 40 83 54 78 40 46 56 47 68 44 58 115 57 47 58 153 60 127 65 49 161 63 316 50 46 63 58 42 40 58 52 40 136 67 41 79 80 43 75 51 44 52 86 49 65 43 58 75 44 74 43 47 46 44 76 70 76 70 94 77 61 59 78 69 83 42 50 60 65 60 82 52 58 47 47 46 44 68 43 47 60 84 54 50 44 57 148 42 47 68 104 68 44 78 40 41 52 40
internal_value=-0.000243101 -0.00840259 0.0945526 -0.0202002 0.0205971 0.0209083 -0.0283009 -0.0225876 0.107051 0.00101843 0.00647073 -0.00630504 0.000171793 -0.0426935 -0.0310003 0.187304 0.0560544 0.0735409 0.0116398 0.00882962 0.0170287 0.00747858 0.0111412 0.0355332 0.00526704 0.0738927 -0.0275597 -0.0227043 0.0013799 -0.0252873 0.0215609 -0.063717 0.00188947 -0.0534771 -0.0497259 0.0609567 -0.0681641 0.00378557 0.0055419 0.0164519 -0.000570809 -0.00942387 0.00249735 0.0252271 0.0128099 -0.00808161 -0.0455209 0.033829 -0.0129051 -0.0250628 0.0213762 -0.0437387 0.0538602 -0.0149205 -0.0141911 0.0831175 0.0309845 0.0268584 0.046133 0.148254 -0.0223347 -0.0466815 -0.0137039 0.037604 -0.0121268 -0.0364512 0.0132571 0.0160666 -0.00507649 0.000334883 -0.0105689 0.00904101 -0.0185573 -0.0332206 -0.0177788 -0.00580807 0.00541302 -0.0308648 -0.0378721 -0.0216929 0.0317387 0.001097 0.0119052 0.0160546 -0.0398661 0.0137563 0.0228549 -0.00853341 -0.0177288 0.0334975 0.00674218 0.00476293 -0.000110119 0.00324742 -0.0362385 0.0992385 0.0265667 -0.0105273 -0.0126243 0.0212508 -0.0648283 0.0141936 -0.000434843 -0.0206424 -0.0405 -0.0595318 -0.0248987 -0.0521069 0.0114802 -0.00937891 0.0352137 -0.0207999
internal_weight=7418 6831 587 4856 1975 799 4057 3495 149 650 1560 1932 1441 1563 752 171 416 415 1341 1046 417 1105 895 195 932 221 233 395 752 491 420 562 475 811 614 281 443 694 644 231 413 242 126 148 185 210 394 168 232 219 180 385 203 358 84 167 236 192 128 83 116 119 201 114 307 163 252 206 290 146 144 185 176 290 140 147 234 116 230 82 183 138 171 106 258 122 118 225 159 104 88 120 130 87 213 134 121 178 135 143 197 122 88 115 187 229 85 155 96 91 133 80
internal_count=7418 6831 587 4856 1975 799 4057 3495 149 650 1560 1932 1441 1563 752 171 416 415 1341 1046 417 1105 895 195 932 221 233 395 752 491 420 562 475 811 614 281 443 694 644 231 413 242 126 148 185 210 394 168 232 219 180 385 203 358 84 167 236 192 128 83 116 119 201 114 307 163 252 206 290 146 144 185 176 290 140 147 234 116 230 82 183 138 171 106 258 122 118 225 159 104 88 120 130 87 213 134 121 178 135 143 197 122 88 115 187 229 85 155 96 91 133 80
is_linear=0
shrinkage=0.06


Tree=2
num_leaves=115
num_cat=0
split_feature=7 1 9 5 9 7 9 7 7 9 9 7 7 7 3 1 7 9 1 3 7 9 0 9 7 7 3 7 1 7 7 7 7 3 7 9 7 3 1 7 7 9 3 9 7 9 7 6 3 9 9 7 7 3 9 3 7 7 9 9 9 7 9 7 7 7 7 7 7 7 7 6 7 7 7 7 7 5 9 9 8 7 7 8 9 9 8 0 9 1 7 3 7 0 7 2 9 9 7 3 7 9 7 0 7 7 8 7 3 7 8 2 5 7
split_gain=1398.97 572.036 531.29 408.934 365.028 360.101 207.546 293.377 68.2835 62.3457 73.314 59.4669 59.3067 48.117 46.1431 43.5067 40.4308 38.0016 32.9404 24.6979 16.0215 15.8207 15.428 14.8611 14.8466 13.2682 13.0609 13.0339 13.3325 15.76 11.713 11.6521 10.9908 10.473 9.78784 9.49217 7.74775 7.12894 7.58708 11.2089 7.04903 6.60716 6.04949 5.43923 5.35387 5.32726 5.31536 7.7574 8.00801 5.29174 4.88196 4.62245 4.41225 4.33578 3.57591 4.18426 3.46032 3.07607 3.04532 2.8495 2.7442 2.67501 2.65835 4.53313 2.46117 2.32582 2.20059 2.16132 2.14015 2.11415 2.08363 2.04658 2.93358 1.96792 1.95733 1.84307 1.7713 1.76974 1.42362 1.22248 1.21242 1.18563 0.96553 0.995242 0.955051 0.953135 0.937467 0.935012 0.927332 0.922121 0.890675 0.793149 0.748083 0.658079 0.647349 0.631225 0.61718 0.616425 0.657449 0.600181 0.581385 0.505022 0.49609 0.365344 0.35437 0.312893 0.297871 0.29587 0.104864 0.10321 0.0891948 0.0494201 0.0278891 0.0244905
threshold=-1.5916000008583067 0.67948076128959667 -0.60276153683662403 -0.86343130469322193 -0.53398320078849781 0.19652230292558673 -1.4556132555007932 0.79813382029533397 -0.82287439703941334 0.7856738567352296 -1.125477075576782 -1.1069689393043516 0.96524789929389965 0.94853666424751293 0.092610801570117487 0.1524230241775513 0.029408221133053306 -0.57525020837783802 -0.63816359639167775 -0.89145144820213307 -0.83958560228347767 0.16489368677139285 0.17130158096551898 -1.3455678224563596 -1.8924056887626646 0.53075048327445995 0.092610801570117487 -1.3910624980926511 -0.63816359639167775 0.59759628772735607 -1.3576400279998777 -1.3242176771163938 0.69786554574966442 1.4984139800071719 -0.97327727079391468 -1.6894596219062803 1.232630252838135 0.65493208169937145 -0.37463472038507456 0.1798110976815224 0.26336812973022466 0.64811712503433239 0.65493208169937145 -1.3593235015869138 -0.80616319179534901 -0.23978930711746213 0.79813382029533397 1.4061723947525027 -0.18854984268546102 1.6003646254539492 -1.2767894864082334 0.48061683773994451 1.1657853722572329 0.5143517702817918 0.62060579657554638 -0.18854984268546102 -1.6918681859970091 0.58088508248329174 1.3208138942718508 1.5471168756484988 -0.026798253878951069 0.49732805788517004 -1.0842100381851194 -1.1571035385131834 0.6143074929714204 0.74799916148185741 -0.10428344085812567 -1.4746205210685728 0.12967646867036822 1.0989395380020144 -0.33824335038661951 1.3439886569976809 0.54746168851852428 -0.93985486030578602 0.69786554574966442 -1.2740830183029173 -1.4411970973014829 1.2975725531578066 -1.6619483232498167 1.2941899895668032 1.3391937613487246 0.68115335702896129 0.33021396398544317 0.60733523964881908 0.068603988736867919 -0.82285231351852406 0.45278316736221319 0.21460897475481036 0.027336971834301952 -0.90169563889503468 -1.4913316965103147 0.65493208169937145 1.0822283029556277 0.27957032620906835 0.84826743602752697 0.71915432810783397 0.041092643514275558 0.73065117001533519 0.89840203523635875 0.092610801570117487 0.6143074929714204 0.95074191689491283 1.0488049387931826 0.23626267164945605 -1.4913316965103147 0.64773091673851024 0.84825891256332409 0.84826743602752697 -0.32913015782833094 -0.28810873627662653 -1.3109450936317442 0.32822409272193914 1.4828012585639956 1.3161872625350954
decision_type=2 2 2 2 2 2 2 2 2 2 2 2 2 2 2 2 2 2 2 2 2 2 2 2 2 2 2 2 2 2 2 2 2 2 2 2 2 2 2 2 2 2 2 2 2 2 2 2 2 2 2 2 2 2 2 2 2 2 2 2 2 2 2 2 2 2 2 2 2 2 2 2 2 2 2 2 2 2 2 2 2 2 2 2 2 2 2 2 2 2 2 2 2 2 2 2 2 2 2 2 2 2 2 2 2 2 2 2 2 2 2 2 2 2
left_child=2 3 18 4 11 16 35 9 -6 10 30 31 19 15 27 42 66 -4 24 25 73 64 53 -20 -1 -7 -18 67 34 -30 50 90 57 40 62 70 41 38 -24 -40 79 45 97 -26 -37 92 47 48 81 61 104 -49 80 -16 55 94 -25 -11 68 100 -41 -35 -29 -64 -21 93 -3 -12 -28 96 -5 82 -73 85 -39 -32 103 95 -46 -23 -14 -42 -50 91 107 -13 -63 -45 -62 -33 -2 -84 -15 -31 -17 -34 -47 -9 -99 -68 -53 -59 -43 -52 -8 -103 -96 -57 -65 -80 -91 -92 -48 -38
right_child=1 5 17 6 8 12 7 13 -10 32 14 20 52 36 22 54 26 -19 23 21 -22 33 37 56 43 -27 58 28 29 65 75 89 77 49 -36 44 113 74 39 60 46 102 -44 87 78 69 112 51 71 -51 76 59 -54 -55 -56 84 -58 101 -60 -61 88 86 63 108 -66 -67 99 -69 -70 -71 -72 72 -74 -75 -76 -77 -78 -79 109 -81 -82 -83 83 -85 -86 -87 -88 -89 -90 110 111 -93 -94 -95 106 -97 -98 98 -100 -101 -102 105 -104 -105 -106 -107 -108 -109 -110 -111 -112 -113 -114 -115
leaf_value=0.063557136025117783 0.03656148520231247 0.10497755455970764 0.13226896971363131 -0.028384593502050488 0.14953483711756191 0.055826371391614275 -0.018624374761137853 -0.027256170312624148 0.060248370436951512 0.0013666870604420818 0.048174830667826594 0.00075887600667774681 -0.021837541471970708 -0.044004741759198468 -0.010274980151506722 0.001109892171364827 0.074611118022709685 0.19812422319558951 0.03859753803020486 -0.0030038698137053572 -0.043523024717102878 0.021071447170311251 -0.016119308353015564 0.084401734320395577 0.0068004198356065903 0.012040652281689372 0.046360334484917769 -0.0021004300203851674 0.0482355792046818 0.02444162560254335 -0.027587224570638495 0.0026591978748462027 -0.036775555436427777 0.0036969769959864407 -0.018714866870194673 -0.051150029564820808 -0.058289777557055153 -0.0023235555584728714 0.040137379172553368 -0.0070275885949329462 0.030879257694996418 -0.052161070593982749 -0.05242278160697577 0.036982758874614392 -0.055061778127185754 -0.025670789097640208 -0.0049268256703891402 0.032655654247368084 0.0068175582042955731 0.013570925714486193 0.0030350198909132316 0.012203951999802181 -0.035002289731329066 -0.032346759942620991 -0.026409629444168369 -0.010196189827384784 0.060972168060449444 -0.010456352629931644 0.054988549244730442 0.024696733210465078 0.015147001508212948 -0.020615695027851089 0.025126488982087098 0.0021162062034044147 -0.021211797666052006 0.0070364887793608879 0.091548289084434506 0.029378461800755991 0.029955375552005194 -0.042278179711103446 -0.04928261993286457 0.022085861879460354 0.00084317500201262991 -0.0171252113186568 -0.018757803104439023 -0.042510233916342254 -0.013753251673572737 -0.022578420141646637 -0.066442253208323698 0.035068452882539965 -0.0097642996002114939 0.01577633742862489 0.00076338590859718945 0.005844398597712225 -0.025948731572129003 -0.010122552691712521 -0.008332869746690166 0.02321773894344057 0.0033347140955428279 0.009201226233903851 0.022612718769564076 -0.0081895277002865131 -0.055569440040857565 0.015071675153094386 -0.003341519259771674 -0.027159476093188122 -0.03643646777500497 -0.035060808851976287 -0.045115443302639599 0.07380653625459814 0.0024382022443626607 -0.014002386865570492 -0.063076015190644694 -0.0046709430088310239 -0.028198401502388365 -0.021845537045385156 -0.010624278674168246 -0.017715032120235261 0.0067807784989112763 -0.076849260381750162 0.014503829826414584 0.029685564479657579 -0.002162698991051534 -0.069686519554028145
leaf_weight=45 74 47 58 40 77 62 42 40 55 42 48 59 75 81 60 60 72 116 51 48 68 69 40 108 47 43 69 43 72 75 79 69 155 45 49 129 116 49 40 48 46 156 150 61 61 81 40 84 76 54 43 53 79 74 65 46 51 43 72 64 58 42 75 41 63 76 59 61 72 114 46 46 48 74 58 68 68 74 218 45 58 42 68 52 42 54 57 41 44 41 51 71 92 62 48 56 46 153 57 66 41 45 65 43 50 69 41 55 40 73 44 41 40 51
leaf_count=45 74 47 58 40 77 62 42 40 55 42 48 59 75 81 60 60 72 116 51 48 68 69 40 108 47 43 69 43 72 75 79 69 155 45 49 129 116 49 40 48 46 156 150 61 61 81 40 84 76 54 43 53 79 74 65 46 51 43 72 64 58 42 75 41 63 76 59 61 72 114 46 46 48 74 58 68 68 74 218 45 58 42 68 52 42 54 57 41 44 41 51 71 92 62 48 56 46 153 57 66 41 45 65 43 50 69 41 55 40 73 44 41 40 51
internal_value=0.000158375 -0.00747272 0.0896856 -0.0185962 0.0235296 0.0197802 -0.0258375 -0.0204382 0.11311 -0.00516035 0.000860525 0.002794 0.00564521 -0.0399202 0.00873152 -0.0289838 0.0663878 0.177088 0.0516828 0.0104535 -0.0187683 0.00797543 -0.00551598 0.0681963 0.0335186 0.0382344 0.0521355 0.0191858 0.015248 0.0240842 -0.021381 0.0200001 -0.0238702 0.0101913 0.00501343 -0.0595266 -0.0501865 0.0013291 0.00729058 0.012309 0.0129805 -0.0469248 -0.0425621 0.0240433 -0.0629026 -0.0421201 0.0108816 0.0125769 0.00785954 -0.00224784 -0.0132466 0.0212364 -0.0236992 -0.0226576 -0.0136769 -0.0107417 0.0773521 -0.012903 0.0441969 0.0149604 0.00463168 -0.00827393 0.0109504 0.0145765 -0.0134888 0.0157051 0.089531 0.038073 0.0382955 -0.0359153 -0.0400696 0.00385382 0.0114247 -0.00955106 -0.0113786 -0.0347715 -0.00658681 -0.0314352 -0.0670355 0.0269057 -0.0167295 0.0239967 0.00113333 -0.00112093 -0.018049 -0.00443165 -0.0137578 0.0317871 0.0101916 0.00798237 0.0309986 -0.00379266 -0.0504733 0.0203846 -0.003615 -0.0343919 -0.0298712 -0.0364365 -0.0380192 0.0828884 0.00807808 -0.0167429 -0.055668 -0.000758398 -0.0241394 -0.0189504 -0.00684393 -0.014483 0.00454747 -0.0693277 0.0121526 0.0261146 -0.0036626 -0.0622
internal_weight=7369 6791 578 4823 707 1968 4116 3549 132 1990 1506 575 1511 1559 1113 757 457 174 404 1299 255 1194 471 210 194 105 285 642 533 285 393 320 484 1083 248 567 802 337 230 190 885 635 400 149 481 414 771 691 449 198 246 242 212 134 357 292 159 199 213 158 150 144 199 156 111 213 172 109 141 241 86 361 94 187 107 147 154 285 352 114 133 88 267 191 143 113 99 102 102 154 166 139 173 137 149 211 127 250 210 125 94 157 221 86 92 114 89 101 81 291 85 92 80 167
internal_count=7369 6791 578 4823 707 1968 4116 3549 132 1990 1506 575 1511 1559 1113 757 457 174 404 1299 255 1194 471 210 194 105 285 642 533 285 393 320 484 1083 248 567 802 337 230 190 885 635 400 149 481 414 771 691 449 198 246 242 212 134 357 292 159 199 213 158 150 144 199 156 111 213 172 109 141 241 86 361 94 187 107 147 154 285 352 114 133 88 267 191 143 113 99 102 102 154 166 139 173 137 149 211 127 250 210 125 94 157 221 86 92 114 89 101 81 291 85 92 80 167
is_linear=0
shrinkage=0.06


Tree=3
num_leaves=120
num_cat=0
split_feature=7 1 9 5 9 7 9 7 7 7 9 9 7 7 1 3 7 9 1 7 3 9 7 7 9 7 5 7 3 0 7 7 1 7 9 7 7 3 9 1 3 7 3 2 7 9 7 9 3 9 7 3 8 9 7 3 7 7 7 7 7 7 7 7 9 7 7 7 4 7 7 5 7 9 7 4 8 9 4 7 9 0 9 7 0 9 7 4 0 7 9 2 9 9 7 8 3 7 7 5 9 4 9 7 7 7 7 4 7 5 7 7 5 5 8 4 7 7 7
split_gain=1238.14 506.418 469.935 362.641 329.093 318.843 175.22 248.996 80.782 63.1688 53.5965 63.5846 52.6434 42.3463 38.3019 37.8577 35.817 35.2055 29.1132 22.5481 22.9834 18.9176 16.1818 13.1486 13.1261 12.9851 12.0001 11.623 11.5477 11.0824 9.83765 9.71283 8.73525 10.2721 8.32795 7.25814 6.85698 6.26284 5.84709 5.82598 5.79376 7.04167 5.3306 5.13365 4.84343 4.81397 4.75023 4.67865 3.96614 6.41446 3.8466 3.75907 3.34938 3.20432 3.03034 2.89723 2.73843 2.72808 2.31684 2.26259 2.21193 2.15261 2.02933 1.94275 1.90489 1.90004 1.85684 1.83738 1.83677 1.73103 1.71529 1.6587 1.63219 1.61751 1.51182 1.38839 1.3203 1.27408 1.18071 1.16431 1.20099 1.12187 0.933785 0.857617 0.819979 0.815888 0.797612 0.759169 0.70561 0.668474 0.576895 0.550243 0.545217 0.534253 0.580564 0.52411 0.518563 0.490119 0.480319 0.475377 0.465147 0.45258 0.44392 0.436801 0.351592 0.349922 0.346508 0.284499 0.272716 0.260031 0.204142 0.123521 0.100222 0.21942 0.0966049 0.07455 0.057332 0.044603 0.00976388
threshold=-1.5916000008583067 0.67948076128959667 -0.60276153683662403 -0.83255985379219044 -0.53398320078849781 0.19652230292558673 -1.4556132555007932 0.79813382029533397 -0.672471523284912 -1.0066996812820432 0.7856738567352296 -1.1117213964462278 1.0320937037467959 0.94853666424751293 0.1524230241775513 0.092610801570117487 0.029408221133053306 -0.56149452924728382 -0.63816359639167775 0.49732805788517004 -0.32913015782833094 1.2941899895668032 -1.3075054287910459 -1.8924056887626646 -1.3455678224563596 -0.78945198655128468 -0.52384456992149342 -1.3409288525581358 0.092610801570117487 0.17130158096551898 -1.3242176771163938 0.69786554574966442 -0.63816359639167775 0.6143074929714204 -1.6894596219062803 -0.97327727079391468 1.232630252838135 0.65493208169937145 0.64811712503433239 -0.90169563889503468 1.7795746922492983 0.79813382029533397 0.65493208169937145 -0.54050752520561207 0.29679055511951452 -1.3593235015869138 -0.80616319179534901 -0.23978930711746213 -0.18854984268546102 1.5471168756484988 0.66444215178489696 0.5143517702817918 0.72552382946014415 0.63436147570610057 -1.6918681859970091 -0.18854984268546102 0.14638768136501315 0.58088508248329174 1.1657853722572329 -1.1738147735595701 0.71457675099372875 -1.1571035385131834 -1.4244858622550962 -0.10428344085812567 -1.1667441129684446 -1.4746205210685728 1.0989395380020144 -0.33824335038661951 -0.57167378067970265 0.69786554574966442 0.74799916148185741 1.3901869058609011 -1.4913316965103147 0.90947490930557262 -0.92314264178276051 1.1118367314338686 0.68916040658950817 -1.6619483232498167 -0.066345751285552965 -1.1738147735595701 -0.79534095525741566 0.27957032620906835 0.20616070926189425 0.63101869821548473 0.21460897475481036 0.068603988736867919 0.73128795623779308 1.1118367314338686 0.27957032620906835 1.0822283029556277 -1.1804997920989988 0.82774528861045849 0.082359660416841521 0.73065117001533519 0.89840203523635875 0.73461404442787182 0.092610801570117487 0.88169082999229442 0.26336812973022466 1.2975725531578066 1.3208138942718508 -0.13390543684363362 0.95074191689491283 1.0488049387931826 0.38034759461879736 1.0320937037467959 -1.4579093456268308 -0.47033214569091791 0.64773091673851024 1.2975725531578066 -0.87300899624824513 0.76471036672592174 0.98885804414749157 1.2049582004547121 -1.3427647948265073 -1.1100937128067014 0.84826743602752697 -0.28810873627662653 -2.0762310028076167
decision_type=2 2 2 2 2 2 2 2 2 2 2 2 2 2 2 2 2 2 2 2 2 2 2 2 2 2 2 2 2 2 2 2 2 2 2 2 2 2 2 2 2 2 2 2 2 2 2 2 2 2 2 2 2 2 2 2 2 2 2 2 2 2 2 2 2 2 2 2 2 2 2 2 2 2 2 2 2 2 2 2 2 2 2 2 2 2 2 2 2 2 2 2 2 2 2 2 2 2 2 2 2 2 2 2 2 2 2 2 2 2 2 2 2 2 2 2 2 2 2
left_child=2 3 18 4 9 16 34 10 59 22 11 30 19 14 42 27 63 -4 23 20 -7 44 72 -1 -20 74 83 65 -18 51 39 57 35 -34 67 61 38 43 47 62 41 48 93 -31 98 -25 -36 89 60 50 76 -17 -42 55 118 71 100 -12 75 -6 -28 -29 81 -3 -32 -13 92 -5 -45 -39 88 95 -2 109 -11 -14 -50 -48 -70 114 -81 -8 -46 -21 -47 101 -51 97 -35 -15 -64 111 105 -9 -95 -16 -65 -43 -22 -78 -30 -57 -59 -40 -84 -49 -41 -74 -104 -33 -76 -75 -23 -114 -24 -38 -44 -79 -26
right_child=1 5 17 6 8 12 7 13 -10 25 31 15 58 36 53 29 28 -19 24 26 21 112 79 45 54 -27 40 32 56 37 64 73 33 70 46 -37 115 69 103 106 52 87 116 68 82 84 77 66 49 86 -52 -53 -54 -55 -56 85 -58 102 -60 -61 -62 -63 90 96 -66 -67 -68 -69 78 -71 -72 -73 107 91 110 -77 99 117 -80 80 -82 -83 104 -85 -86 -87 -88 -89 -90 -91 -92 -93 -94 94 -96 -97 -98 -99 -100 -101 -102 -103 108 -105 -106 -107 -108 -109 -110 -111 -112 -113 113 -115 -116 -117 -118 -119 -120
leaf_value=0.059826608707075526 0.034606582036385163 0.098810124129056945 0.13646516046524049 -0.026723056828466856 0.15282903820818122 0.052471820289152669 0.0037945566163186664 -0.025660687460041624 0.04765936738504644 -0.0086972320141351731 0.0012865928763220477 0.045701917531697639 -0.011453107208961791 -0.041297757556317025 0.0016305652959411267 -0.0091785351347389871 0.070195775463973015 0.19608486656809959 0.03632622215280739 -0.0094208082620484326 0.019161508213442615 0.034691488342756614 0.0065162602766816102 0.0064008952205476819 0.088347051334381102 -0.048893148276765462 0.030227015717533123 0.018109033577144145 0.042076565406003665 -0.0084960391814155236 -0.041510992509666181 -0.027590595184302909 0.040476850506173417 0.022440366448601704 -0.048104636519688826 -0.018157335995582908 -0.049149223644558974 -0.0021869304009899493 -0.049051341092320767 -0.020316354013151589 -0.017115834317219098 0.0053300225393074314 -0.043895704822047896 0.023716738197134758 0.006177795095589465 0.034799582997216812 -0.051811354798655354 -0.019631345739588142 0.0011085772079072499 0.028683879699817921 -0.0082494934715020164 -0.031618822079312436 0.005339630577258947 -0.028642251451100619 0.05738418957820305 -0.017329033456790117 0.031228391481759512 -0.009843230485323479 -0.032928404169576243 0.11702757258848712 0.012214655597805976 0.003205315283574164 -0.018811859729063764 0.086146940612792974 -0.025362094725350989 0.028570000670850276 -0.039763547259310021 -0.046388575566575878 0.0017223575684189231 -0.017651410868201971 0.0066197825562595933 -0.01585684513952583 0.017982523743672801 -0.031861760344998588 -0.016385853574440185 -0.026180516185238957 0.0074215718127254929 -0.062568295372825752 0.014121603095283109 0.0053427153653170497 -0.0056631715838188447 -0.0088251416970316944 0.00077734956488013267 -0.020696531684090521 0.02185784296145929 -0.024428015162778451 0.015827149113764365 -0.008210917135608977 0.012536171815698513 -0.052271124690290424 -0.0085149661507457498 -0.024825787061689104 -0.035006622552508256 -0.03297082052726976 -0.04245518827643887 -0.005832997539455988 0.069444239392209409 -0.0035470661364343701 0.010443139192182571 0.016647201201556758 0.053616630809174635 -0.0084068765875905064 -0.013180507496626966 -0.059348797928203238 -0.0050042416582739844 -0.02947848365383177 -0.029742608468640928 0.025898351574221906 -0.020553529476693696 -0.01926185850506382 -0.023641084313392638 -0.039627579870922809 0.024482731586830179 0.033168388763578922 0.011538684043779293 -0.061012086956296119 -0.05312326989188252 -0.072300616795952261 0.071865362235216002
leaf_weight=45 77 47 89 40 43 63 65 40 67 68 42 45 54 80 66 54 72 85 51 51 69 60 41 47 44 58 57 68 85 55 57 40 72 71 129 40 40 49 156 53 56 40 68 40 73 61 61 47 56 42 71 57 40 41 51 58 75 43 79 43 49 74 40 59 70 77 114 46 52 58 76 41 54 86 48 47 41 211 62 78 64 40 74 58 41 42 44 60 55 92 50 40 40 153 57 66 66 48 47 54 53 42 45 65 73 40 43 58 69 62 57 57 65 40 43 127 82 73 64
leaf_count=45 77 47 89 40 43 63 65 40 67 68 42 45 54 80 66 54 72 85 51 51 69 60 41 47 44 58 57 68 85 55 57 40 72 71 129 40 40 49 156 53 56 40 68 40 73 61 61 47 56 42 71 57 40 41 51 58 75 43 79 43 49 74 40 59 70 77 114 46 52 58 76 41 54 86 48 47 41 211 62 78 64 40 74 58 41 42 44 60 55 92 50 40 40 153 57 66 66 48 47 54 53 42 45 65 73 40 43 58 69 62 57 57 65 40 43 127 82 73 64
internal_value=0.000152061 -0.00702697 0.0843762 -0.017493 0.0194067 0.0186152 -0.0248243 -0.0197764 0.0982242 0.000607131 -0.0052318 0.000634483 0.00531433 -0.0375719 -0.0273037 0.00881764 0.0624716 0.166578 0.0486338 0.00944003 0.0185378 0.0141627 0.0146051 0.0315532 0.0641602 -0.0244694 0.0027269 0.018816 0.0490543 -0.00471481 -0.0190001 -0.0224573 0.0143364 0.0210919 -0.0559475 0.00407361 -0.0472096 0.00101191 -0.0441345 -0.0128106 0.00579247 0.00812418 -0.040035 0.00706454 0.00593389 0.0226323 -0.059155 -0.0396023 0.0121351 0.00860892 0.00315035 -0.0209349 -0.00773895 -0.0129099 0.0727678 -0.0107591 0.0415852 -0.0121441 -0.0250434 0.136548 0.0221486 0.010461 -0.00674969 0.084257 -0.0329246 0.0352581 -0.0337893 -0.0377231 0.0126796 -0.0107109 0.0139875 -0.00544569 0.0275177 -0.0295697 -0.0160126 -0.0185548 0.00856902 -0.0631186 0.00858214 0.0037064 0.000335443 -0.000994246 0.000656761 -0.0156089 0.0299185 -0.0171071 0.0224325 -0.00306135 0.0182971 -0.0474701 -0.0133137 -0.0331534 -0.0281109 -0.0342789 -0.0357626 -0.0020719 0.0779967 0.000435109 0.0157998 0.0128469 0.0469056 -0.0137615 -0.0157605 -0.0523607 -0.00206765 -0.0245105 -0.0248635 0.0223278 -0.0178352 -0.0228224 -0.0205669 -0.0352526 0.0307467 0.0281299 0.00926335 -0.0585159 -0.0492982 -0.0653359 0.0793841
internal_weight=7369 6791 578 4823 799 1968 4024 3464 153 646 1907 1423 1511 1557 756 1005 457 174 404 1331 564 501 415 194 210 231 767 578 285 427 418 484 456 274 560 182 801 316 634 291 658 562 400 209 336 149 474 413 414 308 222 111 96 356 159 315 213 199 180 86 106 142 195 172 127 122 241 86 154 107 202 173 189 285 173 101 151 345 114 226 142 105 220 109 102 142 86 148 126 172 90 183 127 250 210 132 125 88 116 95 138 100 157 221 147 87 96 112 114 102 105 143 165 105 84 167 150 284 108
internal_count=7369 6791 578 4823 799 1968 4024 3464 153 646 1907 1423 1511 1557 756 1005 457 174 404 1331 564 501 415 194 210 231 767 578 285 427 418 484 456 274 560 182 801 316 634 291 658 562 400 209 336 149 474 413 414 308 222 111 96 356 159 315 213 199 180 86 106 142 195 172 127 122 241 86 154 107 202 173 189 285 173 101 151 345 114 226 142 105 220 109 102 142 86 148 126 172 90 183 127 250 210 132 125 88 116 95 138 100 157 221 147 87 96 112 114 102 105 143 165 105 84 167 150 284 108
is_linear=0
shrinkage=0.06


Tree=4
num_leaves=119
num_cat=0
split_feature=5 1 9 8 9 5 8 1 1 4 5 9 3 3 4 1 9 4 9 5 3 9 5 1 4 4 9 9 9 9 5 9 9 3 9 9 9 9 1 3 4 9 9 4 1 5 9 9 5 9 9 8 3 9 9 4 4 9 5 4 6 0 6 9 4 9 9 9 5 4 9 8 3 3 9 3 9 3 3 8 3 9 4 2 3 9 9 9 5 5 2 0 4 0 8 2 0 2 2 0 8 2 4 8 9 6 0 9 0 9 4 9 4 2 4 2 3 4
split_gain=1021.81 407.82 397.61 346.936 170.689 174.346 161.407 115.427 98.2942 81.6276 68.2669 52.4066 50.3669 39.0291 35.5005 26.2916 25.7656 25.6385 22.6949 21.3654 21.3162 17.9109 14.0102 13.8324 13.2349 12.9381 11.8313 18.4645 12.9354 11.4684 11.0911 9.97733 9.34516 11.964 9.33646 9.22338 9.08567 8.97884 10.3229 8.21157 8.2106 7.799 7.3797 6.92856 6.21528 5.25234 5.22047 4.57481 4.35339 4.34662 4.03922 3.9846 3.70105 3.43398 3.33056 5.13238 3.11393 3.00642 3.83096 2.85285 2.84221 2.91934 2.71501 2.63988 2.61252 2.49324 2.33582 2.1723 2.17198 3.14419 2.12578 2.10775 1.97608 1.83816 1.73479 1.70447 2.79662 1.59455 1.5279 1.45734 1.2393 1.15914 1.10587 0.817527 0.79386 0.793166 0.786161 0.763723 0.735187 0.705369 0.680725 0.598816 0.589717 0.585813 0.55524 0.517868 0.957275 0.485429 0.478643 0.459576 0.422955 0.401538 0.387121 0.386034 0.370011 0.358197 0.350585 0.336972 0.300034 0.295839 0.290815 0.224931 0.204689 0.442683 0.181459 0.148513 0.0914448 0.0554373
threshold=-1.2647601962089536 0.67948076128959667 -0.60276153683662403 -1.2109395265579221 -1.4556132555007932 -0.61645966768264759 0.1754933372139931 -0.63816359639167775 0.41595189273357397 -0.60545364022254933 -0.77081695199012745 -1.3593235015869138 1.4984139800071719 0.5143517702817918 -0.84053975343704213 1.4700673818588259 -0.57525020837783802 -0.33589969575405115 -0.65778425335884083 -0.46210168302059168 -0.89145144820213307 -0.10666989907622336 0.68014276027679454 1.2065384984016421 -0.53789392113685597 -0.67232638597488392 -1.2767894864082334 -1.125477075576782 -1.3593235015869138 0.16489368677139285 0.71101421117782604 -0.37290871143341059 -0.026798253878951069 0.23319111764431003 -1.0154317021369932 1.0882986783981325 1.6536123752593996 0.63436147570610057 -1.692285358905792 0.092610801570117487 1.0111852288246157 -1.6757040023803709 -0.42615647614002222 0.97740429639816295 1.7335962653160097 -0.92517420649528492 -1.2355224490165708 -0.093357957899570451 1.2975725531578066 -0.86411932110786427 -0.63027289509773243 0.96644482016563427 -1.4537760615348814 0.3024504035711289 -0.066734075546264635 -0.33589969575405115 -0.40346042811870569 0.24742772430181506 -0.83255985379219044 0.2700809538364411 -0.08627621084451674 0.19295527786016467 -1.0190532207489011 0.24742772430181506 -0.40346042811870569 0.44000713527202612 -1.4005905389785764 -1.001676023006439 0.52578550577163707 0.67406946420669567 -0.75407394766807545 -0.86546930670738209 -0.61029079556465138 -0.32913015782833094 1.6003646254539492 -1.0320318043231962 0.7994295358657838 -0.46971046924591059 0.092610801570117487 -1.2291253209114072 -0.61029079556465138 -0.066734075546264635 -0.57167378067970265 0.87118187546730053 -1.172612130641937 1.3740616440773012 -1.0842100381851194 0.93698623776435863 0.83450001478195202 1.6371585130691531 -0.67081829905509938 0.43114647269248968 0.2700809538364411 0.25791636854410177 -0.9518354833126067 -0.12786052748560903 0.34453167021274572 0.54540804028511058 0.45853486657142645 0.25791636854410177 0.90735188126564037 0.56712579727172863 -1.1438745856285093 -1.5336830019950864 0.52254116535186779 -0.83249902725219715 0.21460897475481036 0.3437174260616303 0.23626267164945605 1.1979002952575686 1.2131794691085818 -0.69905126094818104 1.0780558586120608 0.7408721148967744 -0.40346042811870569 0.87118187546730053 -1.7349367737770078 0.13564850017428401
decision_type=2 2 2 2 2 2 2 2 2 2 2 2 2 2 2 2 2 2 2 2 2 2 2 2 2 2 2 2 2 2 2 2 2 2 2 2 2 2 2 2 2 2 2 2 2 2 2 2 2 2 2 2 2 2 2 2 2 2 2 2 2 2 2 2 2 2 2 2 2 2 2 2 2 2 2 2 2 2 2 2 2 2 2 2 2 2 2 2 2 2 2 2 2 2 2 2 2 2 2 2 2 2 2 2 2 2 2 2 2 2 2 2 2 2 2 2 2 2
left_child=2 3 18 7 41 9 13 17 19 10 14 -9 15 22 -6 20 -4 26 79 21 30 31 23 -3 -13 51 28 46 -2 108 -8 56 -10 48 62 37 74 47 72 54 85 91 -12 63 57 -16 103 100 65 64 -20 90 -26 -25 55 67 78 -15 -59 -35 61 -51 -29 99 -41 -34 -19 -11 -65 117 114 -43 84 -68 88 76 -40 104 -7 111 -71 -23 -48 95 87 -17 -64 116 -14 -76 -21 -5 -62 -77 -69 -45 101 -33 -82 -31 -27 -97 -53 -28 -67 -66 -79 -55 -22 -90 -37 -1 -38 -114 -36 -100 -39 -70
right_child=1 6 16 4 5 8 12 11 32 39 42 24 36 44 45 40 -18 66 50 25 29 81 -24 53 52 35 27 34 -30 43 -32 97 33 59 70 110 112 38 75 49 -42 71 -44 83 -46 -47 82 -49 -50 60 -52 102 -54 107 -56 -57 -58 58 -60 -61 92 -63 86 68 105 77 73 94 69 80 -72 -73 -74 -75 89 93 -78 106 -80 -81 98 -83 -84 -85 -86 -87 -88 -89 109 -91 -92 -93 -94 -95 -96 96 -98 -99 115 -101 -102 -103 -104 -105 -106 -107 -108 -109 -110 -111 -112 -113 113 -115 -116 -117 -118 -119
leaf_value=0.022249553815207698 0.00300071221699075 0.036519560380857817 0.11664847937706978 -0.043657275324351472 0.026778571034183921 -0.0011339598779034402 0.05412195256582715 0.0011795373841055801 -0.027888158587065146 0.014712732426325481 0.010308021457929624 0.10866512680780598 -0.0021295361589374288 0.0068263979230379305 0.10394100599754148 0.053353349850532854 0.16972694886007972 -0.024116496127215212 0.045917791967945432 -0.029368642032777857 -0.014717227288031657 -0.0081496054100990284 0.032514957434851027 0.055505264654078269 0.078045627479553223 -0.02077284320869616 0.0090236111837128791 0.038512072534859179 0.045497304993569847 0.0097259477980106198 0.012570796789688079 -0.033770991803940248 0.020524343174438742 -0.0041873520328602814 0.0034064887285232539 -0.0081914069952397812 -0.018637882379194101 -0.022958942003846166 -0.041104922621964329 -0.0083325292274387449 0.018179519152796978 -0.047501514709323921 -0.020574924570322038 0.0046761995086171586 0.046559953513352764 0.067395523109087127 -0.0092830659203231337 -0.005141254922646013 -0.010132484755913416 -0.0087465453459349054 0.071379581713676463 -0.041306585641156107 0.05098255628228187 0.084851365577342908 0.01415864091060298 -0.017409081994899007 -0.027223205735359121 0.037978264217620544 0.016593174767895385 -0.020202771791874356 -0.0096964416591716653 0.0092854770082980397 0.014908509149751132 0.029470450567205743 -0.020407807070378432 0.0081388713120663109 0.0016337039756842632 0.0031670262820663901 0.0063508113829373585 0.0091958225007568086 0.015942604078250853 -0.059259666616107855 -0.034797661999176284 -0.01350065087221832 0.0080988538934195289 -0.045956821485715255 -0.027263797184560918 -0.0028675985902547837 -0.016357658320665356 0.01363600501023926 0.015962861852544658 0.0034809657205194531 -0.02269155608799036 0.0076226030710750993 -0.01574140119507909 0.03894271205514669 0.026403658719644656 -0.016928060459372188 -0.015042689284110178 -0.0026111970427559641 -0.040000533483093605 -0.032013742295741027 -0.019681365544839603 -0.038802796871811152 -0.0049163068945073697 0.0049011704767790605 -0.009340627097270706 -0.043584637220591714 0.02813585923247687 0.0021321300142112054 -0.031007636603915083 -0.0023533801961623663 -0.051667621316903452 0.00082907652387092276 0.015841350474627688 -0.029126571705298761 0.0043348679912921318 0.069836563806350407 -0.0077474212518168816 -0.0071511240462924161 -0.016015853619435801 0.030676481140010498 -0.029082809531732517 -0.018683129295706747 -0.0020418079697660037 0.020525012067626584 -0.029441609462394432 0.0026844792310148475
leaf_weight=43 40 48 61 60 66 41 54 41 46 44 72 40 55 42 40 46 128 47 55 58 56 49 57 43 49 41 44 59 74 67 42 80 62 76 44 40 71 49 151 58 66 108 44 60 45 40 59 54 44 69 59 52 49 85 58 56 67 54 77 88 62 59 46 44 67 61 43 62 40 41 54 345 86 82 46 209 102 44 59 42 52 79 40 66 49 59 62 41 41 40 99 58 40 149 58 52 43 72 45 55 58 55 187 42 47 48 51 64 53 42 47 67 50 41 41 51 101 40
leaf_count=43 40 48 61 60 66 41 54 41 46 44 72 40 55 42 40 46 128 47 55 58 56 49 57 43 49 41 44 59 74 67 42 80 62 76 44 40 71 49 151 58 66 108 44 60 45 40 59 54 44 69 59 52 49 85 58 56 67 54 77 88 62 59 46 44 67 61 43 62 40 41 54 345 86 82 46 209 102 44 59 42 52 79 40 66 49 59 62 41 41 40 99 58 40 149 58 52 43 72 45 55 58 55 187 42 47 48 51 64 53 42 47 67 50 41 41 51 101 40
internal_value=-3.23704e-05 -0.00570388 0.0869923 -0.0148295 -0.0224984 -0.0174996 0.0172821 0.0176666 -0.0256795 0.00452188 0.0329185 0.0609679 0.00715573 0.0461638 0.0600746 0.0137669 0.153331 0.00761783 0.0394363 -0.0316611 0.00970354 -0.0199786 0.0603294 0.0667481 0.0785517 -0.0349624 0.0134306 0.00933254 0.0307941 0.00653945 0.0363222 -0.0275669 -0.00237073 0.000151825 0.0183623 -0.0317243 -0.0114336 -0.0332306 -0.0354498 -0.00642657 0.0353151 -0.0528871 -0.00143065 0.00932322 0.0266501 0.0868 -0.00558938 -0.019459 0.00711109 -0.0118898 0.0596537 -0.0444674 0.0652264 0.0740457 0.00148593 -0.00187685 -0.0172159 0.0211989 0.0256748 -0.0128877 -0.00640234 -0.000380849 0.0278979 0.0140348 -0.0190721 0.0100241 -0.012753 0.00346384 0.0169631 0.0147935 0.00674557 -0.0565804 -0.0266068 -0.00827517 -0.00354204 -0.040107 -0.0356776 0.00670277 -0.0102484 0.0239433 0.0190095 -0.000953512 -0.0149334 0.0018518 -0.0235147 0.0457563 0.0217443 -0.0253853 -0.00770176 0.00307571 -0.0363215 -0.0383017 -0.0138234 -0.0431124 -0.000698673 0 -0.00187427 -0.0387133 0.0216079 0.00639645 -0.0270791 0.00112938 -0.0496198 0.00514612 0.0116605 -0.0243184 0.000941367 0.0789506 -0.011484 -0.0112535 -0.0126206 0.0276665 -0.0222199 -0.0247165 0.000715536 0.0244077 -0.0275297 0.00464749
internal_weight=7452 6997 455 5009 4053 3482 1988 956 2539 943 262 179 1473 515 146 1087 189 777 266 2020 916 447 297 240 138 1573 605 491 114 820 96 319 519 473 306 1177 386 1090 937 681 171 571 116 711 218 80 185 153 309 403 114 396 98 192 278 220 167 173 131 164 230 128 167 435 173 265 172 164 313 269 139 453 326 125 224 611 253 203 100 152 189 128 99 276 240 105 108 191 138 86 157 118 102 358 120 210 150 152 148 122 99 107 239 86 108 115 95 149 109 83 87 110 162 91 85 96 150 80
internal_count=7452 6997 455 5009 4053 3482 1988 956 2539 943 262 179 1473 515 146 1087 189 777 266 2020 916 447 297 240 138 1573 605 491 114 820 96 319 519 473 306 1177 386 1090 937 681 171 571 116 711 218 80 185 153 309 403 114 396 98 192 278 220 167 173 131 164 230 128 167 435 173 265 172 164 313 269 139 453 326 125 224 611 253 203 100 152 189 128 99 276 240 105 108 191 138 86 157 118 102 358 120 210 150 152 148 122 99 107 239 86 108 115 95 149 109 83 87 110 162 91 85 96 150 80
is_linear=0
shrinkage=0.06


Tree=5
num_leaves=120
num_cat=0
split_feature=7 7 9 9 1 7 9 7 1 7 3 9 7 6 9 1 7 7 9 7 4 1 9 7 5 7 9 1 9 7 7 7 7 9 7 6 7 3 5 7 9 7 5 7 1 4 7 9 7 7 7 9 7 9 9 7 3 9 3 6 7 7 7 7 7 8 7 7 9 7 7 5 7 4 7 9 7 5 7 9 7 9 9 0 7 7 9 9 5 7 3 7 9 7 5 7 7 5 7 7 7 7 8 9 3 7 7 9 7 0 7 8 1 0 5 3 0 8 8
split_gain=974.613 419.634 548.713 310.03 174.011 276.791 156.851 87.9572 67.3375 45.0561 40.8942 37.4374 46.1775 32.8839 28.3157 28.2286 23.9761 21.1789 17.1333 16.3873 15.8661 15.7424 14.8989 14.5513 13.9511 11.7221 11.1492 10.7783 10.7065 11.0074 9.86387 8.78606 8.24099 6.40265 5.5593 5.4307 5.41155 5.31798 4.73621 4.644 4.55565 4.1656 3.86299 3.82425 3.53764 3.47568 2.88922 2.77535 2.69883 2.66309 2.54601 2.35898 2.33128 2.32601 2.15706 2.38492 2.10216 2.08999 1.97488 1.85297 1.79854 1.79269 1.64313 1.64133 1.58823 1.75698 1.55242 1.5437 1.48401 2.7004 1.37201 1.3586 1.35594 1.35272 1.33181 1.30447 1.14296 1.67089 1.29962 1.08491 1.07837 1.07272 1.29976 1.02372 1.02274 0.915068 0.90382 0.776283 0.773823 0.759264 0.727349 0.659003 0.639939 0.604803 0.583974 0.579035 0.56484 0.50082 0.497629 0.465211 0.450163 0.443389 0.427768 0.411735 0.364511 0.334804 0.322165 0.320773 0.551107 0.28754 0.271315 0.266226 0.248527 0.140648 0.134142 0.0862137 0.080657 0.0496345 0.0389229
threshold=-1.6417346000671384 0.79813382029533397 -1.3868348598480222 -0.58900588750839222 -0.90169563889503468 0.26336812973022466 -0.67153990268707264 1.0000000180025095e-35 0.41595189273357397 -0.92314264178276051 1.0000000180025095e-35 -0.53398320078849781 -0.82287439703941334 1.3439886569976809 -1.1117213964462278 -0.63816359639167775 -1.1069689393043516 -1.3576400279998777 0.27493907511234289 -1.2239483594894407 0.97740429639816295 1.0000000180025095e-35 -1.3318121433258054 0.98195910453796398 -0.46210168302059168 1.0320937037467959 -0.56149452924728382 0.1524230241775513 0.068603988736867919 0.59759628772735607 -1.3075054287910459 0.6143074929714204 -1.8924056887626646 -1.6894596219062803 -1.9592515230178831 0.10028097406029703 0.49732805788517004 0.65493208169937145 0.95798584818840038 1.2660536170005801 1.5604287981987002 -0.80616319179534901 -0.3386158794164657 -1.3576400279998777 0.67948076128959667 0.2700809538364411 0.66444215178489696 0.64811712503433239 -1.4244858622550962 -1.4746205210685728 0.63101869821548473 0.48127414286136633 -0.93985486030578602 -0.61651721596717823 1.6536123752593996 1.1657853722572329 0.5143517702817918 -1.3593235015869138 -0.32913015782833094 -0.21064370870590207 -0.33824335038661951 0.74799916148185741 -0.97327727079391468 0.71457675099372875 0.38034759461879736 0.57096907496452343 0.16309889405965808 -0.13770586252212522 1.6269885301589968 0.88169082999229442 0.1798110976815224 -1.0486600399017332 0.71457675099372875 1.1118367314338686 0.89840203523635875 -1.0842100381851194 0.69786554574966442 0.92711439728736889 -0.8562977910041808 -1.1667441129684446 0.88169082999229442 0.5775638520717622 1.5604287981987002 0.27957032620906835 0.71457675099372875 -1.2573717832565305 -1.6619483232498167 0.19240503013134005 1.3284440040588381 0.1798110976815224 0.5143517702817918 -0.28810873627662653 0.88196355104446422 -1.5080429315567014 -0.30774442851543421 -1.3242176771163938 -1.0568343400955198 1.4210583567619326 -1.7587140202522276 0.86497962474823009 -0.75602856278419484 0.86497962474823009 0.45278316736221319 0.21991638094186786 1.9201549887657168 0.31350275874137884 0.76471036672592174 -0.71280694007873524 -1.4746205210685728 0.30122427642345434 0.63101869821548473 0.80734631419181835 0.94300961494445812 0.23626267164945605 -0.52384456992149342 -0.32913015782833094 0.30122427642345434 0.72552382946014415 0.85280534625053417
decision_type=2 2 2 2 2 2 2 2 2 2 2 2 2 2 2 2 2 2 2 2 2 2 2 2 2 2 2 2 2 2 2 2 2 2 2 2 2 2 2 2 2 2 2 2 2 2 2 2 2 2 2 2 2 2 2 2 2 2 2 2 2 2 2 2 2 2 2 2 2 2 2 2 2 2 2 2 2 2 2 2 2 2 2 2 2 2 2 2 2 2 2 2 2 2 2 2 2 2 2 2 2 2 2 2 2 2 2 2 2 2 2 2 2 2 2 2 2 2 2
left_child=3 2 17 15 9 6 16 11 23 14 31 -8 -13 27 30 32 43 93 44 49 35 -14 34 24 101 38 -5 50 84 64 48 58 -1 60 -17 -20 102 47 80 42 46 -35 59 107 -9 -31 88 -26 83 -16 -12 72 -18 98 -27 73 76 -34 -7 -25 -19 -53 71 110 103 87 -22 -23 69 81 -37 -21 115 -56 117 -51 77 78 -11 -50 90 -40 -83 114 -29 -32 -43 -66 -38 -46 -10 -88 -78 -2 -52 -77 -73 -71 -24 -39 -58 -3 -15 -30 -57 -105 -86 -6 -109 -94 -47 -76 -89 -45 -4 -33 -112 -49 -119
right_child=1 8 4 26 5 10 7 18 25 56 13 12 21 36 19 22 52 33 20 62 66 67 53 39 37 54 -28 28 29 45 85 51 57 41 -36 70 40 99 68 -41 -42 86 -44 113 89 63 -48 74 79 75 94 61 -54 -55 55 104 100 -59 -60 -61 -62 -63 -64 -65 65 -67 -68 -69 -70 97 -72 96 -74 -75 111 95 92 -79 -80 -81 -82 82 -84 -85 106 -87 91 112 -90 -91 -92 -93 109 -95 -96 -97 -98 -99 -100 -101 -102 -103 -104 105 -106 -107 -108 108 -110 -111 116 -113 -114 -115 -116 -117 -118 118 -120
leaf_value=0.05272490348460826 -0.013217952275772889 -0.0042194365151438182 0.0066726402490248169 0.13079520196601993 0.031826328627765181 0.038445123244976169 0.036527240438461298 0.004249000210581182 -0.0088818308423140226 -0.014276844457705627 -0.012633749614159267 0.12456468617033074 0.043450751259922982 0.018670358054637907 0.038560930609703059 0.059678785486919121 -0.0042648004217526363 -0.02276245683206745 0.070124953234195708 -0.0034106374032904993 0.034796744888211238 0.090637658651195357 0.075550656372187081 -0.04205272527221296 -0.018962668954705195 -0.036735211659755025 0.17494751690579699 0.018434513746173647 0.0095948938088627859 -0.0030801143146990265 -0.021667345351974166 0.016119416718132967 0.010961533316519372 -0.042945269331058362 0.0271960063599558 0.051739726556567701 0.0051564441680655637 -0.039044708884229042 0.0062833883126362971 -0.055083482232134225 0.021515756565767031 -0.045660822303593154 -0.047273778966312241 0.0083589210329577338 0.030290580348768196 -0.011074226228054613 -0.0055157106133882665 -0.031792769887471851 -0.017678136610669925 0.011766753511445131 -0.034293827548276541 0.026608966422347086 -0.01973432669536896 0.088957674443721782 -0.0064377628510197005 -0.02315797992450435 -0.02487254608461633 0.028538330226926735 0.022230318582079443 -0.031690587021286291 -0.041589575289487833 0.012286772297585711 -0.0092672916447122892 -0.027107248456997645 -0.0010965095595932546 0.0049672511213862186 0.019778554691467432 0.072897093759392795 0.0058875721710569722 -0.0089318916313708401 0.037939283061400056 0.01089889899995734 0.0018610990528124742 -0.021962216796619551 -0.044277937112784965 0.029681273437598167 -0.018468975978431761 -0.0086623219835626729 -0.029152028587460514 -0.0053241669103617269 -0.024755026581612497 -0.011533029713326445 0.0027584475233503004 -0.0069320225362976395 0.010370167509509393 -0.035773775945231318 -0.054724063977220301 -0.0053312985373712663 0.016003005782266457 0.018285666614770889 -0.019544989551531104 -0.065289107723236081 -0.022708687368418964 -0.023688749386142165 -0.022006101787090299 0.018704092496598605 0.0027647192662116136 -0.018591889327800856 0.057840328582497526 -0.049150323816264663 -0.035618280346532735 -0.012910292053923888 0.027641483681350942 0.0061876769225512234 -0.034186176612609767 -0.00094969560958158505 0.0029528120624897785 0.028504899215698241 0.017076128797923647 -0.031046424379045107 -0.019475645187908137 -0.034521316121518611 -0.01110265227466287 0.013904274562510048 0.001578912228878055 0.010570015216578863 -0.014004485426301306 -0.021795970533497449 -0.028506415032079582
leaf_weight=46 44 43 42 60 47 86 74 40 69 52 71 80 62 49 41 40 82 40 59 67 48 66 48 138 71 48 76 45 40 60 44 42 42 160 43 126 58 90 55 117 71 59 232 59 60 47 73 72 62 47 42 69 63 55 44 40 49 70 51 179 49 67 44 73 73 66 71 105 50 51 59 66 64 41 40 50 76 67 44 48 43 44 45 44 51 44 235 53 44 43 40 74 66 57 42 47 63 40 42 71 50 50 74 41 40 51 42 44 40 52 68 104 80 40 41 41 43 40 64
leaf_count=46 44 43 42 60 47 86 74 40 69 52 71 80 62 49 41 40 82 40 59 67 48 66 48 138 71 48 76 45 40 60 44 42 42 160 43 126 58 90 55 117 71 59 232 59 60 47 73 72 62 47 42 69 63 55 44 40 49 70 51 179 49 67 44 73 73 66 71 105 50 51 59 66 64 41 40 50 76 67 44 48 43 44 45 44 51 44 235 53 44 43 40 74 66 57 42 47 63 40 42 71 50 50 74 41 40 51 42 44 40 52 68 104 80 40 41 41 43 40 64
internal_value=-2.49882e-05 -0.00598551 0.0032897 0.0789547 0.0114875 0.0191259 0.0405296 0.0541934 -0.0294808 -0.00779354 0.00383547 0.0757487 0.0848565 -0.00122784 0.00124629 0.0512451 0.00791793 -0.0451862 0.0375787 0.0114369 0.0445272 0.0707231 0.0647956 -0.0373103 -0.0307474 -0.0136471 0.156609 -0.00693971 -0.00421445 -0.00725152 -0.0120557 0.0201731 0.0313688 -0.0493659 0.0434459 0.0533339 0.0140269 -0.0343703 -0.00797028 -0.0436016 0.00879084 -0.0519535 -0.041048 0.0199399 0.0197118 -0.0161281 0.00350115 -0.0303645 -0.00560214 0.0248059 -0.0214265 0.0140147 -0.0111163 0.0765942 -0.0251741 -0.0215736 -0.022645 0.0221555 0.0326573 -0.0363385 -0.0335415 0.0197382 0.00104654 -0.0194634 -0.000818894 -0.00344887 0.0261258 0.0802664 -0.00335905 -0.00536845 0.0475984 0.00342764 0.0085814 -0.0141641 -0.0328086 0.0206093 -0.0203257 -0.0162778 -0.0213867 -0.0124379 -0.0164987 -0.000194676 -0.00428998 0.000322631 0.0109799 -0.0291107 -0.0557269 -0.00618525 0.0100035 0.0255605 -0.0129916 -0.057476 -0.0235951 -0.0193603 -0.0285517 0.0246688 0.00702437 -0.0133992 0.0680782 -0.0438141 -0.0306616 -0.00904341 0.0242954 0.00454052 -0.0291001 0.00219891 0.00715127 0.0266856 0.0233981 -0.0266634 -0.0157458 -0.0375595 -0.00890451 0.0107761 0.00427664 0.013608 -0.0175537 -0.0286973 -0.0262148
internal_weight=7452 6930 4969 522 4251 3045 1268 893 1961 1206 1777 387 313 1357 750 386 375 718 506 425 363 233 228 1311 645 650 136 988 833 695 325 420 158 617 83 244 369 552 437 666 246 528 549 230 143 291 175 391 237 185 155 283 145 145 213 165 456 112 137 317 89 136 240 231 404 272 119 171 285 235 185 196 147 85 320 144 357 163 96 110 152 144 89 127 138 88 368 206 102 103 109 309 194 101 84 97 129 91 90 161 99 93 123 132 80 92 93 131 84 118 158 144 133 99 83 83 111 176 104
internal_count=7452 6930 4969 522 4251 3045 1268 893 1961 1206 1777 387 313 1357 750 386 375 718 506 425 363 233 228 1311 645 650 136 988 833 695 325 420 158 617 83 244 369 552 437 666 246 528 549 230 143 291 175 391 237 185 155 283 145 145 213 165 456 112 137 317 89 136 240 231 404 272 119 171 285 235 185 196 147 85 320 144 357 163 96 110 152 144 89 127 138 88 368 206 102 103 109 309 194 101 84 97 129 91 90 161 99 93 123 132 80 92 93 131 84 118 158 144 133 99 83 83 111 176 104
is_linear=0
shrinkage=0.06


Tree=6
num_leaves=117
num_cat=0
split_feature=7 7 9 9 7 9 7 1 7 1 7 1 9 7 3 9 3 1 7 7 7 9 9 7 1 9 7 9 7 7 7 1 7 7 7 9 5 9 9 7 9 7 3 4 5 7 7 5 7 9 7 7 3 7 9 9 9 9 9 7 3 7 2 7 9 9 7 7 4 2 2 7 7 9 7 7 2 1 7 9 7 9 9 9 3 9 9 5 7 2 7 7 5 5 3 3 8 7 9 6 3 8 4 9 7 7 7 7 7 8 5 7 2 9 7 8
split_gain=860.794 360.525 474.08 320.959 176.665 262.863 102.976 69.8864 61.9049 58.6017 55.5164 30.1834 26.5154 37.9805 25.2485 20.1897 19.5556 15.9101 15.6135 14.0956 11.8388 11.6282 10.9451 10.8138 10.3861 8.48256 8.0374 7.78478 7.50465 7.29775 6.32269 5.87792 5.32552 5.28895 4.58248 4.53231 4.41737 4.32422 4.25834 4.14526 4.12197 4.60889 3.95705 3.74795 3.5239 3.41959 3.37357 3.19035 3.40116 2.93368 2.46257 2.40625 2.26551 2.23921 1.9765 1.846 1.66944 1.6109 1.55598 1.5387 1.51357 1.44764 1.33024 1.28976 1.24963 1.24389 1.23761 1.23326 1.41552 1.18957 1.37402 1.09348 1.0928 1.35875 1.08413 1.05226 0.989083 0.98023 0.959099 0.935245 0.922438 0.895753 0.867136 0.921846 0.79244 0.738051 0.737809 0.699528 0.681359 0.651555 0.640641 0.613964 0.580394 0.578187 0.577425 0.522476 0.480439 0.619159 0.444837 0.40846 0.39763 0.356253 0.330719 0.310766 0.254733 0.453184 1.31858 0.23758 0.232782 0.148034 0.105402 0.0947429 0.0814359 0.0539584 0.0385183 0.0246954
threshold=-1.5916000008583067 0.79813382029533397 -1.125477075576782 -0.58900588750839222 0.29679055511951452 -0.67153990268707264 1.0000000180025095e-35 0.1524230241775513 -1.2239483594894407 0.41595189273357397 -1.0066996812820432 -0.63816359639167775 -0.53398320078849781 -0.82287439703941334 1.0000000180025095e-35 1.3740616440773012 -0.32913015782833094 1.0000000180025095e-35 -1.3576400279998777 0.14638768136501315 0.98195910453796398 -1.3455678224563596 0.068603988736867919 0.96524789929389965 0.1524230241775513 -0.56149452924728382 -1.8589823246002195 0.27493907511234289 0.6143074929714204 0.59759628772735607 -0.83958560228347767 -0.37463472038507456 -1.3743512630462644 0.49732805788517004 0.69786554574966442 1.3208138942718508 0.95798584818840038 1.6269885301589968 1.5471168756484988 1.2660536170005801 -0.61651721596717823 -2.0762310028076167 0.65493208169937145 0.2700809538364411 -0.3386158794164657 0.66444215178489696 1.1824966073036196 -0.46210168302059168 -1.7252916097640989 -1.2767894864082334 -1.4913316965103147 0.88169082999229442 -1.0320318043231962 -1.1738147735595701 -1.7032153010368345 0.48127414286136633 -1.0429430603981016 -0.15991766005754468 -0.82285231351852406 -0.28810873627662653 -0.61029079556465138 0.46390463411808019 -0.040987364016473286 0.71457675099372875 1.6003646254539492 0.5775638520717622 -0.10428344085812567 1.0655161142349245 1.1118367314338686 -0.19301487505435941 0.58884355425834667 0.21323350816965106 0.89840203523635875 0.75816252827644359 0.73128795623779308 0.69786554574966442 0.54540804028511058 0.67948076128959667 0.74799916148185741 0.52254116535186779 -0.92314264178276051 -0.98792037367820729 -1.0842100381851194 -0.71280694007873524 0.23319111764431003 0.19240503013134005 -0.78158527612686146 1.2049582004547121 1.0655161142349245 0.30650527775287634 0.71457675099372875 -1.1069689393043516 1.3284440040588381 -0.3386158794164657 0.092610801570117487 -0.32913015782833094 0.23004526644945147 0.36363638937473303 1.1295656561851504 -1.0190532207489011 -1.0320318043231962 0.74370691180229198 0.37142364680767065 0.19240503013134005 -0.92314264178276051 -0.50535744428634632 -0.2713975310325622 0.84826743602752697 -1.2740830183029173 0.63460847735404979 -0.92517420649528492 -1.4913316965103147 0.54540804028511058 -0.93289768695831288 0.84826743602752697 0.68916040658950817
decision_type=2 2 2 2 2 2 2 2 2 2 2 2 2 2 2 2 2 2 2 2 2 2 2 2 2 2 2 2 2 2 2 2 2 2 2 2 2 2 2 2 2 2 2 2 2 2 2 2 2 2 2 2 2 2 2 2 2 2 2 2 2 2 2 2 2 2 2 2 2 2 2 2 2 2 2 2 2 2 2 2 2 2 2 2 2 2 2 2 2 2 2 2 2 2 2 2 2 2 2 2 2 2 2 2 2 2 2 2 2 2 2 2 2 2 2 2
left_child=3 2 8 11 5 10 12 34 32 20 18 26 -7 -14 28 22 -8 -15 50 27 24 -13 74 36 42 -5 -1 -18 95 61 80 54 49 -17 62 71 94 -25 45 44 41 -23 72 -31 57 92 67 -28 -49 111 -4 -26 89 56 -10 90 -20 -22 81 -33 -34 85 -6 -57 65 79 -19 -39 -69 -51 -71 112 100 -74 -16 98 -64 -63 -40 -38 110 -55 -52 -84 -29 -24 -58 -65 -59 -36 -30 -60 -35 -53 -11 -9 -87 -98 -45 -62 115 -54 -73 -79 -56 -106 -107 -67 -88 -96 -12 -2 -21 -82 -44 -3
right_child=1 9 4 25 7 6 16 14 31 23 30 21 13 17 15 33 19 66 53 35 39 40 29 37 51 -27 47 84 55 43 -32 59 60 38 52 -37 64 46 78 -41 -42 -43 114 75 -46 -47 -48 48 -50 69 82 93 101 58 104 63 86 88 91 -61 99 77 76 87 -66 107 -68 68 -70 70 -72 102 73 -75 -76 -77 -78 103 -80 -81 113 -83 83 -85 -86 96 108 -89 -90 -91 -92 -93 -94 -95 109 -97 97 -99 -100 -101 -102 -103 -104 -105 105 106 -108 -109 -110 -111 -112 -113 -114 -115 -116 -117
leaf_value=0.045984771377510489 -0.014910493045180504 -0.026925856613061006 0.035194593358784915 0.12407709444546308 -0.005126486138922387 0.029267515850067136 0.064221994161605844 0.033757277570151047 -0.028798801864948001 -0.0095124871520222056 -0.010079517497681082 0.032589196741501965 0.11770527741156125 0.039689231228755138 0.016492722066030613 0.024216613126420736 0.02136133577816543 0.084618380751720693 0 0.022925791339160728 -0.037787692811805759 0.074113342266082766 0.0081955796095954121 -0.036305376265641474 -0.0073624359413960892 0.16316321195874894 0.031112067554700876 0.055813755699718484 0.011612334054040548 -0.0017337168232650206 -0.030674651822849605 -0.049302842029813311 -0.033624451190233225 0.0053349983645720953 -0.023896575443960469 0.033618471142920575 -0.0050704558585235411 -0.0031549775058903342 0.02403785562482921 -0.052314548571175387 0.080227673304492028 0.048814396238589026 -0.037270867988576782 -0.01193091159313917 -0.044637557288141623 -0.0078442437127232562 -0.029535477785633934 0.023079013194726859 8.3119372720829449e-07 -0.01231183025240898 0.013551160582108424 -0.01621644548570015 -0.035135673604607578 0.00095877594307486747 -0.037504780426452104 0.026872348034624439 0.018840098205395041 -0.020425265153933485 0.00090146584995893825 -0.06214842220492986 -0.023203892980413188 0.00032976973425807816 -0.024118973472783731 0.01828535139878347 0.0057342157651271135 -0.0057662020124951184 0.068478873450180583 -0.0088819961366858689 -0.024060261803594499 0.0049791603332889249 -0.0089187179941006695 0.0071927532932649441 -0.026722047482479788 -0.040970904587976524 0.0056563033036189153 -0.024608526731646336 -0.011878932051360607 -0.0051344285732756057 0.010908999374817785 0.0069471555080912687 -0.01218888727495108 0.011754136060098452 0.028243440802395339 0.016519180677603093 0.042883882923362163 -0.0056781707874033601 0.013680528244801931 0.0074968259708786556 -0.031644626888104634 -0.015044675209121229 0.0033220690070221628 -0.008266572867777754 0.013945847842767835 -0.026421117028313089 -0.021434296976341759 0.023342212885956868 0.0062166456390315523 -0.0030527652603957582 -0.020314294815022983 -0.013890548510522377 -0.032010770271247137 -0.026237502486072477 0.014075579705536363 -0.012078452914633921 -0.051822213838497798 -0.031892904231324785 -0.049091359726587923 -0.012559965836416397 0.0070439697877487297 -0.01440734783528288 -0.0056082952926340308 -0.02134491339276234 0.01686154867105186 -0.016855078590017825 -0.045138235753774646 -0.021490593058831359
leaf_weight=53 41 50 71 60 57 44 62 86 61 53 41 55 75 60 62 100 62 85 41 51 197 49 42 62 67 83 46 48 79 57 88 245 47 78 86 65 46 40 53 108 57 90 67 75 227 67 61 45 47 47 47 48 74 52 87 42 64 43 57 68 57 52 42 55 62 48 86 52 43 60 43 51 60 66 79 85 71 44 40 45 43 62 79 48 107 47 41 43 78 67 64 46 49 60 42 43 51 50 45 40 48 59 74 69 53 47 44 41 55 43 68 44 49 76 89 82
leaf_count=53 41 50 71 60 57 44 62 86 61 53 41 55 75 60 62 100 62 85 41 51 197 49 42 62 67 83 46 48 79 57 88 245 47 78 86 65 46 40 53 108 57 90 67 75 227 67 61 45 47 47 47 48 74 52 87 42 64 43 57 68 57 52 42 55 62 48 86 52 43 60 43 51 60 66 79 85 71 44 40 45 43 62 79 48 107 47 41 43 78 67 64 46 49 60 42 43 51 50 45 40 48 59 74 69 53 47 44 41 55 43 68 44 49 76 89 82
internal_value=0.000114326 -0.00587756 0.00277822 0.0699002 0.0121465 0.0252741 0.0483025 -0.000234672 -0.0344252 -0.0278469 0.00362371 0.0444133 0.0739103 0.0801938 0.00581423 0.00122021 0.0324383 0.067534 0.0134876 0.0284209 -0.0352042 0.058111 -0.00446664 -0.0129296 -0.0292451 0.147781 0.0261725 0.0400188 0.0185332 -0.00791865 -0.01703 -0.0463318 -0.0153309 0.0123571 -0.0208691 0.0196142 -0.0064431 -0.0223984 0.00813424 -0.0409545 0.0650405 0.0582413 -0.0339815 -0.0154985 -0.0386007 0.00300179 -0.0178069 0.0182442 0.0114804 -0.00965434 0.0254934 -0.0165849 -0.0255382 0.00639228 -0.0397553 0.0129517 0.0109469 -0.0341461 0.00211505 -0.0523017 -0.0244228 -0.00227986 -0.0128756 0.0178819 -0.00151255 -0.00405969 0.0769816 -0.0122849 -0.0159937 -0.00450108 -0.000795142 0.0154111 -0.0297217 -0.0344968 0.0105461 -0.0192696 -0.0166526 -0.0063799 0.018631 0.000818019 -0.0116265 0.00693327 0.0213221 0.0240228 0.0472585 0.00126404 0.0136997 0.0137358 -0.0279069 -0.0201821 0.00799251 -0.00317542 0.00878717 -0.0221311 -0.0149732 0.030538 -0.000704548 0.00158406 -0.0152662 -0.0196055 -0.0261738 -0.0314584 0.0113944 -0.00949597 -0.0424862 -0.045175 -0.0407171 -0.00906736 0.010052 -0.0181581 -0.00742102 -0.0185205 0.0202101 -0.0153346 -0.0420564 -0.0237815
internal_weight=7408 6823 4895 585 3911 1898 919 2013 984 1928 979 442 350 306 1557 1145 569 231 663 507 1290 251 758 638 637 143 191 217 412 617 316 605 379 387 456 290 380 258 287 653 196 139 462 262 545 194 196 138 92 235 245 175 286 418 292 283 201 318 217 313 144 355 170 140 242 180 171 135 95 150 103 225 306 126 141 205 113 165 93 91 228 114 174 127 155 190 160 98 121 153 143 103 127 108 138 129 148 101 120 97 180 133 125 113 231 144 91 89 96 85 109 85 100 119 156 132
internal_count=7408 6823 4895 585 3911 1898 919 2013 984 1928 979 442 350 306 1557 1145 569 231 663 507 1290 251 758 638 637 143 191 217 412 617 316 605 379 387 456 290 380 258 287 653 196 139 462 262 545 194 196 138 92 235 245 175 286 418 292 283 201 318 217 313 144 355 170 140 242 180 171 135 95 150 103 225 306 126 141 205 113 165 93 91 228 114 174 127 155 190 160 98 121 153 143 103 127 108 138 129 148 101 120 97 180 133 125 113 231 144 91 89 96 85 109 85 100 119 156 132
is_linear=0
shrinkage=0.06


Tree=7
num_leaves=115
num_cat=0
split_feature=7 7 9 9 7 9 7 1 7 1 7 1 3 3 3 9 7 4 7 1 7 9 7 5 9 4 7 7 1 7 7 9 3 7 5 9 9 7 7 9 7 1 7 9 5 7 7 7 9 4 7 7 8 9 3 5 9 7 9 7 7 1 7 6 9 9 7 7 9 9 9 7 4 7 7 5 7 7 7 7 7 0 7 3 9 5 3 7 0 9 7 0 5 7 8 9 9 7 4 5 8 0 7 4 5 8 7 9 5 7 9 7 7 7
split_gain=762.167 319.165 419.723 284 156.66 195.506 124.347 58.8938 54.7963 51.806 49.1788 26.7031 24.3282 19.6921 19.0257 16.4279 13.9167 12.491 12.3057 10.7846 10.4296 10.2844 9.57496 9.43514 7.45387 7.343 15.1643 7.10902 6.26499 5.66086 5.58602 4.96189 4.76351 4.46437 3.91566 3.82045 3.70169 3.66243 3.64716 3.64065 4.08392 3.27198 3.19269 3.77277 3.10069 3.05324 3.02937 2.98007 2.97799 2.95758 2.92789 2.49472 2.26767 2.1501 2.00196 1.6566 1.63543 1.62195 1.96059 1.5917 1.54849 1.45584 1.44123 1.69909 1.43474 1.24621 1.22747 1.17406 1.10852 1.10755 1.10306 1.09102 1.25185 0.989332 0.96277 0.938585 0.88345 0.851703 0.845386 0.814091 0.729883 0.716674 0.648309 0.63242 0.535457 0.512861 0.509944 0.489786 0.476655 0.384714 0.372728 0.345318 0.340553 0.333452 0.319248 0.306505 0.287234 0.600567 0.285998 0.274629 0.267986 0.221815 0.208997 0.154396 0.138006 0.127892 0.125136 0.119529 0.0922579 0.0822169 0.0757351 0.075446 0.0626327 0.00382374
threshold=-1.5916000008583067 0.79813382029533397 -1.125477075576782 -0.58900588750839222 0.38034759461879736 -0.67153990268707264 0.06283064000308515 0.1524230241775513 -1.2740830183029173 0.41595189273357397 -1.0066996812820432 -0.63816359639167775 0.092610801570117487 1.0000000180025095e-35 -0.75087112188339222 1.3873735666275027 -1.3409288525581358 0.23630111664533618 0.22994571179151538 1.0000000180025095e-35 0.98195910453796398 -1.3455678224563596 0.96524789929389965 -0.46210168302059168 -0.56149452924728382 -0.63923451304435719 -0.672471523284912 -1.8589823246002195 -0.37463472038507456 0.6143074929714204 -0.83958560228347767 1.3208138942718508 0.65493208169937145 0.6143074929714204 0.95798584818840038 1.6269885301589968 1.2941899895668032 1.2660536170005801 1.0000000180025095e-35 -0.61651721596717823 -2.0762310028076167 -0.90169563889503468 0.49732805788517004 1.5471168756484988 -0.3386158794164657 0.69786554574966442 0.66444215178489696 1.1824966073036196 -1.3593235015869138 -0.26833789050579065 -1.4244858622550962 -1.4913316965103147 -0.20179661363363263 0.64811712503433239 -1.0320318043231962 -0.46210168302059168 0.48127414286136633 0.14638768136501315 0.27493907511234289 -1.1738147735595701 -0.28810873627662653 -0.63816359639167775 1.1156507730484011 -0.39720386266708368 -0.79534095525741566 -1.0842100381851194 0.69786554574966442 0.74799916148185741 -0.71280694007873524 1.6003646254539492 0.5775638520717622 1.0655161142349245 1.1118367314338686 0.88169082999229442 0.46390463411808019 1.1740867495536806 0.86497962474823009 -1.4244858622550962 0.74799916148185741 -0.92314264178276051 0.33021396398544317 0.27957032620906835 0.71457675099372875 -0.32913015782833094 1.1433213353157046 1.3284440040588381 0.092610801570117487 0.88169082999229442 0.25791636854410177 0.20616070926189425 -1.0568343400955198 0.17130158096551898 -0.55471602082252491 0.76471036672592174 0.78461951017379772 1.1295656561851504 -1.6894596219062803 -0.87300899624824513 -0.33589969575405115 -1.1104029417037962 0.46187606453895574 0.17130158096551898 0.84826743602752697 0.10186760500073434 0.80362856388092052 0.63460847735404979 0.86497962474823009 -0.23978930711746213 -0.92517420649528492 -0.10428344085812567 1.2542541623115542 -0.53877985477447499 0.74799916148185741 1.0488049387931826
decision_type=2 2 2 2 2 2 2 2 2 2 2 2 2 2 2 2 2 2 2 2 2 2 2 2 2 2 2 2 2 2 2 2 2 2 2 2 2 2 2 2 2 2 2 2 2 2 2 2 2 2 2 2 2 2 2 2 2 2 2 2 2 2 2 2 2 2 2 2 2 2 2 2 2 2 2 2 2 2 2 2 2 2 2 2 2 2 2 2 2 2 2 2 2 2 2 2 2 2 2 2 2 2 2 2 2 2 2 2 2 2 2 2 2 2
left_child=3 2 8 11 5 10 12 45 41 20 16 27 25 33 -8 17 51 49 31 -14 23 -13 34 87 -5 26 -7 -1 61 74 79 57 53 103 86 -24 80 44 109 40 -23 50 -17 46 62 75 85 71 -29 -15 88 -4 -27 -25 101 -50 81 58 -16 83 111 -10 63 -22 90 -53 -51 -58 -67 70 76 -37 -73 -55 89 104 -36 -43 -45 108 92 -35 95 -18 100 -44 -11 -3 -2 -19 -61 -81 -20 -68 -56 -31 -63 -98 -52 -85 -76 -47 -72 -9 -6 -88 -34 -64 -12 -21 -94 -30 -103 -46
right_child=1 9 4 24 7 6 14 13 28 22 30 21 19 15 18 42 59 29 36 38 37 39 35 32 -26 52 -28 48 60 82 -32 -33 106 56 69 47 -38 -39 -40 -41 -42 77 43 78 113 54 -48 -49 55 66 98 65 -54 73 94 -57 67 -59 -60 64 -62 96 107 -65 -66 68 93 -69 -70 -71 102 72 -74 -75 84 -77 -78 -79 -80 91 -82 -83 -84 99 -86 -87 105 -89 -90 -91 -92 -93 110 -95 -96 -97 97 -99 -100 -101 -102 112 -104 -105 -106 -107 -108 -109 -110 -111 -112 -113 -114 -115
leaf_value=0.043276779943042326 0.0021549019462836438 -0.0039447292820127171 0.033112246401607988 0.1167545126930612 -0.01851300058158031 0.10616574016034604 0.054349986706461226 0.030303950605293114 -0.029539492430767443 -0.0089523073871516524 -0.0094891457335823885 0.030668761980586812 0.027252995010581798 -0.0041449430012212626 0.018405891323728222 0.021555383923572376 0.014315978118663895 0.0040112828348231096 0.0046194122435052444 0.071931353519944577 -0.035965296145747686 0.069755476956367496 -0.034161630451679227 -0.016728204779931016 0.15348996598379952 0.051278917205333702 0.05929134140020989 0.0035679453316051239 -0.041966513290217049 -0.013106695913543787 -0.02885485229967685 0.040368605960958766 -0.035578445105610979 0.011675214870920958 0.0062380605219583959 -0.0029702958577289811 0.022983008337765929 -0.049204471777885332 0.043863200996456471 0.075497005154346611 0.04591771756980445 -0.016034756257622077 0.0050189503656723825 0.022622293005283504 -0.038654837661133763 -0.01429952473668976 -0.0073805106088299967 -0.027791932481731615 0.032468640035915576 0.018927702821791171 -0.017132345349714157 0.011375056427364288 0.072693323242664337 -0.024648246267132017 -0.032500933517420359 0.015633698039247017 0.022195627078413962 0.01783918577394936 0.037492109887149863 0.0079649439678975819 -0.058473559172257134 -0.032339809550642966 -0.041014104238814776 -0.021086720299483698 -0.0055335105964477412 0.026733281369392688 0.0097017256934600685 0.010668717363096006 0.014733160019046268 0.0053956238325419178 -0.0054272906895802952 -0.0083591316812759581 -0.022649455655027514 -0.032374623779709379 -0.0079951317120682108 -0.0056310018244574008 -0.0054746082807609507 -0.027738706671177071 0.010270423758513772 -0.017030138764663465 0 0.0030021985862568072 -0.024234499895123433 0.0090004596065729869 -0.011644002650936063 0.013125831998437643 -0.020178147601635131 -0.013345334093049381 -0.0059287313735112545 -0.0038469076571054756 0.0019077596434205768 -0.009421020525168966 0.012951808510651423 0.0025513187551072661 -0.0237849441888381 -0.020668114115883197 -0.035674845478620876 -0.045623922824859615 -0.00994216734481909 0.0024923309465604169 -0.0012648192171473055 -0.017123315080503625 -0.011824310706005366 0.022643958789192967 -0.01259927182369258 -0.013562553442337297 -0.043369678303599356 -0.033508004947110669 -0.0052766742720066206 0.056780547754709108 0.0080057783351257083 -0.048785419183756625 -0.022962925433035707 -0.044950781595917928
leaf_weight=53 63 43 71 60 66 74 62 53 104 53 41 55 63 67 41 76 68 41 66 50 50 49 62 73 83 44 46 42 113 75 88 83 91 73 49 40 59 108 57 57 90 65 78 53 115 46 67 61 40 47 79 56 79 150 85 56 73 125 48 80 68 49 53 87 63 90 68 67 51 62 48 52 43 166 43 45 42 46 40 76 56 70 67 69 77 49 42 43 43 47 74 43 42 41 48 41 82 92 41 41 47 44 41 53 45 43 71 128 68 42 40 139 63 112
leaf_count=53 63 43 71 60 66 74 62 53 104 53 41 55 63 67 41 76 68 41 66 50 50 49 62 73 83 44 46 42 113 75 88 83 91 73 49 40 59 108 57 57 90 65 78 53 115 46 67 61 40 47 79 56 79 150 85 56 73 125 48 80 68 49 53 87 63 90 68 67 51 62 48 52 43 166 43 45 42 46 40 76 56 70 67 69 77 49 42 43 43 47 74 43 42 41 48 41 82 92 41 41 47 44 41 53 45 43 71 128 68 42 40 139 63 112
internal_value=0.000109115 -0.00552902 0.00261508 0.0657755 0.01143 0.0228322 0.0404606 -0.00121008 -0.0323905 -0.0261998 0.00341159 0.0417997 0.0642817 0.00476793 0.0229504 0.0003918 0.0126957 -0.00523229 0.0193727 0.0489029 -0.0331176 0.0546848 -0.0121732 -0.0275218 0.139036 0.0774186 0.0888853 0.0246391 -0.0426042 -0.0111139 -0.016027 0.0277411 -0.0304097 0.0162417 -0.00606818 -0.0210837 0.00983029 -0.0385166 0.0577742 0.0612036 0.054802 -0.0126956 0.0106356 0.00765835 -0.0363014 -0.0203019 0.0028252 -0.0167639 0.0171781 0.00629129 -0.00844541 0.0232316 0.0655566 -0.0266111 -0.0240307 0.0229725 0.0121939 0.0226507 0.0290685 0.00549144 -0.0487876 -0.0364045 -0.0321165 -0.0267816 0.00199127 0.0194911 0.0108096 0.0168365 0.0225694 -0.00142444 -0.00382355 -0.0115691 -0.0150584 -0.0288153 -0.00526917 -0.0133182 0.000766249 -0.021143 0.0175393 -0.0109453 0.0059035 0.00752168 -0.0191528 0.00969001 -0.00793291 0.00827179 -0.0140995 -0.00881337 -0.00109299 -0.000114356 0.00512414 -0.014432 0.00809842 0.00711431 -0.0296011 -0.0159844 -0.0394332 -0.0412002 -0.0148278 0.00667306 -0.00459887 -0.0189887 -0.00853954 0.0267774 -0.016303 -0.0170978 -0.0392751 -0.0359522 -0.00698759 0.0657641 0.0107369 -0.0459294 -0.0207979 -0.0419711
internal_weight=7408 6823 4895 585 3911 2056 1077 1855 984 1928 979 442 455 1413 622 1024 663 661 560 212 1290 251 638 637 143 243 120 191 647 438 316 297 551 389 380 258 263 653 149 196 139 337 363 287 545 442 194 196 138 223 226 268 123 389 286 96 283 214 89 395 320 327 318 137 217 197 156 140 141 242 180 135 95 316 255 156 91 111 93 228 204 143 183 178 167 127 138 86 106 88 154 119 148 109 133 116 223 174 120 110 90 153 89 106 111 85 162 181 109 92 82 252 107 227
internal_count=7408 6823 4895 585 3911 2056 1077 1855 984 1928 979 442 455 1413 622 1024 663 661 560 212 1290 251 638 637 143 243 120 191 647 438 316 297 551 389 380 258 263 653 149 196 139 337 363 287 545 442 194 196 138 223 226 268 123 389 286 96 283 214 89 395 320 327 318 137 217 197 156 140 141 242 180 135 95 316 255 156 91 111 93 228 204 143 183 178 167 127 138 86 106 88 154 119 148 109 133 116 223 174 120 110 90 153 89 106 111 85 162 181 109 92 82 252 107 227
is_linear=0
shrinkage=0.06


Tree=8
num_leaves=121
num_cat=0
split_feature=5 9 9 8 1 1 8 1 3 3 3 9 9 1 9 6 3 3 9 4 5 9 6 9 4 1 5 9 3 1 9 1 0 9 3 5 9 9 8 9 9 9 3 9 3 9 5 6 2 9 4 8 8 3 9 9 9 9 9 9 9 4 8 8 5 3 5 9 3 3 2 5 9 9 0 1 0 9 9 0 4 2 8 9 4 8 5 9 8 2 5 4 9 3 6 2 4 6 9 4 2 8 0 0 9 2 4 8 8 9 3 8 4 9 4 3 4 2 5 2
split_gain=633.794 257.05 244.988 346.281 157.207 155.204 108.845 31.1366 27.8172 24.3582 19.6922 19.5452 24.5093 17.8951 17.6933 16.8854 19.6493 15.4298 13.9137 10.9971 10.9472 18.904 10.0569 9.85827 9.40948 6.38649 6.29395 7.94727 5.76407 5.68842 6.86817 5.65219 5.42565 4.33289 4.21762 3.67182 3.62711 3.26871 2.99307 2.93001 5.363 5.04371 2.91959 2.72502 2.7063 2.67957 2.59422 4.14017 2.47188 2.41701 2.33533 2.3316 2.33089 2.17722 2.10988 1.97015 1.83998 1.83573 1.82811 1.77953 1.75602 1.63566 1.46053 1.40349 1.38208 1.3673 1.23625 1.13334 1.39649 1.13196 1.11702 1.08879 1.07656 0.932721 0.905226 0.900813 1.09153 0.819007 0.77862 0.657341 0.640407 0.618663 0.616589 0.661329 0.600159 0.599071 0.59342 0.848832 0.574695 0.571051 0.568736 0.549794 0.545844 0.849473 0.784243 0.534517 0.50333 0.498271 0.497273 0.639041 0.452852 0.484561 0.417747 0.417505 0.416932 0.392069 0.384171 0.343494 0.334754 0.328282 0.206685 0.195856 0.148709 0.145277 0.124624 0.123371 0.0830761 0.0612743 0.0274594 0.00702003
threshold=-1.2647601962089536 -0.60276153683662403 -1.4143462181091306 0.40732413530349737 0.41595189273357397 -0.63816359639167775 0.057307431474328048 1.4700673818588259 0.3737714439630509 -0.18854984268546102 -0.18854984268546102 -0.52022752165794361 -0.46609230339527125 0.1524230241775513 -0.57525020837783802 -0.27283042669296259 1.4984139800071719 -0.89145144820213307 -0.63027289509773243 -0.33589969575405115 1.3901869058609011 -0.10666989907622336 0.16246472299098971 0.2886947393417359 -0.60545364022254933 -0.37463472038507456 -0.52384456992149342 -0.01348631316795945 -0.89145144820213307 -1.4287564754486082 -0.399532601237297 0.94300961494445812 0.14964788407087329 1.6669243574142458 0.092610801570117487 -1.0177885890007017 -0.67153990268707264 0.67562848329544078 0.80279985070228588 -1.0154317021369932 -1.125477075576782 -1.2630338072776792 0.092610801570117487 0.44000713527202612 -0.89145144820213307 0.53629684448242199 0.64927130937576305 0.16246472299098971 -0.19301487505435941 0.64811712503433239 0.47207520902156835 1.1528165340423586 -1.0382043719291685 0.65493208169937145 -1.1667441129684446 1.0607873201370241 -1.4556132555007932 -0.37290871143341059 -0.080046016722917543 -1.7032153010368345 1.3208138942718508 -0.3021187931299209 -0.86546930670738209 0.82552939653396618 1.3901869058609011 1.7795746922492983 -0.89430275559425343 -1.1117213964462278 0.23319111764431003 -1.4537760615348814 0.30650527775287634 -0.86343130469322193 -0.83660796284675587 1.2542541623115542 0.25791636854410177 0.67948076128959667 0.30122427642345434 1.2675660848617556 0.21991638094186786 0.30122427642345434 1.0780558586120608 0.30650527775287634 0.93462511897087108 1.5471168756484988 0.9436233937740327 -1.3745844960212705 -0.77081695199012745 0.082359660416841521 0.6527942717075349 0.26306973397731787 -0.64733111858367909 1.1456176638603213 0.7994295358657838 -0.75087112188339222 1.0000000180025095e-35 0.26306973397731787 0.80919095873832714 -1.0190532207489011 -0.86411932110786427 -0.36968058347702021 0.80602750182151806 0.80734631419181835 0.30122427642345434 0.25791636854410177 1.4406213760375979 0.76258990168571483 0.87606266140937816 -1.2427592277526853 0.31186503171920782 -0.01348631316795945 0.092610801570117487 0.70734077692031871 0.97740429639816295 -0.31966094672679896 0.37142364680767065 -0.46971046924591059 -0.3021187931299209 0.56712579727172863 -0.67820259928703297 0.37166170775890356
decision_type=2 2 2 2 2 2 2 2 2 2 2 2 2 2 2 2 2 2 2 2 2 2 2 2 2 2 2 2 2 2 2 2 2 2 2 2 2 2 2 2 2 2 2 2 2 2 2 2 2 2 2 2 2 2 2 2 2 2 2 2 2 2 2 2 2 2 2 2 2 2 2 2 2 2 2 2 2 2 2 2 2 2 2 2 2 2 2 2 2 2 2 2 2 2 2 2 2 2 2 2 2 2 2 2 2 2 2 2 2 2 2 2 2 2 2 2 2 2 2 2
left_child=1 18 25 5 13 10 8 9 11 22 19 17 35 29 -3 -6 26 69 36 24 21 113 -8 -14 54 56 27 -17 -26 44 -31 53 70 51 -9 -13 107 58 43 40 41 -30 92 -28 100 88 47 -10 72 -22 -24 65 67 90 79 57 59 -44 -23 -2 -36 -21 -27 -60 74 -18 78 -50 -69 -7 -12 -25 110 108 -47 -40 105 96 -33 -4 -35 -61 -78 -84 -46 -72 -29 103 115 -41 -11 -67 93 -32 -95 -54 -76 -42 99 -87 101 111 -39 -88 -79 -77 -62 -1 112 -65 -34 -5 -68 -15 -55 -45 -101 -59 -89 -99
right_child=2 14 3 4 15 6 7 34 46 31 32 12 23 20 -16 16 33 -19 -20 61 49 37 50 71 28 62 38 86 39 30 42 66 48 80 60 -37 -38 102 75 89 97 -43 55 45 84 64 -48 -49 52 -51 -52 -53 95 114 -56 -57 -58 117 63 81 106 -63 -64 109 -66 91 73 68 -70 -71 85 -73 -74 -75 77 76 82 104 -80 -81 -82 -83 83 -85 -86 98 87 118 -90 -91 -92 -93 -94 94 -96 -97 -98 119 -100 116 -102 -103 -104 -105 -106 -107 -108 -109 -110 -111 -112 -113 -114 -115 -116 -117 -118 -119 -120 -121
leaf_value=0.018380326776061114 -0.024972091576147631 0.091425295495986936 -0.0033431624053046104 -0.019262319361330469 -0.035826878201961516 0.060170915435342226 0.054473203480970567 0.053342456383364538 0.020816253687108034 0.0046039469311634695 -0.020944547447893352 0.10056683147581001 0.028084196909434263 -0.03671265950377868 0.135579846063027 0.015198628140687941 -0.002300521596765785 0.013089546920126304 0.056748414284304563 -0.0013847265101682681 -0.018836248326674101 -0.0084075127157798787 0.026128144020835558 0.066473513817848412 0.031336444539868308 -0.034259200252559296 0.021437264573648571 -0.00082596653443761171 0.017140433576842768 -0.007000797155096607 -0.032454977698773146 0.0065731804804737741 -0.0091304434945503644 -0.01464696380663663 0.019985712114255875 0.072023926146766712 0.032524225834713261 -0.01648630452422159 -0.0022003579124514209 -0.00025865008498801562 0.030415770274400709 -0.0057425937111657416 -0.02551883744042507 0.0012802886731274749 -0.02384229728525444 0.0064301475803857965 0.013191363108594242 0.041853372133940345 -0.0026391695831879608 -0.035141846892024785 0.0072498629635998181 0.0033208910456973399 -0.0010725438265243963 -0.009456644111630939 0.0071551093553476356 -0.025333466755147548 -0.023741056562542277 -0.03685957274331074 0.014022234150022269 -0.041961092999348276 0.029201042524973551 -0.016113605899293525 -0.047243592523284007 0.0046514505130323498 0.0016640983347802659 -0.007879504055583051 0.00075481427869782212 0.014776746789652566 0.0014160308439706293 0.042858456382062281 -0.004353879476090272 0.050993918098043649 -0.0006979653911846804 0.0094946610869696517 0.015131909554736922 0.013571148654712099 0.0070927247920485794 0.022595758234060577 0.018396043308611425 -0.014297844087841306 -0.024042251014781572 -0.032968970202073289 -0.0050024531130727972 0.0039788924746337485 -0.03414370825795026 -0.0086297977547602437 -0.00044984081072100207 -0.0098943662473218556 0.0072687039697899468 0.0088327531383895295 -0.0046007753139576659 -0.016889372056240543 -0.022820058426540342 -0.028246095416771075 -0.017233504656066257 -0.0100344943727295 0.005782900462250995 0.017565122174871405 -0.0066074765544617544 -0.019589900328467285 -0.012739764360048002 -0.0255259503275156 -0.0075117356608760486 -0.0084377630394276079 0.014423122678132307 0.005627650278009242 0.040726685620606579 0.010608951158156353 0.004642054159015893 -0.0018347293034728083 -0.016189828772630008 -0.012768187579565814 -0.0042698795713211699 -0.028063517577283207 -0.015060079044059347 -0.0030423755368336716 -0.013812811857565891 -0.041950409996245677 -0.013750930337794126 0.023317025465044106
leaf_weight=81 58 59 43 90 44 50 40 41 75 44 53 56 53 45 129 74 66 59 56 51 59 46 62 72 68 55 74 47 79 42 224 46 42 69 47 50 84 41 75 60 44 60 52 45 61 56 40 70 40 97 41 72 48 40 45 70 75 208 44 116 44 60 272 54 42 48 40 64 52 47 44 63 40 64 47 55 60 61 41 40 61 90 56 60 64 56 52 46 46 40 51 67 79 131 40 51 45 40 47 53 58 48 46 45 61 47 46 41 46 55 41 41 40 58 60 46 42 143 59 43
leaf_count=81 58 59 43 90 44 50 40 41 75 44 53 56 53 45 129 74 66 59 56 51 59 46 62 72 68 55 74 47 79 42 224 46 42 69 47 50 84 41 75 60 44 60 52 45 61 56 40 70 40 97 41 72 48 40 45 70 75 208 44 116 44 60 272 54 42 48 40 64 52 47 44 63 40 64 47 55 60 61 41 40 61 90 56 60 64 56 52 46 46 40 51 67 79 131 40 51 45 40 47 53 58 48 46 45 61 47 46 41 46 55 41 41 40 58 60 46 42 143 59 43
internal_value=1.11705e-05 0.0689421 -0.00445269 -0.000788432 -0.0132757 0.0150629 0.0288343 0.0139725 0.0473334 0.00753621 0.000437436 0.0554136 0.0646178 -0.02501 0.122312 0.000410455 0.00144411 0.037728 0.0303041 0.00769323 -0.0157603 -0.0103053 0.0291387 0.0510303 0.0111051 -0.0390305 0.00522684 -0.00191302 0.0153157 -0.0287225 -0.0311189 0.000930941 -0.0068101 -0.0103651 0.0360106 0.0879582 0.022847 -0.00230852 0.00786548 0.0122456 0.0155347 0.00724955 -0.0321738 0.0107498 -0.0220912 0.00893138 0.0274541 0.0312303 -0.00202167 -0.0291725 0.0188131 -0.00571765 0.00133197 -0.00685944 -0.00313315 -0.0356829 -0.0329568 -0.0373985 0.00191466 -0.0354527 0.0304313 -0.00947264 -0.0451891 0.00509146 0.0119987 -0.00934455 0.00644167 0.00590657 0.00890204 0.0523666 -0.0128979 0.0597219 -0.00897741 0.00365032 0.0135721 0.00355682 0.00513384 0.0153745 0.0123588 -0.00880132 -0.0192512 -0.0382397 0.00220468 -0.000311345 -0.0293934 -0.011032 -0.00706286 -0.00847325 0.00186616 0.00336995 -0.000271487 -0.0132808 -0.0285916 -0.0296703 -0.0258201 -0.00580348 0.0107349 0.0244283 -0.0124566 -0.0141823 -0.0181074 -0.0197328 -0.0119486 -0.00426509 0.0187087 0.0100593 0.0355407 0.0159249 0.000583141 0.00133714 -0.0128403 -0.0173874 -0.00170516 -0.0322166 -0.0129939 -0.000848895 -0.0172688 -0.0390639 -0.0122273 0.0208586
internal_weight=7412 450 6962 6296 3522 2774 1428 793 635 615 1346 450 294 1896 188 1626 1582 156 262 673 545 389 143 188 562 666 1199 323 434 1351 989 472 673 383 178 106 206 286 876 366 266 139 947 523 362 449 185 145 378 156 103 253 255 195 128 473 339 403 199 264 137 111 327 153 312 181 277 156 116 97 295 135 123 190 270 353 278 214 87 83 130 206 176 116 125 242 249 202 137 100 95 115 474 395 171 99 92 127 198 151 237 179 87 97 122 102 90 122 126 109 83 131 80 103 100 91 95 351 105 83
internal_count=7412 450 6962 6296 3522 2774 1428 793 635 615 1346 450 294 1896 188 1626 1582 156 262 673 545 389 143 188 562 666 1199 323 434 1351 989 472 673 383 178 106 206 286 876 366 266 139 947 523 362 449 185 145 378 156 103 253 255 195 128 473 339 403 199 264 137 111 327 153 312 181 277 156 116 97 295 135 123 190 270 353 278 214 87 83 130 206 176 116 125 242 249 202 137 100 95 115 474 395 171 99 92 127 198 151 237 179 87 97 122 102 90 122 126 109 83 131 80 103 100 91 95 351 105 83
is_linear=0
shrinkage=0.06


Tree=9
num_leaves=124
num_cat=0
split_feature=7 7 6 1 1 7 1 7 6 3 3 7 6 1 1 7 7 1 7 7 4 7 5 7 7 5 1 3 7 4 7 6 7 3 7 5 5 6 4 7 1 7 5 5 7 5 7 8 7 7 2 7 7 4 6 0 4 1 3 4 4 7 7 7 7 4 8 7 7 8 7 7 7 5 7 5 7 6 7 0 7 0 7 7 7 7 2 8 6 5 7 4 4 4 5 7 7 7 7 8 8 3 2 8 0 8 2 8 7 7 0 8 7 1 0 2 7 6 2 3 5 7 8
split_gain=605.439 262.318 352.644 194.872 92.5385 233.944 50.6446 38.296 29.1691 39.5785 26.7446 23.7148 18.8547 14.5645 13.5986 12.6464 12.1649 13.1644 10.4741 9.6703 9.40734 8.67195 9.10895 8.52473 8.07792 7.14655 6.63921 6.10219 5.96977 5.84528 5.05406 4.83936 4.02825 3.88894 3.66325 3.64253 3.62175 3.56417 3.53176 5.8132 3.42912 3.35709 3.09014 2.61453 2.4129 2.33492 2.26248 2.2499 2.20545 1.82393 1.60452 1.56429 1.54641 2.38638 1.44056 1.43332 1.41988 1.36504 1.35871 1.34483 1.18579 1.09933 1.05753 1.02873 1.02468 1.01941 0.963095 1.53302 0.954494 0.95196 0.935755 0.874569 0.853646 0.839439 2.00996 1.07002 0.80799 0.797772 0.771313 0.756111 0.754462 0.749797 0.945009 0.743568 0.662698 0.641711 0.639747 0.591535 0.590029 0.541544 3.5175 0.527125 0.50276 0.997631 0.492892 0.820611 0.48899 0.477398 0.465205 0.461188 0.44268 0.390407 0.385065 0.358986 0.353662 0.352795 0.351531 0.342051 0.308102 0.303604 0.293901 0.230718 0.197795 0.18586 0.172886 0.159752 0.156745 0.121037 0.0964624 0.0786974 0.057865 0.0537365 0.00326598
threshold=-1.6417346000671384 0.76471036672592174 -1.1434266567230222 1.0000000180025095e-35 -0.63816359639167775 0.1798110976815224 0.41595189273357397 -0.93985486030578602 -0.64594480395317067 0.092610801570117487 0.3737714439630509 -1.3409288525581358 1.3439886569976809 -0.63816359639167775 -1.1652276515960691 -0.10428344085812567 0.94853666424751293 0.1524230241775513 0.96524789929389965 0.33021396398544317 -0.57167378067970265 -1.2740830183029173 -0.52384456992149342 -1.8924056887626646 0.012697012396529319 -1.0795314908027647 1.0000000180025095e-35 -0.75087112188339222 -1.3075054287910459 -0.40346042811870569 -1.8924056887626646 -0.21064370870590207 -1.4579093456268308 0.65493208169937145 0.39705979824066168 0.86537146568298351 1.6062870621681216 0.10028097406029703 0.2700809538364411 0.63101869821548473 -0.37463472038507456 1.2660536170005801 -0.3386158794164657 -0.46210168302059168 -1.4913316965103147 0.15532734990119937 0.49732805788517004 0.66188442707061779 1.1657853722572329 1.0822283029556277 0.61056235432624828 -0.25468631833791727 0.59759628772735607 0.90984252095222484 -0.39720386266708368 0.30122427642345434 -0.23455700278282163 -0.90169563889503468 1.0766730904579165 0.2700809538364411 0.70784932374954235 -1.4077746868133543 -1.1571035385131834 0.096254054456949248 -1.7252916097640989 -0.50411303341388691 0.57096907496452343 0.46390463411808019 0.88169082999229442 1.3391937613487246 0.83155623078346264 0.88169082999229442 0.22994571179151538 1.1740867495536806 -0.82287439703941334 0.896242916584015 0.69786554574966442 -0.33501714468002314 0.6143074929714204 0.43114647269248968 -0.72260615229606617 0.17130158096551898 0.88169082999229442 0.69786554574966442 0.68115335702896129 -1.3242176771163938 0.50197042524814617 0.95735192298889171 0.90868753194808971 -1.3265030980110166 -2.0762310028076167 -0.33589969575405115 1.1793985962867739 0.842971831560135 -1.0177885890007017 -1.0066996812820432 1.0655161142349245 0.71457675099372875 0.83155623078346264 0.92553222179412853 0.36187051236629492 1.7795746922492983 0.30650527775287634 -1.2427592277526853 0.27957032620906835 -0.43817384541034693 0.34994289278984075 -1.0563874840736387 0.84826743602752697 -1.0735465288162229 0.17130158096551898 -0.57908928394317616 -1.5080429315567014 0.94300961494445812 0.30122427642345434 0.34994289278984075 -1.2573717832565305 1.1574285030364992 0.67571672797203075 -1.0320318043231962 1.2049582004547121 1.2159190177917483 0.52551546692848217
decision_type=2 2 2 2 2 2 2 2 2 2 2 2 2 2 2 2 2 2 2 2 2 2 2 2 2 2 2 2 2 2 2 2 2 2 2 2 2 2 2 2 2 2 2 2 2 2 2 2 2 2 2 2 2 2 2 2 2 2 2 2 2 2 2 2 2 2 2 2 2 2 2 2 2 2 2 2 2 2 2 2 2 2 2 2 2 2 2 2 2 2 2 2 2 2 2 2 2 2 2 2 2 2 2 2 2 2 2 2 2 2 2 2 2 2 2 2 2 2 2 2 2 2 2
left_child=3 2 11 13 7 8 16 14 32 15 27 57 19 30 28 20 17 33 35 72 25 22 44 -5 26 -10 -11 34 61 89 -1 -21 -6 81 -7 59 -20 -26 56 66 79 42 49 108 -16 47 55 -29 69 54 -17 80 53 -47 -18 -14 -33 -2 78 70 -54 -4 103 -39 -32 -46 67 104 92 -38 -8 -45 -12 74 110 -76 -75 -51 -48 91 -42 82 118 -60 -36 115 -28 -70 96 -15 -91 -13 93 120 109 107 -44 114 -95 119 -74 -35 -93 -23 -40 -81 -49 -96 -19 -64 -9 -82 -59 -68 -41 -67 -30 -69 -3 -83 -37 -79 -57
right_child=1 6 4 23 5 10 18 73 9 24 12 40 46 29 21 50 41 43 36 31 -22 62 -24 -25 37 -27 86 45 116 -31 64 38 -34 101 84 68 48 63 39 97 51 -43 88 71 65 52 58 106 -50 77 -52 -53 60 -55 -56 122 -58 112 83 -61 -62 -63 94 -65 -66 85 113 117 87 -71 -72 -73 100 76 75 -77 -78 121 -80 105 111 99 -84 -85 -86 -87 -88 -89 -90 90 -92 102 -94 98 95 -97 -98 -99 -100 -101 -102 -103 -104 -105 -106 -107 -108 -109 -110 -111 -112 -113 -114 -115 -116 -117 -118 -119 -120 -121 -122 -123 -124
