{"learner":{"attributes":{},"feature_names":[],"feature_types":[],"gradient_booster":{"model":{"cats":{"enc":[],"feature_segments":[],"sorted_idx":[]},"gbtree_model_param":{"num_parallel_tree":"1","num_trees":"9"},"iteration_indptr":[0,1,2,3,4,5,6,7,8,9],"tree_info":[0,0,0,0,0,0,0,0,0],"trees":[{"base_weights":[3.9950735E-3,3.862883E-1,-7.656516E-1,-3.7135604E-1,7.4380153E-1,-1.8809811E0,2.0704962E-1,-6.122657E-1,-7.3037595E-2,5.3839624E-1,9.476909E-1,-8.6461455E-1,-2.172363E0,-8.01026E-2,4.328744E-1,-7.674782E-1,-4.7862396E-1,-1.8595089E-1,5.187428E-2,3.1543893E-1,6.29997E-1,1.1092266E0,7.287253E-1,-3.8521844E-1,-1.0933837E0,-2.2982707E0,-1.2911402E0,-5.1501864E-1,-4.814056E-3,3.462349E-1,4.5899853E-1,-8.7973766E-2,-6.7572765E-2,-5.126347E-2,-3.6845557E-2,-2.9743168E-1,-1.3525741E-1,-1.761616E-2,1.2050078E-1,2.3390594E-1,3.7111697E-1,7.149115E-1,6.0111105E-1,9.255507E-1,1.2460865E0,7.8977257E-1,2.800759E-1,-1.9678874E-1,-4.8698243E-2,-8.158716E-2,-1.2221446E0,-1.898183E-1,-2.4075797E-1,-1.5229534E-1,-1.0216136E-1,-6.1751436E-2,-3.0990615E-1,-7.200771E-2,1.1831973E-1,2.7013093E-1,3.800647E-2,3.7647262E-1,4.649355E-2,-3.11945E-1,-1.8941898E-2,-1.6002613E-1,-8.715705E-2,-4.5041423E-3,-9.139554E-2,9.5984325E-2,1.743548E-1,1.6279432E-1,2.537018E-1,3.9876513E-2,3.3527967E-2,5.1116493E-2,7.318486E-2,5.8653593E-1,6.9570355E-2,8.1099235E-2,1.0069092E-1,1.2750402E-1,9.852418E-2,8.6992815E-2,7.557606E-2,3.8356996E-1,4.200581E-2,-1.2595083E-2,-2.2424413E-2,-1.069989E-1,-1.3477106E-1,-1.5855057E-2,-3.5987836E-1,-8.667107E-2,-5.254625E-3,1.3990375E-1,5.9139073E-2,1.9338818E-1,3.105419E-2,4.3721586E-2,2.9763865E-1,-2.7285159E-2,-3.528635E-2,-1.6332884E-1,-3.951305E-3,-4.189275E-2,-1.4783676E-1,7.61639E-2,-1.1950941E-2,-2.2683596E-2,-2.1755716E-2,1.00666456E-1,-2.9369353E-3,1.925723E-2,7.5709514E-2,2.1258429E-2,1.0942619E-1,1.2455371E-2,2.5673091E-2,5.2770264E-2,6.02226E-1,4.6329138E-1,2.9619275E-2,-8.1643686E-2,1.3935487E-1,-3.858011E-2,-1.2758714E-2,-2.106948E-2,-1.0113637E-1,1.2065944E-2,-2.2758804E-2,1.6772985E-2,1.5016884E-1,-4.4569E-2,9.410842E-2,2.8403817E-2,1.23615034E-1,3.9783824E-2,2.234584E-1,-1.3623384E-2,-1.8076554E-2,-5.2329577E-3,6.5361573E-3,-3.2415662E-3,-1.5980955E-2,8.837787E-3,2.499091E-3,-9.8561635E-3,-1.467142E-4,1.6851605E-4,-7.7621015E-3,1.1712307E-2,7.8721605E-3,2.6405314E-3,9.015013E-3,1.2601875E-2,5.205042E-3,6.761568E-2,5.622507E-2,2.8595699E-2,5.0932582E-2,-1.029297E-2,-4.7617801E-4,1.6219709E-2,7.950479E-3,-5.2534244E-3,1.4253799E-3,-1.6790949E-2,-8.940294E-3,-1.45050185E-2,1.4012501E-3,-2.457868E-3,3.5705105E-3,1.192605E-2,1.711829E-2,2.390696E-3,-7.717577E-3,1.1008914E-2,8.1677403E-4,4.8057046E-3,1.7170139E-2,2.5204634E-2,9.23448E-3],"categories":[],"categories_nodes":[],"categories_segments":[],"categories_sizes":[],"default_left":[0,0,0,0,0,0,0,0,0,0,0,0,0,0,0,0,0,0,0,0,0,0,0,0,0,0,0,0,0,0,0,0,0,0,0,0,0,0,0,0,0,0,0,0,0,0,0,0,0,0,0,0,0,0,0,0,0,0,0,0,0,0,0,0,0,0,0,0,0,0,0,0,0,0,0,0,0,0,0,0,0,0,0,0,0,0,0,0,0,0,0,0,0,0,0,0,0,0,0,0,0,0,0,0,0,0,0,0,0,0,0,0,0,0,0,0,0,0,0,0,0,0,0,0,0,0,0,0,0,0,0,0,0,0,0,0,0,0,0,0,0,0,0,0,0,0,0,0,0,0,0,0,0,0,0,0,0,0,0,0,0,0,0,0,0,0,0,0,0,0,0,0,0,0,0,0,0,0,0,0,0,0,0],"id":0,"left_children":[1,3,5,7,9,11,13,15,17,19,21,23,25,27,29,31,33,35,37,39,41,43,45,47,49,51,53,55,57,59,61,-1,-1,-1,-1,63,65,67,69,71,73,75,77,79,81,83,85,87,-1,-1,89,-1,-1,-1,-1,-1,91,93,95,97,-1,99,-1,101,-1,103,105,107,109,111,113,115,117,-1,-1,-1,-1,119,-1,-1,-1,-1,-1,-1,-1,121,123,-1,-1,-1,-1,-1,125,127,129,131,133,135,-1,-1,137,-1,-1,139,-1,141,143,145,147,-1,149,151,-1,-1,153,-1,155,-1,-1,-1,157,159,-1,161,163,-1,-1,165,167,-1,169,171,173,175,177,-1,179,-1,181,-1,-1,-1,-1,-1,-1,-1,-1,-1,-1,-1,-1,-1,-1,-1,-1,-1,-1,-1,-1,-1,-1,-1,-1,-1,-1,-1,-1,-1,-1,-1,-1,-1,-1,-1,-1,-1,-1,-1,-1,-1,-1,-1,-1],"loss_changes":[2.177898E3,1.3399915E3,2.6655977E3,1.1395119E2,1.3997229E2,3.3612695E2,8.5227356E1,1.7650879E1,1.0035513E1,3.396158E1,5.836963E1,2.7608505E1,9.413086E1,1.8971542E1,1.4263458E0,3.2643127E0,1.4983292E0,2.0504322E0,1.6174523E0,2.1010056E0,2.2681885E0,2.2565796E1,1.937445E1,1.4957457E0,4.703964E0,2.705957E1,4.8201294E0,1.5104237E0,4.112452E0,3.0041122E-1,1.2062073E-2,0E0,0E0,0E0,0E0,9.242916E-2,2.882433E-1,1.6335623E-1,2.0000958E-1,2.2451878E-1,8.6299896E-2,4.5169067E-1,6.2249756E-1,2.6756897E0,2.265625E0,7.381592E-1,2.1563687E0,2.0843148E-2,0E0,0E0,4.3640137E-2,0E0,0E0,0E0,0E0,0E0,1.5266418E-1,3.1400907E-1,2.1176529E-1,9.444189E-2,0E0,2.2684097E-2,0E0,1.4744759E-2,0E0,5.778408E-2,2.4202621E-1,8.876992E-2,2.3311472E-1,7.515907E-2,7.0679665E-2,9.398067E-2,1.325798E-2,0E0,0E0,0E0,0E0,2.4841309E-1,0E0,0E0,0E0,0E0,0E0,0E0,0E0,2.2256374E-1,3.601253E-1,0E0,0E0,0E0,0E0,0E0,6.165147E-2,2.4685097E-1,1.3525844E-1,1.5737534E-1,1.8580833E-1,1.0229373E-1,0E0,0E0,4.8753977E-2,0E0,0E0,4.077816E-2,0E0,6.613753E-2,4.5433104E-2,4.499845E-3,1.21910326E-1,0E0,2.4422538E-2,2.824235E-2,0E0,0E0,3.9051585E-3,0E0,1.5389293E-2,0E0,0E0,0E0,1.2310638E0,2.235508E-2,0E0,2.135767E-2,3.2141209E-3,0E0,0E0,5.6139424E-2,1.4632201E-1,0E0,2.436283E-1,1.0319436E-2,4.569459E-2,3.2910086E-2,5.0153494E-2,0E0,4.7572374E-2,0E0,3.0681968E-2,0E0,0E0,0E0,0E0,0E0,0E0,0E0,0E0,0E0,0E0,0E0,0E0,0E0,0E0,0E0,0E0,0E0,0E0,0E0,0E0,0E0,0E0,0E0,0E0,0E0,0E0,0E0,0E0,0E0,0E0,0E0,0E0,0E0,0E0,0E0,0E0,0E0,0E0,0E0,0E0,0E0,0E0,0E0,0E0],"parents":[2147483647,0,0,1,1,2,2,3,3,4,4,5,5,6,6,7,7,8,8,9,9,10,10,11,11,12,12,13,13,14,14,15,15,16,16,17,17,18,18,19,19,20,20,21,21,22,22,23,23,24,24,25,25,26,26,27,27,28,28,29,29,30,30,35,35,36,36,37,37,38,38,39,39,40,40,41,41,42,42,43,43,44,44,45,45,46,46,47,47,50,50,56,56,57,57,58,58,59,59,61,61,63,63,65,65,66,66,67,67,68,68,69,69,70,70,71,71,72,72,77,77,85,85,86,86,92,92,93,93,94,94,95,95,96,96,97,97,100,100,103,103,105,105,106,106,107,107,108,108,110,110,111,111,114,114,116,116,120,120,121,121,123,123,124,124,127,127,128,128,130,130,131,131,132,132,133,133,134,134,136,136,138,138],"right_children":[2,4,6,8,10,12,14,16,18,20,22,24,26,28,30,32,34,36,38,40,42,44,46,48,50,52,54,56,58,60,62,-1,-1,-1,-1,64,66,68,70,72,74,76,78,80,82,84,86,88,-1,-1,90,-1,-1,-1,-1,-1,92,94,96,98,-1,100,-1,102,-1,104,106,108,110,112,114,116,118,-1,-1,-1,-1,120,-1,-1,-1,-1,-1,-1,-1,122,124,-1,-1,-1,-1,-1,126,128,130,132,134,136,-1,-1,138,-1,-1,140,-1,142,144,146,148,-1,150,152,-1,-1,154,-1,156,-1,-1,-1,158,160,-1,162,164,-1,-1,166,168,-1,170,172,174,176,178,-1,180,-1,182,-1,-1,-1,-1,-1,-1,-1,-1,-1,-1,-1,-1,-1,-1,-1,-1,-1,-1,-1,-1,-1,-1,-1,-1,-1,-1,-1,-1,-1,-1,-1,-1,-1,-1,-1,-1,-1,-1,-1,-1,-1,-1,-1,-1],"split_conditions":[5.791169E-1,-9.872548E-1,1.1218003E0,-1.3249344E0,-2.0451266E-1,7.0247424E-1,1.3951389E0,-1.5410315E0,-1.1492168E0,-7.569582E-1,2.4276854E-1,6.212714E-1,1.0672214E0,1.1626236E0,1.4763417E0,-1.649302E0,-1.3790696E0,-1.2707992E0,-1.0675701E0,-8.9185256E-1,-2.5883833E-1,-1.3708179E-2,5.391811E-1,5.959787E-1,6.48339E-1,7.841208E-1,1.0942891E0,1.148868E0,1.3143798E0,1.4222065E0,1.375082E0,-8.7973766E-2,-6.7572765E-2,-5.126347E-2,-3.6845557E-2,-5.3999895E-1,-1.19004E0,-5.084092E-1,-1.1153251E0,-5.2065897E-1,-1.0640954E0,-6.486877E-1,-2.5687295E-1,-1.2330982E-1,2.1436974E-1,3.239714E-1,5.6713617E-1,-6.8058264E-1,-4.8698243E-2,-8.158716E-2,6.7540663E-1,-1.898183E-1,-2.4075797E-1,-1.5229534E-1,-1.0216136E-1,-6.1751436E-2,-8.1198746E-1,1.2873122E0,9.601693E-1,5.67452E-2,3.800647E-2,8.386037E-1,4.649355E-2,4.91111E-1,-1.8941898E-2,-9.8795986E-1,4.2595667E-1,-6.8058264E-1,-1.268071E0,-1.1487474E0,4.91111E-1,-8.171238E-1,-2.5883833E-1,3.9876513E-2,3.3527967E-2,5.1116493E-2,7.318486E-2,-6.6288716E-1,6.9570355E-2,8.1099235E-2,1.0069092E-1,1.2750402E-1,9.852418E-2,8.6992815E-2,7.557606E-2,5.520493E-1,6.648573E-1,-1.2595083E-2,-2.2424413E-2,-1.069989E-1,-1.3477106E-1,-1.5855057E-2,2.7392915E-1,-7.35635E-2,4.8862115E-1,-5.3999895E-1,7.300137E-1,-1.5069727E0,3.105419E-2,4.3721586E-2,1.3128953E0,-2.7285159E-2,-3.528635E-2,-5.084092E-1,-3.951305E-3,3.608023E-1,-1.17452E0,-1.432841E0,-4.530972E-1,-2.2683596E-2,3.0348295E-1,3.390835E-1,-2.9369353E-3,1.925723E-2,6.431406E-1,2.1258429E-2,3.0348295E-1,1.2455371E-2,2.5673091E-2,5.2770264E-2,-2.2962E-1,-6.382401E-1,2.9619275E-2,6.2142175E-1,7.7306646E-1,-3.858011E-2,-1.2758714E-2,-6.382401E-1,1.1759356E0,1.2065944E-2,-5.184677E-2,1.2507086E0,6.647074E-1,4.6939427E-1,8.499361E-1,2.8403817E-2,-7.468321E-1,3.9783824E-2,1.0414504E0,-1.3623384E-2,-1.8076554E-2,-5.2329577E-3,6.5361573E-3,-3.2415662E-3,-1.5980955E-2,8.837787E-3,2.499091E-3,-9.8561635E-3,-1.467142E-4,1.6851605E-4,-7.7621015E-3,1.1712307E-2,7.8721605E-3,2.6405314E-3,9.015013E-3,1.2601875E-2,5.205042E-3,6.761568E-2,5.622507E-2,2.8595699E-2,5.0932582E-2,-1.029297E-2,-4.7617801E-4,1.6219709E-2,7.950479E-3,-5.2534244E-3,1.4253799E-3,-1.6790949E-2,-8.940294E-3,-1.45050185E-2,1.4012501E-3,-2.457868E-3,3.5705105E-3,1.192605E-2,1.711829E-2,2.390696E-3,-7.717577E-3,1.1008914E-2,8.1677403E-4,4.8057046E-3,1.7170139E-2,2.5204634E-2,9.23448E-3],"split_indices":[9,9,9,9,9,9,9,9,9,9,9,9,9,9,9,9,9,9,9,9,3,9,9,9,9,9,9,9,9,9,6,0,0,0,0,3,9,5,7,4,5,9,9,9,9,9,9,3,0,0,9,0,0,0,0,0,2,9,4,2,0,2,0,2,0,6,2,3,2,7,2,5,3,0,0,0,0,9,0,0,0,0,0,0,0,9,2,0,0,0,0,0,2,2,4,3,2,2,0,0,6,0,0,5,0,2,6,7,4,0,3,2,0,0,2,0,3,0,0,0,7,2,0,2,7,0,0,2,9,0,2,6,5,2,5,0,2,0,8,0,0,0,0,0,0,0,0,0,0,0,0,0,0,0,0,0,0,0,0,0,0,0,0,0,0,0,0,0,0,0,0,0,0,0,0,0,0,0,0,0,0,0,0],"split_type":[0,0,0,0,0,0,0,0,0,0,0,0,0,0,0,0,0,0,0,0,0,0,0,0,0,0,0,0,0,0,0,0,0,0,0,0,0,0,0,0,0,0,0,0,0,0,0,0,0,0,0,0,0,0,0,0,0,0,0,0,0,0,0,0,0,0,0,0,0,0,0,0,0,0,0,0,0,0,0,0,0,0,0,0,0,0,0,0,0,0,0,0,0,0,0,0,0,0,0,0,0,0,0,0,0,0,0,0,0,0,0,0,0,0,0,0,0,0,0,0,0,0,0,0,0,0,0,0,0,0,0,0,0,0,0,0,0,0,0,0,0,0,0,0,0,0,0,0,0,0,0,0,0,0,0,0,0,0,0,0,0,0,0,0,0,0,0,0,0,0,0,0,0,0,0,0,0,0,0,0,0,0,0],"sum_hessian":[7.399E3,4.944E3,2.455E3,1.585E3,3.359E3,1.143E3,1.312E3,8.76E2,7.09E2,1.676E3,1.683E3,2.56E2,8.87E2,5.78E2,7.34E2,4.02E2,4.74E2,3.72E2,3.37E2,4.9E2,1.186E3,9.65E2,7.18E2,8.4E1,1.72E2,7.74E2,1.13E2,8.4E1,4.94E2,1.75E2,5.59E2,1.75E2,2.27E2,3.58E2,1.16E2,1.14E2,2.58E2,1.68E2,1.69E2,2.02E2,2.88E2,2.92E2,8.94E2,4.17E2,5.48E2,6.31E2,8.7E1,3.1E1,5.3E1,5.8E1,1.14E2,1.72E2,6.02E2,5.7E1,5.6E1,5.4E1,3E1,3.2E2,1.74E2,5.8E1,1.17E2,4.4E1,5.15E2,9.8E1,1.6E1,1.68E2,9E1,1.44E2,2.4E1,1.19E2,5E1,4.7E1,1.55E2,1.54E2,1.34E2,2.6E1,2.66E2,7.84E2,1.1E2,1.8E2,2.37E2,4.88E2,6E1,1.77E2,4.54E2,6E1,2.7E1,1.1E1,2E1,5.8E1,5.6E1,9E0,2.1E1,2.62E2,5.8E1,1.26E2,4.8E1,2.3E1,3.5E1,2.1E1,2.3E1,5.6E1,4.2E1,1.63E2,5E0,5.3E1,3.7E1,1.1E1,1.33E2,7E0,1.7E1,1.15E2,4E0,4.1E1,9E0,2.2E1,2.5E1,5E0,1.5E2,1.76E2,6.08E2,2.8E1,3.2E1,1.2E1,1.5E1,1.8E1,3E0,4.8E1,2.14E2,6E0,5.2E1,1E1,1.16E2,1.2E1,3.6E1,8E0,1.5E1,7E0,1.6E1,6.9E1,9.4E1,4.9E1,4E0,4E0,3.3E1,8E0,3E0,1.3E1,1.2E2,1.3E1,4E0,6.2E1,5.3E1,3E0,6E0,1.8E1,7E0,2.05E2,4.03E2,8E0,2E1,9E0,3E0,9E0,6E0,2.5E1,2.3E1,2.9E1,1.85E2,1.1E1,4.1E1,3E0,7E0,5.1E1,6.5E1,4E0,8E0,3E1,6E0,7E0,8E0,1.2E1,4E0],"tree_param":{"num_deleted":"0","num_feature":"10","num_nodes":"183","size_leaf_vector":"1"}},{"base_weights":[-1.4486783E-3,-2.1530101E0,1.2385106E-1,-2.989768E-2,-2.239443E-1,3.4695494E-1,-4.1023135E-1,-4.6941705E-2,3.4987852E-3,-3.3313426E-1,6.705697E-1,-1.4980044E0,1.6402423E-1,-2.2065042E-2,-7.246721E-3,-5.5411756E-1,-6.668684E-2,4.8460317E-1,8.5483307E-1,-1.9039919E0,-1.0229872E0,-9.812514E-2,3.9083356E-1,-3.1289798E-3,-1.3853783E-4,-6.922707E-1,-4.3109554E-1,-1.7342037E-1,4.451878E-2,2.939159E-1,5.697787E-1,1.0027795E0,6.56651E-1,-2.0126896E-1,-1.6354354E-1,-1.3596058E-1,-9.2043406E-1,-4.0482748E-1,-4.255883E-3,3.140342E-1,4.1434914E-2,-7.946442E-2,-6.1044063E-2,-4.6355337E-2,-3.2789294E-2,-2.653532E-1,-1.2941968E-1,-1.7573796E-2,1.09431155E-1,2.1163973E-1,3.4653643E-1,6.39763E-1,5.446419E-1,8.3297914E-1,1.1253798E0,7.109241E-1,2.6027626E-1,-3.7925467E-1,-9.5130855E-1,-1.850075E-1,-4.5628121E-1,-6.351733E-2,1.0608849E-1,2.4486691E-1,3.4395248E-2,-2.7872717E-1,-1.7046198E-2,-1.4729102E-1,-8.518228E-2,-6.527665E-3,-8.563252E-2,8.466068E-2,1.5517257E-1,1.4136738E-1,2.2990726E-1,3.730915E-1,3.0532569E-2,4.6471667E-2,6.583052E-2,5.308361E-1,6.2751606E-2,7.2769517E-1,9.049339E-2,1.15095235E-1,8.927269E-2,7.814833E-2,6.8199664E-2,3.5062116E-1,3.7464764E-2,-4.284292E-2,-1.053129E-2,-9.927361E-1,-5.9890073E-2,-1.0032909E-2,-2.0382686E-2,-5.1065457E-1,-2.6627403E-1,-7.6702215E-2,-3.6272828E-3,1.2787321E-1,4.7784153E-2,2.7777204E-2,7.41539E-2,-3.0928826E-2,-2.2538517E-2,-1.5016927E-2,-3.6473589E-3,-1.0027229E-2,-4.228145E-3,2.0959554E-3,-4.2574992E-3,-1.8943766E-2,-1.1789919E-3,9.864901E-3,5.364613E-3,7.7448986E-3,1.6672384E-2,1.816821E-2,5.898737E-3,2.4375195E-2,1.8253917E-2,3.7857987E-2,1.9264182E-2,5.548636E-2,5.0605E-2,7.523746E-2,4.8845068E-2,4.251856E-2,2.6945753E-2,6.068611E-3,-1.0145084E-2,-7.5341344E-2,-1.0559999E-1,-2.911892E-2,-5.3552676E-2,-1.3996395E-2,-3.1148601E-2,-1.4807536E-2,-6.6715577E-3,2.0666176E-3,-1.5017695E-2,3.1908625E-3,1.3416015E-2,9.067877E-3,-3.6364218E-4,9.276169E-3,1.4287875E-3],"categories":[],"categories_nodes":[],"categories_segments":[],"categories_sizes":[],"default_left":[0,0,0,0,0,0,0,0,0,0,0,0,0,0,0,0,0,0,0,0,0,0,0,0,0,0,0,0,0,0,0,0,0,0,0,0,0,0,0,0,0,0,0,0,0,0,0,0,0,0,0,0,0,0,0,0,0,0,0,0,0,0,0,0,0,0,0,0,0,0,0,0,0,0,0,0,0,0,0,0,0,0,0,0,0,0,0,0,0,0,0,0,0,0,0,0,0,0,0,0,0,0,0,0,0,0,0,0,0,0,0,0,0,0,0,0,0,0,0,0,0,0,0,0,0,0,0,0,0,0,0,0,0,0,0,0,0,0,0,0,0,0,0,0,0,0,0],"id":1,"left_children":[1,3,5,7,-1,9,11,13,-1,15,17,19,21,23,-1,25,27,29,31,33,35,37,39,-1,-1,41,43,45,47,49,51,53,55,-1,-1,-1,57,59,61,63,-1,-1,-1,-1,-1,65,67,69,71,73,75,77,79,81,83,85,87,89,91,93,95,97,99,101,-1,103,-1,105,107,109,111,113,115,117,119,121,-1,-1,-1,123,-1,125,-1,-1,-1,-1,-1,127,129,-1,-1,131,-1,-1,-1,133,135,137,139,141,143,-1,145,-1,-1,-1,-1,-1,-1,-1,-1,-1,-1,-1,-1,-1,-1,-1,-1,-1,-1,-1,-1,-1,-1,-1,-1,-1,-1,-1,-1,-1,-1,-1,-1,-1,-1,-1,-1,-1,-1,-1,-1,-1,-1,-1,-1],"loss_changes":[2.0011626E3,7.486218E1,8.3603235E2,2.1817021E-2,0E0,1.089435E3,1.2918525E3,6.8088546E-3,0E0,9.3947174E1,1.1429236E2,1.3487048E2,8.059328E1,1.747244E-3,0E0,1.4381256E1,8.6228075E0,2.691333E1,4.834375E1,6.2574463E0,9.601166E0,1.812067E1,1.1168671E0,0E0,0E0,2.6944885E0,1.3313065E0,1.4472008E0,1.4397852E0,2.139122E0,1.5083008E0,1.8589172E1,1.5286713E1,0E0,0E0,0E0,3.7947083E0,1.5416851E0,3.1717951E0,2.3890877E-1,0E0,0E0,0E0,0E0,0E0,7.911587E-2,1.8159246E-1,1.3711417E-1,1.7800951E-1,2.1633339E-1,1.7329788E-1,5.034714E-1,4.8371887E-1,2.1068726E0,1.751831E0,4.9768066E-1,1.7819209E0,1.5459204E-1,2.6777039E0,1.7929912E-2,1.0203018E0,2.4871516E-1,2.0612407E-1,2.977171E-1,0E0,6.0901165E-2,0E0,4.8718452E-2,4.316461E-2,1.5937763E-1,1.9211347E-1,4.2604387E-2,3.4050465E-2,1.3835698E-1,3.9168358E-2,7.3329926E-2,0E0,0E0,0E0,2.3406982E-2,0E0,4.7317505E-1,0E0,0E0,0E0,0E0,0E0,2.1244335E-1,9.79447E-2,0E0,0E0,2.0845184E0,0E0,0E0,0E0,2.6009178E-1,1.03070974E-1,1.6943467E-1,2.1292695E-1,6.748557E-2,1.074694E-1,0E0,1.0822654E-2,0E0,0E0,0E0,0E0,0E0,0E0,0E0,0E0,0E0,0E0,0E0,0E0,0E0,0E0,0E0,0E0,0E0,0E0,0E0,0E0,0E0,0E0,0E0,0E0,0E0,0E0,0E0,0E0,0E0,0E0,0E0,0E0,0E0,0E0,0E0,0E0,0E0,0E0,0E0,0E0,0E0,0E0,0E0,0E0],"parents":[2147483647,0,0,1,1,2,2,3,3,5,5,6,6,7,7,9,9,10,10,11,11,12,12,13,13,15,15,16,16,17,17,18,18,19,19,20,20,21,21,22,22,25,25,26,26,27,27,28,28,29,29,30,30,31,31,32,32,36,36,37,37,38,38,39,39,45,45,46,46,47,47,48,48,49,49,50,50,51,51,52,52,53,53,54,54,55,55,56,56,57,57,58,58,59,59,60,60,61,61,62,62,63,63,65,65,67,67,68,68,69,69,70,70,71,71,72,72,73,73,74,74,75,75,79,79,81,81,87,87,88,88,91,91,95,95,96,96,97,97,98,98,99,99,100,100,102,102],"right_children":[2,4,6,8,-1,10,12,14,-1,16,18,20,22,24,-1,26,28,30,32,34,36,38,40,-1,-1,42,44,46,48,50,52,54,56,-1,-1,-1,58,60,62,64,-1,-1,-1,-1,-1,66,68,70,72,74,76,78,80,82,84,86,88,90,92,94,96,98,100,102,-1,104,-1,106,108,110,112,114,116,118,120,122,-1,-1,-1,124,-1,126,-1,-1,-1,-1,-1,128,130,-1,-1,132,-1,-1,-1,134,136,138,140,142,144,-1,146,-1,-1,-1,-1,-1,-1,-1,-1,-1,-1,-1,-1,-1,-1,-1,-1,-1,-1,-1,-1,-1,-1,-1,-1,-1,-1,-1,-1,-1,-1,-1,-1,-1,-1,-1,-1,-1,-1,-1,-1,-1,-1,-1,-1],"split_conditions":[-1.2969921E0,-4.1579413E-1,5.791169E-1,-3.1935376E-1,-2.239443E-1,-9.872548E-1,5.477163E-1,-1.3268577E0,3.4987852E-3,-1.3249344E0,-2.0451266E-1,2.0658582E-2,1.3951389E0,-1.4223168E0,-7.246721E-3,-1.5410315E0,-1.1492168E0,-7.432025E-1,2.4276854E-1,-5.0639915E-1,2.8418747E-1,1.1626236E0,1.4763417E0,-3.1289798E-3,-1.3853783E-4,-1.649302E0,-1.3790696E0,-1.2707992E0,-1.0675701E0,-8.9185256E-1,-2.5883833E-1,-1.3708179E-2,5.391811E-1,-2.0126896E-1,-1.6354354E-1,-1.3596058E-1,6.212714E-1,5.959787E-1,1.3143798E0,1.4222065E0,4.1434914E-2,-7.946442E-2,-6.1044063E-2,-4.6355337E-2,-3.2789294E-2,-5.3999895E-1,-1.19004E0,-5.084092E-1,-1.0143224E0,-5.2065897E-1,-1.0640954E0,-6.486877E-1,-2.5687295E-1,-1.2330982E-1,2.1436974E-1,3.239714E-1,5.6713617E-1,2.6874322E-1,1.1218003E0,-6.8058264E-1,1.148868E0,1.2873122E0,9.601693E-1,5.069344E-1,3.4395248E-2,2.0378213E-1,-1.7046198E-2,-9.8795986E-1,1.3882104E-1,1.6047473E-1,-2.5883833E-1,-3.99422E-1,-4.875671E-1,3.1205112E-1,-7.5538087E-1,3.7701222E-1,3.0532569E-2,4.6471667E-2,6.583052E-2,-4.4767743E-1,6.2751606E-2,3.7701222E-1,9.049339E-2,1.15095235E-1,8.927269E-2,7.814833E-2,6.8199664E-2,5.520493E-1,1.3130087E0,-4.284292E-2,-1.053129E-2,6.48339E-1,-5.9890073E-2,-1.0032909E-2,-2.0382686E-2,5.6667244E-1,1.8212843E-1,1.1759356E0,3.9866593E-1,-5.3999895E-1,1.3276917E0,2.7777204E-2,1.1586506E0,-3.0928826E-2,-2.2538517E-2,-1.5016927E-2,-3.6473589E-3,-1.0027229E-2,-4.228145E-3,2.0959554E-3,-4.2574992E-3,-1.8943766E-2,-1.1789919E-3,9.864901E-3,5.364613E-3,7.7448986E-3,1.6672384E-2,1.816821E-2,5.898737E-3,2.4375195E-2,1.8253917E-2,3.7857987E-2,1.9264182E-2,5.548636E-2,5.0605E-2,7.523746E-2,4.8845068E-2,4.251856E-2,2.6945753E-2,6.068611E-3,-1.0145084E-2,-7.5341344E-2,-1.0559999E-1,-2.911892E-2,-5.3552676E-2,-1.3996395E-2,-3.1148601E-2,-1.4807536E-2,-6.6715577E-3,2.0666176E-3,-1.5017695E-2,3.1908625E-3,1.3416015E-2,9.067877E-3,-3.6364218E-4,9.276169E-3,1.4287875E-3],"split_indices":[1,5,9,4,0,9,1,8,0,9,9,1,9,8,0,9,9,9,9,1,1,9,9,0,0,9,9,9,9,9,3,9,9,0,0,0,9,9,9,9,0,0,0,0,0,3,9,5,9,4,5,9,9,9,9,9,9,0,9,3,9,9,4,0,0,0,0,6,0,0,3,3,4,0,5,0,0,0,0,9,0,0,0,0,0,0,0,9,5,0,0,9,0,0,0,6,0,9,0,3,9,0,5,0,0,0,0,0,0,0,0,0,0,0,0,0,0,0,0,0,0,0,0,0,0,0,0,0,0,0,0,0,0,0,0,0,0,0,0,0,0,0,0,0,0,0,0],"split_type":[0,0,0,0,0,0,0,0,0,0,0,0,0,0,0,0,0,0,0,0,0,0,0,0,0,0,0,0,0,0,0,0,0,0,0,0,0,0,0,0,0,0,0,0,0,0,0,0,0,0,0,0,0,0,0,0,0,0,0,0,0,0,0,0,0,0,0,0,0,0,0,0,0,0,0,0,0,0,0,0,0,0,0,0,0,0,0,0,0,0,0,0,0,0,0,0,0,0,0,0,0,0,0,0,0,0,0,0,0,0,0,0,0,0,0,0,0,0,0,0,0,0,0,0,0,0,0,0,0,0,0,0,0,0,0,0,0,0,0,0,0,0,0,0,0,0,0],"sum_hessian":[7.42E3,4.07E2,7.013E3,1.6E1,3.91E2,4.947E3,2.066E3,1.3E1,3E0,1.595E3,3.352E3,7.13E2,1.353E3,8E0,5E0,8.71E2,7.24E2,1.671E3,1.681E3,3.82E2,3.31E2,6.28E2,7.25E2,5E0,3E0,4.07E2,4.64E2,3.69E2,3.55E2,5.18E2,1.153E3,9.59E2,7.22E2,2.65E2,1.17E2,7.3E1,2.58E2,1.46E2,4.82E2,1.75E2,5.5E2,1.75E2,2.32E2,3.49E2,1.15E2,1.17E2,2.52E2,1.82E2,1.73E2,2.05E2,3.13E2,2.95E2,8.58E2,4.07E2,5.52E2,6.34E2,8.8E1,1.5E1,2.43E2,2.9E1,1.17E2,3.14E2,1.68E2,5.7E1,1.18E2,1E2,1.7E1,1.77E2,7.5E1,1.58E2,2.4E1,1.15E2,5.8E1,4.5E1,1.6E2,1.83E2,1.3E2,3.2E1,2.63E2,7.45E2,1.13E2,1.72E2,2.35E2,4.92E2,6E1,1.73E2,4.61E2,6.2E1,2.6E1,1.2E1,3E0,2.15E2,2.8E1,7E0,2.2E1,8.9E1,2.8E1,2.57E2,5.7E1,1.21E2,4.7E1,4.7E1,1E1,5.9E1,4.1E1,1.72E2,5E0,5.4E1,2.1E1,9E1,6.8E1,9E0,1.5E1,7.7E1,3.8E1,9E0,4.9E1,2.9E1,1.6E1,1.19E2,4.1E1,1.76E2,7E0,3.62E2,3.83E2,1.53E2,1.9E1,2.9E1,3.3E1,2.3E1,3E0,4.9E1,1.66E2,1.1E1,7.8E1,9E0,1.9E1,2.9E1,2.28E2,5E1,7E0,8E0,1.13E2,2.5E1,2.2E1,7E0,3E0],"tree_param":{"num_deleted":"0","num_feature":"10","num_nodes":"147","size_leaf_vector":"1"}},{"base_weights":[-2.1397958E-3,-1.9426368E0,1.1204011E-1,-2.6630709E-2,-2.0148385E-1,3.143526E-1,-3.6726314E-1,-4.3433752E-2,3.265533E-3,-3.0232152E-1,6.0340154E-1,-1.3511144E0,1.4900489E-1,-1.7829698E-2,-6.6892803E-3,-4.9963158E-1,-5.8847263E-2,4.3570516E-1,7.6996195E-1,-1.7178683E0,-9.2219806E-1,-8.444299E-2,3.5242653E-1,-2.6497063E-3,-1.2930197E-4,-6.251911E-1,-3.8762522E-1,-1.5444809E-1,4.1713E-2,2.625791E-1,5.136419E-1,9.0182287E-1,5.945844E-1,-1.8130495E-1,-1.4726451E-1,-1.2268815E-1,-8.2512516E-1,-3.6526754E-1,-2.1258688E-3,2.805505E-1,3.7397582E-2,-7.173813E-2,-5.5188417E-2,-3.0967847E-2,-4.2271748E-1,-2.4767695E-1,-1.1651773E-1,-1.7219067E-2,9.8945364E-2,1.905505E-1,3.0804232E-1,5.7351E-1,4.9180773E-1,7.311268E-1,9.9924374E-1,6.4215815E-1,2.3615159E-1,-3.5077214E-1,-8.5646755E-1,-1.6427976E-1,-4.1577598E-1,-5.369817E-2,9.124829E-2,2.2564739E-1,3.0497894E-2,-4.5605086E-2,-3.9599317E-1,-2.7200578E-2,-2.0149877E-2,-1.3713278E-1,-8.377469E-2,4.034281E-3,-4.5639195E-2,7.989157E-2,1.437352E-1,2.0492567E-1,1.2199246E-1,3.3099774E-1,2.737978E-2,4.1731928E-2,5.8921176E-1,4.7966802E-1,5.6419325E-1,6.2657285E-1,7.782358E-2,1.0190381E0,8.028137E-2,7.06112E-2,6.154505E-2,3.1525877E-1,3.6211006E-2,-3.901271E-2,-9.829204E-3,-8.9298165E-1,-5.37855E-2,-9.52364E-3,-1.8554801E-2,-4.644518E-1,-2.519074E-1,-1.0469087E-1,-4.226505E-2,1.0452959E-1,1.975183E-2,2.521494E-1,8.2141265E-2,-1.8901328E-2,-4.0013302E-2,-1.2117889E-2,-1.7734682E-2,-1.7007075E-2,-7.5928173E-3,-3.1845819E-3,4.9453927E-3,8.13965E-3,-5.6694276E-3,4.7642556E-3,8.961153E-3,1.8772007E-3,1.5103481E-2,1.1286936E-2,2.109025E-2,9.366138E-3,2.0878913E-2,3.398163E-2,2.0253083E-2,6.031024E-2,4.404961E-2,5.032574E-2,4.5592602E-2,5.7396807E-2,3.0994555E-2,6.551992E-2,4.431797E-2,9.707839E-2,1.1082812E-1,3.8042556E-2,2.4582952E-2,5.8965324E-3,-9.4687445E-3,-6.7790814E-2,-9.5086455E-2,-3.8822312E-2,-5.1750153E-2,-1.2974351E-2,-2.8831188E-2,-4.627548E-3,-1.2553985E-2,-5.578604E-3,1.6421091E-3,1.2065505E-3,1.1036528E-2,6.78754E-3,-4.482522E-3,1.0591312E-2,2.5816744E-2,1.3456406E-2,3.9892504E-3],"categories":[],"categories_nodes":[],"categories_segments":[],"categories_sizes":[],"default_left":[0,0,0,0,0,0,0,0,0,0,0,0,0,0,0,0,0,0,0,0,0,0,0,0,0,0,0,0,0,0,0,0,0,0,0,0,0,0,0,0,0,0,0,0,0,0,0,0,0,0,0,0,0,0,0,0,0,0,0,0,0,0,0,0,0,0,0,0,0,0,0,0,0,0,0,0,0,0,0,0,0,0,0,0,0,0,0,0,0,0,0,0,0,0,0,0,0,0,0,0,0,0,0,0,0,0,0,0,0,0,0,0,0,0,0,0,0,0,0,0,0,0,0,0,0,0,0,0,0,0,0,0,0,0,0,0,0,0,0,0,0,0,0,0,0,0,0,0,0,0,0,0,0,0,0,0,0],"id":2,"left_children":[1,3,5,7,-1,9,11,13,-1,15,17,19,21,23,-1,25,27,29,31,33,35,37,39,-1,-1,41,43,45,47,49,51,53,55,-1,-1,-1,57,59,61,63,-1,-1,-1,-1,65,67,69,71,73,75,77,79,81,83,85,87,89,91,93,95,97,99,101,103,-1,-1,105,-1,-1,107,109,111,113,115,117,119,121,123,-1,-1,125,127,129,131,-1,133,-1,-1,-1,135,137,-1,-1,139,-1,-1,-1,141,143,145,147,149,151,153,155,-1,-1,-1,-1,-1,-1,-1,-1,-1,-1,-1,-1,-1,-1,-1,-1,-1,-1,-1,-1,-1,-1,-1,-1,-1,-1,-1,-1,-1,-1,-1,-1,-1,-1,-1,-1,-1,-1,-1,-1,-1,-1,-1,-1,-1,-1,-1,-1,-1,-1,-1,-1],"loss_changes":[1.6446768E3,5.6984375E1,6.799746E2,1.8564582E-2,0E0,8.791303E2,1.0575602E3,6.3197166E-3,0E0,7.559476E1,9.32771E1,1.1033386E2,6.493747E1,1.1669083E-3,0E0,1.186467E1,6.8017035E0,2.2418518E1,3.810431E1,4.9694824E0,8.345276E0,1.4735712E1,9.740753E-1,0E0,0E0,2.1600952E0,1.0714722E0,1.2385864E0,1.1678655E0,1.6262321E0,1.086029E0,1.4826782E1,1.2160797E1,0E0,0E0,0E0,3.377716E0,1.3644485E0,2.388625E0,1.3081264E-1,0E0,0E0,0E0,0E0,1.0154724E-2,3.406477E-2,1.5860534E-1,1.03866085E-1,1.3254952E-1,1.660142E-1,1.1443138E-1,3.656845E-1,3.467102E-1,1.0097046E0,1.1271362E0,4.421692E-1,1.3668404E0,1.2630272E-1,2.0774994E0,1.9749165E-2,7.378044E-1,1.7963314E-1,1.6450131E-1,1.9522262E-1,0E0,0E0,4.6360016E-2,0E0,0E0,6.881118E-2,5.1389635E-2,1.6451366E-1,1.1014478E-1,3.3248544E-2,4.181242E-2,5.7002068E-2,6.779903E-2,1.046505E-1,0E0,0E0,1.5615082E-1,7.221985E-2,1.7707825E-2,1.8130112E-1,0E0,7.3095703E-1,0E0,0E0,0E0,1.425004E-1,8.730531E-2,0E0,0E0,1.690979E0,0E0,0E0,0E0,4.8439026E-2,7.508576E-2,6.131524E-2,2.1045998E-1,7.8131914E-2,9.62403E-2,2.547741E-3,1.7418034E-2,0E0,0E0,0E0,0E0,0E0,0E0,0E0,0E0,0E0,0E0,0E0,0E0,0E0,0E0,0E0,0E0,0E0,0E0,0E0,0E0,0E0,0E0,0E0,0E0,0E0,0E0,0E0,0E0,0E0,0E0,0E0,0E0,0E0,0E0,0E0,0E0,0E0,0E0,0E0,0E0,0E0,0E0,0E0,0E0,0E0,0E0,0E0,0E0,0E0,0E0,0E0,0E0],"parents":[2147483647,0,0,1,1,2,2,3,3,5,5,6,6,7,7,9,9,10,10,11,11,12,12,13,13,15,15,16,16,17,17,18,18,19,19,20,20,21,21,22,22,25,25,26,26,27,27,28,28,29,29,30,30,31,31,32,32,36,36,37,37,38,38,39,39,44,44,45,45,46,46,47,47,48,48,49,49,50,50,51,51,52,52,53,53,54,54,55,55,56,56,57,57,58,58,59,59,60,60,61,61,62,62,63,63,66,66,69,69,70,70,71,71,72,72,73,73,74,74,75,75,76,76,77,77,80,80,81,81,82,82,83,83,85,85,89,89,90,90,93,93,97,97,98,98,99,99,100,100,101,101,102,102,103,103,104,104],"right_children":[2,4,6,8,-1,10,12,14,-1,16,18,20,22,24,-1,26,28,30,32,34,36,38,40,-1,-1,42,44,46,48,50,52,54,56,-1,-1,-1,58,60,62,64,-1,-1,-1,-1,66,68,70,72,74,76,78,80,82,84,86,88,90,92,94,96,98,100,102,104,-1,-1,106,-1,-1,108,110,112,114,116,118,120,122,124,-1,-1,126,128,130,132,-1,134,-1,-1,-1,136,138,-1,-1,140,-1,-1,-1,142,144,146,148,150,152,154,156,-1,-1,-1,-1,-1,-1,-1,-1,-1,-1,-1,-1,-1,-1,-1,-1,-1,-1,-1,-1,-1,-1,-1,-1,-1,-1,-1,-1,-1,-1,-1,-1,-1,-1,-1,-1,-1,-1,-1,-1,-1,-1,-1,-1,-1,-1,-1,-1,-1,-1,-1,-1],"split_conditions":[-1.2969921E0,-4.1579413E-1,5.791169E-1,-3.1935376E-1,-2.0148385E-1,-9.872548E-1,5.477163E-1,-1.3268577E0,3.265533E-3,-1.3249344E0,-2.0451266E-1,2.0658582E-2,1.3951389E0,-1.4223168E0,-6.6892803E-3,-1.5410315E0,-1.1492168E0,-7.432025E-1,2.4276854E-1,-5.0639915E-1,2.8418747E-1,1.1626236E0,1.4763417E0,-2.6497063E-3,-1.2930197E-4,-1.649302E0,-1.6166673E0,-1.7503589E0,-1.0675701E0,-8.9185256E-1,-2.5883833E-1,-4.077579E-2,5.391811E-1,-1.8130495E-1,-1.4726451E-1,-1.2268815E-1,6.212714E-1,5.959787E-1,1.3143798E0,1.4222065E0,3.7397582E-2,-7.173813E-2,-5.5188417E-2,-3.0967847E-2,-1.242904E0,2.0378213E-1,-1.203352E0,1.6047473E-1,-1.1153251E0,2.9039744E-1,-1.0640954E0,-6.486877E-1,-2.5687295E-1,-1.5037744E-1,2.1436974E-1,3.239714E-1,5.6713617E-1,2.6874322E-1,1.1218003E0,-6.8058264E-1,1.148868E0,1.1896913E0,1.1469649E0,5.069344E-1,3.0497894E-2,-4.5605086E-2,-7.5538087E-1,-2.7200578E-2,-2.0149877E-2,3.3370483E-1,-7.2451013E-1,-1.1088371E0,-6.8058264E-1,-4.875671E-1,-1.5268687E0,-2.5883833E-1,3.7701222E-1,3.553585E-1,2.737978E-2,4.1731928E-2,-3.967341E-1,-4.4767743E-1,4.63627E-1,3.7701222E-1,7.782358E-2,3.548777E-1,8.028137E-2,7.06112E-2,6.154505E-2,5.520493E-1,1.3130087E0,-3.901271E-2,-9.829204E-3,6.48339E-1,-5.37855E-2,-9.52364E-3,-1.8554801E-2,6.212714E-1,1.8212843E-1,2.4708952E-1,1.7092862E0,-5.3999895E-1,3.1205112E-1,1.2322006E-1,1.066037E0,-1.8901328E-2,-4.0013302E-2,-1.2117889E-2,-1.7734682E-2,-1.7007075E-2,-7.5928173E-3,-3.1845819E-3,4.9453927E-3,8.13965E-3,-5.6694276E-3,4.7642556E-3,8.961153E-3,1.8772007E-3,1.5103481E-2,1.1286936E-2,2.109025E-2,9.366138E-3,2.0878913E-2,3.398163E-2,2.0253083E-2,6.031024E-2,4.404961E-2,5.032574E-2,4.5592602E-2,5.7396807E-2,3.0994555E-2,6.551992E-2,4.431797E-2,9.707839E-2,1.1082812E-1,3.8042556E-2,2.4582952E-2,5.8965324E-3,-9.4687445E-3,-6.7790814E-2,-9.5086455E-2,-3.8822312E-2,-5.1750153E-2,-1.2974351E-2,-2.8831188E-2,-4.627548E-3,-1.2553985E-2,-5.578604E-3,1.6421091E-3,1.2065505E-3,1.1036528E-2,6.78754E-3,-4.482522E-3,1.0591312E-2,2.5816744E-2,1.3456406E-2,3.9892504E-3],"split_indices":[1,5,9,4,0,9,1,8,0,9,9,1,9,8,0,9,9,9,9,1,1,9,9,0,0,9,7,7,9,9,3,9,9,0,0,0,9,9,9,9,0,0,0,0,3,0,9,0,7,0,5,9,9,9,9,9,9,0,9,3,9,9,3,0,0,0,5,0,0,0,5,9,3,4,8,3,0,0,0,0,7,9,0,0,0,4,0,0,0,9,5,0,0,9,0,0,0,9,0,0,3,3,0,8,5,0,0,0,0,0,0,0,0,0,0,0,0,0,0,0,0,0,0,0,0,0,0,0,0,0,0,0,0,0,0,0,0,0,0,0,0,0,0,0,0,0,0,0,0,0,0,0,0,0,0,0,0],"split_type":[0,0,0,0,0,0,0,0,0,0,0,0,0,0,0,0,0,0,0,0,0,0,0,0,0,0,0,0,0,0,0,0,0,0,0,0,0,0,0,0,0,0,0,0,0,0,0,0,0,0,0,0,0,0,0,0,0,0,0,0,0,0,0,0,0,0,0,0,0,0,0,0,0,0,0,0,0,0,0,0,0,0,0,0,0,0,0,0,0,0,0,0,0,0,0,0,0,0,0,0,0,0,0,0,0,0,0,0,0,0,0,0,0,0,0,0,0,0,0,0,0,0,0,0,0,0,0,0,0,0,0,0,0,0,0,0,0,0,0,0,0,0,0,0,0,0,0,0,0,0,0,0,0,0,0,0,0],"sum_hessian":[7.42E3,4.11E2,7.009E3,1.5E1,3.96E2,4.929E3,2.08E3,1.2E1,3E0,1.573E3,3.356E3,7.15E2,1.365E3,7E0,5E0,8.68E2,7.05E2,1.675E3,1.681E3,3.83E2,3.32E2,6.36E2,7.29E2,4E0,3E0,4.06E2,4.62E2,3.61E2,3.44E2,5.22E2,1.153E3,9.56E2,7.25E2,2.69E2,1.14E2,7.6E1,2.56E2,1.43E2,4.93E2,1.73E2,5.56E2,1.74E2,2.32E2,1.48E2,3.14E2,1.02E2,2.59E2,1.7E2,1.74E2,2.05E2,3.17E2,2.98E2,8.55E2,3.52E2,6.04E2,6.39E2,8.6E1,1.7E1,2.39E2,3E1,1.13E2,3.18E2,1.75E2,5.8E1,1.15E2,1.29E2,1.85E2,6.2E1,4E1,1.56E2,1.03E2,9.8E1,7.2E1,1.25E2,4.9E1,1.67E2,3.8E1,1.82E2,1.35E2,3.1E1,2.67E2,7.42E2,1.13E2,1.16E2,2.36E2,5.43E2,6.1E1,1.77E2,4.62E2,6.1E1,2.5E1,1.4E1,3E0,2.12E2,2.7E1,9E0,2.1E1,8.5E1,2.8E1,5.6E1,2.62E2,1.47E2,2.8E1,4.8E1,1E1,5E0,1.8E2,1.16E2,4E1,6E0,9.7E1,5.5E1,4.3E1,5E0,6.7E1,3.1E1,9.4E1,3E0,4.6E1,1.2E1,1.55E2,3.1E1,7E0,1.68E2,1.4E1,2.4E2,2.7E1,3.57E2,3.85E2,1.07E2,6E0,9.7E1,1.9E1,3.64E2,1.79E2,2.8E1,3.3E1,2.2E1,3E0,4.9E1,1.63E2,4E1,4.5E1,8E0,2E1,1.6E1,4E1,2.13E2,4.9E1,9E0,1.38E2,1.6E1,1.2E1,3E0,4.5E1,3E0,7E0],"tree_param":{"num_deleted":"0","num_feature":"10","num_nodes":"157","size_leaf_vector":"1"}},{"base_weights":[-1.1278104E-4,-1.7443537E0,1.0155271E-1,-2.5378594E-2,-1.8143296E-1,2.636392E-1,-2.5751588E-1,-4.0088125E-2,3.0478307E-3,9.244243E-3,6.1193573E-1,-1.2209556E0,2.021319E-1,-1.8939046E-2,-6.174721E-3,3.6431625E-1,-2.1874872E-1,6.602705E-1,3.3668133E-3,-1.5433899E0,-8.3185494E-1,5.382682E-2,2.703765E-1,-2.6844654E-3,-1.2068184E-4,4.5872673E-1,2.669787E-1,-7.978312E-3,-3.7484673E-1,4.729786E-1,7.566197E-1,-4.635107E-2,2.0741567E-2,-1.632662E-1,-1.3230856E-1,-1.10919215E-1,-7.454994E-1,4.536636E-1,-6.102553E-2,8.257672E-2,3.3024225E-1,1.510675E-1,4.929711E-1,-4.534887E-2,2.8319997E-1,-6.0440842E-2,1.3983332E-1,-1.9189766E-1,-4.393611E-1,5.889064E-1,4.490823E-1,6.587989E-1,8.48508E-1,-2.31486E-2,5.4797776E-2,-9.253374E-1,-6.8658453E-1,5.5467177E-2,-8.0926064E-4,1.688504E-2,-1.9763367E-1,-1.0898566E-1,3.0126202E-1,2.304192E-1,3.5258237E-1,-1.0404291E-1,1.8951972E-1,4.15706E-1,5.4129183E-1,2.5843385E-1,5.9845436E-2,-1.1412149E-2,-1.3809541E-1,1.4720109E-1,1.7251955E-2,1.8698454E-1,-2.6915833E-1,-3.4763733E-1,-5.3180915E-1,6.290997E-1,2.715793E-1,4.1520223E-2,5.0448813E-2,5.59922E-1,6.870355E-1,6.716128E-1,9.128806E-1,-6.0609844E-2,-7.038764E-3,1.5070949E-2,9.641869E-2,-3.749613E-1,-9.9048965E-2,-5.368861E-2,-7.328101E-2,-1.1175979E-1,1.4530605E-1,1.09312885E-1,-3.614445E-2,-3.5947546E-1,-7.2112724E-2,9.7480476E-2,-3.1609824E-1,3.353706E-3,3.1041533E-2,-1.51071E-1,2.5148857E-1,3.9452812E-1,3.1055647E-1,-1.2579891E-2,-4.2771273E-3,2.520062E-2,1.5246885E-2,4.2484272E-2,2.4397131E-2,5.5135675E-2,3.431661E-2,2.947526E-2,-4.883006E-2,-5.846783E-3,1.1822525E-3,-1.768403E-2,-9.581761E-3,1.0000742E-2,1.6578808E-2,5.697347E-3,-4.8840926E-3,-4.1488048E-2,2.7892495E-2,-2.9001841E-2,2.8757134E-2,-3.6039375E-2,2.5323182E-2,-5.590418E-2,8.017139E-3,5.2255046E-2,7.4655004E-2,3.996472E-2,2.1730992E-3,1.3531922E-2,5.737851E-2,7.468574E-2,6.1312404E-2,6.8234704E-2,3.6263415E-3,8.674031E-2,9.785707E-2,-1.1546781E-2,-2.3398774E-3,-1.5498531E-3,4.9899425E-3,4.2097745E-3,-5.166811E-3,1.444676E-2,6.5824627E-3,-4.762429E-2,-1.2618554E-2,-1.6327828E-2,-2.6524658E-3,1.7543584E-2,7.5547337E-3,1.4618376E-2,-1.0357444E-2,-5.052567E-3,5.299902E-3,-2.677059E-3,-3.770527E-2,-3.807693E-3,-1.0598687E-2,3.1497136E-2,-1.8063628E-3,-3.8352087E-2,-9.444161E-3,-8.409048E-4,-2.2659322E-2,2.6533237E-2,6.5200143E-3,4.029115E-2,1.4900192E-2,-1.7496483E-2,3.2391112E-2],"categories":[],"categories_nodes":[],"categories_segments":[],"categories_sizes":[],"default_left":[0,0,0,0,0,0,0,0,0,0,0,0,0,0,0,0,0,0,0,0,0,0,0,0,0,0,0,0,0,0,0,0,0,0,0,0,0,0,0,0,0,0,0,0,0,0,0,0,0,0,0,0,0,0,0,0,0,0,0,0,0,0,0,0,0,0,0,0,0,0,0,0,0,0,0,0,0,0,0,0,0,0,0,0,0,0,0,0,0,0,0,0,0,0,0,0,0,0,0,0,0,0,0,0,0,0,0,0,0,0,0,0,0,0,0,0,0,0,0,0,0,0,0,0,0,0,0,0,0,0,0,0,0,0,0,0,0,0,0,0,0,0,0,0,0,0,0,0,0,0,0,0,0,0,0,0,0,0,0,0,0,0,0,0,0,0,0,0,0,0,0,0,0,0,0,0,0,0,0,0,0],"id":3,"left_children":[1,3,5,7,-1,9,11,13,-1,15,17,19,21,23,-1,25,27,29,31,33,35,37,39,-1,-1,41,43,45,47,49,51,-1,53,-1,-1,-1,55,57,59,61,63,65,67,-1,69,71,73,75,77,79,81,83,85,87,89,91,93,-1,95,97,99,101,103,105,107,109,111,113,115,117,-1,119,121,123,125,127,129,131,133,135,137,-1,-1,139,141,143,145,147,149,151,153,155,-1,-1,-1,157,159,161,163,165,167,169,171,-1,-1,173,175,177,179,-1,-1,-1,-1,-1,-1,-1,-1,-1,-1,-1,-1,-1,-1,-1,-1,-1,-1,-1,-1,-1,-1,-1,-1,-1,-1,-1,-1,-1,-1,-1,-1,-1,-1,-1,-1,-1,-1,-1,-1,-1,-1,-1,-1,-1,-1,-1,-1,-1,-1,-1,-1,-1,-1,-1,-1,-1,-1,-1,-1,-1,-1,-1,-1,-1,-1,-1,-1,-1,-1,-1,-1],"loss_changes":[1.3152496E3,4.9068115E1,4.0799774E2,1.6211228E-2,0E0,4.2790878E2,9.6598926E2,4.8878603E-3,0E0,2.2618336E2,5.995923E1,8.646045E1,1.4931988E1,1.2831534E-3,0E0,9.856018E0,5.597628E1,3.3542053E1,1.243371E0,4.302063E0,6.4834137E0,2.151015E1,1.1331154E1,0E0,0E0,5.7092133E0,6.5210953E0,5.638619E0,1.1410828E1,1.3914948E0,1.0347778E1,0E0,2.2237581E-1,0E0,0E0,0E0,1.7010956E0,4.7977943E0,3.8844585E0,1.0375598E1,1.587471E0,5.936271E-1,1.5161514E0,0E0,3.9099503E0,2.0402536E0,1.682415E-1,7.6132097E0,5.8407745E0,1.0893135E0,7.0228577E-1,1.1246643E0,6.328308E0,3.8888965E-2,1.3588482E-1,1.5047531E0,7.557602E-1,0E0,3.566963E-1,1.1504039E0,2.652791E0,5.7121496E0,2.6742458E-1,1.2184453E0,9.15329E-1,3.25986E-3,5.9281945E-2,1.5442276E-1,3.154068E-1,1.3626961E1,0E0,3.6238024E-1,3.144784E-1,1.3258505E-1,3.6990322E-2,2.63602E0,2.6161785E0,2.9460945E0,6.008621E0,5.7240295E-1,4.5093727E-1,0E0,0E0,7.282181E-1,1.3801727E0,1.15979E0,1.0845947E-1,3.57531E-2,2.404003E-2,8.352922E-2,4.527113E-2,1.2402713E-1,0E0,0E0,0E0,4.8393473E-2,8.666515E-5,6.9383013E-1,1.9567448E-1,3.2112074E-1,8.214596E-2,1.7047951E0,9.394908E-1,0E0,0E0,8.8722095E-2,3.2865334E-1,5.408287E-1,2.150156E0,0E0,0E0,0E0,0E0,0E0,0E0,0E0,0E0,0E0,0E0,0E0,0E0,0E0,0E0,0E0,0E0,0E0,0E0,0E0,0E0,0E0,0E0,0E0,0E0,0E0,0E0,0E0,0E0,0E0,0E0,0E0,0E0,0E0,0E0,0E0,0E0,0E0,0E0,0E0,0E0,0E0,0E0,0E0,0E0,0E0,0E0,0E0,0E0,0E0,0E0,0E0,0E0,0E0,0E0,0E0,0E0,0E0,0E0,0E0,0E0,0E0,0E0,0E0,0E0,0E0,0E0,0E0,0E0,0E0,0E0,0E0,0E0],"parents":[2147483647,0,0,1,1,2,2,3,3,5,5,6,6,7,7,9,9,10,10,11,11,12,12,13,13,15,15,16,16,17,17,18,18,19,19,20,20,21,21,22,22,25,25,26,26,27,27,28,28,29,29,30,30,32,32,36,36,37,37,38,38,39,39,40,40,41,41,42,42,44,44,45,45,46,46,47,47,48,48,49,49,50,50,51,51,52,52,53,53,54,54,55,55,56,56,58,58,59,59,60,60,61,61,62,62,63,63,64,64,65,65,66,66,67,67,68,68,69,69,71,71,72,72,73,73,74,74,75,75,76,76,77,77,78,78,79,79,80,80,83,83,84,84,85,85,86,86,87,87,88,88,89,89,90,90,91,91,95,95,96,96,97,97,98,98,99,99,100,100,101,101,102,102,105,105,106,106,107,107,108,108],"right_children":[2,4,6,8,-1,10,12,14,-1,16,18,20,22,24,-1,26,28,30,32,34,36,38,40,-1,-1,42,44,46,48,50,52,-1,54,-1,-1,-1,56,58,60,62,64,66,68,-1,70,72,74,76,78,80,82,84,86,88,90,92,94,-1,96,98,100,102,104,106,108,110,112,114,116,118,-1,120,122,124,126,128,130,132,134,136,138,-1,-1,140,142,144,146,148,150,152,154,156,-1,-1,-1,158,160,162,164,166,168,170,172,-1,-1,174,176,178,180,-1,-1,-1,-1,-1,-1,-1,-1,-1,-1,-1,-1,-1,-1,-1,-1,-1,-1,-1,-1,-1,-1,-1,-1,-1,-1,-1,-1,-1,-1,-1,-1,-1,-1,-1,-1,-1,-1,-1,-1,-1,-1,-1,-1,-1,-1,-1,-1,-1,-1,-1,-1,-1,-1,-1,-1,-1,-1,-1,-1,-1,-1,-1,-1,-1,-1,-1,-1,-1,-1,-1,-1],"split_conditions":[-1.2969921E0,-4.1579413E-1,6.955781E-1,-3.1935376E-1,-1.8143296E-1,-7.921613E-2,5.477163E-1,-1.3268577E0,3.0478307E-3,-8.171238E-1,7.243942E-1,2.0658582E-2,9.7342193E-1,-1.4223168E0,-6.174721E-3,-4.875671E-1,-7.6992804E-1,-6.5578043E-1,5.477163E-1,-5.0639915E-1,2.8418747E-1,2.2322318E-2,8.264259E-1,-2.6844654E-3,-1.2068184E-4,-7.6992804E-1,-8.211596E-1,-1.1821699E0,-3.5244563E-1,-1.1948905E0,3.0348295E-1,-4.635107E-2,1.8653607E0,-1.632662E-1,-1.3230856E-1,-1.10919215E-1,6.9130445E-1,1.074774E0,1.1283827E0,-1.1826136E-1,6.059524E-1,-1.3325738E0,-2.4287029E-1,-4.534887E-2,5.477163E-1,-5.084092E-1,-5.701521E-1,-7.2451013E-1,-6.30693E-1,-2.9230833E-1,1.1741415E0,3.719915E-1,3.2185885E-1,7.3214576E-2,7.300137E-1,1.1586506E0,2.6874322E-1,5.5467177E-2,3.3370483E-1,9.601693E-1,8.112452E-1,1.2821364E0,3.3686507E-1,1.074774E0,1.4281255E0,2.2322318E-2,1.8212843E-1,-1.0651904E0,-3.358951E-1,2.0658582E-2,5.9845436E-2,-4.530972E-1,-1.5331103E0,-4.875671E-1,-3.1935376E-1,-3.065929E0,4.4405994E-1,-2.5883833E-1,5.477163E-1,5.477163E-1,1.338303E0,4.1520223E-2,5.0448813E-2,5.1542874E-2,-4.4666633E-1,9.471956E-1,3.548777E-1,1.6018318E0,1.7092862E0,9.601693E-1,8.168869E-1,6.8950945E-1,-9.9048965E-2,-5.368861E-2,-7.328101E-2,7.951681E-1,1.8653607E0,1.2875419E0,1.8653607E0,2.4708952E-1,2.131024E0,2.6874322E-1,8.112452E-1,3.353706E-3,3.1041533E-2,2.4708952E-1,5.069344E-1,4.2031962E-1,1.0969077E0,-1.2579891E-2,-4.2771273E-3,2.520062E-2,1.5246885E-2,4.2484272E-2,2.4397131E-2,5.5135675E-2,3.431661E-2,2.947526E-2,-4.883006E-2,-5.846783E-3,1.1822525E-3,-1.768403E-2,-9.581761E-3,1.0000742E-2,1.6578808E-2,5.697347E-3,-4.8840926E-3,-4.1488048E-2,2.7892495E-2,-2.9001841E-2,2.8757134E-2,-3.6039375E-2,2.5323182E-2,-5.590418E-2,8.017139E-3,5.2255046E-2,7.4655004E-2,3.996472E-2,2.1730992E-3,1.3531922E-2,5.737851E-2,7.468574E-2,6.1312404E-2,6.8234704E-2,3.6263415E-3,8.674031E-2,9.785707E-2,-1.1546781E-2,-2.3398774E-3,-1.5498531E-3,4.9899425E-3,4.2097745E-3,-5.166811E-3,1.444676E-2,6.5824627E-3,-4.762429E-2,-1.2618554E-2,-1.6327828E-2,-2.6524658E-3,1.7543584E-2,7.5547337E-3,1.4618376E-2,-1.0357444E-2,-5.052567E-3,5.299902E-3,-2.677059E-3,-3.770527E-2,-3.807693E-3,-1.0598687E-2,3.1497136E-2,-1.8063628E-3,-3.8352087E-2,-9.444161E-3,-8.409048E-4,-2.2659322E-2,2.6533237E-2,6.5200143E-3,4.029115E-2,1.4900192E-2,-1.7496483E-2,3.2391112E-2],"split_indices":[1,5,5,4,0,7,1,8,0,5,4,1,5,8,0,4,1,4,1,1,1,3,4,0,0,1,3,7,4,4,3,0,1,0,0,0,4,1,4,3,7,7,1,0,1,5,5,5,7,5,7,7,7,8,2,5,0,0,0,4,1,5,8,1,3,3,0,7,8,1,0,4,7,4,4,0,3,3,1,1,1,0,0,4,5,2,4,1,3,4,2,7,0,0,0,2,1,3,1,0,3,0,1,0,0,0,0,0,5,0,0,0,0,0,0,0,0,0,0,0,0,0,0,0,0,0,0,0,0,0,0,0,0,0,0,0,0,0,0,0,0,0,0,0,0,0,0,0,0,0,0,0,0,0,0,0,0,0,0,0,0,0,0,0,0,0,0,0,0,0,0,0,0,0,0,0,0,0,0,0,0],"split_type":[0,0,0,0,0,0,0,0,0,0,0,0,0,0,0,0,0,0,0,0,0,0,0,0,0,0,0,0,0,0,0,0,0,0,0,0,0,0,0,0,0,0,0,0,0,0,0,0,0,0,0,0,0,0,0,0,0,0,0,0,0,0,0,0,0,0,0,0,0,0,0,0,0,0,0,0,0,0,0,0,0,0,0,0,0,0,0,0,0,0,0,0,0,0,0,0,0,0,0,0,0,0,0,0,0,0,0,0,0,0,0,0,0,0,0,0,0,0,0,0,0,0,0,0,0,0,0,0,0,0,0,0,0,0,0,0,0,0,0,0,0,0,0,0,0,0,0,0,0,0,0,0,0,0,0,0,0,0,0,0,0,0,0,0,0,0,0,0,0,0,0,0,0,0,0,0,0,0,0,0,0],"sum_hessian":[7.414E3,4.07E2,7.007E3,1.6E1,3.91E2,4.828E3,2.179E3,1.3E1,3E0,2.791E3,2.037E3,7.03E2,1.476E3,8E0,5E0,1.091E3,1.7E3,1.887E3,1.5E2,3.82E2,3.21E2,4.66E2,1.01E3,5E0,3E0,5.51E2,5.4E2,7.24E2,9.76E2,6.44E2,1.243E3,4E0,1.46E2,2.65E2,1.17E2,7.2E1,2.49E2,1.03E2,3.63E2,2.45E2,7.65E2,5.6E1,4.95E2,1.1E1,5.29E2,5.35E2,1.89E2,2.56E2,7.2E2,1.04E2,5.4E2,6.08E2,6.35E2,6.4E1,8.2E1,5.6E1,1.93E2,8.4E1,1.9E1,2.32E2,1.31E2,1.31E2,1.14E2,1.43E2,6.22E2,7E0,4.9E1,1.96E2,2.99E2,4.93E2,3.6E1,3.29E2,2.06E2,1.78E2,1.1E1,4.3E1,2.13E2,3.65E2,3.55E2,9.1E1,1.3E1,3.43E2,1.97E2,1.42E2,4.66E2,1.74E2,4.61E2,1.8E1,4.6E1,4.3E1,3.9E1,7E0,4.9E1,5E1,1.43E2,1.1E1,8E0,8.4E1,1.48E2,5.6E1,7.5E1,6.6E1,6.5E1,4E0,1.1E2,7E0,1.36E2,3.05E2,3.17E2,4E0,3E0,1.5E1,3.4E1,1.84E2,1.2E1,2.82E2,1.7E1,4.71E2,2.2E1,1.08E2,2.21E2,1.05E2,1.01E2,5.3E1,1.25E2,7E0,4E0,5E0,3.8E1,2.06E2,7E0,3.58E2,7E0,3.4E2,1.5E1,5.2E1,3.9E1,8E0,5E0,5E0,1.37E2,2.5E2,2.16E2,1.71E2,3E0,2.85E2,1.76E2,6E0,1.2E1,4.1E1,5E0,3.1E1,1.2E1,1.3E1,2.6E1,4E0,3E0,6E0,5E0,4E0,4E0,7.2E1,1.2E1,1.28E2,2E1,3E0,5.3E1,3.9E1,3.6E1,2.2E1,4.4E1,4.9E1,1.6E1,3E0,4E0,1.26E2,1E1,2.94E2,1.1E1,8E0,3.09E2],"tree_param":{"num_deleted":"0","num_feature":"10","num_nodes":"181","size_leaf_vector":"1"}},{"base_weights":[2.3912475E-3,-1.5750722E0,9.236782E-2,-2.1835456E-2,-1.6354245E-1,2.5616962E-1,-3.0030853E-1,-3.616992E-2,2.844642E-3,-2.4469875E-1,4.9072424E-1,-1.1022307E0,1.17635116E-1,-8.4368465E-4,-5.0994635E-2,-4.255573E-1,-6.744848E-2,3.533643E-1,6.2716174E-1,-1.393773E0,-7.5078887E-1,-7.390469E-2,2.8494012E-1,-6.10964E-3,-2.1649825E-3,-5.936944E-2,-3.756568E-1,-1.5814905E-1,2.4644004E-2,2.0730397E-1,4.1453E-1,7.3416996E-1,4.8212066E-1,-1.5270148E-1,-1.2633526E0,-1.0122045E-1,-6.702334E-1,-3.077969E-1,-1.3216886E-3,2.3757583E-1,3.067206E-1,-4.3605682E-1,-3.1952924E-1,-2.0979357E-1,-1.0429107E-1,-2.2569994E-2,8.361949E-2,1.5457974E-1,2.4309619E-1,3.459143E-2,4.2824885E-1,6.0767126E-1,8.266389E-1,5.193977E-1,1.952838E-1,-1.3238549E-1,-1.0794448E-1,-2.5401172E-1,-6.930682E-1,-1.4153561E-1,-3.457333E-1,-5.587033E-2,5.9126303E-2,1.820685E-1,2.554145E-1,3.331053E-2,2.868133E-1,-4.3853786E-2,-2.272183E-2,-3.5434395E-2,-3.000997E-1,-2.1658257E-1,-1.2397583E-2,-1.1305799E-1,-6.426417E-2,6.562182E-2,-2.7622206E-2,1.0395161E-1,5.473751E-2,9.537604E-2,1.642222E-1,2.515332E-1,1.8399335E-2,4.7534847E-1,3.9076087E-1,5.291071E-1,6.6209145E-2,8.459836E-1,6.503037E-2,5.8464795E-1,5.033886E-2,2.5836346E-1,2.2410147E-2,-2.9953584E-2,-4.288523E-3,-7.41308E-1,-5.1397186E-2,-7.2230953E-3,-1.6136186E-2,-3.8983846E-1,-2.069605E-1,-3.056668E-3,-6.70856E-2,9.077014E-2,1.5778145E-2,2.1606892E-2,9.047249E-2,2.3984665E-1,3.0623589E-2,2.6070607E-1,3.4136742E-2,-1.4651845E-2,-3.0270366E-2,-2.5552109E-2,-2.008289E-2,-4.1056536E-3,-1.1787932E-2,-7.98498E-3,6.668636E-4,7.756027E-3,1.8544492E-3,-1.3444886E-2,-2.0185648E-3,5.4662917E-3,1.2228328E-2,2.33931E-3,7.018038E-3,1.1217125E-2,3.7002712E-3,2.2034736E-2,1.5359007E-2,2.5899654E-2,1.6163878E-2,4.3072946E-2,5.2286487E-2,3.712481E-2,4.6184264E-2,5.4832887E-2,3.681433E-2,8.088366E-2,9.087221E-2,4.5631416E-2,6.1571546E-2,3.102769E-2,1.9953048E-2,-8.940862E-3,9.598962E-3,-5.9190888E-2,-8.3777316E-2,-2.2853317E-2,-4.1487735E-2,-9.621681E-3,-2.4976548E-2,-3.4686816E-3,3.299461E-3,-5.9247925E-3,-1.4889346E-2,5.810063E-4,9.757893E-3,4.8118336E-3,-3.5173472E-3,4.0294915E-3,1.2772542E-2,2.130574E-2,2.740185E-2,2.7397176E-2,2.1987567E-2],"categories":[],"categories_nodes":[],"categories_segments":[],"categories_sizes":[],"default_left":[0,0,0,0,0,0,0,0,0,0,0,0,0,0,0,0,0,0,0,0,0,0,0,0,0,0,0,0,0,0,0,0,0,0,0,0,0,0,0,0,0,0,0,0,0,0,0,0,0,0,0,0,0,0,0,0,0,0,0,0,0,0,0,0,0,0,0,0,0,0,0,0,0,0,0,0,0,0,0,0,0,0,0,0,0,0,0,0,0,0,0,0,0,0,0,0,0,0,0,0,0,0,0,0,0,0,0,0,0,0,0,0,0,0,0,0,0,0,0,0,0,0,0,0,0,0,0,0,0,0,0,0,0,0,0,0,0,0,0,0,0,0,0,0,0,0,0,0,0,0,0,0,0,0,0,0,0,0,0,0,0,0,0,0,0,0,0],"id":4,"left_children":[1,3,5,7,-1,9,11,13,-1,15,17,19,21,-1,23,25,27,29,31,33,35,37,39,-1,-1,-1,41,43,45,47,49,51,53,-1,55,-1,57,59,61,63,65,67,69,71,73,75,77,79,81,-1,83,85,87,89,91,-1,-1,93,95,97,99,101,103,105,107,-1,109,-1,-1,-1,111,113,-1,115,117,119,121,123,125,127,129,131,-1,133,135,137,-1,139,-1,141,-1,143,145,-1,-1,147,-1,-1,-1,149,151,153,155,157,159,-1,161,163,-1,165,-1,-1,-1,-1,-1,-1,-1,-1,-1,-1,-1,-1,-1,-1,-1,-1,-1,-1,-1,-1,-1,-1,-1,-1,-1,-1,-1,-1,-1,-1,-1,-1,-1,-1,-1,-1,-1,-1,-1,-1,-1,-1,-1,-1,-1,-1,-1,-1,-1,-1,-1,-1,-1,-1,-1,-1,-1],"loss_changes":[1.0534451E3,3.7489807E1,4.5174597E2,1.3435958E-2,0E0,5.823571E2,6.9313416E2,4.9049705E-3,0E0,5.0655434E1,6.292798E1,7.102338E1,4.3629585E1,0E0,5.3560175E-4,6.230728E0,6.6922956E0,1.4929169E1,2.5722107E1,3.8052979E0,5.815857E0,1.0788018E1,6.401634E-1,0E0,0E0,0E0,1.8504944E0,1.0895033E0,1.1124417E0,8.881378E-1,8.9468384E-1,1.0598633E1,7.57312E0,0E0,1.2075806E-1,0E0,2.135765E0,8.758564E-1,1.6091188E0,1.6343212E-1,1.1537933E-1,1.5258789E-5,5.728531E-2,7.886791E-2,5.9459686E-2,1.01856865E-1,9.5698595E-2,9.4389915E-2,7.792854E-2,0E0,1.4561462E0,1.2509766E0,1.0730896E0,2.255249E-1,9.2367625E-1,0E0,0E0,1.2970734E-1,1.4890213E0,2.4425626E-2,6.226311E-1,1.5162235E-1,3.1540066E-1,1.6532159E-1,2.7885437E-2,0E0,2.8167534E-1,0E0,0E0,0E0,1.9655228E-2,3.8043976E-2,0E0,4.9151182E-2,4.4467226E-2,4.867904E-3,1.6394944E-1,8.2586646E-2,3.4567043E-2,2.5636792E-2,5.3961277E-2,1.0795212E-1,0E0,5.706558E-1,5.132904E-1,2.4639511E-1,0E0,5.4626465E-2,0E0,4.304886E-2,0E0,9.8024845E-2,2.1444878E-1,0E0,0E0,1.9151535E0,0E0,0E0,0E0,2.2329998E-1,1.1801481E-1,5.4741003E-2,1.2237787E-1,7.637608E-2,1.6649333E-1,0E0,2.8730586E-2,4.1047096E-2,0E0,1.9865036E-2,0E0,0E0,0E0,0E0,0E0,0E0,0E0,0E0,0E0,0E0,0E0,0E0,0E0,0E0,0E0,0E0,0E0,0E0,0E0,0E0,0E0,0E0,0E0,0E0,0E0,0E0,0E0,0E0,0E0,0E0,0E0,0E0,0E0,0E0,0E0,0E0,0E0,0E0,0E0,0E0,0E0,0E0,0E0,0E0,0E0,0E0,0E0,0E0,0E0,0E0,0E0,0E0,0E0,0E0,0E0,0E0,0E0],"parents":[2147483647,0,0,1,1,2,2,3,3,5,5,6,6,7,7,9,9,10,10,11,11,12,12,14,14,15,15,16,16,17,17,18,18,19,19,20,20,21,21,22,22,26,26,27,27,28,28,29,29,30,30,31,31,32,32,34,34,36,36,37,37,38,38,39,39,40,40,41,41,42,42,43,43,44,44,45,45,46,46,47,47,48,48,50,50,51,51,52,52,53,53,54,54,57,57,58,58,59,59,60,60,61,61,62,62,63,63,64,64,66,66,70,70,71,71,73,73,74,74,75,75,76,76,77,77,78,78,79,79,80,80,81,81,83,83,84,84,85,85,87,87,89,89,91,91,92,92,95,95,99,99,100,100,101,101,102,102,103,103,104,104,106,106,107,107,109,109],"right_children":[2,4,6,8,-1,10,12,14,-1,16,18,20,22,-1,24,26,28,30,32,34,36,38,40,-1,-1,-1,42,44,46,48,50,52,54,-1,56,-1,58,60,62,64,66,68,70,72,74,76,78,80,82,-1,84,86,88,90,92,-1,-1,94,96,98,100,102,104,106,108,-1,110,-1,-1,-1,112,114,-1,116,118,120,122,124,126,128,130,132,-1,134,136,138,-1,140,-1,142,-1,144,146,-1,-1,148,-1,-1,-1,150,152,154,156,158,160,-1,162,164,-1,166,-1,-1,-1,-1,-1,-1,-1,-1,-1,-1,-1,-1,-1,-1,-1,-1,-1,-1,-1,-1,-1,-1,-1,-1,-1,-1,-1,-1,-1,-1,-1,-1,-1,-1,-1,-1,-1,-1,-1,-1,-1,-1,-1,-1,-1,-1,-1,-1,-1,-1,-1,-1,-1,-1,-1,-1,-1],"split_conditions":[-1.2969921E0,-9.257791E-1,5.791169E-1,-3.1935376E-1,-1.6354245E-1,-9.872548E-1,5.477163E-1,-1.3158616E0,2.844642E-3,-1.3653139E0,-2.0451266E-1,2.0658582E-2,1.3951389E0,-8.4368465E-4,1.17167346E-1,-1.649302E0,-1.1762843E0,-7.569582E-1,2.4276854E-1,-7.6992804E-1,2.8418747E-1,1.1626236E0,1.5034093E0,-6.10964E-3,-2.1649825E-3,-5.936944E-2,-1.5139639E0,-1.2707992E0,-1.0675701E0,-8.9185256E-1,-6.6288716E-1,-1.3708179E-2,5.391811E-1,-1.5270148E-1,-2.4287029E-1,-1.0122045E-1,6.212714E-1,5.959787E-1,1.2873122E0,1.4222065E0,1.5979241E0,4.63627E-1,-1.242904E0,-5.3999895E-1,6.2142175E-1,-6.8058264E-1,3.390835E-1,-1.1826136E-1,-2.8488383E-1,3.459143E-2,-4.5965818E-1,-1.2330982E-1,2.1436974E-1,2.9690376E-1,5.6713617E-1,-1.3238549E-1,-1.0794448E-1,2.6874322E-1,1.1084884E0,-6.8058264E-1,1.148868E0,-9.528231E-2,9.601693E-1,4.8528072E-1,4.8528072E-1,3.331053E-2,1.6924388E0,-4.3853786E-2,-2.272183E-2,-3.5434395E-2,-1.8840506E0,1.6047473E-1,-1.2397583E-2,-1.572128E0,-1.3827064E0,-1.432841E0,-1.2029166E0,-1.04139E0,-4.875671E-1,1.6047473E-1,-8.771418E-1,3.553585E-1,1.8399335E-2,-5.54173E-1,-2.5687295E-1,3.553585E-1,6.6209145E-2,6.9190584E-2,6.503037E-2,2.547493E-1,5.033886E-2,5.520493E-1,6.431406E-1,-2.9953584E-2,-4.288523E-3,6.625384E-1,-5.1397186E-2,-7.2230953E-3,-1.6136186E-2,-1.2246344E0,-7.685509E-1,-6.382401E-1,3.553585E-1,-5.3999895E-1,3.1205112E-1,2.1606892E-2,-7.468321E-1,9.254789E-1,3.0623589E-2,8.168869E-1,3.4136742E-2,-1.4651845E-2,-3.0270366E-2,-2.5552109E-2,-2.008289E-2,-4.1056536E-3,-1.1787932E-2,-7.98498E-3,6.668636E-4,7.756027E-3,1.8544492E-3,-1.3444886E-2,-2.0185648E-3,5.4662917E-3,1.2228328E-2,2.33931E-3,7.018038E-3,1.1217125E-2,3.7002712E-3,2.2034736E-2,1.5359007E-2,2.5899654E-2,1.6163878E-2,4.3072946E-2,5.2286487E-2,3.712481E-2,4.6184264E-2,5.4832887E-2,3.681433E-2,8.088366E-2,9.087221E-2,4.5631416E-2,6.1571546E-2,3.102769E-2,1.9953048E-2,-8.940862E-3,9.598962E-3,-5.9190888E-2,-8.3777316E-2,-2.2853317E-2,-4.1487735E-2,-9.621681E-3,-2.4976548E-2,-3.4686816E-3,3.299461E-3,-5.9247925E-3,-1.4889346E-2,5.810063E-4,9.757893E-3,4.8118336E-3,-3.5173472E-3,4.0294915E-3,1.2772542E-2,2.130574E-2,2.740185E-2,2.7397176E-2,2.1987567E-2],"split_indices":[1,6,9,4,0,9,1,7,0,9,9,1,9,0,0,9,9,9,9,1,1,9,9,0,0,0,9,9,9,9,9,9,9,0,1,0,9,9,9,9,9,0,3,3,2,3,2,3,4,0,9,9,9,9,9,0,0,0,9,3,9,2,4,0,0,0,9,0,0,0,7,0,0,2,7,7,2,9,4,0,2,0,0,9,9,0,0,6,0,9,0,9,2,0,0,9,0,0,0,2,2,2,0,3,0,0,2,2,0,2,0,0,0,0,0,0,0,0,0,0,0,0,0,0,0,0,0,0,0,0,0,0,0,0,0,0,0,0,0,0,0,0,0,0,0,0,0,0,0,0,0,0,0,0,0,0,0,0,0,0,0,0,0,0,0,0,0],"split_type":[0,0,0,0,0,0,0,0,0,0,0,0,0,0,0,0,0,0,0,0,0,0,0,0,0,0,0,0,0,0,0,0,0,0,0,0,0,0,0,0,0,0,0,0,0,0,0,0,0,0,0,0,0,0,0,0,0,0,0,0,0,0,0,0,0,0,0,0,0,0,0,0,0,0,0,0,0,0,0,0,0,0,0,0,0,0,0,0,0,0,0,0,0,0,0,0,0,0,0,0,0,0,0,0,0,0,0,0,0,0,0,0,0,0,0,0,0,0,0,0,0,0,0,0,0,0,0,0,0,0,0,0,0,0,0,0,0,0,0,0,0,0,0,0,0,0,0,0,0,0,0,0,0,0,0,0,0,0,0,0,0,0,0,0,0,0,0],"sum_hessian":[7.419E3,3.99E2,7.02E3,1.5E1,3.84E2,4.954E3,2.066E3,1.2E1,3E0,1.58E3,3.374E3,7.07E2,1.359E3,5E0,7E0,7.81E2,7.99E2,1.684E3,1.69E3,3.84E2,3.23E2,6.34E2,7.25E2,4E0,3E0,1.75E2,6.06E2,4.02E2,3.97E2,4.99E2,1.185E3,9.69E2,7.21E2,1.82E2,2.02E2,7.2E1,2.51E2,1.49E2,4.85E2,2.34E2,4.91E2,2.87E2,3.19E2,2.03E2,1.99E2,2.21E2,1.76E2,2.05E2,2.94E2,2.04E2,9.81E2,4.14E2,5.55E2,6.37E2,8.4E1,1.45E2,5.7E1,1.4E1,2.37E2,2.9E1,1.2E2,2.55E2,2.3E2,6.1E1,1.73E2,2.01E2,2.9E2,2.82E2,5E0,1.05E2,2.14E2,1.86E2,1.7E1,1.61E2,3.8E1,1.1E1,2.1E2,1.01E2,7.5E1,3.1E1,1.74E2,2.53E2,4.1E1,4.27E2,5.54E2,1.76E2,2.38E2,4.95E2,6E1,1.15E2,5.22E2,6.1E1,2.3E1,1.1E1,3E0,1.83E2,5.4E1,8E0,2.1E1,8.9E1,3.1E1,4.5E1,2.1E2,1.32E2,9.8E1,4.3E1,1.8E1,1.39E2,3.4E1,2.02E2,8.8E1,5E0,2.09E2,4.7E1,1.39E2,1.1E1,1.5E2,3.1E1,7E0,8E0,3E0,1.2E1,1.98E2,2.9E1,7.2E1,2.6E1,4.9E1,2.3E1,8E0,2.3E1,1.51E2,2.31E2,2.2E1,2.28E2,1.99E2,4.42E2,1.12E2,1.54E2,2.2E1,3.24E2,1.71E2,2.7E1,8.8E1,2.9E1,3.2E1,9E0,1.4E1,7.6E1,1.07E2,1.4E1,7.5E1,1E1,2.1E1,2.4E1,2.1E1,1.94E2,1.6E1,1E1,1.22E2,6E1,3.8E1,9E0,9E0,8.4E1,5.5E1,1.46E2,5.6E1],"tree_param":{"num_deleted":"0","num_feature":"10","num_nodes":"167","size_leaf_vector":"1"}},{"base_weights":[-6.2956056E-4,-1.4213951E0,8.043284E-2,-2.4071531E-2,-1.4719163E-1,2.2954679E-1,-2.7083537E-1,-3.94067E-2,2.6549993E-3,-2.3581973E-1,4.3579865E-1,-9.9018997E-1,1.0761316E-1,-1.586432E-3,-5.192875E-2,-3.9066988E-1,-8.1522524E-2,3.126541E-1,5.631049E-1,-1.2527686E0,-6.72102E-1,-6.385608E-2,2.5888184E-1,-6.634142E-3,-2.0206503E-3,-5.3477295E-2,-3.4519297E-1,-1.5915087E-1,-6.182926E-3,1.7853579E-1,3.7576896E-1,6.6123384E-1,4.3328732E-1,-1.3742134E-1,-1.1385168E0,-8.6641383E-1,-5.878408E-1,-2.7258864E-1,-1.9025474E-3,2.1692659E-1,2.7754915E-1,-3.911113E-1,-2.963454E-1,-1.9434862E-1,-1.0110929E-1,-3.4149285E-2,6.1781887E-2,1.3111106E-1,2.2115369E-1,4.2518628E-1,3.5830316E-1,5.443198E-1,7.443997E-1,4.6908784E-1,1.672494E-1,-1.1939152E-1,-9.742789E-2,-3.7553065E-2,-8.927343E-1,-3.5466632E-1,-6.2883043E-1,-1.2526152E-1,-3.08605E-1,-3.9939728E-2,6.7830496E-2,1.6715461E-1,2.3137958E-1,2.8779536E-2,2.3802248E-1,-4.630706E-2,-3.776903E-2,-2.4825677E-2,-3.154498E-2,-2.0086716E-1,-1.1666517E-1,-1.3351946E-1,-8.014735E-2,-6.476798E-2,-1.4723393E-2,6.69272E-2,-2.4324005E-2,9.965936E-2,1.4561665E-1,2.2898987E-1,1.6840216E-2,3.1264886E-2,4.359336E-1,3.0789217E-1,3.700317E-1,4.7584113E-1,5.9152335E-2,7.626423E-1,5.8864232E-2,5.305235E-1,4.5336492E-2,2.2632775E-1,3.0961957E-2,-9.184735E-2,-4.24192E-2,-4.0026214E-3,-3.7956437E-1,-6.620554E-1,-3.5368778E-2,-6.816469E-3,-1.4355592E-2,-3.4861958E-1,-1.878613E-1,-4.9072944E-2,2.691232E-3,1.10794276E-1,5.1412676E-2,1.9824237E-1,6.373208E-2,2.3667055E-1,6.552777E-2,1.3834499E-2,2.5136593E-1,-2.3257414E-2,-1.9020244E-2,-5.55675E-3,-1.3012803E-2,-1.5005014E-2,-5.2137333E-3,-8.570441E-3,-7.674252E-5,-3.9418493E-3,-1.117635E-2,-5.6836116E-3,-3.609205E-4,2.5893394E-3,7.2161066E-3,4.949525E-3,-9.0035265E-3,5.7361387E-3,1.1471994E-2,1.5498749E-2,8.748167E-3,2.3437548E-2,1.5527516E-2,4.4542473E-2,3.1854305E-2,1.9562637E-2,3.1580724E-2,4.1884895E-2,3.538161E-2,4.910435E-2,3.195681E-2,7.274794E-2,8.172903E-2,4.55163E-2,5.825848E-2,2.7435357E-2,1.7681392E-2,-6.9224522E-3,1.1011799E-2,-5.163133E-2,-2.9556597E-2,-7.900916E-2,-6.272718E-2,-2.073931E-2,-3.7160005E-2,-8.785012E-3,-2.2645403E-2,-3.427375E-4,-5.907682E-3,2.7142896E-3,-8.18302E-3,1.3539122E-2,9.319302E-3,2.3439464E-4,8.184648E-3,7.0976266E-3,2.0504074E-2,3.6841065E-3,9.246401E-3,1.1601125E-2,2.4003409E-2,-2.203915E-5,1.0943334E-2,1.976961E-2,2.7975652E-2],"categories":[],"categories_nodes":[],"categories_segments":[],"categories_sizes":[],"default_left":[0,0,0,0,0,0,0,0,0,0,0,0,0,0,0,0,0,0,0,0,0,0,0,0,0,0,0,0,0,0,0,0,0,0,0,0,0,0,0,0,0,0,0,0,0,0,0,0,0,0,0,0,0,0,0,0,0,0,0,0,0,0,0,0,0,0,0,0,0,0,0,0,0,0,0,0,0,0,0,0,0,0,0,0,0,0,0,0,0,0,0,0,0,0,0,0,0,0,0,0,0,0,0,0,0,0,0,0,0,0,0,0,0,0,0,0,0,0,0,0,0,0,0,0,0,0,0,0,0,0,0,0,0,0,0,0,0,0,0,0,0,0,0,0,0,0,0,0,0,0,0,0,0,0,0,0,0,0,0,0,0,0,0,0,0,0,0,0,0,0,0,0,0,0,0,0,0,0,0,0,0],"id":5,"left_children":[1,3,5,7,-1,9,11,13,-1,15,17,19,21,-1,23,25,27,29,31,33,35,37,39,-1,-1,-1,41,43,45,47,49,51,53,-1,55,57,59,61,63,65,67,69,71,73,75,77,79,81,83,85,87,89,91,93,95,-1,-1,-1,97,99,101,103,105,107,109,111,113,-1,115,-1,-1,-1,-1,117,119,121,123,125,127,129,131,133,135,137,-1,-1,139,141,143,145,-1,147,-1,149,-1,151,153,-1,-1,-1,155,157,-1,-1,-1,159,161,163,165,167,169,171,173,175,177,-1,179,-1,-1,-1,-1,-1,-1,-1,-1,-1,-1,-1,-1,-1,-1,-1,-1,-1,-1,-1,-1,-1,-1,-1,-1,-1,-1,-1,-1,-1,-1,-1,-1,-1,-1,-1,-1,-1,-1,-1,-1,-1,-1,-1,-1,-1,-1,-1,-1,-1,-1,-1,-1,-1,-1,-1,-1,-1,-1,-1,-1,-1,-1,-1,-1],"loss_changes":[8.5456506E2,2.821991E1,3.6776758E2,1.3601858E-2,0E0,4.7320496E2,5.698193E2,2.449263E-3,0E0,3.61381E1,5.3281006E1,5.8998962E1,3.5624603E1,0E0,1.4182255E-3,4.674156E0,4.4462986E0,1.4623978E1,2.0939697E1,3.113037E0,4.6309204E0,8.333715E0,4.810257E-1,0E0,0E0,0E0,1.1237259E0,7.356024E-1,7.39697E-1,1.0873356E0,7.9125977E-1,8.653595E0,6.801712E0,0E0,1.795044E-1,7.4393463E-1,1.9067459E0,7.246771E-1,1.3263092E0,1.0851574E-1,9.954071E-2,2.1102905E-2,1.4574051E-1,8.207607E-2,8.211875E-2,1.6243574E-1,5.2727163E-2,1.0072851E-1,6.306839E-2,1.5900421E-1,3.5088348E-1,8.75618E-1,8.965149E-1,2.5694275E-1,7.020588E-1,0E0,0E0,0E0,5.070114E-1,2.7881765E-1,1.4542236E0,1.8225253E-2,4.6946526E-1,1.2615538E-1,1.15953684E-1,1.6592085E-1,1.3074207E-1,0E0,9.613752E-2,0E0,0E0,0E0,0E0,5.1631927E-3,6.8384707E-3,6.1584115E-2,4.0263712E-2,1.2026644E-1,7.9494596E-2,2.0284504E-2,4.3065146E-2,4.7143638E-2,7.799363E-2,4.4858932E-2,0E0,0E0,8.854675E-2,6.327629E-2,3.3855438E-1,1.7205429E-1,0E0,4.8797607E-2,0E0,7.8933716E-2,0E0,7.347894E-2,2.3744966E-1,0E0,0E0,0E0,1.7887068E-1,3.3737183E-2,0E0,0E0,0E0,1.6513062E-1,9.559929E-2,1.2138885E-1,1.24233E-1,1.6382933E-3,1.9459414E-1,1.5806675E-2,6.8660676E-3,2.7020454E-2,2.1686506E-2,0E0,6.407881E-2,0E0,0E0,0E0,0E0,0E0,0E0,0E0,0E0,0E0,0E0,0E0,0E0,0E0,0E0,0E0,0E0,0E0,0E0,0E0,0E0,0E0,0E0,0E0,0E0,0E0,0E0,0E0,0E0,0E0,0E0,0E0,0E0,0E0,0E0,0E0,0E0,0E0,0E0,0E0,0E0,0E0,0E0,0E0,0E0,0E0,0E0,0E0,0E0,0E0,0E0,0E0,0E0,0E0,0E0,0E0,0E0,0E0,0E0,0E0,0E0,0E0,0E0,0E0,0E0],"parents":[2147483647,0,0,1,1,2,2,3,3,5,5,6,6,7,7,9,9,10,10,11,11,12,12,14,14,15,15,16,16,17,17,18,18,19,19,20,20,21,21,22,22,26,26,27,27,28,28,29,29,30,30,31,31,32,32,34,34,35,35,36,36,37,37,38,38,39,39,40,40,41,41,42,42,43,43,44,44,45,45,46,46,47,47,48,48,49,49,50,50,51,51,52,52,53,53,54,54,58,58,59,59,60,60,61,61,62,62,63,63,64,64,65,65,66,66,68,68,73,73,74,74,75,75,76,76,77,77,78,78,79,79,80,80,81,81,82,82,83,83,86,86,87,87,88,88,89,89,91,91,93,93,95,95,96,96,100,100,101,101,105,105,106,106,107,107,108,108,109,109,110,110,111,111,112,112,113,113,114,114,116,116],"right_children":[2,4,6,8,-1,10,12,14,-1,16,18,20,22,-1,24,26,28,30,32,34,36,38,40,-1,-1,-1,42,44,46,48,50,52,54,-1,56,58,60,62,64,66,68,70,72,74,76,78,80,82,84,86,88,90,92,94,96,-1,-1,-1,98,100,102,104,106,108,110,112,114,-1,116,-1,-1,-1,-1,118,120,122,124,126,128,130,132,134,136,138,-1,-1,140,142,144,146,-1,148,-1,150,-1,152,154,-1,-1,-1,156,158,-1,-1,-1,160,162,164,166,168,170,172,174,176,178,-1,180,-1,-1,-1,-1,-1,-1,-1,-1,-1,-1,-1,-1,-1,-1,-1,-1,-1,-1,-1,-1,-1,-1,-1,-1,-1,-1,-1,-1,-1,-1,-1,-1,-1,-1,-1,-1,-1,-1,-1,-1,-1,-1,-1,-1,-1,-1,-1,-1,-1,-1,-1,-1,-1,-1,-1,-1,-1,-1,-1,-1,-1,-1,-1,-1],"split_conditions":[-1.2969921E0,-1.0986128E0,5.791169E-1,-3.1935376E-1,-1.4719163E-1,-1.0143224E0,5.477163E-1,-1.3158616E0,2.6549993E-3,-1.3790696E0,-2.0451266E-1,2.0658582E-2,1.3951389E0,-1.586432E-3,1.17167346E-1,-1.649302E0,-1.203352E0,-7.569582E-1,2.4276854E-1,-7.6992804E-1,6.9130445E-1,1.1626236E0,1.5034093E0,-6.634142E-3,-2.0206503E-3,-5.3477295E-2,-1.5139639E0,-1.2707992E0,-1.0675701E0,-8.9185256E-1,-2.5883833E-1,-1.3708179E-2,5.391811E-1,-1.3742134E-1,-2.4287029E-1,6.48339E-1,6.3502705E-1,5.959787E-1,1.3143798E0,1.4222065E0,2.131024E0,-2.1732205E-1,-1.4735843E0,-5.3999895E-1,1.2189955E-1,-1.1492168E0,-1.1487474E0,-1.1826136E-1,-2.8488383E-1,-6.486877E-1,-6.6288716E-1,-1.2330982E-1,2.1436974E-1,2.9690376E-1,5.6713617E-1,-1.1939152E-1,-9.742789E-2,-3.7553065E-2,1.0814208E0,7.2293186E-1,1.1218003E0,-6.8058264E-1,1.148868E0,1.2873122E0,-3.012796E-2,4.8528072E-1,1.1505433E0,2.8779536E-2,-1.2463533E0,-4.630706E-2,-3.776903E-2,-2.4825677E-2,-3.154498E-2,1.6047473E-1,-1.7586942E0,4.2031962E-1,2.9039744E-1,4.2595667E-1,-2.6902863E-1,-1.5405027E0,-5.3999895E-1,-4.875671E-1,2.9039744E-1,3.553585E-1,1.6840216E-2,3.1264886E-2,-3.967341E-1,-6.816777E-1,-4.7474506E-1,3.7701222E-1,5.9152335E-2,3.548777E-1,5.8864232E-2,1.2189955E-1,4.5336492E-2,5.520493E-1,6.648573E-1,-9.184735E-2,-4.24192E-2,-4.0026214E-3,3.5026394E-2,2.8418747E-1,-3.5368778E-2,-6.816469E-3,-1.4355592E-2,-1.2246344E0,-7.685509E-1,-5.184677E-2,3.7701222E-1,1.3680713E0,7.300137E-1,1.2322006E-1,-7.468321E-1,3.3686507E-1,1.236915E0,1.3834499E-2,1.6653713E0,-2.3257414E-2,-1.9020244E-2,-5.55675E-3,-1.3012803E-2,-1.5005014E-2,-5.2137333E-3,-8.570441E-3,-7.674252E-5,-3.9418493E-3,-1.117635E-2,-5.6836116E-3,-3.609205E-4,2.5893394E-3,7.2161066E-3,4.949525E-3,-9.0035265E-3,5.7361387E-3,1.1471994E-2,1.5498749E-2,8.748167E-3,2.3437548E-2,1.5527516E-2,4.4542473E-2,3.1854305E-2,1.9562637E-2,3.1580724E-2,4.1884895E-2,3.538161E-2,4.910435E-2,3.195681E-2,7.274794E-2,8.172903E-2,4.55163E-2,5.825848E-2,2.7435357E-2,1.7681392E-2,-6.9224522E-3,1.1011799E-2,-5.163133E-2,-2.9556597E-2,-7.900916E-2,-6.272718E-2,-2.073931E-2,-3.7160005E-2,-8.785012E-3,-2.2645403E-2,-3.427375E-4,-5.907682E-3,2.7142896E-3,-8.18302E-3,1.3539122E-2,9.319302E-3,2.3439464E-4,8.184648E-3,7.0976266E-3,2.0504074E-2,3.6841065E-3,9.246401E-3,1.1601125E-2,2.4003409E-2,-2.203915E-5,1.0943334E-2,1.976961E-2,2.7975652E-2],"split_indices":[1,7,9,4,0,9,1,7,0,9,9,1,9,0,0,9,9,9,9,1,4,9,9,0,0,0,9,9,9,9,3,9,9,0,1,9,9,9,9,9,3,4,9,3,2,9,7,3,4,9,9,9,9,9,9,0,0,0,9,7,9,3,9,9,2,0,8,0,2,0,0,0,0,0,8,0,0,2,2,8,3,4,0,0,0,0,7,2,9,0,0,4,0,2,0,9,2,0,0,0,2,1,0,0,0,2,2,2,0,9,2,8,2,8,8,0,9,0,0,0,0,0,0,0,0,0,0,0,0,0,0,0,0,0,0,0,0,0,0,0,0,0,0,0,0,0,0,0,0,0,0,0,0,0,0,0,0,0,0,0,0,0,0,0,0,0,0,0,0,0,0,0,0,0,0,0,0,0,0,0,0],"split_type":[0,0,0,0,0,0,0,0,0,0,0,0,0,0,0,0,0,0,0,0,0,0,0,0,0,0,0,0,0,0,0,0,0,0,0,0,0,0,0,0,0,0,0,0,0,0,0,0,0,0,0,0,0,0,0,0,0,0,0,0,0,0,0,0,0,0,0,0,0,0,0,0,0,0,0,0,0,0,0,0,0,0,0,0,0,0,0,0,0,0,0,0,0,0,0,0,0,0,0,0,0,0,0,0,0,0,0,0,0,0,0,0,0,0,0,0,0,0,0,0,0,0,0,0,0,0,0,0,0,0,0,0,0,0,0,0,0,0,0,0,0,0,0,0,0,0,0,0,0,0,0,0,0,0,0,0,0,0,0,0,0,0,0,0,0,0,0,0,0,0,0,0,0,0,0,0,0,0,0,0,0],"sum_hessian":[7.417E3,3.99E2,7.018E3,1.4E1,3.85E2,4.927E3,2.091E3,1.1E1,3E0,1.513E3,3.414E3,7.2E2,1.371E3,5E0,6E0,7.54E2,7.59E2,1.738E3,1.676E3,3.92E2,3.28E2,6.43E2,7.28E2,3E0,3E0,1.77E2,5.77E2,3.73E2,3.86E2,5.58E2,1.18E3,9.51E2,7.25E2,1.82E2,2.1E2,9.5E1,2.33E2,1.46E2,4.97E2,2.3E2,4.98E2,2.92E2,2.85E2,2.3E2,1.43E2,2.74E2,1.12E2,2.67E2,2.91E2,2.99E2,8.81E2,4E2,5.51E2,6.38E2,8.7E1,1.5E2,6E1,6E0,8.9E1,3.7E1,1.96E2,3E1,1.16E2,3.22E2,1.75E2,5.6E1,1.74E2,3.88E2,1.1E2,3.8E1,2.54E2,8.7E1,1.98E2,2.1E2,2E1,5.3E1,9E1,1.05E2,1.69E2,1.06E2,6E0,8.8E1,1.79E2,2.49E2,4.2E1,3E1,2.69E2,1.74E2,7.07E2,1.7E2,2.3E2,4.88E2,6.3E1,1.2E2,5.18E2,6E1,2.7E1,8.3E1,6E0,3E0,3.4E1,1.73E2,2.3E1,9E0,2.1E1,8.5E1,3.1E1,2.65E2,5.7E1,4.6E1,1.29E2,4.2E1,1.4E1,1.68E2,6E0,1.5E1,9.5E1,4.5E1,1.65E2,5E0,1.5E1,4.3E1,1E1,8.4E1,6E0,7E1,3.5E1,3.4E1,1.35E2,1.3E1,9.3E1,3E0,3E0,2.5E1,6.3E1,1.52E2,2.7E1,2.29E2,2E1,2.45E2,2.4E1,1.4E1,1.6E2,1.67E2,5.4E2,1.52E2,1.8E1,3.1E2,1.78E2,5.5E1,6.5E1,2.7E1,3.3E1,1.2E1,1.5E1,1E1,2.4E1,3E1,1.43E2,1.4E1,7.1E1,1E1,2.1E1,4.8E1,2.17E2,4.5E1,1.2E1,1.5E1,3.1E1,5E1,7.9E1,3E0,3.9E1,9E0,5E0,6E0,1.62E2,3E0,3E0,3.7E1,5.8E1],"tree_param":{"num_deleted":"0","num_feature":"10","num_nodes":"181","size_leaf_vector":"1"}},{"base_weights":[-4.572106E-3,-1.2761339E0,7.100583E-2,-1.34483455E-2,-1.3232575E-1,2.0648104E-1,-2.4953446E-1,-2.4696864E-2,2.4779993E-3,-1.8771794E-1,4.0363625E-1,-8.917627E-1,9.590084E-2,-3.8883702E-3,-9.489835E-3,-3.3023143E-1,-2.7567005E-2,2.944604E-1,5.079605E-1,-1.1291759E0,-6.132252E-1,-6.101103E-2,2.3350187E-1,2.8223274E-4,-2.1374756E-3,-4.2839468E-1,-2.6254025E-1,-1.03081256E-1,3.9606288E-2,1.8145992E-1,3.3975825E-1,5.960554E-1,3.911302E-1,-1.23738825E-1,-1.0283045E0,-7.8863245E-1,-5.357795E-1,-2.4991407E-1,-4.788999E-3,1.864335E-1,2.4803577E-1,-4.9069136E-2,-3.7460122E-2,-2.852148E-1,-2.0147195E-1,-1.5461865E-1,-7.87982E-2,-1.1126507E-2,7.647616E-2,1.3199598E-1,2.0313382E-1,3.8425726E-1,3.2380676E-1,4.6112892E-1,6.5427715E-1,4.2331728E-1,1.5228099E-1,-1.07645325E-1,-8.8144235E-2,-3.720814E-2,-8.1384885E-1,-3.103239E-1,-5.70816E-1,-1.1630843E-1,-2.816746E-1,-3.881909E-2,5.9421305E-2,1.456751E-1,2.0308533E-1,7.0481263E-3,2.4881987E-1,-3.2714836E-2,-2.652178E-1,-1.5095159E-2,-2.095877E-2,-1.8496957E-1,-1.32060675E-2,-9.231133E-2,-5.8785077E-2,6.5095373E-3,-3.7911385E-2,5.7378642E-2,9.933817E-2,1.456695E-1,7.082201E-2,2.2478385E-1,1.8173128E-1,2.8079629E-2,3.9439955E-1,3.1515998E-1,3.7882176E-1,4.7340743E-2,3.1108394E-2,5.869938E-2,6.825013E-1,4.666891E-2,4.0556332E-1,2.061229E-1,2.8080989E-2,-8.362051E-2,-3.902566E-2,-3.73578E-3,-3.3379653E-1,-6.182573E-1,-4.068399E-1,-6.232201E-3,-1.3455935E-2,-3.1657207E-1,-1.7243189E-1,-1.0675786E-1,-3.1792093E-2,7.342427E-2,2.1926492E-2,1.7253497E-1,6.487523E-2,2.0812264E-2,8.489369E-2,2.6605627E-1,2.3283282E-1,-2.212298E-2,-2.8452171E-2,-2.1635262E-2,-1.3846561E-2,-7.932563E-3,-1.22612445E-2,-1.2563007E-2,-5.212152E-3,-2.5538022E-3,4.0202397E-3,-1.22055225E-2,-2.0692542E-3,2.184802E-3,6.5667243E-3,1.7884813E-4,1.0213978E-2,6.9923275E-3,1.4951872E-2,1.377098E-2,2.5927518E-3,2.3197098E-2,1.0640636E-2,7.0289797E-3,1.8380016E-2,4.0374517E-2,2.8761188E-2,3.3466518E-2,2.9497445E-2,3.903272E-2,1.972924E-2,7.036602E-2,5.29097E-2,4.131535E-2,3.370917E-2,2.546891E-2,1.5103203E-2,4.4002864E-3,-7.1503306E-3,-2.5070637E-2,-4.006658E-2,-5.3785134E-2,-6.917959E-2,-4.19611E-2,-1.8790973E-2,-2.60952E-2,-3.5808846E-2,-7.874753E-3,-1.99298E-2,1.8118091E-3,-1.3335203E-2,7.6758144E-5,-4.619761E-3,5.1010185E-4,7.937653E-3,5.6245285E-3,-2.1480462E-3,9.301971E-3,1.8735863E-2,9.057576E-3,3.7249818E-3,1.260691E-2,1.5420382E-3,2.345471E-2,2.858877E-2,2.0926528E-2,2.816887E-2],"categories":[],"categories_nodes":[],"categories_segments":[],"categories_sizes":[],"default_left":[0,0,0,0,0,0,0,0,0,0,0,0,0,0,0,0,0,0,0,0,0,0,0,0,0,0,0,0,0,0,0,0,0,0,0,0,0,0,0,0,0,0,0,0,0,0,0,0,0,0,0,0,0,0,0,0,0,0,0,0,0,0,0,0,0,0,0,0,0,0,0,0,0,0,0,0,0,0,0,0,0,0,0,0,0,0,0,0,0,0,0,0,0,0,0,0,0,0,0,0,0,0,0,0,0,0,0,0,0,0,0,0,0,0,0,0,0,0,0,0,0,0,0,0,0,0,0,0,0,0,0,0,0,0,0,0,0,0,0,0,0,0,0,0,0,0,0,0,0,0,0,0,0,0,0,0,0,0,0,0,0,0,0,0,0,0,0,0,0,0,0,0,0,0,0,0,0,0,0,0,0,0,0,0,0],"id":6,"left_children":[1,3,5,7,-1,9,11,13,-1,15,17,19,21,-1,23,25,27,29,31,33,35,37,39,-1,-1,41,43,45,47,49,51,53,55,-1,57,59,61,63,65,67,69,-1,-1,71,73,75,77,79,81,83,85,87,89,91,93,95,97,-1,-1,-1,99,101,103,105,107,109,111,113,115,-1,117,-1,119,-1,-1,121,-1,123,125,127,129,131,133,135,137,139,141,-1,143,145,147,-1,-1,-1,149,-1,151,153,155,-1,-1,-1,157,159,161,-1,-1,163,165,167,169,171,173,175,177,-1,179,181,183,-1,-1,-1,-1,-1,-1,-1,-1,-1,-1,-1,-1,-1,-1,-1,-1,-1,-1,-1,-1,-1,-1,-1,-1,-1,-1,-1,-1,-1,-1,-1,-1,-1,-1,-1,-1,-1,-1,-1,-1,-1,-1,-1,-1,-1,-1,-1,-1,-1,-1,-1,-1,-1,-1,-1,-1,-1,-1,-1,-1,-1,-1,-1,-1,-1,-1],"loss_changes":[7.134532E2,2.475592E1,3.0437982E2,8.013183E-3,0E0,3.829933E2,4.6212732E2,2.3589851E-3,0E0,3.7497044E1,3.718506E1,4.7135986E1,2.9288288E1,0E0,1.3342868E-3,5.6089325E0,3.9398797E0,8.14093E0,1.6915405E1,2.3648071E0,3.9645767E0,6.7369194E0,4.248886E-1,0E0,0E0,9.0556335E-1,6.317673E-1,4.3914294E-1,7.7099186E-1,4.5668888E-1,6.27182E-1,7.037781E0,5.4808426E0,0E0,7.232666E-2,6.0142136E-1,1.6261444E0,5.682707E-1,1.0752429E0,7.541466E-2,4.991913E-2,0E0,0E0,1.8388939E-1,1.22003555E-2,4.24366E-2,5.9875727E-2,8.280037E-2,9.5581055E-2,1.0623026E-1,8.6769104E-2,1.4290619E-1,2.2692108E-1,3.179741E-1,6.571655E-1,2.0774841E-1,5.831318E-1,0E0,0E0,0E0,3.9593506E-1,2.0875192E-1,1.2213364E0,1.7472684E-2,3.6225128E-1,1.4839467E-1,8.710414E-2,1.0583055E-1,4.583454E-2,0E0,5.7117462E-2,0E0,1.2763214E-1,0E0,0E0,2.1468282E-2,0E0,4.3449044E-2,3.717029E-2,1.1653596E-1,9.690729E-2,3.7163556E-2,2.8832078E-2,1.8576622E-2,8.3229646E-2,9.272146E-2,1.9470692E-2,0E0,8.9790344E-2,1.4583588E-1,1.1109638E-1,0E0,0E0,0E0,9.2652893E-1,0E0,3.250122E-2,1.0684705E-1,4.9908232E-2,0E0,0E0,0E0,2.9901743E-2,3.6725616E-1,2.292347E-2,0E0,0E0,5.9576035E-2,5.5742085E-2,1.0159275E-1,1.3771608E-1,4.961735E-2,7.406146E-2,2.277422E-2,6.653905E-3,0E0,1.8538386E-2,5.6575775E-2,2.5066948E-1,0E0,0E0,0E0,0E0,0E0,0E0,0E0,0E0,0E0,0E0,0E0,0E0,0E0,0E0,0E0,0E0,0E0,0E0,0E0,0E0,0E0,0E0,0E0,0E0,0E0,0E0,0E0,0E0,0E0,0E0,0E0,0E0,0E0,0E0,0E0,0E0,0E0,0E0,0E0,0E0,0E0,0E0,0E0,0E0,0E0,0E0,0E0,0E0,0E0,0E0,0E0,0E0,0E0,0E0,0E0,0E0,0E0,0E0,0E0,0E0,0E0,0E0,0E0,0E0,0E0,0E0],"parents":[2147483647,0,0,1,1,2,2,3,3,5,5,6,6,7,7,9,9,10,10,11,11,12,12,14,14,15,15,16,16,17,17,18,18,19,19,20,20,21,21,22,22,25,25,26,26,27,27,28,28,29,29,30,30,31,31,32,32,34,34,35,35,36,36,37,37,38,38,39,39,40,40,43,43,44,44,45,45,46,46,47,47,48,48,49,49,50,50,51,51,52,52,53,53,54,54,55,55,56,56,60,60,61,61,62,62,63,63,64,64,65,65,66,66,67,67,68,68,70,70,72,72,75,75,77,77,78,78,79,79,80,80,81,81,82,82,83,83,84,84,85,85,86,86,88,88,89,89,90,90,94,94,96,96,97,97,98,98,102,102,103,103,104,104,107,107,108,108,109,109,110,110,111,111,112,112,113,113,114,114,116,116,117,117,118,118],"right_children":[2,4,6,8,-1,10,12,14,-1,16,18,20,22,-1,24,26,28,30,32,34,36,38,40,-1,-1,42,44,46,48,50,52,54,56,-1,58,60,62,64,66,68,70,-1,-1,72,74,76,78,80,82,84,86,88,90,92,94,96,98,-1,-1,-1,100,102,104,106,108,110,112,114,116,-1,118,-1,120,-1,-1,122,-1,124,126,128,130,132,134,136,138,140,142,-1,144,146,148,-1,-1,-1,150,-1,152,154,156,-1,-1,-1,158,160,162,-1,-1,164,166,168,170,172,174,176,178,-1,180,182,184,-1,-1,-1,-1,-1,-1,-1,-1,-1,-1,-1,-1,-1,-1,-1,-1,-1,-1,-1,-1,-1,-1,-1,-1,-1,-1,-1,-1,-1,-1,-1,-1,-1,-1,-1,-1,-1,-1,-1,-1,-1,-1,-1,-1,-1,-1,-1,-1,-1,-1,-1,-1,-1,-1,-1,-1,-1,-1,-1,-1,-1,-1,-1,-1,-1,-1],"split_conditions":[-1.2969921E0,-4.1579413E-1,5.791169E-1,-3.1935376E-1,-1.3232575E-1,-9.6018714E-1,5.477163E-1,-5.701521E-1,2.4779993E-3,-1.3249344E0,-2.0451266E-1,2.0658582E-2,1.3951389E0,-3.8883702E-3,2.0378213E-1,-1.5680991E0,-1.1492168E0,-7.432025E-1,2.4276854E-1,-7.6992804E-1,6.9130445E-1,1.1626236E0,1.3130087E0,2.8223274E-4,-2.1374756E-3,-2.4287029E-1,-1.3923815E0,-1.2707992E0,-1.0675701E0,-8.9185256E-1,-2.5883833E-1,-6.784341E-2,5.391811E-1,-1.23738825E-1,-2.4287029E-1,6.7540663E-1,6.3502705E-1,5.959787E-1,1.3143798E0,1.4222065E0,3.6868477E-1,-4.9069136E-2,-3.7460122E-2,-1.5139639E0,-2.067875E0,-1.1023203E0,-1.203352E0,1.6047473E-1,-1.1153251E0,2.9039744E-1,-1.0949676E0,-6.486877E-1,-2.5687295E-1,3.3370483E-1,2.6671374E-2,3.239714E-1,5.6713617E-1,-1.07645325E-1,-8.8144235E-2,-3.720814E-2,1.0814208E0,7.2293186E-1,1.1084884E0,-6.8058264E-1,1.148868E0,1.1759356E0,9.601693E-1,4.8528072E-1,1.1960024E0,7.0481263E-3,1.5979241E0,-3.2714836E-2,-1.4735843E0,-1.5095159E-2,-2.095877E-2,1.6047473E-1,-1.32060675E-2,3.3370483E-1,-7.2451013E-1,9.551364E-2,-7.8625304E-1,-7.2451013E-1,-1.5268687E0,-2.5883833E-1,3.0348295E-1,3.553585E-1,-3.99422E-1,2.8079629E-2,-3.967341E-1,-4.4767743E-1,4.4197333E-1,4.7340743E-2,3.1108394E-2,5.869938E-2,2.1436974E-1,4.666891E-2,1.12778E0,5.520493E-1,1.3130087E0,-8.362051E-2,-3.902566E-2,-3.73578E-3,2.9039744E-1,6.7540663E-1,1.135556E0,-6.232201E-3,-1.3455935E-2,6.212714E-1,1.8212843E-1,2.131024E0,1.219865E0,-5.3999895E-1,1.1469649E0,2.3685952E-1,1.0969077E0,2.0812264E-2,1.2512658E0,1.5304769E0,1.6924388E0,-2.212298E-2,-2.8452171E-2,-2.1635262E-2,-1.3846561E-2,-7.932563E-3,-1.22612445E-2,-1.2563007E-2,-5.212152E-3,-2.5538022E-3,4.0202397E-3,-1.22055225E-2,-2.0692542E-3,2.184802E-3,6.5667243E-3,1.7884813E-4,1.0213978E-2,6.9923275E-3,1.4951872E-2,1.377098E-2,2.5927518E-3,2.3197098E-2,1.0640636E-2,7.0289797E-3,1.8380016E-2,4.0374517E-2,2.8761188E-2,3.3466518E-2,2.9497445E-2,3.903272E-2,1.972924E-2,7.036602E-2,5.29097E-2,4.131535E-2,3.370917E-2,2.546891E-2,1.5103203E-2,4.4002864E-3,-7.1503306E-3,-2.5070637E-2,-4.006658E-2,-5.3785134E-2,-6.917959E-2,-4.19611E-2,-1.8790973E-2,-2.60952E-2,-3.5808846E-2,-7.874753E-3,-1.99298E-2,1.8118091E-3,-1.3335203E-2,7.6758144E-5,-4.619761E-3,5.1010185E-4,7.937653E-3,5.6245285E-3,-2.1480462E-3,9.301971E-3,1.8735863E-2,9.057576E-3,3.7249818E-3,1.260691E-2,1.5420382E-3,2.345471E-2,2.858877E-2,2.0926528E-2,2.816887E-2],"split_indices":[1,5,9,4,0,9,1,5,0,9,9,1,9,0,0,9,9,9,9,1,4,9,5,0,0,1,9,9,9,9,3,9,9,0,1,9,9,9,9,9,8,0,0,9,7,3,9,0,7,0,5,9,9,0,9,9,9,0,0,0,9,7,9,3,9,9,4,0,8,0,9,0,9,0,0,0,0,0,5,0,5,5,8,3,3,0,3,0,7,9,0,0,0,0,9,0,5,9,5,0,0,0,0,9,9,0,0,9,0,3,9,3,3,8,5,0,5,9,9,0,0,0,0,0,0,0,0,0,0,0,0,0,0,0,0,0,0,0,0,0,0,0,0,0,0,0,0,0,0,0,0,0,0,0,0,0,0,0,0,0,0,0,0,0,0,0,0,0,0,0,0,0,0,0,0,0,0,0,0,0,0,0,0,0,0],"split_type":[0,0,0,0,0,0,0,0,0,0,0,0,0,0,0,0,0,0,0,0,0,0,0,0,0,0,0,0,0,0,0,0,0,0,0,0,0,0,0,0,0,0,0,0,0,0,0,0,0,0,0,0,0,0,0,0,0,0,0,0,0,0,0,0,0,0,0,0,0,0,0,0,0,0,0,0,0,0,0,0,0,0,0,0,0,0,0,0,0,0,0,0,0,0,0,0,0,0,0,0,0,0,0,0,0,0,0,0,0,0,0,0,0,0,0,0,0,0,0,0,0,0,0,0,0,0,0,0,0,0,0,0,0,0,0,0,0,0,0,0,0,0,0,0,0,0,0,0,0,0,0,0,0,0,0,0,0,0,0,0,0,0,0,0,0,0,0,0,0,0,0,0,0,0,0,0,0,0,0,0,0,0,0,0,0],"sum_hessian":[7.421E3,4.15E2,7.006E3,1.5E1,4E2,4.925E3,2.081E3,1.2E1,3E0,1.642E3,3.283E3,7.27E2,1.354E3,5E0,7E0,8.68E2,7.74E2,1.607E3,1.676E3,3.9E2,3.37E2,6.33E2,7.21E2,4E0,3E0,3.51E2,5.17E2,3.64E2,4.1E2,4.62E2,1.145E3,9.52E2,7.24E2,1.8E2,2.1E2,9.9E1,2.38E2,1.44E2,4.89E2,1.75E2,5.46E2,1.57E2,1.94E2,3.73E2,1.44E2,1.14E2,2.5E2,1.73E2,2.37E2,1.44E2,3.18E2,2.93E2,8.52E2,2.91E2,6.61E2,6.37E2,8.7E1,1.51E2,5.9E1,7E0,9.2E1,3.4E1,2.04E2,2.9E1,1.15E2,3.2E2,1.69E2,5.5E1,1.2E2,3E0,5.43E2,1.13E2,2.6E2,2.4E1,1.2E2,4.4E1,7E1,1.46E2,1.04E2,1.05E2,6.8E1,1.32E2,1.05E2,1.16E2,2.8E1,1.51E2,1.67E2,3E1,2.63E2,7.45E2,1.07E2,2.66E2,2.5E1,2.05E2,4.56E2,1.74E2,4.63E2,6E1,2.7E1,8.6E1,6E0,3E0,3.1E1,1.55E2,4.9E1,9E0,2E1,8.5E1,3E1,2.8E1,2.92E2,1.22E2,4.7E1,4E1,1.5E1,1.14E2,6E0,2.5E2,2.93E2,8.5E1,1.75E2,2.3E1,2.1E1,1.06E2,4E1,7E0,9.7E1,5.4E1,5.1E1,1E1,5.8E1,2.6E1,1.06E2,3E0,1.02E2,7E0,1.09E2,1E1,1.8E1,1.41E2,1E1,4E0,1.63E2,2.38E2,2.5E1,3.67E2,3.78E2,9.9E1,8E0,3.96E2,6E1,4.1E2,5.3E1,2.9E1,3.1E1,2.4E1,3E0,1.7E1,1.4E1,8E1,7.5E1,4.5E1,4E0,4.1E1,4.4E1,8E0,2.2E1,5E0,2.3E1,9E1,2.02E2,1E1,1.12E2,2.6E1,2.1E1,8E0,3.2E1,6E0,9E0,3E0,3E0,1.04E2,1.46E2,2.03E2,9E1],"tree_param":{"num_deleted":"0","num_feature":"10","num_nodes":"185","size_leaf_vector":"1"}},{"base_weights":[3.4643404E-4,1.855214E-1,-3.7282592E-1,-1.678268E-1,3.635845E-1,-9.046691E-1,1.0105621E-1,-2.966121E-1,-2.5200995E-2,2.64886E-1,4.5808718E-1,-4.1925249E-1,-1.044975E0,-3.918728E-2,2.1060893E-1,-2.3004319E-1,-3.7437E-1,-9.018354E-2,3.6206592E-2,1.5955359E-1,3.0346432E-1,5.25949E-1,3.3513325E-1,-1.8881714E-1,-5.299279E-1,-1.1082543E0,-6.144249E-1,-2.5001475E-1,-2.673075E-3,1.6779616E-1,2.2453743E-1,-1.8221219E-1,-2.5109848E-1,-4.542185E-2,-3.3901337E-1,-1.4321491E-1,-6.92279E-2,-8.358267E-3,6.913733E-2,1.2288133E-1,1.773499E-1,2.5617278E-1,3.1626016E-1,4.129493E-1,5.657963E-1,3.618277E-1,9.148389E-2,-1.2283304E-1,-2.608419E-2,-4.5510378E-1,-6.655879E-2,-9.1334224E-2,-1.1618258E0,-4.6141016E-1,-7.123473E-2,-2.9127797E-2,-1.4859948E-1,-3.475577E-2,5.4516826E-2,1.338549E-1,1.8166135E-1,2.4265938E-1,2.1125251E-1,-1.9818176E-1,-1.5121318E-1,-2.5260133E-1,-9.476869E-3,-4.0283293E-2,-3.2573152E-1,-1.19307674E-1,-1.6964592E-1,-8.051425E-2,-4.5227535E-2,7.672463E-3,-3.274295E-2,4.1731477E-2,8.4017694E-2,7.802949E-2,1.3684037E-1,1.8151982E-1,1.1838611E-1,2.5936985E-1,1.1599357E-2,3.669359E-1,2.855095E-1,4.2415833E-1,2.8383711E-2,5.972286E-1,4.5212927E-1,3.7362528E-1,2.8019398E-1,1.5769345E-1,3.632929E-2,-1.7299902E-2,-8.752131E-2,-3.449776E-1,-5.08801E-1,-1.19666554E-1,-1.0627873E-1,-1.9325947E-2,-4.722431E-2,-5.089519E-3,-1.7823787E-1,-4.3254495E-2,1.9972436E-3,9.039449E-2,4.0831275E-2,1.4985536E-1,4.7524005E-2,1.919921E-1,1.2647541E-1,2.0343558E-1,2.7601495E-1,2.2517985E-2,1.5942179E-1,-2.0752316E-2,-1.3048795E-2,-1.1779584E-1,-1.862195E-2,-2.8313E-2,-2.3983335E-1,-3.6291126E-2,-3.0259294E-2,-1.2681814E-1,-2.6491897E-3,-9.563901E-2,-1.7889506E-1,-8.297324E-2,7.1067014E-4,-9.632592E-3,-9.704815E-2,-1.4218304E-2,5.023907E-2,-1.22407764E-1,-1.2744238E-2,5.037752E-2,-9.978278E-3,9.813516E-2,4.8203707E-2,3.2946587E-2,1.1137784E-1,1.7900571E-2,1.2573244E-1,1.971436E-1,1.541704E-1,5.603595E-2,1.761381E-1,2.6378962E-1,1.7740795E-2,3.363259E-2,4.2691454E-2,2.625302E-1,3.2563803E-1,2.2532273E-2,4.2750485E-2,5.2618373E-2,6.297899E-2,4.608128E-2,2.8151501E-2,3.2653406E-1,3.8261586E-1,3.0352978E-2,1.28024835E-2,1.670626E-2,5.4119094E-3,-6.44158E-2,9.188524E-2,-4.49309E-3,-9.301397E-3,-2.3888513E-2,-3.784489E-2,-3.3988833E-2,-5.323222E-2,-1.15058515E-2,-2.3322579E-2,-3.5622697E-2,-9.780269E-2,2.2877859E-2,-1.1371098E-2,1.1586688E-2,7.3290296E-2,5.623909E-2,-4.595986E-2,6.0043205E-3,1.5371281E-1,-3.2784688E-4,8.73594E-3,1.7335442E-1,2.2692925E-1,2.1733606E-2,7.150234E-2,1.8236682E-1,2.4558404E-1,7.9667885E-3,2.8018862E-2,1.1985613E-1,2.4859367E-2,-1.220169E-2,-4.992117E-3,-2.8209358E-2,-2.2099279E-2,-1.4626473E-2,-9.6523985E-3,-4.1120625E-3,-1.14161605E-2,-1.9548755E-2,-1.2398925E-2,-9.705718E-3,-7.0816563E-3,-1.9229619E-3,8.460245E-3,-1.3702539E-2,-5.773773E-3,-3.4701456E-3,2.4772955E-3,8.3438837E-4,6.155997E-3,-3.1333156E-3,-1.4622084E-2,-9.265813E-3,1.0867674E-3,-3.137807E-4,5.8879256E-3,4.984925E-3,-5.3967866E-3,6.1386833E-3,1.0361464E-2,4.2890693E-4,7.6713883E-3,7.7576856E-3,7.7972055E-4,1.1803822E-2,4.687037E-3,1.31688835E-2,1.6534971E-3,2.047423E-2,1.43381525E-2,2.0021446E-2,1.1971167E-2,3.115437E-3,8.37307E-3,9.938054E-3,2.1224843E-2,1.0909491E-2,2.6507631E-2,2.778307E-2,2.1741431E-2,3.3013757E-2,1.8067833E-2,3.4181237E-2,1.6857287E-2,4.1278344E-2,3.562071E-2,-7.848426E-3,-1.0117464E-3,1.0117623E-2,5.182922E-3,-8.799484E-3,-2.8172983E-3,-3.3105917E-3,-1.49687305E-2,8.12025E-3,9.6553675E-4,3.1980195E-3,8.274914E-3,7.711105E-3,2.674218E-3,-6.98545E-4,-8.208043E-3,1.6163161E-2,8.978793E-3,1.7690204E-2,8.060176E-3,9.302148E-3,2.3612892E-2,2.3579327E-3,2.0208683E-2,2.2872789E-2,1.4408112E-2,1.321467E-2,2.6450185E-2,5.8853873E-3,1.3325254E-2],"categories":[],"categories_nodes":[],"categories_segments":[],"categories_sizes":[],"default_left":[0,0,0,0,0,0,0,0,0,0,0,0,0,0,0,0,0,0,0,0,0,0,0,0,0,0,0,0,0,0,0,0,0,0,0,0,0,0,0,0,0,0,0,0,0,0,0,0,0,0,0,0,0,0,0,0,0,0,0,0,0,0,0,0,0,0,0,0,0,0,0,0,0,0,0,0,0,0,0,0,0,0,0,0,0,0,0,0,0,0,0,0,0,0,0,0,0,0,0,0,0,0,0,0,0,0,0,0,0,0,0,0,0,0,0,0,0,0,0,0,0,0,0,0,0,0,0,0,0,0,0,0,0,0,0,0,0,0,0,0,0,0,0,0,0,0,0,0,0,0,0,0,0,0,0,0,0,0,0,0,0,0,0,0,0,0,0,0,0,0,0,0,0,0,0,0,0,0,0,0,0,0,0,0,0,0,0,0,0,0,0,0,0,0,0,0,0,0,0,0,0,0,0,0,0,0,0,0,0,0,0,0,0,0,0,0,0,0,0,0,0,0,0,0,0,0,0,0,0,0,0,0,0,0,0,0,0,0,0,0,0,0,0,0,0,0,0,0,0,0,0,0,0,0,0,0,0,0,0,0,0,0,0,0,0,0,0,0,0,0,0,0,0,0,0,0,0,0,0,0,0,0,0],"id":7,"left_children":[1,3,5,7,9,11,13,15,17,19,21,23,25,27,29,31,33,35,37,39,41,43,45,47,49,51,53,55,57,59,61,63,65,-1,67,69,71,73,75,77,79,81,83,85,87,89,91,93,-1,95,-1,-1,97,99,-1,-1,101,103,105,107,109,111,113,115,117,119,-1,-1,121,123,125,127,129,131,133,135,137,139,141,143,145,147,-1,149,151,153,-1,155,157,159,161,163,165,-1,167,169,171,-1,-1,-1,-1,-1,173,175,177,179,181,183,185,187,189,191,193,-1,195,-1,-1,197,-1,-1,199,-1,-1,201,-1,203,205,207,-1,209,211,213,215,217,219,221,223,225,227,229,231,-1,233,235,237,239,241,243,-1,-1,-1,245,247,-1,-1,-1,-1,-1,-1,249,251,-1,-1,-1,-1,253,255,-1,-1,-1,-1,-1,-1,-1,-1,257,259,261,-1,-1,263,265,267,-1,269,-1,-1,271,273,-1,275,277,279,-1,-1,281,-1,-1,-1,-1,-1,-1,-1,-1,-1,-1,-1,-1,-1,-1,-1,-1,-1,-1,-1,-1,-1,-1,-1,-1,-1,-1,-1,-1,-1,-1,-1,-1,-1,-1,-1,-1,-1,-1,-1,-1,-1,-1,-1,-1,-1,-1,-1,-1,-1,-1,-1,-1,-1,-1,-1,-1,-1,-1,-1,-1,-1,-1,-1,-1,-1,-1,-1,-1,-1,-1,-1,-1,-1,-1,-1,-1,-1,-1,-1,-1,-1,-1,-1,-1,-1,-1,-1],"loss_changes":[5.1266907E2,3.1207184E2,6.202593E2,3.0525757E1,3.0574646E1,7.8312805E1,2.002406E1,4.392288E0,3.1593263E0,6.4960938E0,1.37742E1,6.5445824E0,2.345819E1,4.406215E0,3.7969208E-1,4.092369E-1,8.9970016E-1,4.1242552E-1,5.988951E-1,2.521839E-1,5.934448E-1,4.519226E0,3.8690567E0,3.677826E-1,1.337223E0,6.5685425E0,1.2825241E0,2.886834E-1,9.009797E-1,5.0822735E-2,5.491638E-2,2.955246E-2,4.0567398E-2,0E0,4.3483734E-2,3.756833E-2,6.9976926E-2,6.858961E-2,9.037197E-2,7.6331854E-2,3.91922E-2,7.11689E-2,1.2819595E0,2.3548889E-1,2.4371338E0,3.6543274E-1,2.1599E-1,6.320357E-2,0E0,4.3745804E-1,0E0,0E0,1.8847656E-1,9.79805E-3,0E0,0E0,6.6027224E-2,9.836483E-2,8.1126094E-2,7.150686E-2,3.626585E-2,2.0556831E-1,1.8256187E-1,1.9138813E-2,3.4360647E-2,2.3460388E-2,0E0,0E0,4.389763E-2,3.7831485E-2,6.8496466E-3,4.128301E-2,1.6921881E-1,1.0030985E-1,1.22286074E-1,3.8979784E-2,6.899738E-2,5.2378193E-2,1.7994642E-2,6.9140434E-2,6.98148E-2,2.127266E-2,0E0,4.1527557E-1,4.0798187E-1,2.9514313E-2,0E0,9.3370056E-1,6.9862366E-2,1.1367798E-2,2.0625925E-1,1.31242275E-2,2.0757137E-1,0E0,1.1001527E-3,1.886177E-2,3.2541275E-2,0E0,0E0,0E0,0E0,0E0,3.0967176E-2,1.0113886E-1,1.5007377E-1,7.957131E-3,1.7838976E-1,3.3049583E-3,2.3702577E-2,9.036064E-3,9.906474E-2,2.8282166E-2,6.116867E-2,0E0,2.1815336E-1,0E0,0E0,4.6098232E-4,0E0,0E0,9.4792366E-2,0E0,0E0,1.2108147E-2,0E0,1.5418902E-3,5.389452E-4,2.0936608E-2,0E0,5.3537566E-2,4.706478E-2,5.839394E-2,1.6541153E-2,2.0237222E-2,1.1189526E-1,3.3717647E-2,3.956453E-2,1.190412E-2,5.64731E-2,1.985751E-2,9.3859434E-4,0E0,5.6898117E-2,2.357626E-2,1.2984967E-1,5.3898357E-3,2.3493171E-4,3.6964417E-3,0E0,0E0,0E0,1.6997719E-1,4.45652E-2,0E0,0E0,0E0,0E0,0E0,0E0,1.19914055E-1,8.657074E-2,0E0,0E0,0E0,0E0,9.121474E-3,8.7992847E-4,0E0,0E0,0E0,0E0,0E0,0E0,0E0,0E0,8.4652066E-2,9.494811E-2,3.9311785E-2,0E0,0E0,8.729741E-3,6.555277E-2,2.799939E-2,0E0,1.7697811E-3,0E0,0E0,3.1266212E-3,5.857587E-3,0E0,1.0236742E-1,8.81269E-2,1.51690245E-2,0E0,0E0,3.277445E-2,0E0,0E0,0E0,0E0,0E0,0E0,0E0,0E0,0E0,0E0,0E0,0E0,0E0,0E0,0E0,0E0,0E0,0E0,0E0,0E0,0E0,0E0,0E0,0E0,0E0,0E0,0E0,0E0,0E0,0E0,0E0,0E0,0E0,0E0,0E0,0E0,0E0,0E0,0E0,0E0,0E0,0E0,0E0,0E0,0E0,0E0,0E0,0E0,0E0,0E0,0E0,0E0,0E0,0E0,0E0,0E0,0E0,0E0,0E0,0E0,0E0,0E0,0E0,0E0,0E0,0E0,0E0,0E0,0E0,0E0,0E0,0E0,0E0,0E0,0E0,0E0,0E0,0E0,0E0,0E0,0E0,0E0,0E0,0E0,0E0,0E0,0E0],"parents":[2147483647,0,0,1,1,2,2,3,3,4,4,5,5,6,6,7,7,8,8,9,9,10,10,11,11,12,12,13,13,14,14,15,15,16,16,17,17,18,18,19,19,20,20,21,21,22,22,23,23,24,24,25,25,26,26,27,27,28,28,29,29,30,30,31,31,32,32,34,34,35,35,36,36,37,37,38,38,39,39,40,40,41,41,42,42,43,43,44,44,45,45,46,46,47,47,49,49,52,52,53,53,56,56,57,57,58,58,59,59,60,60,61,61,62,62,63,63,64,64,65,65,68,68,69,69,70,70,71,71,72,72,73,73,74,74,75,75,76,76,77,77,78,78,79,79,80,80,81,81,83,83,84,84,85,85,87,87,88,88,89,89,90,90,91,91,92,92,94,94,95,95,96,96,102,102,103,103,104,104,105,105,106,106,107,107,108,108,109,109,110,110,111,111,112,112,114,114,117,117,120,120,123,123,125,125,126,126,127,127,129,129,130,130,131,131,132,132,133,133,134,134,135,135,136,136,137,137,138,138,139,139,140,140,142,142,143,143,144,144,145,145,146,146,147,147,151,151,152,152,159,159,160,160,165,165,166,166,175,175,176,176,177,177,180,180,181,181,182,182,184,184,187,187,188,188,190,190,191,191,192,192,195,195],"right_children":[2,4,6,8,10,12,14,16,18,20,22,24,26,28,30,32,34,36,38,40,42,44,46,48,50,52,54,56,58,60,62,64,66,-1,68,70,72,74,76,78,80,82,84,86,88,90,92,94,-1,96,-1,-1,98,100,-1,-1,102,104,106,108,110,112,114,116,118,120,-1,-1,122,124,126,128,130,132,134,136,138,140,142,144,146,148,-1,150,152,154,-1,156,158,160,162,164,166,-1,168,170,172,-1,-1,-1,-1,-1,174,176,178,180,182,184,186,188,190,192,194,-1,196,-1,-1,198,-1,-1,200,-1,-1,202,-1,204,206,208,-1,210,212,214,216,218,220,222,224,226,228,230,232,-1,234,236,238,240,242,244,-1,-1,-1,246,248,-1,-1,-1,-1,-1,-1,250,252,-1,-1,-1,-1,254,256,-1,-1,-1,-1,-1,-1,-1,-1,258,260,262,-1,-1,264,266,268,-1,270,-1,-1,272,274,-1,276,278,280,-1,-1,282,-1,-1,-1,-1,-1,-1,-1,-1,-1,-1,-1,-1,-1,-1,-1,-1,-1,-1,-1,-1,-1,-1,-1,-1,-1,-1,-1,-1,-1,-1,-1,-1,-1,-1,-1,-1,-1,-1,-1,-1,-1,-1,-1,-1,-1,-1,-1,-1,-1,-1,-1,-1,-1,-1,-1,-1,-1,-1,-1,-1,-1,-1,-1,-1,-1,-1,-1,-1,-1,-1,-1,-1,-1,-1,-1,-1,-1,-1,-1,-1,-1,-1,-1,-1,-1,-1,-1],"split_conditions":[5.791169E-1,-9.6018714E-1,1.1218003E0,-1.3249344E0,-2.0451266E-1,7.0247424E-1,1.3951389E0,-5.972706E-1,-1.1492168E0,-7.569582E-1,2.9690376E-1,6.212714E-1,1.0672214E0,1.1626236E0,1.3130087E0,-1.6166673E0,-1.6763695E0,-1.7503589E0,-1.0675701E0,-8.9185256E-1,-6.353758E-1,-6.784341E-2,5.520493E-1,4.6939427E-1,6.7540663E-1,7.841208E-1,1.1885219E0,1.148868E0,1.3143798E0,1.4222065E0,2.9564586E-1,3.608023E-1,5.502418E-1,-4.542185E-2,-2.1732205E-1,4.91111E-1,-1.19004E0,1.6047473E-1,-1.2657269E0,-5.2065897E-1,3.553585E-1,-5.5266476E-1,-4.7474506E-1,3.3370483E-1,2.1436974E-1,1.12778E0,2.2543582E-1,-9.6401495E-1,-2.608419E-2,8.154134E-1,-6.655879E-2,-9.1334224E-2,9.8690605E-1,-1.1377612E0,-7.123473E-2,-2.9127797E-2,-7.685509E-1,1.2873122E0,-3.012796E-2,5.069344E-1,1.4896537E0,-6.165213E-1,3.553585E-1,4.4197333E-1,-1.8004936E0,-2.8488383E-1,-9.476869E-3,-4.0283293E-2,-1.6355463E0,4.4767547E-1,-2.1848564E0,-9.8795986E-1,4.2595667E-1,1.17167346E-1,-7.8625304E-1,-1.2991493E0,5.3454864E-1,3.5026394E-2,-1.1160434E0,-1.0023525E0,-3.8691553E-1,3.7701222E-1,1.1599357E-2,-5.2710533E-1,-2.9902744E-1,7.7306646E-1,2.8383711E-2,2.6671374E-2,4.2031962E-1,1.3137136E-1,3.1205112E-1,1.2821364E0,6.648573E-1,-1.7299902E-2,6.5608704E-1,7.532267E-1,-8.771418E-1,-1.19666554E-1,-1.0627873E-1,-1.9325947E-2,-4.722431E-2,-5.089519E-3,1.3128953E0,1.2735565E0,3.9866593E-1,1.3680713E0,3.9866593E-1,1.2322006E-1,-7.468321E-1,7.68707E-1,7.951681E-1,4.2031962E-1,1.4492741E0,2.2517985E-2,9.037601E-1,-2.0752316E-2,-1.3048795E-2,-3.1935376E-1,-1.862195E-2,-2.8313E-2,-1.5139639E0,-3.6291126E-2,-3.0259294E-2,-3.3418506E-1,-2.6491897E-3,-4.4666633E-1,-1.0501466E0,1.2189955E-1,7.1067014E-4,3.608023E-1,5.9970295E-1,-1.1088371E0,-1.1359048E0,2.4708952E-1,-4.2000532E-1,-1.5405027E0,2.0877272E-1,-5.2065897E-1,-4.875671E-1,-1.6372825E0,-5.404526E-1,1.7900571E-2,2.4708952E-1,-6.7703813E-1,3.173647E-1,-6.165213E-1,-1.3332264E0,-1.55804E0,1.7740795E-2,3.363259E-2,4.2691454E-2,-4.2829722E-1,4.4197333E-1,2.2532273E-2,4.2750485E-2,5.2618373E-2,6.297899E-2,4.608128E-2,2.8151501E-2,-3.5405123E-1,3.179315E-1,3.0352978E-2,1.28024835E-2,1.670626E-2,5.4119094E-3,6.2142175E-1,8.168869E-1,-4.49309E-3,-9.301397E-3,-2.3888513E-2,-3.784489E-2,-3.3988833E-2,-5.323222E-2,-1.15058515E-2,-2.3322579E-2,1.1759356E0,9.6891445E-1,9.551364E-2,-1.1371098E-2,1.1586688E-2,7.264503E-1,9.601693E-1,4.34091E-3,6.0043205E-3,4.8528072E-1,-3.2784688E-4,8.73594E-3,7.505266E-1,3.552813E-1,2.1733606E-2,9.6891445E-1,-1.376663E0,7.68707E-1,7.9667885E-3,2.8018862E-2,7.7779984E-1,2.4859367E-2,-1.220169E-2,-4.992117E-3,-2.8209358E-2,-2.2099279E-2,-1.4626473E-2,-9.6523985E-3,-4.1120625E-3,-1.14161605E-2,-1.9548755E-2,-1.2398925E-2,-9.705718E-3,-7.0816563E-3,-1.9229619E-3,8.460245E-3,-1.3702539E-2,-5.773773E-3,-3.4701456E-3,2.4772955E-3,8.3438837E-4,6.155997E-3,-3.1333156E-3,-1.4622084E-2,-9.265813E-3,1.0867674E-3,-3.137807E-4,5.8879256E-3,4.984925E-3,-5.3967866E-3,6.1386833E-3,1.0361464E-2,4.2890693E-4,7.6713883E-3,7.7576856E-3,7.7972055E-4,1.1803822E-2,4.687037E-3,1.31688835E-2,1.6534971E-3,2.047423E-2,1.43381525E-2,2.0021446E-2,1.1971167E-2,3.115437E-3,8.37307E-3,9.938054E-3,2.1224843E-2,1.0909491E-2,2.6507631E-2,2.778307E-2,2.1741431E-2,3.3013757E-2,1.8067833E-2,3.4181237E-2,1.6857287E-2,4.1278344E-2,3.562071E-2,-7.848426E-3,-1.0117464E-3,1.0117623E-2,5.182922E-3,-8.799484E-3,-2.8172983E-3,-3.3105917E-3,-1.49687305E-2,8.12025E-3,9.6553675E-4,3.1980195E-3,8.274914E-3,7.711105E-3,2.674218E-3,-6.98545E-4,-8.208043E-3,1.6163161E-2,8.978793E-3,1.7690204E-2,8.060176E-3,9.302148E-3,2.3612892E-2,2.3579327E-3,2.0208683E-2,2.2872789E-2,1.4408112E-2,1.321467E-2,2.6450185E-2,5.8853873E-3,1.3325254E-2],"split_indices":[9,9,9,9,9,9,9,7,9,9,9,9,9,9,5,7,9,7,9,9,9,9,9,2,9,9,6,9,9,9,2,2,0,0,4,2,9,0,7,4,0,6,9,0,9,5,0,2,0,6,0,0,9,2,0,0,2,9,2,0,9,2,0,0,7,4,0,0,9,2,7,6,2,0,5,7,2,2,2,5,4,0,0,9,9,7,0,9,0,6,0,5,2,0,7,6,2,0,0,0,0,0,6,9,0,9,0,8,2,8,2,0,9,0,2,0,0,4,0,0,9,0,0,2,0,5,6,2,0,2,2,9,9,0,4,8,2,4,4,2,8,0,0,6,2,2,2,5,0,0,0,6,0,0,0,0,0,0,0,5,6,0,0,0,0,2,2,0,0,0,0,0,0,0,0,9,2,0,0,0,5,4,7,0,0,0,0,8,7,0,2,2,8,0,0,8,0,0,0,0,0,0,0,0,0,0,0,0,0,0,0,0,0,0,0,0,0,0,0,0,0,0,0,0,0,0,0,0,0,0,0,0,0,0,0,0,0,0,0,0,0,0,0,0,0,0,0,0,0,0,0,0,0,0,0,0,0,0,0,0,0,0,0,0,0,0,0,0,0,0,0,0,0,0,0,0,0,0,0,0,0,0,0],"split_type":[0,0,0,0,0,0,0,0,0,0,0,0,0,0,0,0,0,0,0,0,0,0,0,0,0,0,0,0,0,0,0,0,0,0,0,0,0,0,0,0,0,0,0,0,0,0,0,0,0,0,0,0,0,0,0,0,0,0,0,0,0,0,0,0,0,0,0,0,0,0,0,0,0,0,0,0,0,0,0,0,0,0,0,0,0,0,0,0,0,0,0,0,0,0,0,0,0,0,0,0,0,0,0,0,0,0,0,0,0,0,0,0,0,0,0,0,0,0,0,0,0,0,0,0,0,0,0,0,0,0,0,0,0,0,0,0,0,0,0,0,0,0,0,0,0,0,0,0,0,0,0,0,0,0,0,0,0,0,0,0,0,0,0,0,0,0,0,0,0,0,0,0,0,0,0,0,0,0,0,0,0,0,0,0,0,0,0,0,0,0,0,0,0,0,0,0,0,0,0,0,0,0,0,0,0,0,0,0,0,0,0,0,0,0,0,0,0,0,0,0,0,0,0,0,0,0,0,0,0,0,0,0,0,0,0,0,0,0,0,0,0,0,0,0,0,0,0,0,0,0,0,0,0,0,0,0,0,0,0,0,0,0,0,0,0,0,0,0,0,0,0,0,0,0,0,0,0,0,0,0,0,0,0],"sum_hessian":[7.416E3,4.957E3,2.459E3,1.661E3,3.296E3,1.158E3,1.301E3,8.72E2,7.89E2,1.615E3,1.681E3,2.61E2,8.97E2,5.71E2,7.3E2,4.73E2,3.99E2,3.83E2,4.06E2,4.35E2,1.18E3,1.08E3,6.01E2,8.6E1,1.75E2,7.8E2,1.17E2,8.3E1,4.88E2,1.84E2,5.46E2,1.49E2,3.24E2,1.17E2,2.82E2,1.06E2,2.77E2,1.73E2,2.33E2,1.46E2,2.89E2,2.58E2,9.22E2,2.86E2,7.94E2,5.41E2,6E1,4.7E1,3.9E1,1.17E2,5.8E1,1.74E2,6.06E2,4.9E1,6.8E1,5.7E1,2.6E1,3.13E2,1.75E2,5.8E1,1.26E2,2.2E2,3.26E2,9.3E1,5.6E1,3.2E2,4E0,4.1E1,2.41E2,6E1,4.6E1,1.86E2,9.1E1,1.05E2,6.8E1,8.4E1,1.49E2,3.7E1,1.09E2,2.67E2,2.2E1,2.51E2,7E0,3.42E2,5.8E2,2.6E2,2.6E1,6.17E2,1.77E2,4.68E2,7.3E1,2.6E1,3.4E1,1.7E1,3E1,4.2E1,7.5E1,4.36E2,1.7E2,3E0,4.6E1,7E0,1.9E1,2.54E2,5.9E1,4.6E1,1.29E2,4.8E1,1E1,1.03E2,2.3E1,1.06E2,1.14E2,2.53E2,7.3E1,7.9E1,1.4E1,3.2E1,2.4E1,8.5E1,2.35E2,8.4E1,1.57E2,5.5E1,5E0,7E0,3.9E1,1.81E2,5E0,5.5E1,3.6E1,7E1,3.5E1,1.1E1,5.7E1,7.2E1,1.2E1,1.05E2,4.4E1,1.7E1,2E1,1.8E1,9.1E1,1.64E2,1.03E2,1.2E1,1E1,2.35E2,1.6E1,2.33E2,1.09E2,3.76E2,2.04E2,6E0,2.54E2,2.02E2,4.15E2,1.66E2,1.1E1,8.4E1,3.84E2,6.2E1,1.1E1,2.3E1,3E0,1.2E1,2.2E1,5E0,2.5E1,1.3E1,2.9E1,1.2E1,6.3E1,1.1E1,8E0,2.25E2,2.9E1,5.1E1,8E0,1.5E1,3.1E1,1.1E2,1.9E1,3E0,4.5E1,5E0,5E0,7.3E1,3E1,7E0,1.6E1,7.6E1,3E1,3E0,1.11E2,5.3E1,2E1,2.9E1,3E0,6.6E1,1.69E2,3E1,2.5E1,3E0,4E0,2.7E1,1.2E1,7.9E1,1.02E2,5.1E1,4E0,1.6E1,2E1,4.6E1,2.4E1,8E0,2.7E1,3E0,8E0,1.2E1,4.5E1,1E1,6.2E1,5E0,7E0,1.6E1,8.9E1,1.8E1,2.6E1,5E0,1.2E1,1.7E1,3E0,8.6E1,5E0,1.4E2,2.4E1,4.1E1,6.2E1,8E0,4E0,5E0,5E0,3E0,2.32E2,2.75E2,1.01E2,1.96E2,8E0,7.5E1,9E0,1.69E2,2.15E2,9E0,3E0,1.6E1,6E0,2.6E1,1.99E2,1.4E1,1.5E1,8E0,4.3E1,7E0,2.4E1,6.3E1,4.7E1,1E1,9E0,3.8E1,7E0,6.9E1,4E0,3E0,2.7E1,1.3E1,3E0,3.1E1,4.5E1,6E0,2.4E1,1.1E1,4.2E1],"tree_param":{"num_deleted":"0","num_feature":"10","num_nodes":"283","size_leaf_vector":"1"}},{"base_weights":[-1.9346598E-3,-1.040731E0,5.8312815E-2,-4.5223925E-3,-1.0751215E-1,1.6691032E-1,-2.0061995E-1,-1.5148641E-2,2.414104E-3,-1.7170225E-1,3.1918967E-1,-7.256681E-1,7.6609015E-2,-2.0259933E-3,-4.04725E-4,-2.7954218E-1,-5.6212284E-2,2.2315615E-1,4.080194E-1,-9.178091E-1,-5.006833E-1,-4.868593E-2,1.882404E-1,-3.798749E-1,-2.4213563E-1,-1.1019577E-1,-6.688254E-4,1.3036813E-1,2.6960504E-1,4.628641E-1,3.036609E-1,-9.5066077E-1,-7.114859E-2,-6.432299E-1,-4.358362E-1,-2.0461057E-1,-2.9748287E-3,1.5112714E-1,1.994113E-1,-4.2729065E-2,-3.3800732E-2,-2.8567916E-1,-2.1381815E-1,-1.4278772E-1,-7.201924E-2,-2.2496171E-2,4.5687992E-2,9.724219E-2,1.5981814E-1,3.117401E-1,2.5353074E-1,3.649881E-1,5.0764734E-1,3.265409E-1,8.7565005E-2,-7.979958E-2,-9.779418E-2,-3.235522E-2,-6.6563094E-1,-2.67134E-1,-4.6470425E-1,-9.352541E-2,-2.3010497E-1,-3.197338E-2,5.0477874E-2,1.22829184E-1,2.0402668E-2,2.0994714E-1,1.7486489E-1,-3.4530953E-2,-2.6596654E-2,-2.428282E-1,-1.986784E-1,-1.4767812E-1,-7.899006E-2,-7.438134E-2,6.560032E-4,4.892667E-2,-2.7704546E-2,5.6960147E-2,2.214735E-2,7.338309E-2,1.0791312E-1,1.6224182E-1,7.270177E-3,2.3286281E-2,3.190677E-1,2.1954772E-1,2.6713055E-1,3.7386087E-1,2.2998702E-2,5.3677815E-1,4.0407556E-1,2.5737828E-1,3.3866376E-1,1.45427035E-2,3.4418274E-2,-6.825787E-2,-3.3704076E-2,-2.0984088E-1,-4.028653E-2,-4.883344E-1,-2.59576E-2,-6.2473994E-3,-1.2338553E-2,-1.3222642E-1,-2.5883105E-1,-8.831595E-2,-2.614692E-2,5.928296E-2,4.1842572E-3,1.3686013E-1,4.3226004E-2,2.1152072E-1,7.2288113E-3,1.582075E-1,2.3461582E-1,-2.11324E-2,-2.734128E-2,-2.0026427E-2,-7.572504E-3,-1.783299E-2,-1.3587291E-2,-4.513226E-3,-1.0687497E-2,-9.163673E-3,-5.722891E-3,6.520095E-3,-4.3629334E-4,-9.484655E-3,-2.1436214E-3,4.2553064E-3,7.5387727E-3,-4.5101163E-3,4.3508885E-3,3.8272527E-3,8.61513E-3,1.588389E-2,9.839861E-3,1.6572325E-2,1.1158258E-2,3.4003492E-2,2.837011E-2,2.0897461E-2,3.01592E-2,2.1701481E-2,2.7961764E-2,3.507968E-2,4.1129217E-2,4.745809E-2,5.6684215E-2,4.11452E-2,2.5674168E-2,2.7910814E-2,1.3718367E-2,3.5158217E-2,2.9085675E-2,-5.395565E-3,8.122034E-3,-3.0803373E-3,-2.283657E-2,-4.5083124E-2,-6.0324825E-2,-1.6939247E-2,-7.6255426E-3,-2.3948347E-2,-4.854903E-2,3.347028E-3,-1.2154671E-2,-1.5949314E-2,-2.3478097E-3,6.739945E-3,-1.0792381E-3,4.210462E-3,-4.543668E-3,1.2136966E-2,2.1975981E-2,9.9304905E-3,-6.6361213E-3,1.9526834E-2,2.301069E-2,1.7399052E-2,8.757949E-3,9.771019E-3,2.4776524E-2],"categories":[],"categories_nodes":[],"categories_segments":[],"categories_sizes":[],"default_left":[0,0,0,0,0,0,0,0,0,0,0,0,0,0,0,0,0,0,0,0,0,0,0,0,0,0,0,0,0,0,0,0,0,0,0,0,0,0,0,0,0,0,0,0,0,0,0,0,0,0,0,0,0,0,0,0,0,0,0,0,0,0,0,0,0,0,0,0,0,0,0,0,0,0,0,0,0,0,0,0,0,0,0,0,0,0,0,0,0,0,0,0,0,0,0,0,0,0,0,0,0,0,0,0,0,0,0,0,0,0,0,0,0,0,0,0,0,0,0,0,0,0,0,0,0,0,0,0,0,0,0,0,0,0,0,0,0,0,0,0,0,0,0,0,0,0,0,0,0,0,0,0,0,0,0,0,0,0,0,0,0,0,0,0,0,0,0,0,0,0,0,0,0,0,0,0,0,0,0,0,0,0,0,0,0],"id":8,"left_children":[1,3,5,7,-1,9,11,13,-1,15,17,19,21,-1,-1,23,25,27,29,31,33,35,37,39,41,43,45,47,49,51,53,55,-1,57,59,61,63,65,67,-1,-1,69,71,73,75,77,79,81,83,85,87,89,91,93,95,-1,-1,-1,97,99,101,103,105,107,109,111,-1,113,115,-1,-1,117,119,121,123,125,-1,127,129,131,133,135,137,139,-1,-1,141,143,145,147,-1,149,151,153,155,-1,157,-1,-1,159,-1,161,-1,-1,-1,163,165,167,169,171,173,175,177,179,-1,181,183,-1,-1,-1,-1,-1,-1,-1,-1,-1,-1,-1,-1,-1,-1,-1,-1,-1,-1,-1,-1,-1,-1,-1,-1,-1,-1,-1,-1,-1,-1,-1,-1,-1,-1,-1,-1,-1,-1,-1,-1,-1,-1,-1,-1,-1,-1,-1,-1,-1,-1,-1,-1,-1,-1,-1,-1,-1,-1,-1,-1,-1,-1,-1,-1,-1,-1,-1,-1],"loss_changes":[4.6181076E2,1.4407379E1,1.9616934E2,4.9650352E-3,0E0,2.5349202E2,3.001523E2,5.295428E-4,0E0,1.8975658E1,2.8786499E1,3.0111267E1,1.8902985E1,0E0,0E0,2.82135E0,2.2142296E0,6.9832E0,9.859711E0,1.5780029E0,2.643776E0,4.54286E0,2.5101852E-1,2.0322609E-1,6.21685E-1,4.505453E-1,3.7137157E-1,5.1080704E-1,6.173172E-1,4.7649384E0,2.975586E0,1.8508911E-1,0E0,3.966446E-1,9.460945E-1,3.7695026E-1,7.689212E-1,2.1913648E-1,8.574867E-2,0E0,0E0,1.2495613E-1,8.421135E-2,4.5057774E-2,3.330666E-2,9.484646E-2,2.9286802E-2,5.4699183E-2,4.301071E-2,5.8189392E-2,2.7921677E-1,3.100319E-1,2.0446167E0,3.316574E-1,1.7854026E-1,0E0,0E0,0E0,1.7003632E-1,1.6481113E-1,7.6233673E-1,1.5789807E-2,2.7622318E-1,1.02077514E-1,7.075745E-2,1.2012887E-1,0E0,5.7971954E-2,1.1601114E-1,0E0,0E0,2.4621487E-2,2.4536133E-2,3.0416012E-2,9.286873E-3,4.2596757E-2,0E0,1.5603572E-2,9.522304E-2,1.6028792E-2,6.112298E-2,3.3383727E-2,6.256032E-2,2.1379948E-2,0E0,0E0,5.143547E-2,1.0975075E-1,2.5974274E-1,7.840347E-2,0E0,7.342987E-1,3.5539627E-2,1.7371178E-1,1.3348389E-1,0E0,1.4513223E-1,0E0,0E0,8.7289095E-2,0E0,3.440857E-1,0E0,0E0,0E0,4.1990876E-2,2.1369934E-1,1.2549025E-1,9.883317E-2,8.441526E-2,5.837813E-2,8.519697E-2,1.2972283E-1,4.3912888E-2,0E0,1.326468E-1,2.5794148E-2,0E0,0E0,0E0,0E0,0E0,0E0,0E0,0E0,0E0,0E0,0E0,0E0,0E0,0E0,0E0,0E0,0E0,0E0,0E0,0E0,0E0,0E0,0E0,0E0,0E0,0E0,0E0,0E0,0E0,0E0,0E0,0E0,0E0,0E0,0E0,0E0,0E0,0E0,0E0,0E0,0E0,0E0,0E0,0E0,0E0,0E0,0E0,0E0,0E0,0E0,0E0,0E0,0E0,0E0,0E0,0E0,0E0,0E0,0E0,0E0,0E0,0E0,0E0,0E0,0E0,0E0,0E0,0E0],"parents":[2147483647,0,0,1,1,2,2,3,3,5,5,6,6,7,7,9,9,10,10,11,11,12,12,15,15,16,16,17,17,18,18,19,19,20,20,21,21,22,22,23,23,24,24,25,25,26,26,27,27,28,28,29,29,30,30,31,31,33,33,34,34,35,35,36,36,37,37,38,38,41,41,42,42,43,43,44,44,45,45,46,46,47,47,48,48,49,49,50,50,51,51,52,52,53,53,54,54,58,58,59,59,60,60,61,61,62,62,63,63,64,64,65,65,67,67,68,68,71,71,72,72,73,73,74,74,75,75,77,77,78,78,79,79,80,80,81,81,82,82,83,83,86,86,87,87,88,88,89,89,91,91,92,92,93,93,94,94,96,96,99,99,101,101,105,105,106,106,107,107,108,108,109,109,110,110,111,111,112,112,113,113,115,115,116,116],"right_children":[2,4,6,8,-1,10,12,14,-1,16,18,20,22,-1,-1,24,26,28,30,32,34,36,38,40,42,44,46,48,50,52,54,56,-1,58,60,62,64,66,68,-1,-1,70,72,74,76,78,80,82,84,86,88,90,92,94,96,-1,-1,-1,98,100,102,104,106,108,110,112,-1,114,116,-1,-1,118,120,122,124,126,-1,128,130,132,134,136,138,140,-1,-1,142,144,146,148,-1,150,152,154,156,-1,158,-1,-1,160,-1,162,-1,-1,-1,164,166,168,170,172,174,176,178,180,-1,182,184,-1,-1,-1,-1,-1,-1,-1,-1,-1,-1,-1,-1,-1,-1,-1,-1,-1,-1,-1,-1,-1,-1,-1,-1,-1,-1,-1,-1,-1,-1,-1,-1,-1,-1,-1,-1,-1,-1,-1,-1,-1,-1,-1,-1,-1,-1,-1,-1,-1,-1,-1,-1,-1,-1,-1,-1,-1,-1,-1,-1,-1,-1,-1,-1,-1,-1,-1,-1],"split_conditions":[-1.2969921E0,-9.257791E-1,5.791169E-1,-3.1935376E-1,-1.0751215E-1,-1.0143224E0,5.477163E-1,1.6289929E-1,2.414104E-3,-1.3653139E0,-2.4489221E-1,2.0658582E-2,1.3951389E0,-2.0259933E-3,-4.04725E-4,-1.672002E0,-1.19004E0,-7.569582E-1,2.9690376E-1,-2.4287029E-1,6.9130445E-1,1.1626236E0,1.4763417E0,-1.7963694E0,-1.5277196E0,-1.2707992E0,-1.0675701E0,-8.9185256E-1,-2.5883833E-1,-6.784341E-2,5.520493E-1,8.775942E-1,-7.114859E-2,6.7540663E-1,6.3502705E-1,5.959787E-1,1.3143798E0,8.386037E-1,8.168869E-1,-4.2729065E-2,-3.3800732E-2,-1.6355463E0,-1.242904E0,-5.3999895E-1,-9.8795986E-1,-6.8058264E-1,-3.99422E-1,-1.1826136E-1,7.2522056E-1,-6.486877E-1,5.67452E-2,4.2031962E-1,2.1436974E-1,-1.1023203E0,2.2543582E-1,-7.979958E-2,-9.779418E-2,-3.235522E-2,1.0814208E0,8.154134E-1,1.1218003E0,3.7701222E-1,-4.210582E-1,1.1759356E0,1.1469649E0,7.082949E-1,2.0402668E-2,2.4121912E0,1.6924388E0,-3.4530953E-2,-2.6596654E-2,-1.5240645E0,-6.7227787E-1,1.6047473E-1,-1.6041421E0,1.2189955E-1,6.560032E-4,-2.2559309E-1,-1.2029166E0,-9.257791E-1,-1.5268687E0,-4.875671E-1,-8.771418E-1,3.553585E-1,7.270177E-3,2.3286281E-2,3.173647E-1,-2.9902744E-1,-6.757554E-1,-1.2330982E-1,2.2998702E-2,2.6671374E-2,4.2031962E-1,5.249817E-1,5.044857E-1,1.45427035E-2,6.648573E-1,-6.825787E-2,-3.3704076E-2,-1.8215548E-1,-4.028653E-2,1.1885219E0,-2.59576E-2,-6.2473994E-3,-1.2338553E-2,1.1885219E0,3.3370483E-1,8.603225E-1,-1.1826136E-1,1.0340688E0,3.1205112E-1,7.5961405E-1,7.2522056E-1,1.5616362E0,7.2288113E-3,1.6520593E0,8.820413E-1,-2.11324E-2,-2.734128E-2,-2.0026427E-2,-7.572504E-3,-1.783299E-2,-1.3587291E-2,-4.513226E-3,-1.0687497E-2,-9.163673E-3,-5.722891E-3,6.520095E-3,-4.3629334E-4,-9.484655E-3,-2.1436214E-3,4.2553064E-3,7.5387727E-3,-4.5101163E-3,4.3508885E-3,3.8272527E-3,8.61513E-3,1.588389E-2,9.839861E-3,1.6572325E-2,1.1158258E-2,3.4003492E-2,2.837011E-2,2.0897461E-2,3.01592E-2,2.1701481E-2,2.7961764E-2,3.507968E-2,4.1129217E-2,4.745809E-2,5.6684215E-2,4.11452E-2,2.5674168E-2,2.7910814E-2,1.3718367E-2,3.5158217E-2,2.9085675E-2,-5.395565E-3,8.122034E-3,-3.0803373E-3,-2.283657E-2,-4.5083124E-2,-6.0324825E-2,-1.6939247E-2,-7.6255426E-3,-2.3948347E-2,-4.854903E-2,3.347028E-3,-1.2154671E-2,-1.5949314E-2,-2.3478097E-3,6.739945E-3,-1.0792381E-3,4.210462E-3,-4.543668E-3,1.2136966E-2,2.1975981E-2,9.9304905E-3,-6.6361213E-3,1.9526834E-2,2.301069E-2,1.7399052E-2,8.757949E-3,9.771019E-3,2.4776524E-2],"split_indices":[1,6,9,4,0,9,1,3,0,9,9,1,9,0,0,6,9,9,9,1,4,9,9,6,9,9,9,9,3,9,9,6,0,9,9,9,9,2,2,0,0,9,3,3,6,3,3,3,3,9,2,0,9,3,0,0,0,0,9,6,9,0,2,9,3,2,0,3,9,0,0,3,8,0,8,2,0,2,2,6,8,4,2,0,0,0,2,9,9,9,0,9,0,9,6,0,2,0,0,2,0,6,0,0,0,6,0,2,3,2,0,8,3,6,0,9,2,0,0,0,0,0,0,0,0,0,0,0,0,0,0,0,0,0,0,0,0,0,0,0,0,0,0,0,0,0,0,0,0,0,0,0,0,0,0,0,0,0,0,0,0,0,0,0,0,0,0,0,0,0,0,0,0,0,0,0,0,0,0,0,0,0,0,0,0],"split_type":[0,0,0,0,0,0,0,0,0,0,0,0,0,0,0,0,0,0,0,0,0,0,0,0,0,0,0,0,0,0,0,0,0,0,0,0,0,0,0,0,0,0,0,0,0,0,0,0,0,0,0,0,0,0,0,0,0,0,0,0,0,0,0,0,0,0,0,0,0,0,0,0,0,0,0,0,0,0,0,0,0,0,0,0,0,0,0,0,0,0,0,0,0,0,0,0,0,0,0,0,0,0,0,0,0,0,0,0,0,0,0,0,0,0,0,0,0,0,0,0,0,0,0,0,0,0,0,0,0,0,0,0,0,0,0,0,0,0,0,0,0,0,0,0,0,0,0,0,0,0,0,0,0,0,0,0,0,0,0,0,0,0,0,0,0,0,0,0,0,0,0,0,0,0,0,0,0,0,0,0,0,0,0,0,0],"sum_hessian":[7.376E3,4.03E2,6.973E3,1.3E1,3.9E2,4.913E3,2.06E3,1E1,3E0,1.524E3,3.389E3,7.11E2,1.349E3,6E0,4E0,7.87E2,7.37E2,1.631E3,1.758E3,3.81E2,3.3E2,6.36E2,7.13E2,2.1E2,5.77E2,3.73E2,3.64E2,5.46E2,1.085E3,1.149E3,6.09E2,3.24E2,5.7E1,9.9E1,2.31E2,1.43E2,4.93E2,1.7E2,5.43E2,9.2E1,1.18E2,2.22E2,3.55E2,1.99E2,1.74E2,2.48E2,1.16E2,2.6E2,2.86E2,2.92E2,7.93E2,3.65E2,7.84E2,5.5E2,5.9E1,5.6E1,2.68E2,8E0,9.1E1,3.6E1,1.95E2,2.8E1,1.15E2,3.2E2,1.73E2,1.14E2,5.6E1,3.72E2,1.71E2,4.9E1,1.73E2,1.14E2,2.41E2,1.83E2,1.6E1,1.69E2,5E0,1.6E1,2.32E2,7.7E1,3.9E1,8.4E1,1.76E2,2.77E2,9E0,2.9E1,2.63E2,2.34E2,5.59E2,3.4E2,2.5E1,6.07E2,1.77E2,8.7E1,4.63E2,2.7E1,3.2E1,8.5E1,6E0,2.8E1,8E0,1.73E2,2.2E1,1.6E1,1.2E1,2.8E1,8.7E1,2.8E1,2.92E2,1.45E2,2.8E1,9.6E1,1.8E1,3.67E2,5E0,1.38E2,3.3E1,6.2E1,5.2E1,2.37E2,4E0,4.5E1,1.38E2,9E0,7E0,8.1E1,8.8E1,1.2E1,4E0,1.8E1,2.14E2,4.6E1,3.1E1,9E0,3E1,2.4E1,6E1,2.4E1,1.52E2,2.56E2,2.1E1,1.57E2,1.06E2,2.12E2,2.2E1,1.17E2,4.42E2,2.2E2,1.2E2,2.06E2,4.01E2,1.66E2,1.1E1,7.2E1,1.5E1,3.57E2,1.06E2,1.1E1,2.1E1,3E0,2.5E1,1.36E2,3.7E1,1.5E1,1.3E1,8.3E1,4E0,6E0,2.2E1,4E0,2.88E2,1.3E2,1.5E1,1.6E1,1.2E1,8.4E1,1.2E1,1.2E1,6E0,2.05E2,1.62E2,1.11E2,2.7E1,4E0,2.9E1],"tree_param":{"num_deleted":"0","num_feature":"10","num_nodes":"185","size_leaf_vector":"1"}}]},"name":"gbtree"},"learner_model_param":{"base_score":"[-3.7997762E-7]","boost_from_average":"1","num_class":"0","num_feature":"10","num_target":"1"},"objective":{"name":"reg:squarederror","reg_loss_param":{"scale_pos_weight":"1"}}},"version":[3,1,1]}