{"learner":{"attributes":{},"feature_names":[],"feature_types":[],"gradient_booster":{"model":{"cats":{"enc":[],"feature_segments":[],"sorted_idx":[]},"gbtree_model_param":{"num_parallel_tree":"1","num_trees":"128"},"iteration_indptr":[0,1,2,3,4,5,6,7,8,9,10,11,12,13,14,15,16,17,18,19,20,21,22,23,24,25,26,27,28,29,30,31,32,33,34,35,36,37,38,39,40,41,42,43,44,45,46,47,48,49,50,51,52,53,54,55,56,57,58,59,60,61,62,63,64,65,66,67,68,69,70,71,72,73,74,75,76,77,78,79,80,81,82,83,84,85,86,87,88,89,90,91,92,93,94,95,96,97,98,99,100,101,102,103,104,105,106,107,108,109,110,111,112,113,114,115,116,117,118,119,120,121,122,123,124,125,126,127,128],"tree_info":[0,0,0,0,0,0,0,0,0,0,0,0,0,0,0,0,0,0,0,0,0,0,0,0,0,0,0,0,0,0,0,0,0,0,0,0,0,0,0,0,0,0,0,0,0,0,0,0,0,0,0,0,0,0,0,0,0,0,0,0,0,0,0,0,0,0,0,0,0,0,0,0,0,0,0,0,0,0,0,0,0,0,0,0,0,0,0,0,0,0,0,0,0,0,0,0,0,0,0,0,0,0,0,0,0,0,0,0,0,0,0,0,0,0,0,0,0,0,0,0,0,0,0,0,0,0,0,0],"trees":[{"base_weights":[1.4494769E-3,-1.2383025E0,7.05227E-1,-1.3334814E0,-7.611308E-1,3.8002747E-1,9.163263E-1,-1.3923519E0,-6.894422E-1,-9.836446E-1,-6.680652E-1,-6.3846216E-2,4.35651E-1,8.0505127E-1,1.0039642E0,-1.4640312E0,-1.2348543E0,-8.4834404E-2,-5.299853E-1,-8.7244E-2,-1.069312E-1,-6.843108E-1,-3.176444E-2,-1.557001E-1,3.1302895E-2,2.615961E-1,4.602493E-1,7.405113E-1,8.489009E-2,9.727651E-2,1.18153535E-1,-1.5680163E-1,-1.356598E0,-1.2535581E-1,-1.0868563E-1,-6.139598E-2,-3.8935772E-1,-6.556479E-1,-8.387816E-1,-1.9458748E-1,-1.02743894E-1,-4.0590297E-2,8.350285E-2,1.9922252E-1,2.8176868E-1,4.4188273E-1,5.765969E-1,7.113825E-2,8.40272E-2,-1.379712E-1,-1.1692663E-1,-4.1600874E-1,-1.7344229E-2,-3.9183203E-2,-6.603187E-2,-3.9522056E-2,-8.615978E-2,-7.91773E-2,-2.1608597E-1,-1.87199E-1,-7.173819E-2,-8.6715475E-2,3.7768245E-2,1.13059655E-1,-1.2704859E-2,2.8694987E-2,1.7530039E-1,3.5131425E-1,2.5989828E-1,3.608285E-1,4.440505E-1,3.386848E-2,5.8369154E-1,-4.6691876E-2,-2.471328E-1,-1.5967075E-2,-1.0370938E-2,-2.5335428E-1,-1.2883842E-1,-5.726799E-3,-2.2414623E-2,3.9463295E-3,-8.68716E-2,-3.310053E-2,-1.1036989E-1,1.3456672E-2,-6.32267E-2,1.3908057E-1,5.47629E-3,-1.0044336E-2,4.120873E-2,1.0252867E-1,2.0485766E-1,2.9793352E-2,4.243511E-2,1.6889922E-1,2.7416125E-1,2.773853E-1,4.1516893E-2,4.236401E-1,4.5427474E-1,4.573886E-2,5.9607882E-2,-2.9568681E-2,-1.3944142E-2,9.898859E-3,-1.1713773E-2,-1.2337244E-2,-2.6657278E-2,-1.8495124E-2,-2.2255655E-3,-1.5702011E-2,-5.6946273E-3,-1.0097458E-2,2.8977925E-3,-1.2459551E-2,-2.5874963E-3,-1.4650161E-2,3.269355E-3,1.6338388E-2,1.1582992E-3,-4.48481E-3,9.21749E-3,7.225474E-3,-2.3423969E-3,1.7679699E-2,4.7714813E-3,2.15436E-2,1.0676312E-2,2.111441E-2,8.384701E-4,7.8110434E-3,2.7926166E-2,3.1907324E-2,1.6629381E-2,4.2798102E-2,1.7736929E-2,4.404792E-2,5.2491594E-2],"categories":[],"categories_nodes":[],"categories_segments":[],"categories_sizes":[],"default_left":[0,0,0,0,0,0,0,0,0,0,0,0,0,0,0,0,0,0,0,0,0,0,0,0,0,0,0,0,0,0,0,0,0,0,0,0,0,0,0,0,0,0,0,0,0,0,0,0,0,0,0,0,0,0,0,0,0,0,0,0,0,0,0,0,0,0,0,0,0,0,0,0,0,0,0,0,0,0,0,0,0,0,0,0,0,0,0,0,0,0,0,0,0,0,0,0,0,0,0,0,0,0,0,0,0,0,0,0,0,0,0,0,0,0,0,0,0,0,0,0,0,0,0,0,0,0,0,0,0,0,0,0,0,0,0,0,0,0,0],"id":0,"left_children":[1,3,5,7,9,11,13,15,17,19,21,23,25,27,29,31,33,-1,35,-1,-1,37,-1,39,41,43,45,47,-1,-1,-1,-1,49,-1,-1,-1,51,53,55,57,59,61,63,65,67,69,71,-1,-1,-1,-1,73,-1,-1,-1,-1,-1,75,77,79,81,83,85,87,89,-1,91,93,95,97,99,-1,101,-1,103,-1,105,107,109,-1,-1,-1,111,113,115,-1,117,119,121,-1,123,125,127,-1,-1,129,131,133,-1,135,137,-1,-1,-1,-1,-1,-1,-1,-1,-1,-1,-1,-1,-1,-1,-1,-1,-1,-1,-1,-1,-1,-1,-1,-1,-1,-1,-1,-1,-1,-1,-1,-1,-1,-1,-1,-1,-1,-1],"loss_changes":[6.4574443E3,1.2070166E2,3.237456E2,8.370361E1,8.620209E0,4.5950867E1,2.7101562E1,2.1278809E1,4.339279E0,3.05542E-1,1.5986481E0,1.8227556E0,6.956848E0,2.9542236E0,7.69812E0,1.3512695E1,4.258423E-1,0E0,9.064331E-1,0E0,0E0,7.9603577E-1,0E0,1.9829607E-1,3.8993004E-1,2.04319E-1,2.8373108E0,9.133301E-1,0E0,0E0,0E0,0E0,1.4003906E0,0E0,0E0,0E0,1.5226698E-1,6.28891E-2,1.04774475E-1,1.317594E-1,1.0964444E-1,1.6230436E-1,1.7205197E-1,6.302333E-2,1.4292717E-1,6.011963E-2,1.2976074E-1,0E0,0E0,0E0,0E0,1.7692375E-1,0E0,0E0,0E0,0E0,0E0,5.9267133E-2,1.299367E-1,4.4770658E-2,6.401113E-2,3.1857163E-2,1.7470288E-1,1.2801152E-1,7.509361E-2,0E0,7.578838E-2,6.129265E-3,1.10741615E-1,5.714369E-2,6.1523438E-2,0E0,1.9931793E-2,0E0,1.1057496E-2,0E0,9.332705E-2,2.5529861E-2,9.755498E-2,0E0,0E0,0E0,5.8233216E-2,4.5061193E-2,1.9613937E-2,0E0,7.667941E-2,1.1275613E-1,4.7764417E-2,0E0,2.1758363E-2,5.2628145E-2,9.167194E-3,0E0,0E0,1.2706703E-1,8.118105E-2,3.0301213E-2,0E0,3.7416077E-1,5.4548645E-1,0E0,0E0,0E0,0E0,0E0,0E0,0E0,0E0,0E0,0E0,0E0,0E0,0E0,0E0,0E0,0E0,0E0,0E0,0E0,0E0,0E0,0E0,0E0,0E0,0E0,0E0,0E0,0E0,0E0,0E0,0E0,0E0,0E0,0E0,0E0,0E0,0E0,0E0],"parents":[2147483647,0,0,1,1,2,2,3,3,4,4,5,5,6,6,7,7,8,8,9,9,10,10,11,11,12,12,13,13,14,14,15,15,16,16,18,18,21,21,23,23,24,24,25,25,26,26,27,27,32,32,36,36,37,37,38,38,39,39,40,40,41,41,42,42,43,43,44,44,45,45,46,46,51,51,57,57,58,58,59,59,60,60,61,61,62,62,63,63,64,64,66,66,67,67,68,68,69,69,70,70,72,72,74,74,76,76,77,77,78,78,82,82,83,83,84,84,86,86,87,87,88,88,90,90,91,91,92,92,95,95,96,96,97,97,99,99,100,100],"right_children":[2,4,6,8,10,12,14,16,18,20,22,24,26,28,30,32,34,-1,36,-1,-1,38,-1,40,42,44,46,48,-1,-1,-1,-1,50,-1,-1,-1,52,54,56,58,60,62,64,66,68,70,72,-1,-1,-1,-1,74,-1,-1,-1,-1,-1,76,78,80,82,84,86,88,90,-1,92,94,96,98,100,-1,102,-1,104,-1,106,108,110,-1,-1,-1,112,114,116,-1,118,120,122,-1,124,126,128,-1,-1,130,132,134,-1,136,138,-1,-1,-1,-1,-1,-1,-1,-1,-1,-1,-1,-1,-1,-1,-1,-1,-1,-1,-1,-1,-1,-1,-1,-1,-1,-1,-1,-1,-1,-1,-1,-1,-1,-1,-1,-1,-1,-1],"split_conditions":[-4.7474506E-1,-6.975398E-1,1.39892E-1,-5.692598E-1,-9.617433E-1,-3.7845534E-1,1.12778E0,-1.1487474E0,-1.6500897E0,-1.5114039E-1,-5.5266476E-1,2.048774E-1,-3.661105E-1,5.223954E-1,1.6249917E0,-1.1359048E0,5.846436E-1,-8.4834404E-2,-5.000377E-1,-8.7244E-2,-1.069312E-1,-1.6084787E0,-3.176444E-2,-4.4767743E-1,-4.0552297E-1,-3.5316268E-1,2.9690376E-1,1.3680713E0,8.489009E-2,9.727651E-2,1.18153535E-1,-1.5680163E-1,-6.083082E-1,-1.2535581E-1,-1.0868563E-1,-6.139598E-2,7.300137E-1,-8.211596E-1,-7.5643206E-1,-6.7227787E-1,-1.3983818E0,4.4767547E-1,-8.239938E-1,-1.3115087E0,-4.4277495E-1,-3.039238E-1,-4.7226676E-1,7.113825E-2,8.40272E-2,-1.379712E-1,-1.1692663E-1,-7.2227794E-1,-1.7344229E-2,-3.9183203E-2,-6.603187E-2,-3.9522056E-2,-8.615978E-2,-4.635789E-1,5.5626744E-1,1.6289929E-1,-1.1160434E0,3.552813E-1,6.2142175E-1,-3.8492343E-1,4.8232964E-1,2.8694987E-2,-1.6043666E-1,1.1414559E0,3.5026394E-2,-7.35635E-2,6.8950945E-1,3.386848E-2,-1.0640954E0,-4.6691876E-2,-5.5266476E-1,-1.5967075E-2,-4.301565E-1,-9.406096E-1,-4.5965818E-1,-5.726799E-3,-2.2414623E-2,3.9463295E-3,-4.4277495E-1,3.7777767E-1,4.8897293E-1,1.3456672E-2,7.082949E-1,6.648573E-1,6.05062E-1,-1.0044336E-2,7.7779984E-1,-7.9026866E-1,7.951681E-1,2.9793352E-2,4.243511E-2,7.2522056E-1,-1.6664386E0,1.1908517E0,4.1516893E-2,1.0687236E0,6.571973E-2,4.573886E-2,5.9607882E-2,-2.9568681E-2,-1.3944142E-2,9.898859E-3,-1.1713773E-2,-1.2337244E-2,-2.6657278E-2,-1.8495124E-2,-2.2255655E-3,-1.5702011E-2,-5.6946273E-3,-1.0097458E-2,2.8977925E-3,-1.2459551E-2,-2.5874963E-3,-1.4650161E-2,3.269355E-3,1.6338388E-2,1.1582992E-3,-4.48481E-3,9.21749E-3,7.225474E-3,-2.3423969E-3,1.7679699E-2,4.7714813E-3,2.15436E-2,1.0676312E-2,2.111441E-2,8.384701E-4,7.8110434E-3,2.7926166E-2,3.1907324E-2,1.6629381E-2,4.2798102E-2,1.7736929E-2,4.404792E-2,5.2491594E-2],"split_indices":[9,7,5,9,3,9,5,7,7,4,6,7,6,7,9,9,3,0,9,0,0,9,0,9,9,9,9,9,0,0,0,0,9,0,0,0,2,3,4,8,2,2,4,2,2,6,8,0,0,0,0,8,0,0,0,0,0,7,2,3,2,7,2,5,8,0,2,8,2,2,7,0,5,0,6,0,7,5,9,0,0,0,2,8,7,0,2,2,8,0,8,2,2,0,0,3,4,7,0,8,9,0,0,0,0,0,0,0,0,0,0,0,0,0,0,0,0,0,0,0,0,0,0,0,0,0,0,0,0,0,0,0,0,0,0,0,0,0,0],"split_type":[0,0,0,0,0,0,0,0,0,0,0,0,0,0,0,0,0,0,0,0,0,0,0,0,0,0,0,0,0,0,0,0,0,0,0,0,0,0,0,0,0,0,0,0,0,0,0,0,0,0,0,0,0,0,0,0,0,0,0,0,0,0,0,0,0,0,0,0,0,0,0,0,0,0,0,0,0,0,0,0,0,0,0,0,0,0,0,0,0,0,0,0,0,0,0,0,0,0,0,0,0,0,0,0,0,0,0,0,0,0,0,0,0,0,0,0,0,0,0,0,0,0,0,0,0,0,0,0,0,0,0,0,0,0,0,0,0,0,0],"sum_hessian":[7.399E3,2.679E3,4.72E3,2.232E3,4.47E2,1.859E3,2.861E3,2.044E3,1.88E2,1.29E2,3.18E2,2.07E2,1.652E3,1.265E3,1.596E3,1.399E3,6.45E2,9.2E1,9.6E1,6.1E1,6.8E1,3.03E2,1.5E1,1.05E2,1.02E2,2.06E2,1.446E3,5.19E2,7.46E2,1.363E3,2.33E2,7.04E2,6.95E2,5.66E2,7.9E1,5.8E1,3.8E1,2.6E2,4.3E1,5.9E1,4.6E1,4.3E1,5.9E1,5.3E1,1.53E2,1.253E3,1.93E2,4.08E2,1.11E2,6.13E2,8.2E1,3.3E1,5E0,6E0,2.54E2,3E0,4E1,1E1,4.9E1,1.1E1,3.5E1,2.7E1,1.6E1,4.5E1,1.4E1,9E0,4.4E1,3.3E1,1.2E2,3.7E1,1.216E3,7E0,1.86E2,2.4E1,9E0,4E0,6E0,3.3E1,1.6E1,3E0,8E0,4E0,3.1E1,9E0,1.8E1,8E0,8E0,3.6E1,9E0,5E0,9E0,1.4E1,3E1,2.2E1,1.1E1,1.8E1,1.02E2,1.7E1,2E1,4.2E2,7.96E2,2E1,1.66E2,5E0,4E0,3E0,3E0,4E0,2.9E1,1E1,6E0,8E0,2.3E1,4E0,5E0,1.5E1,3E0,4E0,4E0,3E1,6E0,6E0,3E0,6E0,3E0,5E0,9E0,2.6E1,4E0,1.4E1,4E0,3E0,9.9E1,1.1E1,6E0,4.12E2,8E0,6.72E2,1.24E2],"tree_param":{"num_deleted":"0","num_feature":"10","num_nodes":"139","size_leaf_vector":"1"}},{"base_weights":[-3.7404993E-3,-1.1182125E0,6.364788E-1,-6.367274E-1,-1.1891754E0,3.4400132E-1,8.2478076E-1,-5.9050655E-1,-7.738805E-2,-1.2429157E0,-5.99616E-1,-3.1891704E-2,3.9745453E-1,7.245993E-1,9.032126E-1,-6.0840994E-2,-4.941394E-1,-1.292903E0,-1.1202093E0,-7.2819984E-1,-4.0726823E-1,-1.1236864E-1,1.0510277E-1,2.5956115E-1,4.1806182E-1,6.681523E-1,7.6645666E-1,8.749706E-2,1.0656368E-1,-2.2658756E-2,-5.1375847E-2,-1.3971897E0,-1.2081747E0,-9.7464345E-2,-1.1486292E0,-7.70072E-2,-5.661083E-1,-4.5362613E-1,-2.763355E-1,-1.7743199E-1,-6.870524E-2,1.2736003E-1,-2.3275916E-4,2.9758638E-1,2.3146859E-1,4.0031782E-1,5.2429634E-1,7.076651E-2,6.326427E-2,6.2063873E-2,7.730108E-2,-1.11999296E-1,-1.416032E0,-1.2162915E0,-9.154148E-2,-1.256629E0,-1.0688092E-1,-3.329489E-2,-6.279733E-2,-3.715709E-1,-5.2569807E-2,-3.0751422E-1,-1.3154702E-2,-2.0983025E-1,-7.0568286E-2,-9.4665766E-2,5.5489363E-3,1.9834578E-1,9.1441005E-2,-1.3448508E-2,5.5725105E-2,1.6512273E-1,3.12645E-1,3.922251E-2,2.2441621E-1,3.7978595E-1,4.0794635E-1,3.0904988E-2,5.305669E-1,-1.4444135E-1,-1.2997748E0,-1.2281133E-1,-1.0127985E-1,-1.0819373E-1,-1.3011406E-1,-4.464316E-1,-2.8366017E-1,-1.4141771E-2,-3.298187E-2,-1.634473E-1,-2.3854339E-1,-3.8138323E-2,-1.502161E-2,-6.2497217E-2,-1.2896906E-1,8.527353E-3,-3.229493E-2,9.1155015E-2,2.6074305E-2,3.1262748E-2,1.4796163E-1,1.1369009E-2,1.4159505E-2,8.263098E-3,2.0045646E-2,4.1606363E-2,2.9099947E-2,1.4346852E-2,2.318082E-1,3.8229655E-2,1.3411361E-2,3.9579633E-1,4.4921958E-1,4.1004233E-2,5.414967E-2,-1.389783E-1,-9.5588304E-2,-4.9076736E-2,-2.0181647E-2,-3.4887623E-2,-1.0595143E-2,-2.68446E-2,-1.2041976E-2,-1.4071203E-2,-2.6203161E-2,-9.327865E-3,9.546198E-3,-8.048745E-3,4.086849E-3,-1.402347E-2,-5.865647E-3,-6.3908338E-3,3.631438E-3,3.5142634E-4,1.4899648E-2,-2.2593841E-3,8.271451E-3,1.7243331E-2,6.040108E-3,-6.56173E-4,3.542286E-3,2.350228E-2,8.625878E-3,4.1207556E-2,3.4129985E-2,4.7747876E-2,4.061773E-2],"categories":[],"categories_nodes":[],"categories_segments":[],"categories_sizes":[],"default_left":[0,0,0,0,0,0,0,0,0,0,0,0,0,0,0,0,0,0,0,0,0,0,0,0,0,0,0,0,0,0,0,0,0,0,0,0,0,0,0,0,0,0,0,0,0,0,0,0,0,0,0,0,0,0,0,0,0,0,0,0,0,0,0,0,0,0,0,0,0,0,0,0,0,0,0,0,0,0,0,0,0,0,0,0,0,0,0,0,0,0,0,0,0,0,0,0,0,0,0,0,0,0,0,0,0,0,0,0,0,0,0,0,0,0,0,0,0,0,0,0,0,0,0,0,0,0,0,0,0,0,0,0,0,0,0,0,0,0,0,0,0,0,0,0,0,0,0],"id":1,"left_children":[1,3,5,7,9,11,13,15,-1,17,19,21,23,25,27,-1,29,31,33,35,37,39,41,43,45,47,49,-1,-1,-1,-1,51,53,-1,55,-1,57,59,61,63,65,67,69,71,73,75,77,-1,-1,-1,-1,-1,79,81,-1,83,-1,-1,-1,85,-1,87,-1,89,91,93,95,97,99,-1,101,103,105,-1,107,109,111,-1,113,-1,115,-1,-1,-1,-1,117,119,-1,-1,121,123,125,-1,127,129,-1,131,133,-1,135,137,139,-1,-1,-1,-1,-1,-1,141,-1,-1,143,145,-1,-1,-1,-1,-1,-1,-1,-1,-1,-1,-1,-1,-1,-1,-1,-1,-1,-1,-1,-1,-1,-1,-1,-1,-1,-1,-1,-1,-1,-1,-1,-1,-1,-1],"loss_changes":[5.2956426E3,9.1768555E1,2.5933533E2,1.7617798E0,7.3995605E1,3.7143967E1,2.1872803E1,1.5828705E-1,0E0,1.1806641E1,4.625252E0,2.5585608E0,4.489212E0,2.4743652E0,6.425537E0,0E0,1.302967E-1,1.1822266E1,1.4992676E0,3.6493683E-1,3.723669E-1,4.0257895E-1,2.0165485E-1,1.5865135E-1,2.4404602E0,3.1837463E-1,2.0733643E-1,0E0,0E0,0E0,0E0,1.9604492E0,9.088135E-1,0E0,3.1740723E0,0E0,1.9480133E-1,1.5358639E-1,6.7891E-2,1.8600011E-1,1.720886E-1,1.628946E-1,1.2769377E-1,1.2191582E-1,5.596018E-2,3.440857E-2,1.032753E-1,0E0,0E0,0E0,0E0,0E0,2.0788574E-1,7.408447E-1,0E0,2.7960205E-1,0E0,0E0,0E0,7.7377796E-2,0E0,2.3747087E-2,0E0,1.9609928E-2,3.301564E-2,6.476998E-2,7.516398E-2,1.3006544E-1,1.620386E-1,0E0,4.4096474E-2,1.5498251E-2,5.129385E-2,0E0,4.0940285E-2,1.5966797E-1,2.574768E-1,0E0,2.9567719E-2,0E0,2.8192444E0,0E0,0E0,0E0,0E0,6.3632965E-2,1.6005683E-1,0E0,0E0,5.8030486E-2,2.057612E-2,9.730572E-2,0E0,7.0234016E-2,1.6329885E-2,0E0,3.9193355E-2,5.0169066E-2,0E0,7.114425E-2,4.3153703E-2,4.114166E-3,0E0,0E0,0E0,0E0,0E0,0E0,3.213024E-2,0E0,0E0,4.6174622E-1,3.716278E-2,0E0,0E0,0E0,0E0,0E0,0E0,0E0,0E0,0E0,0E0,0E0,0E0,0E0,0E0,0E0,0E0,0E0,0E0,0E0,0E0,0E0,0E0,0E0,0E0,0E0,0E0,0E0,0E0,0E0,0E0,0E0,0E0,0E0,0E0],"parents":[2147483647,0,0,1,1,2,2,3,3,4,4,5,5,6,6,7,7,9,9,10,10,11,11,12,12,13,13,14,14,16,16,17,17,18,18,19,19,20,20,21,21,22,22,23,23,24,24,25,25,26,26,31,31,32,32,34,34,36,36,37,37,38,38,39,39,40,40,41,41,42,42,43,43,44,44,45,45,46,46,52,52,53,53,55,55,59,59,61,61,63,63,64,64,65,65,66,66,67,67,68,68,70,70,71,71,72,72,74,74,75,75,76,76,78,78,80,80,85,85,86,86,89,89,90,90,91,91,93,93,94,94,96,96,97,97,99,99,100,100,101,101,108,108,111,111,112,112],"right_children":[2,4,6,8,10,12,14,16,-1,18,20,22,24,26,28,-1,30,32,34,36,38,40,42,44,46,48,50,-1,-1,-1,-1,52,54,-1,56,-1,58,60,62,64,66,68,70,72,74,76,78,-1,-1,-1,-1,-1,80,82,-1,84,-1,-1,-1,86,-1,88,-1,90,92,94,96,98,100,-1,102,104,106,-1,108,110,112,-1,114,-1,116,-1,-1,-1,-1,118,120,-1,-1,122,124,126,-1,128,130,-1,132,134,-1,136,138,140,-1,-1,-1,-1,-1,-1,142,-1,-1,144,146,-1,-1,-1,-1,-1,-1,-1,-1,-1,-1,-1,-1,-1,-1,-1,-1,-1,-1,-1,-1,-1,-1,-1,-1,-1,-1,-1,-1,-1,-1,-1,-1,-1,-1],"split_conditions":[-4.7474506E-1,-1.5680991E0,2.016349E-1,-1.6084787E0,-5.692598E-1,-3.664746E-1,1.12778E0,5.069344E-1,-7.738805E-2,-1.0404749E0,-5.137934E-1,-4.0552297E-1,-3.039238E-1,8.190639E-1,1.6249917E0,-6.0840994E-2,5.285881E-1,-1.1359048E0,-1.5139639E0,-5.3999895E-1,-7.950102E-1,-4.4767743E-1,-8.239938E-1,-8.570857E-1,2.9690376E-1,1.338303E0,1.5503976E-1,8.749706E-2,1.0656368E-1,-2.2658756E-2,-5.1375847E-2,-1.4602724E0,-5.812406E-1,-9.7464345E-2,-9.6018714E-1,-7.70072E-2,-3.99422E-1,2.9039744E-1,-5.404526E-1,2.0658582E-2,7.2522056E-1,5.846436E-1,1.3882104E-1,-1.6664386E0,-2.0915117E0,-7.2451013E-1,-4.7226676E-1,7.076651E-2,6.326427E-2,6.2063873E-2,7.730108E-2,-1.11999296E-1,3.553585E-1,4.4405994E-1,-9.154148E-2,-1.4735843E0,-1.0688092E-1,-3.329489E-2,-6.279733E-2,-7.2334224E-1,-5.2569807E-2,2.0658582E-2,-1.3154702E-2,-8.4799594E-1,-5.040865E-1,4.2031962E-1,3.7701222E-1,-4.2829722E-1,6.596139E-1,-1.3448508E-2,2.0658582E-2,-2.5883833E-1,-9.2464536E-1,3.922251E-2,1.6047473E-1,1.1005433E0,6.571973E-2,3.0904988E-2,-1.0640954E0,-1.4444135E-1,-1.0501466E0,-1.2281133E-1,-1.0127985E-1,-1.0819373E-1,-1.3011406E-1,2.4708952E-1,2.8418747E-1,-1.4141771E-2,-3.298187E-2,-5.404526E-1,-5.404526E-1,-6.995511E-1,-1.502161E-2,3.7701222E-1,5.285881E-1,8.527353E-3,4.4197333E-1,-1.9683955E0,2.6074305E-2,1.6047473E-1,8.0961955E-1,6.732479E-1,1.4159505E-2,8.263098E-3,2.0045646E-2,4.1606363E-2,2.9099947E-2,1.4346852E-2,-2.3056543E-1,3.8229655E-2,1.3411361E-2,-1.3708179E-2,1.2118615E-1,4.1004233E-2,5.414967E-2,-1.389783E-1,-9.5588304E-2,-4.9076736E-2,-2.0181647E-2,-3.4887623E-2,-1.0595143E-2,-2.68446E-2,-1.2041976E-2,-1.4071203E-2,-2.6203161E-2,-9.327865E-3,9.546198E-3,-8.048745E-3,4.086849E-3,-1.402347E-2,-5.865647E-3,-6.3908338E-3,3.631438E-3,3.5142634E-4,1.4899648E-2,-2.2593841E-3,8.271451E-3,1.7243331E-2,6.040108E-3,-6.56173E-4,3.542286E-3,2.350228E-2,8.625878E-3,4.1207556E-2,3.4129985E-2,4.7747876E-2,4.061773E-2],"split_indices":[9,9,5,9,9,9,5,0,0,8,9,9,6,5,9,0,0,9,9,3,8,9,4,4,9,1,8,0,0,0,0,9,9,0,9,0,3,0,8,1,3,3,0,4,0,5,8,0,0,0,0,0,0,3,0,9,0,0,0,4,0,1,0,5,8,0,0,6,8,0,1,3,4,0,0,8,9,0,5,0,6,0,0,0,0,0,1,0,0,8,8,8,0,0,0,0,0,4,0,0,8,8,0,0,0,0,0,0,5,0,0,9,9,0,0,0,0,0,0,0,0,0,0,0,0,0,0,0,0,0,0,0,0,0,0,0,0,0,0,0,0,0,0,0,0,0,0],"split_type":[0,0,0,0,0,0,0,0,0,0,0,0,0,0,0,0,0,0,0,0,0,0,0,0,0,0,0,0,0,0,0,0,0,0,0,0,0,0,0,0,0,0,0,0,0,0,0,0,0,0,0,0,0,0,0,0,0,0,0,0,0,0,0,0,0,0,0,0,0,0,0,0,0,0,0,0,0,0,0,0,0,0,0,0,0,0,0,0,0,0,0,0,0,0,0,0,0,0,0,0,0,0,0,0,0,0,0,0,0,0,0,0,0,0,0,0,0,0,0,0,0,0,0,0,0,0,0,0,0,0,0,0,0,0,0,0,0,0,0,0,0,0,0,0,0,0,0],"sum_hessian":[7.42E3,2.707E3,4.713E3,3.49E2,2.358E3,1.847E3,2.866E3,2.65E2,8.4E1,2.16E3,1.98E2,2.3E2,1.617E3,1.263E3,1.603E3,2.19E2,4.6E1,1.528E3,6.32E2,1.17E2,8.1E1,1.45E2,8.5E1,2.12E2,1.405E3,5.45E2,7.18E2,1.371E3,2.32E2,4E0,4.2E1,6.78E2,8.5E2,1.09E2,5.23E2,9E1,2.7E1,5.8E1,2.3E1,5.7E1,8.8E1,7E1,1.5E1,8.6E1,1.26E2,1.208E3,1.97E2,2.49E2,2.96E2,3.5E1,6.83E2,4.7E1,6.31E2,8.24E2,2.6E1,2.16E2,3.07E2,7E0,2E1,3E1,2.8E1,1.8E1,5E0,4.3E1,1.4E1,6.5E1,2.3E1,2.2E1,4.8E1,4E0,1.1E1,1E1,7.6E1,3E0,1.23E2,3.41E2,8.67E2,7E0,1.9E2,4.98E2,1.33E2,7.74E2,5E1,4.9E1,1.67E2,1.4E1,1.6E1,3E0,1.5E1,1.9E1,2.4E1,1.1E1,3E0,3.5E1,3E1,7E0,1.6E1,9E0,1.3E1,2.4E1,2.4E1,8E0,3E0,4E0,6E0,1E1,6.6E1,1.2E1,1.11E2,3.37E2,4E0,6.78E2,1.89E2,1.9E1,1.71E2,1.03E2,3E1,1.1E1,3E0,1.1E1,5E0,4E0,1.5E1,6E0,1.8E1,8E0,3E0,3E1,5E0,2.5E1,5E0,1.1E1,5E0,4E0,5E0,1.2E1,1.2E1,1.8E1,6E0,5E0,3E0,1.08E2,3E0,5.17E2,1.61E2,1.08E2,8.1E1],"tree_param":{"num_deleted":"0","num_feature":"10","num_nodes":"147","size_leaf_vector":"1"}},{"base_weights":[3.608456E-3,-1.0034478E0,5.730905E-1,-1.0814551E0,-6.2246126E-1,3.096168E-1,7.447454E-1,-1.1276803E0,-5.6282973E-1,-8.0234116E-1,-5.4638016E-1,-5.2736282E-2,3.546978E-1,6.560971E-1,8.14799E-1,-1.1892368E0,-1.0067534E0,-6.932297E-2,-4.333683E-1,-7.103639E-2,-8.716776E-2,-5.617831E-1,-2.9665306E-1,-1.0256432E-1,7.188229E-2,2.1840744E-1,3.7683165E-1,6.915526E-1,6.049914E-1,7.841679E-2,9.3200535E-1,-1.2728713E-1,-1.1007737E0,-1.0155181E-1,-8.001572E-2,-4.9116477E-2,-3.2500282E-1,-5.3362733E-1,-7.2538614E-2,-1.0656463E-2,-3.2241422E-1,-1.6174611E-1,-6.197019E-2,9.542148E-2,-1.22765815E-2,1.936319E-1,2.8590438E-1,3.600357E-1,4.7118574E-1,6.299528E-2,7.041734E-2,5.749972E-1,6.7626816E-1,8.8132046E-2,1.0105928E-1,-1.12158276E-1,-9.463225E-2,-3.38343E-2,-1.3369559E-2,-5.5005133E-2,-4.503373E-1,-3.8422648E-2,-1.9712059E-2,-1.888718E-1,-7.534598E-2,-8.4222674E-2,1.0638508E-2,1.172918E-1,2.7721175E-3,-1.2372628E-2,4.4675924E-2,2.5384256E-1,1.7621157E-1,3.088211E-1,2.2348398E-1,1.5884304E-2,3.6040142E-1,3.6191817E-2,4.8250803E-1,5.4176666E-2,6.0325958E-2,6.304889E-2,7.536688E-2,-2.0846056E-2,-4.67205E-2,-2.6139567E-2,-1.6612622E-1,-1.6514355E-1,3.5094537E-2,-4.7940686E-2,-1.2016176E-1,6.1003305E-2,-8.5125305E-2,3.2331236E-4,1.3061538E-1,-7.4523822E-3,4.6545208E-2,1.514952E-3,7.1172426E-3,1.7371821E-1,3.2876726E-2,1.3914098E-1,1.9191645E-1,3.5046735E-1,1.8895896E-1,1.2309092E-1,2.6807323E-1,3.428874E-1,3.668899E-1,2.6871199E-2,4.8683383E-2,-1.1638255E-2,-2.0258924E-2,-8.789133E-3,-1.8912112E-2,-3.6046065E-3,8.498812E-3,-6.650762E-3,3.8480572E-3,-1.2739253E-2,-3.4082842E-3,1.4704203E-3,1.2800126E-2,-3.0504137E-3,-1.1179718E-2,1.9879535E-2,9.392391E-3,3.5016128E-4,7.7952496E-3,5.4672593E-3,2.000626E-2,1.8609278E-2,9.767263E-3,8.294654E-3,1.9964194E-2,2.3995874E-2,3.9372373E-2,2.4481896E-2,8.29858E-3,1.49899E-2,5.880809E-3,3.1916272E-2,1.5527506E-2,3.90961E-2,3.2324787E-2,3.549845E-2,4.0954124E-2],"categories":[],"categories_nodes":[],"categories_segments":[],"categories_sizes":[],"default_left":[0,0,0,0,0,0,0,0,0,0,0,0,0,0,0,0,0,0,0,0,0,0,0,0,0,0,0,0,0,0,0,0,0,0,0,0,0,0,0,0,0,0,0,0,0,0,0,0,0,0,0,0,0,0,0,0,0,0,0,0,0,0,0,0,0,0,0,0,0,0,0,0,0,0,0,0,0,0,0,0,0,0,0,0,0,0,0,0,0,0,0,0,0,0,0,0,0,0,0,0,0,0,0,0,0,0,0,0,0,0,0,0,0,0,0,0,0,0,0,0,0,0,0,0,0,0,0,0,0,0,0,0,0,0,0,0,0,0,0,0,0,0,0,0,0,0,0],"id":2,"left_children":[1,3,5,7,9,11,13,15,17,19,21,23,25,27,29,31,33,-1,35,-1,-1,37,39,41,43,45,47,49,51,-1,53,-1,55,-1,-1,-1,57,59,-1,-1,61,63,65,67,69,71,73,75,77,-1,-1,79,81,-1,-1,-1,-1,-1,-1,-1,83,-1,-1,85,87,89,91,93,95,-1,97,99,101,103,105,-1,107,-1,109,-1,-1,-1,-1,-1,-1,-1,111,113,115,117,119,121,123,-1,125,-1,127,-1,-1,129,-1,131,133,135,137,139,141,143,145,-1,-1,-1,-1,-1,-1,-1,-1,-1,-1,-1,-1,-1,-1,-1,-1,-1,-1,-1,-1,-1,-1,-1,-1,-1,-1,-1,-1,-1,-1,-1,-1,-1,-1,-1,-1,-1,-1],"loss_changes":[4.2565215E3,7.900537E1,2.1418848E2,5.2682617E1,5.8295593E0,3.0598282E1,1.7288452E1,1.3995605E1,2.8058243E0,2.3535919E-1,1.0834656E0,1.2989484E0,4.940384E0,1.8864746E0,5.0097656E0,8.564697E0,4.4586182E-1,0E0,4.3536758E-1,0E0,0E0,1.0178604E0,6.8476915E-2,3.4793913E-1,1.2003338E-1,3.3762264E-1,2.0981445E0,1.3482666E-1,7.4209595E-1,0E0,4.0786743E-1,0E0,1.0662842E0,0E0,0E0,0E0,4.663992E-2,1.1342621E-1,0E0,0E0,6.366539E-2,1.2638903E-1,1.463112E-1,9.490958E-2,9.439034E-2,1.388259E-1,1.8242836E-2,3.2455444E-2,8.8890076E-2,0E0,0E0,2.9121399E-2,5.986786E-2,0E0,0E0,0E0,0E0,0E0,0E0,0E0,1.025219E-1,0E0,0E0,3.0807257E-2,1.6447228E-1,8.421123E-2,1.1130168E-1,5.7325184E-2,3.7303545E-2,0E0,6.745238E-3,1.6500878E-1,5.4220676E-2,1.4343214E-1,5.6531668E-2,0E0,1.2374878E-2,0E0,4.4898987E-2,0E0,0E0,0E0,0E0,0E0,0E0,0E0,4.3532968E-2,4.87715E-5,3.145916E-2,6.032405E-2,1.6820252E-2,4.4647023E-2,8.244514E-3,0E0,6.638354E-2,0E0,9.190219E-3,0E0,0E0,5.1785707E-2,0E0,6.943935E-2,6.3415766E-2,4.892826E-2,5.6639075E-2,4.971124E-3,2.5358498E-2,1.9840622E-1,2.979126E-1,0E0,0E0,0E0,0E0,0E0,0E0,0E0,0E0,0E0,0E0,0E0,0E0,0E0,0E0,0E0,0E0,0E0,0E0,0E0,0E0,0E0,0E0,0E0,0E0,0E0,0E0,0E0,0E0,0E0,0E0,0E0,0E0,0E0,0E0,0E0,0E0,0E0,0E0],"parents":[2147483647,0,0,1,1,2,2,3,3,4,4,5,5,6,6,7,7,8,8,9,9,10,10,11,11,12,12,13,13,14,14,15,15,16,16,18,18,21,21,22,22,23,23,24,24,25,25,26,26,27,27,28,28,30,30,32,32,36,36,37,37,40,40,41,41,42,42,43,43,44,44,45,45,46,46,47,47,48,48,51,51,52,52,60,60,63,63,64,64,65,65,66,66,67,67,68,68,70,70,71,71,72,72,73,73,74,74,76,76,78,78,86,86,87,87,88,88,89,89,90,90,91,91,92,92,94,94,96,96,99,99,101,101,102,102,103,103,104,104,105,105,106,106,107,107,108,108],"right_children":[2,4,6,8,10,12,14,16,18,20,22,24,26,28,30,32,34,-1,36,-1,-1,38,40,42,44,46,48,50,52,-1,54,-1,56,-1,-1,-1,58,60,-1,-1,62,64,66,68,70,72,74,76,78,-1,-1,80,82,-1,-1,-1,-1,-1,-1,-1,84,-1,-1,86,88,90,92,94,96,-1,98,100,102,104,106,-1,108,-1,110,-1,-1,-1,-1,-1,-1,-1,112,114,116,118,120,122,124,-1,126,-1,128,-1,-1,130,-1,132,134,136,138,140,142,144,146,-1,-1,-1,-1,-1,-1,-1,-1,-1,-1,-1,-1,-1,-1,-1,-1,-1,-1,-1,-1,-1,-1,-1,-1,-1,-1,-1,-1,-1,-1,-1,-1,-1,-1,-1,-1,-1,-1],"split_conditions":[-4.7474506E-1,-7.1425E-1,2.633778E-1,-5.692598E-1,-9.617433E-1,-3.7845534E-1,1.12778E0,-1.1821699E0,-1.6668019E0,-1.5114039E-1,-8.244054E-1,-4.0552297E-1,-2.7062863E-1,1.1759356E0,1.5846121E0,-1.1359048E0,7.2522056E-1,-6.932297E-2,-5.000377E-1,-7.103639E-2,-8.716776E-2,-1.6084787E0,-6.808276E-1,-4.4767743E-1,-8.239938E-1,1.1072947E0,2.9690376E-1,4.5753452E-1,1.3547593E0,7.841679E-2,1.679127E0,-1.2728713E-1,-6.083082E-1,-1.0155181E-1,-8.001572E-2,-4.9116477E-2,-5.404526E-1,5.069344E-1,-7.2538614E-2,-1.0656463E-2,-5.972706E-1,2.0658582E-2,7.2522056E-1,-3.8492343E-1,1.3882104E-1,2.2322318E-2,1.2914615E0,-5.2692347E0,-1.0640954E0,6.299528E-2,7.041734E-2,1.0063813E0,4.0050447E-1,8.8132046E-2,1.0105928E-1,-1.12158276E-1,-9.463225E-2,-3.38343E-2,-1.3369559E-2,-5.5005133E-2,5.285881E-1,-3.8422648E-2,-1.9712059E-2,-5.6062233E-2,-4.635789E-1,4.2031962E-1,3.719915E-1,-1.9683955E0,1.3882104E-1,-1.2372628E-2,-7.9090196E-1,1.1641827E0,-4.7753704E-1,3.3370483E-1,1.3505545E0,1.5884304E-2,-7.2451013E-1,3.6191817E-2,-4.7226676E-1,5.4176666E-2,6.0325958E-2,6.304889E-2,7.536688E-2,-2.0846056E-2,-4.67205E-2,-2.6139567E-2,-8.4799594E-1,-8.4799594E-1,-8.171238E-1,3.7701222E-1,4.7226074E-1,-5.701521E-1,4.2031962E-1,3.2331236E-4,-8.915556E-1,-7.4523822E-3,7.2293186E-1,1.514952E-3,7.1172426E-3,9.2346835E-1,3.2876726E-2,-5.701521E-1,7.3964405E-1,-4.7753704E-1,1.1908517E0,-4.1579413E-1,1.1908517E0,1.71455E-1,6.571973E-2,2.6871199E-2,4.8683383E-2,-1.1638255E-2,-2.0258924E-2,-8.789133E-3,-1.8912112E-2,-3.6046065E-3,8.498812E-3,-6.650762E-3,3.8480572E-3,-1.2739253E-2,-3.4082842E-3,1.4704203E-3,1.2800126E-2,-3.0504137E-3,-1.1179718E-2,1.9879535E-2,9.392391E-3,3.5016128E-4,7.7952496E-3,5.4672593E-3,2.000626E-2,1.8609278E-2,9.767263E-3,8.294654E-3,1.9964194E-2,2.3995874E-2,3.9372373E-2,2.4481896E-2,8.29858E-3,1.49899E-2,5.880809E-3,3.1916272E-2,1.5527506E-2,3.90961E-2,3.2324787E-2,3.549845E-2,4.0954124E-2],"split_indices":[9,7,5,9,3,9,5,7,7,4,9,9,9,9,9,9,3,0,9,0,0,9,7,9,4,7,9,9,9,0,9,0,9,0,0,0,8,0,0,0,7,1,3,5,0,3,8,4,5,0,0,3,8,0,0,0,0,0,0,0,0,0,0,0,7,0,7,4,0,0,4,8,5,0,8,0,5,0,8,0,0,0,0,0,0,0,5,5,5,0,7,5,0,0,4,0,7,0,0,7,0,5,7,5,7,5,7,7,9,0,0,0,0,0,0,0,0,0,0,0,0,0,0,0,0,0,0,0,0,0,0,0,0,0,0,0,0,0,0,0,0,0,0,0,0,0,0],"split_type":[0,0,0,0,0,0,0,0,0,0,0,0,0,0,0,0,0,0,0,0,0,0,0,0,0,0,0,0,0,0,0,0,0,0,0,0,0,0,0,0,0,0,0,0,0,0,0,0,0,0,0,0,0,0,0,0,0,0,0,0,0,0,0,0,0,0,0,0,0,0,0,0,0,0,0,0,0,0,0,0,0,0,0,0,0,0,0,0,0,0,0,0,0,0,0,0,0,0,0,0,0,0,0,0,0,0,0,0,0,0,0,0,0,0,0,0,0,0,0,0,0,0,0,0,0,0,0,0,0,0,0,0,0,0,0,0,0,0,0,0,0,0,0,0,0,0,0],"sum_hessian":[7.42E3,2.68E3,4.74E3,2.223E3,4.57E2,1.871E3,2.869E3,2.04E3,1.83E2,1.33E2,3.24E2,2.07E2,1.664E3,1.271E3,1.598E3,1.346E3,6.94E2,8.9E1,9.4E1,6.2E1,7.1E1,3.04E2,2E1,1.48E2,5.9E1,2.34E2,1.43E3,7.43E2,5.28E2,1.273E3,3.25E2,6.85E2,6.61E2,6.62E2,3.2E1,5.9E1,3.5E1,2.63E2,4.1E1,3E0,1.7E1,5.9E1,8.9E1,4.6E1,1.3E1,1.74E2,6E1,1.218E3,2.12E2,1.35E2,6.08E2,3.78E2,1.5E2,2.05E2,1.2E2,5.77E2,8.4E1,3.2E1,3E0,2.15E2,4.8E1,1E1,7E0,4.4E1,1.5E1,6.8E1,2.1E1,3.7E1,9E0,4E0,9E0,3.6E1,1.38E2,4.1E1,1.9E1,3E0,1.215E3,2.3E1,1.89E2,1.83E2,1.95E2,1E2,5E1,4E0,4.4E1,8E0,3.6E1,8E0,7E0,3.5E1,3.3E1,1.4E1,7E0,4E0,3.3E1,3E0,6E0,5E0,4E0,1.9E1,1.7E1,4.4E1,9.4E1,2.9E1,1.2E1,7E0,1.2E1,3.43E2,8.72E2,5E0,1.84E2,1.7E1,1.9E1,3E0,5E0,3E0,4E0,2.9E1,6E0,3E1,3E0,9E0,5E0,3E0,4E0,1E1,2.3E1,3E0,3E0,4E0,1.5E1,1.9E1,2.5E1,7E0,8.7E1,1E1,1.9E1,7E0,5E0,4E0,3E0,7E0,5E0,9.4E1,2.49E2,6.89E2,1.83E2],"tree_param":{"num_deleted":"0","num_feature":"10","num_nodes":"147","size_leaf_vector":"1"}},{"base_weights":[-1.4479266E-3,-8.858086E-1,5.17062E-1,-9.7438306E-1,-4.878421E-1,2.8112146E-1,6.676412E-1,-1.0096304E0,-6.0762525E-1,-5.175165E-1,3.874477E-2,1.4937356E-1,3.1582785E-1,5.8219457E-1,7.2483224E-1,-1.0671738E0,-9.010277E-1,-6.9583774E-1,-3.5787246E-1,-7.197134E-1,-4.3986866E-1,-6.039474E-2,3.214714E-1,2.2542605E-1,3.3878314E-1,6.101796E-1,5.294776E-1,7.0468104E-1,8.619386E-2,-9.727287E-1,-1.1085014E0,-9.0848386E-1,-7.1962886E-2,-7.723864E-1,-6.1920058E-2,-3.8102633E-1,-1.0913703E-2,-6.3621424E-2,-7.8577384E-2,-2.2372098E-1,-5.013721E-1,-1.19395545E-2,-4.525084E-1,4.148712E-1,2.8565294E-1,3.100337E-1,1.9920348E-1,4.6262553E-1,3.3188888E-1,6.650625E-1,5.917446E-1,5.1731955E-2,6.0069394E-1,6.0591806E-2,7.080395E-2,-7.330694E-1,-1.008269E-1,-1.19126454E-1,-1.0665992E0,-8.60376E-1,-9.334863E-1,-7.8950614E-2,-3.9535273E-2,-4.0347416E-2,-1.8870023E-1,-4.0753028E-1,-1.6765292E-1,-5.6486107E-2,-4.6562994E-1,-6.646891E-2,8.0402106E-2,-2.2518659E-2,-4.8105706E-2,1.4692982E-2,4.2726543E-2,2.9145086E-1,1.426847E-1,3.392538E-1,2.0241731E-1,1.6801612E-1,2.7320856E-1,3.482844E-1,5.136397E-2,3.2452604E-1,3.7523884E-1,5.6987476E-2,6.892134E-2,6.159028E-1,5.553543E-1,6.356555E-2,4.2827055E-2,-1.0505338E-1,-5.9467655E-1,-1.19094566E-1,-1.0426319E0,-8.72332E-1,-2.3674931E-2,-1.0023653E-1,-8.849974E-2,-9.081745E-3,-2.3940796E-2,-1.4406656E-2,-4.725152E-2,-4.2304143E-2,-1.478328E-1,-4.849222E-2,-3.9023605E-1,-1.1606215E-1,-1.6538158E-2,2.2006432E-2,1.4218296E-1,1.23801725E-2,2.9644698E-1,1.8229118E-2,5.7505425E-3,3.0859903E-1,4.371441E-2,1.05891794E-1,2.4544106E-1,1.8786449E-2,1.776469E-1,2.0037675E-1,3.075052E-1,1.5348732E-2,3.8509037E-2,-1.5266001E-1,3.2826984E-1,3.8304725E-1,1.2139275E-2,5.8645587E-2,6.6154175E-2,4.458916E-1,5.781172E-2,-8.545511E-2,-4.342196E-2,-8.1888735E-2,-1.0554417E-1,-8.941257E-2,-6.8218045E-2,-8.118278E-3,-1.702241E-2,-4.1979607E-2,-2.5366444E-2,-3.6355245E-3,-1.3817849E-2,5.8507547E-4,-1.0667888E-2,1.5435711E-2,-3.0739761E-3,1.5356086E-2,3.5525293E-3,3.039118E-2,2.232424E-2,2.3380375E-2,3.4851115E-2,3.994714E-3,1.453635E-2,1.5175195E-2,3.275176E-2,-2.8429474E-3,4.982833E-3,1.5688613E-2,2.4315791E-2,1.060762E-2,2.1393305E-2,4.265281E-2,2.7251383E-2,-4.3426186E-2,2.3750732E-2,3.355674E-2,2.8225256E-2,3.8763944E-2,1.2196719E-2,4.9297117E-2,3.2974925E-2],"categories":[],"categories_nodes":[],"categories_segments":[],"categories_sizes":[],"default_left":[0,0,0,0,0,0,0,0,0,0,0,0,0,0,0,0,0,0,0,0,0,0,0,0,0,0,0,0,0,0,0,0,0,0,0,0,0,0,0,0,0,0,0,0,0,0,0,0,0,0,0,0,0,0,0,0,0,0,0,0,0,0,0,0,0,0,0,0,0,0,0,0,0,0,0,0,0,0,0,0,0,0,0,0,0,0,0,0,0,0,0,0,0,0,0,0,0,0,0,0,0,0,0,0,0,0,0,0,0,0,0,0,0,0,0,0,0,0,0,0,0,0,0,0,0,0,0,0,0,0,0,0,0,0,0,0,0,0,0,0,0,0,0,0,0,0,0,0,0,0,0,0,0,0,0,0,0,0,0,0,0,0,0,0,0,0,0,0,0,0,0,0,0,0,0],"id":3,"left_children":[1,3,5,7,9,11,13,15,17,19,-1,21,23,25,27,29,31,33,35,37,39,41,43,45,47,49,51,53,-1,55,57,59,-1,61,-1,63,-1,-1,-1,65,67,69,71,73,75,77,79,81,83,85,87,-1,89,-1,-1,91,-1,-1,93,95,97,-1,-1,-1,99,101,103,-1,105,107,109,-1,-1,-1,-1,111,113,115,117,119,121,123,-1,125,127,-1,-1,129,131,-1,-1,-1,133,-1,135,137,-1,-1,-1,-1,-1,-1,-1,-1,139,-1,141,143,145,147,149,-1,151,-1,-1,153,-1,155,157,159,161,163,165,-1,-1,167,169,171,-1,-1,-1,173,-1,-1,-1,-1,-1,-1,-1,-1,-1,-1,-1,-1,-1,-1,-1,-1,-1,-1,-1,-1,-1,-1,-1,-1,-1,-1,-1,-1,-1,-1,-1,-1,-1,-1,-1,-1,-1,-1,-1,-1,-1,-1,-1],"loss_changes":[3.4006045E3,9.614404E1,1.6590466E2,2.8356201E1,1.3213333E1,8.288467E0,1.3519897E1,1.1805908E1,4.135208E0,7.298004E0,0E0,1.3809871E1,2.9160614E0,1.3720093E0,4.1033325E0,4.113037E0,3.1201172E-1,3.782425E-1,2.69413E-1,2.3371124E-1,4.580551E0,3.281587E0,5.8403206E-1,5.927372E-1,8.2662964E-1,3.591919E-1,4.0786743E-2,6.57959E-2,0E0,2.7786255E0,1.9129639E0,1.7089844E-2,0E0,1.3323975E-1,0E0,1.3541174E-1,0E0,0E0,0E0,7.561426E-1,3.5876465E-1,7.858206E-1,1.4977455E-2,1.2319374E-1,8.68969E-2,1.4515924E-1,4.8032475E-1,1.5942192E-1,2.2644806E-1,1.8737793E-2,1.555481E-1,0E0,4.72641E-2,0E0,0E0,1.8795567E0,0E0,0E0,6.030884E-1,1.6276703E0,5.7244873E-1,0E0,0E0,0E0,1.3001472E-2,2.401073E-1,2.5635564E-1,0E0,7.403183E-2,2.4075082E-1,2.0611966E-1,0E0,0E0,0E0,0E0,8.726215E-2,1.6506463E-2,2.1140099E-2,4.460895E-2,2.3092651E-1,1.0324383E-1,9.145713E-2,0E0,1.7294159E0,2.5478363E-1,0E0,0E0,5.6869507E-2,3.3026886E-1,0E0,0E0,0E0,1.3802805E0,0E0,6.461792E-1,3.887787E-1,0E0,0E0,0E0,0E0,0E0,0E0,0E0,0E0,7.572365E-2,0E0,6.306887E-2,8.135486E-2,1.01531796E-1,2.2115572E-1,2.8523922E-2,0E0,1.0297775E-2,0E0,0E0,4.6882153E-2,0E0,1.2413785E-2,3.488505E-2,1.7538974E-2,1.6994095E-1,7.987559E-3,6.2850475E-2,0E0,0E0,9.821151E-1,2.1858978E-1,1.2896347E-1,0E0,0E0,0E0,8.3498955E-2,0E0,0E0,0E0,0E0,0E0,0E0,0E0,0E0,0E0,0E0,0E0,0E0,0E0,0E0,0E0,0E0,0E0,0E0,0E0,0E0,0E0,0E0,0E0,0E0,0E0,0E0,0E0,0E0,0E0,0E0,0E0,0E0,0E0,0E0,0E0,0E0,0E0,0E0,0E0,0E0,0E0,0E0,0E0],"parents":[2147483647,0,0,1,1,2,2,3,3,4,4,5,5,6,6,7,7,8,8,9,9,11,11,12,12,13,13,14,14,15,15,16,16,17,17,18,18,19,19,20,20,21,21,22,22,23,23,24,24,25,25,26,26,27,27,29,29,30,30,31,31,33,33,35,35,39,39,40,40,41,41,42,42,43,43,44,44,45,45,46,46,47,47,48,48,49,49,50,50,52,52,55,55,58,58,59,59,60,60,64,64,65,65,66,66,68,68,69,69,70,70,75,75,76,76,77,77,78,78,79,79,80,80,81,81,83,83,84,84,87,87,88,88,92,92,94,94,95,95,104,104,106,106,107,107,108,108,109,109,110,110,112,112,115,115,117,117,118,118,119,119,120,120,121,121,122,122,125,125,126,126,127,127,131,131],"right_children":[2,4,6,8,10,12,14,16,18,20,-1,22,24,26,28,30,32,34,36,38,40,42,44,46,48,50,52,54,-1,56,58,60,-1,62,-1,64,-1,-1,-1,66,68,70,72,74,76,78,80,82,84,86,88,-1,90,-1,-1,92,-1,-1,94,96,98,-1,-1,-1,100,102,104,-1,106,108,110,-1,-1,-1,-1,112,114,116,118,120,122,124,-1,126,128,-1,-1,130,132,-1,-1,-1,134,-1,136,138,-1,-1,-1,-1,-1,-1,-1,-1,140,-1,142,144,146,148,150,-1,152,-1,-1,154,-1,156,158,160,162,164,166,-1,-1,168,170,172,-1,-1,-1,174,-1,-1,-1,-1,-1,-1,-1,-1,-1,-1,-1,-1,-1,-1,-1,-1,-1,-1,-1,-1,-1,-1,-1,-1,-1,-1,-1,-1,-1,-1,-1,-1,-1,-1,-1,-1,-1,-1,-1,-1,-1,-1,-1],"split_conditions":[-1.6277318E-1,-6.975398E-1,2.3250708E-1,2.0658582E-2,5.477163E-1,2.0658582E-2,1.066037E0,-1.1821699E0,-1.6668019E0,-9.617433E-1,3.874477E-2,8.9004594E-1,-3.8691553E-1,1.338303E0,1.7143368E0,-8.171238E-1,7.2522056E-1,2.8418747E-1,7.300137E-1,-1.5114039E-1,-6.8887234E-1,-7.2334224E-1,2.2543582E-1,-2.0048969E0,-1.1023203E0,-2.4287029E-1,9.11679E-1,-2.3511076E0,8.619386E-2,-6.5578043E-1,-1.5999551E0,-9.0973884E-1,-7.1962886E-2,-6.8058264E-1,-6.1920058E-2,-7.2227794E-1,-1.0913703E-2,-6.3621424E-2,-7.8577384E-2,-1.4852078E0,-6.31895E-1,4.8897293E-1,-6.010243E-1,-4.265198E0,-2.6143762E-1,1.0369039E0,1.1072947E0,-4.4277495E-1,1.338303E0,-9.4229716E-1,6.431406E-1,5.1731955E-2,4.63627E-1,6.0591806E-2,7.080395E-2,-5.0639915E-1,-1.008269E-1,-1.19126454E-1,-6.5578043E-1,-2.4287029E-1,-9.8163337E-1,-7.8950614E-2,-3.9535273E-2,-4.0347416E-2,-9.7148174E-1,-5.3999895E-1,-9.541087E-1,-5.6486107E-2,5.069344E-1,3.095918E-1,6.232478E-1,-2.2518659E-2,-4.8105706E-2,1.4692982E-2,4.2726543E-2,8.4143925E-1,1.3245434E0,-4.7753704E-1,-2.5883833E-1,5.7253E-1,-4.7753704E-1,-5.3927994E-1,5.136397E-2,-4.5793712E-2,4.3883833E-1,5.6987476E-2,6.892134E-2,2.0877272E-1,6.647074E-1,6.356555E-2,4.2827055E-2,-1.0505338E-1,-1.311067E0,-1.19094566E-1,-5.882187E-1,-5.0639915E-1,-2.3674931E-2,-1.0023653E-1,-8.849974E-2,-9.081745E-3,-2.3940796E-2,-1.4406656E-2,-4.725152E-2,-4.2304143E-2,-3.559018E-1,-4.849222E-2,-1.8215548E-1,-1.1273286E0,4.8528072E-1,5.846436E-1,-2.9230833E-1,1.23801725E-2,-8.570857E-1,1.8229118E-2,5.7505425E-3,-4.4950743E0,4.371441E-2,-4.4734206E0,9.2346835E-1,4.3232417E-1,3.1205112E-1,2.8418747E-1,2.2322318E-2,1.5348732E-2,3.8509037E-2,2.8418747E-1,7.300137E-1,9.037601E-1,1.2139275E-2,5.8645587E-2,6.6154175E-2,3.1205112E-1,5.781172E-2,-8.545511E-2,-4.342196E-2,-8.1888735E-2,-1.0554417E-1,-8.941257E-2,-6.8218045E-2,-8.118278E-3,-1.702241E-2,-4.1979607E-2,-2.5366444E-2,-3.6355245E-3,-1.3817849E-2,5.8507547E-4,-1.0667888E-2,1.5435711E-2,-3.0739761E-3,1.5356086E-2,3.5525293E-3,3.039118E-2,2.232424E-2,2.3380375E-2,3.4851115E-2,3.994714E-3,1.453635E-2,1.5175195E-2,3.275176E-2,-2.8429474E-3,4.982833E-3,1.5688613E-2,2.4315791E-2,1.060762E-2,2.1393305E-2,4.265281E-2,2.7251383E-2,-4.3426186E-2,2.3750732E-2,3.355674E-2,2.8225256E-2,3.8763944E-2,1.2196719E-2,4.9297117E-2,3.2974925E-2],"split_indices":[7,7,5,1,1,1,5,7,7,3,0,7,4,1,5,5,3,1,2,4,4,4,0,0,3,1,5,1,0,4,7,5,0,3,0,8,0,0,0,0,5,7,5,2,5,8,7,2,1,2,2,0,0,0,0,1,0,0,4,1,7,0,0,0,5,3,8,0,0,8,8,0,0,0,0,8,7,5,3,7,5,5,0,7,7,0,0,2,5,0,0,0,5,0,4,1,0,0,0,0,0,0,0,0,2,0,2,4,0,3,5,0,4,0,0,0,0,0,7,8,0,1,3,0,0,1,2,2,0,0,0,0,0,0,0,0,0,0,0,0,0,0,0,0,0,0,0,0,0,0,0,0,0,0,0,0,0,0,0,0,0,0,0,0,0,0,0,0,0,0,0,0,0,0,0],"split_type":[0,0,0,0,0,0,0,0,0,0,0,0,0,0,0,0,0,0,0,0,0,0,0,0,0,0,0,0,0,0,0,0,0,0,0,0,0,0,0,0,0,0,0,0,0,0,0,0,0,0,0,0,0,0,0,0,0,0,0,0,0,0,0,0,0,0,0,0,0,0,0,0,0,0,0,0,0,0,0,0,0,0,0,0,0,0,0,0,0,0,0,0,0,0,0,0,0,0,0,0,0,0,0,0,0,0,0,0,0,0,0,0,0,0,0,0,0,0,0,0,0,0,0,0,0,0,0,0,0,0,0,0,0,0,0,0,0,0,0,0,0,0,0,0,0,0,0,0,0,0,0,0,0,0,0,0,0,0,0,0,0,0,0,0,0,0,0,0,0,0,0,0,0,0,0],"sum_hessian":[7.414E3,2.74E3,4.674E3,2.24E3,5E2,1.822E3,2.852E3,2.042E3,1.98E2,4.84E2,1.6E1,3.81E2,1.441E3,1.148E3,1.704E3,1.329E3,7.13E2,1.45E2,5.3E1,1.32E2,3.52E2,1.72E2,2.09E2,2.94E2,1.147E3,7.43E2,4.05E2,1.491E3,2.13E2,4.12E2,9.17E2,6.81E2,3.2E1,6.8E1,7.7E1,4.8E1,5E0,6.3E1,6.9E1,7.9E1,2.73E2,1.54E2,1.8E1,5.5E1,1.54E2,6.7E1,2.27E2,5.7E1,1.09E3,1.78E2,5.65E2,3.53E2,5.2E1,5.5E1,1.436E3,5.6E1,3.56E2,2.99E2,6.18E2,2.45E2,4.36E2,6.4E1,4E0,4.2E1,6E0,1.7E1,6.2E1,9.3E1,1.8E2,9.7E1,5.7E1,3E0,1.5E1,3E0,5.2E1,1.47E2,7E0,5.1E1,1.6E1,1.62E2,6.5E1,2E1,3.7E1,9.39E2,1.51E2,4.1E1,1.37E2,3.3E2,2.35E2,4.1E1,1.1E1,1.5E1,4.1E1,9.2E1,5.26E2,2.4E2,5E0,1.72E2,2.64E2,3E0,3E0,4E0,1.3E1,3E0,5.9E1,1.39E2,4.1E1,4.8E1,4.9E1,3E1,2.7E1,5E0,1.42E2,4E0,3E0,4.2E1,9E0,6E0,1E1,1E1,1.52E2,2.3E1,4.2E1,4E0,1.6E1,7E0,9.32E2,1.46E2,5E0,2.09E2,1.21E2,4.4E1,1.91E2,1.4E1,2.7E1,3.2E1,4.94E2,2.12E2,2.8E1,1.6E1,4.3E1,3.2E1,9E0,1.1E1,3.7E1,4E1,9E0,8E0,2.2E1,2.4E1,3E0,1.26E2,1.6E1,1.7E1,2.5E1,3E0,3E0,6E0,4E0,4E0,6E0,1.18E2,3.4E1,4E0,1.9E1,7E0,3.5E1,4E0,3E0,7.99E2,1.33E2,1.43E2,3E0,2.9E1,1.5E1],"tree_param":{"num_deleted":"0","num_feature":"10","num_nodes":"175","size_leaf_vector":"1"}},{"base_weights":[-1.0152893E-3,-8.1462336E-1,4.626744E-1,-8.770541E-1,-4.99676E-1,2.499664E-1,6.0205775E-1,-9.1424924E-1,-4.5505515E-1,-6.3904315E-1,-4.4436556E-1,-4.546138E-2,2.8729972E-1,5.8249176E-1,7.563234E-1,-9.9840903E-1,-8.5509133E-1,-5.5777943E-1,-3.5294732E-1,-5.2854475E-2,-6.729334E-1,-4.543325E-1,-2.0875823E-1,-1.0150513E-1,1.896696E-2,1.7566186E-1,3.0270165E-1,4.962147E-1,6.030484E-1,7.120811E-2,8.252758E-2,-7.927143E-2,-1.032971E0,-8.7296677E-1,-7.380673E-2,-3.9421088E-1,-5.7329785E-2,-3.632407E-1,-2.7962902E-3,-5.072963E-2,-6.961594E-2,-4.0477976E-1,-4.954256E-1,-2.4940444E-2,-1.2667625E-2,-1.2825912E-1,-5.322436E-2,4.9797885E-2,-5.7169683E-2,2.3062763E-1,1.6169001E-1,2.8958723E-1,3.824812E-1,4.636524E-1,5.4948818E-2,5.3028256E-1,6.129335E-1,-1.0544204E0,-9.560906E-1,-8.919646E-1,-8.223722E-1,-2.4523411E-2,-5.2393615E-2,-3.839584E-1,-2.4083419E-2,-4.0795177E-2,-1.9018522E-2,-5.039833E-1,-3.1238294E-1,-2.1204801E-1,-9.6402675E-2,-1.2228026E-2,-2.7823133E-2,7.145744E-2,-1.324181E-2,-7.402041E-2,6.6652456E-3,1.5838439E-2,2.691803E-1,1.4690664E-1,2.2133029E-1,3.147611E-1,2.8296834E-1,3.8669842E-1,1.7956555E-2,4.3187144E-1,5.0288314E-1,5.582524E-2,4.2710328E-1,6.4274296E-2,5.826087E-1,-1.11158125E-1,-1.0148889E-1,-1.0166359E-1,-6.6700345E-1,-9.110284E-2,-7.9959735E-2,-8.467818E-2,-7.300724E-2,-3.951823E-2,-1.43297855E-2,-6.172904E-2,-4.8473102E-1,-1.5944181E-2,-3.5515174E-2,-2.5960448E-1,-6.5741586E-3,-7.676827E-2,-1.7511724E-2,1.8924922E-2,-6.080469E-2,1.23219624E-1,2.7665775E-2,5.1469826E-3,-2.8592106E-2,-1.6261317E-2,-9.878771E-2,2.9003022E-2,1.5829219E-2,7.208801E-2,1.549015E-1,2.3909163E-1,1.0747609E-2,4.118361E-1,2.9568815E-1,2.6893622E-1,2.9691076E-1,3.9657187E-2,3.0612907E-1,3.834936E-2,4.643142E-2,3.9190225E-2,5.178113E-2,4.7153294E-2,2.9221216E-2,5.615901E-1,6.2833613E-1,-9.887038E-2,-1.8276706E-2,-3.071856E-2,-5.007383E-2,-1.2247406E-2,-2.8586969E-2,-1.5721729E-2,-5.228887E-3,4.929284E-3,-4.5595895E-3,-8.069375E-3,-4.2627897E-4,6.257516E-4,1.4629917E-2,6.181399E-3,-2.8707709E-3,-1.2158811E-2,2.2214418E-4,-6.328548E-3,5.8340253E-3,-1.3752009E-2,-6.1638006E-3,4.0149367E-3,1.2793543E-2,1.3335991E-2,1.7359724E-2,3.0837044E-2,1.842752E-2,4.3592576E-2,2.3943678E-2,2.5438705E-2,3.3653323E-2,2.8354963E-2,2.3786945E-2,3.556521E-2,2.7716516E-2,3.3491593E-2,1.9949412E-2,5.9265036E-2,5.4166716E-2,3.3332948E-2,6.3256465E-2],"categories":[],"categories_nodes":[],"categories_segments":[],"categories_sizes":[],"default_left":[0,0,0,0,0,0,0,0,0,0,0,0,0,0,0,0,0,0,0,0,0,0,0,0,0,0,0,0,0,0,0,0,0,0,0,0,0,0,0,0,0,0,0,0,0,0,0,0,0,0,0,0,0,0,0,0,0,0,0,0,0,0,0,0,0,0,0,0,0,0,0,0,0,0,0,0,0,0,0,0,0,0,0,0,0,0,0,0,0,0,0,0,0,0,0,0,0,0,0,0,0,0,0,0,0,0,0,0,0,0,0,0,0,0,0,0,0,0,0,0,0,0,0,0,0,0,0,0,0,0,0,0,0,0,0,0,0,0,0,0,0,0,0,0,0,0,0,0,0,0,0,0,0,0,0,0,0,0,0,0,0,0,0,0,0,0,0,0,0,0,0,0,0,0,0,0,0,0,0],"id":4,"left_children":[1,3,5,7,9,11,13,15,17,19,21,23,25,27,29,31,33,35,37,-1,39,41,43,45,47,49,51,53,55,-1,-1,-1,57,59,-1,61,-1,63,-1,-1,-1,65,67,-1,-1,69,71,73,75,77,79,81,83,85,-1,87,89,91,93,95,97,-1,-1,99,-1,-1,-1,101,103,105,107,-1,109,111,113,115,-1,-1,117,119,121,123,125,127,-1,129,131,-1,133,-1,135,-1,-1,-1,137,-1,-1,-1,-1,-1,-1,-1,139,-1,-1,141,-1,143,-1,145,147,149,151,-1,153,155,157,-1,-1,159,161,163,-1,165,167,169,171,-1,173,-1,-1,-1,-1,-1,-1,175,177,-1,-1,-1,-1,-1,-1,-1,-1,-1,-1,-1,-1,-1,-1,-1,-1,-1,-1,-1,-1,-1,-1,-1,-1,-1,-1,-1,-1,-1,-1,-1,-1,-1,-1,-1,-1,-1,-1,-1,-1,-1,-1],"loss_changes":[2.799659E3,5.2532104E1,1.3999536E2,3.4853516E1,3.169426E0,2.0670929E1,8.17688E0,9.422363E0,1.7330971E0,1.1242676E-1,6.6600037E-1,7.638053E-1,2.8062592E0,4.2020874E0,3.8241577E-1,5.1954956E0,1.9056396E0,2.450943E-3,3.076372E-1,0E0,7.6675415E-4,4.307022E-1,1.8451214E-2,1.3913596E-1,2.3523587E-1,1.1937618E-1,1.4167786E0,6.0217285E-1,1.145935E0,0E0,0E0,0E0,1.8084717E-1,2.7764893E-1,0E0,8.409965E-2,0E0,1.4083862E-1,0E0,0E0,0E0,2.1795273E-2,1.0102463E-1,0E0,0E0,1.7174172E-1,7.027017E-2,9.789047E-2,6.544193E-2,6.5987825E-2,1.1384487E-1,1.20536804E-1,1.04278564E-1,1.7306519E-1,0E0,4.8882294E-1,1.2472534E0,1.2371826E-1,2.2623749E0,5.9747314E-1,5.769348E-2,0E0,0E0,1.5136051E-1,0E0,0E0,0E0,4.1080475E-2,8.785069E-3,1.15131676E-1,7.001424E-2,0E0,5.0489083E-2,1.167289E-1,2.0345144E-2,3.5587564E-2,0E0,0E0,9.578705E-3,7.018399E-2,3.6991596E-2,3.466568E-1,1.1696625E-1,3.610611E-2,0E0,1.04450226E-1,1.9073486E-2,0E0,2.0981598E-1,0E0,5.12146E-1,0E0,0E0,0E0,4.804227E0,0E0,0E0,0E0,0E0,0E0,0E0,0E0,2.3837662E-1,0E0,0E0,1.5412986E-2,0E0,8.039975E-2,0E0,2.9678635E-2,2.1022752E-2,6.387088E-2,5.9526145E-2,0E0,4.6118688E-2,3.5264775E-2,1.742366E-2,0E0,0E0,2.1618836E-2,2.5982857E-2,4.1913033E-2,0E0,5.7592392E-2,2.7708435E-1,1.649971E-1,4.7557068E-1,0E0,1.2997866E-2,0E0,0E0,0E0,0E0,0E0,0E0,6.636047E-2,1.3219452E-1,0E0,0E0,0E0,0E0,0E0,0E0,0E0,0E0,0E0,0E0,0E0,0E0,0E0,0E0,0E0,0E0,0E0,0E0,0E0,0E0,0E0,0E0,0E0,0E0,0E0,0E0,0E0,0E0,0E0,0E0,0E0,0E0,0E0,0E0,0E0,0E0,0E0,0E0,0E0,0E0,0E0,0E0],"parents":[2147483647,0,0,1,1,2,2,3,3,4,4,5,5,6,6,7,7,8,8,9,9,10,10,11,11,12,12,13,13,14,14,15,15,16,16,17,17,18,18,20,20,21,21,22,22,23,23,24,24,25,25,26,26,27,27,28,28,32,32,33,33,35,35,37,37,41,41,42,42,45,45,46,46,47,47,48,48,49,49,50,50,51,51,52,52,53,53,55,55,56,56,57,57,58,58,59,59,60,60,63,63,67,67,68,68,69,69,70,70,72,72,73,73,74,74,75,75,78,78,79,79,80,80,81,81,82,82,83,83,85,85,86,86,88,88,90,90,94,94,102,102,105,105,107,107,109,109,110,110,111,111,112,112,114,114,115,115,116,116,119,119,120,120,121,121,123,123,124,124,125,125,126,126,128,128,135,135,136,136],"right_children":[2,4,6,8,10,12,14,16,18,20,22,24,26,28,30,32,34,36,38,-1,40,42,44,46,48,50,52,54,56,-1,-1,-1,58,60,-1,62,-1,64,-1,-1,-1,66,68,-1,-1,70,72,74,76,78,80,82,84,86,-1,88,90,92,94,96,98,-1,-1,100,-1,-1,-1,102,104,106,108,-1,110,112,114,116,-1,-1,118,120,122,124,126,128,-1,130,132,-1,134,-1,136,-1,-1,-1,138,-1,-1,-1,-1,-1,-1,-1,140,-1,-1,142,-1,144,-1,146,148,150,152,-1,154,156,158,-1,-1,160,162,164,-1,166,168,170,172,-1,174,-1,-1,-1,-1,-1,-1,176,178,-1,-1,-1,-1,-1,-1,-1,-1,-1,-1,-1,-1,-1,-1,-1,-1,-1,-1,-1,-1,-1,-1,-1,-1,-1,-1,-1,-1,-1,-1,-1,-1,-1,-1,-1,-1,-1,-1,-1,-1,-1,-1],"split_conditions":[-4.7474506E-1,-6.975398E-1,3.9008737E-1,-5.692598E-1,-9.617433E-1,-3.7845534E-1,1.5846121E0,-1.1359048E0,-1.6668019E0,-1.672002E0,-5.5266476E-1,2.5501204E-1,-3.661105E-1,4.5554852E-1,1.679127E0,-1.4735843E0,4.4405994E-1,-2.1781266E0,-6.226886E-1,-5.2854475E-2,-1.9458089E0,-1.6626139E0,7.846401E-2,5.5626744E-1,3.9866593E-1,-8.1198746E-1,2.9690376E-1,1.3547593E0,5.1166975E-1,7.120811E-2,8.252758E-2,-7.927143E-2,3.553585E-1,-1.0819026E0,-7.380673E-2,-5.5266476E-1,-5.7329785E-2,-8.813641E-1,-2.7962902E-3,-5.072963E-2,-6.961594E-2,-1.672002E0,8.463265E-2,-2.4940444E-2,-1.2667625E-2,3.1205112E-1,-4.5965818E-1,6.648573E-1,5.502418E-1,9.2346835E-1,1.1072947E0,-1.1826136E-1,2.873159E-1,1.0063813E0,5.4948818E-2,6.865761E-1,9.327708E-1,-4.875671E-1,-1.0501466E0,-6.353758E-1,-8.3860475E-1,-2.4523411E-2,-5.2393615E-2,7.300137E-1,-2.4083419E-2,-4.0795177E-2,-1.9018522E-2,2.0378213E-1,2.6874322E-1,-1.1263855E-1,2.1053115E-2,-1.2228026E-2,3.0348295E-1,-3.9221102E-1,-4.90478E-1,3.552813E-1,6.6652456E-3,1.5838439E-2,3.0348295E-1,-3.664746E-1,3.3370483E-1,-1.6235818E-1,6.571973E-2,4.4197333E-1,1.7956555E-2,7.517305E-1,-3.3418506E-1,5.582524E-2,2.9039744E-1,6.4274296E-2,1.375082E0,-1.11158125E-1,-1.0148889E-1,-1.0166359E-1,-6.816777E-1,-9.110284E-2,-7.9959735E-2,-8.467818E-2,-7.300724E-2,-3.951823E-2,-1.43297855E-2,-6.172904E-2,2.9039744E-1,-1.5944181E-2,-3.5515174E-2,-2.1348193E0,-6.5741586E-3,-4.635789E-1,-1.7511724E-2,9.254789E-1,8.168869E-1,-4.2060983E-1,4.91111E-1,5.1469826E-3,4.221261E-1,4.8528072E-1,-2.2559309E-1,2.9003022E-2,1.5829219E-2,-1.6043666E-1,-8.239938E-1,4.6939427E-1,1.0747609E-2,4.63627E-1,7.0038633E-3,-1.3708179E-2,1.2118615E-1,3.9657187E-2,-7.685509E-1,3.834936E-2,4.643142E-2,3.9190225E-2,5.178113E-2,4.7153294E-2,2.9221216E-2,2.6874322E-1,-3.1358461E0,-9.887038E-2,-1.8276706E-2,-3.071856E-2,-5.007383E-2,-1.2247406E-2,-2.8586969E-2,-1.5721729E-2,-5.228887E-3,4.929284E-3,-4.5595895E-3,-8.069375E-3,-4.2627897E-4,6.257516E-4,1.4629917E-2,6.181399E-3,-2.8707709E-3,-1.2158811E-2,2.2214418E-4,-6.328548E-3,5.8340253E-3,-1.3752009E-2,-6.1638006E-3,4.0149367E-3,1.2793543E-2,1.3335991E-2,1.7359724E-2,3.0837044E-2,1.842752E-2,4.3592576E-2,2.3943678E-2,2.5438705E-2,3.3653323E-2,2.8354963E-2,2.3786945E-2,3.556521E-2,2.7716516E-2,3.3491593E-2,1.9949412E-2,5.9265036E-2,5.4166716E-2,3.3332948E-2,6.3256465E-2],"split_indices":[9,7,9,9,3,9,9,9,7,6,6,7,6,7,9,9,3,0,4,0,3,9,2,2,0,2,9,9,9,0,0,0,0,7,0,6,0,7,0,0,0,6,4,0,0,0,9,2,0,7,7,3,4,3,0,2,9,4,6,9,9,0,0,2,0,0,0,0,0,7,7,0,3,9,6,7,0,0,3,9,0,9,9,0,0,2,2,0,0,0,6,0,0,0,2,0,0,0,0,0,0,0,0,0,0,0,0,7,0,2,2,9,2,0,7,0,2,0,0,2,4,2,0,0,6,9,9,0,2,0,0,0,0,0,0,0,2,0,0,0,0,0,0,0,0,0,0,0,0,0,0,0,0,0,0,0,0,0,0,0,0,0,0,0,0,0,0,0,0,0,0,0,0,0,0,0,0,0,0],"split_type":[0,0,0,0,0,0,0,0,0,0,0,0,0,0,0,0,0,0,0,0,0,0,0,0,0,0,0,0,0,0,0,0,0,0,0,0,0,0,0,0,0,0,0,0,0,0,0,0,0,0,0,0,0,0,0,0,0,0,0,0,0,0,0,0,0,0,0,0,0,0,0,0,0,0,0,0,0,0,0,0,0,0,0,0,0,0,0,0,0,0,0,0,0,0,0,0,0,0,0,0,0,0,0,0,0,0,0,0,0,0,0,0,0,0,0,0,0,0,0,0,0,0,0,0,0,0,0,0,0,0,0,0,0,0,0,0,0,0,0,0,0,0,0,0,0,0,0,0,0,0,0,0,0,0,0,0,0,0,0,0,0,0,0,0,0,0,0,0,0,0,0,0,0,0,0,0,0,0,0],"sum_hessian":[7.419E3,2.693E3,4.726E3,2.246E3,4.47E2,1.872E3,2.854E3,2.063E3,1.83E2,1.24E2,3.23E2,2.1E2,1.662E3,2.537E3,3.17E2,8.45E2,1.218E3,8.9E1,9.4E1,3.3E1,9.1E1,3.09E2,1.4E1,1.12E2,9.8E1,2.03E2,1.459E3,4.93E2,2.044E3,2E2,1.17E2,1.25E2,7.2E2,1.051E3,1.67E2,1E1,7.9E1,9.1E1,3E0,1.4E1,7.7E1,1.45E2,1.64E2,8E0,6E0,7.1E1,4.1E1,7E1,2.8E1,3.8E1,1.65E2,1.257E3,2.02E2,3.12E2,1.81E2,2.51E2,1.793E3,5.53E2,1.67E2,7.52E2,2.99E2,6E0,4E0,7.6E1,1.5E1,1.42E2,3E0,1.55E2,9E0,1.8E1,5.3E1,1E1,3.1E1,5.2E1,1.8E1,2.5E1,3E0,1.5E1,2.3E1,1.35E2,3E1,2.52E2,1.005E3,1.97E2,5E0,1.79E2,1.33E2,1.94E2,5.7E1,8.94E2,8.99E2,2.15E2,3.38E2,1.36E2,3.1E1,6.16E2,1.36E2,2.3E2,6.9E1,7.2E1,4E0,1.8E1,1.37E2,3E0,6E0,1.3E1,5E0,4.4E1,9E0,1.3E1,1.8E1,2.3E1,2.9E1,3E0,1.5E1,8E0,1.7E1,1.8E1,5E0,1.4E1,1.21E2,2.5E1,5E0,3.8E1,2.14E2,5.11E2,4.94E2,1.72E2,2.5E1,7.7E1,1.02E2,1.9E1,1.14E2,4.1E1,1.6E1,6.25E2,2.74E2,1.8E1,1.3E1,1.3E1,1.24E2,3E0,1E1,9E0,3.5E1,9E0,4E0,1.3E1,5E0,4E0,1.9E1,1.8E1,1.1E1,3E0,1.2E1,5E0,3E0,7E0,1E1,1E1,4E0,6E1,6.1E1,9E0,1.6E1,3.2E1,6E0,1.1E2,1.04E2,3.42E2,1.69E2,1.2E2,3.74E2,1.8E1,7E0,2.33E2,3.92E2,5E0,2.69E2],"tree_param":{"num_deleted":"0","num_feature":"10","num_nodes":"179","size_leaf_vector":"1"}},{"base_weights":[1.4913566E-3,-7.321267E-1,4.190389E-1,-7.9871905E-1,-4.9872133E-1,2.2586654E-1,5.423632E-1,-8.352887E-1,-4.524222E-1,-3.8697055E-1,-5.853738E-1,-7.517812E-3,2.6435095E-1,5.214371E-1,6.6670513E-1,-9.106993E-1,-7.79638E-1,-5.2502805E-1,-3.3976692E-1,-2.0321403E-2,-3.9044287E-2,-6.2230426E-1,-2.2742751E-1,-7.509216E-2,8.5084155E-2,1.7740366E-1,2.75101E-1,4.53771E-1,5.425754E-1,6.3204326E-2,7.44842E-2,-7.4019015E-2,-9.284291E-1,-7.924621E-1,-6.667428E-2,-3.6931366E-1,-5.403519E-1,-3.6063522E-1,-1.3043132E-1,-5.1780522E-2,-6.6248065E-1,-2.5328466E-1,-9.5203206E-2,-1.1720603E-1,-4.6352614E-2,1.5828764E-1,6.824553E-2,1.9502874E-1,1.4156635E-1,2.6415214E-1,3.406214E-1,4.2313173E-1,5.17851E-1,5.6746924E-1,5.168625E-1,-9.458341E-1,-8.550057E-1,-8.0846137E-1,-7.3192304E-1,-4.25805E-2,-2.2302436E-2,-5.6636702E-2,-4.4579554E-2,-3.6799137E-2,-1.8552186E-2,-1.8172586E-2,-2.0881693E-3,-4.6457776E-1,-6.7083366E-2,-8.650039E-3,-2.8725833E-1,6.4649864E-4,-1.7307062E-2,-1.3771376E-1,-5.0920926E-2,-9.248431E-2,-2.1392498E-2,5.2181343E-3,1.7394279E-1,2.6003579E-2,1.0478431E-1,1.488379E-1,2.2118929E-1,1.5360059E-1,-7.133034E-3,2.4542639E-1,2.731649E-1,3.4367028E-1,1.5420051E-2,3.4235016E-2,4.3074185E-1,4.809881E-1,5.8847535E-2,5.7768077E-1,4.9100643E-1,4.536191E-1,5.294155E-1,-9.663172E-1,-8.552457E-2,-9.299921E-2,-5.419929E-1,-8.114547E-1,-5.7311714E-2,-7.713538E-2,-6.599206E-2,-2.8652608E-2,-5.5082526E-2,-3.211364E-1,-1.4339414E-2,-1.7759374E-1,-6.5811925E-2,-1.2952664E-1,4.387563E-2,-6.406211E-2,-1.4092105E-2,6.863574E-2,-3.2461684E-2,2.0950167E-2,9.3215615E-2,-4.138949E-2,6.99692E-2,3.7878682E-3,1.2741381E-1,1.9983082E-1,1.1381315E-1,1.717467E-1,2.6090774E-1,1.0335619E-1,1.7671679E-1,8.3214945E-5,2.4787638E-1,2.6389638E-1,3.1702188E-1,2.9220107E-1,3.5951236E-1,4.1818374E-1,4.8617983E-1,1.79595E-2,4.8673874E-1,6.2368506E-1,5.6412315E-1,2.1791128E-2,4.962358E-1,4.8727077E-2,3.6849394E-1,5.7814074E-1,5.095536E-1,-8.847665E-2,-9.9139065E-2,-8.194476E-2,7.5064294E-2,-8.2362905E-2,-7.368576E-2,-3.5777714E-2,-1.6164314E-2,-2.3656078E-2,-1.1489796E-2,-9.899018E-3,7.505951E-3,-7.708981E-3,-1.5605817E-2,1.0050395E-2,-1.0202149E-3,-1.3013974E-2,1.3846402E-3,8.3911E-3,3.6201552E-3,-7.886191E-3,-1.1403597E-3,4.8592067E-3,1.1453526E-2,-1.7493407E-3,-8.626609E-3,-4.358278E-3,9.77575E-3,5.1732557E-3,-3.679735E-3,2.392716E-2,1.1187746E-2,8.611226E-3,2.180482E-2,1.6043446E-3,1.5700733E-2,2.32639E-2,1.0131292E-2,3.4680992E-2,1.7485311E-2,1.8586237E-2,6.5956614E-3,2.0270804E-2,1.0134413E-2,2.841845E-2,2.3027528E-2,2.7927244E-2,2.1407392E-2,3.5093803E-2,2.4533099E-2,2.1157473E-2,3.1158417E-2,4.256817E-2,3.413252E-2,3.7869263E-2,4.358993E-2,5.103671E-2,3.5575334E-2,2.643685E-2,4.9186263E-2,4.842388E-2,6.463358E-2,5.6506652E-2,2.7050346E-2,5.1700074E-2,4.0080205E-2,3.985552E-2,2.4008708E-2,5.819582E-2,2.9989172E-2,4.5254484E-2,5.1882196E-2],"categories":[],"categories_nodes":[],"categories_segments":[],"categories_sizes":[],"default_left":[0,0,0,0,0,0,0,0,0,0,0,0,0,0,0,0,0,0,0,0,0,0,0,0,0,0,0,0,0,0,0,0,0,0,0,0,0,0,0,0,0,0,0,0,0,0,0,0,0,0,0,0,0,0,0,0,0,0,0,0,0,0,0,0,0,0,0,0,0,0,0,0,0,0,0,0,0,0,0,0,0,0,0,0,0,0,0,0,0,0,0,0,0,0,0,0,0,0,0,0,0,0,0,0,0,0,0,0,0,0,0,0,0,0,0,0,0,0,0,0,0,0,0,0,0,0,0,0,0,0,0,0,0,0,0,0,0,0,0,0,0,0,0,0,0,0,0,0,0,0,0,0,0,0,0,0,0,0,0,0,0,0,0,0,0,0,0,0,0,0,0,0,0,0,0,0,0,0,0,0,0,0,0,0,0,0,0,0,0,0,0,0,0,0,0,0,0,0,0,0,0,0,0,0,0,0,0,0,0,0,0,0,0,0,0,0,0,0,0],"id":5,"left_children":[1,3,5,7,9,11,13,15,17,19,21,23,25,27,29,31,33,35,37,-1,-1,39,41,43,45,47,49,51,53,-1,-1,-1,55,57,-1,59,61,63,65,-1,67,69,71,73,75,77,79,81,83,85,87,89,91,93,95,97,99,101,103,-1,-1,-1,-1,-1,-1,-1,-1,105,-1,-1,107,-1,-1,109,111,113,115,-1,117,119,121,123,125,127,-1,129,131,133,-1,-1,135,137,-1,139,141,143,145,147,-1,-1,149,151,-1,-1,-1,-1,-1,153,-1,155,157,159,161,163,-1,165,167,-1,169,171,173,175,177,179,181,183,185,187,189,-1,191,193,195,197,199,201,203,-1,205,207,209,-1,211,-1,213,215,217,-1,-1,-1,-1,-1,-1,-1,-1,-1,-1,-1,-1,-1,-1,-1,-1,-1,-1,-1,-1,-1,-1,-1,-1,-1,-1,-1,-1,-1,-1,-1,-1,-1,-1,-1,-1,-1,-1,-1,-1,-1,-1,-1,-1,-1,-1,-1,-1,-1,-1,-1,-1,-1,-1,-1,-1,-1,-1,-1,-1,-1,-1,-1,-1,-1,-1,-1,-1,-1,-1,-1,-1],"loss_changes":[2.2725916E3,4.1427856E1,1.1251196E2,2.6115234E1,5.583557E0,1.656417E1,7.1591187E0,7.225708E0,1.4738579E0,8.974075E-2,4.300102E0,1.6458589E0,1.430809E0,3.2924805E0,6.450653E-1,1.722168E0,1.0570068E0,8.9164734E-2,3.111763E-1,0E0,0E0,9.3328094E-1,8.871162E-2,1.7853779E-1,1.2602139E-1,8.418989E-2,9.1937256E-1,9.490814E-1,9.100952E-1,0E0,0E0,0E0,1.0888672E-1,3.5546875E-1,0E0,2.0732164E-2,1.3187408E-2,2.7053833E-2,4.6778917E-2,0E0,4.5402527E-2,1.281414E-1,5.6535363E-2,7.59083E-2,1.03955165E-1,2.4145603E-2,1.3927436E-1,1.0725069E-1,1.6980362E-1,1.3716888E-1,5.9541702E-2,1.0335541E-1,2.063942E-1,4.5422363E-1,5.029297E-1,2.3303223E-1,2.9697647E0,7.3150635E-2,1.01371765E-1,0E0,0E0,0E0,0E0,0E0,0E0,0E0,0E0,2.6452065E-2,0E0,0E0,6.1175346E-2,0E0,0E0,1.2021464E-1,1.24907896E-1,3.5026044E-2,6.301692E-2,0E0,2.9270828E-2,1.33267E-1,1.1150688E-1,5.76272E-2,9.658241E-2,5.026138E-2,0E0,2.4129295E-1,2.4478531E-1,5.313301E-2,0E0,0E0,5.3581238E-2,1.3616753E-1,0E0,1.645813E-1,6.0382843E-2,2.8450775E-1,4.5542908E-1,5.935669E-2,0E0,0E0,1.1733197E1,7.601929E-2,0E0,0E0,0E0,0E0,0E0,4.1514874E-2,0E0,8.003217E-2,9.155978E-2,4.90576E-4,2.5524024E-2,1.15058176E-1,0E0,4.3037534E-4,5.2841187E-2,0E0,1.0940023E-3,1.7793665E-2,8.945681E-2,2.1362076E-2,4.274535E-2,1.6441524E-2,1.1995047E-1,1.2654138E-1,2.2026587E-1,5.2540734E-2,5.585885E-2,0E0,1.8954659E-1,4.5578003E-1,2.4458408E-1,1.37786865E-2,2.799797E-2,5.040741E-2,1.40247345E-2,0E0,1.3528824E-2,2.5239563E-1,2.7191162E-2,0E0,2.0677567E-2,0E0,9.731579E-2,5.5976868E-2,6.0577393E-2,0E0,0E0,0E0,0E0,0E0,0E0,0E0,0E0,0E0,0E0,0E0,0E0,0E0,0E0,0E0,0E0,0E0,0E0,0E0,0E0,0E0,0E0,0E0,0E0,0E0,0E0,0E0,0E0,0E0,0E0,0E0,0E0,0E0,0E0,0E0,0E0,0E0,0E0,0E0,0E0,0E0,0E0,0E0,0E0,0E0,0E0,0E0,0E0,0E0,0E0,0E0,0E0,0E0,0E0,0E0,0E0,0E0,0E0,0E0,0E0,0E0,0E0,0E0,0E0,0E0,0E0,0E0,0E0,0E0,0E0,0E0,0E0],"parents":[2147483647,0,0,1,1,2,2,3,3,4,4,5,5,6,6,7,7,8,8,9,9,10,10,11,11,12,12,13,13,14,14,15,15,16,16,17,17,18,18,21,21,22,22,23,23,24,24,25,25,26,26,27,27,28,28,32,32,33,33,35,35,36,36,37,37,38,38,40,40,41,41,42,42,43,43,44,44,45,45,46,46,47,47,48,48,49,49,50,50,51,51,52,52,53,53,54,54,55,55,56,56,57,57,58,58,67,67,70,70,73,73,74,74,75,75,76,76,78,78,79,79,80,80,81,81,82,82,83,83,85,85,86,86,87,87,90,90,91,91,93,93,94,94,95,95,96,96,97,97,100,100,101,101,107,107,109,109,110,110,111,111,112,112,113,113,115,115,116,116,118,118,119,119,120,120,121,121,122,122,123,123,124,124,125,125,126,126,127,127,128,128,130,130,131,131,132,132,133,133,134,134,135,135,136,136,138,138,139,139,140,140,142,142,144,144,145,145,146,146],"right_children":[2,4,6,8,10,12,14,16,18,20,22,24,26,28,30,32,34,36,38,-1,-1,40,42,44,46,48,50,52,54,-1,-1,-1,56,58,-1,60,62,64,66,-1,68,70,72,74,76,78,80,82,84,86,88,90,92,94,96,98,100,102,104,-1,-1,-1,-1,-1,-1,-1,-1,106,-1,-1,108,-1,-1,110,112,114,116,-1,118,120,122,124,126,128,-1,130,132,134,-1,-1,136,138,-1,140,142,144,146,148,-1,-1,150,152,-1,-1,-1,-1,-1,154,-1,156,158,160,162,164,-1,166,168,-1,170,172,174,176,178,180,182,184,186,188,190,-1,192,194,196,198,200,202,204,-1,206,208,210,-1,212,-1,214,216,218,-1,-1,-1,-1,-1,-1,-1,-1,-1,-1,-1,-1,-1,-1,-1,-1,-1,-1,-1,-1,-1,-1,-1,-1,-1,-1,-1,-1,-1,-1,-1,-1,-1,-1,-1,-1,-1,-1,-1,-1,-1,-1,-1,-1,-1,-1,-1,-1,-1,-1,-1,-1,-1,-1,-1,-1,-1,-1,-1,-1,-1,-1,-1,-1,-1,-1,-1,-1,-1,-1,-1,-1],"split_conditions":[-4.7474506E-1,-8.312295E-1,3.9008737E-1,-5.812406E-1,-1.6084787E0,-3.5316268E-1,1.5437889E0,-1.1359048E0,-1.6668019E0,-8.211596E-1,-8.244054E-1,-4.0552297E-1,-2.7062863E-1,5.223954E-1,1.679127E0,-1.4735843E0,4.4405994E-1,-1.3115087E0,7.082949E-1,-2.0321403E-2,-3.9044287E-2,-1.5680991E0,-5.404526E-1,-4.4767743E-1,-7.9026866E-1,5.1282984E-1,2.9690376E-1,1.3680713E0,-5.3999895E-1,6.3204326E-2,7.44842E-2,-7.4019015E-2,3.7701222E-1,-1.026841E0,-6.667428E-2,-1.3549452E0,-8.211596E-1,-8.813641E-1,-1.1677592E0,-5.1780522E-2,-1.9458089E0,-8.145193E-1,-4.1317382E-1,2.0658582E-2,-4.210582E-1,-4.393698E0,6.687014E-1,1.0404499E0,2.9039744E-1,6.7279726E-1,2.873159E-1,-5.0793135E-1,8.6580426E-1,8.820413E-1,4.9791408E-1,-1.19004E0,-6.382401E-1,3.9866593E-1,-3.8691553E-1,-4.25805E-2,-2.2302436E-2,-5.6636702E-2,-4.4579554E-2,-3.6799137E-2,-1.8552186E-2,-1.8172586E-2,-2.0881693E-3,2.3049152E-1,-6.7083366E-2,-8.650039E-3,-5.972706E-1,6.4649864E-4,-1.7307062E-2,5.5626744E-1,-4.635789E-1,-8.5542405E-1,-1.6043666E-1,5.2181343E-3,2.6874322E-1,1.3882104E-1,5.7253E-1,-2.9074743E-1,-7.35635E-2,6.431406E-1,-7.133034E-3,-5.5862658E-2,6.571973E-2,-3.993394E-1,1.5420051E-2,3.4235016E-2,1.5687025E0,1.8668063E-2,5.8847535E-2,-1.3834876E0,-1.9458089E0,6.648573E-1,9.270775E-1,-1.3923815E0,-8.552457E-2,-9.299921E-2,-5.3999895E-1,-6.353758E-1,-5.7311714E-2,-7.713538E-2,-6.599206E-2,-2.8652608E-2,-5.5082526E-2,3.0348295E-1,-1.4339414E-2,3.1205112E-1,2.6874322E-1,-7.9090196E-1,-4.301565E-1,-1.3983818E0,-1.4092105E-2,-2.9074743E-1,4.4767547E-1,2.0950167E-2,7.563543E-1,-8.239938E-1,-2.2559309E-1,7.050676E-1,6.226626E-1,9.2346835E-1,1.0018282E-1,-8.1198746E-1,1.1505433E0,2.2543582E-1,5.477163E-1,8.3214945E-5,2.048774E-1,-1.3708179E-2,6.2142175E-1,-1.9497694E-1,-1.242904E0,1.2602445E0,9.6891445E-1,1.79595E-2,-3.7873957E0,8.264259E-1,9.598384E-1,2.1791128E-2,2.6874322E-1,4.8727077E-2,3.1205112E-1,1.4896537E0,-1.0291704E0,-8.847665E-2,-9.9139065E-2,-8.194476E-2,7.5064294E-2,-8.2362905E-2,-7.368576E-2,-3.5777714E-2,-1.6164314E-2,-2.3656078E-2,-1.1489796E-2,-9.899018E-3,7.505951E-3,-7.708981E-3,-1.5605817E-2,1.0050395E-2,-1.0202149E-3,-1.3013974E-2,1.3846402E-3,8.3911E-3,3.6201552E-3,-7.886191E-3,-1.1403597E-3,4.8592067E-3,1.1453526E-2,-1.7493407E-3,-8.626609E-3,-4.358278E-3,9.77575E-3,5.1732557E-3,-3.679735E-3,2.392716E-2,1.1187746E-2,8.611226E-3,2.180482E-2,1.6043446E-3,1.5700733E-2,2.32639E-2,1.0131292E-2,3.4680992E-2,1.7485311E-2,1.8586237E-2,6.5956614E-3,2.0270804E-2,1.0134413E-2,2.841845E-2,2.3027528E-2,2.7927244E-2,2.1407392E-2,3.5093803E-2,2.4533099E-2,2.1157473E-2,3.1158417E-2,4.256817E-2,3.413252E-2,3.7869263E-2,4.358993E-2,5.103671E-2,3.5575334E-2,2.643685E-2,4.9186263E-2,4.842388E-2,6.463358E-2,5.6506652E-2,2.7050346E-2,5.1700074E-2,4.0080205E-2,3.985552E-2,2.4008708E-2,5.819582E-2,2.9989172E-2,4.5254484E-2,5.1882196E-2],"split_indices":[9,7,9,9,9,9,9,9,7,3,9,9,9,7,9,9,3,2,2,0,0,9,8,9,2,2,9,9,3,0,0,0,0,8,0,2,3,7,8,0,3,7,8,1,2,4,8,7,0,7,4,2,3,2,9,9,2,0,4,0,0,0,0,0,0,0,0,2,0,0,7,0,0,2,7,2,2,0,0,0,7,2,2,2,0,9,9,2,0,0,3,8,0,3,3,2,4,9,0,0,3,9,0,0,0,0,0,3,0,0,0,4,7,2,0,2,2,0,7,4,2,8,7,7,2,2,8,0,1,0,7,9,2,8,3,9,2,0,2,4,9,0,0,0,0,9,2,0,0,0,0,0,0,0,0,0,0,0,0,0,0,0,0,0,0,0,0,0,0,0,0,0,0,0,0,0,0,0,0,0,0,0,0,0,0,0,0,0,0,0,0,0,0,0,0,0,0,0,0,0,0,0,0,0,0,0,0,0,0,0,0,0,0,0,0,0,0,0,0],"split_type":[0,0,0,0,0,0,0,0,0,0,0,0,0,0,0,0,0,0,0,0,0,0,0,0,0,0,0,0,0,0,0,0,0,0,0,0,0,0,0,0,0,0,0,0,0,0,0,0,0,0,0,0,0,0,0,0,0,0,0,0,0,0,0,0,0,0,0,0,0,0,0,0,0,0,0,0,0,0,0,0,0,0,0,0,0,0,0,0,0,0,0,0,0,0,0,0,0,0,0,0,0,0,0,0,0,0,0,0,0,0,0,0,0,0,0,0,0,0,0,0,0,0,0,0,0,0,0,0,0,0,0,0,0,0,0,0,0,0,0,0,0,0,0,0,0,0,0,0,0,0,0,0,0,0,0,0,0,0,0,0,0,0,0,0,0,0,0,0,0,0,0,0,0,0,0,0,0,0,0,0,0,0,0,0,0,0,0,0,0,0,0,0,0,0,0,0,0,0,0,0,0,0,0,0,0,0,0,0,0,0,0,0,0,0,0,0,0,0,0],"sum_hessian":[7.417E3,2.69E3,4.727E3,2.091E3,5.99E2,1.843E3,2.884E3,1.89E3,2.01E2,2.64E2,3.35E2,2.61E2,1.582E3,2.473E3,4.11E2,7.96E2,1.094E3,1.2E2,8.1E1,6E0,2.58E2,3.03E2,3.2E1,1.51E2,1.1E2,1.76E2,1.406E3,5.94E2,1.879E3,2.91E2,1.2E2,7.9E1,7.17E2,9.77E2,1.17E2,1.3E1,1.07E2,7.3E1,8E0,8.8E1,2.15E2,2.6E1,6E0,6E1,9.1E1,1.9E1,9.1E1,1.15E2,6.1E1,1.209E3,1.97E2,4.07E2,1.87E2,9.44E2,9.35E2,5.7E2,1.47E2,7.63E2,2.14E2,8E0,5E0,8E1,2.7E1,6.9E1,4E0,5E0,3E0,1.1E1,2.04E2,5E0,2.1E1,3E0,3E0,4.5E1,1.5E1,3.1E1,6E1,3E0,1.6E1,4.3E1,4.8E1,4.4E1,7.1E1,5.8E1,3E0,4.02E2,8.07E2,1.93E2,4E0,3.9E1,3.68E2,1.28E2,5.9E1,8.27E2,1.17E2,1.61E2,7.74E2,4.57E2,1.13E2,1.17E2,3E1,7.51E2,1.2E1,1.32E2,8.2E1,5E0,6E0,1.6E1,5E0,2.8E1,1.7E1,8E0,7E0,2.1E1,1E1,6E0,5.4E1,1E1,6E0,1.7E1,2.6E1,9E0,3.9E1,1.6E1,2.8E1,3.4E1,3.7E1,2E1,3.8E1,4E0,3.98E2,6.72E2,1.35E2,5E1,1.43E2,3.07E2,6.1E1,3E0,1.25E2,1.78E2,6.49E2,3E0,1.14E2,1.12E2,4.9E1,2.16E2,5.58E2,1.16E2,3.41E2,2.5E1,5E0,6.37E2,1.14E2,1.2E1,4E0,1.3E1,1.5E1,1.4E1,3E0,4E0,4E0,3E0,4E0,1.1E1,1E1,3E0,3E0,1.6E1,3.8E1,3E0,3E0,1.2E1,5E0,5E0,2.1E1,4E0,5E0,3E0,3.6E1,3E0,1.3E1,9E0,1.9E1,1.7E1,1.7E1,1.7E1,2E1,5E0,1.5E1,2.7E1,1.1E1,1.25E2,2.73E2,5.1E2,1.62E2,8.9E1,4.6E1,1.2E1,3.8E1,2.6E1,1.17E2,1.02E2,2.05E2,4.9E1,1.2E1,4E0,1.21E2,2.8E1,1.5E2,6.46E2,3E0,9E1,2.4E1,3.8E1,1.1E1,2.12E2,4E0,8.5E1,4.73E2],"tree_param":{"num_deleted":"0","num_feature":"10","num_nodes":"219","size_leaf_vector":"1"}},{"base_weights":[6.0817554E-5,-6.614337E-1,3.7755775E-1,-7.121665E-1,-4.0720287E-1,2.0367245E-1,4.88054E-1,-7.446113E-1,-3.905336E-1,-5.279907E-1,-3.5770184E-1,-3.9711107E-2,2.33915E-1,4.2728394E-1,5.355271E-1,-7.841786E-1,-6.558299E-1,-4.472364E-1,-2.4655744E-1,-5.616811E-1,-4.173356E-2,-3.6622715E-1,-2.1023233E-1,-8.2541674E-2,1.3327643E-2,1.5391664E-1,2.467691E-1,4.4915983E-1,3.9168978E-1,5.2130365E-1,6.4837813E-1,-8.374438E-1,-7.289505E-1,-6.872986E-1,-6.165112E-2,-4.8623484E-1,-3.8845348E-1,-1.941563E-1,-3.1424883E-1,-5.7149757E-2,-2.6872208E-2,-3.4900066E-1,-4.7119692E-2,-3.2298367E-2,-1.61858E-1,-1.9074588E-1,-7.359663E-2,-9.112082E-3,5.777717E-2,1.3702847E-1,2.0134507E-1,2.3595671E-1,3.0937377E-1,4.04625E-1,4.5876212E-2,3.7143418E-1,4.5486295E-1,5.136152E-1,5.5860747E-2,3.4413453E-2,6.5522164E-2,-9.249917E-2,-8.237113E-1,-4.930027E-2,-7.31317E-2,-5.7475965E-2,-6.989897E-2,-2.56234E-2,-5.004598E-2,-4.035012E-1,-2.3268174E-1,-4.2478256E-3,-2.112543E-1,-1.0058812E-2,-3.388122E-2,-3.2516915E-1,-3.8063377E-1,-1.8335146E-1,-7.790215E-3,-1.0657374E-2,-2.482746E-2,-5.9116597E-4,-8.0364235E-2,1.1397328E-2,-3.7948087E-2,8.744236E-2,3.5204173E-3,1.8053004E-1,1.1503601E-1,2.1762635E-1,1.4500508E-1,2.545712E-1,2.307369E-1,2.3133611E-2,3.1801206E-1,5.213504E-2,3.9038754E-1,3.7297852E-2,1.3379683E-2,1.6612537E-2,4.611137E-2,5.2416205E-1,4.8151007E-1,-8.491615E-2,-7.237539E-1,-4.2362876E-2,-2.4908453E-1,-1.3956482E-2,-2.9090745E-2,-2.2479631E-1,-9.045983E-3,-1.7840302E-2,-3.287994E-2,-3.8674206E-1,-1.7745465E-2,-2.537868E-2,-1.3167447E-1,-6.233248E-3,3.4774035E-2,2.186325E-3,-8.615772E-2,-9.9281175E-3,1.4986581E-2,4.040061E-3,-5.8526378E-2,1.046242E-1,1.4972024E-3,-4.5159366E-2,1.1216983E-2,6.515669E-2,2.0419475E-1,5.715353E-2,1.3260406E-1,2.4885872E-1,1.3515507E-1,2.2571443E-1,3.608142E-2,3.454709E-1,2.3647559E-1,2.7658236E-1,2.2562346E-1,1.6605157E-2,3.2227326E-2,4.34387E-1,3.4824762E-1,4.7196177E-1,5.309998E-2,4.1463402E-1,4.961693E-1,2.8333295E-2,-7.491739E-2,-1.2398786E-2,-2.9096821E-2,-2.7985776E-2,-1.6946718E-2,-2.3501942E-2,-3.969375E-2,-5.832253E-3,-1.5863001E-2,5.6164446E-3,4.690118E-4,1.9802756E-3,-8.995192E-3,5.163508E-3,-3.1693745E-3,-8.816118E-3,-2.357099E-3,4.5214347E-3,1.1485614E-2,-5.641459E-3,-1.698669E-3,1.0766785E-2,-7.3902705E-4,1.362171E-2,2.2166725E-2,1.1644672E-2,1.6998961E-4,1.0511964E-2,1.53890345E-2,1.6322328E-2,2.8351529E-2,5.430212E-3,1.8900702E-2,2.641288E-2,1.1166426E-2,-3.5496203E-3,8.612723E-3,3.6629423E-2,1.94976E-2,1.994878E-2,2.9289603E-2,2.0259237E-2,3.0625105E-2,2.3163332E-2,1.8157676E-2,4.6464372E-2,3.346126E-2,2.683699E-2,3.9103474E-2,4.8750494E-2,2.8351543E-2,5.5577125E-2,3.732952E-2,3.6333952E-2,5.0490893E-2],"categories":[],"categories_nodes":[],"categories_segments":[],"categories_sizes":[],"default_left":[0,0,0,0,0,0,0,0,0,0,0,0,0,0,0,0,0,0,0,0,0,0,0,0,0,0,0,0,0,0,0,0,0,0,0,0,0,0,0,0,0,0,0,0,0,0,0,0,0,0,0,0,0,0,0,0,0,0,0,0,0,0,0,0,0,0,0,0,0,0,0,0,0,0,0,0,0,0,0,0,0,0,0,0,0,0,0,0,0,0,0,0,0,0,0,0,0,0,0,0,0,0,0,0,0,0,0,0,0,0,0,0,0,0,0,0,0,0,0,0,0,0,0,0,0,0,0,0,0,0,0,0,0,0,0,0,0,0,0,0,0,0,0,0,0,0,0,0,0,0,0,0,0,0,0,0,0,0,0,0,0,0,0,0,0,0,0,0,0,0,0,0,0,0,0,0,0,0,0,0,0,0,0,0,0,0,0,0,0,0,0,0,0,0,0,0,0,0,0,0,0,0,0,0,0],"id":6,"left_children":[1,3,5,7,9,11,13,15,17,19,21,23,25,27,29,31,33,35,37,39,-1,41,43,45,47,49,51,53,55,57,59,61,63,65,-1,67,69,71,73,-1,-1,75,-1,-1,77,79,81,83,85,87,89,91,93,95,-1,97,99,101,-1,-1,-1,-1,103,-1,-1,-1,-1,-1,-1,105,107,-1,109,-1,-1,111,113,115,-1,-1,-1,117,119,121,123,125,127,129,131,133,135,137,139,-1,141,-1,143,-1,-1,-1,-1,145,147,-1,149,-1,151,-1,-1,153,-1,-1,-1,155,-1,-1,157,-1,159,-1,161,163,-1,-1,165,167,-1,169,-1,171,173,175,177,179,181,183,185,187,189,191,193,-1,-1,195,197,199,-1,201,203,-1,-1,-1,-1,-1,-1,-1,-1,-1,-1,-1,-1,-1,-1,-1,-1,-1,-1,-1,-1,-1,-1,-1,-1,-1,-1,-1,-1,-1,-1,-1,-1,-1,-1,-1,-1,-1,-1,-1,-1,-1,-1,-1,-1,-1,-1,-1,-1,-1,-1,-1,-1,-1,-1,-1,-1],"loss_changes":[1.8536134E3,3.4495483E1,9.070447E1,2.3157349E1,2.507721E0,1.3537956E1,8.105713E0,6.6519775E0,1.5878105E0,2.4650574E-1,3.290863E-1,4.645228E-1,1.6433029E0,8.1451416E-1,2.2590942E0,3.5255737E0,3.61969E-1,1.5040016E-1,1.5535998E-1,1.2250519E-1,0E0,3.8526917E-1,5.6807876E-2,9.533346E-2,9.2290506E-2,1.558342E-1,8.794098E-1,1.483612E-1,4.606247E-1,1.2667847E-1,1.4305115E-1,9.048462E-2,2.9205322E-2,5.0857544E-2,0E0,1.498661E-1,5.6129456E-2,8.698177E-2,9.712505E-2,0E0,0E0,7.600021E-2,0E0,0E0,1.4588535E-2,1.2278974E-2,5.2324176E-2,3.709989E-2,4.9587816E-2,1.4378619E-1,2.1645784E-2,5.8250427E-2,6.395149E-2,4.0769577E-2,0E0,8.880997E-2,1.3095474E-1,1.5664673E-1,0E0,0E0,0E0,0E0,9.677124E-1,0E0,0E0,0E0,0E0,0E0,0E0,7.163811E-2,2.7739406E-3,0E0,3.3646345E-2,0E0,0E0,2.552414E-2,6.54068E-2,1.0261416E-2,0E0,0E0,0E0,2.400249E-2,5.933225E-2,1.1074525E-1,4.428384E-2,2.3337021E-2,6.8533875E-2,1.3959074E-1,1.1139643E-1,7.712388E-2,1.3251442E-1,3.3610344E-1,1.6053772E-1,0E0,6.368828E-2,0E0,9.9033356E-2,0E0,0E0,0E0,0E0,6.993103E-2,9.916687E-2,0E0,3.6170807E0,0E0,1.1079073E-2,0E0,0E0,4.0921807E-2,0E0,0E0,0E0,6.75869E-2,0E0,0E0,8.543476E-3,0E0,4.241133E-3,0E0,3.876859E-2,4.585524E-2,0E0,0E0,1.9675776E-2,4.5329034E-3,0E0,1.8955078E-3,0E0,3.4720298E-2,2.4441242E-2,9.515471E-2,3.589177E-2,4.2758703E-2,5.069375E-2,9.93672E-3,3.171447E-2,5.393362E-2,3.902483E-1,1.377182E-1,1.8585587E-1,0E0,0E0,3.169346E-2,1.4797115E-1,1.9277E-1,0E0,1.5427017E-1,1.0676575E-1,0E0,0E0,0E0,0E0,0E0,0E0,0E0,0E0,0E0,0E0,0E0,0E0,0E0,0E0,0E0,0E0,0E0,0E0,0E0,0E0,0E0,0E0,0E0,0E0,0E0,0E0,0E0,0E0,0E0,0E0,0E0,0E0,0E0,0E0,0E0,0E0,0E0,0E0,0E0,0E0,0E0,0E0,0E0,0E0,0E0,0E0,0E0,0E0,0E0,0E0,0E0,0E0,0E0,0E0,0E0,0E0],"parents":[2147483647,0,0,1,1,2,2,3,3,4,4,5,5,6,6,7,7,8,8,9,9,10,10,11,11,12,12,13,13,14,14,15,15,16,16,17,17,18,18,19,19,21,21,22,22,23,23,24,24,25,25,26,26,27,27,28,28,29,29,30,30,31,31,32,32,33,33,35,35,36,36,37,37,38,38,41,41,44,44,45,45,46,46,47,47,48,48,49,49,50,50,51,51,52,52,53,53,55,55,56,56,57,57,62,62,69,69,70,70,72,72,75,75,76,76,77,77,81,81,82,82,83,83,84,84,85,85,86,86,87,87,88,88,89,89,90,90,91,91,92,92,94,94,96,96,101,101,102,102,104,104,106,106,109,109,113,113,116,116,118,118,120,120,121,121,124,124,125,125,127,127,129,129,130,130,131,131,132,132,133,133,134,134,135,135,136,136,137,137,138,138,139,139,140,140,143,143,144,144,145,145,147,147,148,148],"right_children":[2,4,6,8,10,12,14,16,18,20,22,24,26,28,30,32,34,36,38,40,-1,42,44,46,48,50,52,54,56,58,60,62,64,66,-1,68,70,72,74,-1,-1,76,-1,-1,78,80,82,84,86,88,90,92,94,96,-1,98,100,102,-1,-1,-1,-1,104,-1,-1,-1,-1,-1,-1,106,108,-1,110,-1,-1,112,114,116,-1,-1,-1,118,120,122,124,126,128,130,132,134,136,138,140,-1,142,-1,144,-1,-1,-1,-1,146,148,-1,150,-1,152,-1,-1,154,-1,-1,-1,156,-1,-1,158,-1,160,-1,162,164,-1,-1,166,168,-1,170,-1,172,174,176,178,180,182,184,186,188,190,192,194,-1,-1,196,198,200,-1,202,204,-1,-1,-1,-1,-1,-1,-1,-1,-1,-1,-1,-1,-1,-1,-1,-1,-1,-1,-1,-1,-1,-1,-1,-1,-1,-1,-1,-1,-1,-1,-1,-1,-1,-1,-1,-1,-1,-1,-1,-1,-1,-1,-1,-1,-1,-1,-1,-1,-1,-1,-1,-1,-1,-1,-1,-1],"split_conditions":[-4.7474506E-1,-6.975398E-1,3.9008737E-1,-5.812406E-1,-9.617433E-1,-3.7845534E-1,1.12778E0,-1.1487474E0,-1.3492839E0,2.8418747E-1,-8.244054E-1,2.5501204E-1,-2.7062863E-1,1.1896913E0,1.6520593E0,-1.1359048E0,1.6289929E-1,-8.211596E-1,2.9039744E-1,-5.084092E-1,-4.173356E-2,-1.6084787E0,-9.086497E-1,-3.99422E-1,6.459746E-1,1.1072947E0,2.9690376E-1,4.5753452E-1,1.3680713E0,1.5437889E0,1.4281255E0,-7.5643206E-1,-1.8673384E0,-1.5139639E0,-6.165112E-2,-2.1781266E0,-6.5578043E-1,2.0658582E-2,-1.2991493E0,-5.7149757E-2,-2.6872208E-2,-2.4287029E-1,-4.7119692E-2,-3.2298367E-2,-5.404526E-1,-2.1348193E0,-1.1826136E-1,-5.084092E-1,7.7779984E-1,1.6289929E-1,3.3370483E-1,-1.1826136E-1,-1.0640954E0,-1.8100135E0,4.5876212E-2,6.226626E-1,1.8668063E-2,9.327708E-1,5.5860747E-2,3.4413453E-2,6.5522164E-2,-9.249917E-2,-1.2304195E0,-4.930027E-2,-7.31317E-2,-5.7475965E-2,-6.989897E-2,-2.56234E-2,-5.004598E-2,-1.3132184E0,1.8212843E-1,-4.2478256E-3,2.6874322E-1,-1.0058812E-2,-3.388122E-2,-8.211596E-1,4.4405994E-1,-9.0973884E-1,-7.790215E-3,-1.0657374E-2,-2.482746E-2,-7.8625304E-1,-1.1604205E0,5.558178E-1,4.5554852E-1,7.0622164E-1,7.3964405E-1,9.2346835E-1,-4.7753704E-1,1.2914615E0,1.1908517E0,-1.6235818E-1,1.71455E-1,2.3133611E-2,-4.7226676E-1,5.213504E-2,4.1848615E-1,3.7297852E-2,1.3379683E-2,1.6612537E-2,4.611137E-2,5.220625E-2,4.4405994E-1,-8.491615E-2,-1.5163981E0,-4.2362876E-2,-1.0995733E0,-1.3956482E-2,-2.9090745E-2,-7.2334224E-1,-9.045983E-3,-1.7840302E-2,-3.287994E-2,-6.04092E-1,-1.7745465E-2,-2.537868E-2,-7.495512E-1,-6.233248E-3,-2.5883833E-1,2.186325E-3,-8.9956224E-1,3.0514666E-1,1.4986581E-2,4.040061E-3,8.6580426E-1,-5.701521E-1,1.4972024E-3,-8.239938E-1,1.1216983E-2,3.0552555E-2,1.0505432E0,-5.701521E-1,8.733357E-1,-4.7753704E-1,1.3505545E0,-8.570857E-1,1.0778165E0,4.63627E-1,-8.293027E-2,-2.4498242E-1,2.0238899E-1,1.6605157E-2,3.2227326E-2,1.5219444E-1,3.3370483E-1,8.112452E-1,5.309998E-2,2.6874322E-1,5.220625E-2,2.8333295E-2,-7.491739E-2,-1.2398786E-2,-2.9096821E-2,-2.7985776E-2,-1.6946718E-2,-2.3501942E-2,-3.969375E-2,-5.832253E-3,-1.5863001E-2,5.6164446E-3,4.690118E-4,1.9802756E-3,-8.995192E-3,5.163508E-3,-3.1693745E-3,-8.816118E-3,-2.357099E-3,4.5214347E-3,1.1485614E-2,-5.641459E-3,-1.698669E-3,1.0766785E-2,-7.3902705E-4,1.362171E-2,2.2166725E-2,1.1644672E-2,1.6998961E-4,1.0511964E-2,1.53890345E-2,1.6322328E-2,2.8351529E-2,5.430212E-3,1.8900702E-2,2.641288E-2,1.1166426E-2,-3.5496203E-3,8.612723E-3,3.6629423E-2,1.94976E-2,1.994878E-2,2.9289603E-2,2.0259237E-2,3.0625105E-2,2.3163332E-2,1.8157676E-2,4.6464372E-2,3.346126E-2,2.683699E-2,3.9103474E-2,4.8750494E-2,2.8351543E-2,5.5577125E-2,3.732952E-2,3.6333952E-2,5.0490893E-2],"split_indices":[9,7,9,9,3,9,5,7,7,1,9,7,9,9,9,9,3,3,0,5,0,9,8,3,8,7,9,9,9,9,3,4,7,9,0,0,4,1,7,0,0,1,0,0,8,0,3,5,8,3,0,3,5,0,0,7,8,9,0,0,0,0,9,0,0,0,0,0,0,8,0,0,0,0,0,3,3,5,0,0,0,5,4,7,7,7,7,7,5,8,7,9,7,0,8,0,9,0,0,0,0,0,3,0,7,0,8,0,0,4,0,0,0,8,0,0,8,0,3,0,8,7,0,0,3,5,0,4,0,0,8,5,7,5,8,4,8,0,9,8,9,0,0,4,0,1,0,0,0,0,0,0,0,0,0,0,0,0,0,0,0,0,0,0,0,0,0,0,0,0,0,0,0,0,0,0,0,0,0,0,0,0,0,0,0,0,0,0,0,0,0,0,0,0,0,0,0,0,0,0,0,0,0,0,0],"split_type":[0,0,0,0,0,0,0,0,0,0,0,0,0,0,0,0,0,0,0,0,0,0,0,0,0,0,0,0,0,0,0,0,0,0,0,0,0,0,0,0,0,0,0,0,0,0,0,0,0,0,0,0,0,0,0,0,0,0,0,0,0,0,0,0,0,0,0,0,0,0,0,0,0,0,0,0,0,0,0,0,0,0,0,0,0,0,0,0,0,0,0,0,0,0,0,0,0,0,0,0,0,0,0,0,0,0,0,0,0,0,0,0,0,0,0,0,0,0,0,0,0,0,0,0,0,0,0,0,0,0,0,0,0,0,0,0,0,0,0,0,0,0,0,0,0,0,0,0,0,0,0,0,0,0,0,0,0,0,0,0,0,0,0,0,0,0,0,0,0,0,0,0,0,0,0,0,0,0,0,0,0,0,0,0,0,0,0,0,0,0,0,0,0,0,0,0,0,0,0,0,0,0,0,0,0],"sum_hessian":[7.421E3,2.696E3,4.725E3,2.246E3,4.5E2,1.837E3,2.888E3,2.039E3,2.07E2,1.28E2,3.22E2,2.03E2,1.634E3,1.271E3,1.617E3,1.405E3,6.34E2,1.47E2,6E1,9.5E1,3.3E1,3.03E2,1.9E1,1.12E2,9.1E1,2.28E2,1.406E3,7.8E2,4.91E2,1.441E3,1.76E2,7.08E2,6.97E2,3.43E2,2.91E2,8.4E1,6.3E1,3.6E1,2.4E1,9.1E1,4E0,2.64E2,3.9E1,4E0,1.5E1,7E0,1.05E2,6.1E1,3E1,1.71E2,5.7E1,1.203E3,2.03E2,1.46E2,6.34E2,3.77E2,1.14E2,1.207E3,2.34E2,5E0,1.71E2,8.7E1,6.21E2,9E0,6.88E2,3.7E1,3.06E2,6E0,7.8E1,5.6E1,7E0,4E0,3.2E1,3E0,2.1E1,1.57E2,1.07E2,1.1E1,4E0,4E0,3E0,9E0,9.6E1,3.6E1,2.5E1,1.9E1,1.1E1,5.5E1,1.16E2,4.2E1,1.5E1,2.53E2,9.5E2,2.3E1,1.8E2,1.2E1,1.34E2,3.74E2,3E0,3E0,1.11E2,8.97E2,3.1E2,4.89E2,1.32E2,4.8E1,8E0,4E0,3E0,2.8E1,4E0,5E0,1.52E2,1.03E2,4E0,3E0,8E0,3E0,6E0,5E0,9.1E1,3.2E1,4E0,5E0,2E1,1.5E1,4E0,8E0,3E0,1E1,4.5E1,2.8E1,8.8E1,2.9E1,1.3E1,8E0,7E0,3.9E1,2.14E2,9E1,8.6E2,6E0,1.74E2,6.1E1,7.3E1,1.12E2,7.85E2,6.1E1,2.49E2,3E0,1.29E2,3E0,5E0,1.2E1,1.6E1,8E0,9.5E1,3E0,5E0,3E0,3E0,3E0,8.8E1,8E0,2.4E1,1E1,1E1,3E0,1.2E1,5E0,3E0,6E0,4E0,1.1E1,3.4E1,1.3E1,1.5E1,4.1E1,4.7E1,1E1,1.9E1,6E0,7E0,5E0,3E0,3E0,4E0,3.3E1,6E0,1.32E2,8.2E1,2.8E1,6.2E1,7.53E2,1.07E2,4.4E1,1.7E1,2.8E1,4.5E1,1.02E2,1E1,1.1E1,5E1,1.8E1,2.31E2],"tree_param":{"num_deleted":"0","num_feature":"10","num_nodes":"205","size_leaf_vector":"1"}},{"base_weights":[-1.0346704E-3,-5.9659934E-1,3.3919808E-1,-6.504904E-1,-4.0387762E-1,1.832824E-1,4.3906784E-1,-6.787738E-1,-3.6336207E-1,-3.2472593E-1,-4.798362E-1,-3.0803366E-3,2.138549E-1,3.856755E-1,4.81801E-1,-7.422717E-1,-6.3149863E-1,-4.0380082E-1,-2.1908258E-1,-2.9145667E-1,-3.575856E-1,-5.118873E-1,-1.9541144E-1,-5.988839E-2,6.844601E-2,1.3529119E-1,2.2185221E-1,3.4562463E-1,4.0144944E-1,4.6283615E-1,5.549945E-1,-5.926018E-2,-7.573694E-1,-6.0487E-1,-6.755066E-1,-3.3641693E-1,-4.3089144E-2,-2.7561834E-1,-1.4403774E-1,-2.2383967E-1,-3.0309623E-1,-3.642412E-1,-2.3264224E-2,-3.917149E-1,-5.281878E-1,-2.410925E-1,-1.1010124E-1,-9.817717E-2,-3.566795E-2,1.3865317E-1,5.3264674E-2,1.8391708E-1,1.2095798E-1,2.137019E-1,2.7585483E-1,2.982244E-1,3.58085E-1,3.6476237E-1,4.1126645E-1,4.7362387E-1,4.4061083E-1,5.234803E-2,6.053076E-2,-7.585648E-2,-3.495726E-2,-6.402595E-1,-5.380736E-1,-7.044905E-1,-6.017862E-2,-3.468545E-1,-1.7937047E-2,-9.3044005E-3,-2.9726973E-1,-4.3042615E-2,-2.0287763E-1,-3.0690366E-2,-1.7708433E-1,-3.1196356E-2,-2.0987442E-2,-3.7415978E-1,-2.7396856E-2,-4.4621248E-2,-2.9570466E-2,-2.9387295E-2,-5.330651E-1,-1.6789176E-1,-3.2990716E-2,-1.8641828E-2,4.9289647E-3,-7.325761E-2,-1.749682E-1,-8.3781935E-2,-1.1811697E-2,4.741686E-3,1.5196447E-1,3.483293E-2,9.326781E-2,1.556266E-1,2.4933523E-2,4.900751E-2,1.3258323E-1,1.9010946E-1,2.1758488E-1,2.0551857E-1,2.8867888E-1,1.3857259E-1,3.1819627E-1,3.4793204E-1,4.3676388E-2,3.915642E-1,3.2161796E-1,4.1582547E-2,3.6020465E-2,2.4487985E-2,4.7442254E-1,4.9994987E-2,4.2687196E-1,-5.407004E-1,-6.49427E-1,-5.4206574E-1,-2.3564244E-2,-7.127439E-2,-5.3148E-2,-2.3399984E-2,-3.6596414E-2,-3.3887148E-2,-1.87308E-2,-1.0333731E-2,2.5860593E-3,-2.4992026E-2,-3.4551613E-3,-2.5087908E-2,-1.23726815E-1,-2.4724391E-1,-3.811424E-2,-5.381466E-2,-3.2605436E-2,-2.260969E-2,-8.5702084E-2,-1.324689E-1,-4.4153884E-2,-2.0551613E-1,-5.4856343E-3,-5.97029E-2,-1.3333268E-2,8.290761E-3,-1.8033147E-2,1.8116822E-2,8.436364E-3,5.1320553E-2,-2.1959389E-2,6.743271E-2,1.2186504E-1,1.8125443E-2,1.0653169E-1,-2.7834722E-3,8.070335E-2,1.2134777E-1,2.4802692E-1,2.1412873E-1,1.6350162E-1,2.0183097E-1,2.2533251E-1,2.3548599E-1,8.618057E-3,3.2290494E-1,2.570965E-1,5.8049313E-3,1.9600045E-2,1.7214963E-2,3.2870567E-1,3.508153E-2,1.3072103E-2,2.5732426E-2,4.0013026E-2,3.4849194E-1,2.5297222E-1,3.7524845E-2,4.7700745E-1,4.0912938E-1,4.6433713E-2,-3.482079E-2,-6.0200352E-2,-6.5142885E-2,-3.5779756E-2,-5.524115E-2,-4.425266E-2,-2.7712218E-3,-1.4975997E-2,-1.1439797E-2,-3.306411E-2,-3.091269E-3,-1.1906597E-2,-3.4526808E-3,-1.5604158E-2,8.346293E-3,-6.6151298E-3,-2.3915445E-2,-9.527004E-3,-1.1771076E-2,-1.5537864E-4,-4.9392744E-3,-6.8482324E-5,6.7749084E-3,5.1850086E-4,1.3347747E-3,-1.0230464E-2,1.01824915E-2,2.1726624E-3,6.976941E-3,1.3726651E-2,1.87462E-4,1.4554376E-2,1.2813732E-2,4.5384103E-3,1.0793014E-2,1.9664766E-2,9.975326E-3,3.170405E-2,2.4707457E-2,1.4872215E-2,-3.2564835E-3,1.7278379E-2,2.0600045E-2,-7.98915E-3,2.6585897E-2,2.1496514E-2,1.7042672E-2,2.6749706E-2,2.4070082E-2,3.5556726E-2,2.6692096E-2,1.56721E-2,2.2802388E-2,3.4039725E-2,3.5682306E-2,1.488992E-2,3.5501257E-2,2.0691246E-2,5.1755358E-2,4.688296E-2,4.4045825E-2,3.645622E-2],"categories":[],"categories_nodes":[],"categories_segments":[],"categories_sizes":[],"default_left":[0,0,0,0,0,0,0,0,0,0,0,0,0,0,0,0,0,0,0,0,0,0,0,0,0,0,0,0,0,0,0,0,0,0,0,0,0,0,0,0,0,0,0,0,0,0,0,0,0,0,0,0,0,0,0,0,0,0,0,0,0,0,0,0,0,0,0,0,0,0,0,0,0,0,0,0,0,0,0,0,0,0,0,0,0,0,0,0,0,0,0,0,0,0,0,0,0,0,0,0,0,0,0,0,0,0,0,0,0,0,0,0,0,0,0,0,0,0,0,0,0,0,0,0,0,0,0,0,0,0,0,0,0,0,0,0,0,0,0,0,0,0,0,0,0,0,0,0,0,0,0,0,0,0,0,0,0,0,0,0,0,0,0,0,0,0,0,0,0,0,0,0,0,0,0,0,0,0,0,0,0,0,0,0,0,0,0,0,0,0,0,0,0,0,0,0,0,0,0,0,0,0,0,0,0,0,0,0,0,0,0,0,0,0,0,0,0,0,0,0,0,0,0,0,0,0,0,0,0,0,0,0,0,0,0,0,0,0,0,0,0,0,0],"id":7,"left_children":[1,3,5,7,9,11,13,15,17,19,21,23,25,27,29,31,33,35,37,39,41,43,45,47,49,51,53,55,57,59,61,-1,63,65,67,69,-1,71,73,75,77,79,-1,81,83,85,87,89,91,93,95,97,99,101,103,105,107,109,111,113,115,-1,-1,-1,-1,117,119,121,-1,123,-1,-1,125,127,129,-1,131,-1,-1,133,-1,-1,-1,-1,135,137,-1,-1,-1,139,141,143,145,-1,147,149,151,153,-1,155,157,159,161,163,165,167,169,171,-1,173,175,-1,-1,-1,177,-1,179,181,183,185,-1,-1,-1,-1,-1,-1,-1,-1,-1,-1,-1,-1,187,189,-1,-1,-1,-1,191,193,195,197,-1,199,-1,-1,201,-1,-1,203,205,207,209,-1,211,-1,213,215,217,219,221,223,225,227,-1,229,231,-1,-1,-1,233,-1,-1,-1,-1,235,237,-1,239,241,-1,-1,-1,-1,-1,-1,-1,-1,-1,-1,-1,-1,-1,-1,-1,-1,-1,-1,-1,-1,-1,-1,-1,-1,-1,-1,-1,-1,-1,-1,-1,-1,-1,-1,-1,-1,-1,-1,-1,-1,-1,-1,-1,-1,-1,-1,-1,-1,-1,-1,-1,-1,-1,-1,-1,-1,-1,-1,-1,-1,-1,-1,-1],"loss_changes":[1.5031135E3,2.7748352E1,7.343146E1,1.685614E1,3.4034271E0,1.0512684E1,6.378357E0,5.282776E0,1.025919E0,2.1609497E-1,2.634819E0,1.0646131E0,9.658356E-1,6.724396E-1,1.95578E0,1.3860474E0,8.8635254E-1,1.2520981E-1,1.4698005E-1,5.099678E-2,3.4175873E-2,3.200302E-1,9.816134E-2,1.3189441E-1,1.16251945E-1,8.160186E-2,5.735245E-1,1.1174011E-1,1.7953491E-1,9.631348E-2,1.9528198E-1,0E0,9.262085E-2,1.3054657E0,4.4784546E-1,1.4825821E-2,0E0,6.721246E-2,1.1606094E-1,4.6628118E-2,3.8682938E-2,1.747322E-2,0E0,5.641699E-2,1.1076355E-1,7.4637294E-2,1.6732359E-1,9.434378E-2,1.0346194E-1,1.7083824E-2,6.8271965E-2,2.0419478E-2,9.2202425E-2,7.341766E-2,1.0754013E-1,2.2055578E-1,7.80983E-2,1.0764694E-1,1.6426086E-2,3.7841797E-2,1.3713837E-1,0E0,0E0,0E0,0E0,6.05011E-2,1.716919E-1,3.09906E-2,0E0,7.098675E-3,0E0,0E0,3.259337E-2,4.0062837E-2,9.4305396E-2,0E0,4.37721E-2,0E0,0E0,1.0335922E-2,0E0,0E0,0E0,0E0,6.438446E-2,4.281321E-2,0E0,0E0,0E0,6.997481E-2,3.6425322E-2,2.7833685E-2,3.8031153E-2,0E0,1.8277377E-2,6.4800166E-2,1.3946682E-2,1.2145579E-2,0E0,4.6086773E-2,1.00905895E-1,8.322382E-2,8.4999084E-2,9.4145775E-2,8.344746E-2,3.9489374E-2,5.5458546E-2,1.16975784E-1,0E0,3.502655E-2,6.495857E-2,0E0,0E0,0E0,3.6071777E-2,0E0,4.6669006E-2,3.095951E-1,5.0964355E-3,6.8130493E-3,0E0,0E0,0E0,0E0,0E0,0E0,0E0,0E0,0E0,0E0,0E0,0E0,2.834414E-2,6.188613E-2,0E0,0E0,0E0,0E0,9.11526E-3,2.6934981E-2,9.254562E-2,1.4300615E-2,0E0,7.402544E-2,0E0,0E0,3.206432E-2,0E0,0E0,3.9819494E-2,4.6753705E-2,2.6082486E-2,8.535385E-4,0E0,4.463894E-2,0E0,1.596392E-2,7.374835E-2,5.0237298E-2,1.6581297E-1,1.7305946E-1,4.4167614E-1,2.403183E-1,6.47676E-3,0E0,1.0236311E-1,4.1989326E-2,0E0,0E0,0E0,1.2483597E-3,0E0,0E0,0E0,0E0,4.1650295E-2,5.344224E-2,0E0,2.7252197E-2,1.8848419E-1,0E0,0E0,0E0,0E0,0E0,0E0,0E0,0E0,0E0,0E0,0E0,0E0,0E0,0E0,0E0,0E0,0E0,0E0,0E0,0E0,0E0,0E0,0E0,0E0,0E0,0E0,0E0,0E0,0E0,0E0,0E0,0E0,0E0,0E0,0E0,0E0,0E0,0E0,0E0,0E0,0E0,0E0,0E0,0E0,0E0,0E0,0E0,0E0,0E0,0E0,0E0,0E0,0E0,0E0,0E0,0E0,0E0,0E0,0E0,0E0,0E0,0E0,0E0],"parents":[2147483647,0,0,1,1,2,2,3,3,4,4,5,5,6,6,7,7,8,8,9,9,10,10,11,11,12,12,13,13,14,14,15,15,16,16,17,17,18,18,19,19,20,20,21,21,22,22,23,23,24,24,25,25,26,26,27,27,28,28,29,29,30,30,32,32,33,33,34,34,35,35,37,37,38,38,39,39,40,40,41,41,43,43,44,44,45,45,46,46,47,47,48,48,49,49,50,50,51,51,52,52,53,53,54,54,55,55,56,56,57,57,58,58,59,59,60,60,65,65,66,66,67,67,69,69,72,72,73,73,74,74,76,76,79,79,84,84,85,85,89,89,90,90,91,91,92,92,94,94,95,95,96,96,97,97,99,99,100,100,101,101,102,102,103,103,104,104,105,105,106,106,107,107,109,109,110,110,114,114,116,116,117,117,118,118,119,119,132,132,133,133,138,138,139,139,140,140,141,141,143,143,146,146,149,149,150,150,151,151,152,152,154,154,156,156,157,157,158,158,159,159,160,160,161,161,162,162,163,163,165,165,166,166,170,170,175,175,176,176,178,178,179,179],"right_children":[2,4,6,8,10,12,14,16,18,20,22,24,26,28,30,32,34,36,38,40,42,44,46,48,50,52,54,56,58,60,62,-1,64,66,68,70,-1,72,74,76,78,80,-1,82,84,86,88,90,92,94,96,98,100,102,104,106,108,110,112,114,116,-1,-1,-1,-1,118,120,122,-1,124,-1,-1,126,128,130,-1,132,-1,-1,134,-1,-1,-1,-1,136,138,-1,-1,-1,140,142,144,146,-1,148,150,152,154,-1,156,158,160,162,164,166,168,170,172,-1,174,176,-1,-1,-1,178,-1,180,182,184,186,-1,-1,-1,-1,-1,-1,-1,-1,-1,-1,-1,-1,188,190,-1,-1,-1,-1,192,194,196,198,-1,200,-1,-1,202,-1,-1,204,206,208,210,-1,212,-1,214,216,218,220,222,224,226,228,-1,230,232,-1,-1,-1,234,-1,-1,-1,-1,236,238,-1,240,242,-1,-1,-1,-1,-1,-1,-1,-1,-1,-1,-1,-1,-1,-1,-1,-1,-1,-1,-1,-1,-1,-1,-1,-1,-1,-1,-1,-1,-1,-1,-1,-1,-1,-1,-1,-1,-1,-1,-1,-1,-1,-1,-1,-1,-1,-1,-1,-1,-1,-1,-1,-1,-1,-1,-1,-1,-1,-1,-1,-1,-1,-1,-1],"split_conditions":[-4.7474506E-1,-8.312295E-1,7.814909E-2,-5.812406E-1,-1.5951667E0,-3.5316268E-1,1.12778E0,-1.1359048E0,-1.3492839E0,-1.7341827E0,-6.7703813E-1,-4.0552297E-1,-3.661105E-1,3.552813E-1,1.5846121E0,-1.4735843E0,-7.702701E-1,2.2543582E-1,1.3309657E-2,-1.7167491E0,8.463265E-2,-1.672002E0,4.2595667E-1,-4.4767743E-1,-7.9026866E-1,-4.4277495E-1,2.9690376E-1,1.2735565E0,7.57321E-1,7.300137E-1,1.679127E0,-5.926018E-2,-6.359117E-1,-9.1892016E-1,-6.353758E-1,-1.226852E0,-4.3089144E-2,-1.2991493E0,-1.0484782E0,5.069344E-1,5.3454864E-1,-1.4606097E-1,-2.3264224E-2,-1.5818548E0,-1.5504093E0,2.7392915E-1,2.6874322E-1,-4.90478E-1,-4.210582E-1,-4.393698E0,-3.664746E-1,1.177822E0,3.5026394E-2,-7.685509E-1,-4.4277495E-1,7.3214576E-2,4.0050447E-1,6.2142175E-1,1.2635041E0,-4.0228014E0,6.212714E-1,5.234803E-2,6.053076E-2,-7.585648E-2,-3.495726E-2,-1.4829756E0,3.9866593E-1,3.7701222E-1,-6.017862E-2,-1.3115087E0,-1.7937047E-2,-9.3044005E-3,-1.1495733E0,-1.1654596E0,-8.586496E-1,-3.0690366E-2,-4.1317382E-1,-3.1196356E-2,-2.0987442E-2,-6.04092E-1,-2.7396856E-2,-4.4621248E-2,-2.9570466E-2,-2.9387295E-2,-3.8002187E-1,3.5026394E-2,-3.2990716E-2,-1.8641828E-2,4.9289647E-3,-4.635789E-1,7.300137E-1,-8.1198746E-1,-2.9074743E-1,4.741686E-3,2.6874322E-1,-8.239938E-1,8.323463E-1,1.05716E0,2.4933523E-2,3.1205112E-1,3.1205112E-1,7.414337E-1,6.8950945E-1,-7.685509E-1,1.3137136E-1,3.1205112E-1,1.881672E-1,4.8528072E-1,4.3676388E-2,2.016349E-1,3.1205112E-1,4.1582547E-2,3.6020465E-2,2.4487985E-2,4.5554852E-1,4.9994987E-2,1.4372628E0,-4.2000532E-1,4.2031962E-1,6.865761E-1,-2.3564244E-2,-7.127439E-2,-5.3148E-2,-2.3399984E-2,-3.6596414E-2,-3.3887148E-2,-1.87308E-2,-1.0333731E-2,2.5860593E-3,-2.4992026E-2,-3.4551613E-3,-2.5087908E-2,-3.8002187E-1,2.7392915E-1,-3.811424E-2,-5.381466E-2,-3.2605436E-2,-2.260969E-2,1.8705598E-1,-9.0973884E-1,-4.301565E-1,-6.9363797E-1,-5.4856343E-3,-1.5069727E0,-1.3333268E-2,8.290761E-3,4.4767547E-1,1.8116822E-2,8.436364E-3,-3.8492343E-1,6.5608704E-1,6.550675E-1,-3.8492343E-1,1.8125443E-2,9.6871805E-1,-2.7834722E-3,3.3370483E-1,-3.8492343E-1,1.4361836E-1,2.0238899E-1,7.68707E-1,1.0687236E0,7.7306646E-1,-1.2897898E0,8.618057E-3,4.2595667E-1,7.082949E-1,5.8049313E-3,1.9600045E-2,1.7214963E-2,1.1263351E0,3.508153E-2,1.3072103E-2,2.5732426E-2,4.0013026E-2,1.0557876E0,3.887037E-1,3.7524845E-2,5.596084E-1,2.2543582E-1,4.6433713E-2,-3.482079E-2,-6.0200352E-2,-6.5142885E-2,-3.5779756E-2,-5.524115E-2,-4.425266E-2,-2.7712218E-3,-1.4975997E-2,-1.1439797E-2,-3.306411E-2,-3.091269E-3,-1.1906597E-2,-3.4526808E-3,-1.5604158E-2,8.346293E-3,-6.6151298E-3,-2.3915445E-2,-9.527004E-3,-1.1771076E-2,-1.5537864E-4,-4.9392744E-3,-6.8482324E-5,6.7749084E-3,5.1850086E-4,1.3347747E-3,-1.0230464E-2,1.01824915E-2,2.1726624E-3,6.976941E-3,1.3726651E-2,1.87462E-4,1.4554376E-2,1.2813732E-2,4.5384103E-3,1.0793014E-2,1.9664766E-2,9.975326E-3,3.170405E-2,2.4707457E-2,1.4872215E-2,-3.2564835E-3,1.7278379E-2,2.0600045E-2,-7.98915E-3,2.6585897E-2,2.1496514E-2,1.7042672E-2,2.6749706E-2,2.4070082E-2,3.5556726E-2,2.6692096E-2,1.56721E-2,2.2802388E-2,3.4039725E-2,3.5682306E-2,1.488992E-2,3.5501257E-2,2.0691246E-2,5.1755358E-2,4.688296E-2,4.4045825E-2,3.645622E-2],"split_indices":[9,7,5,9,9,9,5,9,7,6,6,9,6,7,9,9,9,0,2,9,4,6,2,9,2,2,9,9,5,2,9,0,8,9,9,8,0,7,7,0,2,7,0,9,2,2,0,6,2,4,9,8,2,2,2,8,8,2,4,4,9,0,0,0,0,7,0,0,0,2,0,0,8,7,8,0,8,0,0,8,0,0,0,0,7,2,0,0,0,7,2,2,2,0,0,4,8,7,0,0,0,8,7,2,6,0,7,0,0,5,0,0,0,0,7,0,6,4,0,2,0,0,0,0,0,0,0,0,0,0,0,0,7,2,0,0,0,0,2,5,7,5,0,2,0,0,2,0,0,5,7,8,5,0,8,0,0,5,2,9,8,8,7,2,0,2,2,0,0,0,6,0,0,0,0,2,7,0,8,0,0,0,0,0,0,0,0,0,0,0,0,0,0,0,0,0,0,0,0,0,0,0,0,0,0,0,0,0,0,0,0,0,0,0,0,0,0,0,0,0,0,0,0,0,0,0,0,0,0,0,0,0,0,0,0,0,0,0,0,0,0,0,0],"split_type":[0,0,0,0,0,0,0,0,0,0,0,0,0,0,0,0,0,0,0,0,0,0,0,0,0,0,0,0,0,0,0,0,0,0,0,0,0,0,0,0,0,0,0,0,0,0,0,0,0,0,0,0,0,0,0,0,0,0,0,0,0,0,0,0,0,0,0,0,0,0,0,0,0,0,0,0,0,0,0,0,0,0,0,0,0,0,0,0,0,0,0,0,0,0,0,0,0,0,0,0,0,0,0,0,0,0,0,0,0,0,0,0,0,0,0,0,0,0,0,0,0,0,0,0,0,0,0,0,0,0,0,0,0,0,0,0,0,0,0,0,0,0,0,0,0,0,0,0,0,0,0,0,0,0,0,0,0,0,0,0,0,0,0,0,0,0,0,0,0,0,0,0,0,0,0,0,0,0,0,0,0,0,0,0,0,0,0,0,0,0,0,0,0,0,0,0,0,0,0,0,0,0,0,0,0,0,0,0,0,0,0,0,0,0,0,0,0,0,0,0,0,0,0,0,0,0,0,0,0,0,0,0,0,0,0,0,0,0,0,0,0,0,0],"sum_hessian":[7.416E3,2.696E3,4.72E3,2.105E3,5.91E2,1.844E3,2.876E3,1.915E3,1.9E2,2.92E2,2.99E2,2.6E2,1.584E3,1.283E3,1.593E3,8.11E2,1.104E3,1.47E2,4.3E1,1.5E2,1.42E2,2.68E2,3.1E1,1.45E2,1.15E2,1.48E2,1.436E3,3.69E2,9.14E2,1.271E3,3.22E2,7.8E1,7.33E2,6.97E2,4.07E2,4.6E1,1.01E2,2.3E1,2E1,2.5E1,1.25E2,1.33E2,9E0,3.5E1,2.33E2,1.9E1,1.2E1,5.5E1,9E1,1.9E1,9.6E1,3.1E1,1.17E2,1.252E3,1.84E2,8.2E1,2.87E2,2.01E2,7.13E2,8.42E2,4.29E2,2.05E2,1.17E2,7.3E2,3E0,4.5E2,2.47E2,2.86E2,1.21E2,4.2E1,4E0,3E0,2E1,8E0,1.2E1,7E0,1.8E1,1.12E2,1.3E1,1.17E2,1.6E1,2E1,1.5E1,6E0,2.27E2,1.2E1,7E0,8E0,4E0,4.3E1,1.2E1,2.9E1,6.1E1,3E0,1.6E1,6.7E1,2.9E1,2.4E1,7E0,1.7E1,1E2,1.84E2,1.068E3,3.1E1,1.53E2,1E1,7.2E1,2.59E2,2.8E1,1.19E2,8.2E1,6.48E2,6.5E1,4E0,8.38E2,7.4E1,3.55E2,4.3E1,4.07E2,2.43E2,4E0,2.7E2,1.6E1,8E0,3.4E1,1.3E1,7E0,4E0,4E0,9E0,3E0,6E0,1.2E1,8E0,1.09E2,2.2E2,7E0,6E0,6E0,1.3E1,3E1,9E0,3E0,2.1E1,8E0,3E0,5.8E1,1E1,6E0,5.2E1,1.5E1,1.7E1,1.2E1,1.4E1,1E1,5E0,1.2E1,9.3E1,7E0,9.3E1,9.1E1,3.61E2,7.07E2,2.4E1,7E0,6.9E1,8.4E1,5E0,5E0,6E0,6.6E1,2.55E2,4E0,9E0,1.1E2,5.6E1,2.6E1,2.5E1,8.13E2,2.49E2,1.06E2,1.2E1,3.1E1,4.03E2,4E0,2.16E2,2.7E1,3E0,9E0,4E0,4E0,3E0,3E0,3E0,1E1,4E0,2.6E1,6E0,3E0,1E1,1.1E1,2E1,3.8E1,3.8E1,1.4E1,1.1E1,4E0,9E0,8E0,4E0,8E0,3E0,7E0,4E0,8E0,8.1E1,1.2E1,3E0,4E0,6E1,3.3E1,4E0,8.7E1,3.56E2,5E0,1.39E2,5.68E2,1E1,1.4E1,2.2E1,4.7E1,7.5E1,9E0,9E0,5.7E1,5.3E1,3E0,6E0,2E1,1.26E2,6.87E2,1.41E2,1.08E2],"tree_param":{"num_deleted":"0","num_feature":"10","num_nodes":"243","size_leaf_vector":"1"}},{"base_weights":[-6.379357E-5,-5.351105E-1,3.0587256E-1,-3.1432483E-1,-5.701669E-1,1.6586642E-1,3.957555E-1,-2.8536418E-1,-3.8018307E-1,-5.96817E-1,-2.8844118E-1,-3.132188E-2,1.9051905E-1,3.8034996E-1,4.8209515E-1,-2.4820745E-1,-3.0412284E-1,-1.6199512E-2,-3.8478655E-1,-6.424538E-1,-5.621905E-1,-3.410487E-1,-1.8657318E-1,-6.116453E-2,4.1817266E-2,1.24014415E-1,2.0160958E-1,4.0324163E-1,3.4612644E-1,4.5618254E-1,5.488811E-2,-1.6694492E-1,-2.593258E-1,-3.0963415E-1,-1.7174019E-2,-3.8908494E-1,-1.7683161E-2,-5.027793E-1,-6.76678E-1,-5.7459986E-1,-4.8180258E-1,-3.6612168E-1,-2.718715E-1,-1.9920535E-1,-4.2621173E-2,-9.439356E-2,-3.8822416E-2,9.388566E-2,2.074954E-2,1.0360687E-1,1.5026602E-1,1.9312812E-1,2.5058597E-1,3.4680742E-1,4.1705123E-1,3.271678E-1,3.8498822E-1,2.7089027E-1,4.6012864E-2,-1.9528132E-2,-9.661618E-3,-1.1553383E-2,-2.6537362E-1,-3.1196642E-1,-1.4009989E-2,-4.08334E-1,-3.0790746E-2,-3.3549853E-2,-5.1261383E-1,-7.62822E-2,-6.641796E-1,-5.791459E-1,-4.6347868E-2,-4.391927E-1,-5.1918393E-1,-3.7647584E-1,-2.6399523E-1,-1.5391585E-1,-3.1271424E-2,-2.1402924E-1,-6.683157E-2,-9.081388E-3,1.6226824E-3,-1.1405399E-1,-3.565656E-2,-1.0700978E-1,-2.883655E-2,-1.038472E-3,1.2676768E-1,-2.8621834E-2,4.998396E-2,1.19731374E-1,6.332494E-2,1.681607E-1,1.1617322E-1,1.665427E-1,1.9704379E-1,2.5343254E-1,1.1488521E-2,3.6384985E-1,2.973099E-1,4.2554185E-1,3.7000307E-1,3.6203E-1,3.0794683E-1,4.235082E-1,3.6727688E-1,1.4349239E-2,3.106738E-2,-2.7903625E-1,-1.8493649E-2,-3.2542065E-1,-2.6414096E-1,-4.1920733E-1,-2.5671396E-2,-4.6751684E-1,-5.5639304E-2,-6.880038E-1,-5.7168657E-1,-5.855056E-1,-5.029758E-1,-3.4310162E-1,-4.7351234E-2,-2.4642693E-2,-5.2974146E-2,-2.8321663E-2,-3.912934E-1,-9.668425E-3,-3.0902287E-2,-2.3264324E-2,-3.641459E-3,-2.4528386E-1,-1.6905971E-1,2.3538521E-3,-1.2576132E-2,-1.5654498E-1,-3.9859228E-2,-3.1464302E-3,-1.0654956E-2,-4.2104807E-2,-1.764748E-2,6.559025E-2,-3.7496153E-2,2.5654515E-2,6.217993E-2,-2.6757873E-4,-9.661853E-3,1.5791638E-2,2.5415374E-2,9.909717E-2,1.6182338E-1,8.128524E-2,-8.22462E-3,2.0556818E-1,1.3129257E-1,7.326026E-2,1.2888284E-1,9.576717E-2,1.7713179E-1,2.2750837E-1,1.9227108E-1,2.3206668E-1,2.8759965E-1,3.7630554E-2,2.7227396E-1,2.6818973E-1,4.2676084E-2,4.5317897E-1,4.0872678E-1,3.755188E-1,2.0102767E-2,3.9099775E-2,3.187269E-1,1.9907273E-1,3.1029636E-1,3.170271E-2,4.5595054E-2,2.518312E-2,3.7262365E-1,-2.1654207E-2,-2.957036E-2,-3.72061E-2,-2.951485E-2,-2.7611012E-2,-1.2513491E-2,-4.3873806E-2,-2.938141E-2,-2.2910666E-2,-4.7594167E-2,-6.895419E-2,-3.2335468E-2,-6.27162E-2,-1.7009012E-2,-5.633796E-2,-6.2375367E-2,-3.0153483E-2,-5.1460546E-2,-2.2886647E-2,-3.7314266E-2,-5.1377334E-2,-3.6680795E-2,-1.34662185E-2,-2.6563263E-2,-5.073759E-3,-1.817359E-2,-1.984865E-2,-1.0975934E-2,-7.158272E-3,8.113779E-3,-4.503281E-3,9.188453E-3,-1.2000989E-3,-6.1682425E-3,8.093302E-3,3.3849918E-3,-9.078392E-3,-2.331289E-3,3.197822E-3,9.948794E-3,6.5924274E-3,-2.671756E-3,4.4843936E-3,-4.0344303E-3,1.255545E-2,2.0099194E-3,2.6236579E-2,1.2575586E-2,1.0037047E-2,1.0756681E-3,3.403175E-3,2.2336734E-2,2.0200295E-2,8.032721E-3,1.1779563E-2,-3.7412927E-4,1.9087842E-2,1.0710648E-2,4.361523E-3,1.4869518E-2,2.012358E-2,1.4144614E-2,1.6931843E-2,2.775765E-2,2.3171624E-2,1.8918872E-2,1.1616934E-2,2.3489123E-2,3.64753E-2,2.551272E-2,2.9841144E-2,1.4749738E-2,2.8577948E-2,1.6228927E-2,3.9939124E-2,4.723304E-2,3.9890666E-2,5.0181802E-2,4.9969066E-2,3.601704E-2,3.9301705E-2,2.9336182E-2,8.875822E-3,2.2598222E-2,3.1358253E-2,2.2357231E-2,1.6478186E-2,3.748186E-2],"categories":[],"categories_nodes":[],"categories_segments":[],"categories_sizes":[],"default_left":[0,0,0,0,0,0,0,0,0,0,0,0,0,0,0,0,0,0,0,0,0,0,0,0,0,0,0,0,0,0,0,0,0,0,0,0,0,0,0,0,0,0,0,0,0,0,0,0,0,0,0,0,0,0,0,0,0,0,0,0,0,0,0,0,0,0,0,0,0,0,0,0,0,0,0,0,0,0,0,0,0,0,0,0,0,0,0,0,0,0,0,0,0,0,0,0,0,0,0,0,0,0,0,0,0,0,0,0,0,0,0,0,0,0,0,0,0,0,0,0,0,0,0,0,0,0,0,0,0,0,0,0,0,0,0,0,0,0,0,0,0,0,0,0,0,0,0,0,0,0,0,0,0,0,0,0,0,0,0,0,0,0,0,0,0,0,0,0,0,0,0,0,0,0,0,0,0,0,0,0,0,0,0,0,0,0,0,0,0,0,0,0,0,0,0,0,0,0,0,0,0,0,0,0,0,0,0,0,0,0,0,0,0,0,0,0,0,0,0,0,0,0,0,0,0,0,0,0,0,0,0,0,0,0,0,0,0,0,0,0,0,0,0,0,0,0,0,0,0,0,0,0,0,0,0,0,0,0,0,0,0,0,0,0,0,0,0],"id":8,"left_children":[1,3,5,7,9,11,13,15,17,19,21,23,25,27,29,31,33,-1,35,37,39,41,43,45,47,49,51,53,55,57,-1,59,61,63,-1,65,-1,67,69,71,73,75,77,79,81,83,85,87,89,91,93,95,97,99,101,103,105,107,-1,-1,-1,-1,109,111,-1,113,-1,-1,115,-1,117,119,-1,121,123,125,127,129,-1,131,133,-1,-1,135,137,139,141,-1,143,145,147,149,151,153,155,157,159,161,-1,163,165,167,169,171,173,175,177,-1,-1,179,-1,181,183,185,-1,187,-1,189,191,193,195,197,-1,-1,-1,-1,199,-1,-1,-1,-1,201,203,-1,-1,205,207,209,-1,211,-1,213,215,-1,217,219,-1,-1,221,223,225,227,-1,229,231,233,235,237,239,241,243,245,247,-1,249,251,-1,253,255,257,-1,-1,259,261,263,-1,-1,-1,265,-1,-1,-1,-1,-1,-1,-1,-1,-1,-1,-1,-1,-1,-1,-1,-1,-1,-1,-1,-1,-1,-1,-1,-1,-1,-1,-1,-1,-1,-1,-1,-1,-1,-1,-1,-1,-1,-1,-1,-1,-1,-1,-1,-1,-1,-1,-1,-1,-1,-1,-1,-1,-1,-1,-1,-1,-1,-1,-1,-1,-1,-1,-1,-1,-1,-1,-1,-1,-1,-1,-1,-1,-1,-1,-1,-1,-1,-1,-1,-1,-1,-1,-1,-1,-1,-1,-1,-1],"loss_changes":[1.2077065E3,2.0594849E1,5.9004425E1,5.9720993E-1,1.7208923E1,8.936008E0,3.6180725E0,1.0643387E-1,4.8152924E-2,2.9794312E0,1.0188904E0,4.5000428E-1,1.179451E0,1.7641907E0,4.9202728E-1,4.073286E-2,7.012653E-2,0E0,2.6841164E-2,3.9859009E0,9.302368E-1,1.294136E-1,1.20618105E-1,1.0472685E-1,6.3869685E-2,1.10863924E-1,5.3232574E-1,9.8539734E-1,5.968094E-1,1.0567474E-1,0E0,9.032756E-3,3.8910866E-2,1.9953728E-2,0E0,3.677845E-2,0E0,1.2743378E-1,2.7282715E-1,2.5845337E-1,3.9569855E-2,1.1444092E-5,1.3975573E-1,1.1324501E-1,2.1325931E-2,6.291133E-2,5.751519E-2,5.9603006E-2,6.493775E-2,8.0753565E-2,4.208231E-2,9.1682434E-2,4.9298286E-2,1.3729858E-1,3.0593872E-1,3.347931E-1,6.003952E-2,1.0357499E-3,0E0,0E0,0E0,0E0,3.1918526E-2,1.5708923E-2,0E0,2.5922775E-2,0E0,0E0,7.551193E-2,0E0,1.0169678E0,1.8896484E-1,0E0,1.1784935E-1,1.113472E-1,3.8747787E-3,6.0525775E-2,1.0253522E-1,0E0,4.00517E-2,4.5564137E-2,0E0,0E0,1.2932241E-1,3.6540598E-2,4.2164445E-2,6.705758E-2,0E0,9.301449E-2,3.2750078E-2,7.023543E-2,6.7343116E-2,1.1387992E-1,6.1275482E-2,1.1283457E-2,1.02948666E-1,1.0703659E-1,7.77998E-2,0E0,1.3935852E-1,1.8711758E-1,2.683258E-1,9.6933365E-2,1.6514587E-1,4.9755096E-2,1.7671967E-1,4.4425964E-2,0E0,0E0,1.5892982E-3,0E0,5.8203697E-2,3.200054E-2,5.232048E-2,0E0,7.172966E-2,0E0,5.9692383E-2,2.9455109E0,4.229126E-1,4.1614532E-2,3.825426E-3,0E0,0E0,0E0,0E0,1.8472672E-2,0E0,0E0,0E0,0E0,3.6261678E-2,3.127581E-2,0E0,0E0,3.1195283E-2,7.106168E-2,5.190385E-2,0E0,3.3852775E-3,0E0,6.6931546E-4,5.305656E-2,0E0,8.086208E-3,2.4521386E-2,0E0,0E0,3.2471977E-2,1.3751143E-1,7.579535E-2,4.872434E-2,0E0,8.399463E-2,1.0990602E-1,3.8162917E-2,1.7356753E-2,5.7001486E-2,9.023857E-2,3.4631872E-1,6.59523E-2,1.4287472E-2,8.732796E-2,0E0,5.056429E-2,8.0289364E-2,0E0,1.8219757E-1,3.6386108E-1,1.5926743E-1,0E0,0E0,6.937313E-2,1.55643225E-2,5.1013947E-2,0E0,0E0,0E0,3.4950256E-2,0E0,0E0,0E0,0E0,0E0,0E0,0E0,0E0,0E0,0E0,0E0,0E0,0E0,0E0,0E0,0E0,0E0,0E0,0E0,0E0,0E0,0E0,0E0,0E0,0E0,0E0,0E0,0E0,0E0,0E0,0E0,0E0,0E0,0E0,0E0,0E0,0E0,0E0,0E0,0E0,0E0,0E0,0E0,0E0,0E0,0E0,0E0,0E0,0E0,0E0,0E0,0E0,0E0,0E0,0E0,0E0,0E0,0E0,0E0,0E0,0E0,0E0,0E0,0E0,0E0,0E0,0E0,0E0,0E0,0E0,0E0,0E0,0E0,0E0,0E0,0E0,0E0,0E0,0E0,0E0,0E0,0E0,0E0,0E0,0E0,0E0,0E0,0E0],"parents":[2147483647,0,0,1,1,2,2,3,3,4,4,5,5,6,6,7,7,8,8,9,9,10,10,11,11,12,12,13,13,14,14,15,15,16,16,18,18,19,19,20,20,21,21,22,22,23,23,24,24,25,25,26,26,27,27,28,28,29,29,31,31,32,32,33,33,35,35,37,37,38,38,39,39,40,40,41,41,42,42,43,43,44,44,45,45,46,46,47,47,48,48,49,49,50,50,51,51,52,52,53,53,54,54,55,55,56,56,57,57,62,62,63,63,65,65,68,68,70,70,71,71,73,73,74,74,75,75,76,76,77,77,79,79,80,80,83,83,84,84,85,85,86,86,88,88,89,89,90,90,91,91,92,92,93,93,94,94,95,95,96,96,97,97,99,99,100,100,101,101,102,102,103,103,104,104,105,105,106,106,109,109,111,111,112,112,113,113,115,115,117,117,118,118,119,119,120,120,121,121,126,126,131,131,132,132,135,135,136,136,137,137,139,139,141,141,142,142,144,144,145,145,148,148,149,149,150,150,151,151,153,153,154,154,155,155,156,156,157,157,158,158,159,159,160,160,161,161,162,162,164,164,165,165,167,167,168,168,169,169,172,172,173,173,174,174,178,178],"right_children":[2,4,6,8,10,12,14,16,18,20,22,24,26,28,30,32,34,-1,36,38,40,42,44,46,48,50,52,54,56,58,-1,60,62,64,-1,66,-1,68,70,72,74,76,78,80,82,84,86,88,90,92,94,96,98,100,102,104,106,108,-1,-1,-1,-1,110,112,-1,114,-1,-1,116,-1,118,120,-1,122,124,126,128,130,-1,132,134,-1,-1,136,138,140,142,-1,144,146,148,150,152,154,156,158,160,162,-1,164,166,168,170,172,174,176,178,-1,-1,180,-1,182,184,186,-1,188,-1,190,192,194,196,198,-1,-1,-1,-1,200,-1,-1,-1,-1,202,204,-1,-1,206,208,210,-1,212,-1,214,216,-1,218,220,-1,-1,222,224,226,228,-1,230,232,234,236,238,240,242,244,246,248,-1,250,252,-1,254,256,258,-1,-1,260,262,264,-1,-1,-1,266,-1,-1,-1,-1,-1,-1,-1,-1,-1,-1,-1,-1,-1,-1,-1,-1,-1,-1,-1,-1,-1,-1,-1,-1,-1,-1,-1,-1,-1,-1,-1,-1,-1,-1,-1,-1,-1,-1,-1,-1,-1,-1,-1,-1,-1,-1,-1,-1,-1,-1,-1,-1,-1,-1,-1,-1,-1,-1,-1,-1,-1,-1,-1,-1,-1,-1,-1,-1,-1,-1,-1,-1,-1,-1,-1,-1,-1,-1,-1,-1,-1,-1,-1,-1,-1,-1,-1,-1],"split_conditions":[-4.7474506E-1,-1.5476285E0,3.9008737E-1,-1.6084787E0,-5.692598E-1,-3.7845534E-1,1.5304769E0,-1.7963694E0,-8.313764E-1,-1.1359048E0,-1.285945E0,-4.0552297E-1,-3.039238E-1,1.0672214E0,1.679127E0,-5.3999895E-1,4.4405994E-1,-1.6199512E-2,7.3214576E-2,-1.4735843E0,4.4405994E-1,-5.3999895E-1,7.082949E-1,-4.4767743E-1,-8.915556E-1,1.1187236E0,2.9690376E-1,5.249817E-1,1.3818269E0,-1.5504093E0,5.488811E-2,-1.8215548E-1,-6.04092E-1,5.069344E-1,-1.7174019E-2,5.5626744E-1,-1.7683161E-2,-1.9399357E0,-7.5643206E-1,3.7701222E-1,1.6047473E-1,-1.508683E0,-3.99422E-1,-5.404526E-1,-1.1826136E-1,2.0658582E-2,-1.5069727E0,-1.9683955E0,1.3882104E-1,5.7798415E-1,3.0348295E-1,-7.685509E-1,2.873159E-1,6.648573E-1,8.603225E-1,1.1759356E0,8.264259E-1,9.23259E-1,4.6012864E-2,-1.9528132E-2,-9.661618E-3,-1.1553383E-2,5.3454864E-1,-1.4497688E-1,-1.4009989E-2,5.1542874E-2,-3.0790746E-2,-3.3549853E-2,-1.5139639E0,-7.62822E-2,-1.2304195E0,-6.083082E-1,-4.6347868E-2,3.608023E-1,-1.5723224E0,-1.3115087E0,-1.4723169E0,5.7798415E-1,-3.1271424E-2,-8.586496E-1,-4.1317382E-1,-9.081388E-3,1.6226824E-3,5.5626744E-1,-5.040865E-1,-1.6155647E0,-1.1160434E0,-1.038472E-3,1.3882104E-1,-8.239938E-1,4.0050447E-1,1.0018282E-1,1.0505432E0,-8.570857E-1,1.2232757E0,-5.3999895E-1,-2.5883833E-1,5.1282984E-1,1.1488521E-2,4.4197333E-1,5.044857E-1,2.2543582E-1,8.112452E-1,1.2304144E0,1.1263351E0,5.9065074E-1,8.5951775E-1,1.4349239E-2,3.106738E-2,3.553585E-1,-1.8493649E-2,3.1205112E-1,6.2142175E-1,3.9866593E-1,-2.5671396E-2,-1.5240645E0,-5.5639304E-2,-6.359117E-1,3.7701222E-1,-7.702701E-1,-2.4287029E-1,1.3882104E-1,-4.7351234E-2,-2.4642693E-2,-5.2974146E-2,-2.8321663E-2,-9.6401495E-1,-9.668425E-3,-3.0902287E-2,-2.3264324E-2,-3.641459E-3,-1.181393E0,-8.313764E-1,2.3538521E-3,-1.2576132E-2,3.1205112E-1,2.6874322E-1,-6.995511E-1,-1.0654956E-2,1.6289929E-1,-1.764748E-2,4.8528072E-1,-4.210582E-1,2.5654515E-2,2.9564586E-1,5.1282984E-1,-9.661853E-3,1.5791638E-2,8.050731E-1,7.2522056E-1,2.5221032E-1,7.951681E-1,-8.22462E-3,2.2543582E-1,2.6874322E-1,1.1414559E0,1.2914615E0,7.0038633E-3,3.7701222E-1,7.0038633E-3,-3.776206E-1,-5.040865E-1,6.9190584E-2,3.7630554E-2,-4.8621258E-1,3.1205112E-1,4.2676084E-2,9.551364E-2,8.112452E-1,6.212714E-1,2.0102767E-2,3.9099775E-2,1.1885219E0,2.6868463E-1,1.1959445E0,3.170271E-2,4.5595054E-2,2.518312E-2,7.3214576E-2,-2.1654207E-2,-2.957036E-2,-3.72061E-2,-2.951485E-2,-2.7611012E-2,-1.2513491E-2,-4.3873806E-2,-2.938141E-2,-2.2910666E-2,-4.7594167E-2,-6.895419E-2,-3.2335468E-2,-6.27162E-2,-1.7009012E-2,-5.633796E-2,-6.2375367E-2,-3.0153483E-2,-5.1460546E-2,-2.2886647E-2,-3.7314266E-2,-5.1377334E-2,-3.6680795E-2,-1.34662185E-2,-2.6563263E-2,-5.073759E-3,-1.817359E-2,-1.984865E-2,-1.0975934E-2,-7.158272E-3,8.113779E-3,-4.503281E-3,9.188453E-3,-1.2000989E-3,-6.1682425E-3,8.093302E-3,3.3849918E-3,-9.078392E-3,-2.331289E-3,3.197822E-3,9.948794E-3,6.5924274E-3,-2.671756E-3,4.4843936E-3,-4.0344303E-3,1.255545E-2,2.0099194E-3,2.6236579E-2,1.2575586E-2,1.0037047E-2,1.0756681E-3,3.403175E-3,2.2336734E-2,2.0200295E-2,8.032721E-3,1.1779563E-2,-3.7412927E-4,1.9087842E-2,1.0710648E-2,4.361523E-3,1.4869518E-2,2.012358E-2,1.4144614E-2,1.6931843E-2,2.775765E-2,2.3171624E-2,1.8918872E-2,1.1616934E-2,2.3489123E-2,3.64753E-2,2.551272E-2,2.9841144E-2,1.4749738E-2,2.8577948E-2,1.6228927E-2,3.9939124E-2,4.723304E-2,3.9890666E-2,5.0181802E-2,4.9969066E-2,3.601704E-2,3.9301705E-2,2.9336182E-2,8.875822E-3,2.2598222E-2,3.1358253E-2,2.2357231E-2,1.6478186E-2,3.748186E-2],"split_indices":[9,6,9,9,9,9,9,6,8,9,8,9,6,9,9,3,3,0,8,9,3,3,2,9,4,8,9,9,9,2,0,2,8,0,0,2,0,0,4,0,0,8,3,8,3,1,2,4,0,2,3,2,4,2,2,9,4,8,0,0,0,0,2,8,0,4,0,0,9,0,9,9,0,2,8,2,8,2,0,8,8,0,0,2,8,2,2,0,0,4,8,2,8,4,8,3,3,2,0,0,6,0,1,4,6,4,4,0,0,0,0,0,2,0,0,3,0,8,0,9,1,0,0,0,0,0,2,0,0,0,0,8,8,0,0,0,0,8,0,3,0,0,2,0,2,2,0,0,8,3,2,2,0,0,0,8,8,6,0,6,2,8,6,0,2,0,0,0,1,9,0,0,6,8,4,0,0,0,8,0,0,0,0,0,0,0,0,0,0,0,0,0,0,0,0,0,0,0,0,0,0,0,0,0,0,0,0,0,0,0,0,0,0,0,0,0,0,0,0,0,0,0,0,0,0,0,0,0,0,0,0,0,0,0,0,0,0,0,0,0,0,0,0,0,0,0,0,0,0,0,0,0,0,0,0,0,0,0,0,0,0,0,0,0,0,0,0],"split_type":[0,0,0,0,0,0,0,0,0,0,0,0,0,0,0,0,0,0,0,0,0,0,0,0,0,0,0,0,0,0,0,0,0,0,0,0,0,0,0,0,0,0,0,0,0,0,0,0,0,0,0,0,0,0,0,0,0,0,0,0,0,0,0,0,0,0,0,0,0,0,0,0,0,0,0,0,0,0,0,0,0,0,0,0,0,0,0,0,0,0,0,0,0,0,0,0,0,0,0,0,0,0,0,0,0,0,0,0,0,0,0,0,0,0,0,0,0,0,0,0,0,0,0,0,0,0,0,0,0,0,0,0,0,0,0,0,0,0,0,0,0,0,0,0,0,0,0,0,0,0,0,0,0,0,0,0,0,0,0,0,0,0,0,0,0,0,0,0,0,0,0,0,0,0,0,0,0,0,0,0,0,0,0,0,0,0,0,0,0,0,0,0,0,0,0,0,0,0,0,0,0,0,0,0,0,0,0,0,0,0,0,0,0,0,0,0,0,0,0,0,0,0,0,0,0,0,0,0,0,0,0,0,0,0,0,0,0,0,0,0,0,0,0,0,0,0,0,0,0,0,0,0,0,0,0,0,0,0,0,0,0,0,0,0,0,0,0],"sum_hessian":[7.376E3,2.683E3,4.693E3,3.69E2,2.314E3,1.836E3,2.857E3,2.6E2,1.09E2,2.113E3,2.01E2,2.04E2,1.632E3,2.429E3,4.28E2,9.2E1,1.68E2,3E0,1.06E2,9.04E2,1.209E3,1.31E2,7E1,1.45E2,5.9E1,2.35E2,1.397E3,1.449E3,9.8E2,3.14E2,1.14E2,1.3E1,7.9E1,1.6E2,8E0,1.03E2,3E0,1.81E2,7.23E2,1.042E3,1.67E2,9.3E1,3.8E1,6.4E1,6E0,5.7E1,8.8E1,1.6E1,4.3E1,1.35E2,1E2,1.195E3,2.02E2,2.9E2,1.159E3,6.65E2,3.15E2,8E0,3.06E2,8E0,5E0,4E0,7.5E1,1.57E2,3E0,8E1,2.3E1,1.2E1,1.69E2,8.4E1,6.39E2,9.97E2,4.5E1,8.4E1,8.3E1,8.2E1,1.1E1,1.1E1,2.7E1,5.7E1,7E0,3E0,3E0,4.2E1,1.5E1,1E1,7.8E1,4E0,1.2E1,1.6E1,2.7E1,9.5E1,4E1,6.3E1,3.7E1,1.59E2,1.036E3,1.97E2,5E0,2.11E2,7.9E1,9.75E2,1.84E2,2.3E2,4.35E2,9.2E1,2.23E2,3E0,5E0,6.2E1,1.3E1,1.18E2,3.9E1,7.3E1,7E0,8.9E1,8E1,5.03E2,1.36E2,9.14E2,8.3E1,2.5E1,5.9E1,4E0,7.9E1,1.4E1,6.8E1,3E0,8E0,6E0,5E0,3.1E1,2.6E1,3E0,4E0,2.6E1,1.6E1,1.1E1,4E0,6E0,4E0,6E0,7.2E1,3E0,9E0,1.2E1,4E0,4E0,2.3E1,6.6E1,2.9E1,3.6E1,4E0,2.9E1,3.4E1,1E1,2.7E1,2.2E1,1.37E2,1.34E2,9.02E2,1.26E2,7.1E1,1.83E2,2.8E1,6.7E1,1.2E1,3.59E2,6.16E2,1.77E2,7E0,1.33E2,9.7E1,1.1E1,4.24E2,2.4E1,6.8E1,1.2E1,2.11E2,1.6E1,4.6E1,4.2E1,7.6E1,3.5E1,4E0,6.1E1,1.2E1,4E0,8.5E1,5E2,3E0,1.19E2,1.7E1,5.89E2,3.25E2,6E0,7.7E1,7E0,1.8E1,8E0,6E1,6E0,2.5E1,3E0,2.3E1,1.2E1,1.4E1,1.3E1,3E0,8E0,3E0,3E0,3E0,3E0,3E0,1.4E1,5.8E1,6E0,3E0,3E0,9E0,1.8E1,5E0,4.9E1,1.7E1,6E0,2.3E1,2.8E1,8E0,3E0,2.6E1,1.3E1,2.1E1,6E0,4E0,5E0,2.2E1,1.2E1,1E1,7.9E1,5.8E1,6.4E1,7E1,6E1,8.42E2,4E0,1.22E2,1.8E1,5.3E1,2.2E1,6E0,5.6E1,1.1E1,1E2,2.59E2,5.62E2,5.4E1,1.6E1,1.61E2,2.1E1,7.6E1,3E0,8E0,4.06E2,1.8E1,3E0,2.08E2],"tree_param":{"num_deleted":"0","num_feature":"10",