{"learner":{"attributes":{},"feature_names":[],"feature_types":[],"gradient_booster":{"model":{"cats":{"enc":[],"feature_segments":[],"sorted_idx":[]},"gbtree_model_param":{"num_parallel_tree":"1","num_trees":"8"},"iteration_indptr":[0,1,2,3,4,5,6,7,8],"tree_info":[0,0,0,0,0,0,0,0],"trees":[{"base_weights":[3.995343E-3,3.8632733E-1,-7.6580745E-1,-3.7147313E-1,7.439122E-1,-1.8818032E0,2.0712847E-1,-6.1261475E-1,-7.308903E-2,5.3855675E-1,9.479723E-1,-8.6629665E-1,-2.1735861E0,-8.017177E-2,4.331689E-1,-7.684305E-1,-4.7912776E-1,-1.8620016E-1,5.1951017E-2,3.1576014E-1,6.302624E-1,1.1098007E0,7.292321E-1,-3.8748443E-1,-1.0965437E0,-2.2997537E0,-1.2968031E0,-5.1804817E-1,-4.8189186E-3,3.472185E-1,4.5940834E-1,-8.822369E-2,-6.772095E-2,-5.1334864E-1,-3.7003018E-2,-2.9872486E-1,-1.3551854E-1,-1.7668279E-2,1.208552E-1,2.3448206E-1,3.7175906E-1,7.161315E-1,6.0144687E-1,9.266578E-1,1.2472214E0,7.9039735E-1,2.8166726E-1,-1.9986357E-1,-4.9149153E-1,-9.0717673E-1,-1.2909517E-1,-1.9036689E0,-2.409576E0,-1.5360823E-1,-1.0305752E-1,-6.231281E-2,-3.1490466E-1,-7.211987E-2,1.1865778E-1,3.0676913E-1,4.166453E-2,3.8065565E-1,4.65386E-1,-5.533245E-2,-4.8795322E-1,-3.1352046E-1,-1.9499011E-2,-1.6049959E-1,-8.7635934E-2,-4.519674E-3,-9.322345E-2,9.638426E-2,1.7606416E-1,1.644901E-1,2.5451496E-1,4.0005144E-1,3.3652142E-1,5.2063096E-2,7.332191E-1,5.8690953E-1,6.988373E-2,8.132326E-2,1.0090246E-1,1.2763439E-1,9.933176E-2,8.723717E-2,7.565912E-2,3.8671398E-1,4.2755913E-2,-1.3119878E-2,-2.2958329E-2,-3.6631E-2,-5.302457E-2,-6.1286848E-2,-9.52728E-2,-1.6681442E-1,-2.002141E-1,-2.4269834E-1,-1.9483274E-1,-1.664781E-2,-3.6805743E-1,-1.7070797E-1,-6.1743967E-2,1.4045456E-1,5.9742533E-2,2.517002E-1,3.4384E-1,4.471526E-2,3.0383945E-1,4.9188267E-2,4.4370523E-1,-2.8611338E-2,-4.9119577E-2,-2.7524501E-2,-3.569665E-2,-1.638268E-1,-4.2805806E-2,-4.2280644E-2,-1.4978199E-1,7.93374E-2,-1.19955335E-2,-2.410132E-2,-2.2360042E-2,1.0110036E-1,-3.2306287E-2,1.9486482E-1,7.949499E-2,2.172057E-2,1.1153054E-1,2.6763403E-1,2.1118988E-1,3.6378935E-2,4.303316E-2,3.6987733E-2,3.012446E-1,7.469183E-2,5.8378447E-2,5.2919336E-2,6.027205E-1,4.7127917E-1,3.006805E-1,-8.478383E-2,1.437097E-1,-3.9595377E-2,-1.4353554E-2,-9.36232E-3,-2.1065429E-1,-7.571191E-2,-5.2991556E-3,1.7535394E-2,1.5081058E-1,-4.6283193E-2,9.538015E-2,2.6254314E-1,6.137041E-3,3.7403524E-2,2.1624048E-1,4.2270314E-2,2.300307E-1,4.1735956E-1,4.9969967E-2,-1.3720694E-2,-1.8171694E-2,-7.4798497E-3,1.4119718E-3,-5.285287E-3,7.189773E-3,-1.9483324E-2,-1.0816138E-2,9.328775E-3,2.8114773E-3,-1.020817E-2,-1.4732048E-4,1.7453449E-4,-8.538312E-3,-2.1907336E-3,1.0345057E-2,4.0117637E-3,-9.396145E-3,1.0340858E-2,2.0177051E-2,6.821198E-4,9.681079E-3,1.7067036E-2,8.932248E-3,1.0932389E-2,2.6945246E-2,2.1546224E-2,8.525259E-3,2.1059921E-2,3.1611145E-2,6.7779794E-2,5.629465E-2,3.0184347E-2,5.214526E-2,3.1101376E-2,1.4801082E-2,-1.0404991E-2,1.4119718E-3,1.7030695E-2,8.518371E-3,2.4473348E-3,-4.0857415E-3,-2.515353E-2,-1.4881203E-2,-2.1284476E-3,-8.964327E-3,1.2927798E-2,-2.297351E-3,-2.7651016E-3,3.7936678E-3,1.2040723E-2,1.7247975E-2,2.6297658E-3,-8.146332E-3,1.1186476E-2,8.7511505E-4,2.723206E-2,8.935541E-3,2.9776288E-2,1.0768804E-2,2.6174044E-2,1.0157927E-2,1.2220087E-2,4.1965425E-2],"categories":[],"categories_nodes":[],"categories_segments":[],"categories_sizes":[],"default_left":[0,0,0,0,0,0,0,0,0,0,0,0,0,0,0,0,0,0,0,0,0,0,0,0,0,0,0,0,0,0,0,0,0,0,0,0,0,0,0,0,0,0,0,0,0,0,0,0,0,0,0,0,0,0,0,0,0,0,0,0,0,0,0,0,0,0,0,0,0,0,0,0,0,0,0,0,0,0,0,0,0,0,0,0,0,0,0,0,0,0,0,0,0,0,0,0,0,0,0,0,0,0,0,0,0,0,0,0,0,0,0,0,0,0,0,0,0,0,0,0,0,0,0,0,0,0,0,0,0,0,0,0,0,0,0,0,0,0,0,0,0,0,0,0,0,0,0,0,0,0,0,0,0,0,0,0,0,0,0,0,0,0,0,0,0,0,0,0,0,0,0,0,0,0,0,0,0,0,0,0,0,0,0,0,0,0,0,0,0,0,0,0,0,0,0,0,0,0,0,0,0,0,0,0,0,0,0,0,0,0,0,0,0,0,0,0,0,0,0,0,0,0,0,0,0],"id":0,"left_children":[1,3,5,7,9,11,13,15,17,19,21,23,25,27,29,31,33,35,37,39,41,43,45,47,49,51,53,55,57,59,61,-1,-1,63,-1,65,67,69,71,73,75,77,79,81,83,85,87,89,91,93,-1,95,97,-1,-1,-1,99,101,103,105,-1,107,109,-1,111,113,-1,115,117,119,121,123,125,127,129,131,133,-1,135,137,-1,-1,-1,-1,-1,-1,-1,139,141,-1,-1,-1,-1,-1,-1,-1,-1,-1,-1,-1,143,145,147,149,151,153,155,-1,157,-1,159,-1,-1,-1,-1,161,163,165,167,169,171,-1,173,175,177,179,181,-1,183,185,187,-1,-1,-1,189,-1,-1,-1,191,193,195,197,199,-1,-1,201,203,205,207,209,211,213,215,217,-1,-1,219,-1,221,223,-1,-1,-1,-1,-1,-1,-1,-1,-1,-1,-1,-1,-1,-1,-1,-1,-1,-1,-1,-1,-1,-1,-1,-1,-1,-1,-1,-1,-1,-1,-1,-1,-1,-1,-1,-1,-1,-1,-1,-1,-1,-1,-1,-1,-1,-1,-1,-1,-1,-1,-1,-1,-1,-1,-1,-1,-1,-1,-1,-1,-1,-1,-1,-1,-1],"loss_changes":[2.1782656E3,1.3402625E3,2.667096E3,1.1407242E2,1.402898E2,3.3709253E2,8.530288E1,1.7872864E1,1.0051503E1,3.406488E1,5.8801636E1,2.7908096E1,9.524951E1,1.9101746E1,1.4981232E0,3.5862885E0,1.5834122E0,2.08671E0,1.6235418E0,2.147606E0,2.5063782E0,2.3156128E1,1.9460297E1,1.5604515E0,5.1977844E0,2.9124512E1,5.679062E0,1.6182117E0,4.1220565E0,3.6644363E-1,8.646393E-2,0E0,0E0,9.445953E-2,0E0,1.15371704E-1,2.9573965E-1,1.674709E-1,2.1270275E-1,2.427702E-1,1.5349579E-1,5.970764E-1,8.569641E-1,3.0845947E0,2.791687E0,1.0914001E0,2.1919885E0,3.5181284E-2,6.773567E-2,6.360626E-1,0E0,6.724243E-1,1.1328125E-1,0E0,0E0,0E0,1.8329453E-1,3.178239E-1,2.163372E-1,1.4822292E-1,0E0,9.3999386E-2,7.8178406E-2,0E0,8.682251E-3,6.637478E-2,0E0,5.9165955E-2,2.501644E-1,9.185275E-2,2.5643307E-1,7.6096416E-2,7.71029E-2,1.0978103E-1,3.2146454E-2,1.3641357E-2,4.7429085E-2,0E0,1.1054993E-1,3.973999E-1,0E0,0E0,0E0,0E0,0E0,0E0,0E0,3.0209732E-1,3.7270164E-1,0E0,0E0,0E0,0E0,0E0,0E0,0E0,0E0,0E0,0E0,0E0,8.09598E-2,1.913827E-1,2.298168E-1,1.5902066E-1,1.8956122E-1,8.707428E-2,1.7340994E-1,0E0,1.1332178E-1,0E0,2.2515488E-1,0E0,0E0,0E0,0E0,5.316925E-2,1.1983338E-2,6.898445E-2,5.0178826E-2,5.9521124E-3,1.2687038E-1,0E0,2.7494542E-2,3.5801172E-2,2.6096057E-2,5.661249E-3,1.1923686E-2,0E0,1.8903196E-2,3.93486E-3,3.6911964E-3,0E0,0E0,0E0,2.9107094E-2,0E0,0E0,0E0,1.4369812E0,8.913708E-2,6.026745E-3,2.6240438E-2,1.0398716E-2,0E0,0E0,8.4595205E-3,2.3244739E-2,1.7552209E-1,1.4330523E-1,1.1189454E-2,5.6313753E-2,3.533653E-2,5.1858723E-2,5.5253267E-2,0E0,0E0,1.0067636E-1,0E0,4.2656302E-2,8.824158E-2,0E0,0E0,0E0,0E0,0E0,0E0,0E0,0E0,0E0,0E0,0E0,0E0,0E0,0E0,0E0,0E0,0E0,0E0,0E0,0E0,0E0,0E0,0E0,0E0,0E0,0E0,0E0,0E0,0E0,0E0,0E0,0E0,0E0,0E0,0E0,0E0,0E0,0E0,0E0,0E0,0E0,0E0,0E0,0E0,0E0,0E0,0E0,0E0,0E0,0E0,0E0,0E0,0E0,0E0,0E0,0E0,0E0,0E0,0E0,0E0,0E0,0E0,0E0,0E0,0E0],"parents":[2147483647,0,0,1,1,2,2,3,3,4,4,5,5,6,6,7,7,8,8,9,9,10,10,11,11,12,12,13,13,14,14,15,15,16,16,17,17,18,18,19,19,20,20,21,21,22,22,23,23,24,24,25,25,26,26,27,27,28,28,29,29,30,30,33,33,35,35,36,36,37,37,38,38,39,39,40,40,41,41,42,42,43,43,44,44,45,45,46,46,47,47,48,48,49,49,51,51,52,52,56,56,57,57,58,58,59,59,61,61,62,62,64,64,65,65,67,67,68,68,69,69,70,70,71,71,72,72,73,73,74,74,75,75,76,76,78,78,79,79,87,87,88,88,100,100,101,101,102,102,103,103,104,104,105,105,106,106,108,108,110,110,115,115,116,116,117,117,118,118,119,119,120,120,122,122,123,123,124,124,125,125,126,126,128,128,129,129,130,130,134,134,138,138,139,139,140,140,141,141,142,142,145,145,146,146,147,147,148,148,149,149,150,150,151,151,152,152,153,153,156,156,158,158,159,159],"right_children":[2,4,6,8,10,12,14,16,18,20,22,24,26,28,30,32,34,36,38,40,42,44,46,48,50,52,54,56,58,60,62,-1,-1,64,-1,66,68,70,72,74,76,78,80,82,84,86,88,90,92,94,-1,96,98,-1,-1,-1,100,102,104,106,-1,108,110,-1,112,114,-1,116,118,120,122,124,126,128,130,132,134,-1,136,138,-1,-1,-1,-1,-1,-1,-1,140,142,-1,-1,-1,-1,-1,-1,-1,-1,-1,-1,-1,144,146,148,150,152,154,156,-1,158,-1,160,-1,-1,-1,-1,162,164,166,168,170,172,-1,174,176,178,180,182,-1,184,186,188,-1,-1,-1,190,-1,-1,-1,192,194,196,198,200,-1,-1,202,204,206,208,210,212,214,216,218,-1,-1,220,-1,222,224,-1,-1,-1,-1,-1,-1,-1,-1,-1,-1,-1,-1,-1,-1,-1,-1,-1,-1,-1,-1,-1,-1,-1,-1,-1,-1,-1,-1,-1,-1,-1,-1,-1,-1,-1,-1,-1,-1,-1,-1,-1,-1,-1,-1,-1,-1,-1,-1,-1,-1,-1,-1,-1,-1,-1,-1,-1,-1,-1,-1,-1,-1,-1,-1,-1],"split_conditions":[5.791169E-1,-9.872548E-1,1.1218003E0,-1.3249344E0,-2.0451266E-1,7.0247424E-1,1.3951389E0,-1.5410315E0,-1.1492168E0,-7.569582E-1,2.4276854E-1,6.212714E-1,1.0672214E0,1.1626236E0,1.4763417E0,-1.649302E0,-1.3790696E0,-1.2707992E0,-1.0675701E0,-8.9185256E-1,-2.5883833E-1,-1.3708179E-2,5.391811E-1,5.959787E-1,6.625384E-1,7.841208E-1,1.0942891E0,1.148868E0,1.3143798E0,8.386037E-1,1.375082E0,-8.822369E-2,-6.772095E-2,-1.242904E0,-3.7003018E-2,-5.3999895E-1,-1.19004E0,-5.084092E-1,-1.1153251E0,-5.2065897E-1,-1.0640954E0,-6.486877E-1,-2.5687295E-1,-1.2330982E-1,2.1436974E-1,3.239714E-1,5.6713617E-1,-6.8058264E-1,-1.2246344E0,7.532267E-1,-1.2909517E-1,7.2954184E-1,1.0543532E0,-1.5360823E-1,-1.0305752E-1,-6.231281E-2,-8.1198746E-1,1.1759356E0,9.601693E-1,1.4222065E0,4.166453E-2,8.386037E-1,1.5979241E0,-5.533245E-2,-7.5538087E-1,4.91111E-1,-1.9499011E-2,-9.8795986E-1,4.2595667E-1,-6.8058264E-1,-1.268071E0,-1.1487474E0,4.91111E-1,-8.171238E-1,-7.5538087E-1,2.5221032E-1,3.390835E-1,5.2063096E-2,-3.967341E-1,-6.6288716E-1,6.988373E-2,8.132326E-2,1.0090246E-1,1.2763439E-1,9.933176E-2,8.723717E-2,7.565912E-2,5.520493E-1,6.648573E-1,-1.3119878E-2,-2.2958329E-2,-3.6631E-2,-5.302457E-2,-6.1286848E-2,-9.52728E-2,-1.6681442E-1,-2.002141E-1,-2.4269834E-1,-1.9483274E-1,-1.664781E-2,2.7392915E-1,8.603225E-1,1.2873122E0,-5.3999895E-1,7.300137E-1,4.5554852E-1,6.648573E-1,4.471526E-2,1.3128953E0,4.9188267E-2,1.6924388E0,-2.8611338E-2,-4.9119577E-2,-2.7524501E-2,-3.569665E-2,-5.084092E-1,-4.4666633E-1,3.608023E-1,5.9970295E-1,-1.432841E0,-4.530972E-1,-2.410132E-2,3.0348295E-1,-1.242904E0,6.2142175E-1,-1.3677648E0,-1.2086663E0,2.172057E-2,-1.3286339E0,-2.5883833E-1,-6.359117E-1,3.6378935E-2,4.303316E-2,3.6987733E-2,4.91111E-1,7.469183E-2,5.8378447E-2,5.2919336E-2,-2.2962E-1,-6.382401E-1,-6.8058264E-1,6.431406E-1,7.7306646E-1,-3.9595377E-2,-1.4353554E-2,9.7342193E-1,9.6891445E-1,-7.35635E-2,4.8862115E-1,1.2507086E0,6.647074E-1,4.6939427E-1,8.499361E-1,6.732479E-1,6.137041E-3,3.7403524E-2,7.2522056E-1,4.2270314E-2,1.0414504E0,7.7779984E-1,4.9969967E-2,-1.3720694E-2,-1.8171694E-2,-7.4798497E-3,1.4119718E-3,-5.285287E-3,7.189773E-3,-1.9483324E-2,-1.0816138E-2,9.328775E-3,2.8114773E-3,-1.020817E-2,-1.4732048E-4,1.7453449E-4,-8.538312E-3,-2.1907336E-3,1.0345057E-2,4.0117637E-3,-9.396145E-3,1.0340858E-2,2.0177051E-2,6.821198E-4,9.681079E-3,1.7067036E-2,8.932248E-3,1.0932389E-2,2.6945246E-2,2.1546224E-2,8.525259E-3,2.1059921E-2,3.1611145E-2,6.7779794E-2,5.629465E-2,3.0184347E-2,5.214526E-2,3.1101376E-2,1.4801082E-2,-1.0404991E-2,1.4119718E-3,1.7030695E-2,8.518371E-3,2.4473348E-3,-4.0857415E-3,-2.515353E-2,-1.4881203E-2,-2.1284476E-3,-8.964327E-3,1.2927798E-2,-2.297351E-3,-2.7651016E-3,3.7936678E-3,1.2040723E-2,1.7247975E-2,2.6297658E-3,-8.146332E-3,1.1186476E-2,8.7511505E-4,2.723206E-2,8.935541E-3,2.9776288E-2,1.0768804E-2,2.6174044E-2,1.0157927E-2,1.2220087E-2,4.1965425E-2],"split_indices":[9,9,9,9,9,9,9,9,9,9,9,9,9,9,9,9,9,9,9,9,3,9,9,9,9,9,9,9,9,2,6,0,0,3,0,3,9,5,7,4,5,9,9,9,9,9,9,3,2,6,0,9,9,0,0,0,2,9,4,9,0,2,9,0,5,2,0,6,2,3,2,7,2,5,5,2,2,0,7,9,0,0,0,0,0,0,0,9,2,0,0,0,0,0,0,0,0,0,0,0,2,2,9,3,2,7,2,0,6,0,9,0,0,0,0,5,5,2,2,7,4,0,3,3,2,8,8,0,4,3,8,0,0,0,2,0,0,0,7,2,3,2,7,0,0,5,2,2,4,6,5,2,5,8,0,0,3,0,8,8,0,0,0,0,0,0,0,0,0,0,0,0,0,0,0,0,0,0,0,0,0,0,0,0,0,0,0,0,0,0,0,0,0,0,0,0,0,0,0,0,0,0,0,0,0,0,0,0,0,0,0,0,0,0,0,0,0,0,0,0,0,0,0,0,0],"split_type":[0,0,0,0,0,0,0,0,0,0,0,0,0,0,0,0,0,0,0,0,0,0,0,0,0,0,0,0,0,0,0,0,0,0,0,0,0,0,0,0,0,0,0,0,0,0,0,0,0,0,0,0,0,0,0,0,0,0,0,0,0,0,0,0,0,0,0,0,0,0,0,0,0,0,0,0,0,0,0,0,0,0,0,0,0,0,0,0,0,0,0,0,0,0,0,0,0,0,0,0,0,0,0,0,0,0,0,0,0,0,0,0,0,0,0,0,0,0,0,0,0,0,0,0,0,0,0,0,0,0,0,0,0,0,0,0,0,0,0,0,0,0,0,0,0,0,0,0,0,0,0,0,0,0,0,0,0,0,0,0,0,0,0,0,0,0,0,0,0,0,0,0,0,0,0,0,0,0,0,0,0,0,0,0,0,0,0,0,0,0,0,0,0,0,0,0,0,0,0,0,0,0,0,0,0,0,0,0,0,0,0,0,0,0,0,0,0,0,0,0,0,0,0,0,0],"sum_hessian":[7.399E3,4.944E3,2.455E3,1.585E3,3.359E3,1.143E3,1.312E3,8.76E2,7.09E2,1.676E3,1.683E3,2.56E2,8.87E2,5.78E2,7.34E2,4.02E2,4.74E2,3.72E2,3.37E2,4.9E2,1.186E3,9.65E2,7.18E2,8.4E1,1.72E2,7.74E2,1.13E2,8.4E1,4.94E2,1.75E2,5.59E2,1.75E2,2.27E2,3.58E2,1.16E2,1.14E2,2.58E2,1.68E2,1.69E2,2.02E2,2.88E2,2.92E2,8.94E2,4.17E2,5.48E2,6.31E2,8.7E1,3.1E1,5.3E1,9E1,8.2E1,1.72E2,6.02E2,5.7E1,5.6E1,5.4E1,3E1,3.2E2,1.74E2,1.14E2,6.1E1,4.4E1,5.15E2,1.31E2,2.27E2,9.8E1,1.6E1,1.68E2,9E1,1.44E2,2.4E1,1.19E2,5E1,4.7E1,1.55E2,1.54E2,1.34E2,2.6E1,2.66E2,7.84E2,1.1E2,1.8E2,2.37E2,4.88E2,6E1,1.77E2,4.54E2,6E1,2.7E1,1.1E1,2E1,1.5E1,3.8E1,1.4E1,7.6E1,5.6E1,1.16E2,5.76E2,2.6E1,9E0,2.1E1,2.9E1,2.91E2,1.26E2,4.8E1,4.9E1,6.5E1,2.1E1,2.3E1,2.22E2,2.93E2,5E0,2.22E2,5.6E1,4.2E1,1.63E2,5E0,5.3E1,3.7E1,1.1E1,1.33E2,7E0,1.7E1,1.15E2,4E0,4.1E1,9E0,2.2E1,2.5E1,1.15E2,4E1,7.6E1,7.8E1,6.4E1,7E1,2.4E2,2.6E1,1.76E2,6.08E2,2.8E1,3.2E1,1.2E1,1.5E1,1.8E1,3E0,6E0,2.3E1,2.33E2,5.8E1,1E1,1.16E2,1.2E1,3.6E1,4.6E1,3E0,5.1E1,1.4E1,7E0,1.6E1,2.05E2,8.8E1,6.9E1,9.4E1,3E0,2E0,4.9E1,4E0,1.6E1,2.1E1,8E0,3E0,1.3E1,1.2E2,1.3E1,4E0,2E0,1.13E2,2E0,2E0,4E0,3.7E1,2E0,7E0,5E0,2E1,2E0,1.13E2,3.8E1,2E0,1.2E1,5.8E1,2.05E2,4.03E2,8E0,2E1,2.9E1,3E0,1E1,2E0,9E0,6E0,3E0,3E0,1.2E1,1.1E1,4.8E1,1.85E2,6E0,5.2E1,3E0,7E0,5.1E1,6.5E1,4E0,8E0,3E1,6E0,4.3E1,3E0,7E0,7E0,1.2E1,4E0,2E0,2.03E2],"tree_param":{"num_deleted":"0","num_feature":"10","num_nodes":"225","size_leaf_vector":"1"}},{"base_weights":[-1.4642591E-3,-2.153779E0,1.2373475E-1,-3.0531304E-2,-2.2403644E-1,3.469178E-1,-4.1058236E-1,-4.8323173E-2,3.9373063E-3,-3.331754E-1,6.70533E-1,-1.499733E0,1.6405879E-1,-2.3244362E-2,-7.7887527E-3,-5.543508E-1,-6.669519E-2,4.8466694E-1,8.548954E-1,-1.9066379E0,-1.0258043E0,-9.834032E-2,3.9117306E-1,-3.3853673E-3,-1.5193038E-4,-6.929276E-1,-4.315687E-1,-1.7352654E-1,4.4524744E-2,2.9426396E-1,5.698788E-1,1.0030925E0,6.5693676E-1,-2.0129076E-1,-1.6509232E-1,-1.3795868E-1,-9.20763E-1,-4.0662092E-1,-4.312186E-3,2.450835E-1,4.0325382E-1,-7.9665326E-2,-6.1160304E-2,-4.642801E-1,-3.2915015E-2,-2.6613656E-1,-1.2964706E-1,-1.7547904E-2,1.0955215E-1,2.1215264E-1,3.47196E-1,6.4067E-1,5.448217E-1,8.337837E-1,1.1261936E0,7.11357E-1,2.61276E-1,-6.746597E-1,-9.980756E-1,-1.8757695E-1,-4.588641E-1,-6.3639954E-2,1.0629468E-1,2.799958E-1,7.045851E-2,3.546951E-1,4.1986975E-1,-5.2649677E-2,-4.5063847E-1,-3.1223435E-2,-2.334429E-1,-1.476127E-1,-8.5863754E-2,-6.5494985E-3,-8.6795844E-2,8.5230395E-2,1.555144E-1,1.4268759E-1,2.3068209E-1,3.7407985E-1,3.067851E-1,4.708399E-2,6.594719E-1,5.3108126E-1,6.299577E-1,7.2957563E-1,9.066405E-2,1.1519895E0,8.9925E-2,7.83486E-2,6.826519E-2,3.527978E-1,3.804827E-2,-3.8776323E-1,-7.529734E-2,-1.093087E0,-7.2974795E-1,-1.0614046E-2,-2.0774718E-2,-5.146625E-1,-2.6987383E-1,-1.5201287E-1,-5.4147553E-2,1.282729E-1,4.8218872E-2,1.0404617E-2,2.853839E-1,9.496634E-2,3.8282239E-4,3.5950705E-1,1.86475E-1,4.524243E-1,4.0417334E-1,-4.0705126E-2,-4.6641774E-2,-2.481653E-2,-1.7467089E-2,-1.5050776E-2,-3.953654E-3,-1.0127626E-2,-4.3429583E-3,2.105069E-3,-4.2854827E-3,-1.9791834E-2,-1.1919548E-3,9.981559E-3,5.387461E-3,7.963085E-3,1.6758082E-2,1.8403828E-2,6.1322367E-3,1.9269828E-2,2.4703493E-2,3.8169276E-2,2.4457993E-2,3.0863447E-2,1.2500188E-2,6.6957936E-2,5.244522E-2,5.5547398E-2,5.0663956E-2,6.423067E-2,4.1451804E-2,7.545948E-2,5.0044913E-2,1.1030408E-1,1.2281966E-1,4.309995E-2,2.7341986E-2,6.181234E-3,-1.1404818E-2,-4.409137E-2,-1.1808341E-2,-1.2540883E-1,-1.0104896E-1,-6.107954E-2,-8.4330104E-2,-3.7919886E-2,-5.5550523E-2,-1.4592784E-2,-3.1835314E-2,4.3895195E-4,-1.8346893E-2,-6.6785323E-3,-3.3165808E-4,3.35419E-3,1.3462647E-2,9.225186E-3,-3.6540168E-4,2.994073E-2,1.8134698E-2,1.0028356E-3,1.2160761E-2,2.2272218E-2,3.6313124E-2,2.7935345E-2,9.345294E-3,3.959548E-2,4.770182E-2,3.9003994E-2,4.4423018E-2],"categories":[],"categories_nodes":[],"categories_segments":[],"categories_sizes":[],"default_left":[0,0,0,0,0,0,0,0,0,0,0,0,0,0,0,0,0,0,0,0,0,0,0,0,0,0,0,0,0,0,0,0,0,0,0,0,0,0,0,0,0,0,0,0,0,0,0,0,0,0,0,0,0,0,0,0,0,0,0,0,0,0,0,0,0,0,0,0,0,0,0,0,0,0,0,0,0,0,0,0,0,0,0,0,0,0,0,0,0,0,0,0,0,0,0,0,0,0,0,0,0,0,0,0,0,0,0,0,0,0,0,0,0,0,0,0,0,0,0,0,0,0,0,0,0,0,0,0,0,0,0,0,0,0,0,0,0,0,0,0,0,0,0,0,0,0,0,0,0,0,0,0,0,0,0,0,0,0,0,0,0,0,0,0,0,0,0,0,0,0,0,0,0,0,0,0,0,0,0,0,0],"id":1,"left_children":[1,3,5,7,-1,9,11,13,-1,15,17,19,21,23,-1,25,27,29,31,33,35,37,39,-1,-1,41,43,45,47,49,51,53,55,-1,-1,-1,57,59,61,63,65,-1,-1,67,-1,69,71,73,75,77,79,81,83,85,87,89,91,93,95,97,99,101,103,105,107,109,111,-1,113,-1,115,117,119,121,123,125,127,129,131,133,135,-1,137,139,141,143,-1,145,-1,-1,-1,147,149,151,-1,153,155,-1,-1,157,159,161,163,165,167,-1,169,171,-1,173,175,177,179,-1,-1,-1,-1,-1,-1,-1,-1,-1,-1,-1,-1,-1,-1,-1,-1,-1,-1,-1,-1,-1,-1,-1,-1,-1,-1,-1,-1,-1,-1,-1,-1,-1,-1,-1,-1,-1,-1,-1,-1,-1,-1,-1,-1,-1,-1,-1,-1,-1,-1,-1,-1,-1,-1,-1,-1,-1,-1,-1,-1,-1,-1,-1,-1,-1,-1,-1,-1],"loss_changes":[1.9999861E3,7.493921E1,8.365657E2,2.3046032E-2,0E0,1.0892214E3,1.2939209E3,8.569699E-3,0E0,9.402948E1,1.1448193E2,1.3573462E2,8.072954E1,2.0229574E-3,0E0,1.4537811E1,8.622013E0,2.6959808E1,4.868567E1,7.084717E0,1.1067413E1,1.82311E1,1.1824722E0,0E0,0E0,2.954422E0,1.4050446E0,1.4690571E0,1.4388891E0,2.1820831E0,1.6979675E0,1.9069397E1,1.5381744E1,0E0,0E0,0E0,4.254608E0,1.5961285E0,3.1762388E0,3.3387232E-1,3.9085388E-1,0E0,0E0,5.9806824E-2,0E0,1.0494995E-1,1.8633366E-1,1.3880745E-1,1.8125725E-1,2.3223782E-1,2.2636795E-1,6.3466644E-1,6.7030334E-1,2.4361877E0,2.201477E0,7.799072E-1,1.8048644E0,1.1684418E0,4.173691E0,2.7227283E-2,1.1054592E0,2.5601327E-1,2.095269E-1,1.5812874E-2,1.7599046E-2,7.6236725E-2,6.906128E-2,0E0,1.234436E-2,0E0,1.9816875E-2,4.9743414E-2,4.530692E-2,1.6022553E-1,2.0565191E-1,4.767275E-2,4.0678263E-2,1.4348167E-1,5.240059E-2,8.804512E-2,5.458832E-3,0E0,9.117126E-3,1.6333008E-1,3.7044525E-2,6.140976E-1,0E0,4.8425293E-1,0E0,0E0,0E0,2.7322817E-1,1.0463919E-1,1.7727304E-1,0E0,6.2109375E-1,2.1431923E-1,0E0,0E0,2.872963E-1,1.277988E-1,1.4839941E-1,1.8350208E-1,6.891346E-2,1.0997477E-1,0E0,1.2814999E-2,1.6883321E-2,0E0,3.8928986E-3,3.4371793E-2,2.2222519E-2,2.035141E-2,0E0,0E0,0E0,0E0,0E0,0E0,0E0,0E0,0E0,0E0,0E0,0E0,0E0,0E0,0E0,0E0,0E0,0E0,0E0,0E0,0E0,0E0,0E0,0E0,0E0,0E0,0E0,0E0,0E0,0E0,0E0,0E0,0E0,0E0,0E0,0E0,0E0,0E0,0E0,0E0,0E0,0E0,0E0,0E0,0E0,0E0,0E0,0E0,0E0,0E0,0E0,0E0,0E0,0E0,0E0,0E0,0E0,0E0,0E0,0E0,0E0,0E0,0E0,0E0,0E0,0E0,0E0,0E0],"parents":[2147483647,0,0,1,1,2,2,3,3,5,5,6,6,7,7,9,9,10,10,11,11,12,12,13,13,15,15,16,16,17,17,18,18,19,19,20,20,21,21,22,22,25,25,26,26,27,27,28,28,29,29,30,30,31,31,32,32,36,36,37,37,38,38,39,39,40,40,43,43,45,45,46,46,47,47,48,48,49,49,50,50,51,51,52,52,53,53,54,54,55,55,56,56,57,57,58,58,59,59,60,60,61,61,62,62,63,63,64,64,65,65,66,66,68,68,70,70,71,71,72,72,73,73,74,74,75,75,76,76,77,77,78,78,79,79,80,80,82,82,83,83,84,84,85,85,87,87,91,91,92,92,93,93,95,95,96,96,99,99,100,100,101,101,102,102,103,103,104,104,106,106,107,107,109,109,110,110,111,111,112,112],"right_children":[2,4,6,8,-1,10,12,14,-1,16,18,20,22,24,-1,26,28,30,32,34,36,38,40,-1,-1,42,44,46,48,50,52,54,56,-1,-1,-1,58,60,62,64,66,-1,-1,68,-1,70,72,74,76,78,80,82,84,86,88,90,92,94,96,98,100,102,104,106,108,110,112,-1,114,-1,116,118,120,122,124,126,128,130,132,134,136,-1,138,140,142,144,-1,146,-1,-1,-1,148,150,152,-1,154,156,-1,-1,158,160,162,164,166,168,-1,170,172,-1,174,176,178,180,-1,-1,-1,-1,-1,-1,-1,-1,-1,-1,-1,-1,-1,-1,-1,-1,-1,-1,-1,-1,-1,-1,-1,-1,-1,-1,-1,-1,-1,-1,-1,-1,-1,-1,-1,-1,-1,-1,-1,-1,-1,-1,-1,-1,-1,-1,-1,-1,-1,-1,-1,-1,-1,-1,-1,-1,-1,-1,-1,-1,-1,-1,-1,-1,-1,-1,-1,-1],"split_conditions":[-1.2969921E0,-4.1579413E-1,5.791169E-1,-3.1935376E-1,-2.2403644E-1,-9.872548E-1,5.477163E-1,-1.3268577E0,3.9373063E-3,-1.3249344E0,-2.0451266E-1,2.0658582E-2,1.3951389E0,-1.4223168E0,-7.7887527E-3,-1.5410315E0,-1.1492168E0,-7.432025E-1,2.4276854E-1,-5.0639915E-1,2.8418747E-1,1.1626236E0,1.4222065E0,-3.3853673E-3,-1.5193038E-4,-1.649302E0,-1.3790696E0,-1.2707992E0,-1.0675701E0,-8.9185256E-1,-2.5883833E-1,-1.3708179E-2,5.391811E-1,-2.0129076E-1,-1.6509232E-1,-1.3795868E-1,6.48339E-1,5.959787E-1,1.3143798E0,5.069344E-1,1.5034093E0,-7.9665326E-2,-6.1160304E-2,-1.5139639E0,-3.2915015E-2,-1.1023203E0,-1.19004E0,-5.084092E-1,-1.0143224E0,-5.2065897E-1,-1.0640954E0,-6.486877E-1,-2.5687295E-1,-1.2330982E-1,2.1436974E-1,3.239714E-1,5.6713617E-1,6.212714E-1,1.1084884E0,-6.8058264E-1,1.148868E0,1.1759356E0,9.601693E-1,7.3214576E-2,1.1586506E0,1.1505433E0,1.4281255E0,-5.2649677E-2,-1.4735843E0,-3.1223435E-2,-5.3999895E-1,-9.8795986E-1,1.3882104E-1,1.6047473E-1,-2.5883833E-1,-3.99422E-1,-4.875671E-1,3.1205112E-1,-9.6018714E-1,3.553585E-1,8.6580426E-1,4.708399E-2,-6.9363797E-1,-4.4767743E-1,4.4197333E-1,3.7701222E-1,9.066405E-2,3.548777E-1,8.9925E-2,7.83486E-2,6.826519E-2,5.520493E-1,1.3130087E0,2.6874322E-1,-7.529734E-2,6.9130445E-1,2.9039744E-1,-1.0614046E-2,-2.0774718E-2,6.2885326E-1,1.8212843E-1,2.131024E0,1.2873122E0,-5.3999895E-1,1.3276917E0,1.0404617E-2,4.8528072E-1,2.6868463E-1,3.8282239E-4,3.3686507E-1,1.1586506E0,1.5304769E0,1.6924388E0,-4.0705126E-2,-4.6641774E-2,-2.481653E-2,-1.7467089E-2,-1.5050776E-2,-3.953654E-3,-1.0127626E-2,-4.3429583E-3,2.105069E-3,-4.2854827E-3,-1.9791834E-2,-1.1919548E-3,9.981559E-3,5.387461E-3,7.963085E-3,1.6758082E-2,1.8403828E-2,6.1322367E-3,1.9269828E-2,2.4703493E-2,3.8169276E-2,2.4457993E-2,3.0863447E-2,1.2500188E-2,6.6957936E-2,5.244522E-2,5.5547398E-2,5.0663956E-2,6.423067E-2,4.1451804E-2,7.545948E-2,5.0044913E-2,1.1030408E-1,1.2281966E-1,4.309995E-2,2.7341986E-2,6.181234E-3,-1.1404818E-2,-4.409137E-2,-1.1808341E-2,-1.2540883E-1,-1.0104896E-1,-6.107954E-2,-8.4330104E-2,-3.7919886E-2,-5.5550523E-2,-1.4592784E-2,-3.1835314E-2,4.3895195E-4,-1.8346893E-2,-6.6785323E-3,-3.3165808E-4,3.35419E-3,1.3462647E-2,9.225186E-3,-3.6540168E-4,2.994073E-2,1.8134698E-2,1.0028356E-3,1.2160761E-2,2.2272218E-2,3.6313124E-2,2.7935345E-2,9.345294E-3,3.959548E-2,4.770182E-2,3.9003994E-2,4.4423018E-2],"split_indices":[1,5,9,4,0,9,1,8,0,9,9,1,9,8,0,9,9,9,9,1,1,9,9,0,0,9,9,9,9,9,3,9,9,0,0,0,9,9,9,0,9,0,0,9,0,3,9,5,9,4,5,9,9,9,9,9,9,9,9,3,9,9,4,8,5,8,3,0,9,0,3,6,0,0,3,3,4,0,9,0,3,0,5,9,0,0,0,4,0,0,0,9,5,0,0,4,0,0,0,6,0,3,9,3,9,0,0,8,0,8,5,9,9,0,0,0,0,0,0,0,0,0,0,0,0,0,0,0,0,0,0,0,0,0,0,0,0,0,0,0,0,0,0,0,0,0,0,0,0,0,0,0,0,0,0,0,0,0,0,0,0,0,0,0,0,0,0,0,0,0,0,0,0,0,0,0,0,0,0,0,0],"split_type":[0,0,0,0,0,0,0,0,0,0,0,0,0,0,0,0,0,0,0,0,0,0,0,0,0,0,0,0,0,0,0,0,0,0,0,0,0,0,0,0,0,0,0,0,0,0,0,0,0,0,0,0,0,0,0,0,0,0,0,0,0,0,0,0,0,0,0,0,0,0,0,0,0,0,0,0,0,0,0,0,0,0,0,0,0,0,0,0,0,0,0,0,0,0,0,0,0,0,0,0,0,0,0,0,0,0,0,0,0,0,0,0,0,0,0,0,0,0,0,0,0,0,0,0,0,0,0,0,0,0,0,0,0,0,0,0,0,0,0,0,0,0,0,0,0,0,0,0,0,0,0,0,0,0,0,0,0,0,0,0,0,0,0,0,0,0,0,0,0,0,0,0,0,0,0,0,0,0,0,0,0],"sum_hessian":[7.42E3,4.07E2,7.013E3,1.6E1,3.91E2,4.947E3,2.066E3,1.3E1,3E0,1.595E3,3.352E3,7.13E2,1.353E3,8E0,5E0,8.71E2,7.24E2,1.671E3,1.681E3,3.82E2,3.31E2,6.28E2,7.25E2,5E0,3E0,4.07E2,4.64E2,3.69E2,3.55E2,5.18E2,1.153E3,9.59E2,7.22E2,2.65E2,1.17E2,7.3E1,2.58E2,1.46E2,4.82E2,5.7E1,6.68E2,1.75E2,2.32E2,3.49E2,1.15E2,1.17E2,2.52E2,1.82E2,1.73E2,2.05E2,3.13E2,2.95E2,8.58E2,4.07E2,5.52E2,6.34E2,8.8E1,6.4E1,1.94E2,2.9E1,1.17E2,3.14E2,1.68E2,4.7E1,1E1,1.76E2,4.92E2,5.6E1,2.93E2,4.5E1,7.2E1,1.77E2,7.5E1,1.58E2,2.4E1,1.15E2,5.8E1,4.5E1,1.6E2,1.83E2,1.3E2,3.2E1,2.63E2,7.45E2,1.13E2,1.72E2,2.35E2,4.92E2,6E1,1.73E2,4.61E2,6.2E1,2.6E1,1.5E1,4.9E1,1.41E2,5.3E1,7E0,2.2E1,8.9E1,2.8E1,2.9E1,2.85E2,1.21E2,4.7E1,2E0,4.5E1,7E0,3E0,1.7E2,6E0,1.51E2,3.41E2,8.5E1,2.08E2,5.5E1,1.7E1,1.72E2,5E0,5.4E1,2.1E1,9E1,6.8E1,9E0,1.5E1,7.7E1,3.8E1,9E0,4.9E1,2.9E1,1.6E1,5.2E1,1.08E2,1.71E2,1.2E1,1.28E2,2E0,2.41E2,2.2E1,3.62E2,3.83E2,1.05E2,8E0,1.53E2,1.9E1,3.09E2,1.83E2,2.9E1,3.3E1,2.3E1,3E0,1.2E1,3E0,4.3E1,9.8E1,2.9E1,2.4E1,2.3E1,6.6E1,9E0,1.9E1,5E0,2.4E1,2.28E2,5.7E1,8E0,1.13E2,2.5E1,2.2E1,3.8E1,7E0,2E0,5E0,6E0,1.64E2,2E0,4E0,5.1E1,1E2,2.6E2,8.1E1],"tree_param":{"num_deleted":"0","num_feature":"10","num_nodes":"181","size_leaf_vector":"1"}},{"base_weights":[-2.1044228E-3,-1.9430248E0,1.1196994E-1,-2.7051343E-2,-2.0153487E-1,3.1430963E-1,-3.6743736E-1,-4.450014E-2,3.6420084E-3,-3.0231646E-1,6.0333407E-1,-1.3524667E0,1.4914277E-1,-1.8765049E-2,-7.13969E-2,-4.9980295E-1,-5.8806404E-2,4.3579364E-1,7.699182E-1,-1.7200364E0,-9.245412E-1,-8.458098E-2,3.5288647E-1,-2.8899794E-3,-1.405356E-4,-2.6052406E-3,-8.755605E-3,-6.256157E-1,-3.8812783E-1,-1.544074E-1,4.167582E-2,2.62879E-1,5.13782E-1,9.020379E-1,5.9469986E-1,-1.8131463E-1,-1.486474E-1,-1.2431989E-1,-8.254704E-1,-3.6636186E-1,-2.27121E-3,2.8066853E-1,3.748129E-1,-7.1898274E-2,-5.5280518E-2,-3.1086737E-1,-4.234411E-1,-2.4833138E-1,-1.1660518E-1,-1.714281E-2,9.891188E-2,1.9085222E-1,3.0871123E-1,5.746415E-1,4.919236E-1,7.316973E-1,9.999358E-1,6.424296E-1,2.3674886E-1,-6.006514E-1,-9.000118E-1,-1.659811E-1,-4.1763765E-1,-5.3913653E-2,9.134362E-2,2.261542E-1,3.0597607E-2,3.8240802E-1,3.4085056E-1,-3.4908067E-2,-2.8865203E-2,-4.5328714E-2,-4.003044E-1,-2.7574448E-2,-2.00152E-2,-1.3739838E-1,-8.409424E-2,7.314844E-2,-2.380751E-2,7.9845585E-2,1.449807E-1,1.3005188E-1,2.0703833E-1,3.3200556E-1,2.7509674E-2,4.2232968E-2,5.906838E-1,4.7982073E-1,5.664896E-1,6.286495E-1,7.7948175E-2,1.0199896E0,8.078517E-2,7.2703654E-1,6.215068E-1,3.1673142E-1,3.6915522E-2,-3.5587955E-1,-6.767561E-2,-9.876951E-1,-6.5926534E-1,-9.900288E-3,-1.8888114E-2,-4.677546E-1,-2.546137E-1,-1.06781036E-1,-4.2250708E-2,1.046923E-1,2.0069545E-2,2.5450894E-1,7.928727E-2,3.337252E-1,3.886675E-2,2.8699337E-2,3.649544E-2,-2.2834968E-2,-4.0379297E-2,-1.21506415E-2,-1.7939745E-2,-2.0157168E-2,-7.737943E-3,8.596458E-3,2.6025001E-3,6.618889E-5,-5.69229E-3,4.8405165E-3,8.959557E-3,2.6009993E-3,1.5202117E-2,1.7257767E-2,8.002271E-3,2.1937704E-2,1.6924279E-2,3.4041405E-2,2.1513624E-2,6.0173016E-2,4.7451038E-2,5.0374545E-2,4.563884E-2,5.7527132E-2,3.500729E-2,6.581006E-2,4.5290645E-2,9.164532E-2,1.0549716E-1,6.0003687E-2,7.571318E-2,6.3095905E-2,5.3852376E-2,3.8514875E-2,2.4905985E-2,6.0077473E-3,-1.0549457E-2,-3.9792825E-2,-1.0922716E-2,-1.1266168E-1,-9.129556E-2,-5.48018E-2,-7.5799264E-2,-3.9529037E-2,-5.221737E-2,-1.353602E-2,-2.9359788E-2,-5.6674583E-3,-1.2495246E-2,-5.5821342E-3,1.6676616E-3,1.2480061E-3,1.105731E-2,6.971275E-3,-4.63923E-3,9.710976E-3,2.5914062E-2,1.4624882E-2,3.5895586E-3,3.4486677E-2,1.7968712E-2],"categories":[],"categories_nodes":[],"categories_segments":[],"categories_sizes":[],"default_left":[0,0,0,0,0,0,0,0,0,0,0,0,0,0,0,0,0,0,0,0,0,0,0,0,0,0,0,0,0,0,0,0,0,0,0,0,0,0,0,0,0,0,0,0,0,0,0,0,0,0,0,0,0,0,0,0,0,0,0,0,0,0,0,0,0,0,0,0,0,0,0,0,0,0,0,0,0,0,0,0,0,0,0,0,0,0,0,0,0,0,0,0,0,0,0,0,0,0,0,0,0,0,0,0,0,0,0,0,0,0,0,0,0,0,0,0,0,0,0,0,0,0,0,0,0,0,0,0,0,0,0,0,0,0,0,0,0,0,0,0,0,0,0,0,0,0,0,0,0,0,0,0,0,0,0,0,0,0,0,0,0,0,0,0,0,0,0,0,0,0,0,0,0,0,0,0,0],"id":2,"left_children":[1,3,5,7,-1,9,11,13,-1,15,17,19,21,23,25,27,29,31,33,35,37,39,41,-1,-1,-1,-1,43,45,47,49,51,53,55,57,-1,-1,-1,59,61,63,65,67,-1,-1,69,71,73,75,77,79,81,83,85,87,89,91,93,95,97,99,101,103,105,107,109,-1,111,113,-1,-1,-1,115,-1,-1,117,119,121,123,125,127,129,131,133,-1,-1,135,137,139,141,-1,143,-1,145,147,149,151,153,-1,155,157,-1,-1,159,161,163,165,167,169,171,173,175,-1,-1,-1,-1,-1,-1,-1,-1,-1,-1,-1,-1,-1,-1,-1,-1,-1,-1,-1,-1,-1,-1,-1,-1,-1,-1,-1,-1,-1,-1,-1,-1,-1,-1,-1,-1,-1,-1,-1,-1,-1,-1,-1,-1,-1,-1,-1,-1,-1,-1,-1,-1,-1,-1,-1,-1,-1,-1,-1,-1,-1,-1,-1,-1,-1],"loss_changes":[1.6432958E3,5.7036377E1,6.801074E2,1.9340701E-2,0E0,8.788071E2,1.0591116E3,7.6587107E-3,0E0,7.56642E1,9.335681E1,1.1103113E2,6.507841E1,1.366874E-3,2.115326E-3,1.1966751E1,6.788412E0,2.246637E1,3.840149E1,5.6556396E0,9.486481E0,1.4773313E1,1.0507431E0,0E0,0E0,0E0,0E0,2.3693695E0,1.1315765E0,1.2563372E0,1.1631544E0,1.6675797E0,1.2524719E0,1.5227295E1,1.2251556E1,0E0,0E0,0E0,3.7662811E0,1.4102345E0,2.393167E0,1.7085648E-1,1.3336182E-2,0E0,0E0,2.5725365E-2,3.6067963E-2,8.084583E-2,1.6420722E-1,1.0464314E-1,1.4213717E-1,1.7580318E-1,1.5766716E-1,4.8112488E-1,5.006714E-1,1.248169E0,1.5064697E0,6.810913E-1,1.3788447E0,1.0072536E0,3.3807526E0,2.8848171E-2,8.123131E-1,1.921804E-1,1.6534793E-1,2.2551847E-1,0E0,6.5078735E-3,3.9357185E-2,0E0,0E0,0E0,1.9369125E-2,0E0,0E0,8.299136E-2,6.6441774E-2,5.010061E-3,1.2968788E-1,3.4287572E-2,3.7926316E-2,8.405626E-2,3.795433E-2,1.0659981E-1,0E0,0E0,5.8387756E-2,1.8663025E-1,1.5274048E-2,3.07518E-1,0E0,1.003479E0,0E0,8.167267E-3,6.806946E-2,1.9112873E-1,9.209871E-2,1.432209E-1,0E0,4.0429688E-1,1.7769623E-1,0E0,0E0,1.3272667E-1,9.507954E-2,4.481721E-2,2.11247E-1,7.887757E-2,9.891613E-2,1.0557175E-2,2.6711635E-2,3.7573338E-2,0E0,0E0,0E0,0E0,0E0,0E0,0E0,0E0,0E0,0E0,0E0,0E0,0E0,0E0,0E0,0E0,0E0,0E0,0E0,0E0,0E0,0E0,0E0,0E0,0E0,0E0,0E0,0E0,0E0,0E0,0E0,0E0,0E0,0E0,0E0,0E0,0E0,0E0,0E0,0E0,0E0,0E0,0E0,0E0,0E0,0E0,0E0,0E0,0E0,0E0,0E0,0E0,0E0,0E0,0E0,0E0,0E0,0E0,0E0,0E0,0E0,0E0,0E0,0E0,0E0],"parents":[2147483647,0,0,1,1,2,2,3,3,5,5,6,6,7,7,9,9,10,10,11,11,12,12,13,13,14,14,15,15,16,16,17,17,18,18,19,19,20,20,21,21,22,22,27,27,28,28,29,29,30,30,31,31,32,32,33,33,34,34,38,38,39,39,40,40,41,41,42,42,45,45,46,46,47,47,48,48,49,49,50,50,51,51,52,52,53,53,54,54,55,55,56,56,57,57,58,58,59,59,60,60,61,61,62,62,63,63,64,64,65,65,67,67,68,68,72,72,75,75,76,76,77,77,78,78,79,79,80,80,81,81,82,82,83,83,86,86,87,87,88,88,89,89,91,91,93,93,94,94,95,95,96,96,97,97,99,99,100,100,103,103,104,104,105,105,106,106,107,107,108,108,109,109,110,110,111,111],"right_children":[2,4,6,8,-1,10,12,14,-1,16,18,20,22,24,26,28,30,32,34,36,38,40,42,-1,-1,-1,-1,44,46,48,50,52,54,56,58,-1,-1,-1,60,62,64,66,68,-1,-1,70,72,74,76,78,80,82,84,86,88,90,92,94,96,98,100,102,104,106,108,110,-1,112,114,-1,-1,-1,116,-1,-1,118,120,122,124,126,128,130,132,134,-1,-1,136,138,140,142,-1,144,-1,146,148,150,152,154,-1,156,158,-1,-1,160,162,164,166,168,170,172,174,176,-1,-1,-1,-1,-1,-1,-1,-1,-1,-1,-1,-1,-1,-1,-1,-1,-1,-1,-1,-1,-1,-1,-1,-1,-1,-1,-1,-1,-1,-1,-1,-1,-1,-1,-1,-1,-1,-1,-1,-1,-1,-1,-1,-1,-1,-1,-1,-1,-1,-1,-1,-1,-1,-1,-1,-1,-1,-1,-1,-1,-1,-1,-1,-1,-1],"split_conditions":[-1.2969921E0,-4.1579413E-1,5.791169E-1,-3.1935376E-1,-2.0153487E-1,-9.872548E-1,5.477163E-1,-1.3268577E0,3.6420084E-3,-1.3249344E0,-2.0451266E-1,2.0658582E-2,1.3951389E0,-1.4223168E0,-1.2824391E0,-1.5410315E0,-1.1492168E0,-7.432025E-1,2.4276854E-1,-5.0639915E-1,2.8418747E-1,1.1626236E0,1.4763417E0,-2.8899794E-3,-1.405356E-4,-2.6052406E-3,-8.755605E-3,-1.649302E0,-1.6166673E0,-1.7503589E0,-1.0675701E0,-8.9185256E-1,-2.5883833E-1,-4.077579E-2,5.391811E-1,-1.8131463E-1,-1.486474E-1,-1.2431989E-1,6.48339E-1,5.959787E-1,1.3143798E0,1.4222065E0,2.131024E0,-7.1898274E-2,-5.5280518E-2,-5.0639915E-1,-1.242904E0,2.0378213E-1,-1.203352E0,-6.8058264E-1,-1.1153251E0,-5.2065897E-1,-1.0640954E0,-6.486877E-1,-2.5687295E-1,-1.5037744E-1,2.1436974E-1,2.9690376E-1,5.6713617E-1,6.212714E-1,1.1084884E0,-6.8058264E-1,1.148868E0,1.1896913E0,1.1469649E0,5.069344E-1,3.0597607E-2,1.5034093E0,2.9039744E-1,-3.4908067E-2,-2.8865203E-2,-4.5328714E-2,-7.5538087E-1,-2.7574448E-2,-2.00152E-2,3.3370483E-1,-7.8625304E-1,-1.432841E0,1.6047473E-1,-4.875671E-1,-1.5268687E0,2.9039744E-1,-7.5538087E-1,3.553585E-1,2.7509674E-2,4.2232968E-2,-3.967341E-1,-4.4767743E-1,4.63627E-1,3.7701222E-1,7.7948175E-2,2.6671374E-2,8.078517E-2,2.547493E-1,1.0969077E0,5.520493E-1,1.3130087E0,2.6874322E-1,-6.767561E-2,6.9130445E-1,2.9039744E-1,-9.900288E-3,-1.8888114E-2,6.212714E-1,1.8212843E-1,2.4708952E-1,1.7092862E0,-5.3999895E-1,3.1205112E-1,7.3214576E-2,1.066037E0,1.1505433E0,3.886675E-2,2.8699337E-2,3.649544E-2,-2.2834968E-2,-4.0379297E-2,-1.21506415E-2,-1.7939745E-2,-2.0157168E-2,-7.737943E-3,8.596458E-3,2.6025001E-3,6.618889E-5,-5.69229E-3,4.8405165E-3,8.959557E-3,2.6009993E-3,1.5202117E-2,1.7257767E-2,8.002271E-3,2.1937704E-2,1.6924279E-2,3.4041405E-2,2.1513624E-2,6.0173016E-2,4.7451038E-2,5.0374545E-2,4.563884E-2,5.7527132E-2,3.500729E-2,6.581006E-2,4.5290645E-2,9.164532E-2,1.0549716E-1,6.0003687E-2,7.571318E-2,6.3095905E-2,5.3852376E-2,3.8514875E-2,2.4905985E-2,6.0077473E-3,-1.0549457E-2,-3.9792825E-2,-1.0922716E-2,-1.1266168E-1,-9.129556E-2,-5.48018E-2,-7.5799264E-2,-3.9529037E-2,-5.221737E-2,-1.353602E-2,-2.9359788E-2,-5.6674583E-3,-1.2495246E-2,-5.5821342E-3,1.6676616E-3,1.2480061E-3,1.105731E-2,6.971275E-3,-4.63923E-3,9.710976E-3,2.5914062E-2,1.4624882E-2,3.5895586E-3,3.4486677E-2,1.7968712E-2],"split_indices":[1,5,9,4,0,9,1,8,0,9,9,1,9,8,7,9,9,9,9,1,1,9,9,0,0,0,0,9,7,7,9,9,3,9,9,0,0,0,9,9,9,9,3,0,0,1,3,0,9,3,7,4,5,9,9,9,9,9,9,9,9,3,9,9,3,0,0,9,0,0,0,0,5,0,0,0,5,7,0,4,8,0,5,0,0,0,7,9,0,0,0,9,0,9,5,9,5,0,0,4,0,0,0,9,0,0,3,3,0,8,5,8,0,0,0,0,0,0,0,0,0,0,0,0,0,0,0,0,0,0,0,0,0,0,0,0,0,0,0,0,0,0,0,0,0,0,0,0,0,0,0,0,0,0,0,0,0,0,0,0,0,0,0,0,0,0,0,0,0,0,0,0,0,0,0,0,0],"split_type":[0,0,0,0,0,0,0,0,0,0,0,0,0,0,0,0,0,0,0,0,0,0,0,0,0,0,0,0,0,0,0,0,0,0,0,0,0,0,0,0,0,0,0,0,0,0,0,0,0,0,0,0,0,0,0,0,0,0,0,0,0,0,0,0,0,0,0,0,0,0,0,0,0,0,0,0,0,0,0,0,0,0,0,0,0,0,0,0,0,0,0,0,0,0,0,0,0,0,0,0,0,0,0,0,0,0,0,0,0,0,0,0,0,0,0,0,0,0,0,0,0,0,0,0,0,0,0,0,0,0,0,0,0,0,0,0,0,0,0,0,0,0,0,0,0,0,0,0,0,0,0,0,0,0,0,0,0,0,0,0,0,0,0,0,0,0,0,0,0,0,0,0,0,0,0,0,0],"sum_hessian":[7.42E3,4.11E2,7.009E3,1.5E1,3.96E2,4.929E3,2.08E3,1.2E1,3E0,1.573E3,3.356E3,7.15E2,1.365E3,7E0,5E0,8.68E2,7.05E2,1.675E3,1.681E3,3.83E2,3.32E2,6.36E2,7.29E2,4E0,3E0,2E0,3E0,4.06E2,4.62E2,3.61E2,3.44E2,5.22E2,1.153E3,9.56E2,7.25E2,2.69E2,1.14E2,7.6E1,2.56E2,1.43E2,4.93E2,1.73E2,5.56E2,1.74E2,2.32E2,1.48E2,3.14E2,1.02E2,2.59E2,1.7E2,1.74E2,2.05E2,3.17E2,2.98E2,8.55E2,3.52E2,6.04E2,6.39E2,8.6E1,6.6E1,1.9E2,3E1,1.13E2,3.18E2,1.75E2,5.8E1,1.15E2,4.46E2,1.1E2,4.9E1,9.9E1,1.29E2,1.85E2,6.2E1,4E1,1.56E2,1.03E2,1.1E1,1.59E2,1.25E2,4.9E1,4.5E1,1.6E2,1.82E2,1.35E2,3.1E1,2.67E2,7.42E2,1.13E2,1.16E2,2.36E2,5.43E2,6.1E1,1.2E2,5.19E2,6.1E1,2.5E1,1.7E1,4.9E1,1.37E2,5.3E1,9E0,2.1E1,8.5E1,2.8E1,5.6E1,2.62E2,1.47E2,2.8E1,4.8E1,1E1,5.7E1,3.89E2,3.8E1,7.2E1,5E0,1.8E2,1.16E2,4E1,4E0,9.9E1,8E0,3E0,9.2E1,6.7E1,3.1E1,9.4E1,3E0,4.6E1,2.3E1,2.2E1,1.17E2,4.3E1,1.68E2,1.4E1,2.4E2,2.7E1,3.57E2,3.85E2,1.07E2,6E0,9.7E1,1.9E1,1.44E2,3.99E2,2.7E1,9.3E1,4.6E2,5.9E1,2.8E1,3.3E1,2.2E1,3E0,1.4E1,3E0,4.3E1,9.4E1,2.8E1,2.5E1,4E1,4.5E1,8E0,2E1,1.6E1,4E1,2.13E2,4.9E1,9E0,1.38E2,1.6E1,1.2E1,2E0,4.6E1,3E0,7E0,5.2E1,5E0],"tree_param":{"num_deleted":"0","num_feature":"10","num_nodes":"177","size_leaf_vector":"1"}},{"base_weights":[-9.1683825E-5,-1.7444824E0,1.0146532E-1,-2.5829114E-2,-1.8145657E-1,2.6347923E-1,-2.5746435E-1,-4.098923E-2,3.368858E-3,9.071283E-3,6.118814E-1,-1.2221023E0,2.024968E-1,-1.966057E-2,-6.615069E-2,3.6384228E-1,-2.1868826E-1,6.601813E-1,3.9203847E-3,-1.5448627E0,-8.3440256E-1,5.3860933E-2,2.7095422E-1,-2.8624218E-2,-1.2999543E-4,-2.4315582E-3,-8.098935E-3,4.5796007E-1,2.6713827E-1,-7.928771E-3,-3.7486222E-1,4.738389E-1,7.56267E-1,-5.1377583E-2,2.150243E-2,-1.690418E-1,-1.4129394E0,-1.1237407E-1,-7.465782E-1,4.5447168E-1,-6.0747247E-2,8.3738565E-2,3.307246E-1,-3.3414164E-3,-1.2696219E-3,1.5233347E-1,4.921592E-1,-4.7411773E-2,2.834174E-1,-6.0459718E-2,1.4030552E-1,-1.9245479E-1,-4.393613E-1,5.921903E-1,4.499928E-1,6.587298E-1,8.4847444E-1,-2.1860715E-2,5.5202454E-2,-1.4811738E-1,-1.22107916E-1,-9.097529E-1,-6.9478685E-1,5.5625504E-1,-8.3134E-4,1.6752258E-2,-1.9708541E-1,-1.09581485E-1,3.0490822E-1,2.3078513E-1,3.532937E-1,-1.0959297E-1,1.9119504E-1,4.1611308E-1,5.404556E-1,2.5839654E-1,6.0981985E-2,-1.1451621E-2,-1.382965E-1,1.478383E-1,1.6249528E-2,1.8839362E-1,-2.6986074E-1,-3.481317E-1,-5.319194E-1,6.332614E-1,2.7999535E-1,4.1685593E-1,5.052912E-1,5.6043726E-1,6.874173E-1,6.729874E-1,9.131103E-1,-1.3489093E-2,-1.0193349E-1,1.535614E-2,9.7653344E-2,-5.947436E-1,-1.0287633E-1,-5.432212E-1,-7.4364144E-1,3.7453365E-2,5.7284664E-2,-1.158793E-1,1.5265831E-1,1.0993836E-1,-3.652003E-2,-3.608089E-1,-7.169955E-2,9.8055966E-2,-3.1870463E-1,-3.5174731E-3,3.1123865E-1,-1.6252524E-1,2.520676E-1,4.213458E-1,3.2744712E-1,-1.3079747E-2,-3.065298E-3,2.5883878E-2,1.5480948E-2,4.2538863E-2,2.5210638E-2,5.5045564E-2,3.5320766E-2,2.9473538E-2,-4.985748E-2,-5.853523E-3,1.1717592E-3,-1.7734455E-2,-9.63613E-3,1.0007832E-2,1.6713355E-2,5.9588216E-3,-5.6342282E-3,-4.508232E-2,2.8190408E-2,-2.9078892E-2,3.053884E-2,-3.6093455E-2,2.6991475E-2,-5.5918198E-2,8.235893E-3,5.2844673E-2,7.5630926E-2,4.206006E-2,2.2421654E-3,4.1809272E-2,1.3691261E-2,5.1636454E-2,4.0349454E-2,-3.7416235E-2,5.7634767E-2,7.486946E-2,6.1337125E-2,6.8376966E-2,4.1103708E-3,8.6915E-2,9.789834E-2,-2.7021407E-3,2.8909275E-3,-1.2095289E-3,-1.4382876E-2,1.086435E-2,-5.2291306E-4,1.4981039E-2,6.6992156E-3,-4.6849074E-3,-6.6030234E-2,-4.32614E-2,-6.0062535E-2,-4.917402E-2,-7.548434E-2,-1.7491141E-2,-2.7695287E-3,1.9533174E-2,2.200856E-4,1.4712773E-2,-1.0735108E-2,-5.10137E-3,5.425158E-3,-4.389007E-2,-2.5081864E-2,-7.8027854E-3,1.0829829E-2,3.213782E-2,-1.826551E-3,-3.8786057E-2,-9.655757E-3,1.0931943E-2,3.13892E-2,-1.7951879E-3,-2.4567887E-2,2.6673172E-2,5.984845E-3,-9.253675E-3,4.3767676E-2,-1.8540688E-2,3.3701908E-2],"categories":[],"categories_nodes":[],"categories_segments":[],"categories_sizes":[],"default_left":[0,0,0,0,0,0,0,0,0,0,0,0,0,0,0,0,0,0,0,0,0,0,0,0,0,0,0,0,0,0,0,0,0,0,0,0,0,0,0,0,0,0,0,0,0,0,0,0,0,0,0,0,0,0,0,0,0,0,0,0,0,0,0,0,0,0,0,0,0,0,0,0,0,0,0,0,0,0,0,0,0,0,0,0,0,0,0,0,0,0,0,0,0,0,0,0,0,0,0,0,0,0,0,0,0,0,0,0,0,0,0,0,0,0,0,0,0,0,0,0,0,0,0,0,0,0,0,0,0,0,0,0,0,0,0,0,0,0,0,0,0,0,0,0,0,0,0,0,0,0,0,0,0,0,0,0,0,0,0,0,0,0,0,0,0,0,0,0,0,0,0,0,0,0,0,0,0,0,0,0,0,0,0,0,0,0,0,0,0,0,0,0,0,0,0,0,0,0,0],"id":3,"left_children":[1,3,5,7,-1,9,11,13,-1,15,17,19,21,23,25,27,29,31,33,35,37,39,41,43,-1,-1,-1,45,47,49,51,53,55,-1,57,-1,59,-1,61,63,65,67,69,-1,-1,71,73,-1,75,77,79,81,83,85,87,89,91,93,95,-1,-1,97,99,101,103,105,107,109,111,113,115,117,119,121,123,125,-1,127,129,131,133,135,137,139,141,143,145,147,149,151,153,155,157,159,161,163,165,167,-1,169,171,-1,-1,173,175,177,179,181,183,185,187,-1,189,191,193,195,197,-1,-1,-1,-1,-1,-1,-1,-1,-1,-1,-1,-1,-1,-1,-1,-1,-1,-1,-1,-1,-1,-1,-1,-1,-1,-1,-1,-1,-1,-1,-1,-1,-1,-1,-1,-1,-1,-1,-1,-1,-1,-1,-1,-1,-1,-1,-1,-1,-1,-1,-1,-1,-1,-1,-1,-1,-1,-1,-1,-1,-1,-1,-1,-1,-1,-1,-1,-1,-1,-1,-1,-1,-1,-1,-1,-1,-1,-1,-1,-1,-1,-1],"loss_changes":[1.313782E3,4.909619E1,4.0759424E2,1.6719887E-2,0E0,4.28019E2,9.675049E2,6.2126834E-3,0E0,2.256801E2,5.9842224E1,8.68053E1,1.5014217E1,1.4439926E-3,1.7553587E-3,9.816589E0,5.598568E1,3.3445923E1,1.3854734E0,4.9659424E0,7.343338E0,2.1469105E1,1.1285347E1,3.3531804E-5,0E0,0E0,0E0,5.694618E0,6.6626167E0,5.6539764E0,1.1409973E1,1.5538635E0,1.0629211E1,0E0,2.1602361E-1,0E0,9.0130615E-1,0E0,1.4806671E0,4.820059E0,3.849377E0,1.0551518E1,1.6462097E0,0E0,0E0,6.011493E-1,1.5968018E0,0E0,4.170868E0,2.0430589E0,1.7514992E-1,7.627186E0,5.9029846E0,1.1690178E0,7.807007E-1,1.3320007E0,6.599457E0,4.219705E-2,1.3889587E-1,0E0,0E0,1.5250473E0,1.032547E0,4.1727066E-2,3.7086335E-1,1.1606821E0,2.6839066E0,5.7629285E0,2.585287E-1,1.2463374E0,9.5783234E-1,9.381734E-3,8.299196E-2,1.9244385E-1,3.6730957E-1,1.37356415E1,0E0,3.6067966E-1,3.218708E-1,1.482296E-1,4.1109744E-2,2.7571206E0,2.6651297E0,2.9934998E0,6.0079117E0,7.868767E-1,4.9759626E-1,6.1862946E-2,1.4839172E-2,2.3420296E0,1.6596985E0,1.1641922E0,4.86969E-1,3.520605E-2,2.084313E-2,8.5063316E-2,5.3931743E-2,6.156125E-1,0E0,6.397724E-2,3.515625E-2,0E0,0E0,5.7624057E-2,5.7354942E-2,7.0266736E-1,1.9879407E-1,3.7950802E-1,9.5020324E-2,1.7463403E0,9.764924E-1,0E0,2.622509E-2,9.176397E-2,3.702011E-1,1.4503918E0,2.3009949E0,0E0,0E0,0E0,0E0,0E0,0E0,0E0,0E0,0E0,0E0,0E0,0E0,0E0,0E0,0E0,0E0,0E0,0E0,0E0,0E0,0E0,0E0,0E0,0E0,0E0,0E0,0E0,0E0,0E0,0E0,0E0,0E0,0E0,0E0,0E0,0E0,0E0,0E0,0E0,0E0,0E0,0E0,0E0,0E0,0E0,0E0,0E0,0E0,0E0,0E0,0E0,0E0,0E0,0E0,0E0,0E0,0E0,0E0,0E0,0E0,0E0,0E0,0E0,0E0,0E0,0E0,0E0,0E0,0E0,0E0,0E0,0E0,0E0,0E0,0E0,0E0,0E0,0E0,0E0,0E0,0E0,0E0],"parents":[2147483647,0,0,1,1,2,2,3,3,5,5,6,6,7,7,9,9,10,10,11,11,12,12,13,13,14,14,15,15,16,16,17,17,18,18,19,19,20,20,21,21,22,22,23,23,27,27,28,28,29,29,30,30,31,31,32,32,34,34,36,36,38,38,39,39,40,40,41,41,42,42,45,45,46,46,48,48,49,49,50,50,51,51,52,52,53,53,54,54,55,55,56,56,57,57,58,58,61,61,62,62,63,63,64,64,65,65,66,66,67,67,68,68,69,69,70,70,71,71,72,72,73,73,74,74,75,75,77,77,78,78,79,79,80,80,81,81,82,82,83,83,84,84,85,85,86,86,87,87,88,88,89,89,90,90,91,91,92,92,93,93,94,94,95,95,96,96,97,97,99,99,100,100,103,103,104,104,105,105,106,106,107,107,108,108,109,109,110,110,112,112,113,113,114,114,115,115,116,116],"right_children":[2,4,6,8,-1,10,12,14,-1,16,18,20,22,24,26,28,30,32,34,36,38,40,42,44,-1,-1,-1,46,48,50,52,54,56,-1,58,-1,60,-1,62,64,66,68,70,-1,-1,72,74,-1,76,78,80,82,84,86,88,90,92,94,96,-1,-1,98,100,102,104,106,108,110,112,114,116,118,120,122,124,126,-1,128,130,132,134,136,138,140,142,144,146,148,150,152,154,156,158,160,162,164,166,168,-1,170,172,-1,-1,174,176,178,180,182,184,186,188,-1,190,192,194,196,198,-1,-1,-1,-1,-1,-1,-1,-1,-1,-1,-1,-1,-1,-1,-1,-1,-1,-1,-1,-1,-1,-1,-1,-1,-1,-1,-1,-1,-1,-1,-1,-1,-1,-1,-1,-1,-1,-1,-1,-1,-1,-1,-1,-1,-1,-1,-1,-1,-1,-1,-1,-1,-1,-1,-1,-1,-1,-1,-1,-1,-1,-1,-1,-1,-1,-1,-1,-1,-1,-1,-1,-1,-1,-1,-1,-1,-1,-1,-1,-1,-1,-1],"split_conditions":[-1.2969921E0,-4.1579413E-1,6.955781E-1,-3.1935376E-1,-1.8145657E-1,-7.921613E-2,5.477163E-1,-1.3268577E0,3.368858E-3,-8.171238E-1,7.243942E-1,2.0658582E-2,9.7342193E-1,-1.4223168E0,-1.2824391E0,-4.875671E-1,-7.6992804E-1,-6.5578043E-1,5.477163E-1,-7.6992804E-1,2.8418747E-1,2.2322318E-2,8.264259E-1,-1.2490166E0,-1.2999543E-4,-2.4315582E-3,-8.098935E-3,-7.6992804E-1,-8.211596E-1,-1.1821699E0,-3.5244563E-1,-1.1948905E0,3.0348295E-1,-5.1377583E-2,1.8653607E0,-1.690418E-1,-2.4287029E-1,-1.1237407E-1,6.9130445E-1,1.074774E0,1.1283827E0,-1.1826136E-1,6.059524E-1,-3.3414164E-3,-1.2696219E-3,-1.3325738E0,-2.4287029E-1,-4.7411773E-2,5.477163E-1,-5.084092E-1,-5.701521E-1,-7.2451013E-1,-6.30693E-1,-2.9230833E-1,1.1741415E0,3.719915E-1,3.2185885E-1,9.9063325E-1,7.300137E-1,-1.4811738E-1,-1.22107916E-1,-2.0482044E0,2.6874322E-1,-9.617433E-1,3.3370483E-1,9.601693E-1,8.112452E-1,1.2821364E0,2.4595241E-1,1.074774E0,1.0277312E0,4.0423784E-1,1.8212843E-1,-1.0651904E0,-3.358951E-1,2.0658582E-2,6.0981985E-2,-4.530972E-1,-1.5331103E0,-4.875671E-1,-3.1935376E-1,-3.065929E0,4.4405994E-1,-2.5883833E-1,5.477163E-1,5.477163E-1,1.338303E0,5.103494E-1,4.2031962E-1,2.8418747E-1,-4.4666633E-1,9.471956E-1,3.548777E-1,7.734493E-1,1.6047473E-1,1.3309657E-2,8.168869E-1,4.2778313E-1,-1.0287633E-1,1.4673651E0,5.7253E-1,3.7453365E-2,5.7284664E-2,7.951681E-1,3.9866593E-1,1.2875419E0,1.8653607E0,2.131024E0,6.9597465E-1,2.6874322E-1,8.112452E-1,-3.5174731E-3,3.3686507E-1,2.4708952E-1,5.069344E-1,-1.3332264E0,1.0969077E0,-1.3079747E-2,-3.065298E-3,2.5883878E-2,1.5480948E-2,4.2538863E-2,2.5210638E-2,5.5045564E-2,3.5320766E-2,2.9473538E-2,-4.985748E-2,-5.853523E-3,1.1717592E-3,-1.7734455E-2,-9.63613E-3,1.0007832E-2,1.6713355E-2,5.9588216E-3,-5.6342282E-3,-4.508232E-2,2.8190408E-2,-2.9078892E-2,3.053884E-2,-3.6093455E-2,2.6991475E-2,-5.5918198E-2,8.235893E-3,5.2844673E-2,7.5630926E-2,4.206006E-2,2.2421654E-3,4.1809272E-2,1.3691261E-2,5.1636454E-2,4.0349454E-2,-3.7416235E-2,5.7634767E-2,7.486946E-2,6.1337125E-2,6.8376966E-2,4.1103708E-3,8.6915E-2,9.789834E-2,-2.7021407E-3,2.8909275E-3,-1.2095289E-3,-1.4382876E-2,1.086435E-2,-5.2291306E-4,1.4981039E-2,6.6992156E-3,-4.6849074E-3,-6.6030234E-2,-4.32614E-2,-6.0062535E-2,-4.917402E-2,-7.548434E-2,-1.7491141E-2,-2.7695287E-3,1.9533174E-2,2.200856E-4,1.4712773E-2,-1.0735108E-2,-5.10137E-3,5.425158E-3,-4.389007E-2,-2.5081864E-2,-7.8027854E-3,1.0829829E-2,3.213782E-2,-1.826551E-3,-3.8786057E-2,-9.655757E-3,1.0931943E-2,3.13892E-2,-1.7951879E-3,-2.4567887E-2,2.6673172E-2,5.984845E-3,-9.253675E-3,4.3767676E-2,-1.8540688E-2,3.3701908E-2],"split_indices":[1,5,5,4,0,7,1,8,0,5,4,1,5,8,7,4,1,4,1,1,1,3,4,7,0,0,0,1,3,7,4,4,3,0,1,0,1,0,4,1,4,3,7,0,0,7,1,0,1,5,5,5,7,5,7,7,7,2,2,0,0,0,0,3,0,4,1,5,8,1,4,2,0,7,8,1,0,4,7,4,4,0,3,3,1,1,1,5,0,1,5,2,4,2,0,2,2,8,0,5,7,0,0,2,0,3,1,3,8,0,1,0,8,0,0,2,5,0,0,0,0,0,0,0,0,0,0,0,0,0,0,0,0,0,0,0,0,0,0,0,0,0,0,0,0,0,0,0,0,0,0,0,0,0,0,0,0,0,0,0,0,0,0,0,0,0,0,0,0,0,0,0,0,0,0,0,0,0,0,0,0,0,0,0,0,0,0,0,0,0,0,0,0,0,0,0,0,0,0],"split_type":[0,0,0,0,0,0,0,0,0,0,0,0,0,0,0,0,0,0,0,0,0,0,0,0,0,0,0,0,0,0,0,0,0,0,0,0,0,0,0,0,0,0,0,0,0,0,0,0,0,0,0,0,0,0,0,0,0,0,0,0,0,0,0,0,0,0,0,0,0,0,0,0,0,0,0,0,0,0,0,0,0,0,0,0,0,0,0,0,0,0,0,0,0,0,0,0,0,0,0,0,0,0,0,0,0,0,0,0,0,0,0,0,0,0,0,0,0,0,0,0,0,0,0,0,0,0,0,0,0,0,0,0,0,0,0,0,0,0,0,0,0,0,0,0,0,0,0,0,0,0,0,0,0,0,0,0,0,0,0,0,0,0,0,0,0,0,0,0,0,0,0,0,0,0,0,0,0,0,0,0,0,0,0,0,0,0,0,0,0,0,0,0,0,0,0,0,0,0,0],"sum_hessian":[7.414E3,4.07E2,7.007E3,1.6E1,3.91E2,4.828E3,2.179E3,1.3E1,3E0,2.791E3,2.037E3,7.03E2,1.476E3,8E0,5E0,1.091E3,1.7E3,1.887E3,1.5E2,3.82E2,3.21E2,4.66E2,1.01E3,5E0,3E0,2E0,3E0,5.51E2,5.4E2,7.24E2,9.76E2,6.44E2,1.243E3,4E0,1.46E2,1.76E2,2.06E2,7.2E1,2.49E2,1.03E2,3.63E2,2.45E2,7.65E2,3E0,2E0,5.6E1,4.95E2,1.1E1,5.29E2,5.35E2,1.89E2,2.56E2,7.2E2,1.04E2,5.4E2,6.08E2,6.35E2,6.4E1,8.2E1,1.47E2,5.9E1,5.6E1,1.93E2,8.4E1,1.9E1,2.32E2,1.31E2,1.31E2,1.14E2,1.43E2,6.22E2,7E0,4.9E1,1.96E2,2.99E2,4.93E2,3.6E1,3.29E2,2.06E2,1.78E2,1.1E1,4.3E1,2.13E2,3.65E2,3.55E2,9.1E1,1.3E1,3.43E2,1.97E2,1.42E2,4.66E2,1.74E2,4.61E2,5.9E1,5E0,4.3E1,3.9E1,1.7E1,3.9E1,5E1,1.43E2,9E0,7.5E1,1.1E1,8E0,8.4E1,1.48E2,5.6E1,7.5E1,6.6E1,6.5E1,2E0,1.12E2,7E0,1.36E2,1.67E2,4.55E2,5E0,2E0,1.5E1,3.4E1,1.84E2,1.2E1,2.82E2,1.7E1,4.71E2,2.2E1,1.08E2,2.21E2,1.05E2,1.01E2,5.3E1,1.25E2,7E0,4E0,5E0,3.8E1,2.06E2,7E0,3.58E2,7E0,3.4E2,1.5E1,5.2E1,3.9E1,8E0,5E0,3.41E2,2E0,1.74E2,2.3E1,2E0,1.4E2,2.5E2,2.16E2,1.71E2,3E0,2.85E2,1.76E2,4.5E1,1.4E1,2E0,3E0,7E0,3.6E1,1.3E1,2.6E1,2E0,1.5E1,2E1,3E1,8E0,1.35E2,6E0,5E0,6E0,2E0,7.2E1,1.2E1,1.28E2,2E1,3.1E1,2.5E1,7.3E1,2E0,2.2E1,4.4E1,4.9E1,1.6E1,2E0,1.1E2,3E0,4E0,1.26E2,1E1,5E0,1.62E2,8E0,4.47E2],"tree_param":{"num_deleted":"0","num_feature":"10","num_nodes":"199","size_leaf_vector":"1"}},{"base_weights":[2.3981926E-3,-1.5750175E0,9.2266284E-2,-2.249801E-2,-1.6354468E-1,2.5590572E-1,-3.0005383E-1,-3.7278146E-2,3.1161932E-3,-2.4451056E-1,4.9024713E-1,-1.10309E0,1.1821801E-1,-1.0101266E-2,-5.3001035E-2,-4.2523843E-1,-6.754342E-2,3.5314578E-1,6.265721E-1,-1.3949405E0,-7.528879E-1,-7.340428E-2,2.8565872E-1,-2.0737757E-3,7.447807E-4,-6.2170797E-3,-1.6994503E-3,-5.9445983E-1,-3.7547204E-1,-1.58285E-1,2.450785E-2,2.0733084E-1,4.1432142E-1,7.3397523E-1,4.8140916E-1,-1.5229736E-1,-1.2726498E0,-1.0252372E-1,-6.710054E-1,-3.075974E-1,-9.7142067E-4,1.8102795E-1,2.949842E-1,-6.3388586E-2,-5.4373264E-2,-4.3487155E-1,-3.2083914E-1,-2.1058172E-1,-1.0415095E-1,-2.2549702E-2,8.339072E-2,1.5454212E-1,2.4349064E-1,3.4619424E-2,4.281216E-1,6.0858005E-1,8.2625043E-1,5.1890653E-1,1.9429459E-1,-1.3313697E-1,-1.10289514E-1,-4.8823434E-1,-7.2934586E-1,-1.4246438E-1,-3.4599733E-1,-5.5666927E-2,5.9647717E-2,2.1593222E-2,9.066919E-2,2.593419E-1,3.0698982E-1,-5.1552117E-2,-4.205507E-1,-3.2757962E-1,-2.4743332E-1,-2.1756588E-1,-1.2632504E-2,-1.1296401E-1,-6.48723E-2,6.744905E-2,-2.7561242E-2,1.05068095E-1,5.320016E-2,9.6478686E-2,1.6427635E-1,2.5163826E-1,1.8841954E-2,4.7443938E-1,3.9163125E-1,5.300213E-1,6.642132E-2,8.4582704E-1,6.535251E-2,5.697582E-2,4.984556E-2,2.5752324E-1,2.2858324E-2,-3.0218124E-1,-5.7207E-2,-8.016675E-1,-5.3856826E-1,-7.4770064E-3,-1.6368186E-2,-3.898333E-1,-2.1189624E-1,-4.44303E-3,-6.686624E-2,9.15245E-2,1.6220858E-2,4.7811884E-2,1.4362151E-2,2.4401E-1,3.132597E-1,3.319916E-2,2.885797E-1,-4.231984E-2,-2.423444E-2,-2.8801737E-2,-3.4311607E-2,-2.5631404E-2,-1.2340984E-2,-2.5972832E-2,-2.0155614E-2,-4.2498107E-3,-1.17815845E-2,-8.047309E-3,5.639866E-4,7.711723E-3,1.2738769E-3,-1.3941904E-2,-2.011545E-3,5.6786877E-3,1.2347041E-2,2.3108413E-3,6.83857E-3,5.591091E-3,1.2129291E-2,2.282459E-2,1.5454966E-2,2.5896018E-2,1.6684143E-2,4.3020498E-2,5.2271556E-2,3.7241947E-2,4.6348263E-2,5.490203E-2,3.7894018E-2,8.100634E-2,9.0848625E-2,3.1156382E-2,2.0059166E-2,-9.242869E-3,9.819245E-3,-3.391574E-2,-5.099945E-3,-6.92792E-2,-8.615317E-2,-6.091441E-2,-4.2202678E-2,-2.4003167E-2,-4.1427005E-2,-1.0309432E-2,-2.5666555E-2,-3.932146E-3,3.3661479E-3,-5.895331E-3,-1.5323347E-2,8.118101E-4,9.823951E-3,-1.1092153E-2,3.1752829E-3,7.81896E-3,1.4943575E-3,2.1902617E-2,2.7757457E-2,1.0693002E-2,3.2252423E-2,2.6776625E-2,3.328106E-2],"categories":[],"categories_nodes":[],"categories_segments":[],"categories_sizes":[],"default_left":[0,0,0,0,0,0,0,0,0,0,0,0,0,0,0,0,0,0,0,0,0,0,0,0,0,0,0,0,0,0,0,0,0,0,0,0,0,0,0,0,0,0,0,0,0,0,0,0,0,0,0,0,0,0,0,0,0,0,0,0,0,0,0,0,0,0,0,0,0,0,0,0,0,0,0,0,0,0,0,0,0,0,0,0,0,0,0,0,0,0,0,0,0,0,0,0,0,0,0,0,0,0,0,0,0,0,0,0,0,0,0,0,0,0,0,0,0,0,0,0,0,0,0,0,0,0,0,0,0,0,0,0,0,0,0,0,0,0,0,0,0,0,0,0,0,0,0,0,0,0,0,0,0,0,0,0,0,0,0,0,0,0,0,0,0,0,0,0,0,0,0,0,0,0,0,0,0,0,0],"id":4,"left_children":[1,3,5,7,-1,9,11,13,-1,15,17,19,21,23,25,27,29,31,33,35,37,39,41,-1,-1,-1,-1,43,45,47,49,51,53,55,57,-1,59,-1,61,63,65,67,69,-1,-1,71,73,75,77,79,81,83,85,-1,87,89,91,93,95,-1,-1,97,99,101,103,105,107,-1,109,111,113,-1,115,117,119,121,-1,123,125,127,129,131,133,135,137,139,-1,141,143,145,-1,147,-1,-1,-1,149,151,153,-1,155,157,-1,-1,159,161,163,165,167,169,171,-1,173,175,-1,177,-1,-1,-1,-1,-1,-1,-1,-1,-1,-1,-1,-1,-1,-1,-1,-1,-1,-1,-1,-1,-1,-1,-1,-1,-1,-1,-1,-1,-1,-1,-1,-1,-1,-1,-1,-1,-1,-1,-1,-1,-1,-1,-1,-1,-1,-1,-1,-1,-1,-1,-1,-1,-1,-1,-1,-1,-1,-1,-1,-1,-1,-1,-1,-1],"loss_changes":[1.0519995E3,3.7490295E1,4.5081824E2,1.3851279E-2,0E0,5.81184E2,6.944097E2,5.01951E-3,0E0,5.0536224E1,6.2858643E1,7.131207E1,4.3657074E1,1.274414E-3,1.5848074E-3,6.362442E0,6.686182E0,1.4944855E1,2.6010986E1,4.0897827E0,6.5374603E0,1.0771383E1,6.549797E-1,0E0,0E0,0E0,0E0,7.331848E-3,1.8302917E0,1.1189747E0,1.1046921E0,9.167843E-1,9.668274E-1,1.0720886E1,7.6722717E0,0E0,5.5511475E-1,0E0,2.3309708E0,9.018707E-1,1.6146994E0,1.7596388E-1,2.0494843E-1,0E0,0E0,1.1583328E-1,7.727814E-2,9.256172E-2,6.1904907E-2,1.0198818E-1,1.1024833E-1,1.0058212E-1,8.4955215E-2,0E0,1.4739227E0,1.4617004E0,1.3272705E0,3.7950134E-1,9.154861E-1,0E0,0E0,8.253956E-1,2.1759415E0,3.085059E-2,6.2868977E-1,1.4656305E-1,3.182907E-1,0E0,3.625165E-2,6.740093E-2,1.3065338E-1,0E0,1.5399933E-2,7.942963E-2,2.5123358E-3,7.387638E-2,0E0,5.0379038E-2,4.335563E-2,5.365003E-3,1.7293108E-1,8.361411E-2,3.314863E-2,2.5431484E-2,7.361221E-2,1.1449623E-1,0E0,6.891022E-1,5.935211E-1,3.0001068E-1,0E0,3.7557983E-1,0E0,0E0,0E0,1.2825298E-1,2.175169E-1,1.8703318E-1,0E0,2.8303528E-1,1.9530201E-1,0E0,0E0,2.3002148E-1,1.2941086E-1,6.37878E-2,1.3448417E-1,7.369232E-2,1.9902448E-1,1.08131375E-2,0E0,5.660343E-2,3.2416344E-2,0E0,1.787796E-1,0E0,0E0,0E0,0E0,0E0,0E0,0E0,0E0,0E0,0E0,0E0,0E0,0E0,0E0,0E0,0E0,0E0,0E0,0E0,0E0,0E0,0E0,0E0,0E0,0E0,0E0,0E0,0E0,0E0,0E0,0E0,0E0,0E0,0E0,0E0,0E0,0E0,0E0,0E0,0E0,0E0,0E0,0E0,0E0,0E0,0E0,0E0,0E0,0E0,0E0,0E0,0E0,0E0,0E0,0E0,0E0,0E0,0E0,0E0,0E0,0E0,0E0,0E0,0E0],"parents":[2147483647,0,0,1,1,2,2,3,3,5,5,6,6,7,7,9,9,10,10,11,11,12,12,13,13,14,14,15,15,16,16,17,17,18,18,19,19,20,20,21,21,22,22,27,27,28,28,29,29,30,30,31,31,32,32,33,33,34,34,36,36,38,38,39,39,40,40,41,41,42,42,45,45,46,46,47,47,48,48,49,49,50,50,51,51,52,52,54,54,55,55,56,56,57,57,58,58,61,61,62,62,63,63,64,64,65,65,66,66,68,68,69,69,70,70,72,72,73,73,74,74,75,75,77,77,78,78,79,79,80,80,81,81,82,82,83,83,84,84,85,85,87,87,88,88,89,89,91,91,95,95,96,96,97,97,99,99,100,100,103,103,104,104,105,105,106,106,107,107,108,108,109,109,111,111,112,112,114,114],"right_children":[2,4,6,8,-1,10,12,14,-1,16,18,20,22,24,26,28,30,32,34,36,38,40,42,-1,-1,-1,-1,44,46,48,50,52,54,56,58,-1,60,-1,62,64,66,68,70,-1,-1,72,74,76,78,80,82,84,86,-1,88,90,92,94,96,-1,-1,98,100,102,104,106,108,-1,110,112,114,-1,116,118,120,122,-1,124,126,128,130,132,134,136,138,140,-1,142,144,146,-1,148,-1,-1,-1,150,152,154,-1,156,158,-1,-1,160,162,164,166,168,170,172,-1,174,176,-1,178,-1,-1,-1,-1,-1,-1,-1,-1,-1,-1,-1,-1,-1,-1,-1,-1,-1,-1,-1,-1,-1,-1,-1,-1,-1,-1,-1,-1,-1,-1,-1,-1,-1,-1,-1,-1,-1,-1,-1,-1,-1,-1,-1,-1,-1,-1,-1,-1,-1,-1,-1,-1,-1,-1,-1,-1,-1,-1,-1,-1,-1,-1,-1,-1],"split_conditions":[-1.2969921E0,-9.257791E-1,5.791169E-1,-3.1935376E-1,-1.6354468E-1,-9.872548E-1,5.477163E-1,-1.3158616E0,3.1161932E-3,-1.3653139E0,-2.0451266E-1,2.0658582E-2,1.3951389E0,-9.8795986E-1,1.8212843E-1,-1.649302E0,-1.1762843E0,-7.569582E-1,2.4276854E-1,-7.6992804E-1,2.8418747E-1,1.1626236E0,1.4222065E0,-2.0737757E-3,7.447807E-4,-6.2170797E-3,-1.6994503E-3,-1.7963694E0,-1.5139639E0,-1.2707992E0,-1.0675701E0,-8.9185256E-1,-6.6288716E-1,-1.3708179E-2,5.391811E-1,-1.5229736E-1,-2.4287029E-1,-1.0252372E-1,6.48339E-1,5.959787E-1,1.2873122E0,4.8528072E-1,1.5034093E0,-6.3388586E-2,-5.4373264E-2,-2.1732205E-1,-1.3790696E0,-5.3999895E-1,6.2142175E-1,-6.8058264E-1,3.390835E-1,-1.1826136E-1,-2.8488383E-1,3.4619424E-2,-4.5965818E-1,-1.2330982E-1,2.1436974E-1,3.239714E-1,5.6713617E-1,-1.3313697E-1,-1.10289514E-1,7.532267E-1,1.1084884E0,-6.8058264E-1,1.148868E0,-7.35635E-2,9.601693E-1,2.1593222E-2,-5.730857E-1,4.8528072E-1,1.5979241E0,-5.1552117E-2,4.63627E-1,-1.4735843E0,-3.1935376E-1,1.6047473E-1,-1.2632504E-2,-1.572128E0,-1.3827064E0,-1.1811979E0,-1.2029166E0,-1.04139E0,-4.875671E-1,-9.4229716E-1,-1.1160434E0,3.553585E-1,1.8841954E-2,-5.54173E-1,-2.5687295E-1,3.553585E-1,6.642132E-2,6.9190584E-2,6.535251E-2,5.697582E-2,4.984556E-2,5.520493E-1,6.431406E-1,3.1205112E-1,-5.7207E-2,6.7540663E-1,4.2595667E-1,-7.4770064E-3,-1.6368186E-2,-1.2246344E0,-7.685509E-1,-6.382401E-1,3.553585E-1,-5.3999895E-1,3.5026394E-2,-1.3115087E0,1.4362151E-2,9.254789E-1,4.3883833E-1,3.319916E-2,1.6924388E0,-4.231984E-2,-2.423444E-2,-2.8801737E-2,-3.4311607E-2,-2.5631404E-2,-1.2340984E-2,-2.5972832E-2,-2.0155614E-2,-4.2498107E-3,-1.17815845E-2,-8.047309E-3,5.639866E-4,7.711723E-3,1.2738769E-3,-1.3941904E-2,-2.011545E-3,5.6786877E-3,1.2347041E-2,2.3108413E-3,6.83857E-3,5.591091E-3,1.2129291E-2,2.282459E-2,1.5454966E-2,2.5896018E-2,1.6684143E-2,4.3020498E-2,5.2271556E-2,3.7241947E-2,4.6348263E-2,5.490203E-2,3.7894018E-2,8.100634E-2,9.0848625E-2,3.1156382E-2,2.0059166E-2,-9.242869E-3,9.819245E-3,-3.391574E-2,-5.099945E-3,-6.92792E-2,-8.615317E-2,-6.091441E-2,-4.2202678E-2,-2.4003167E-2,-4.1427005E-2,-1.0309432E-2,-2.5666555E-2,-3.932146E-3,3.3661479E-3,-5.895331E-3,-1.5323347E-2,8.118101E-4,9.823951E-3,-1.1092153E-2,3.1752829E-3,7.81896E-3,1.4943575E-3,2.1902617E-2,2.7757457E-2,1.0693002E-2,3.2252423E-2,2.6776625E-2,3.328106E-2],"split_indices":[1,6,9,4,0,9,1,7,0,9,9,1,9,6,0,9,9,9,9,1,1,9,9,0,0,0,0,6,9,9,9,9,9,9,9,0,1,0,9,9,9,0,9,0,0,4,9,3,2,3,2,3,4,0,9,9,9,9,9,0,0,6,9,3,9,2,4,0,2,0,9,0,0,9,4,0,0,2,7,2,2,9,4,2,2,0,0,9,9,0,0,6,0,0,0,9,2,0,0,9,2,0,0,2,2,2,0,3,2,2,0,2,7,0,9,0,0,0,0,0,0,0,0,0,0,0,0,0,0,0,0,0,0,0,0,0,0,0,0,0,0,0,0,0,0,0,0,0,0,0,0,0,0,0,0,0,0,0,0,0,0,0,0,0,0,0,0,0,0,0,0,0,0,0,0,0,0,0,0],"split_type":[0,0,0,0,0,0,0,0,0,0,0,0,0,0,0,0,0,0,0,0,0,0,0,0,0,0,0,0,0,0,0,0,0,0,0,0,0,0,0,0,0,0,0,0,0,0,0,0,0,0,0,0,0,0,0,0,0,0,0,0,0,0,0,0,0,0,0,0,0,0,0,0,0,0,0,0,0,0,0,0,0,0,0,0,0,0,0,0,0,0,0,0,0,0,0,0,0,0,0,0,0,0,0,0,0,0,0,0,0,0,0,0,0,0,0,0,0,0,0,0,0,0,0,0,0,0,0,0,0,0,0,0,0,0,0,0,0,0,0,0,0,0,0,0,0,0,0,0,0,0,0,0,0,0,0,0,0,0,0,0,0,0,0,0,0,0,0,0,0,0,0,0,0,0,0,0,0,0,0],"sum_hessian":[7.419E3,3.99E2,7.02E3,1.5E1,3.84E2,4.954E3,2.066E3,1.2E1,3E0,1.58E3,3.374E3,7.07E2,1.359E3,5E0,7E0,7.81E2,7.99E2,1.684E3,1.69E3,3.84E2,3.23E2,6.34E2,7.25E2,3E0,2E0,5E0,2E0,1.75E2,6.06E2,4.02E2,3.97E2,4.99E2,1.185E3,9.69E2,7.21E2,1.82E2,2.02E2,7.2E1,2.51E2,1.49E2,4.85E2,6.1E1,6.64E2,9.2E1,8.3E1,2.87E2,3.19E2,2.03E2,1.99E2,2.21E2,1.76E2,2.05E2,2.94E2,2.04E2,9.81E2,4.14E2,5.55E2,6.37E2,8.4E1,1.45E2,5.7E1,6.3E1,1.88E2,2.9E1,1.2E2,2.55E2,2.3E2,4.3E1,1.8E1,1.73E2,4.91E2,3.8E1,2.49E2,2.89E2,3E1,1.86E2,1.7E1,1.61E2,3.8E1,1.1E1,2.1E2,1.01E2,7.5E1,3.1E1,1.74E2,2.53E2,4.1E1,4.27E2,5.54E2,1.76E2,2.38E2,4.95E2,6E1,1.75E2,4.62E2,6.1E1,2.3E1,2.1E1,4.2E1,1.34E2,5.4E1,8E0,2.1E1,8.9E1,3.1E1,4.6E1,2.09E2,1.32E2,9.8E1,1.1E1,7E0,1.39E2,3.4E1,2.01E2,2.9E2,2.44E2,5E0,8.7E1,2.02E2,2.7E1,3E0,4.7E1,1.39E2,1.1E1,1.5E2,3.1E1,7E0,9E0,2E0,1.2E1,1.98E2,2.9E1,7.2E1,2.6E1,4.9E1,1.3E1,1.8E1,2E1,1.54E2,2.31E2,2.2E1,2.28E2,1.99E2,4.42E2,1.12E2,1.54E2,2.2E1,3.24E2,1.71E2,2.9E1,3.2E1,9E0,1.4E1,1.8E1,3E0,5.2E1,8.2E1,3.1E1,2.3E1,1.4E1,7.5E1,1E1,2.1E1,2.4E1,2.2E1,1.93E2,1.6E1,1E1,1.22E2,1E1,8.8E1,5E0,6E0,8.4E1,5.5E1,2E0,3.2E1,2.02E2,8.8E1],"tree_param":{"num_deleted":"0","num_feature":"10","num_nodes":"179","size_leaf_vector":"1"}},{"base_weights":[-7.010242E-4,-1.4211279E0,8.024661E-2,-2.4510954E-2,-1.471719E-1,2.29185E-1,-2.7063704E-1,-4.0246952E-2,2.8824788E-3,-2.2241405E-1,4.411824E-1,-9.906715E-1,1.0794571E-1,-7.1804705E-3,-2.6754934E-2,-3.845153E-1,-6.2076494E-2,3.1982908E-1,5.62345E-1,-1.2533875E0,-6.738387E-1,-6.340999E-2,2.591736E-1,-3.2156836E-3,-1.061287E-3,-5.355641E-2,-3.395133E-1,-1.3325751E-1,3.1698182E-2,1.928286E-1,3.7781033E-1,6.607875E-1,4.3248326E-1,-1.3247818E0,-1.07992545E-1,-9.077464E-1,-6.035926E-1,-2.720439E-1,-1.6979487E-3,2.096682E-1,2.7431643E-1,-3.9003807E-1,-2.9128635E-1,-1.904719E-1,-8.607768E-2,-1.46259265E-2,7.67752E-2,1.3854718E-1,2.2712493E-1,4.255653E-1,3.6055177E-1,5.4494494E-1,7.4374425E-1,4.6845415E-1,1.6637091E-1,-9.7836085E-2,-1.3396724E-1,-4.885489E-2,-9.310426E-2,-4.2902398E-1,-6.607545E-1,-1.2560613E-1,-3.085185E-1,-3.9445482E-2,6.7586996E-2,1.8210526E-1,2.569667E-2,2.8634065E-1,2.4745914E-1,-4.6060372E-2,-3.777161E-2,-2.4054724E-1,-3.011323E-1,-1.9666436E-1,-1.11150496E-1,-1.0112644E-1,-6.4822026E-2,-5.78354E-2,-3.3982976E-3,9.7811416E-2,4.8362553E-2,1.487011E-1,6.832391E-2,2.3445095E-1,1.7550941E-1,3.1564455E-2,4.366097E-1,3.5276327E-1,4.2756137E-1,4.764906E-1,5.932599E-1,7.622382E-1,5.908178E-2,5.3076136E-1,4.5302522E-1,2.25563E-1,3.147489E-2,-2.4364628E-1,-4.883663E-2,-7.254773E-1,-4.831156E-1,-6.9848644E-3,-1.4524109E-2,-3.4834972E-1,-1.9183087E-1,-4.8976377E-2,4.945275E-3,1.1060872E-1,5.1513094E-2,2.5101233E-1,1.6384654E-1,2.8843614E-1,1.3437281E-2,2.3083736E-1,3.0306002E-1,-1.3802978E-2,-2.478915E-2,-3.486825E-2,-2.7832592E-2,-2.3621738E-2,-1.8246647E-2,-5.9125316E-3,-1.2790054E-2,-1.3439796E-2,-8.027162E-3,-3.9468347E-3,-1.1302451E-2,-1.2720517E-2,1.474744E-3,-5.866432E-3,7.203883E-4,-1.281246E-3,1.0383197E-2,2.563529E-3,7.7200043E-3,7.404798E-3,1.5312202E-2,1.1056422E-2,2.7898152E-4,2.395293E-2,1.6065363E-2,1.8227533E-2,1.0227943E-2,4.588339E-2,4.0167127E-2,3.1645805E-2,3.6943745E-2,4.390817E-2,2.6323298E-2,4.931478E-2,3.412604E-2,3.5170835E-2,5.970477E-2,7.282707E-2,8.16996E-2,4.5794338E-2,5.845044E-2,4.315352E-2,4.7341716E-2,2.7537702E-2,1.779055E-2,-7.067509E-3,1.1250457E-2,-2.7979568E-2,-4.7174487E-3,-8.374774E-2,-6.712174E-2,-5.4973852E-2,-3.838435E-2,-2.1158848E-2,-3.69806E-2,-9.372211E-3,-2.3216566E-2,-2.676627E-4,-5.8645066E-3,2.4356407E-3,-1.3995816E-2,1.3753665E-2,9.368824E-3,2.5207235E-4,8.210181E-3,8.295021E-3,2.6367104E-2,5.8306763E-3,1.7876223E-2,2.6100552E-2,3.0004395E-2,2.5209019E-2,1.7942367E-2,1.6559724E-2,3.1436164E-2],"categories":[],"categories_nodes":[],"categories_segments":[],"categories_sizes":[],"default_left":[0,0,0,0,0,0,0,0,0,0,0,0,0,0,0,0,0,0,0,0,0,0,0,0,0,0,0,0,0,0,0,0,0,0,0,0,0,0,0,0,0,0,0,0,0,0,0,0,0,0,0,0,0,0,0,0,0,0,0,0,0,0,0,0,0,0,0,0,0,0,0,0,0,0,0,0,0,0,0,0,0,0,0,0,0,0,0,0,0,0,0,0,0,0,0,0,0,0,0,0,0,0,0,0,0,0,0,0,0,0,0,0,0,0,0,0,0,0,0,0,0,0,0,0,0,0,0,0,0,0,0,0,0,0,0,0,0,0,0,0,0,0,0,0,0,0,0,0,0,0,0,0,0,0,0,0,0,0,0,0,0,0,0,0,0,0,0,0,0,0,0,0,0,0,0,0,0,0,0,0,0,0,0,0,0,0,0,0,0,0,0],"id":5,"left_children":[1,3,5,7,-1,9,11,13,-1,15,17,19,21,-1,23,25,27,29,31,33,35,37,39,-1,-1,-1,41,43,45,47,49,51,53,55,-1,57,59,61,63,65,67,69,71,73,75,77,79,81,83,85,87,89,91,93,95,-1,-1,-1,-1,97,99,101,103,105,107,109,-1,111,113,-1,-1,115,117,119,121,123,125,127,129,131,133,135,137,139,141,-1,143,145,147,149,151,153,-1,155,157,159,161,163,-1,165,167,-1,-1,169,171,173,175,177,179,181,183,185,-1,187,189,-1,-1,-1,-1,-1,-1,-1,-1,-1,-1,-1,-1,-1,-1,-1,-1,-1,-1,-1,-1,-1,-1,-1,-1,-1,-1,-1,-1,-1,-1,-1,-1,-1,-1,-1,-1,-1,-1,-1,-1,-1,-1,-1,-1,-1,-1,-1,-1,-1,-1,-1,-1,-1,-1,-1,-1,-1,-1,-1,-1,-1,-1,-1,-1,-1,-1,-1,-1,-1,-1,-1,-1,-1,-1,-1,-1],"loss_changes":[8.530372E2,2.8226501E1,3.6687527E2,1.3749477E-2,0E0,4.718942E2,5.703707E2,3.1882022E-3,0E0,4.0911827E1,4.913556E1,5.916931E1,3.5570114E1,0E0,5.30703E-4,5.140602E0,5.2974806E0,1.228334E1,2.1152832E1,3.4363403E0,4.8579254E0,8.2911825E0,4.8897934E-1,0E0,0E0,0E0,1.362999E0,1.2010183E0,7.173592E-1,9.514866E-1,7.952118E-1,8.743347E0,6.8715515E0,1.0272217E-1,0E0,2.678032E-1,2.2710648E0,7.4641323E-1,1.3051033E0,1.8134975E-1,1.0837555E-1,8.078766E-2,8.442879E-2,7.78532E-2,7.309294E-2,8.227724E-2,9.9268556E-2,1.3743949E-1,8.061218E-2,2.2638321E-1,2.938385E-1,1.0435638E0,1.1108704E0,3.7384033E-1,6.955607E-1,0E0,0E0,0E0,0E0,6.070614E-1,1.8454895E0,2.3793757E-2,4.7696877E-1,1.3689816E-1,1.16010964E-1,1.02302074E-1,0E0,8.129692E-2,9.547138E-2,0E0,0E0,7.946968E-3,1.8382454E-1,6.1911583E-2,7.2520375E-3,8.912897E-2,1.2508273E-1,1.7810285E-1,8.011049E-2,6.726587E-2,4.7831148E-2,4.8068285E-2,7.720061E-2,6.607914E-2,3.1576157E-3,0E0,2.5352478E-2,3.4860992E-1,4.344082E-2,2.1689606E-1,1.373291E-3,3.1451416E-1,0E0,2.0585632E-1,2.3139954E-2,9.5823765E-2,2.397123E-1,1.1464286E-1,0E0,2.7651215E-1,1.4613152E-1,0E0,0E0,1.7411137E-1,1.04871154E-1,1.1892009E-1,1.6654778E-1,8.529246E-3,1.9461286E-1,2.4932384E-2,1.359775E-1,3.981781E-2,0E0,1.09930515E-1,6.9773197E-3,0E0,0E0,0E0,0E0,0E0,0E0,0E0,0E0,0E0,0E0,0E0,0E0,0E0,0E0,0E0,0E0,0E0,0E0,0E0,0E0,0E0,0E0,0E0,0E0,0E0,0E0,0E0,0E0,0E0,0E0,0E0,0E0,0E0,0E0,0E0,0E0,0E0,0E0,0E0,0E0,0E0,0E0,0E0,0E0,0E0,0E0,0E0,0E0,0E0,0E0,0E0,0E0,0E0,0E0,0E0,0E0,0E0,0E0,0E0,0E0,0E0,0E0,0E0,0E0,0E0,0E0,0E0,0E0,0E0,0E0,0E0,0E0,0E0,0E0,0E0,0E0],"parents":[2147483647,0,0,1,1,2,2,3,3,5,5,6,6,7,7,9,9,10,10,11,11,12,12,14,14,15,15,16,16,17,17,18,18,19,19,20,20,21,21,22,22,26,26,27,27,28,28,29,29,30,30,31,31,32,32,33,33,35,35,36,36,37,37,38,38,39,39,40,40,41,41,42,42,43,43,44,44,45,45,46,46,47,47,48,48,49,49,50,50,51,51,52,52,53,53,54,54,59,59,60,60,61,61,62,62,63,63,64,64,65,65,67,67,68,68,71,71,72,72,73,73,74,74,75,75,76,76,77,77,78,78,79,79,80,80,81,81,82,82,83,83,84,84,86,86,87,87,88,88,89,89,90,90,91,91,93,93,94,94,95,95,96,96,97,97,99,99,100,100,103,103,104,104,105,105,106,106,107,107,108,108,109,109,110,110,111,111,113,113,114,114],"right_children":[2,4,6,8,-1,10,12,14,-1,16,18,20,22,-1,24,26,28,30,32,34,36,38,40,-1,-1,-1,42,44,46,48,50,52,54,56,-1,58,60,62,64,66,68,70,72,74,76,78,80,82,84,86,88,90,92,94,96,-1,-1,-1,-1,98,100,102,104,106,108,110,-1,112,114,-1,-1,116,118,120,122,124,126,128,130,132,134,136,138,140,142,-1,144,146,148,150,152,154,-1,156,158,160,162,164,-1,166,168,-1,-1,170,172,174,176,178,180,182,184,186,-1,188,190,-1,-1,-1,-1,-1,-1,-1,-1,-1,-1,-1,-1,-1,-1,-1,-1,-1,-1,-1,-1,-1,-1,-1,-1,-1,-1,-1,-1,-1,-1,-1,-1,-1,-1,-1,-1,-1,-1,-1,-1,-1,-1,-1,-1,-1,-1,-1,-1,-1,-1,-1,-1,-1,-1,-1,-1,-1,-1,-1,-1,-1,-1,-1,-1,-1,-1,-1,-1,-1,-1,-1,-1,-1,-1,-1,-1],"split_conditions":[-1.2969921E0,-1.0986128E0,5.791169E-1,-3.1935376E-1,-1.471719E-1,-9.872548E-1,5.477163E-1,9.551364E-2,2.8824788E-3,-1.3653139E0,-2.0451266E-1,2.0658582E-2,1.3951389E0,-7.1804705E-3,1.6289929E-1,-1.649302E0,-1.1492168E0,-7.432025E-1,2.4276854E-1,-5.0639915E-1,2.8418747E-1,1.1626236E0,1.4763417E0,-3.2156836E-3,-1.061287E-3,-5.355641E-2,-1.5139639E0,-1.2707992E0,-1.0675701E0,-8.9185256E-1,-2.5883833E-1,-1.3708179E-2,5.391811E-1,7.5660944E-1,-1.07992545E-1,6.7540663E-1,6.48339E-1,5.959787E-1,1.3143798E0,8.386037E-1,8.168869E-1,-2.1732205E-1,-1.6166673E0,-5.3999895E-1,-1.203352E0,-2.6902863E-1,3.390835E-1,3.1205112E-1,-2.8488383E-1,-6.486877E-1,-2.4489221E-1,-1.2330982E-1,2.1436974E-1,2.9690376E-1,5.6713617E-1,-9.7836085E-2,-1.3396724E-1,-4.885489E-2,-9.310426E-2,6.212714E-1,1.1084884E0,-6.8058264E-1,1.148868E0,1.2873122E0,-3.012796E-2,6.568345E-1,2.569667E-2,2.4121912E0,1.6924388E0,-4.6060372E-2,-3.777161E-2,-1.8840506E0,-2.8488383E-1,1.6047473E-1,-1.7586942E0,1.2189955E-1,4.2595667E-1,2.9039744E-1,-4.2000532E-1,-1.613235E0,-1.1677592E0,-2.5883833E-1,-8.1198746E-1,3.553585E-1,7.2522056E-1,3.1564455E-2,3.173647E-1,1.0018282E-1,4.4197333E-1,3.553585E-1,-1.1023203E0,3.548777E-1,5.908178E-2,1.2189955E-1,2.9039744E-1,5.520493E-1,6.648573E-1,2.6874322E-1,-4.883663E-2,6.9130445E-1,4.2595667E-1,-6.9848644E-3,-1.4524109E-2,-1.3332264E0,-7.685509E-1,-9.528231E-2,3.9866593E-1,1.3680713E0,7.300137E-1,-3.9897096E0,7.91956E-1,-6.165213E-1,1.3437281E-2,9.067581E-1,8.820413E-1,-1.3802978E-2,-2.478915E-2,-3.486825E-2,-2.7832592E-2,-2.3621738E-2,-1.8246647E-2,-5.9125316E-3,-1.2790054E-2,-1.3439796E-2,-8.027162E-3,-3.9468347E-3,-1.1302451E-2,-1.2720517E-2,1.474744E-3,-5.866432E-3,7.203883E-4,-1.281246E-3,1.0383197E-2,2.563529E-3,7.7200043E-3,7.404798E-3,1.5312202E-2,1.1056422E-2,2.7898152E-4,2.395293E-2,1.6065363E-2,1.8227533E-2,1.0227943E-2,4.588339E-2,4.0167127E-2,3.1645805E-2,3.6943745E-2,4.390817E-2,2.6323298E-2,4.931478E-2,3.412604E-2,3.5170835E-2,5.970477E-2,7.282707E-2,8.16996E-2,4.5794338E-2,5.845044E-2,4.315352E-2,4.7341716E-2,2.7537702E-2,1.779055E-2,-7.067509E-3,1.1250457E-2,-2.7979568E-2,-4.7174487E-3,-8.374774E-2,-6.712174E-2,-5.4973852E-2,-3.838435E-2,-2.1158848E-2,-3.69806E-2,-9.372211E-3,-2.3216566E-2,-2.676627E-4,-5.8645066E-3,2.4356407E-3,-1.3995816E-2,1.3753665E-2,9.368824E-3,2.5207235E-4,8.210181E-3,8.295021E-3,2.6367104E-2,5.8306763E-3,1.7876223E-2,2.6100552E-2,3.0004395E-2,2.5209019E-2,1.7942367E-2,1.6559724E-2,3.1436164E-2],"split_indices":[1,7,9,4,0,9,1,0,0,9,9,1,9,0,3,9,9,9,9,1,1,9,9,0,0,0,9,9,9,9,3,9,9,9,0,9,9,9,9,2,2,4,7,3,9,2,2,0,4,9,9,9,9,9,9,0,0,0,0,9,9,3,9,9,2,4,0,3,9,0,0,7,4,0,8,2,2,0,4,8,8,3,2,0,3,0,2,2,0,0,3,4,0,2,0,9,2,0,0,4,2,0,0,2,2,2,0,9,2,4,4,2,0,7,2,0,0,0,0,0,0,0,0,0,0,0,0,0,0,0,0,0,0,0,0,0,0,0,0,0,0,0,0,0,0,0,0,0,0,0,0,0,0,0,0,0,0,0,0,0,0,0,0,0,0,0,0,0,0,0,0,0,0,0,0,0,0,0,0,0,0,0,0,0,0,0,0,0,0,0,0],"split_type":[0,0,0,0,0,0,0,0,0,0,0,0,0,0,0,0,0,0,0,0,0,0,0,0,0,0,0,0,0,0,0,0,0,0,0,0,0,0,0,0,0,0,0,0,0,0,0,0,0,0,0,0,0,0,0,0,0,0,0,0,0,0,0,0,0,0,0,0,0,0,0,0,0,0,0,0,0,0,0,0,0,0,0,0,0,0,0,0,0,0,0,0,0,0,0,0,0,0,0,0,0,0,0,0,0,0,0,0,0,0,0,0,0,0,0,0,0,0,0,0,0,0,0,0,0,0,0,0,0,0,0,0,0,0,0,0,0,0,0,0,0,0,0,0,0,0,0,0,0,0,0,0,0,0,0,0,0,0,0,0,0,0,0,0,0,0,0,0,0,0,0,0,0,0,0,0,0,0,0,0,0,0,0,0,0,0,0,0,0,0,0],"sum_hessian":[7.417E3,3.99E2,7.018E3,1.4E1,3.85E2,4.927E3,2.091E3,1.1E1,3E0,1.574E3,3.353E3,7.2E2,1.371E3,2E0,9E0,7.82E2,7.92E2,1.677E3,1.676E3,3.92E2,3.28E2,6.43E2,7.28E2,6E0,3E0,1.77E2,6.05E2,4.5E2,3.42E2,5.27E2,1.15E3,9.51E2,7.25E2,2.73E2,1.19E2,7.3E1,2.55E2,1.46E2,4.97E2,1.74E2,5.54E2,2.92E2,3.13E2,2.02E2,2.48E2,1.69E2,1.73E2,2.06E2,3.21E2,2.99E2,8.51E2,4E2,5.51E2,6.38E2,8.7E1,1.4E1,2.59E2,5E0,6.8E1,6.5E1,1.9E2,3E1,1.16E2,3.22E2,1.75E2,1.13E2,6.1E1,3.76E2,1.78E2,3.8E1,2.54E2,5.5E1,2.58E2,1.86E2,1.6E1,1.43E2,1.05E2,3.4E1,1.35E2,9.8E1,7.5E1,1.79E2,2.7E1,2.78E2,4.3E1,3E1,2.69E2,7.68E2,8.3E1,1.7E2,2.3E2,4.88E2,6.3E1,1.2E2,5.18E2,6E1,2.7E1,1.7E1,4.8E1,1.37E2,5.3E1,9E0,2.1E1,8.5E1,3.1E1,2.65E2,5.7E1,4.6E1,1.29E2,2.1E1,9.2E1,3.7E2,6E0,1.41E2,3.7E1,5E0,5E1,7.9E1,1.79E2,4.5E1,1.41E2,5E0,1.1E1,5.3E1,9E1,7E1,3.5E1,1.7E1,1.7E1,2.1E1,1.14E2,5E0,9.3E1,4.3E1,3.2E1,1.1E1,1.68E2,1.6E1,1.1E1,2.58E2,2E1,3.8E1,5E0,1.57E2,1.12E2,2.48E2,5.2E2,7.6E1,7E0,1.49E2,2.1E1,5E0,2.25E2,3.1E2,1.78E2,5.5E1,6.5E1,2.63E2,2.55E2,2.7E1,3.3E1,1.2E1,1.5E1,1.4E1,3E0,4E1,9.7E1,2.9E1,2.4E1,1.3E1,7.2E1,1E1,2.1E1,4.6E1,2.19E2,5.1E1,6E0,1.5E1,3.1E1,5E1,7.9E1,2E0,1.9E1,1.2E1,8E1,1.17E2,2.53E2,9.7E1,4.4E1,4E0,3.3E1],"tree_param":{"num_deleted":"0","num_feature":"10","num_nodes":"191","size_leaf_vector":"1"}},{"base_weights":[-4.5550475E-3,-1.2756529E0,7.090967E-2,-1.3719814E-2,-1.3228232E-1,2.0616056E-1,-2.4912722E-1,-2.5089903E-2,2.666293E-3,-1.9822799E-1,3.9770865E-1,-8.915534E-1,9.621254E-2,-4.034009E-2,-1.0516025E-2,-3.299609E-1,-3.8068566E-2,2.873136E-1,5.072082E-1,-1.1290411E0,-6.1418873E-1,-6.0570218E-2,2.3375279E-1,-1.7471167E-3,-4.740676E-3,1.3765071E-3,-2.2752683E-3,-4.2801467E-1,-2.6269278E-1,-1.0269393E-1,2.9051682E-2,1.6746221E-1,3.3721122E-1,5.955904E-1,3.903318E-1,-1.2363782E-1,-1.0316144E0,-8.277291E-1,-5.4908645E-1,-2.490858E-1,-4.661382E-3,1.8655348E-1,2.4851207E-1,-6.082766E-4,8.376945E-4,-4.9119066E-2,-3.74631E-1,-2.8534734E-1,-2.0244794E-1,-1.545957E-1,-7.85051E-2,-1.09532215E-2,6.777683E-2,1.2320051E-1,1.981263E-1,2.7665132E-1,3.496367E-1,4.6119747E-1,6.539698E-1,4.2273062E-1,1.5100491E-1,-1.08074166E-1,-8.899651E-2,-3.962976E-2,-8.3986424E-2,-3.129397E-1,-5.829288E-1,-1.164156E-1,-2.8124976E-1,-3.835517E-2,5.898784E-2,1.4074163E-1,2.0621389E-1,2.6426986E-1,2.3405293E-1,-4.290667E-2,-3.6004152E-2,-3.2611793E-1,-2.6644623E-1,-1.8339868E-1,-2.271062E-1,-2.1452917E-2,-1.4201E-1,-9.212633E-2,-5.8687713E-2,6.7689363E-3,-3.8019825E-2,5.6204457E-2,9.6509464E-2,1.3334122E-1,7.539262E-2,2.018701E-1,1.2163091E-1,2.8899536E-2,2.420033E-2,3.915475E-1,3.1495747E-1,4.7337938E-2,3.1836048E-2,5.9325088E-2,6.799088E-1,4.6601537E-1,4.0549448E-1,2.0477183E-1,2.8476788E-2,-4.3636407E-3,-3.3682325E-1,-6.120377E-1,-3.620764E-2,-6.356226E-3,-1.3604026E-1,-3.159738E-1,-1.7584598E-1,-1.0958798E-1,-3.117392E-2,7.390732E-2,1.9527748E-2,1.7162599E-1,5.2804116E-2,2.102642E-1,1.1021378E-1,2.3482202E-1,2.8377423E-2,2.0527655E-1,2.6105344E-1,-3.2894474E-2,-1.1187929E-2,-2.3615789E-2,-2.8832866E-2,-2.2335773E-2,-1.7050352E-2,-1.2194691E-2,-2.3253694E-2,-1.6818829E-2,-1.27987405E-2,-7.954439E-3,-1.2271514E-2,-1.3358767E-2,-5.1974575E-3,3.7431929E-3,-3.2519333E-3,-1.259415E-2,-2.0983242E-3,2.1860925E-3,6.458014E-3,1.7367546E-3,1.0491706E-2,1.041057E-2,1.4494525E-2,1.1884162E-2,2.5688799E-3,2.1729374E-2,1.7286003E-2,2.0683046E-2,6.410107E-3,3.428058E-2,4.2353388E-2,2.9041624E-2,3.5617247E-2,7.011075E-2,5.307975E-2,3.699974E-2,4.80287E-2,4.3509394E-2,3.8923882E-2,2.5482623E-2,1.5144675E-2,4.4391262E-3,-7.8107873E-3,-2.5532577E-2,-4.1216534E-2,-5.328798E-2,-6.63638E-2,-1.4184959E-2,-5.390098E-3,-2.628629E-2,-3.5852235E-2,-7.7561736E-3,-2.0665957E-2,6.516319E-4,-1.3404789E-2,1.4284722E-4,-4.563522E-3,7.150936E-4,7.9751685E-3,5.6725717E-3,-2.7011926E-3,9.641918E-3,1.8693615E-2,8.821004E-3,2.2739554E-3,2.1347832E-2,1.9111744E-3,1.634852E-2,-1.5309838E-3,3.2651026E-3,2.3836194E-2,2.2605571E-3,2.0892521E-2,3.5047684E-2,2.505861E-2],"categories":[],"categories_nodes":[],"categories_segments":[],"categories_sizes":[],"default_left":[0,0,0,0,0,0,0,0,0,0,0,0,0,0,0,0,0,0,0,0,0,0,0,0,0,0,0,0,0,0,0,0,0,0,0,0,0,0,0,0,0,0,0,0,0,0,0,0,0,0,0,0,0,0,0,0,0,0,0,0,0,0,0,0,0,0,0,0,0,0,0,0,0,0,0,0,0,0,0,0,0,0,0,0,0,0,0,0,0,0,0,0,0,0,0,0,0,0,0,0,0,0,0,0,0,0,0,0,0,0,0,0,0,0,0,0,0,0,0,0,0,0,0,0,0,0,0,0,0,0,0,0,0,0,0,0,0,0,0,0,0,0,0,0,0,0,0,0,0,0,0,0,0,0,0,0,0,0,0,0,0,0,0,0,0,0,0,0,0,0,0,0,0,0,0,0,0,0,0,0,0,0,0,0,0,0,0,0,0,0,0,0,0,0,0,0,0,0,0,0,0],"id":6,"left_children":[1,3,5,7,-1,9,11,13,-1,15,17,19,21,23,25,27,29,31,33,35,37,39,41,-1,-1,43,-1,45,47,49,51,53,55,57,59,-1,61,63,65,67,69,71,73,-1,-1,-1,75,77,79,81,83,85,87,89,91,93,95,97,99,101,103,-1,-1,-1,-1,105,107,109,111,113,115,117,119,121,123,-1,-1,125,127,129,131,-1,133,135,137,139,141,143,145,147,149,151,153,-1,-1,155,157,-1,-1,-1,159,161,163,165,167,-1,169,171,-1,-1,173,175,177,179,181,183,185,187,189,191,193,195,-1,197,199,-1,-1,-1,-1,-1,-1,-1,-1,-1,-1,-1,-1,-1,-1,-1,-1,-1,-1,-1,-1,-1,-1,-1,-1,-1,-1,-1,-1,-1,-1,-1,-1,-1,-1,-1,-1,-1,-1,-1,-1,-1,-1,-1,-1,-1,-1,-1,-1,-1,-1,-1,-1,-1,-1,-1,-1,-1,-1,-1,-1,-1,-1,-1,-1,-1,-1,-1,-1,-1,-1,-1,-1,-1,-1,-1,-1],"loss_changes":[7.1203125E2,2.4744507E1,3.033513E2,8.015457E-3,0E0,3.8164612E2,4.6198853E2,2.4650889E-3,0E0,3.3407093E1,4.0265198E1,4.7260437E1,2.92333E1,1.4139153E-4,1.1955183E-3,5.6194E0,3.1087556E0,9.912674E0,1.7090607E1,2.8134155E0,4.244385E0,6.681E0,4.56604E-1,0E0,0E0,3.1204586E-4,0E0,1.003128E0,6.492119E-1,4.4610023E-1,5.4605925E-1,6.433563E-1,7.8819275E-1,7.1753845E0,5.557747E0,0E0,5.06485E-1,7.029343E-2,1.9114151E0,5.860014E-1,1.0531086E0,1.2949657E-1,6.277847E-2,0E0,0E0,0E0,3.8528442E-4,2.0131493E-1,2.645874E-2,5.627966E-2,6.234753E-2,8.372144E-2,5.4094136E-2,8.884764E-2,5.8210373E-2,1.774025E-2,1.2894211E0,3.5738373E-1,6.392822E-1,2.8701782E-1,5.739093E-1,0E0,0E0,0E0,0E0,2.1041942E-1,1.2441559E0,2.2469819E-2,3.690033E-1,1.6078824E-1,9.8639905E-2,1.4302754E-1,2.387476E-2,7.925224E-2,1.7484093E-1,0E0,0E0,3.2237053E-2,1.0489464E-1,6.7460537E-3,5.3372383E-3,0E0,1.44485235E-2,4.6814203E-2,4.5852333E-2,1.2891503E-1,1.0071139E-1,3.5982758E-2,3.14475E-2,4.156518E-2,7.901119E-2,8.503723E-2,6.516619E-2,0E0,0E0,5.3456116E-1,4.3972015E-1,0E0,0E0,0E0,1.0724335E0,6.210327E-2,5.3901672E-2,1.24225855E-1,5.096199E-2,0E0,9.1249466E-2,4.632721E-1,0E0,0E0,2.3748577E-3,1.0010052E-1,7.7854216E-2,8.3230644E-2,1.3820681E-1,4.741788E-2,8.462897E-2,2.9184222E-2,1.5025564E-2,6.65741E-2,4.931067E-2,6.879282E-2,0E0,9.325361E-2,5.0706863E-2,0E0,0E0,0E0,0E0,0E0,0E0,0E0,0E0,0E0,0E0,0E0,0E0,0E0,0E0,0E0,0E0,0E0,0E0,0E0,0E0,0E0,0E0,0E0,0E0,0E0,0E0,0E0,0E0,0E0,0E0,0E0,0E0,0E0,0E0,0E0,0E0,0E0,0E0,0E0,0E0,0E0,0E0,0E0,0E0,0E0,0E0,0E0,0E0,0E0,0E0,0E0,0E0,0E0,0E0,0E0,0E0,0E0,0E0,0E0,0E0,0E0,0E0,0E0,0E0,0E0,0E0,0E0,0E0,0E0,0E0,0E0,0E0,0E0,0E0,0E0,0E0],"parents":[2147483647,0,0,1,1,2,2,3,3,5,5,6,6,7,7,9,9,10,10,11,11,12,12,13,13,14,14,15,15,16,16,17,17,18,18,19,19,20,20,21,21,22,22,25,25,27,27,28,28,29,29,30,30,31,31,32,32,33,33,34,34,36,36,37,37,38,38,39,39,40,40,41,41,42,42,46,46,47,47,48,48,49,49,50,50,51,51,52,52,53,53,54,54,55,55,56,56,57,57,58,58,59,59,60,60,65,65,66,66,67,67,68,68,69,69,70,70,71,71,72,72,73,73,74,74,77,77,78,78,79,79,80,80,82,82,83,83,84,84,85,85,86,86,87,87,88,88,89,89,90,90,91,91,92,92,95,95,96,96,100,100,101,101,102,102,103,103,104,104,106,106,107,107,110,110,111,111,112,112,113,113,114,114,115,115,116,116,117,117,118,118,119,119,120,120,121,121,123,123,124,124],"right_children":[2,4,6,8,-1,10,12,14,-1,16,18,20,22,24,26,28,30,32,34,36,38,40,42,-1,-1,44,-1,46,48,50,52,54,56,58,60,-1,62,64,66,68,70,72,74,-1,-1,-1,76,78,80,82,84,86,88,90,92,94,96,98,100,102,104,-1,-1,-1,-1,106,108,110,112,114,116,118,120,122,124,-1,-1,126,128,130,132,-1,134,136,138,140,142,144,146,148,150,152,154,-1,-1,156,158,-1,-1,-1,160,162,164,166,168,-1,170,172,-1,-1,174,176,178,180,182,184,186,188,190,192,194,196,-1,198,200,-1,-1,-1,-1,-1,-1,-1,-1,-1,-1,-1,-1,-1,-1,-1,-1,-1,-1,-1,-1,-1,-1,-1,-1,-1,-1,-1,-1,-1,-1,-1,-1,-1,-1,-1,-1,-1,-1,-1,-1,-1,-1,-1,-1,-1,-1,-1,-1,-1,-1,-1,-1,-1,-1,-1,-1,-1,-1,-1,-1,-1,-1,-1,-1,-1,-1,-1,-1,-1,-1,-1,-1,-1,-1,-1,-1],"split_conditions":[-1.2969921E0,-4.1579413E-1,5.791169E-1,-3.1935376E-1,-1.3228232E-1,-9.872548E-1,5.477163E-1,-5.701521E-1,2.666293E-3,-1.3249344E0,-2.0451266E-1,2.0658582E-2,1.3951389E0,-1.3404915E0,2.0378213E-1,-1.5680991E0,-1.1492168E0,-7.569582E-1,2.4276854E-1,-7.6992804E-1,2.8418747E-1,1.1626236E0,1.3130087E0,-1.7471167E-3,-4.740676E-3,1.17167346E-1,-2.2752683E-3,-2.4287029E-1,-1.3923815E0,-1.2707992E0,-1.0675701E0,-8.9185256E-1,-6.6288716E-1,-6.784341E-2,5.391811E-1,-1.2363782E-1,-2.4287029E-1,6.625384E-1,6.3502705E-1,5.959787E-1,1.3143798E0,1.4222065E0,1.5979241E0,-6.082766E-4,8.376945E-4,-4.9119066E-2,-2.1732205E-1,-1.5139639E0,-3.8492343E-1,3.0552555E-2,-1.203352E0,1.6047473E-1,-1.1153251E0,2.9039744E-1,3.7701222E-1,-5.0639915E-1,-4.5965818E-1,3.3370483E-1,2.6671374E-2,3.239714E-1,5.6713617E-1,-1.08074166E-1,-8.899651E-2,-3.962976E-2,-8.3986424E-2,7.2293186E-1,1.1218003E0,-6.8058264E-1,1.148868E0,1.1759356E0,9.601693E-1,4.8528072E-1,1.1960024E0,1.5304769E0,1.6653713E0,-4.290667E-2,-3.6004152E-2,-6.8058264E-1,-1.4602724E0,-4.530972E-1,-1.5240645E0,-2.1452917E-2,-1.1023203E0,3.3370483E-1,-7.2451013E-1,-5.701521E-1,-7.8625304E-1,-7.2451013E-1,-1.3677648E0,-9.6018714E-1,3.0348295E-1,-1.0023525E0,-8.244054E-1,2.8899536E-2,2.420033E-2,-5.812406E-1,-2.9902744E-1,4.7337938E-2,3.1836048E-2,5.9325088E-2,2.1436974E-1,2.547493E-1,1.1910256E-1,5.520493E-1,1.3130087E0,-4.3636407E-3,2.9039744E-1,6.7540663E-1,-3.620764E-2,-6.356226E-3,1.3438793E0,6.212714E-1,1.8212843E-1,2.131024E0,1.219865E0,-5.3999895E-1,1.1469649E0,2.3685952E-1,1.0969077E0,1.4281255E0,6.5608704E-1,3.6868477E-1,2.8377423E-2,8.0961955E-1,1.5687025E0,-3.2894474E-2,-1.1187929E-2,-2.3615789E-2,-2.8832866E-2,-2.2335773E-2,-1.7050352E-2,-1.2194691E-2,-2.3253694E-2,-1.6818829E-2,-1.27987405E-2,-7.954439E-3,-1.2271514E-2,-1.3358767E-2,-5.1974575E-3,3.7431929E-3,-3.2519333E-3,-1.259415E-2,-2.0983242E-3,2.1860925E-3,6.458014E-3,1.7367546E-3,1.0491706E-2,1.041057E-2,1.4494525E-2,1.1884162E-2,2.5688799E-3,2.1729374E-2,1.7286003E-2,2.0683046E-2,6.410107E-3,3.428058E-2,4.2353388E-2,2.9041624E-2,3.5617247E-2,7.011075E-2,5.307975E-2,3.699974E-2,4.80287E-2,4.3509394E-2,3.8923882E-2,2.5482623E-2,1.5144675E-2,4.4391262E-3,-7.8107873E-3,-2.5532577E-2,-4.1216534E-2,-5.328798E-2,-6.63638E-2,-1.4184959E-2,-5.390098E-3,-2.628629E-2,-3.5852235E-2,-7.7561736E-3,-2.0665957E-2,6.516319E-4,-1.3404789E-2,1.4284722E-4,-4.563522E-3,7.150936E-4,7.9751685E-3,5.6725717E-3,-2.7011926E-3,9.641918E-3,1.8693615E-2,8.821004E-3,2.2739554E-3,2.1347832E-2,1.9111744E-3,1.634852E-2,-1.5309838E-3,3.2651026E-3,2.3836194E-2,2.2605571E-3,2.0892521E-2,3.5047684E-2,2.505861E-2],"split_indices":[1,5,9,4,0,9,1,5,0,9,9,1,9,8,0,9,9,9,9,1,1,9,5,0,0,0,0,1,9,9,9,9,9,9,9,0,1,9,9,9,9,9,9,0,0,0,4,9,5,0,9,0,7,0,0,1,9,0,9,9,9,0,0,0,0,7,9,3,9,9,4,0,8,9,9,0,0,3,9,4,3,0,3,0,5,5,5,5,8,9,3,5,9,0,0,9,9,0,0,0,9,9,4,9,5,0,0,9,0,0,5,9,0,3,9,3,3,8,5,3,7,8,0,8,3,0,0,0,0,0,0,0,0,0,0,0,0,0,0,0,0,0,0,0,0,0,0,0,0,0,0,0,0,0,0,0,0,0,0,0,0,0,0,0,0,0,0,0,0,0,0,0,0,0,0,0,0,0,0,0,0,0,0,0,0,0,0,0,0,0,0,0,0,0,0,0,0,0,0,0,0],"split_type":[0,0,0,0,0,0,0,0,0,0,0,0,0,0,0,0,0,0,0,0,0,0,0,0,0,0,0,0,0,0,0,0,0,0,0,0,0,0,0,0,0,0,0,0,0,0,0,0,0,0,0,0,0,0,0,0,0,0,0,0,0,0,0,0,0,0,0,0,0,0,0,0,0,0,0,0,0,0,0,0,0,0,0,0,0,0,0,0,0,0,0,0,0,0,0,0,0,0,0,0,0,0,0,0,0,0,0,0,0,0,0,0,0,0,0,0,0,0,0,0,0,0,0,0,0,0,0,0,0,0,0,0,0,0,0,0,0,0,0,0,0,0,0,0,0,0,0,0,0,0,0,0,0,0,0,0,0,0,0,0,0,0,0,0,0,0,0,0,0,0,0,0,0,0,0,0,0,0,0,0,0,0,0,0,0,0,0,0,0,0,0,0,0,0,0,0,0,0,0,0,0],"sum_hessian":[7.421E3,4.15E2,7.006E3,1.5E1,4E2,4.925E3,2.081E3,1.2E1,3E0,1.583E3,3.342E3,7.27E2,1.354E3,5E0,7E0,8.68E2,7.15E2,1.666E3,1.676E3,3.9E2,3.37E2,6.33E2,7.21E2,2E0,3E0,4E0,3E0,3.51E2,5.17E2,3.64E2,3.51E2,4.91E2,1.175E3,9.52E2,7.24E2,1.8E2,2.1E2,7.6E1,2.61E2,1.44E2,4.89E2,1.75E2,5.46E2,2E0,2E0,1.57E2,1.94E2,3.73E2,1.44E2,1.14E2,2.5E2,1.73E2,1.78E2,2.03E2,2.88E2,2.04E2,9.71E2,2.91E2,6.61E2,6.37E2,8.7E1,1.51E2,5.9E1,3E0,7.3E1,3.4E1,2.27E2,2.9E1,1.15E2,3.2E2,1.69E2,5.5E1,1.2E2,2.53E2,2.93E2,3.5E1,1.59E2,1.13E2,2.6E2,8.6E1,5.8E1,1.7E1,9.7E1,1.46E2,1.04E2,1.05E2,6.8E1,1.29E2,4.9E1,1.66E2,3.7E1,2.73E2,1.5E1,1.45E2,5.9E1,4.35E2,5.36E2,2.66E2,2.5E1,2.05E2,4.56E2,1.74E2,4.63E2,6E1,2.7E1,3E0,3.1E1,1.99E2,2.8E1,9E0,2E1,8.5E1,3E1,2.8E1,2.92E2,1.22E2,4.7E1,4E1,1.5E1,1.14E2,6E0,1.06E2,1.47E2,1.46E2,1.47E2,1.11E2,2E0,1.14E2,1.46E2,1.7E1,6.9E1,4E0,5.4E1,3E1,6.7E1,1.06E2,4E1,7E0,9.7E1,5.9E1,4.6E1,1E1,5.8E1,2.6E1,1.03E2,5E0,4.4E1,5E1,1.16E2,1.9E1,1.8E1,1.74E2,9.9E1,5E0,1E1,1.77E2,2.58E2,3.41E2,1.95E2,3.96E2,6E1,2.6E1,1.48E2,1.55E2,3.08E2,2.9E1,3.1E1,2.4E1,3E0,1.7E1,1.4E1,8.3E1,1.16E2,1.8E1,2E0,4.1E1,4.4E1,8E0,2.2E1,5E0,2.3E1,9E1,2.02E2,1E1,1.12E2,2.6E1,2.1E1,8E0,3.2E1,6E0,9E0,1.12E2,2E0,4E0,2E0,2E0,1.04E2,3E0,1.43E2,1.2E1,1.35E2],"tree_param":{"num_deleted":"0","num_feature":"10","num_nodes":"201","size_leaf_vector":"1"}},{"base_weights":[3.5993502E-4,1.851536E-1,-3.7208208E-1,-1.771671E-1,3.5816163E-1,-9.0338594E-1,1.01153895E-1,-2.963678E-1,-3.4568775E-2,2.5839308E-1,4.57302E-1,-4.183033E-1,-1.0439074E0,-3.9043035E-2,2.1071818E-1,-2.3019762E-1,-3.7403852E-1,-8.971838E-2,2.6385292E-2,1.5136999E-1,3.0303156E-1,5.252599E-1,3.3451164E-1,-1.8764302E-1,-5.2994615E-1,-1.1079898E0,-6.109218E-1,-2.5074685E-1,-2.5968945E-3,1.6754168E-1,2.249356E-1,-2.509193E-1,-1.8331532E-1,-4.323536E-1,-3.2676077E-1,-1.4299926E-1,-6.888826E-2,-8.240153E-3,6.0662106E-2,1.14210926E-1,1.7724377E-1,2.5039744E-1,3.1344277E-1,4.1291362E-1,5.6515694E-1,3.612692E-1,9.12801E-2,-9.9470235E-2,-2.3968436E-1,-4.5634392E-1,-6.681686E-2,-9.1411285E-2,-1.1620598E0,-4.7353882E-1,-7.016208E-2,-2.922805E-1,-1.5223943E-1,-3.4428563E-2,5.4208446E-2,1.2964791E-1,1.8382664E-1,2.4333227E-1,2.1181451E-1,-2.522133E-1,-1.174012E-2,-1.6627009E-1,-2.058279E-1,-4.0715072E-2,-4.9472805E-2,-3.696495E-2,-3.0702692E-1,-1.7365573E-1,-1.18831955E-1,-8.0252275E-2,-4.5040872E-2,7.7343695E-3,-3.2661304E-2,7.7345125E-2,3.684684E-2,7.360698E-2,1.247848E-1,2.0089002E-1,1.6542117E-1,2.555237E-1,1.8018375E-1,3.5505846E-1,2.8410894E-1,4.2406708E-1,2.8980384E-2,5.969228E-1,4.5169362E-1,3.730507E-1,2.8171808E-1,1.591468E-1,3.63178E-2,-1.3595066E-2,-7.041327E-2,-2.0973187E-2,-3.1028206E-2,-3.534953E-2,-5.085301E-1,-1.1955484E-1,-1.06968224E-1,-2.7260238E-2,-4.8980728E-2,-3.9458778E-2,-2.7050132E-1,-5.7043624E-3,-1.8270577E-1,-4.3196425E-2,3.408664E-3,8.9854054E-2,4.09042E-2,1.4784905E-1,3.6783915E-2,1.9227524E-1,1.3955663E-1,2.0698515E-1,2.7503496E-1,2.2573319E-1,1.6117725E-1,-2.7701527E-1,-2.4185252E-1,-1.8632805E-1,-1.3391896E-1,-2.0862868E-2,-8.307031E-3,-3.4185212E-2,-2.890496E-1,-2.1565057E-2,-1.537265E-1,-1.0738249E-1,-1.4575332E-1,-8.2902476E-2,1.3512432E-2,-9.365204E-3,-9.781916E-2,-2.4989322E-2,4.2197227E-2,-1.2503839E-1,-1.29856765E-2,3.4784473E-2,9.377628E-2,1.697639E-2,6.2396288E-2,9.966928E-2,2.0139752E-2,1.8098097E-2,1.1650346E-1,2.1040177E-2,7.471632E-2,1.7869642E-1,1.443004E-1,2.668161E-1,2.1992381E-1,1.9017247E-2,7.0178867E-3,3.2735386E-1,4.256257E-1,2.6998767E-1,3.395882E-1,2.4716696E-2,4.2726016E-1,5.3162154E-2,6.273537E-1,4.602448E-2,2.9504895E-2,3.2854512E-1,3.8190764E-1,3.0570397E-2,1.3231568E-1,1.6742542E-2,6.968832E-3,-6.542198E-2,9.2243865E-2,-5.10385E-2,-9.551746E-3,-3.7824713E-2,-5.3965826E-2,-6.193246E-3,-2.777504E-2,-1.2011657E-1,-2.458574E-2,-3.58488E-2,-9.7108655E-2,2.6782978E-2,-1.3202167E-2,1.1716587E-2,7.339021E-2,5.6044757E-2,-4.5171082E-2,4.011275E-3,1.5158011E-1,-1.8313557E-2,8.575073E-2,1.741857E-1,2.2925432E-1,2.3106819E-2,8.828315E-2,1.8707934E-1,2.4975163E-1,9.336318E-3,2.7906759E-2,2.4406692E-1,2.1244863E-1,1.2603346E-1,2.4387188E-2,-2.9216632E-2,-2.2149423E-2,-2.8092919E-2,-2.249295E-2,-1.5391718E-2,-2.250017E-2,-3.8018774E-3,-1.3819068E-2,-3.2585084E-2,-2.6231384E-2,-1.3337189E-2,-2.0320754E-2,-1.1091653E-2,-4.0778937E-3,-1.8446801E-2,-8.398016E-3,-9.743824E-3,-7.0807682E-3,-2.4126365E-3,5.9193354E-3,-1.9003757E-3,9.2748795E-3,9.556652E-4,-1.1112401E-2,-4.6115215E-3,4.0173302E-3,5.4860716E-3,-2.4401739E-3,-1.5132132E-2,4.250869E-4,-9.082167E-3,9.293751E-4,-5.725177E-4,5.2418383E-3,8.494815E-3,1.2491284E-2,6.5419297E-3,-2.4100046E-3,1.7865377E-3,8.1825545E-3,6.922805E-3,1.254953E-2,2.759915E-3,-9.138236E-4,8.886336E-3,1.3258596E-2,3.918905E-3,1.2086543E-2,1.921638E-2,1.5426353E-2,1.263334E-2,2.225449E-2,1.7061418E-2,2.7481455E-2,1.7055564E-2,2.7997721E-2,2.95822E-2,3.475157E-2,1.4931035E-2,4.2936016E-2,2.82699E-2,2.442324E-2,3.4743596E-2,2.0942708E-2,4.0046167E-2,4.5790054E-2,6.043731E-2,6.7900285E-2,3.4379054E-2,1.7982548E-2,4.11782E-2,3.5662733E-2,1.4574999E-2,4.3429453E-3,-7.843125E-3,4.0859418E-4,2.0553682E-3,9.809275E-3,-2.4788172E-3,-5.5944207E-3,-6.629873E-3,-1.3873815E-2,-9.174815E-3,-2.8123143E-3,-3.293197E-3,-1.5120501E-2,4.734274E-3,-1.4682277E-3,3.1131748E-3,8.397731E-3,7.844256E-3,2.5013422E-3,-6.6027394E-4,-8.307915E-3,1.6028186E-2,8.9123845E-3,2.7034545E-4,-4.023172E-3,1.0168951E-2,3.5915454E-3,1.783642E-2,8.084939E-3,1.0321599E-2,2.3907214E-2,4.0438264E-3,2.3366949E-2,2.35266E-2,1.4949125E-2,7.1993074E-3,2.595283E-2,1.3484961E-2,2.4721297E-2,2.4174763E-2,1.8676957E-2,1.08360695E-2,1.6878704E-2],"categories":[],"categories_nodes":[],"categories_segments":[],"categories_sizes":[],"default_left":[0,0,0,0,0,0,0,0,0,0,0,0,0,0,0,0,0,0,0,0,0,0,0,0,0,0,0,0,0,0,0,0,0,0,0,0,0,0,0,0,0,0,0,0,0,0,0,0,0,0,0,0,0,0,0,0,0,0,0,0,0,0,0,0,0,0,0,0,0,0,0,0,0,0,0,0,0,0,0,0,0,0,0,0,0,0,0,0,0,0,0,0,0,0,0,0,0,0,0,0,0,0,0,0,0,0,0,0,0,0,0,0,0,0,0,0,0,0,0,0,0,0,0,0,0,0,0,0,0,0,0,0,0,0,0,0,0,0,0,0,0,0,0,0,0,0,0,0,0,0,0,0,0,0,0,0,0,0,0,0,0,0,0,0,0,0,0,0,0,0,0,0,0,0,0,0,0,0,0,0,0,0,0,0,0,0,0,0,0,0,0,0,0,0,0,0,0,0,0,0,0,0,0,0,0,0,0,0,0,0,0,0,0,0,0,0,0,0,0,0,0,0,0,0,0,0,0,0,0,0,0,0,0,0,0,0,0,0,0,0,0,0,0,0,0,0,0,0,0,0,0,0,0,0,0,0,0,0,0,0,0,0,0,0,0,0,0,0,0,0,0,0,0,0,0,0,0,0,0,0,0,0,0,0,0,0,0,0,0,0,0,0,0,0,0,0,0,0,0,0,0,0,0,0,0,0,0,0,0,0,0,0,0,0,0,0,0,0,0,0,0,0,0],"id":7,"left_children":[1,3,5,7,9,11,13,15,17,19,21,23,25,27,29,31,33,35,37,39,41,43,45,47,49,51,53,55,57,59,61,63,65,67,69,71,73,75,77,79,81,83,85,87,89,91,93,95,97,99,-1,-1,101,103,-1,105,107,109,111,113,115,117,119,121,-1,123,125,-1,-1,-1,127,129,131,133,135,137,139,141,143,145,147,149,151,153,155,157,159,161,-1,163,165,167,169,171,173,-1,175,-1,-1,-1,177,-1,-1,-1,-1,-1,179,-1,181,183,185,187,189,191,193,195,197,199,201,203,205,207,209,211,213,-1,-1,-1,215,-1,217,219,221,223,225,227,229,231,233,235,237,239,241,243,245,247,249,-1,251,-1,253,255,257,259,261,-1,-1,263,265,267,269,-1,271,-1,273,-1,-1,275,277,-1,279,-1,-1,281,283,285,-1,-1,-1,-1,-1,287,-1,289,291,293,-1,-1,295,297,299,-1,301,303,305,307,309,-1,311,313,315,-1,-1,317,319,321,-1,-1,-1,-1,-1,-1,-1,-1,-1,-1,-1,-1,-1,-1,-1,-1,-1,-1,-1,-1,-1,-1,-1,-1,-1,-1,-1,-1,-1,-1,-1,-1,-1,-1,-1,-1,-1,-1,-1,-1,-1,-1,-1,-1,-1,-1,-1,-1,-1,-1,-1,-1,-1,-1,-1,-1,-1,-1,-1,-1,-1,-1,-1,-1,-1,-1,-1,-1,-1,-1,-1,-1,-1,-1,-1,-1,-1,-1,-1,-1,-1,-1,-1,-1,-1,-1,-1,-1,-1,-1,-1,-1,-1,-1,-1,-1,-1,-1,-1,-1,-1,-1,-1,-1,-1,-1,-1,-1,-1,-1,-1,-1,-1,-1,-1,-1,-1],"loss_changes":[5.1054337E2,3.1085266E2,6.186143E2,2.7237259E1,3.3076324E1,7.856598E1,2.0007698E1,4.4006653E0,2.4596913E0,7.9561844E0,1.3859894E1,6.6474686E0,2.4239746E1,4.412779E0,4.1104507E-1,4.1448402E-1,9.615288E-1,4.1633058E-1,4.1352364E-1,4.556713E-1,5.686798E-1,4.611969E0,3.8850174E0,3.753693E-1,1.4856148E0,7.124878E0,1.138092E0,2.9917908E-1,8.860804E-1,9.033108E-2,8.0495834E-2,2.6714325E-2,2.2953033E-2,7.52449E-2,7.694054E-2,5.863881E-2,7.172394E-2,6.813283E-2,6.667948E-2,7.925916E-2,4.7841072E-2,2.5945663E-2,1.097908E0,2.71183E-1,2.5957642E0,4.0288544E-1,2.2175682E-1,2.6467621E-2,4.9111605E-2,4.5357704E-1,0E0,0E0,5.98999E-1,2.9924393E-2,0E0,2.2497177E-2,6.788504E-2,1.0431725E-1,7.979047E-2,9.428519E-2,2.0667076E-2,1.9773102E-1,1.9408798E-1,1.574707E-2,0E0,3.3447742E-2,3.2980442E-3,0E0,0E0,0E0,1.3561249E-3,4.510522E-3,3.7674904E-3,4.7588825E-2,1.7231078E-1,1.2059618E-1,1.23789094E-1,6.806874E-2,3.6508977E-2,6.0699224E-2,5.4306507E-2,9.469199E-2,3.0010223E-2,1.5289307E-2,5.3336024E-3,6.465988E-1,3.6349106E-1,4.1820526E-2,0E0,8.9456177E-1,1.0263443E-1,5.9394836E-2,2.2473335E-1,8.328438E-3,2.0518148E-1,0E0,5.339071E-3,0E0,0E0,0E0,1.04091644E-1,0E0,0E0,0E0,0E0,0E0,5.990672E-2,0E0,4.952067E-2,9.753108E-2,1.934714E-1,1.2535095E-2,1.7195117E-1,1.36163235E-2,3.1247828E-2,2.9636383E-2,9.2211336E-2,4.4365883E-2,5.8195114E-2,1.0010719E-2,1.8432307E-1,9.31263E-3,9.221554E-2,3.1801105E-2,1.0313153E-2,0E0,0E0,0E0,2.4724007E-2,0E0,7.141471E-3,6.7751408E-3,2.2772789E-2,2.509749E-2,1.174437E-2,5.6879517E-2,5.3920865E-2,7.756662E-2,4.5194216E-2,4.142046E-2,1.0142428E-1,2.1730404E-2,9.454966E-3,8.714067E-2,2.622465E-2,1.48974955E-2,3.7465463E-3,0E0,5.2229047E-2,0E0,8.379817E-3,9.183407E-3,8.7162375E-2,5.6991577E-2,1.0048461E-1,0E0,0E0,8.346939E-2,4.9398422E-2,8.416748E-2,4.3685913E-2,0E0,2.601242E-2,0E0,8.338928E-2,0E0,0E0,1.3089752E-1,1.4390945E-1,0E0,7.9996735E-3,0E0,0E0,1.207567E-2,7.6279044E-3,4.161112E-4,0E0,0E0,0E0,0E0,0E0,2.8279126E-3,0E0,9.501997E-2,9.9172264E-2,4.502592E-2,0E0,0E0,1.1702284E-2,7.518664E-2,2.8692473E-2,0E0,1.1258602E-2,2.87269E-3,1.1136569E-3,1.444006E-2,1.3684154E-2,0E0,1.0880269E-1,1.0429549E-1,3.5190463E-2,0E0,0E0,1.0232925E-3,7.1466446E-2,2.2511125E-2,0E0,0E0,0E0,0E0,0E0,0E0,0E0,0E0,0E0,0E0,0E0,0E0,0E0,0E0,0E0,0E0,0E0,0E0,0E0,0E0,0E0,0E0,0E0,0E0,0E0,0E0,0E0,0E0,0E0,0E0,0E0,0E0,0E0,0E0,0E0,0E0,0E0,0E0,0E0,0E0,0E0,0E0,0E0,0E0,0E0,0E0,0E0,0E0,0E0,0E0,0E0,0E0,0E0,0E0,0E0,0E0,0E0,0E0,0E0,0E0,0E0,0E0,0E0,0E0,0E0,0E0,0E0,0E0,0E0,0E0,0E0,0E0,0E0,0E0,0E0,0E0,0E0,0E0,0E0,0E0,0E0,0E0,0E0,0E0,0E0,0E0,0E0,0E0,0E0,0E0,0E0,0E0,0E0,0E0,0E0,0E0,0E0,0E0,0E0,0E0,0E0,0E0,0E0,0E0,0E0,0E0,0E0,0E0,0E0,0E0,0E0,0E0,0E0,0E0,0E0,0E0,0E0],"parents":[2147483647,0,0,1,1,2,2,3,3,4,4,5,5,6,6,7,7,8,8,9,9,10,10,11,11,12,12,13,13,14,14,15,15,16,16,17,17,18,18,19,19,20,20,21,21,22,22,23,23,24,24,25,25,26,26,27,27,28,28,29,29,30,30,31,31,32,32,33,33,34,34,35,35,36,36,37,37,38,38,39,39,40,40,41,41,42,42,43,43,44,44,45,45,46,46,47,47,48,48,49,49,52,52,53,53,55,55,56,56,57,57,58,58,59,59,60,60,61,61,62,62,63,63,65,65,66,66,70,70,71,71,72,72,73,73,74,74,75,75,76,76,77,77,78,78,79,79,80,80,81,81,82,82,83,83,84,84,85,85,86,86,87,87,89,89,90,90,91,91,92,92,93,93,94,94,96,96,100,100,106,106,108,108,109,109,110,110,111,111,112,112,113,113,114,114,115,115,116,116,117,117,118,118,119,119,120,120,121,121,122,122,123,123,124,124,128,128,130,130,131,131,132,132,133,133,134,134,135,135,136,136,137,137,138,138,139,139,140,140,141,141,142,142,143,143,144,144,145,145,146,146,148,148,150,150,151,151,152,152,153,153,154,154,157,157,158,158,159,159,160,160,162,162,164,164,167,167,168,168,170,170,173,173,174,174,175,175,181,181,183,183,184,184,185,185,188,188,189,189,190,190,192,192,193,193,194,194,195,195,196,196,198,198,199,199,200,200,203,203,204,204,205,205],"right_children":[2,4,6,8,10,12,14,16,18,20,22,24,26,28,30,32,34,36,38,40,42,44,46,48,50,52,54,56,58,60,62,64,66,68,70,72,74,76,78,80,82,84,86,88,90,92,94,96,98,100,-1,-1,102,104,-1,106,108,110,112,114,116,118,120,122,-1,124,126,-1,-1,-1,128,130,132,134,136,138,140,142,144,146,148,150,152,154,156,158,160,162,-1,164,166,168,170,172,174,-1,176,-1,-1,-1,178,-1,-1,-1,-1,-1,180,-1,182,184,186,188,190,192,194,196,198,200,202,204,206,208,210,212,214,-1,-1,-1,216,-1,218,220,222,224,226,228,230,232,234,236,238,240,242,244,246,248,250,-1,252,-1,254,256,258,260,262,-1,-1,264,266,268,270,-1,272,-1,274,-1,-1,276,278,-1,280,-1,-1,282,284,286,-1,-1,-1,-1,-1,288,-1,290,292,294,-1,-1,296,298,300,-1,302,304,306,308,310,-1,312,314,316,-1,-1,318,320,322,-1,-1,-1,-1,-1,-1,-1,-1,-1,-1,-1,-1,-1,-1,-1,-1,-1,-1,-1,-1,-1,-1,-1,-1,-1,-1,-1,-1,-1,-1,-1,-1,-1,-1,-1,-1,-1,-1,-1,-1,-1,-1,-1,-1,-1,-1,-1,-1,-1,-1,-1,-1,-1,-1,-1,-1,-1,-1,-1,-1,-1,-1,-1,-1,-1,-1,-1,-1,-1,-1,-1,-1,-1,-1,-1,-1,-1,-1,-1,-1,-1,-1,-1,-1,-1,-1,-1,-1,-1,-1,-1,-1,-1,-1,-1,-1,-1,-1,-1,-1,-1,-1,-1,-1,-1,-1,-1,-1,-1,-1,-1,-1,-1,-1,-1,-1,-1],"split_conditions":[5.791169E-1,-9.872548E-1,1.1218003E0,-1.3249344E0,-2.0451266E-1,7.0247424E-1,1.3951389E0,-5.972706E-1,-1.1492168E0,-7.569582E-1,2.9690376E-1,6.212714E-1,1.0672214E0,1.1626236E0,1.3130087E0,-1.3923815E0,-1.649302E0,-1.7503589E0,-1.0675701E0,-8.9185256E-1,-6.6288716E-1,-6.784341E-2,5.520493E-1,5.959787E-1,6.7540663E-1,7.841208E-1,1.1885219E0,1.148868E0,1.3143798E0,1.4222065E0,2.9564586E-1,5.502418E-1,-3.8492343E-1,5.069344E-1,-1.672002E0,1.6047473E-1,-1.19004E0,1.6047473E-1,3.390835E-1,-5.2065897E-1,-1.1258383E0,3.7701222E-1,-4.7474506E-1,3.3370483E-1,2.1436974E-1,1.12778E0,2.2543582E-1,-3.559018E-1,8.820413E-1,8.154134E-1,-6.681686E-2,-9.1411285E-2,9.8690605E-1,-9.8573375E-1,-7.016208E-2,9.551364E-2,-7.685509E-1,1.2873122E0,-3.012796E-2,5.069344E-1,1.4896537E0,-6.165213E-1,3.553585E-1,-2.8488383E-1,-1.174012E-2,3.608023E-1,4.4197333E-1,-4.0715072E-2,-4.9472805E-2,-3.696495E-2,-1.6222343E0,-5.2065897E-1,4.91111E-1,-9.8795986E-1,4.2595667E-1,9.551364E-2,-7.8625304E-1,-1.04139E0,-1.1677592E0,3.1205112E-1,-1.1160434E0,3.553585E-1,4.2595667E-1,5.7798415E-1,-1.3419392E0,-5.2710533E-1,-2.5687295E-1,7.7306646E-1,2.8980384E-2,2.6671374E-2,4.2031962E-1,1.3137136E-1,3.1205112E-1,1.2821364E0,6.648573E-1,-1.3595066E-2,2.3049152E-1,-2.0973187E-2,-3.1028206E-2,-3.534953E-2,-6.165213E-1,-1.1955484E-1,-1.06968224E-1,-2.7260238E-2,-4.8980728E-2,-3.9458778E-2,3.390835E-1,-5.7043624E-3,1.3128953E0,1.2735565E0,3.9866593E-1,1.3680713E0,3.9866593E-1,7.3214576E-2,-7.468321E-1,7.68707E-1,7.951681E-1,4.2031962E-1,1.4492741E0,7.951681E-1,9.037601E-1,-1.4061372E0,-1.5139639E0,-3.012796E-2,-4.530972E-1,-2.0862868E-2,-8.307031E-3,-3.4185212E-2,-1.1667048E-1,-2.1565057E-2,7.734493E-1,4.4767547E-1,6.648573E-1,1.2189955E-1,-4.4666633E-1,3.608023E-1,-1.17452E0,-1.1088371E0,5.5626744E-1,-1.3659961E0,-4.2000532E-1,-7.2451013E-1,2.0877272E-1,-1.04139E0,-9.257791E-1,2.5221032E-1,-9.3311954E-1,1.8098097E-2,3.173647E-1,2.1040177E-2,-3.8691553E-1,-8.244054E-1,-8.1153715E-1,-7.432025E-1,-3.8691553E-1,1.9017247E-2,7.0178867E-3,-6.083082E-1,-1.4962971E0,3.1205112E-1,4.4197333E-1,2.4716696E-2,-1.2330982E-1,5.3162154E-2,1.3137136E-1,4.602448E-2,2.9504895E-2,-3.5405123E-1,3.179315E-1,3.0570397E-2,9.2346835E-1,1.6742542E-2,6.968832E-3,6.431406E-1,6.865761E-1,6.5608704E-1,-9.551746E-3,-3.7824713E-2,-5.3965826E-2,-6.193246E-3,-2.777504E-2,1.8212843E-1,-2.458574E-2,1.1759356E0,9.6891445E-1,3.1205112E-1,-1.3202167E-2,1.1716587E-2,7.264503E-1,9.601693E-1,4.34091E-3,4.011275E-3,4.8528072E-1,1.1586506E0,3.887037E-1,7.505266E-1,3.552813E-1,2.3106819E-2,9.6891445E-1,-1.376663E0,4.3883833E-1,9.336318E-3,2.7906759E-2,-1.4306635E0,1.5616362E0,1.0952908E0,2.4387188E-2,-2.9216632E-2,-2.2149423E-2,-2.8092919E-2,-2.249295E-2,-1.5391718E-2,-2.250017E-2,-3.8018774E-3,-1.3819068E-2,-3.2585084E-2,-2.6231384E-2,-1.3337189E-2,-2.0320754E-2,-1.1091653E-2,-4.0778937E-3,-1.8446801E-2,-8.398016E-3,-9.743824E-3,-7.0807682E-3,-2.4126365E-3,5.9193354E-3,-1.9003757E-3,9.2748795E-3,9.556652E-4,-1.1112401E-2,-4.6115215E-3,4.0173302E-3,5.4860716E-3,-2.4401739E-3,-1.5132132E-2,4.250869E-4,-9.082167E-3,9.293751E-4,-5.725177E-4,5.2418383E-3,8.494815E-3,1.2491284E-2,6.5419297E-3,-2.4100046E-3,1.7865377E-3,8.1825545E-3,6.922805E-3,1.254953E-2,2.759915E-3,-9.138236E-4,8.886336E-3,1.3258596E-2,3.918905E-3,1.2086543E-2,1.921638E-2,1.5426353E-2,1.263334E-2,2.225449E-2,1.7061418E-2,2.7481455E-2,1.7055564E-2,2.7997721E-2,2.95822E-2,3.475157E-2,1.4931035E-2,4.2936016E-2,2.82699E-2,2.442324E-2,3.4743596E-2,2.0942708E-2,4.0046167E-2,4.5790054E-2,6.043731E-2,6.7900285E-2,3.4379054E-2,1.7982548E-2,4.11782E-2,3.5662733E-2,1.4574999E-2,4.3429453E-3,-7.843125E-3,4.0859418E-4,2.0553682E-3,9.809275E-3,-2.4788172E-3,-5.5944207E-3,-6.629873E-3,-1.3873815E-2,-9.174815E-3,-2.8123143E-3,-3.293197E-3,-1.5120501E-2,4.734274E-3,-1.4682277E-3,3.1131748E-3,8.397731E-3,7.844256E-3,2.5013422E-3,-6.6027394E-4,-8.307915E-3,1.6028186E-2,8.9123845E-3,2.7034545E-4,-4.023172E-3,1.0168951E-2,3.5915454E-3,1.783642E-2,8.084939E-3,1.0321599E-2,2.3907214E-2,4.0438264E-3,2.3366949E-2,2.35266E-2,1.4949125E-2,7.1993074E-3,2.595283E-2,1.3484961E-2,2.4721297E-2,2.4174763E-2,1.8676957E-2,1.08360695E-2,1.6878704E-2],"split_indices":[9,9,9,9,9,9,9,7,9,9,9,9,9,9,5,9,9,7,9,9,9,9,9,9,9,9,6,9,9,9,2,0,5,0,6,0,9,0,2,4,5,0,9,0,9,5,0,2,2,6,0,0,9,2,0,0,2,9,2,0,9,2,0,4,0,2,0,0,0,0,9,4,2,6,2,0,5,9,8,0,2,0,2,2,5,9,9,7,0,9,0,6,0,5,2,0,2,0,0,0,2,0,0,0,0,0,2,0,6,9,0,9,0,8,2,8,2,0,9,2,2,9,9,2,4,0,0,0,4,0,2,2,2,2,5,2,6,9,2,7,4,5,2,9,6,2,9,0,2,0,4,9,9,9,4,0,0,9,5,0,0,0,9,0,6,0,0,5,6,0,7,0,0,2,2,7,0,0,0,0,0,0,0,9,2,0,0,0,5,4,7,0,0,5,7,8,7,0,2,2,7,0,0,4,6,4,0,0,0,0,0,0,0,0,0,0,0,0,0,0,0,0,0,0,0,0,0,0,0,0,0,0,0,0,0,0,0,0,0,0,0,0,0,0,0,0,0,0,0,0,0,0,0,0,0,0,0,0,0,0,0,0,0,0,0,0,0,0,0,0,0,0,0,0,0,0,0,0,0,0,0,0,0,0,0,0,0,0,0,0,0,0,0,0,0,0,0,0,0,0,0,0,0,0,0,0,0,0,0,0,0,0,0,0,0,0,0,0,0,0,0,0,0],"split_type":[0,0,0,0,0,0,0,0,0,0,0,0,0,0,0,0,0,0,0,0,0,0,0,0,0,0,0,0,0,0,0,0,0,0,0,0,0,0,0,0,0,0,0,0,0,0,0,0,0,0,0,0,0,0,0,0,0,0,0,0,0,0,0,0,0,0,0,0,0,0,0,0,0,0,0,0,0,0,0,0,0,0,0,0,0,0,0,0,0,0,0,0,0,0,0,0,0,0,0,0,0,0,0,0,0,0,0,0,0,0,0,0,0,0,0,0,0,0,0,0,0,0,0,0,0,0,0,0,0,0,0,0,0,0,0,0,0,0,0,0,0,0,0,0,0,0,0,0,0,0,0,0,0,0,0,0,0,0,0,0,0,0,0,0,0,0,0,0,0,0,0,0,0,0,0,0,0,0,0,0,0,0,0,0,0,0,0,0,0,0,0,0,0,0,0,0,0,0,0,0,0,0,0,0,0,0,0,0,0,0,0,0,0,0,0,0,0,0,0,0,0,0,0,0,0,0,0,0,0,0,0,0,0,0,0,0,0,0,0,0,0,0,0,0,0,0,0,0,0,0,0,0,0,0,0,0,0,0,0,0,0,0,0,0,0,0,0,0,0,0,0,0,0,0,0,0,0,0,0,0,0,0,0,0,0,0,0,0,0,0,0,0,0,0,0,0,0,0,0,0,0,0,0,0,0,0,0,0,0,0,0,0,0,0,0,0,0,0,0,0,0,0,0],"sum_hessian":[7.416E3,4.957E3,2.459E3,1.602E3,3.355E3,1.158E3,1.301E3,8.72E2,7.3E2,1.674E3,1.681E3,2.61E2,8.97E2,5.71E2,7.3E2,4.73E2,3.99E2,3.83E2,3.47E2,4.94E2,1.18E3,1.08E3,6.01E2,8.6E1,1.75E2,7.8E2,1.17E2,8.3E1,4.88E2,1.84E2,5.46E2,3.25E2,1.48E2,1.75E2,2.24E2,1.06E2,2.77E2,1.73E2,1.74E2,2.05E2,2.89E2,1.99E2,9.81E2,2.86E2,7.94E2,5.41E2,6E1,3.3E1,5.3E1,1.17E2,5.8E1,1.74E2,6.06E2,4.9E1,6.8E1,5.7E1,2.6E1,3.13E2,1.75E2,5.8E1,1.26E2,2.2E2,3.26E2,3.21E2,4E0,8.9E1,5.9E1,1.3E2,4.5E1,6.5E1,1.59E2,4.4E1,6.2E1,1.86E2,9.1E1,1.05E2,6.8E1,1.01E2,7.3E1,4.4E1,1.61E2,9.1E1,1.98E2,1.83E2,1.6E1,4.01E2,5.8E2,2.6E2,2.6E1,6.17E2,1.77E2,4.68E2,7.3E1,2.6E1,3.4E1,1.3E1,2E1,4E1,1.3E1,4.2E1,7.5E1,4.36E2,1.7E2,5E0,4.4E1,7E0,5E1,7E0,1.9E1,2.54E2,5.9E1,4.6E1,1.29E2,4.8E1,1E1,1.03E2,2.3E1,1.06E2,1.14E2,2.53E2,7.3E1,8.7E1,2.34E2,5.2E1,3.7E1,5.7E1,2E0,4.8E1,1.11E2,1.1E1,3.3E1,4.7E1,1.5E1,1.81E2,5E0,5.5E1,3.6E1,5.4E1,5.1E1,1.1E1,5.7E1,2.9E1,7.2E1,4.2E1,3.1E1,2.9E1,1.5E1,1.8E1,1.43E2,8.4E1,7E0,1.17E2,8.1E1,1.34E2,4.9E1,1.4E1,2E0,2.92E2,1.09E2,4.67E2,1.13E2,6E0,2.54E2,2.02E2,4.15E2,1.66E2,1.1E1,8.4E1,3.84E2,6.2E1,1.1E1,2.3E1,3E0,1.2E1,2.2E1,1.3E1,7E0,1.7E1,5.8E1,2E0,4.8E1,1.1E1,8E0,2.25E2,2.9E1,5.1E1,8E0,1.5E1,3.1E1,1.1E2,1.9E1,2E0,4.6E1,5E0,5E0,7.3E1,3E1,7E0,1.6E1,7.6E1,3E1,3E0,1.11E2,9.9E1,1.54E2,5.3E1,2E1,6.5E1,2.2E1,6.6E1,1.68E2,3.1E1,2.1E1,2E0,3.5E1,4.2E1,6.9E1,2.6E1,7E0,4.4E1,3E0,8E0,7E0,7.9E1,1.02E2,3E0,2E0,5.1E1,4E0,4E0,3.2E1,4.1E1,1.3E1,4.3E1,8E0,9E0,2E0,1.2E1,4.5E1,9E0,2E1,5.9E1,1.3E1,1.9E1,2.3E1,1E1,2.1E1,1.5E1,1.4E1,1.2E1,3E0,5.5E1,8.8E1,5E0,2E0,7.1E1,4.6E1,6.8E1,1.3E1,1.2E1,1.22E2,2.9E1,2E1,1.2E2,1.72E2,2E0,1.07E2,3.06E2,1.61E2,1.05E2,8E0,1.43E2,1.11E2,2.96E2,1.19E2,7.5E1,9E0,1.69E2,2.15E2,9E0,2E0,1E1,2E0,2E0,2E1,3E0,1E1,4E0,7E0,2.6E1,1.99E2,1.4E1,1.5E1,3.4E1,1.7E1,7E0,2.4E1,6.3E1,4.7E1,1E1,9E0,3.9E1,7E0,3E0,2E0,3E0,2E0,6.9E1,4E0,3E0,2.7E1,1.3E1,3E0,3.1E1,4.5E1,2E0,2.8E1,4E0,9.5E1,6.8E1,8.6E1,4E1,1.3E1],"tree_param":{"num_deleted":"0","num_feature":"10","num_nodes":"323","size_leaf_vector":"1"}}]},"name":"gbtree"},"learner_model_param":{"base_score":"[-3.7997762E-7]","boost_from_average":"1","num_class":"0","num_feature":"10","num_target":"1"},"objective":{"name":"reg:squarederror","reg_loss_param":{"scale_pos_weight":"1"}}},"version":[3,1,1]}