tree
version=v4
num_class=1
num_tree_per_iteration=1
label_index=0
max_feature_idx=9
objective=regression
feature_names=Column_0 Column_1 Column_2 Column_3 Column_4 Column_5 Column_6 Column_7 Column_8 Column_9
feature_infos=[-4.9281487464904785:0.63685661554336548] [-2.6146364212036133:3.7100627422332764] [-5.1990861892700195:1.272971510887146] [-2.2269694805145264:2.5527749061584473] [-5.5711894035339355:1.3641557693481445] [-1.9902403354644775:2.1465384960174561] [-1.982926607131958:1.6860036849975586] [-2.3018357753753662:1.4582350254058838] [-2.4405524730682373:1.9915002584457397] [-1.7305047512054443:1.7332621812820435]
tree_sizes=7362 7611 7249 7419 7608 8155 7648 7989 8298 8052 7635 8251 8173 8576 8469 8835 9133 8813 9214 8584 8910 9280 8907 9092 9473 9434 9922 9910 9969 9956 9904 9908 9942 9964 9988 9957 9989 9964 9993 9984 9943 9983 9923 10030 9967 9919 10029 9981 10026 10000 9961 9923 10050 10043 9963 10043 9977 9999 10053 9966 9991 10027 9977 9975 10077 9991 10017 9972 10051 10048 10083 10011 10071 10079 10035 10068 10018 10068 10105 10086 10102 10013 10065 10039 9957 10147

Tree=0
num_leaves=84
num_cat=0
split_feature=9 9 9 9 9 9 6 9 1 3 1 9 9 1 9 1 9 5 9 1 9 1 9 1 4 9 9 1 1 1 9 9 1 9 1 6 1 1 1 9 1 9 1 1 2 4 3 3 1 9 1 9 9 9 9 2 4 4 9 8 1 0 2 4 0 2 3 2 6 0 8 8 1 8 9 6 5 8 1 1 9 9 6
split_gain=2786.62 1443.9 939.902 530.027 274.887 229.724 185.336 113.336 91.7702 44.2239 34.9504 33.0629 26.1937 23.7299 23.256 23.1902 22.5987 19.9205 18.4557 14.0735 7.39691 18.3274 6.87474 6.37028 5.67591 5.45946 4.89045 4.65076 4.32187 3.71121 3.57708 2.75917 2.56645 2.46859 3.62053 2.38829 2.38005 2.37305 2.05752 5.19442 1.89695 1.88836 1.76141 1.65273 1.63219 1.56348 1.54003 1.41461 1.15541 1.46188 1.13845 1.94291 1.10015 1.00581 0.958796 0.94414 0.755843 0.647149 0.618384 0.567045 0.524452 0.503668 0.467271 0.436514 0.350964 0.336136 0.305681 0.272054 0.271428 0.266936 0.226752 0.226602 0.215456 0.177914 0.175315 0.149016 0.0967581 0.0848075 0.0666242 0.0486335 0.037952 0.395747 0.0188877
threshold=0.53629684448242199 -1.2905451655387876 0.92323055863380443 0.66187280416488659 1.2941899895668032 0.2886947393417359 -0.83249902725219715 -1.4556132555007932 1.7335962653160097 0.3737714439630509 1.0000000180025095e-35 0.89571923017501842 -1.1804997920989988 -0.63816359639167775 0.95074191689491283 1.2065384984016421 0.63436147570610057 -1.4808610677719114 0.7031398117542268 0.67948076128959667 -0.26641319692134852 0.1524230241775513 -0.67153990268707264 1.0000000180025095e-35 0.9436233937740327 -1.001676023006439 0.99200892448425304 1.4700673818588259 -1.1652276515960691 0.1524230241775513 1.2409422397613528 -1.7032153010368345 1.4700673818588259 0.41249577701091772 0.67948076128959667 -0.58375811576843251 -0.37463472038507456 1.9971251487731936 1.0000000180025095e-35 -0.040110195055603974 -0.37463472038507456 -0.79534095525741566 0.94300961494445812 0.41595189273357397 0.63228118419647228 1.0780558586120608 0.092610801570117487 -0.75087112188339222 -0.37463472038507456 1.102054297924042 -0.90169563889503468 -0.91914200782775868 -1.0429430603981016 -0.43946841359138483 -0.34628482162952418 0.63228118419647228 1.2131794691085818 -0.57167378067970265 0.7719181776046754 -0.051791006699204438 0.1524230241775513 0.25791636854410177 0.21963211894035342 -0.36968058347702021 0.27957032620906835 -0.49707196652889246 -0.46971046924591059 0.43681606650352484 0.41120564937591558 0.21460897475481036 0.766433745622635 0.74370691180229198 0.1524230241775513 -1.4109506607055662 0.37122876942157751 0.34902189671993261 1.4519298076629641 -1.2427592277526853 -0.90169563889503468 0.41595189273357397 1.6669243574142458 1.5338048934936526 -1.0190532207489011
decision_type=2 2 2 2 2 2 2 2 2 2 2 2 2 2 2 2 2 2 2 2 2 2 2 2 2 2 2 2 2 2 2 2 2 2 2 2 2 2 2 2 2 2 2 2 2 2 2 2 2 2 2 2 2 2 2 2 2 2 2 2 2 2 2 2 2 2 2 2 2 2 2 2 2 2 2 2 2 2 2 2 2 2 2
left_child=1 7 3 16 14 6 12 10 15 17 31 18 57 47 -4 45 64 29 -5 26 21 22 41 53 32 28 70 33 -14 -8 55 -1 -17 59 62 -11 -15 -10 -37 54 -33 -19 -41 -23 -32 76 60 63 71 -50 51 -27 82 -24 -40 -21 -26 67 -20 -7 -22 -57 75 -9 69 -47 -59 77 -64 -2 -16 -28 -12 -65 -61 -35 -6 -3 -43 -51 81 -67 -30
right_child=2 5 4 11 8 27 9 13 37 35 72 -13 25 36 19 24 -18 20 58 30 46 43 23 -25 56 50 48 -29 52 -31 44 40 -34 34 -36 38 -38 -39 39 42 -42 78 -44 -45 -46 65 -48 -49 49 79 -52 -53 -54 -55 -56 61 -58 66 -60 74 -62 -63 68 73 -66 80 -68 -69 -70 -71 -72 -73 -74 -75 -76 -77 -78 -79 -80 -81 -82 -83 -84
leaf_value=-0.060171540168598936 -0.023355534050924047 0.0012452749418258434 -0.035712734871643503 -0.11276007563269351 -0.03666366138111548 0.018706572248500856 0.038214797489327969 -0.0056098668374991766 -0.077123469714120332 0.053396093710533672 -0.073925964376216347 -0.090625155347695871 0.033608796283704598 -0.024374209807366171 -0.0049104175972605026 -0.049413628017597286 -0.065225960081270309 0.033919792087428631 -0.13627713133930452 -0.018296611597363302 0.060660976413323096 0.032838560338798728 0.061599091769167273 0.044801825663797611 -0.042880425523742258 0.036460975685271534 0.0197944709007906 -0.0085561603775310829 0.013735686757172938 0.019304942164612211 0.0093775646997872487 -0.039361843077113594 -0.068152705543431544 0.0083322228385081902 -0.0085553342981938511 0.074280075672195855 -0.041980878818678298 -0.098234049628442607 0.057613154445482602 0.071997488701491044 -0.049686897816341904 0.055027404104478254 0.062168486486018137 0.016769126510418383 -0.0050057281620017281 -0.01458973923473118 0.066363523505599736 0.0097904989370232402 0.0029506521594313013 0.015959436764758545 0.031149799713669012 0.051540192247419472 0.026055141561365059 0.077865982868508155 0.040247359560735135 -0.013113276042157044 -0.032735915459929259 0.007695594851750971 -0.15321751013354112 0.0076792776731159779 0.052257341076753713 -0.0031701986680785035 0.0082115190669304373 0.0040295118194125807 -0.027115454182220396 -0.025679699918322661 0.015557632255093523 0.0095949579335606813 0.0018148393532433399 -0.015318219870301323 0.00089876060948844763 0.013687411733798288 -0.089872491942637064 -0.001405418351493107 0.01293487070098555 0.014570205915186159 -0.02647932528724779 0.0053703813499767963 0.045778117535430408 0.011393986128203176 -0.026573204431228736 -0.016443143109509187 0.018500868904668379
leaf_weight=57 68 49 57 90 40 57 110 56 82 70 116 60 175 125 50 135 61 58 149 71 165 84 216 98 248 178 88 66 66 67 47 212 53 53 59 267 43 81 57 330 161 59 215 42 68 40 142 54 73 64 115 54 82 41 40 40 65 45 263 61 198 42 54 40 89 47 53 41 54 48 40 74 49 41 88 42 40 42 161 67 49 63 58
leaf_count=57 68 49 57 90 40 57 110 56 82 70 116 60 175 125 50 135 61 58 149 71 165 84 216 98 248 178 88 66 66 67 47 212 53 53 59 267 43 81 57 330 161 59 215 42 68 40 142 54 73 64 115 54 82 41 40 40 65 45 263 61 198 42 54 40 89 47 53 41 54 48 40 74 49 41 88 42 40 42 161 67 49 63 58
internal_value=6.52478e-06 0.0266389 -0.0507603 -0.10327 -0.0254888 0.0427792 0.0485592 -0.0395096 -0.0472748 0.0574073 -0.0555608 -0.136263 0.026159 -0.0127928 0.000827686 -0.0386005 -0.0332679 0.0505975 -0.141503 0.00376633 0.0532672 0.0491948 0.0533939 0.0592605 -0.0463631 0.0317369 0.010182 0.00617126 0.0265067 0.0312729 -0.00710257 -0.0462814 -0.0550926 0.0082876 0.00432923 0.0673566 -0.0291734 -0.0882222 0.0683586 0.0657656 -0.0439715 0.0456737 0.0682629 0.0277508 0.000799375 -0.0245025 0.0592548 0.00162967 0.0132609 0.010022 0.0373523 0.0402284 0.0202822 0.0645325 0.0510582 -0.0130865 -0.0409229 0.00839085 -0.147465 0.0132188 0.0562663 -0.00826462 0.00815641 -0.00154769 -0.0234297 -0.0212391 0.0121829 0.00541487 0.00516926 -0.0202917 -0.00221519 0.0171795 -0.0792468 0.00114856 0.0109288 0.0113381 -0.0321094 0.00331728 0.0485507 0.0138193 -0.0227353 -0.0206936 0.0161907
internal_weight=7418 4866 2552 828 1724 3912 3378 954 943 2420 595 562 958 359 781 780 266 1441 502 724 1264 759 633 355 501 728 456 534 381 177 268 430 188 468 262 979 168 163 909 642 373 278 545 126 115 279 505 191 366 204 347 232 206 257 97 153 313 230 412 206 363 82 203 137 205 199 98 132 108 116 90 162 165 81 149 95 80 91 220 131 159 110 124
internal_count=7418 4866 2552 828 1724 3912 3378 954 943 2420 595 562 958 359 781 780 266 1441 502 724 1264 759 633 355 501 728 456 534 381 177 268 430 188 468 262 979 168 163 909 642 373 278 545 126 115 279 505 191 366 204 347 232 206 257 97 153 313 230 412 206 363 82 203 137 205 199 98 132 108 116 90 162 165 81 149 95 80 91 220 131 159 110 124
is_linear=0
shrinkage=1


Tree=1
num_leaves=87
num_cat=0
split_feature=9 9 9 9 9 9 6 9 1 7 1 9 9 1 9 1 9 9 1 1 9 1 1 7 4 7 9 1 1 9 9 1 9 9 1 9 1 1 1 9 1 9 1 4 4 6 1 9 9 9 6 7 2 1 1 9 9 8 1 6 0 2 9 0 0 6 0 1 2 2 8 6 8 1 7 9 4 0 5 0 8 9 8 7 9 9
split_gain=2465.46 1277.61 831.136 468.473 243.337 203.135 163.804 100.25 81.1891 34.9805 30.9415 29.1035 23.1357 21.0105 20.5941 20.4409 19.9933 16.7531 15.1736 13.7492 27.9314 12.4769 5.90374 5.28776 5.01831 4.33739 4.33272 4.12389 3.40386 4.56497 3.17248 3.0184 2.48559 2.43949 2.26611 2.18191 3.21247 2.10523 2.06763 1.82638 1.78366 3.16828 1.67099 1.51899 1.37798 1.30563 1.016 1.29197 0.966369 0.950169 1.30395 0.903141 0.828027 0.753345 0.704489 0.596268 0.582205 0.508629 0.500808 0.478698 0.443414 0.413043 0.410331 0.394404 0.470454 0.342639 0.307665 0.407168 0.290317 0.269799 0.201693 0.195205 0.193885 0.1782 0.153231 0.142219 0.141807 0.108517 0.0739631 0.0675066 0.0624502 0.0507772 0.041963 0.0270126 0.0247057 0.343715
threshold=0.53629684448242199 -1.2905451655387876 0.92323055863380443 0.66187280416488659 1.2941899895668032 0.2886947393417359 -0.83249902725219715 -1.4556132555007932 1.7335962653160097 -0.37166577577590937 1.0000000180025095e-35 0.89571923017501842 -1.1804997920989988 -0.63816359639167775 0.95074191689491283 1.2065384984016421 0.63436147570610057 0.68938416242599498 0.1524230241775513 1.0000000180025095e-35 -0.026798253878951069 0.67948076128959667 0.41595189273357397 -1.4077746868133543 0.9436233937740327 0.86497962474823009 0.99200892448425304 1.4700673818588259 1.0000000180025095e-35 -0.67153990268707264 1.2409422397613528 1.2065384984016421 0.7719181776046754 -1.7032153010368345 1.4700673818588259 0.41249577701091772 0.67948076128959667 -0.37463472038507456 1.9971251487731936 -0.97416469454765309 0.1524230241775513 -0.10666989907622336 -0.90169563889503468 1.0442760586738589 1.0780558586120608 -1.6409085988998411 -0.37463472038507456 1.102054297924042 -0.91914200782775868 -1.373079180717468 -1.2677941322326658 -1.7252916097640989 0.63228118419647228 -1.1652276515960691 1.4700673818588259 -1.0842100381851194 -1.249278128147125 -0.11088395863771437 0.94300961494445812 -1.3921675682067869 0.25791636854410177 0.13275895640254023 -1.6757040023803709 0.084686793386936202 0.14964788407087329 0.41120564937591558 0.30122427642345434 0.67948076128959667 -0.49707196652889246 0.45853486657142645 0.766433745622635 0.16246472299098971 0.74370691180229198 0.1524230241775513 1.1824966073036196 -0.53398320078849781 1.2131794691085818 0.14964788407087329 1.4519298076629641 0.17130158096551898 -1.2427592277526853 1.1295656561851504 -1.5155026316642759 0.76471036672592174 1.6669243574142458 1.5338048934936526
decision_type=2 2 2 2 2 2 2 2 2 2 2 2 2 2 2 2 2 2 2 2 2 2 2 2 2 2 2 2 2 2 2 2 2 2 2 2 2 2 2 2 2 2 2 2 2 2 2 2 2 2 2 2 2 2 2 2 2 2 2 2 2 2 2 2 2 2 2 2 2 2 2 2 2 2 2 2 2 2 2 2 2 2 2 2 2 2
left_child=1 7 3 16 14 6 12 10 15 18 33 17 56 49 -4 44 66 -5 28 -11 22 26 40 55 34 -24 70 35 29 -8 52 58 -19 -1 -17 57 61 -15 -10 53 74 -42 48 -32 78 62 72 -48 -41 50 -9 -31 -23 77 76 -14 79 -7 -22 -47 -54 83 -35 -55 -65 -63 67 -2 -46 80 -16 -59 -28 -12 -21 -30 -26 -25 -6 -3 -58 -49 -52 -37 85 -70
right_child=2 5 4 11 8 27 9 13 38 19 73 -13 23 37 21 24 -18 32 -20 20 31 30 25 39 54 -27 46 -29 75 51 43 -33 -34 45 -36 36 -38 -39 -40 42 41 -43 -44 -45 68 59 47 81 -50 -51 82 -53 60 63 -56 -57 69 71 -60 -61 -62 65 -64 64 -66 -67 -68 -69 84 -71 -72 -73 -74 -75 -76 -77 -78 -79 -80 -81 -82 -83 -84 -85 -86 -87
leaf_value=-0.056623837216147055 -0.015910557029155805 0.0089870362742262514 -0.033607257525468691 -0.098577201569666609 -0.034517838879329403 0.019010606327071421 0.044091448465428174 -0.003892224400242169 -0.072552153265619854 0.069225503834703023 -0.069528658934128601 -0.085277126781276011 0.023707681437091132 -0.022923705962442215 -0.0046219116988427495 -0.046470952429753888 -0.061375866732289709 -0.12701325624783832 0.01958041554203864 0.054872259956177158 0.067675966495976722 -0.017214404612469179 0.041741724911102875 0.02951352174099196 -0.037649260927438734 0.016013947289098395 0.018619805450462264 -0.0080507948955298586 0.031654113810389267 0.043440841782383804 0.0064357495070035964 0.044983073872189187 -0.14405961408940227 -0.04049700521571295 -0.064139612370067156 0.012813343389076181 -0.0080509117089211935 -0.039519615712490949 -0.09241222643852233 0.035816012799550413 0.034576043700817786 0.051750562394818948 0.029296581293873743 -0.0074858727090536276 -0.013736048388771896 -0.048023210242600506 0.0027756635923932836 0.010325882751605142 0.048503664675625884 -0.0048057578316536443 0.005970805670113064 0.058654795304934192 -0.012346011690795421 0.029319195902337884 -0.044042829276884299 0.013255685815393613 0.001313702462289948 0.0075267351185498033 0.060420028292707033 -0.038958228877004307 -0.00298475262626659 0.008288322715274991 -0.030274413392048428 0.015101487641156253 0.025484366568922997 0.0014514853018014853 -0.026833915571697422 -0.023890884991296952 -0.024171359505504371 0.0088582738474277528 0.00084580785099689563 0.012657273644976543 0.012876774832755327 -0.084588332519531254 0.044469179647077209 0.04055275321610366 -0.030006494999863204 0.037670675678456084 -0.024929658618642062 0.014604234791493842 0.00494520763235844 0.014808024027082768 0.010262950150410132 0.0081856823197406954 -0.025011042915880681 -0.015472312363592209
leaf_weight=57 78 42 57 60 40 40 366 44 82 400 116 60 40 125 50 135 61 179 88 183 407 71 64 109 149 43 88 66 61 40 69 42 263 62 53 47 59 43 81 117 100 92 115 46 40 141 73 58 54 57 42 179 40 76 101 71 49 68 223 97 42 59 73 41 59 57 60 67 47 55 40 98 74 49 54 78 63 46 40 41 43 73 48 40 49 63
leaf_count=57 78 42 57 60 40 40 366 44 82 400 116 60 40 125 50 135 61 179 88 183 407 71 64 109 149 43 88 66 61 40 69 42 263 62 53 47 59 43 81 117 100 92 115 46 40 141 73 58 54 57 42 179 40 76 101 71 49 68 223 97 42 59 73 41 59 57 60 67 47 55 40 98 74 49 54 78 63 46 40 41 43 73 48 40 49 63
internal_value=4.66903e-06 0.0250554 -0.047747 -0.0971254 -0.0239821 0.040238 0.0456733 -0.0371673 -0.0444798 0.0539918 -0.0522639 -0.128144 0.024613 -0.0120375 0.000777211 -0.0363192 -0.0313097 -0.133064 0.0436524 0.0591751 0.0557827 0.00354345 0.0452982 0.0298556 -0.0436091 0.0317576 0.0095849 0.00581221 0.0465307 0.0487107 -0.00668885 0.0640478 -0.137486 -0.043529 -0.0518285 0.00780583 0.00408017 -0.0274512 -0.0829978 0.032062 0.0485658 0.0430932 0.0359456 0.000747125 -0.0230769 -0.0413498 0.0124832 0.00943619 0.0401511 0.00152992 0.00432947 0.0561406 -0.0123245 0.028572 -0.0384846 0.0173074 0.00790977 0.0124437 0.0652264 -0.0445573 -0.00778953 0.00768696 -0.0353207 0.0251124 0.0215379 0.00507253 -0.0220504 -0.0198186 -0.0200009 0.00542796 -0.00207736 0.0106851 0.0161652 -0.0745558 0.0527492 0.0369873 -0.0355859 0.0322372 -0.0302389 0.0120455 0.00317499 0.0130077 0.00847944 0.0109392 -0.0214063 -0.0194816
internal_weight=7418 4866 2552 828 1724 3912 3378 954 943 2420 595 562 958 359 781 780 266 502 812 1608 1208 724 536 728 501 107 456 534 724 585 268 672 442 430 188 468 262 168 163 617 429 192 286 115 279 373 366 204 171 191 134 219 153 331 313 111 230 206 630 238 82 203 135 176 100 116 205 145 199 147 90 166 162 165 237 139 212 155 80 83 92 131 90 87 159 110
internal_count=7418 4866 2552 828 1724 3912 3378 954 943 2420 595 562 958 359 781 780 266 502 812 1608 1208 724 536 728 501 107 456 534 724 585 268 672 442 430 188 468 262 168 163 617 429 192 286 115 279 373 366 204 171 191 134 219 153 331 313 111 230 206 630 238 82 203 135 176 100 116 205 145 199 147 90 166 162 165 237 139 212 155 80 83 92 131 90 87 159 110
is_linear=0
shrinkage=0.06


Tree=2
num_leaves=83
num_cat=0
split_feature=9 9 9 9 9 9 9 9 1 3 1 9 6 9 1 1 7 9 9 1 1 1 9 3 3 9 9 5 1 9 1 9 7 9 9 1 9 1 1 1 9 2 1 3 9 9 7 9 9 1 1 1 9 2 3 1 2 3 3 0 9 7 7 9 0 2 2 0 3 8 6 9 2 1 2 1 7 7 7 2 5 7
split_gain=2170.53 1125.5 707.093 413.74 221.548 178.763 145.238 87.774 76.16 31.9414 27.6684 24.2774 23.3917 19.3795 18.2872 18.0503 17.9515 16.8257 12.8267 11.4107 5.82637 5.27793 11.5079 4.6563 4.38443 4.15536 3.86974 3.6488 3.59917 2.39325 2.30437 2.24844 2.06138 6.67497 1.90112 2.57732 1.86648 1.79037 1.69172 1.63069 1.6189 1.4732 1.22216 1.19577 1.18107 1.09383 1.062 1.02115 1.69031 0.881444 0.846984 0.81197 1.08883 0.74858 0.662976 0.639292 0.632464 0.557854 0.492965 0.582958 0.472058 0.388757 0.37891 0.365241 0.362038 0.352758 0.351685 0.350451 0.260477 0.247167 0.243972 0.168189 0.152643 0.128327 0.0988327 0.0894144 0.0793661 1.26953 0.550877 0.0526716 0.0331701 0.0144143
threshold=0.53629684448242199 -1.2905451655387876 0.92323055863380443 0.66187280416488659 1.2941899895668032 0.2886947393417359 -0.79534095525741566 -1.4556132555007932 1.7335962653160097 0.23319111764431003 1.0000000180025095e-35 0.89571923017501842 -1.0190532207489011 0.95074191689491283 -0.63816359639167775 1.2065384984016421 -1.7587140202522276 0.63436147570610057 0.68938416242599498 0.67948076128959667 -1.1652276515960691 0.1524230241775513 -0.11998183652758597 0.3737714439630509 0.79551240801811229 -0.67153990268707264 0.99200892448425304 -1.0177885890007017 1.4700673818588259 1.2409422397613528 0.1524230241775513 -1.7032153010368345 0.88169082999229442 -0.26641319692134852 0.41249577701091772 0.67948076128959667 0.7719181776046754 1.9971251487731936 -0.37463472038507456 0.41595189273357397 1.2675660848617556 -1.0834658145904539 0.94300961494445812 -0.89145144820213307 -1.0842100381851194 -0.01348631316795945 -1.4244858622550962 1.5071810483932497 1.6802362799644472 -0.37463472038507456 1.4700673818588259 -0.37463472038507456 1.102054297924042 -0.30160684883594507 0.5143517702817918 1.4700673818588259 0.65399897098541271 1.2172533869743349 -0.32913015782833094 0.25791636854410177 -1.3593235015869138 -0.25468631833791727 -1.6751570105552671 -1.249278128147125 0.27957032620906835 0.21963211894035342 0.41509725153446203 0.21460897475481036 1.6389943361282351 0.74370691180229198 0.41120564937591558 0.21991638094186786 0.24135091900825503 0.1524230241775513 0.58884355425834667 -1.1652276515960691 -0.33824335038661951 -1.0401231050491331 0.98195910453796398 0.39337947964668279 -0.12251571193337439 0.76471036672592174
decision_type=2 2 2 2 2 2 2 2 2 2 2 2 2 2 2 2 2 2 2 2 2 2 2 2 2 2 2 2 2 2 2 2 2 2 2 2 2 2 2 2 2 2 2 2 2 2 2 2 2 2 2 2 2 2 2 2 2 2 2 2 2 2 2 2 2 2 2 2 2 2 2 2 2 2 2 2 2 2 2 2 2 2
left_child=1 7 3 17 13 6 12 10 15 16 31 18 20 -4 43 47 30 64 -5 26 66 25 39 46 50 -18 72 -11 34 56 -8 -1 42 54 58 65 -20 -10 61 -23 -31 -22 -29 62 63 -24 -14 -6 68 -35 -17 69 -53 -48 -34 57 -21 -26 59 -7 -16 -33 -9 -43 67 81 -3 -2 -49 -28 -67 -44 -15 -12 -57 -55 77 -27 -78 -65 -61 -36
right_child=2 5 4 11 8 28 9 14 37 27 73 -13 23 19 60 24 21 -19 36 29 41 22 45 -25 55 76 51 32 -30 40 -32 38 33 49 35 -37 -38 -39 -40 -41 -42 44 71 -45 -46 -47 53 48 -50 -51 -52 52 -54 75 -56 74 -58 -59 -60 80 -62 -63 -64 79 -66 70 -68 -69 -70 -71 -72 -73 -74 -75 -76 -77 78 -79 -80 -81 -82 -83
leaf_value=-0.053309788469540868 -0.020980836848488876 0.028037122780670238 -0.032153482760488988 -0.093235006382590829 -0.028940676698044163 0.014867516884970112 0.03229735365594652 -0.0066417053570704794 -0.069000038867838231 0.046626383997431582 -0.065456023397524501 -0.080611875590631515 0.018878327827003192 0 -0.020391663162066385 -0.045841212492329732 0.042164858547970654 -0.057364104497432705 -0.11935644523168014 -0.015444286845550922 -0.0023201438890246206 0.030587764698423836 0.044362426473034747 0.041210564865683114 -0.040151597523795705 0.053593936905264851 0.017627900104048654 0.064424488049814058 -0.0077514496383849869 0.0075670683869414708 0.016942538612484931 -0.036266375307647279 0.031027036095715381 0.06972941999068627 0.011556407534557842 -0.0075164477431068286 -0.13521369006366801 -0.087316651647741148 -0.044219656242306823 0.014639654981480404 -0.0067970495085264071 0.0099586525312159221 0.05084719182729721 0.00755153238787674 0.016390866396948693 0.056055529544993141 0.033177527068139506 -0.018107922280063995 -0.027737986471102788 0.055432623520764432 -0.062212522438594271 0.0029522517179697751 0.012304894070256138 0.030908996931759705 0.045981647866112842 -0.038744826947989523 -0.0071605872765881946 -0.032317784163568695 0.015737751051187517 0.0036550522718046389 -0.029159488083794708 -0.02621311572406973 0.00053867686857970868 0.0017535320006450638 -0.024413536555568372 0.0070685766387730831 0.018097280925405877 -0.012654319506518696 -0.011558289761422202 0.011566935384335618 0.0011926809055065469 0.060685461753181048 -0.0047797629366229683 -0.079533165035247794 -0.049844165761296334 0.025706981165408295 0.065509342688322064 0.04017157845497131 0.053493046263746319 0.0052237663265317672 0.0072859371691942213 0.0075096284904233781
leaf_weight=58 69 58 59 56 66 42 87 41 84 108 120 58 54 46 64 69 191 59 176 75 47 75 161 136 111 203 90 521 65 54 74 170 43 64 45 56 258 87 156 43 57 59 99 77 60 81 171 77 64 109 41 74 134 82 41 72 79 167 74 41 95 41 64 49 89 59 41 48 65 71 55 111 41 49 40 258 59 59 184 44 44 45
leaf_count=58 69 58 59 56 66 42 87 41 84 108 120 58 54 46 64 69 191 59 176 75 47 75 161 136 111 203 90 521 65 54 74 170 43 64 45 56 258 87 156 43 57 59 99 77 60 81 171 77 64 109 41 74 134 82 41 72 79 167 74 41 95 41 64 49 89 59 41 48 65 71 55 111 41 49 40 258 59 59 184 44 44 45
internal_value=9.20905e-05 0.023681 -0.0448495 -0.0909444 -0.0230525 0.0378622 0.0429362 -0.0354047 -0.0426041 0.0513684 -0.0493229 -0.120679 0.0244767 0.000593756 -0.0110517 -0.0344701 0.0445409 -0.0291872 -0.125224 0.00333093 0.011897 0.0474115 0.0409642 0.0308579 -0.0412778 0.0506655 0.00908881 0.0588913 0.00529207 -0.00652877 0.0254621 -0.0409067 0.0601714 0.0541179 0.00716995 0.00369159 -0.1291 -0.0788423 -0.0387744 0.0250489 8.89276e-05 0.007049 0.0622064 0.00188569 0.00918361 0.0485402 0.0282763 -0.0218068 -0.0193345 0.0611609 -0.0525569 0.0117717 0.00906497 0.0292072 0.0389226 -0.0379395 -0.0113459 -0.0356214 0.0115694 0.00894283 -0.0258548 -0.0345024 -0.00218809 0.00617167 -0.020821 0.0068485 0.0242628 -0.0178027 -0.0152956 0.015117 0.00437308 0.0563673 -0.00215855 -0.070052 -0.0432211 0.0270837 0.0537673 0.0507812 0.0567163 0.00356113 0.00573697 0.00976964
internal_weight=7369 4833 2536 813 1723 3898 3372 935 943 2313 594 548 1059 780 341 772 1217 265 490 721 358 1056 360 701 500 696 456 1096 526 265 161 425 988 257 461 260 434 171 367 118 111 259 731 182 212 242 565 272 206 173 110 369 208 511 84 390 154 278 201 127 159 211 105 152 206 204 99 117 142 161 114 210 87 169 112 340 505 262 243 93 85 90
internal_count=7369 4833 2536 813 1723 3898 3372 935 943 2313 594 548 1059 780 341 772 1217 265 490 721 358 1056 360 701 500 696 456 1096 526 265 161 425 988 257 461 260 434 171 367 118 111 259 731 182 212 242 565 272 206 173 110 369 208 511 84 390 154 278 201 127 159 211 105 152 206 204 99 117 142 161 114 210 87 169 112 340 505 262 243 93 85 90
is_linear=0
shrinkage=0.06


Tree=3
num_leaves=85
num_cat=0
split_feature=9 9 9 9 9 9 9 9 1 5 1 9 9 9 1 3 1 9 9 1 3 1 9 9 4 1 9 1 7 1 9 9 9 1 9 1 9 9 1 2 3 5 9 9 4 1 9 4 1 9 2 4 3 9 1 4 9 3 8 3 4 7 0 2 0 7 2 2 2 8 1 0 8 2 9 3 1 9 9 1 4 3 3 9
split_gain=1920.53 995.985 625.235 365.686 196.152 158.053 128.411 77.6663 67.352 28.3458 24.4795 21.3579 20.3989 17.1594 16.1919 15.9773 15.9579 14.8854 11.2255 10.1077 5.60766 4.93124 12.5753 6.51882 3.95093 3.47298 3.42737 3.30187 3.24094 3.19325 2.12003 2.08781 1.98333 1.81026 1.68305 2.28763 1.59446 1.59013 1.47779 1.47124 1.05788 0.952953 1.35081 4.19532 0.903694 0.715033 0.95936 0.590435 0.569093 0.649429 0.560025 0.548112 0.531332 0.49093 0.481612 0.468996 0.460362 0.454931 0.431455 0.429183 0.363132 0.325727 0.310492 0.310388 0.303004 0.285366 0.243925 0.235846 0.224028 0.212808 0.21201 0.188943 0.144298 0.135999 0.115924 0.106608 0.101268 0.0631695 0.684525 0.0419677 0.0269212 0.019551 0.0183829 2.3698e-05
threshold=0.53629684448242199 -1.2905451655387876 0.92323055863380443 0.66187280416488659 1.2941899895668032 0.2886947393417359 -0.79534095525741566 -1.4556132555007932 1.7335962653160097 -1.4499896168708799 1.0000000180025095e-35 0.89571923017501842 -1.1804997920989988 0.95074191689491283 -0.63816359639167775 0.3737714439630509 1.2065384984016421 0.63436147570610057 0.68938416242599498 0.67948076128959667 0.3737714439630509 1.0000000180025095e-35 -0.1865415424108505 -0.67153990268707264 0.9436233937740327 0.1524230241775513 0.99200892448425304 0.41595189273357397 -1.4077746868133543 1.4700673818588259 1.2409422397613528 -0.026798253878951069 -1.7032153010368345 1.4700673818588259 0.41249577701091772 0.67948076128959667 1.3341258168220522 0.7719181776046754 -0.37463472038507456 0.63228118419647228 -0.89145144820213307 -1.0177885890007017 -0.37290871143341059 -0.26641319692134852 1.0780558586120608 -0.37463472038507456 1.102054297924042 -0.40346042811870569 1.4700673818588259 1.6669243574142458 0.69743552803993236 -0.57167378067970265 -0.61029079556465138 -0.34628482162952418 0.1524230241775513 -0.40346042811870569 -0.066734075546264635 -0.32913015782833094 0.38459731638431555 -0.32913015782833094 -0.53789392113685597 -0.25468631833791727 0.27957032620906835 0.21963211894035342 0.21460897475481036 -0.2713975310325622 0.58884355425834667 0.45853486657142645 0.39337947964668279 0.74370691180229198 0.94300961494445812 0.30122427642345434 -1.2427592277526853 0.24135091900825503 1.5471168756484988 -0.46971046924591059 0.1524230241775513 -1.001676023006439 -1.0979657173156736 -0.90169563889503468 0.64028856158256542 0.5143517702817918 -1.172612130641937 1.1295656561851504
decision_type=2 2 2 2 2 2 2 2 2 2 2 2 2 2 2 2 2 2 2 2 2 2 2 2 2 2 2 2 2 2 2 2 2 2 2 2 2 2 2 2 2 2 2 2 2 2 2 2 2 2 2 2 2 2 2 2 2 2 2 2 2 2 2 2 2 2 2 2 2 2 2 2 2 2 2 2 2 2 2 2 2 2 2 2
left_child=1 7 3 17 13 6 12 10 16 25 32 18 51 -4 40 21 44 62 -5 26 28 23 27 79 33 52 73 54 57 34 50 56 -1 -18 59 63 -10 -20 61 -32 55 -17 -43 53 -6 69 -47 -16 49 74 58 68 -8 -44 -23 -9 -24 -14 -21 82 -30 -34 64 80 -2 -25 -53 -46 72 -28 -45 -69 -3 -15 -26 -65 -12 78 -62 -11 -36 -22 -7 -48
right_child=2 5 4 11 8 29 9 14 36 15 76 -13 20 19 47 41 24 -19 37 30 81 22 31 65 48 -27 45 -29 60 -31 39 -33 38 -35 35 -37 -38 -39 -40 -41 -42 42 43 70 67 46 83 -49 -50 -51 -52 66 -54 -55 -56 -57 -58 -59 -60 -61 77 -63 -64 75 -66 -67 -68 71 -70 -71 -72 -73 -74 -75 -76 -77 -78 -79 -80 -81 -82 -83 -84 -85
leaf_value=-0.050165414050474005 -0.019739970291326091 0 -0.030256427043303849 -0.08773905451674209 -0.02658569595074424 0.010002752733603121 0.028321077285794648 -0.0071172345000796201 -0.06046000089553686 0.046796004174119332 -0.061561119146583486 -0.075857137853816411 0.011129252157361817 0 -0.028708578442848177 0.044819363523806839 -0.041275239332658899 -0.053979622232913971 -0.1122355203062801 -0.0089222633087235239 0.033509823824389502 0.037153043438585436 0.046514864035086194 0.052362041756431055 -0.034343379872910522 0.016089813535809516 0.016581849005134715 0.01378123817186464 0.032512034150362017 -0.0072934095265809453 0.008293616679001678 0.055252706877209921 -0.034103117718246943 -0.056964133032885458 0.011192757089470708 -0.0070733729546007349 -0.079350377088735921 -0.12713219587591162 -0.041583377267809425 -0.005592597817155447 0.007104249400444902 0.064827058058932324 0.048373933328234628 0.059233102538719259 -0.014240761277495654 0.002777478495389223 0.0094790345847484518 -0.019661929285199178 -0.039238350634574891 -0.040127272333417618 -0.0064713276129309098 0.013010229087660264 0.038726083803479951 0.034461366892336531 0.02803813928186516 0.00094150101105597891 0.037588160312175753 0.019823866423023376 -0.019024633527892392 0.014806076373308896 0.027071735266007875 -0.024677776187658308 -0.022964999633034066 0.0014731866829097271 -0.011910555408925426 0.060886621122285142 0.0060351007115095846 -0.01700247288137674 0.0080198591245072229 0.010882558316768457 0.052927519816713238 -0.024391223024414932 0.0048324666001967019 -0.004499805600489448 -0.026755879714596465 0.0056913962026491106 -0.074856611738204945 0.027716547126015179 0.019116662366882614 0.038605209863915739 0.0070259347004359776 0.042070803916454312 0.006765579658357993 0.012960110175665469
leaf_weight=58 69 45 59 56 77 59 84 40 51 58 120 58 61 46 78 55 139 59 176 40 58 97 219 186 46 74 90 43 74 65 46 131 170 54 42 56 120 258 156 65 77 132 45 463 76 74 60 81 99 41 74 63 58 46 78 65 79 56 40 74 151 41 89 46 48 126 41 74 41 71 193 45 41 41 121 68 49 258 91 146 48 79 68 74
leaf_count=58 69 45 59 56 77 59 84 40 51 58 120 58 61 46 78 55 139 59 176 40 58 97 219 186 46 74 90 43 74 65 46 131 170 54 42 56 120 258 156 65 77 132 45 463 76 74 60 81 99 41 74 63 58 46 78 65 79 56 40 74 151 41 89 46 48 126 41 74 41 71 193 45 41 41 121 68 49 258 91 146 48 79 68 74
internal_value=8.51564e-05 0.0222741 -0.042189 -0.085534 -0.0216919 0.0356145 0.0403856 -0.0333077 -0.0400888 0.0483146 -0.0464003 -0.113489 0.023027 0.000556939 -0.0103971 0.05046 -0.0324379 -0.0274701 -0.117756 0.00313346 0.0274274 0.0455879 0.0417532 0.0502828 -0.0388405 0.0272943 0.00855326 0.0296182 0.025102 0.00498748 -0.00614468 0.0478086 -0.0384799 -0.0459977 0.00675708 0.00348017 -0.0741704 -0.121391 -0.0364693 7.75761e-05 0.00177303 0.0564587 0.0571216 0.0556591 -0.0205253 0.0110785 0.0085289 -0.0243266 -0.0341673 -0.0315201 -0.0106785 0.00715218 0.032896 0.0419227 0.033341 -0.00205347 0.0443222 0.0155252 -0.0142941 0.0108982 0.0270028 -0.0324533 -0.0195955 0.00645612 -0.0167578 0.0560265 0.0104584 -0.0179476 0.00429044 0.0142253 0.0574796 -0.0200765 0.00230278 -0.00202493 -0.0291093 0.00412127 -0.0659043 0.0261002 0.0242207 0.0412094 0.00920395 0.0388025 0.00842961 0.0115721
internal_weight=7369 4833 2536 813 1723 3898 3372 935 943 2313 594 548 1059 780 341 2097 772 265 490 721 828 1163 647 516 500 216 456 218 691 526 265 429 425 193 461 260 171 434 367 111 182 934 879 747 272 369 208 159 307 208 154 231 142 91 175 105 298 117 80 201 574 211 206 204 117 312 104 195 127 161 656 119 86 87 167 114 169 500 242 204 90 137 127 134
internal_count=7369 4833 2536 813 1723 3898 3372 935 943 2313 594 548 1059 780 341 2097 772 265 490 721 828 1163 647 516 500 216 456 218 691 526 265 429 425 193 461 260 171 434 367 111 182 934 879 747 272 369 208 159 307 208 154 231 142 91 175 105 298 117 80 201 574 211 206 204 117 312 104 195 127 161 656 119 86 87 167 114 169 500 242 204 90 137 127 134
is_linear=0
shrinkage=0.06


Tree=4
num_leaves=87
num_cat=0
split_feature=9 9 9 9 9 9 9 9 1 3 1 1 6 9 1 9 1 5 9 1 1 4 1 9 9 3 9 5 1 9 1 1 1 9 1 9 1 9 9 1 1 2 9 9 1 9 3 9 1 1 1 9 9 1 4 9 9 8 0 2 4 9 9 1 0 2 2 2 2 9 2 2 6 0 0 6 4 2 2 4 3 1 4 2 3 2
split_gain=1754.41 875.026 584.775 314.525 173.772 141.501 117.432 69.2312 61.7228 26.0982 20.6864 19.8262 18.5767 16.1334 14.0224 13.9048 13.2721 11.9209 11.2201 6.5092 4.88579 4.79046 4.42139 9.07135 4.22405 3.88393 3.12957 2.9695 2.9479 2.94529 2.12285 1.88935 1.83746 1.6744 1.60161 1.50331 1.47028 6.37798 1.45176 2.09104 1.39662 1.31427 1.24182 1.23476 1.31386 0.967018 0.949495 0.90149 1.6836 1.24229 0.880191 0.876433 0.812763 0.81257 0.797488 0.636899 0.503928 0.483979 0.480117 0.453885 0.439882 0.428649 0.411852 0.371063 0.362569 0.357135 0.348137 0.342629 0.342043 0.287784 0.200003 0.282887 0.198879 0.189649 0.24889 0.168862 0.155659 0.140785 0.121287 0.11395 0.111689 0.0901354 0.0271908 0.0128019 0.00863741 0.0072094
threshold=0.53629684448242199 -1.2905451655387876 0.92323055863380443 0.66187280416488659 1.2808780670166018 0.2886947393417359 -0.79534095525741566 -1.4556132555007932 1.7335962653160097 0.23319111764431003 1.0000000180025095e-35 -2.2193431854248042 -1.0190532207489011 0.95074191689491283 -0.63816359639167775 0.63436147570610057 1.2065384984016421 -1.4808610677719114 0.68938416242599498 0.67948076128959667 -1.1652276515960691 0.9436233937740327 0.1524230241775513 -0.11998183652758597 1.2409422397613528 0.5143517702817918 0.99200892448425304 -1.0177885890007017 1.4700673818588259 -0.67153990268707264 0.1524230241775513 1.9971251487731936 -0.37463472038507456 -1.7032153010368345 1.4700673818588259 0.7719181776046754 1.0000000180025095e-35 -0.026798253878951069 0.41249577701091772 0.67948076128959667 -0.37463472038507456 -1.0834658145904539 -0.34628482162952418 1.3075019121170046 1.4700673818588259 -0.01348631316795945 -0.89145144820213307 -1.001676023006439 -1.1652276515960691 -0.90169563889503468 0.41595189273357397 -0.91914200782775868 -1.0842100381851194 -0.63816359639167775 1.0780558586120608 1.102054297924042 -1.3868348598480222 -0.11088395863771437 0.27957032620906835 0.67571672797203075 -0.94188034534454335 1.0195202827453616 -1.0566987395286558 0.94300961494445812 0.32287797331810003 0.41509725153446203 0.39337947964668279 -0.67081829905509938 0.13275895640254023 -1.249278128147125 0.45853486657142645 0.78430870175361644 0.41120564937591558 0.27957032620906835 0.21460897475481036 0.16246472299098971 -0.53789392113685597 -0.040987364016473286 0.24135091900825503 1.2131794691085818 -0.18854984268546102 0.1524230241775513 0.10186760500073434 0.19791434705257419 0.93609276413917553 0.93633723258972179
decision_type=2 2 2 2 2 2 2 2 2 2 2 2 2 2 2 2 2 2 2 2 2 2 2 2 2 2 2 2 2 2 2 2 2 2 2 2 2 2 2 2 2 2 2 2 2 2 2 2 2 2 2 2 2 2 2 2 2 2 2 2 2 2 2 2 2 2 2 2 2 2 2 2 2 2 2 2 2 2 2 2 2 2 2 2 2 2
left_child=1 7 3 15 13 6 12 10 16 17 33 -5 20 -4 46 73 54 30 -13 26 65 34 29 50 58 47 78 -11 38 -19 -8 -10 -16 -1 84 -20 -29 42 57 68 -35 -22 -38 -23 79 -25 56 48 -14 51 -24 76 69 61 -6 67 -9 -7 -21 -26 -31 -28 -50 -39 -60 -3 -51 -55 -40 -43 -56 -72 -70 74 -2 -59 -49 -48 -15 -45 -71 -12 -77 -57 -18 -73
right_child=2 5 4 11 8 28 9 14 31 27 81 18 25 19 32 -17 21 22 35 24 41 43 23 45 59 -27 53 36 -30 60 -32 -33 -34 40 -36 -37 37 63 39 -41 -42 52 -44 44 -46 -47 77 49 62 66 -52 -53 -54 55 70 83 -58 75 64 -61 -62 -63 -64 -65 -66 -67 -68 -69 72 80 71 85 -74 -75 -76 82 -78 -79 -80 -81 -82 -83 -84 -85 -86 -87
leaf_value=-0.046942286850976157 -0.018842403875096985 0.025028209979905458 -0.027850702530216605 -0.070947179938926061 -0.02487219440621825 0.016635600800285252 0.029832212732643432 0.00078866699304093013 -0.060525563280722665 0.041289420429516485 -0.057695995236779082 -0.082019527122622615 0.028003272996137016 0 -0.018573737178731151 -0.051987512218952175 -0.042051024241619793 0.037379376168484274 -0.1054720643221677 -0.013959810653328896 -0.0030993991466437246 -0.021094515116885305 0.026030615132392902 0.038971510947109704 0.010788737281310287 0.039959600164759447 0.0097215806441228892 0.057968760802465331 -0.0069432481329210777 0.053315991758206567 0.015319115658290685 -0.078131898592258317 -0.034156990800585062 -0.030411506395296349 -0.0537660399377346 -0.11941281174023945 0.044636958187117291 0.056398964802314946 0.0093313196972333676 -0.0064871228335061206 -0.039303936229342487 0.0088169078255395713 0.030072402105669558 -0.031444812085926532 -0.040348920654646958 0.049703566052564756 0.0087077148352272624 0.033905184737471651 0.011999427617253627 0.025819995011052775 0.013760584362915584 0.040017107788721723 0.014087300891819379 0.0083297514159504944 -0.013268107661953219 0.0082869695210829371 -0.0072193137190126357 0.0058147004498102298 -0.0020197501520103798 0.0016224121694821258 0.045692463280576648 0.017526810754350242 0.02008104763889685 0.0499474264781622 -0.010350976155544429 0.015584108081667923 0.017964735087184679 0.00081472456033684709 0.0064237386851786421 0.0010442684663967653 -0.023797292758843729 -0.012712437148617452 0.0012939233509613752 -0.02156498802710196 -0.011384897859119203 0.012414674325313952 0.025892644403361469 0.0029302838379290041 -0.0042769539192585009 -0.024741708490110578 0.0054780696645379059 -0.070461607670297424 0.0081312466743774705 0.011956228597903247 -0.03341506660580635 -0.018245206425102745
leaf_weight=60 68 60 62 60 77 40 108 65 84 110 115 60 113 48 126 59 82 183 181 69 46 53 81 165 43 81 60 305 65 108 67 86 41 204 55 269 67 363 86 57 156 60 60 149 78 81 40 42 50 92 41 44 57 40 76 47 46 69 40 42 395 77 99 210 45 42 62 56 64 54 41 42 60 86 45 48 118 40 41 62 44 48 49 88 54 40
leaf_count=60 68 60 62 60 77 40 108 65 84 110 115 60 113 48 126 59 82 183 181 69 46 53 81 165 43 81 60 305 65 108 67 86 41 204 55 269 67 363 86 57 156 60 60 149 78 81 40 42 50 92 41 44 57 40 76 47 46 69 40 42 395 77 99 210 45 42 62 56 64 54 41 42 60 86 45 48 118 40 41 62 44 48 49 88 54 40
internal_value=1.31983e-05 0.0211052 -0.0401605 -0.0816304 -0.0203499 0.0335038 0.0380175 -0.0308551 -0.0370358 0.0455274 -0.0435992 -0.106487 0.0214348 0.00120542 -0.0100043 -0.0264681 -0.0300357 0.0393742 -0.110498 0.00384721 0.0103242 -0.035605 0.0418132 0.0360255 -0.00413197 0.0271483 0.00804625 0.0522576 0.00487154 0.0448435 0.0244626 -0.0699073 -0.0226515 -0.0363244 -0.0435571 -0.114078 0.0534039 0.0513179 0.00653168 0.00352255 -0.0343963 0.00586706 0.0381385 -0.0310149 -0.0327138 0.0427407 0.00105157 0.0253936 0.0221918 0.027635 0.02215 0.0310435 0.00784649 0.0104877 -0.0191475 0.00812861 -0.00245764 0.010338 -0.0100654 0.00647056 0.0474557 0.0142906 0.0175472 0.0541466 -0.00663901 0.021445 0.0228712 0.00412329 0.0063142 0.00544515 -0.0167591 -0.018695 0.00406778 -0.0186199 -0.0161038 0.00865815 0.028268 0.00603899 -0.00191962 -0.0296578 0.00319139 -0.0619351 0.0104784 0.0108373 -0.0389786 -0.0157432
internal_weight=7452 4887 2565 828 1737 3946 3408 941 979 2344 583 570 1064 758 358 258 809 1229 510 696 363 533 1054 368 239 701 457 1115 538 686 175 170 167 420 191 450 1005 700 473 267 360 261 127 342 289 246 191 620 262 358 122 204 215 368 276 231 111 206 154 85 503 137 149 573 85 102 154 96 210 158 199 123 124 199 113 166 160 80 89 211 98 163 97 135 136 82
internal_count=7452 4887 2565 828 1737 3946 3408 941 979 2344 583 570 1064 758 358 258 809 1229 510 696 363 533 1054 368 239 701 457 1115 538 686 175 170 167 420 191 450 1005 700 473 267 360 261 127 342 289 246 191 620 262 358 122 204 215 368 276 231 111 206 154 85 503 137 149 573 85 102 154 96 210 158 199 123 124 199 113 166 160 80 89 211 98 163 97 135 136 82
is_linear=0
shrinkage=0.06


Tree=5
num_leaves=93
num_cat=0
split_feature=9 9 9 9 9 9 9 9 1 3 1 9 6 9 1 9 7 1 9 1 1 4 9 3 1 9 9 9 1 5 1 9 1 1 9 1 9 1 1 9 1 9 9 1 3 9 1 1 9 4 1 9 9 9 9 8 3 7 4 1 3 8 9 1 1 3 9 7 4 3 0 0 6 8 4 7 7 8 8 0 3 6 1 9 9 9 0 0 7 4 7 9
split_gain=1552.31 774.257 517.067 277.964 153.913 125.108 103.685 61.2548 54.576 23.0367 18.3106 17.6372 16.4271 14.288 12.4256 12.2993 12.1121 11.7235 9.93983 5.77058 4.3245 4.24337 3.75142 3.42184 3.34129 7.52838 3.28704 2.77644 2.61509 2.60032 2.50693 1.64853 1.62501 1.57623 1.47653 1.37179 1.28762 1.8546 1.27316 5.59099 1.22336 1.0844 1.02381 1.09464 0.842457 0.792025 1.47796 1.09219 0.767745 0.75344 0.728591 0.890904 0.721618 1.50213 0.597069 0.5169 0.478791 0.4719 0.45108 0.433366 1.23546 0.42438 0.356817 0.304917 0.303651 0.271234 0.241834 0.220326 0.182142 0.180615 0.16091 0.212136 0.147285 0.142705 0.130973 0.1149 0.784845 0.105134 0.104641 0.102535 0.0694161 0.0689162 0.0675272 0.0600496 0.0515064 0.0421812 0.0325842 0.0286016 0.0243479 0.00901669 0.00815243 0.007716
threshold=0.53629684448242199 -1.2905451655387876 0.92323055863380443 0.66187280416488659 1.2808780670166018 0.2886947393417359 -0.79534095525741566 -1.4556132555007932 1.7335962653160097 0.23319111764431003 1.0000000180025095e-35 0.89571923017501842 -1.0190532207489011 0.95074191689491283 -0.63816359639167775 0.63436147570610057 -1.7587140202522276 1.2065384984016421 0.7031398117542268 0.67948076128959667 -1.1652276515960691 0.97740429639816295 1.2409422397613528 0.5143517702817918 0.1524230241775513 -0.10666989907622336 -0.67153990268707264 0.99200892448425304 1.4700673818588259 -1.0177885890007017 1.0000000180025095e-35 1.3341258168220522 -0.37463472038507456 1.4700673818588259 -1.7032153010368345 0.1524230241775513 0.41249577701091772 0.67948076128959667 1.0000000180025095e-35 -0.026798253878951069 -0.37463472038507456 -0.34628482162952418 1.3075019121170046 1.4700673818588259 -0.89145144820213307 -1.001676023006439 -1.1652276515960691 -0.90169563889503468 -0.91914200782775868 -0.57167378067970265 -0.37463472038507456 1.102054297924042 1.5071810483932497 1.6802362799644472 -0.01348631316795945 1.402833163738251 -0.46971046924591059 -1.6751570105552671 -0.032564855180680745 0.94300961494445812 1.7795746922492983 -0.11088395863771437 -1.0566987395286558 0.94300961494445812 -0.90169563889503468 1.2172533869743349 1.0195202827453616 -0.37166577577590937 0.80919095873832714 -0.32913015782833094 0.25791636854410177 0.17130158096551898 0.16246472299098971 0.74370691180229198 -0.53789392113685597 1.1156507730484011 0.26336812973022466 0.24367918819189074 0.74370691180229198 0.1279941909015179 0.93609276413917553 -0.45938761532306666 0.1524230241775513 -1.0842100381851194 -1.6344369649887083 0.7719181776046754 0.30122427642345434 0.27957032620906835 1.0320937037467959 0.10186760500073434 -1.6751570105552671 1.1295656561851504
decision_type=2 2 2 2 2 2 2 2 2 2 2 2 2 2 2 2 2 2 2 2 2 2 2 2 2 2 2 2 2 2 2 2 2 2 2 2 2 2 2 2 2 2 2 2 2 2 2 2 2 2 2 2 2 2 2 2 2 2 2 2 2 2 2 2 2 2 2 2 2 2 2 2 2 2 2 2 2 2 2 2 2 2 2 2 2 2 2 2 2 2 2 2
left_child=1 7 3 15 13 6 12 10 17 16 34 18 20 -4 44 68 35 52 -5 27 79 33 59 45 26 81 64 78 36 -11 -28 -10 -16 80 -1 -8 61 70 75 41 67 -40 -23 55 57 46 -14 48 74 69 66 -52 -6 65 -27 -44 -51 -9 -32 -21 -61 -7 -48 -41 -18 -54 -29 -36 87 -22 71 -38 -63 -68 -47 76 -31 -24 -15 -3 -19 -26 -12 -58 -42 -20 -74 -2 -67 -72 -46 -53
right_child=2 5 4 11 8 28 9 14 31 29 82 -13 23 19 32 -17 24 21 85 22 49 42 77 -25 25 54 30 50 -30 38 58 -33 -34 -35 40 -37 37 -39 39 63 84 -43 43 -45 90 47 62 -49 -50 56 51 91 53 -55 -56 -57 83 -59 -60 60 -62 72 -64 -65 -66 88 73 -69 -70 -71 89 -73 86 -75 -76 -77 -78 -79 -80 -81 -82 -83 -84 -85 -86 -87 -88 -89 -90 -91 -92 -93
leaf_value=-0.044171922331950698 -0.016396138229786798 0.016410790699605757 -0.026206185194796748 -0.082360567275058014 -0.024207267700938079 0.015661809716373685 0.026502600223672658 -0.0073581951100911407 -0.052729504232223216 0.038834373655552798 -0.05426407910523743 -0.066604664900263802 0.026337815034546349 -0.0037727197587014514 -0.017468087923045703 -0.048920248109102241 0.042100463128671411 -0.039553733606899483 -0.10018389002378884 -0.0038989343037207917 -0.00061693341516157879 -0.019852282863524223 0.0083956050473180683 0.037591262398333082 0.019969713414492812 0.037256776489019386 0.048696892671637085 0.0091478480019560847 -0.0065329653663476076 0.048645390161600979 0.035907467689437249 -0.070766702914237978 -0.032156365879944387 -0.050507603028724923 -0.031220704549551004 0.014352996325247908 0.0064569824855488078 -0.0061046061986688004 0.041998126645298561 0.053024324538616031 -0.030346927537667479 0.028297637084712748 -0.025453384749453373 -0.037698197262627735 0.0039378103164547096 0.031918184026729232 0.011293578864677864 0.021520533098280427 0.037669436875979109 0.0041837653119445716 0.0016978315382889686 0.0081698430024087429 -0.017105584535357911 -0.024008063388057051 0.046757720652876825 -0.035470222348120153 0.0085548536347788418 0.00054419697015743024 0.045587395507097242 -0.0055346988591232467 -0.01880438177774147 0.0054708024344140927 0.018888233445603399 0.046964784591683843 0.032329838692953312 -0.0078824878213547018 0.017877390344576402 -0.024460899664847133 -0.01282652050819248 0.0040191707731513631 0.0061791876259277446 0.00094371217575210794 0.0077094900040990781 0.011336446565925144 0.024352140931522145 0.050592412099794107 0.06354005922851981 0.0033287934922548224 6.9857794960791401e-05 0.02334813133082711 -0.031355661656884914 0.026562006242053453 -0.066320189806879787 0.013976633269612383 -0.039083933933785085 -0.11230970333417256 0.011975751264890035 -0.021291271721196534 -0.011905037194676697 0.0096033733188259328 0.0070189399556597554 0.011495975790714676
leaf_weight=60 80 51 62 88 64 40 87 41 51 110 115 60 113 46 126 59 40 84 153 44 55 53 43 81 91 149 297 60 65 54 154 119 41 57 119 72 64 57 67 363 43 60 161 76 40 42 50 154 44 67 72 59 42 63 81 40 42 70 59 62 48 69 99 210 157 48 54 85 49 57 52 51 53 47 118 161 90 42 43 51 62 42 48 40 113 269 44 70 59 43 40 76
leaf_count=60 80 51 62 88 64 40 87 41 51 110 115 60 113 46 126 59 40 84 153 44 55 53 43 81 91 149 297 60 65 54 154 119 41 57 119 72 64 57 67 363 43 60 161 76 40 42 50 154 44 67 72 59 42 63 81 40 42 70 59 62 48 69 99 210 157 48 54 85 49 57 52 51 53 47 118 161 90 42 43 51 62 42 48 40 113 269 44 70 59 43 40 76
internal_value=1.09622e-05 0.019851 -0.0377779 -0.0767735 -0.019149 0.031514 0.0357583 -0.0290254 -0.0348525 0.0428151 -0.0410133 -0.100142 0.020175 0.00113637 -0.00941001 -0.0249124 0.0370316 -0.0282685 -0.103926 0.00362338 0.00972369 -0.0335045 -0.00388753 0.0255484 0.0393509 0.0341704 0.0419418 0.00757752 0.00458978 0.0491404 0.04469 -0.0657657 -0.0213156 -0.0406417 -0.0341649 0.0212 0.00615415 0.00331625 0.0502168 0.0482574 -0.0323461 0.0358908 -0.0289683 -0.0305917 0.000993857 0.0238977 0.0208795 0.0260089 0.0292171 0.00552657 0.00987736 0.00732367 -0.0180291 -0.0160028 0.0408426 -0.0276719 0.00832931 -0.0023072 0.0388453 -0.00948099 -0.0115505 0.00974064 0.016512 0.0509101 0.0345769 -0.0124006 0.0130211 -0.0285957 -0.0175255 0.00165101 0.00594702 0.00414463 0.00815675 0.0150922 0.0265987 0.054502 0.0584113 0.00609936 -0.00180271 0.020189 -0.036391 0.0223237 -0.0582703 0.0114807 -0.0369607 -0.108189 0.0098696 -0.0188859 -0.0103013 0.00793797 0.00569416 0.0102013
internal_weight=7452 4887 2565 828 1737 3946 3408 941 979 2344 583 570 1064 758 358 258 1229 809 510 696 363 533 239 701 1070 363 707 457 538 1115 510 170 167 203 420 159 473 267 1005 700 360 127 330 277 191 620 262 358 204 261 368 207 276 212 230 201 149 111 213 154 110 206 149 573 197 149 161 204 199 112 210 115 166 101 160 305 144 85 89 102 146 133 163 82 156 422 97 150 107 95 80 135
internal_count=7452 4887 2565 828 1737 3946 3408 941 979 2344 583 570 1064 758 358 258 1229 809 510 696 363 533 239 701 1070 363 707 457 538 1115 510 170 167 203 420 159 473 267 1005 700 360 127 330 277 191 620 262 358 204 261 368 207 276 212 230 201 149 111 213 154 110 206 149 573 197 149 161 204 199 112 210 115 166 101 160 305 144 85 89 102 146 133 163 82 156 422 97 150 107 95 80 135
is_linear=0
shrinkage=0.06


Tree=6
num_leaves=87
num_cat=0
split_feature=9 9 9 9 9 9 6 9 1 3 1 1 9 1 1 7 9 9 9 1 9 3 7 1 6 9 9 1 1 1 9 1 9 1 1 9 1 9 9 9 1 2 7 9 3 6 9 9 1 4 1 8 6 9 9 2 2 1 2 6 9 1 9 3 1 6 9 9 3 9 2 2 6 6 4 2 4 8 1 6 5 7 9 4 8 4
split_gain=1348.24 688.905 442.596 251.919 133.351 109.063 89.0825 52.3575 44.3043 21.6279 16.0676 15.4939 12.8934 10.7287 10.6561 10.2666 10.1501 10.0637 8.34027 6.64513 3.4581 3.45403 3.04369 2.89983 8.6775 5.5705 2.37308 2.10033 1.74596 1.60605 1.57825 1.44123 1.42083 1.39829 1.32571 1.19585 1.63332 1.18773 1.1645 1.13883 1.2275 1.11215 0.874292 1.24793 0.771239 0.758467 1.21397 2.67722 0.715672 0.71128 0.675874 0.675097 0.571435 0.553435 0.510487 0.509916 0.500362 0.478188 0.39917 0.370704 0.357551 0.352295 0.340872 0.331258 0.329546 0.318381 0.683233 0.310372 0.267928 0.261502 0.243258 0.24125 0.23441 0.233847 0.231832 0.201449 0.194179 0.18125 0.170345 0.159727 0.144917 0.106606 0.087423 0.0646437 0.047933 0.00475939
threshold=0.53629684448242199 -1.2905451655387876 0.92323055863380443 0.66187280416488659 1.2941899895668032 0.2886947393417359 -0.83249902725219715 -1.4556132555007932 1.7335962653160097 0.3737714439630509 -2.2193431854248042 1.0000000180025095e-35 -1.1804997920989988 -0.63816359639167775 1.2065384984016421 -1.7587140202522276 0.95074191689491283 0.63436147570610057 0.68938416242599498 0.67948076128959667 -0.78158527612686146 0.79551240801811229 -1.4077746868133543 1.0000000180025095e-35 -0.21064370870590207 -0.67153990268707264 0.99200892448425304 1.4700673818588259 0.41595189273357397 -1.1652276515960691 -0.026798253878951069 1.9971251487731936 1.2409422397613528 -0.37463472038507456 0.1524230241775513 0.41249577701091772 0.67948076128959667 -1.7032153010368345 0.7719181776046754 -0.94665333628654469 -0.90169563889503468 0.63228118419647228 0.64773091673851024 1.6802362799644472 -0.75087112188339222 -0.58375811576843251 -0.37290871143341059 -0.26641319692134852 -0.63816359639167775 1.2131794691085818 1.4700673818588259 -1.7655137777328489 -1.6409085988998411 -1.6757040023803709 1.1158099770545962 0.65399897098541271 -1.1269023418426511 0.94300961494445812 -0.93143776059150685 -1.0190532207489011 -0.71280694007873524 -1.1652276515960691 -0.093357957899570451 1.0000000180025095e-35 0.1524230241775513 -1.2677941322326658 -1.373079180717468 1.0195202827453616 1.6389943361282351 -0.34628482162952418 0.63228118419647228 0.21963211894035342 -1.3921675682067869 0.34902189671993261 0.80919095873832714 0.61056235432624828 -0.57167378067970265 0.766433745622635 0.1524230241775513 0.41120564937591558 -0.49297311902046198 0.56417387723922741 -0.91914200782775868 -0.50411303341388691 0.54369583725929271 -0.43655125796794886
decision_type=2 2 2 2 2 2 2 2 2 2 2 2 2 2 2 2 2 2 2 2 2 2 2 2 2 2 2 2 2 2 2 2 2 2 2 2 2 2 2 2 2 2 2 2 2 2 2 2 2 2 2 2 2 2 2 2 2 2 2 2 2 2 2 2 2 2 2 2 2 2 2 2 2 2 2 2 2 2 2 2 2 2 2 2 2 2
left_child=1 7 3 17 16 6 12 11 14 15 -5 37 29 44 42 34 -4 74 -12 26 -17 50 59 25 28 60 77 35 78 -3 62 -10 55 -15 -8 63 71 -1 -20 61 82 -34 -6 68 65 -11 81 69 67 56 -16 -27 53 -39 75 -21 -23 -49 -31 -14 -22 -24 -26 80 -13 -9 -67 -28 -44 -48 76 73 -54 -37 -2 -50 -60 -18 -25 -73 -7 -47 -41 -63 -56 -85
right_child=2 5 4 10 8 27 9 13 31 45 18 64 22 33 21 20 19 -19 38 32 23 49 39 24 30 51 48 -29 -30 58 -32 -33 41 -35 -36 36 -38 52 -40 40 -42 -43 43 -45 -46 46 47 57 54 -51 -52 -53 72 -55 84 -57 -58 -59 70 -61 -62 83 -64 -65 -66 66 -68 -69 -70 -71 -72 79 -74 -75 -76 -77 -78 -79 -80 -81 -82 -83 -84 85 -86 -87
leaf_value=-0.041571406556713965 -0.017953790098998192 0.016931037557379503 -0.023405912461864242 -0.062857161395251743 -0.023289551420056301 0.0039817963985593193 0.02545516730099916 -0.0054453184545272953 -0.052913197568484713 0.037753372560084701 -0.073147680228756312 -0.050603047190568379 0.008763490827940406 -0.01663954491724888 -0.036258806924025215 0.023407244410222541 -0.0040368788370934239 -0.045009116528397897 -0.09301780809205154 -0.012283593890973582 0.036125266476589084 -0.022842397778868102 0.024435736548155545 0.030102723041532234 0.03944937347216778 0.038137480101840829 0.0086820202277552699 -0.0055412067872556772 0.013268904057371876 -0.0011781956842169166 0.045974832493893419 -0.068627675507749827 0.0073400553954036333 -0.030308215026344575 0.013472367769157565 0.0047870700045560405 -0.0055457091123796995 -0.031416328317195666 -0.10563422463984971 0.027821834090352059 0.022268479610394153 -0.0047018700831610227 -0.013995939628565556 -0.022163528658519501 0.0072639529200232752 0.049469102017257523 0.039919535456225279 0.049227857322846687 0.005874142204733708 -0.021709956462029369 -0.050214045669351295 0.048289670910253081 -0.035701396563070281 -0.021272085443686913 0.0076627775459653805 -0.004912959765069759 -0.031715181221980006 0.043353226866864943 0.0041175670309964076 0.016578331160198512 0.028484691436228511 0.022889167354255911 0.03256779870460199 0.014313825253645581 -0.063184640538935757 0.0057952232015629612 -0.0048796611194521543 0.015453066960025531 -0.007770184574002372 0.028666091416193092 0.00090388130168007181 0.0057848811948397116 -0.02863614190413306 0.011699997705293865 -0.011798938385263648 0.00053820414769839727 0.0097819991811436222 0.0011409814762996463 0.023482654747925699 0.0010514880496124595 0.0089505241254986337 0.061434615860179974 0.036305408681261121 0.015595160634758382 0.012065545503707493 0.019837358428165319
leaf_weight=61 156 40 58 63 68 41 83 47 83 70 61 116 59 128 71 77 51 58 173 77 135 51 155 108 165 69 61 65 45 43 136 83 45 41 73 51 59 60 266 59 111 68 72 59 48 91 47 464 77 63 41 257 138 67 53 77 280 216 68 57 90 64 128 44 48 44 40 76 66 45 43 60 89 40 52 46 46 40 79 58 118 48 57 77 50 95
leaf_count=61 156 40 58 63 68 41 83 47 83 70 61 116 59 128 71 77 51 58 173 77 135 51 155 108 165 69 61 65 45 43 136 83 45 41 73 51 59 60 266 59 111 68 72 59 48 91 47 464 77 63 41 257 138 67 53 77 280 216 68 57 90 64 128 44 48 44 40 76 66 45 43 60 89 40 52 46 46 40 79 58 118 48 57 77 50 95
internal_value=0.000124199 0.0186423 -0.035249 -0.0712278 -0.0178292 0.0296025 0.0335676 -0.027863 -0.0330676 0.0397266 -0.0939423 -0.0389115 0.0181897 -0.0093873 -0.0269222 0.0349634 0.000503306 -0.0229349 -0.0977018 0.00247303 0.0367425 -0.0320648 0.0221402 0.0375598 0.0345598 0.0410679 0.00689592 0.00441257 0.0248677 0.00601647 0.0397032 -0.0612062 -0.00500044 -0.020185 0.0200458 0.00582049 0.00310335 -0.0325194 -0.100912 0.0238476 0.0276013 1.06448e-05 -0.016974 -0.0146269 0.000795985 0.0466877 0.0473189 0.0460147 0.00906808 -0.0291474 -0.0418728 0.0463008 -0.0308131 -0.0263664 0.00682208 -0.00873117 -0.0304571 0.0474458 0.00370048 0.012815 0.0332617 0.0215729 0.0366049 0.00931603 -0.0547188 -0.00152012 0.000573164 0.0126099 -0.0111821 0.0349116 0.00511163 0.00561687 -0.0331217 0.0080503 -0.0165363 0.0039958 0.00657275 -0.0016428 0.0275096 0.00358753 0.00777717 0.0540961 0.0323677 0.0195469 0.0100109 0.0181087
internal_weight=7408 4863 2545 829 1716 3936 3400 927 937 2426 563 579 974 348 771 1445 779 266 500 721 1289 506 734 1212 661 551 454 536 232 240 429 166 267 169 156 471 268 415 439 618 227 113 265 197 179 981 911 772 363 394 112 326 354 127 226 154 331 680 200 116 225 391 293 203 164 131 84 137 138 92 157 209 227 91 208 123 114 91 187 118 159 139 116 236 103 172
internal_count=7408 4863 2545 829 1716 3936 3400 927 937 2426 563 579 974 348 771 1445 779 266 500 721 1289 506 734 1212 661 551 454 536 232 240 429 166 267 169 156 471 268 415 439 618 227 113 265 197 179 981 911 772 363 394 112 326 354 127 226 154 331 680 200 116 225 391 293 203 164 131 84 137 138 92 157 209 227 91 208 123 114 91 187 118 159 139 116 236 103 172
is_linear=0
shrinkage=0.06


Tree=7
num_leaves=91
num_cat=0
split_feature=9 9 9 9 9 9 6 9 1 3 1 1 9 9 1 7 9 1 9 1 4 9 9 7 1 6 9 9 1 1 1 9 9 3 1 1 0 9 1 9 1 9 8 7 9 1 0 3 6 9 9 1 8 0 9 1 5 3 6 9 9 1 0 0 8 9 6 9 1 1 9 9 3 0 1 3 0 6 8 0 0 1 0 6 9 9 8 8 0 4
split_gain=1192.9 609.807 391.375 222.683 118.276 96.4502 78.7093 46.3393 40.4755 19.0978 14.1357 13.6967 11.4009 9.53997 9.50041 9.06129 8.90645 8.4385 7.29765 4.23227 3.30262 3.04334 2.87179 2.68306 2.5457 7.64973 4.90405 2.10453 1.86388 1.53398 1.42077 1.39784 1.38048 1.37915 1.2357 1.16539 1.05776 1.05652 1.45056 1.00182 1.08189 0.983616 0.853561 0.765746 1.09876 0.702692 0.69151 0.683568 0.648618 1.09355 3.44405 0.628589 0.572361 0.565634 0.450036 0.401875 0.339998 0.332325 0.307027 0.667418 0.302396 0.300138 0.388573 0.676022 0.29354 0.286821 0.281838 0.605702 0.281194 0.280855 0.269807 0.242102 0.232935 0.204744 0.348659 0.201637 0.194452 0.161928 0.161172 0.144555 0.258526 0.139648 0.132543 0.105267 0.0660126 0.0655792 0.0615279 0.0387968 0.00896882 0.00012144
threshold=0.53629684448242199 -1.2905451655387876 0.92323055863380443 0.66187280416488659 1.2808780670166018 0.2886947393417359 -0.83249902725219715 -1.4556132555007932 1.7335962653160097 0.3737714439630509 -2.2193431854248042 1.0000000180025095e-35 -1.1804997920989988 0.95074191689491283 -0.63816359639167775 -1.7587140202522276 0.63436147570610057 1.2065384984016421 0.68938416242599498 0.67948076128959667 0.97740429639816295 -0.78158527612686146 1.2409422397613528 -1.4077746868133543 1.0000000180025095e-35 -0.21064370870590207 -0.67153990268707264 0.99200892448425304 1.4700673818588259 0.41595189273357397 -1.1652276515960691 1.3341258168220522 -0.026798253878951069 0.93609276413917553 -0.37463472038507456 0.1524230241775513 0.49610756337642675 0.41249577701091772 0.67948076128959667 -0.94665333628654469 -0.90169563889503468 0.7719181776046754 0.95735192298889171 0.64773091673851024 1.6802362799644472 1.4700673818588259 0.21460897475481036 -0.75087112188339222 -0.58375811576843251 -0.35959677398204798 -0.26641319692134852 -0.63816359639167775 -1.7655137777328489 0.27957032620906835 1.1158099770545962 0.94300961494445812 0.74188566207885753 -0.32913015782833094 -1.6409085988998411 -1.6757040023803709 -0.71280694007873524 -1.1652276515960691 0.084686793386936202 0.14964788407087329 -0.11088395863771437 -0.093357957899570451 -1.2677941322326658 -1.373079180717468 1.4700673818588259 0.1524230241775513 1.0195202827453616 -1.249278128147125 1.6389943361282351 0.30122427642345434 0.67948076128959667 -0.32913015782833094 0.30122427642345434 -1.3921675682067869 0.766433745622635 0.25791636854410177 0.17130158096551898 0.1524230241775513 0.14964788407087329 0.16246472299098971 1.0882986783981325 -0.91914200782775868 0.24367918819189074 0.54369583725929271 0.30122427642345434 0.10186760500073434
decision_type=2 2 2 2 2 2 2 2 2 2 2 2 2 2 2 2 2 2 2 2 2 2 2 2 2 2 2 2 2 2 2 2 2 2 2 2 2 2 2 2 2 2 2 2 2 2 2 2 2 2 2 2 2 2 2 2 2 2 2 2 2 2 2 2 2 2 2 2 2 2 2 2 2 2 2 2 2 2 2 2 2 2 2 2 2 2 2 2 2 2
left_child=1 7 3 16 13 6 12 11 17 15 -5 36 30 -4 47 35 73 43 -12 27 33 -17 53 57 26 29 60 78 37 81 -3 -10 65 45 -16 -8 58 64 79 61 85 -20 76 -6 72 -19 -42 66 -11 -50 -51 70 -28 -21 84 -52 -55 -14 59 -1 -23 82 -63 -64 -7 -27 -9 -68 -44 -13 -29 -32 -45 74 -2 -73 -22 -60 -15 80 -39 -26 -25 -66 -53 -41 -24 -56 -85 -81
right_child=2 5 4 10 8 28 9 14 31 48 18 69 23 19 34 21 -18 20 41 22 42 24 86 39 25 32 52 51 -30 -31 71 -33 -34 -35 -36 -37 -38 38 -40 40 46 -43 68 44 -46 -47 -48 -49 49 50 55 54 -54 56 87 -57 -58 -59 77 -61 -62 62 63 -65 83 -67 67 -69 -70 -71 -72 75 -74 -75 -76 -77 -78 -79 -80 89 -82 -83 -84 88 -86 -87 -88 -89 -90 -91
leaf_value=-0.030147594021968545 -0.010321753078391059 0.015939952489942677 -0.022025360279290352 -0.059144660856574771 -0.021912429687607548 0.013788210326942003 0.023946039572358128 -0.0051254059830680484 -0.04634370789783341 0.035520075927317978 -0.0688296082596625 -0.047592815525256668 0.0083327307908405215 -0.0037993240726646033 -0.015648911695494205 0.022020814716242825 -0.04235434114730964 -0.034959766979875233 -0.087468814249696394 -0.012343563693069985 -0.017275604088019047 0.033973687732920928 0.0074457377038363894 0.020640528534849482 0.028313130406474846 0.037096669111266189 0.035881920138001434 0.0081695010794266588 -0.0052137719121846289 0.012490076756995658 0.0062553964966535567 -0.062431909345947528 0.043236477894069501 -0.027672730381992691 -0.028533019810914991 0.012674949834324621 -0.039695115853633195 0.00610073512669822 -0.0052185123122297219 0.026180345940589905 0.016500608131910365 -0.099319904155945507 -0.025662490120033424 -0.013167686670763443 -0.0208558804217726 -0.048006645147005714 0.027944338464155428 0.0068370102051721537 0.050507874636133772 0.029651190566389179 0.046280538760029501 0.0051250326375922427 0.045403520254201669 -0.00044535855322989611 0.0072115249980448017 0.04076402104340391 -0.0083337090649557386 0.015767905252320427 -0.033500684110323586 -0.020014530235024936 0.026794391631752578 0.022285978121293147 0.010385161799468821 0.019506743816720261 0.0049509943372834089 0.03062887856225634 0.0054552367269992824 -0.0045940226228317104 -0.033432375569464795 -0.059470931666237958 0.014537924299548779 -0.00077581642815647157 -0.0073109319841127788 -0.019340506299398839 -0.017225640833954996 0.0038841239664257621 -0.024104884918672697 -0.026897758341979147 0.0010741922693645082 0.0056181726015817664 0.00015446057063169203 0.022091307551041245 0.027419293961354663 0.0069787205803506771 0.0018076330738009086 0.034164640680629882 0.003213777977280145 0.011355807486702415 0.01057850250715147 0.0086861500831017652
leaf_weight=74 77 40 58 63 68 40 83 47 55 70 61 116 61 51 128 77 58 86 173 69 69 135 41 107 108 165 69 61 65 45 74 112 136 75 41 73 55 65 59 59 71 266 134 72 59 44 40 48 156 75 464 68 257 42 53 216 43 55 134 67 90 85 61 90 66 128 44 40 58 48 76 56 66 61 70 70 69 85 40 51 51 79 48 52 55 57 42 50 45 42
leaf_count=74 77 40 58 63 68 40 83 47 55 70 61 116 61 51 128 77 58 86 173 69 69 135 41 107 108 165 69 61 65 45 74 112 136 75 41 73 55 65 59 59 71 266 134 72 59 44 40 48 156 75 464 68 257 42 53 216 43 55 134 67 90 85 61 90 66 128 44 40 58 48 76 56 66 61 70 70 69 85 40 51 51 79 48 52 55 57 42 50 45 42
internal_value=0.00011714 0.0175358 -0.0331557 -0.0669889 -0.0167744 0.0278477 0.0315766 -0.0262179 -0.030627 0.0373661 -0.0883452 -0.0366124 0.0171203 0.00111115 -0.00883373 0.0328881 -0.021581 -0.0249349 -0.0918751 0.00309951 -0.0293106 0.0345603 -0.00335702 0.0208355 0.0353282 0.0325084 0.0386242 0.00649633 0.00415759 0.0233991 0.00566906 -0.0575122 0.0373409 -0.0355773 -0.0189947 0.0188625 -0.030598 0.00548461 0.00292647 0.0224401 0.0259743 -0.0948863 -0.0252857 -0.0159789 -0.0137698 -0.0398 0.0209443 0.000745137 0.0439098 0.0445016 0.0431795 0.00854218 0.0435408 -0.0082186 0.00642918 0.0446083 -0.00462597 0.0120652 -0.0290689 -0.025592 0.0312863 0.0202967 0.0183949 0.0159934 0.00877214 0.0344258 -0.00143098 0.00053095 -0.0282329 -0.0514814 0.0118691 0.0034861 -0.0105257 -0.0155561 -0.0137846 0.00172875 -0.0209254 -0.0311264 -0.00153829 0.00529681 0.00361265 0.02588 0.022979 0.00739146 0.00376496 0.0304647 0.00551087 0.00942854 0.00886207 0.00720904
internal_weight=7408 4863 2545 829 1716 3936 3400 927 967 2426 563 579 974 749 348 1445 266 800 500 691 535 1289 237 734 1212 661 551 454 536 232 240 167 429 205 169 156 415 471 268 618 227 439 330 265 197 130 111 179 981 911 755 363 326 154 226 680 85 116 360 141 225 391 236 151 203 293 131 84 192 164 137 200 138 208 147 126 138 219 91 209 116 187 155 163 123 116 83 103 97 93
internal_count=7408 4863 2545 829 1716 3936 3400 927 967 2426 563 579 974 749 348 1445 266 800 500 691 535 1289 237 734 1212 661 551 454 536 232 240 167 429 205 169 156 415 471 268 618 227 439 330 265 197 130 111 179 981 911 755 363 326 154 226 680 85 116 360 141 225 391 236 151 203 293 131 84 192 164 137 200 138 208 147 126 138 219 91 209 116 187 155 163 123 116 83 103 97 93
is_linear=0
shrinkage=0.06


Tree=8
num_leaves=95
num_cat=0
split_feature=9 9 9 9 9 9 9 9 1 3 9 1 9 1 9 5 1 6 9 1 3 1 9 9 3 9 1 1 9 9 1 1 1 4 9 9 0 4 5 9 9 1 9 1 9 9 9 9 2 9 6 4 9 1 1 9 5 2 2 2 9 9 2 3 0 1 9 9 1 9 9 1 9 9 2 2 4 9 2 2 3 0 1 1 2 3 2 2 2 0 1 4 9 4
split_gain=1059.92 527.303 375.537 172.279 108.181 93.3413 68.3628 41.2275 36.067 16.8232 12.5586 11.8579 11.3536 9.44104 9.05911 8.59285 8.31209 7.39093 6.5085 5.73124 3.19013 2.40169 6.99167 3.7519 2.39312 1.99201 1.6611 1.45763 1.50724 1.2181 1.13688 1.08435 1.04808 1.22723 1.1066 1.00915 0.997757 0.835751 0.779133 0.856245 2.40057 0.745553 0.694242 0.904954 0.623969 0.937589 0.574657 0.632102 0.530878 0.530372 0.771025 0.495825 0.462157 0.449112 0.385897 0.656094 0.380216 0.351614 0.328134 0.292958 0.301139 0.266949 0.25295 0.244819 0.258702 0.226597 0.21953 0.589511 0.195715 0.183171 1.16314 0.171526 0.16433 0.154915 0.142065 0.140237 0.117014 0.116528 0.112732 0.11155 0.0979322 0.0881346 0.0729253 0.185463 0.0615433 0.0598275 0.0571028 0.873138 0.0580973 0.045196 0.0420423 0.0276596 0.0224441 0.00844107
threshold=0.5500524938106538 -1.2905451655387876 0.92323055863380443 0.66187280416488659 1.2941899895668032 0.2886947393417359 -0.80909663438796986 -1.4556132555007932 1.7335962653160097 0.3737714439630509 0.89571923017501842 1.0000000180025095e-35 -1.1804997920989988 -0.63816359639167775 0.95074191689491283 -1.4499896168708799 1.2065384984016421 0.72213333845138561 0.7031398117542268 0.67948076128959667 0.3737714439630509 1.0000000180025095e-35 -0.15991766005754468 -0.67153990268707264 0.65493208169937145 0.99200892448425304 0.1524230241775513 1.4700673818588259 0.52254116535186779 1.2409422397613528 1.9971251487731936 -0.37463472038507456 -0.90169563889503468 -0.36968058347702021 -0.97416469454765309 -0.026798253878951069 0.49610756337642675 1.0442760586738589 -1.0177885890007017 -0.37290871143341059 -0.26641319692134852 -0.37463472038507456 0.41249577701091772 0.67948076128959667 1.5071810483932497 1.6802362799644472 -1.3868348598480222 -1.4143462181091306 0.63228118419647228 -0.33297289907932276 -0.39720386266708368 1.2131794691085818 -0.093357957899570451 -0.90169563889503468 -0.37463472038507456 1.102054297924042 -0.95604565739631642 0.91461947560310375 -1.0400292277336118 -0.93143776059150685 -1.2630338072776792 -0.41284452378749842 0.78430870175361644 -0.18854984268546102 0.25791636854410177 0.67948076128959667 -1.1117213964462278 -1.0291873812675474 -0.37463472038507456 -1.6757040023803709 -1.5243915915489195 -0.37463472038507456 1.0195202827453616 0.15113802254199984 1.0000000180025095e-35 -1.1486206650733946 0.10186760500073434 -0.34628482162952418 0.37166170775890356 0.13275895640254023 0.5143517702817918 0.19295527786016467 0.1524230241775513 0.94300961494445812 0.24135091900825503 -0.32913015782833094 0.067604605108499541 0.58884355425834667 0.87118187546730053 0.25791636854410177 0.1524230241775513 -0.43655125796794886 1.1295656561851504 0.64028856158256542
decision_type=2 2 2 2 2 2 2 2 2 2 2 2 2 2 2 2 2 2 2 2 2 2 2 2 2 2 2 2 2 2 2 2 2 2 2 2 2 2 2 2 2 2 2 2 2 2 2 2 2 2 2 2 2 2 2 2 2 2 2 2 2 2 2 2 2 2 2 2 2 2 2 2 2 2 2 2 2 2 2 2 2 2 2 2 2 2 2 2 2 2 2 2 2 2
left_child=1 7 3 17 14 6 12 11 16 15 18 36 59 46 -4 26 44 65 89 25 32 23 49 53 -18 84 71 28 42 48 -10 -15 34 -34 66 52 41 -31 -11 -40 77 69 63 79 -6 62 47 -9 -21 56 -51 58 -24 -17 72 -56 -23 -50 -26 -3 -61 75 -46 64 -7 -2 -14 -68 -42 -1 -71 -8 -27 -37 -62 -25 -66 -41 -74 93 -22 -76 -70 -84 -16 -81 -60 -88 -89 -5 -13 -69 -57 -44
right_child=2 5 4 10 8 27 9 13 30 38 -12 90 20 31 19 21 24 -19 -20 29 80 22 35 61 51 54 -28 -29 -30 37 -32 -33 33 -35 -36 73 -38 -39 39 40 68 -43 43 -45 45 -47 -48 -49 57 50 -52 -53 -54 -55 55 92 -58 -59 86 60 74 -63 -64 -65 76 -67 67 91 82 70 -72 -73 78 -75 81 -77 -78 -79 -80 85 -82 -83 83 -85 -86 -87 87 88 -90 -91 -92 -93 -94 -95
leaf_value=-0.02815134698865206 -0.01201441662623211 0.00083409056948641181 -0.022099654349230103 -0.0772755251441683 -0.020922905194149775 0.010442338034859859 0.027601170947154363 -0.00065965641698800023 -0.047417779251586557 0.032172657948115774 -0.054812842237949369 -0.04471280590139138 0.020649711683788964 -0.01488671443903865 0 0.035896032010591945 -0.039230820443630215 -0.037782488884925837 -0.090138425019147581 -0.0114471881915211 0.024242068287517345 0.020678579178058876 0.036079372466852264 0.030778233900302793 -0.021305916647825923 0.0073447338777487391 0.012055354336438688 -0.0050579868254466698 -0.0044026266829576338 0.0046263508831164727 -0.061458968852247504 -0.026821932260195414 0.0073641756899790693 0.019169738977580616 0.025615258543863206 0.044514095708147267 -0.037345473081415344 -0.005735841622459702 0.048172615409755017 0.034847104323354174 0.049979422867298118 -0.030840540299167878 0.0085073951770861921 -0.0034700603405242113 -0.012291790883197928 -0.019806803279689381 -0.0025033260142753042 0.0082723891662097853 0 0.0155994037141967 0.026304317578997299 -0.020091143287019803 0.029040732613844527 0.027555739219459453 0.0017608807517233518 0.006948201067501404 0.03056940708096538 -0.0078741730956981559 -0.03223302732326172 0.010438721574555316 0.0076573455947083081 0.045985916202887889 -0.0059898727092337093 0.01175538330086537 0.0069868975156961478 -0.01792795475504615 0.013681821870127397 0.017725150414705276 0.035683090057373044 -0.012467997777860526 -0.025543342589427833 0.020736136458530865 0.009422109388347184 0.034563019609451288 0.0050383160257373334 0.040144842061348732 0.0022084716947542295 0.02540261768841225 0.015087762912400068 0.0018972681774092573 0.031805825014091745 0.00094451251653406552 0.044281384949897654 0.038940373179269953 -0.0031549563779474485 0.0054407325327396391 -0.020980704213734026 -0.034807917588032207 -0.027154600771488964 -0.060306302708022438 -0.055137129617773964 0.023720977131190688 0.010264263570480244 0.0051356531243239127
leaf_weight=68 96 51 58 41 65 47 62 49 85 57 59 116 147 120 46 64 74 74 416 78 55 52 143 40 55 60 73 64 59 66 83 44 71 68 108 76 54 47 138 46 55 153 44 52 98 62 77 60 41 98 45 63 139 163 77 60 55 44 90 50 42 95 46 61 42 65 151 74 74 42 102 89 55 54 43 172 53 45 49 55 78 50 334 191 43 44 80 51 80 48 45 42 75 41
leaf_count=68 96 51 58 41 65 47 62 49 85 57 59 116 147 120 46 64 74 74 416 78 55 52 143 40 55 60 73 64 59 66 83 44 71 68 108 76 54 47 138 46 55 153 44 52 98 62 77 60 41 98 45 63 139 163 77 60 55 44 90 50 42 95 46 61 42 65 151 74 74 42 102 89 55 54 43 172 53 45 49 55 78 50 334 191 43 44 80 51 80 48 45 42 75 41
internal_value=9.93103e-05 0.0164339 -0.0314099 -0.0654143 -0.0156784 0.0260003 0.0297542 -0.0241897 -0.0295553 0.035389 -0.083386 -0.0339977 0.0168101 -0.00785158 0.000510178 0.0311774 -0.0239354 -0.0220607 -0.0865856 0.00232348 0.020247 0.0332246 0.0305217 0.0364897 -0.0286143 0.00639435 0.0200943 0.00332243 0.00443146 -0.00449006 -0.0547484 -0.0183047 0.0184323 0.0133209 0.0197423 0.0354133 -0.0284785 0.000198641 0.0416984 0.0422627 0.0410888 -0.0270354 0.00565331 0.00333205 -0.0153057 -0.0133828 0.00134959 0.00417848 -0.00779507 0.0223036 0.0192107 -0.0266218 0.0327673 0.0301069 0.00830591 0.00640973 0.0261097 -0.00421005 -0.0276843 0.00515979 0.00627686 0.0410572 -0.0104166 0.00826353 0.00660788 -0.0145719 0.0181233 0.0166158 0.0424762 -0.0241011 -0.0219247 0.0237969 0.0106306 0.0407676 0.00458178 0.0385867 0.00449681 0.0306341 0.0123241 0.00532762 0.0289718 0.00299847 0.0416851 0.0424388 -0.00155066 0.0036308 -0.0287357 -0.0270423 -0.0304662 -0.0690287 -0.0480229 0.0201828 0.00894062 0.00709919
internal_weight=7412 4882 2530 799 1731 3952 3390 930 932 2360 564 580 1030 350 799 1420 764 235 505 741 794 1196 662 534 493 465 224 562 498 276 168 164 661 139 522 412 419 113 940 883 745 365 439 236 271 206 186 109 163 250 143 419 282 227 376 212 107 85 356 236 185 307 144 203 142 161 414 267 654 212 144 151 164 130 135 212 95 91 104 184 133 93 599 525 89 99 301 211 131 89 161 116 135 85
internal_count=7412 4882 2530 799 1731 3952 3390 930 932 2360 564 580 1030 350 799 1420 764 235 505 741 794 1196 662 534 493 465 224 562 498 276 168 164 661 139 522 412 419 113 940 883 745 365 439 236 271 206 186 109 163 250 143 419 282 227 376 212 107 85 356 236 185 307 144 203 142 161 414 267 654 212 144 151 164 130 135 212 95 91 104 184 133 93 599 525 89 99 301 211 131 89 161 116 135 85
is_linear=0
shrinkage=0.06


Tree=9
num_leaves=92
num_cat=0
split_feature=6 6 3 1 1 1 3 5 7 1 6 6 7 2 4 1 1 1 1 7 1 7 1 6 5 1 6 0 1 6 1 1 2 1 8 1 5 1 1 1 6 7 3 6 1 7 7 0 1 3 4 1 4 8 4 1 3 7 3 1 3 0 8 5 4 7 5 1 3 1 7 6 5 3 7 7 5 2 6 5 7 4 0 0 0 8 2 0 7 1 7
split_gain=919.792 470.33 266.276 88.3271 79.6574 67.6348 60.4631 58.918 44.6133 26.918 22.4394 21.2181 17.3849 14.2633 14.0558 21.1179 12.7878 10.8646 10.6506 7.73945 6.89989 5.19209 4.98827 4.02875 3.35817 3.17037 3.1501 2.79878 2.55101 5.27791 2.67666 2.54845 2.52074 1.9498 1.6601 1.56885 1.43164 1.27541 1.21569 1.15643 1.20524 1.07487 1.05683 0.986879 0.965397 1.01871 0.956746 0.924446 0.917949 0.87838 0.874899 0.860775 0.768443 0.746524 0.687423 0.630501 0.615797 0.560293 0.530889 0.509711 0.538422 0.481336 0.429954 0.513364 0.412886 0.379081 0.372194 0.361743 0.429585 0.356427 0.91039 0.81394 0.308166 0.377114 0.269813 0.248439 0.223165 0.286632 0.213531 0.196294 0.178018 0.883143 0.173848 0.301574 0.173258 0.161164 0.154431 0.103925 0.103297 0.0267509 0.0258726
threshold=0.53557908535003673 -1.1434266567230222 -0.75087112188339222 0.1524230241775513 -2.2193431854248042 1.4700673818588259 0.092610801570117487 1.0814723968505862 -1.1738147735595701 0.41595189273357397 -0.77031230926513661 0.72213333845138561 0.029408221133053306 0.58884355425834667 0.87606266140937816 0.41595189273357397 -0.63816359639167775 1.7335962653160097 1.0000000180025095e-35 -1.7587140202522276 0.94300961494445812 -1.3910624980926511 0.67948076128959667 -0.08627621084451674 0.86537146568298351 1.2065384984016421 -0.77031230926513661 0.23626267164945605 1.0000000180025095e-35 -0.21064370870590207 1.2065384984016421 1.2065384984016421 -1.3223675489425657 1.2065384984016421 0.34823118150234228 -0.37463472038507456 0.43317115306854254 -1.1652276515960691 0.1524230241775513 -0.90169563889503468 -0.8946857452392577 1.1156507730484011 0.79551240801811229 1.2196152210235598 -0.90169563889503468 -1.7252916097640989 0.76471036672592174 0.49610756337642675 1.9971251487731936 1.3578336834907534 0.842971831560135 0.1524230241775513 0.74162915349006664 0.57096907496452343 0.97740429639816295 -0.37463472038507456 -0.75087112188339222 1.015381455421448 -0.46971046924591059 -0.37463472038507456 1.7795746922492983 0.27957032620906835 1.4119233489036562 1.3901869058609011 -0.43655125796794886 -1.5080429315567014 -0.52384456992149342 0.41595189273357397 0.5143517702817918 0.1524230241775513 -0.33824335038661951 -0.45938761532306666 1.9767451882362368 1.2172533869743349 -1.0401231050491331 1.0488049387931826 0.61839985847473156 0.41509725153446203 0.78432005643844616 -1.4499896168708799 -0.37166577577590937 -0.57167378067970265 -0.87890374660491932 0.19295527786016467 0.084686793386936202 0.66188442707061779 0.67571672797203075 0.27957032620906835 1.0822283029556277 0.1524230241775513 0.96524789929389965
decision_type=2 2 2 2 2 2 2 2 2 2 2 2 2 2 2 2 2 2 2 2 2 2 2 2 2 2 2 2 2 2 2 2 2 2 2 2 2 2 2 2 2 2 2 2 2 2 2 2 2 2 2 2 2 2 2 2 2 2 2 2 2 2 2 2 2 2 2 2 2 2 2 2 2 2 2 2 2 2 2 2 2 2 2 2 2 2 2 2 2 2 2
left_child=1 8 3 4 13 7 9 22 16 10 21 50 25 32 15 -9 44 24 47 51 -16 37 42 46 -7 26 39 36 41 38 67 61 -2 72 49 -18 -25 -3 57 40 -8 -14 -4 -36 58 -46 -11 55 -19 -24 -5 -12 -13 66 -26 -10 -39 -30 -1 86 -61 -17 63 -35 87 -47 -29 -31 -69 70 74 -71 73 -22 79 -75 77 -68 -6 -21 81 -28 -23 84 -84 -62 -44 -58 -72 -20 -73
right_child=2 6 5 11 78 17 12 14 18 23 19 52 28 -15 20 31 35 48 89 69 33 82 34 27 54 -27 80 53 29 30 -32 -33 -34 62 43 -37 -38 56 -40 -41 -42 -43 59 -45 45 65 -48 -49 -50 -51 -52 -53 -54 -55 -56 -57 64 -59 -60 60 85 -63 -64 -65 -66 -67 76 68 -70 71 88 90 -74 75 -76 -77 -78 -79 -80 -81 -82 -83 83 -85 -86 -87 -88 -89 -90 -91 -92
leaf_value=0.011805144969881935 -0.035086585585276289 0.01661006555914879 0.00019016504107421497 -0.014619528174484996 -0.074573118651850831 -0.018049380996823312 0.020783865741835751 -0.059935055023109585 -0.022465066280740666 0.025297092459922611 0.020878870992503802 -0.055610436681906378 0.04910647951030149 -0.008193955912238966 0.0029857682945403211 -0.010754820805358686 -0.014147176886160599 -0.044584682801674144 -0.042052967781057722 0.025551231042947618 -0.016368046568198638 0.023042710215610971 0.0049655872540006153 0.016667870062344436 -0.043390785805203697 0.010832936041419291 0.023874236324505714 -0.00094131785461848438 0.034740280571579935 0.045458115660652672 0.022055976918557794 -0.029231193692598599 -0.059126973570846925 -0.026493213822038807 -0.0016994485540561518 -0.02658977579786664 0.0040880005427059666 0 0.017753100424499155 0.017564660541014743 0.030395505708111215 0.039325582455777552 0.012933410433663384 -0.012550130066195769 -0.007857361400350928 0.0054935858520475441 0.011273407132169882 -0.035095309204525416 -0.057751118898391719 -0.0051596702285483477 -0.004098055477291346 0.011208692198954522 -0.040068704329687968 -0.0040983701158895502 -0.030424489344159759 -0.028943088551942449 0.0065560974708700741 0.022701714497406125 0.0024568837973703108 0.00032852506396525044 0.0095982554138607373 -0.020023230666518212 -0.028643936280409496 -0.01779124904836973 0.01206001388457305 -0.0012700652551765625 0.008453524108801503 0.034390608816135738 0.040356070494155093 0.018862039250863154 0.041383897809421311 0.032975166235823271 -0.01897952846356708 -0.0063176986430036382 0.022832398671743481 -0.012760240009512569 0.00041682590552322239 0.0019531239198849481 -0.086445413141338912 0.032473156736922068 0.038534407954866234 0.035079321459416418 0.018290840757416285 0.020505520363470343 0.013332371596814217 0.0050923152195408534 0.0074670998601615423 0.0022566283140165199 0.03376885163573938 -0.051900818202806551 0.02544305011386774
leaf_weight=43 44 49 79 87 88 69 121 73 212 42 86 44 122 58 63 58 121 86 116 63 65 58 78 78 43 53 65 65 59 96 40 100 40 48 52 62 62 49 57 116 120 168 84 83 49 63 42 53 77 49 49 74 57 76 71 136 88 42 53 50 90 49 44 137 52 51 63 160 359 42 67 81 45 56 42 60 45 50 323 238 54 92 93 133 109 72 49 41 128 45 48
leaf_count=43 44 49 79 87 88 69 121 73 212 42 86 44 122 58 63 58 121 86 116 63 65 58 78 78 43 53 65 65 59 96 40 100 40 48 52 62 62 49 57 116 120 168 84 83 49 63 42 53 77 49 49 74 57 76 71 136 88 42 53 50 90 49 44 137 52 51 63 160 359 42 67 81 45 56 42 60 45 50 323 238 54 92 93 133 109 72 49 41 128 45 48
internal_value=9.50988e-05 0.0157246 -0.0284818 -0.05758 -0.0707218 -0.0158892 0.0254023 -0.0102939 -0.0207656 0.018446 0.0224397 -0.026697 0.0337079 -0.0315423 -0.0213696 -0.0322393 -0.00644771 -0.0397541 -0.0319734 0.0288222 -0.0154202 0.0141379 0.00258495 0.00663539 -0.0292783 0.0255354 0.0268647 0.00427367 0.038271 0.0362912 0.0387421 -0.0221733 -0.0472365 -0.017996 -0.00388587 -0.0185495 0.0112504 0.00776293 0.0258759 0.0231636 0.0257252 0.0436362 0.0066114 -0.00850207 0.00209529 -0.000654402 0.0186415 -0.0265408 -0.0511918 0.000955452 -0.0109739 0.0165783 -0.0474358 0.000940358 -0.0357544 -0.0251068 0.00576242 0.0301234 0.00684637 0.00804228 0.00603725 -0.0152564 -0.0220276 -0.0202439 0.00737061 0.00237866 0.00272179 0.0397703 0.0386098 0.0315411 0.0326465 0.0278241 -0.013779 -0.0123229 0.0302388 -0.00983319 0.00430068 0.00572487 -0.0841197 0.0311535 0.0329315 0.0306967 0.0186019 0.0177311 0.0157532 0.00771276 0.0110798 0.00530978 0.0366443 -0.0451829 0.0304821
internal_weight=7412 4792 2620 790 553 1830 3788 1484 1004 2064 1541 237 1724 142 798 280 442 346 562 869 518 672 686 523 183 621 568 439 1103 813 655 207 84 455 262 183 140 279 158 357 241 290 424 135 259 163 84 401 163 127 136 160 101 299 114 348 230 101 96 345 212 107 229 185 181 114 223 615 519 709 538 171 226 181 343 116 158 113 411 301 211 157 393 335 202 162 133 129 195 161 129
internal_count=7412 4792 2620 790 553 1830 3788 1484 1004 2064 1541 237 1724 142 798 280 442 346 562 869 518 672 686 523 183 621 568 439 1103 813 655 207 84 455 262 183 140 279 158 357 241 290 424 135 259 163 84 401 163 127 136 160 101 299 114 348 230 101 96 345 212 107 229 185 181 114 223 615 519 709 538 171 226 181 343 116 158 113 411 301 211 157 393 335 202 162 133 129 195 161 129
is_linear=0
shrinkage=0.06


Tree=10
num_leaves=87
num_cat=0
split_feature=9 9 9 9 9 9 6 9 1 3 9 1 9 9 1 5 9 1 9 1 9 4 9 1 6 9 9 1 9 1 1 1 9 9 1 9 3 9 6 1 9 0 9 1 3 9 4 8 2 1 9 3 1 1 5 9 1 6 0 2 2 2 0 9 6 1 1 0 8 8 2 2 4 9 0 9 1 8 4 4 9 2 8 4 1 6
split_gain=827.947 413.603 288.964 135.084 85.8139 74.6272 55.3119 33.2076 29.936 13.05 10.1026 9.695 8.1372 7.96678 7.10091 6.14624 5.67504 5.56883 4.05478 3.18142 2.42791 2.39019 2.31333 2.5917 5.90847 2.61489 1.81444 1.544 1.5293 1.43069 1.38021 1.3354 1.26715 1.23243 1.11785 1.02214 0.945322 0.885233 0.876269 0.78203 0.758471 0.651985 0.638512 0.943026 0.624289 0.603992 0.579039 0.57503 0.536279 0.51627 0.711513 0.462999 0.446504 0.435761 0.614095 0.420489 0.384411 0.360586 0.340101 0.339848 0.336546 0.311985 0.308504 0.298442 0.287146 0.248089 0.240644 0.215572 0.208247 0.1965 0.177267 0.167664 0.152752 0.145952 0.145718 0.143136 0.134618 0.134329 0.133647 0.130931 0.117401 0.374561 0.110143 0.0762791 0.0247252 0.0243951
threshold=0.5500524938106538 -1.2905451655387876 0.92323055863380443 0.66187280416488659 1.2808780670166018 0.2886947393417359 -0.83249902725219715 -1.4556132555007932 1.7335962653160097 0.3737714439630509 0.89571923017501842 1.0000000180025095e-35 -1.1804997920989988 0.95074191689491283 -0.63816359639167775 -1.4499896168708799 0.63436147570610057 1.2065384984016421 0.7719181776046754 0.67948076128959667 1.2409422397613528 0.9436233937740327 -0.78158527612686146 1.0000000180025095e-35 -0.21064370870590207 -0.67153990268707264 -1.001676023006439 -1.1652276515960691 0.99200892448425304 1.4700673818588259 0.1524230241775513 0.41595189273357397 1.3341258168220522 0.52254116535186779 -1.1652276515960691 -0.026798253878951069 0.93609276413917553 -1.7032153010368345 -1.6409085988998411 -0.37463472038507456 0.68938416242599498 0.084686793386936202 1.3075019121170046 1.4700673818588259 0.5143517702817918 -1.6757040023803709 1.0780558586120608 -0.010878414381295441 0.69743552803993236 -0.90169563889503468 -0.91914200782775868 -0.89145144820213307 -0.63816359639167775 0.67948076128959667 0.43317115306854254 1.1158099770545962 1.4700673818588259 -1.3921675682067869 0.19295527786016467 -0.45363435149192805 -0.93143776059150685 0.67571672797203075 0.17130158096551898 -0.066734075546264635 -1.2677941322326658 -0.90169563889503468 -0.37463472038507456 0.25791636854410177 0.3982339501380921 0.74370691180229198 0.61056235432624828 0.63228118419647228 0.068087762221694006 -0.41284452378749842 0.17130158096551898 -1.2355224490165708 0.94300961494445812 0.766433745622635 -0.53789392113685597 1.0442760586738589 1.6669243574142458 0.78430870175361644 1.0800896883010866 0.10186760500073434 0.1524230241775513 -1.0190532207489011
decision_type=2 2 2 2 2 2 2 2 2 2 2 2 2 2 2 2 2 2 2 2 2 2 2 2 2 2 2 2 2 2 2 2 2 2 2 2 2 2 2 2 2 2 2 2 2 2 2 2 2 2 2 2 2 2 2 2 2 2 2 2 2 2 2 2 2 2 2 2 2 2 2 2 2 2 2 2 2 2 2 2 2 2 2 2 2 2
left_child=1 7 3 16 13 6 12 11 17 15 18 37 34 -4 51 30 -2 46 40 28 48 36 -17 25 31 65 27 62 77 33 66 84 -10 47 -3 63 56 -1 45 -16 -5 -29 -23 79 -11 -39 -6 -7 68 50 78 64 69 67 83 70 -19 -40 -51 -48 -36 -22 -14 -26 -9 -24 -8 74 -21 -30 -54 75 -69 -27 -49 -62 -46 -15 -28 -44 81 -61 -75 -55 -25 -43
right_child=2 5 4 10 8 29 9 14 32 44 -12 -13 26 19 39 22 -18 21 -20 20 61 42 23 24 35 73 49 41 52 -31 -32 -33 -34 -35 60 -37 -38 38 57 -41 -42 85 43 -45 76 -47 59 53 -50 58 -52 -53 55 54 -56 -57 -58 -59 -60 80 71 -63 -64 -65 -66 -67 -68 72 -70 -71 -72 -73 -74 82 -76 -77 -78 -79 -80 -81 -82 -83 -84 -85 -86 -87
leaf_value=-0.033346648214118819 -0.013755076708605469 0.013502956858495388 -0.019665723452524791 -0.058017020463943476 -0.018680604726076126 0.010403324582848627 0.025404834981262683 -0.0050542058881993092 -0.038194759888781432 0.032602242917564118 -0.048196395206451408 -0.042754212840210366 0.016528943520268565 -0.0034903369686436806 -0.012989029951495822 0.018135100116421072 -0.035295904637344416 -0.029718826183566336 -0.082786851649873705 -0.0067491004924689017 0.0087898769964774442 -0.014077796829657423 0.033016929928292617 0.023377042336702937 0.030439659973711085 0.034780010407421444 0.024424310815273499 0.015088965109689163 0.012414653713991747 -0.0054025473279471041 0.010597256244487457 0.0093364867007998953 -0.052943419933319087 -0.0039036814001268674 -0.0020925646800396226 0.036494256703589197 -0.02308515844438503 -0.024099554981291293 -0.028857577575317449 -0.023383114203464155 -0.072603644081715796 0.005694138053330508 -0.024578472542185138 -0.028814475846064239 0.038739315189438274 -0.014538838927944503 -0.0060367707808093142 0.0061353522285565055 -0.0033007799097551746 0.012664150945441082 0.02940388340624896 0.0046118801206121805 0.0048185596108540054 0.0061992782097693312 -0.0033013323352206496 0.00843774320781405 -0.040600926027741548 -0.022106619482955978 0.020918019394390284 -0.015750046448940611 0.0075895979909644442 0.0011298767859116196 0.024193576821061068 0.02378649019662149 0.0010860876003566842 0.025017208108780518 0.018227573312819004 0.0048087786874350374 -0.014070205427978825 0.0069657843872410006 0 0.00019968170915232145 0.010170924484141966 0.047108244836330408 0.00098756732460111396 0.002790249983579783 0.034247716339871934 0.0010113273672759534 0.018214755949072948 -0.018501208783410189 -0.016459443575976524 -0.0076991655963162585 0.035827040989484103 0.0026010474179670013 0.018496772032372558 0.0088836624582616409
leaf_weight=55 175 40 61 56 75 64 59 44 53 220 59 163 129 48 122 76 61 80 266 41 44 53 46 100 226 216 48 79 78 65 73 48 118 61 42 132 66 59 139 42 177 54 46 78 571 71 40 43 77 64 54 80 80 50 55 106 42 96 47 46 48 41 42 78 64 145 86 50 40 63 49 42 60 41 49 67 183 40 126 162 50 62 55 73 78 78
leaf_count=55 175 40 61 56 75 64 59 44 53 220 59 163 129 48 122 76 61 80 266 41 44 53 46 100 226 216 48 79 78 65 73 48 118 61 42 132 66 59 139 42 177 54 46 78 571 71 40 43 77 64 54 80 80 50 55 106 42 96 47 46 48 41 42 78 64 145 86 50 40 63 49 42 60 41 49 67 183 40 126 162 50 62 55 73 78 78
internal_value=8.56612e-05 0.0144892 -0.027756 -0.0577302 -0.0140381 0.0229589 0.0263332 -0.0213832 -0.0258827 0.03115 -0.0738145 -0.0301649 0.0140932 0.000935858 -0.00676036 0.0274778 -0.0194989 -0.0209378 -0.076717 0.00275558 -0.00276558 -0.0245818 0.0291363 0.0298275 0.0271229 0.0333024 0.0172766 0.0142538 0.00567259 0.00284132 0.0178917 0.0189595 -0.0486906 0.00393471 0.00440773 0.0312738 -0.0302845 -0.0251605 -0.0238065 -0.0158492 -0.069412 0.0105948 -0.0213042 -0.0225478 0.0366047 -0.0191204 -0.0137955 0.00504492 -0.00718114 0.0205956 0.0224947 0.00114666 0.00734036 0.00408602 0.00180875 0.00557943 -0.0338623 -0.0262559 0.0164217 -0.0118002 0.00246117 0.00529069 0.018611 0.0288555 -0.00132884 0.0271683 0.0213842 0.00601482 -0.0106383 0.0101308 0.0030916 0.00376085 0.00790697 0.0369205 0.00356273 0.00494506 0.0377119 -0.00132092 0.0201261 -0.0200138 -0.0131367 -0.0113514 0.0412047 0.00419872 0.0214208 0.00772171
internal_weight=7431 4898 2533 794 1739 3963 3393 935 971 2433 558 583 960 768 352 1459 236 800 499 707 243 527 1241 1165 662 503 721 382 464 570 218 226 171 505 239 436 188 420 365 164 233 211 339 286 974 130 273 444 158 339 228 188 376 380 178 235 122 235 111 198 199 85 171 304 108 191 145 202 81 141 129 157 110 312 92 115 754 88 174 208 158 108 96 123 178 132
internal_count=7431 4898 2533 794 1739 3963 3393 935 971 2433 558 583 960 768 352 1459 236 800 499 707 243 527 1241 1165 662 503 721 382 464 570 218 226 171 505 239 436 188 420 365 164 233 211 339 286 974 130 273 444 158 339 228 188 376 380 178 235 122 235 111 198 199 85 171 304 108 191 145 202 81 141 129 157 110 312 92 115 754 88 174 208 158 108 96 123 178 132
is_linear=0
shrinkage=0.06


Tree=11
num_leaves=94
num_cat=0
split_feature=9 9 9 9 9 9 6 9 1 5 6 1 1 9 1 3 9 1 9 1 9 1 6 9 1 4 1 1 3 9 1 1 3 2 9 1 1 9 9 0 8 9 1 4 1 5 2 0 0 9 9 3 1 9 4 1 2 1 9 9 1 9 2 9 2 0 9 3 0 2 8 3 1 2 0 1 8 2 0 2 9 9 4 8 9 9 4 9 8 2 4 0 9
split_gain=732.795 369.386 239.717 137.401 76.0222 59.9809 48.9915 29.3799 26.4572 10.7827 9.07086 9.0445 8.54521 7.05544 6.29085 6.15711 5.80444 4.91623 3.62358 2.866 6.5029 2.82171 2.55466 2.15855 2.13514 2.11118 1.54693 1.45443 1.35703 1.35554 1.21649 1.19495 0.82791 0.785347 0.77595 0.775991 0.689398 0.661199 0.630633 0.619883 0.589522 0.55672 0.826057 0.50418 0.484212 0.809058 0.474309 0.434988 0.694992 0.527925 0.430282 0.422193 0.392476 0.368918 0.33463 0.331641 0.324248 0.323876 0.302078 1.0568 0.627698 0.640379 0.29841 0.275366 0.274493 0.272114 0.259542 0.358851 0.243988 0.23679 0.216836 0.213699 0.198929 0.196883 0.18621 0.266607 0.180691 0.178312 0.158584 0.155768 0.153834 0.142064 0.132249 0.1195 0.116261 0.235593 0.110805 0.0796889 0.0789244 0.0666341 0.0660772 0.0352339 0.0351088
threshold=0.53629684448242199 -1.2905451655387876 0.92323055863380443 0.66187280416488659 1.2808780670166018 0.2886947393417359 -0.77031230926513661 -1.4556132555007932 1.7335962653160097 -1.4499896168708799 -1.0190532207489011 -2.2193431854248042 1.0000000180025095e-35 0.95074191689491283 -0.63816359639167775 0.5143517702817918 0.63436147570610057 1.2065384984016421 0.7719181776046754 1.0000000180025095e-35 -0.15991766005754468 0.67948076128959667 -0.58375811576843251 1.2409422397613528 -1.1652276515960691 0.9436233937740327 0.41595189273357397 1.4700673818588259 0.3737714439630509 0.99200892448425304 0.1524230241775513 1.9971251487731936 0.93609276413917553 -1.0834658145904539 -1.7032153010368345 -0.37463472038507456 -0.37463472038507456 -0.026798253878951069 0.68938416242599498 0.14964788407087329 -0.010878414381295441 1.3075019121170046 1.4700673818588259 1.0780558586120608 0.67948076128959667 0.43317115306854254 0.69743552803993236 0.17130158096551898 0.084686793386936202 -1.0291873812675474 -1.0842100381851194 -0.75087112188339222 -0.63816359639167775 1.1158099770545962 -0.43655125796794886 1.4700673818588259 0.32822409272193914 -0.37463472038507456 -0.37290871143341059 -0.23978930711746213 0.94300961494445812 0.21991638094186786 0.48025263845920568 -0.399532601237297 0.67571672797203075 0.21460897475481036 -0.093357957899570451 -0.61029079556465138 0.25791636854410177 0.80602750182151806 -0.22452342510223386 -0.61029079556465138 0.1524230241775513 0.76258990168571483 0.30122427642345434 0.67948076128959667 0.3982339501380921 0.37166170775890356 0.17130158096551898 0.61056235432624828 -1.249278128147125 -0.96040901541709889 0.068087762221694006 0.766433745622635 -0.67153990268707264 -0.63027289509773243 1.0442760586738589 -1.6344369649887083 -1.4427703619003294 0.45853486657142645 0.10186760500073434 0.23626267164945605 -1.1117213964462278
decision_type=2 2 2 2 2 2 2 2 2 2 2 2 2 2 2 2 2 2 2 2 2 2 2 2 2 2 2 2 2 2 2 2 2 2 2 2 2 2 2 2 2 2 2 2 2 2 2 2 2 2 2 2 2 2 2 2 2 2 2 2 2 2 2 2 2 2 2 2 2 2 2 2 2 2 2 2 2 2 2 2 2 2 2 2 2 2 2 2 2 2 2 2 2
left_child=1 7 3 16 13 6 10 12 17 30 24 -5 34 -4 51 19 74 43 38 22 26 29 84 46 56 32 72 40 47 83 71 -10 55 -26 -1 70 -16 66 -13 -30 -7 -27 86 -6 68 90 76 48 49 92 80 65 73 79 -50 -19 -3 -24 63 -60 -61 -62 -45 -17 -25 88 -22 -68 78 -64 -36 -8 -21 77 75 -2 -23 -31 -42 -54 -35 -49 -70 -15 -11 -86 -43 -37 -9 -82 -46 -39 -12
right_child=2 5 4 11 8 27 9 14 31 15 28 18 -14 21 36 58 -18 25 -20 20 37 23 57 64 33 41 -28 -29 39 52 -32 -33 -34 50 35 87 -38 91 -40 -41 44 42 -44 62 45 -47 -48 81 54 -51 -52 -53 53 -55 -56 -57 -58 -59 59 60 61 -63 69 -65 -66 -67 67 -69 82 -71 -72 -73 -74 -75 -76 -77 -78 -79 -80 -81 89 -83 -84 -85 85 -87 -88 -89 -90 -91 -92 -93 -94
leaf_value=-0.031381580210157807 -0.0073173767510384272 0.01796719528301334 -0.018504811509151852 -0.045393594227853364 -0.017574516472455701 0.0097887282179811835 0.017003792675478118 -0.0047627739424684207 -0.038857437197552171 0.025894381285475734 0.01624064154990695 -0.054597070141842487 -0.040204601091764318 -0.0032851906667596522 -0.012216024150390451 0.034577249275313485 -0.033212307648793342 -0.027957710769441389 -0.077951019663559759 0.022341560236030612 0.030230069058354601 -0.0063537961832646813 0.043458923094231501 0.0082742043251792588 -0.003327070519991932 -0.013248770946015915 0.0075756662331531626 -0.0050833059714641424 0.027879537491481511 0.0081770084541354145 0.0099700131507942814 -0.052008571534321223 -0.021720722514969197 0.0059251621881307196 -0.020727485321685224 -0.020582157900860144 -0.022012755310119585 0.035810066944513566 -0.068271895850642347 0.01830110714910552 0.0052393821120328664 -0.023135141029230696 -0.027107491823691356 -0.0076899695201078436 0.005834614643498378 -0.0043559969496647158 -0.0031052723248319054 0.016546675327420234 0.0073138409176806227 0.021205392357938495 0.0096182155146942293 0.0055864886662198429 0.004533015345361221 0.0079362101116713796 0.013934610310560607 -0.038221522109453072 0.009775290141956737 0.034741203243130354 0.02833517336601327 0.038365740933133934 0.026627625218144168 0.036122136060435038 -0.017400649345987902 0.04624930606209314 0.0010636983440324133 0.0025240677795288235 0.030438566033045452 0.021526192390714946 0.0045259092684616061 -0.010486170180179723 -0.013773462990831051 0.023774333536536213 0.016863284993202016 0.0052331415819270267 -0.015270452372962609 -0.013339165139505092 -0.013246583748517967 0.014602352428228358 0.00049207300278875554 0 0.0002395460393478269 0.021400433839513705 0.0095706731859961005 0.00095212785168210189 0.034618441994510474 0.025028263884338927 -0.017397946658558525 -0.027665898556892686 -0.00060252158792132909 0.0035703622778792948 0.0024470935284857782 0.030066846103185701 0.010934354556551045
leaf_weight=55 76 48 61 60 75 64 83 41 85 186 43 56 163 48 122 53 61 80 265 144 142 41 57 44 46 53 45 65 78 58 73 86 66 57 166 42 42 116 177 67 62 46 78 79 50 62 77 109 52 102 58 53 80 106 126 42 51 196 115 319 80 103 43 51 41 54 44 100 50 76 41 62 85 41 63 67 40 42 53 49 60 116 60 40 66 46 162 116 40 43 73 125 46
leaf_count=55 76 48 61 60 75 64 83 41 85 186 43 56 163 48 122 53 61 80 265 144 142 41 57 44 46 53 45 65 78 58 73 86 66 57 166 42 42 116 177 67 62 46 78 79 50 62 77 109 52 102 58 53 80 106 126 42 51 196 115 319 80 103 43 51 41 54 44 100 50 76 41 62 85 41 63 67 40 42 53 49 60 116 60 40 66 46 162 116 40 43 73 125 46
internal_value=8.04489e-05 0.0137571 -0.0258712 -0.0524932 -0.0132116 0.0218184 0.0247718 -0.0201177 -0.02436 0.0297781 0.0143355 -0.0694176 -0.0283782 0.000881259 -0.00636081 0.0311241 -0.0169514 -0.0197097 -0.0721912 0.0286252 0.0261437 0.00259461 0.032157 -0.00260314 0.00649225 -0.0231355 0.0184082 0.00319311 0.018158 0.00534226 0.0168396 -0.0458051 -0.0285047 0.00358668 -0.0236753 -0.0223987 -0.0149159 0.0301003 -0.0652839 0.0236915 0.00436163 -0.0200475 -0.021215 -0.0129924 0.00346352 0.00109797 -0.00676843 0.0167495 0.0151837 0.0178993 0.00510887 0.00107806 0.0069127 0.00525404 0.0121192 -0.0318707 0.0140071 0.0369159 0.0357474 0.0348114 0.0362119 0.032204 -0.0111169 0.0408013 0.00498854 -0.000631736 0.027494 0.0245233 0.00534197 -0.0132089 -0.0194807 0.020124 0.0204425 0.00953617 -0.0119411 -0.0102951 -0.010024 0.0111123 0.00317804 0.00291368 0.00335011 0.0191858 0.00744714 -0.00123525 0.0279666 0.0310422 -0.0188288 -0.0259996 -0.00288707 0.00176643 0.00395686 0.0330174 0.0137834
internal_weight=7431 4867 2564 825 1739 3932 3393 935 971 2291 1102 558 583 768 352 2073 267 800 498 1352 801 707 551 243 363 527 274 539 739 464 218 171 188 264 420 365 164 527 233 145 474 339 286 273 410 185 158 594 369 191 218 188 376 235 178 122 99 253 721 617 502 183 198 104 85 135 286 144 225 119 207 145 229 141 206 143 81 100 115 129 160 225 110 88 298 112 208 158 81 103 123 241 89
internal_count=7431 4867 2564 825 1739 3932 3393 935 971 2291 1102 558 583 768 352 2073 267 800 498 1352 801 707 551 243 363 527 274 539 739 464 218 171 188 264 420 365 164 527 233 145 474 339 286 273 410 185 158 594 369 191 218 188 376 235 178 122 99 253 721 617 502 183 198 104 85 135 286 144 225 119 207 145 229 141 206 143 81 100 115 129 160 225 110 88 298 112 208 158 81 103 123 241 89
is_linear=0
shrinkage=0.06


Tree=12
num_leaves=93
num_cat=0
split_feature=9 9 9 9 9 9 9 9 1 5 1 9 6 9 3 1 9 1 9 1 4 9 1 4 1 4 3 1 9 3 9 9 9 1 1 9 1 3 0 1 9 9 1 0 4 6 8 9 0 9 1 8 3 1 9 4 0 0 0 1 3 2 4 0 9 5 4 0 0 1 4 3 6 0 0 2 2 9 1 6 2 3 2 1 9 9 9 9 4 9 9 8
split_gain=651.301 328.801 229.485 106.1 65.7359 57.3016 42.9997 26.8444 22.4285 9.57197 8.05915 7.29863 7.28011 5.99059 5.22815 5.17545 4.6071 4.57323 3.71929 2.71378 2.23436 1.98059 1.85019 1.84619 3.24974 1.46232 1.40338 1.14249 1.1021 0.921229 0.894524 0.887202 0.795742 0.701047 0.63123 0.528952 0.605574 0.495788 0.481764 0.660615 0.475435 0.775638 0.469147 0.466877 0.454206 0.555601 0.443241 0.43409 0.414269 0.386068 0.590789 0.358766 0.352189 0.332977 0.588172 0.331796 0.31888 0.430823 0.318182 0.314589 0.463232 0.257522 0.254977 0.23887 0.236598 0.227002 0.331054 0.21053 0.209307 0.197357 0.195086 0.190598 0.186348 0.179619 0.152624 0.150314 0.191229 0.13261 0.121818 0.114635 0.110179 0.0735969 0.0719085 0.059848 0.0196631 0.445909 0.901251 0.309391 0.0133442 0.00906746 0.0068085 0.00524798
threshold=0.5500524938106538 -1.2905451655387876 0.92323055863380443 0.66187280416488659 1.2808780670166018 0.2886947393417359 -0.80909663438796986 -1.4556132555007932 1.7335962653160097 -1.4499896168708799 1.0000000180025095e-35 0.89571923017501842 -1.0190532207489011 0.95074191689491283 0.5143517702817918 -0.63816359639167775 0.63436147570610057 1.2065384984016421 0.7031398117542268 0.67948076128959667 -0.9756612479686736 1.2409422397613528 -1.1652276515960691 -0.70610728859901417 1.0000000180025095e-35 0.9436233937740327 0.5143517702817918 1.4700673818588259 0.99200892448425304 -0.61029079556465138 1.3341258168220522 0.52254116535186779 -0.026798253878951069 -0.37463472038507456 1.4700673818588259 -1.7032153010368345 -0.37463472038507456 -0.75087112188339222 0.21460897475481036 -0.90169563889503468 1.5071810483932497 1.6802362799644472 0.1524230241775513 0.25791636854410177 -0.36968058347702021 -1.2677941322326658 1.0000000180025095e-35 -1.0842100381851194 0.27957032620906835 1.3075019121170046 1.4700673818588259 1.4119233489036562 1.0000000180025095e-35 0.94300961494445812 0.21991638094186786 -0.53789392113685597 0.27957032620906835 0.34453167021274572 0.23626267164945605 0.67948076128959667 -0.61029079556465138 0.7408721148967744 -0.33589969575405115 0.30122427642345434 0.7994295358657838 0.71101421117782604 0.87606266140937816 0.32287797331810003 0.36618536710739141 0.1524230241775513 1.1793985962867739 1.2172533869743349 -0.77031230926513661 0.1279941909015179 0.1279941909015179 0.87118187546730053 0.45853486657142645 -0.066734075546264635 0.94300961494445812 1.4683561325073244 0.78430870175361644 -0.18854984268546102 0.24135091900825503 0.67948076128959667 0.096115332096815123 -0.37290871143341059 -0.23978930711746213 -0.399532601237297 -0.43655125796794886 -1.6344369649887083 0.041092643514275558 0.66188442707061779
decision_type=2 2 2 2 2 2 2 2 2 2 2 2 2 2 2 2 2 2 2 2 2 2 2 2 2 2 2 2 2 2 2 2 2 2 2 2 2 2 2 2 2 2 2 2 2 2 2 2 2 2 2 2 2 2 2 2 2 2 2 2 2 2 2 2 2 2 2 2 2 2 2 2 2 2 2 2 2 2 2 2 2 2 2 2 2 2 2 2 2 2 2 2
left_child=1 7 3 16 13 6 12 10 17 29 35 18 22 -4 20 44 83 40 58 28 81 48 73 24 -22 34 38 31 82 43 -10 46 72 -17 79 -1 68 -24 39 55 -6 71 -26 -8 -9 -46 -7 63 -21 -27 51 -51 -40 84 -55 -14 70 -58 -5 65 78 -23 88 -39 -20 -48 -67 -50 -37 -12 91 -42 -25 -3 -41 76 -72 -74 -61 -19 -73 -11 -15 -2 85 87 -87 -16 -57 -38 -88 -30
right_child=2 5 4 11 8 27 9 15 30 14 69 -13 26 19 53 33 -18 25 64 21 23 61 37 32 42 49 -28 -29 56 -31 -32 -33 -34 -35 -36 36 89 47 52 74 41 -43 -44 -45 45 -47 59 -49 67 50 -52 -53 -54 54 -56 62 57 -59 -60 60 -62 -63 -64 -65 -66 66 -68 -69 -70 -71 75 80 77 -75 -76 -77 -78 -79 -80 -81 -82 -83 -84 -85 -86 86 90 -89 -90 -91 -92 -93
