tree
version=v4
num_class=1
num_tree_per_iteration=1
label_index=0
max_feature_idx=9
objective=regression
feature_names=Column_0 Column_1 Column_2 Column_3 Column_4 Column_5 Column_6 Column_7 Column_8 Column_9
feature_infos=[-4.9281487464904785:0.63685661554336548] [-2.6146364212036133:3.7100627422332764] [-5.1990861892700195:1.272971510887146] [-2.2269694805145264:2.5527749061584473] [-5.5711894035339355:1.3641557693481445] [-1.9902403354644775:2.1465384960174561] [-1.982926607131958:1.6860036849975586] [-2.3018357753753662:1.4582350254058838] [-2.4405524730682373:1.9915002584457397] [-1.7305047512054443:1.7332621812820435]
tree_sizes=9037 9026 9736 9403 9080 9755 9777 9504 9747 9613 9766 9747 9787 9783 9805 9780 9811 9810 9832 9809 9831 9843 9848 9857 9831 9893 9848 9867 9893 9886 9920 9943 9915 9924 9917 9959 9984 9959 9999 9994 9925 9990 10019 10026 9891 9972 10006 10032 10017 9995 10001 10086 10044 10069 10050 10035

Tree=0
num_leaves=104
num_cat=0
split_feature=9 8 8 9 8 8 9 9 8 9 8 8 8 9 8 8 8 9 9 8 8 8 9 8 8 9 9 9 9 8 8 5 5 8 5 9 8 8 8 8 8 6 8 9 0 4 4 9 8 9 8 8 9 8 3 8 8 9 5 8 5 8 8 8 0 8 9 8 9 8 8 0 5 8 9 8 5 8 6 8 8 5 9 4 5 9 5 8 8 8 0 8 6 3 1 9 0 8 4 0 1 4 8
split_gain=2389.16 1104.8 471.392 285.571 265.765 148.128 105.26 99.9198 114.028 97.478 68.0666 55.2309 55.1532 43.853 38.9362 30.924 29.1237 25.4491 22.695 19.7556 19.0256 16.3316 22.0823 18.3096 13.8177 13.7966 15.6842 13.6791 13.3764 13.2319 12.8896 13.0761 12.3122 11.9894 11.5647 10.7883 8.33553 7.88219 7.23526 7.17429 6.00709 5.70772 5.64228 5.48428 5.48036 5.14821 4.87325 4.52584 4.36302 4.36048 4.09732 3.53283 3.22556 3.04477 2.90049 2.87738 2.86139 2.5256 2.14975 2.13761 1.9811 1.90027 1.89203 1.58405 1.52535 1.50751 2.29063 1.50432 1.50037 1.48765 1.41879 1.39994 1.3416 1.34024 1.2644 1.122 1.10886 1.04665 0.994781 0.948034 0.904659 0.898451 0.891448 0.878818 0.779767 0.773833 0.719385 0.717834 0.688861 0.673432 0.554004 0.508918 0.318493 0.511814 0.205887 0.200027 0.182208 0.177137 0.17049 0.168701 0.136582 0.0874274 0.0235401
threshold=0.082359660416841521 -1.4791364669799802 0.73461404442787182 -0.63027289509773243 1.0119038820266726 0.1754933372139931 0.24742772430181506 -0.80909663438796986 0.40732413530349737 -0.58900588750839222 -0.41090059280395502 1.1028165221214297 -1.1018437743186948 -0.57525020837783802 0.54369583725929271 1.280098080635071 -1.8155192732810972 -1.2355224490165708 -0.1865415424108505 -0.033605223521590226 0.71643367409706127 -0.20179661363363263 -1.6206812858581541 -0.79728344082832325 -1.1018437743186948 -0.91914200782775868 -1.4831245541572569 0.3024504035711289 -1.125477075576782 0.34823118150234228 0.90735188126564037 1.0814723968505862 0.896242916584015 -1.7882433533668516 1.1123438477516177 -1.0979657173156736 -1.883705139160156 -1.5336830019950864 1.3391937613487246 -0.36998800933361048 -1.606415271759033 -0.33501714468002314 -0.010878414381295441 -1.2767894864082334 0.23626267164945605 0.74162915349006664 -0.77366700768470753 -1.5381472110748289 0.92553222179412853 1.6403004527091982 -0.82001024484634388 0.31186503171920782 1.5338048934936526 -1.2427592277526853 0.79551240801811229 -1.2745789289474485 -1.3609505891799925 -0.74031826853752125 0.34055680036544805 0.50732967257499706 0.74188566207885753 0.83916601538658153 -0.97001856565475453 -1.6427814364433286 0.17130158096551898 -0.22452342510223386 0.3024504035711289 1.5073824524879458 1.6802362799644472 0.59824231266975414 -0.49272036552429194 0.25791636854410177 0.24794243276119235 0.80734631419181835 -0.91914200782775868 0.96644482016563427 -0.64733111858367909 0.4800564199686051 0.78432005643844616 1.0391771197319033 0.82552939653396618 1.1740867495536806 -0.86411932110786427 -0.33589969575405115 0.55665695667266857 0.7031398117542268 -0.80168840289115895 0.25731852650642401 0.70734077692031871 1.2210023999214175 0.14964788407087329 0.59824231266975414 0.78432005643844616 0.65493208169937145 1.2065384984016421 1.2143183350563052 0.21460897475481036 0.88007861375808727 -0.47033214569091791 0.14964788407087329 -0.90169563889503468 1.1793985962867739 1.1028165221214297
decision_type=2 2 2 2 2 2 2 2 2 2 2 2 2 2 2 2 2 2 2 2 2 2 2 2 2 2 2 2 2 2 2 2 2 2 2 2 2 2 2 2 2 2 2 2 2 2 2 2 2 2 2 2 2 2 2 2 2 2 2 2 2 2 2 2 2 2 2 2 2 2 2 2 2 2 2 2 2 2 2 2 2 2 2 2 2 2 2 2 2 2 2 2 2 2 2 2 2 2 2 2 2 2 2
left_child=1 3 5 16 7 19 29 12 9 24 50 30 28 36 32 41 43 40 80 65 69 22 39 25 56 26 -24 -21 46 87 31 45 51 -15 60 -28 -5 44 49 70 71 -6 -12 -1 63 -4 -3 -25 97 89 -11 58 54 90 75 64 -9 -58 -8 86 -16 99 -27 -19 -48 -2 -67 68 -40 -20 -14 98 -29 -47 -49 78 -23 81 -32 -54 -10 -34 -64 -66 -53 -77 -31 -7 -36 94 -30 -62 -63 -94 -13 -86 -87 -22 -18 -33 -93 -102 -43
right_child=2 4 11 13 15 6 14 8 18 10 42 38 21 33 34 -17 17 37 20 27 48 76 23 47 -26 62 35 72 53 59 52 61 77 -35 88 -37 -38 -39 67 -41 -42 102 -44 -45 -46 73 55 74 -50 -51 -52 84 79 -55 -56 -57 57 -59 -60 -61 91 92 82 -65 83 66 -68 -69 -70 -71 -72 -73 -74 -75 -76 85 -78 -79 -80 -81 -82 -83 -84 -85 95 96 -88 -89 -90 -91 -92 100 93 -95 -96 -97 -98 -99 -100 -101 101 -103 -104
leaf_value=0.021682871439380372 0.10826269896101999 -0.063208767784546649 -0.010599844567649052 0.07967378582606538 -0.095940855694207863 0.032438072086710887 0.04699771508482066 -0.012015193021269977 -0.058171989121413976 0.063977053780850307 0.0059587797766090479 -0.010898622506038813 -0.014530939720430867 0.13107847217359203 0.01975788765724976 -0.1142375378679253 -0.015519642750620732 0.021709555885608793 -0.0046362310929862188 0.047413214200662392 -0.036533195698567021 -0.095170527928475732 -0.037337360584954911 -0.063356190508972912 -0.060142013986410447 -0.029523566812572084 -0.082659047894905566 0.066986433842125617 -0.020841123770257351 -2.1631469503282363e-07 0.004513264252279164 0.025632490661085913 0.069455406430276284 0.085964261447884896 0.050417082882318665 -0.055031258648354946 0.043609072811861618 -0.0049031226876090368 -0.02633146056408725 -0.050199920068966807 -0.030002711825602036 -0.068547068197284219 -0.022085582862025131 0.048108607167550173 0.037122605610571145 0.020152370123820679 -0.043397482537315943 -0.087174305233529689 -0.058454131314656883 0.0072800389401788297 0.038470104017938378 0.040748257507665919 0.021833165248730031 -0.03279104497095877 -0.0059145498428635332 -0.048827297517224401 -0.019655546971794332 -0.039416448532005231 0.066839662801212132 -0.0087200575255761935 0.039725061930023231 0.01656083120206818 -0.036217911261344424 0.0074156100935361645 -0.034594640407739144 0.073632504108049709 0.097956474027591028 -0.033349237510020766 -0.010217068147474778 -0.020265021167588607 -0.031318617143661104 1.8377474266847078e-05 0.083869406347687275 0.0079744022034658382 -0.068189773927853733 -0.0023668099861919902 -0.073996712311607343 0.063902828341224044 0.016797207947694508 0.0091451058143671854 -0.072090309657016294 0.08414620609054789 -0.052444995235387787 -0.021442060845688483 0.055184837883871761 0.0099149401839805119 0.01038032934002258 0.021007694526715682 0.039336349419947826 -0.017638941667570979 -0.011879096169719765 0.036016400368100887 0.028340061177647591 0.018724223504218512 -0.00476106488110289 0.045212424704501701 0.0039190526868332839 -0.045431060606422623 -0.0090248376005566192 0.03327311638411571 0.031401747063622046 0.02385731089280152 -0.078743709435860759
leaf_weight=76 80 43 40 43 82 54 41 50 119 72 41 54 41 67 50 149 46 46 44 69 115 40 79 114 53 65 117 57 72 47 41 42 115 47 267 114 64 63 46 69 70 106 66 49 47 62 52 108 72 64 45 62 58 78 74 95 51 53 122 62 68 41 43 78 56 44 84 42 44 47 41 47 158 77 48 46 71 111 65 40 62 74 42 44 112 44 50 55 52 45 53 50 67 51 42 62 42 46 40 168 64 42 153
leaf_count=76 80 43 40 43 82 54 41 50 119 72 41 54 41 67 50 149 46 46 44 69 115 40 79 114 53 65 117 57 72 47 41 42 115 47 267 114 64 63 46 69 70 106 66 49 47 62 52 108 72 64 45 62 58 78 74 95 51 53 122 62 68 41 43 78 56 44 84 42 44 47 41 47 158 77 48 46 71 111 65 40 62 74 42 44 112 44 50 55 52 45 53 50 67 51 42 62 42 46 40 168 64 42 153
internal_value=-0.000211315 -0.0334766 0.0365 0.0297581 -0.0504919 0.0543818 0.0452667 -0.0422992 -0.0268863 -0.00418179 0.0231844 0.00814054 -0.0519853 0.0873777 0.0523624 -0.0907898 0.0069743 -0.000339002 -0.0462054 0.0831205 -0.036448 -0.0601645 -0.057258 -0.0616195 -0.0337934 -0.0540057 -0.0613548 0.0721101 -0.0354268 0.0109694 0.0154889 0.0215095 0.0620193 0.11344 0.040884 -0.0693464 0.0587614 0.0131075 -0.0127151 -0.0358663 -0.0158566 -0.0802227 -0.0113284 0.032389 0.0197678 0.0080945 -0.0437438 -0.074322 -0.0455225 -0.00557446 0.0546267 0.0546765 0.0073945 -0.0233596 0.00435794 -0.0400898 -0.0243571 -0.0300626 0.0622023 -6.09471e-05 0.0315509 0.0279613 -0.038472 0.0128975 -0.0343062 0.0977083 0.0902772 -0.0236343 -0.0187181 -0.012906 -0.0232733 -0.0081982 0.0797521 0.0135543 -0.0818427 0.00758839 -0.0824621 0.0715512 0.0121885 0.0168597 -0.0633425 0.0756515 -0.0448224 -0.0291365 0.0492127 0.00378535 0.00544502 0.0269684 0.0487581 -0.0114616 -0.0172133 0.0340571 0.0225521 0.0244268 -0.00835206 0.0519444 0.00713439 -0.0393772 -0.0127062 0.0319022 0.0313109 0.0287194 -0.0748733
internal_weight=7041 3694 3347 783 2911 2052 1560 2421 936 431 224 1295 1485 221 1292 490 562 437 505 492 324 992 881 730 207 460 310 284 493 268 958 548 699 114 593 231 107 234 337 151 203 341 107 125 171 179 290 270 233 205 117 399 410 203 312 247 154 104 163 159 274 369 150 124 152 208 128 132 90 91 82 133 215 139 156 238 111 300 106 98 181 189 85 100 236 132 97 109 319 141 125 224 159 118 96 174 86 161 86 210 156 106 259
internal_count=7041 3694 3347 783 2911 2052 1560 2421 936 431 224 1295 1485 221 1292 490 562 437 505 492 324 992 881 730 207 460 310 284 493 268 958 548 699 114 593 231 107 234 337 151 203 341 107 125 171 179 290 270 233 205 117 399 410 203 312 247 154 104 163 159 274 369 150 124 152 208 128 132 90 91 82 133 215 139 156 238 111 300 106 98 181 189 85 100 236 132 97 109 319 141 125 224 159 118 96 174 86 161 86 210 156 106 259
is_linear=0
shrinkage=1


Tree=1
num_leaves=104
num_cat=0
split_feature=9 8 8 9 8 8 9 9 8 9 8 8 8 9 8 8 8 9 9 8 8 8 9 8 8 9 9 9 9 8 8 5 5 8 5 9 8 8 8 8 2 8 6 8 8 9 4 4 9 5 8 8 9 8 9 8 8 8 6 2 5 6 8 8 5 6 8 8 9 8 2 8 0 2 8 5 2 1 8 5 8 8 2 5 9 9 2 0 5 8 8 8 1 9 8 6 8 9 9 9 8 4 2
split_gain=2114.37 978.14 417.178 252.913 234.906 131.085 93.106 85.8226 104.033 86.3501 60.2659 48.94 48.7773 38.7983 34.4504 26.211 25.7925 22.5447 18.7141 17.9309 17.5013 14.4803 19.5053 16.1815 12.2281 12.1602 13.8549 12.0741 11.8448 11.7195 11.3992 11.5723 10.8718 10.5709 10.1834 9.54865 7.38575 6.98628 6.41155 6.33454 5.92416 5.3123 5.03208 4.99833 4.9568 4.85625 4.56254 4.31731 4.02616 3.89819 3.60938 3.1194 2.85655 2.6882 2.59316 3.12464 2.52808 1.8937 1.7869 1.78146 1.74896 1.6868 1.67513 1.66902 1.51036 1.47758 1.46676 1.32837 1.32577 1.31553 1.28108 1.25318 1.24285 1.23961 1.18445 1.15448 1.09218 1.05024 0.937524 0.918133 0.916555 0.835702 0.807261 0.788561 0.782008 0.713792 0.699488 0.663341 0.636532 0.590529 0.504586 0.445402 0.409374 0.348701 0.282247 0.277183 0.273837 0.262656 0.178913 0.173269 0.154485 0.148579 0.0213392
threshold=0.082359660416841521 -1.4791364669799802 0.73461404442787182 -0.63027289509773243 1.0209940075874331 0.1754933372139931 0.24742772430181506 -0.80909663438796986 0.40732413530349737 -0.58900588750839222 -0.41090059280395502 1.1028165221214297 -1.1018437743186948 -0.57525020837783802 0.54369583725929271 1.280098080635071 -1.8155192732810972 -1.2355224490165708 -0.1865415424108505 0.71643367409706127 -0.033605223521590226 -0.20179661363363263 -1.6206812858581541 -0.79728344082832325 -1.1018437743186948 -0.91914200782775868 -1.4831245541572569 0.3024504035711289 -1.125477075576782 0.34823118150234228 0.90735188126564037 1.0814723968505862 0.896242916584015 -1.7882433533668516 1.1123438477516177 -1.1804997920989988 -1.883705139160156 -1.5336830019950864 1.3391937613487246 -0.36998800933361048 -0.30160684883594507 -1.606415271759033 -0.39720386266708368 -0.010878414381295441 0.92553222179412853 -1.2767894864082334 0.74162915349006664 -0.77366700768470753 -1.5243915915489195 1.698901414871216 -0.82001024484634388 0.29823110997676855 1.5338048934936526 -1.2427592277526853 -0.76782962679862965 -1.3609505891799925 -1.2745789289474485 0.50732967257499706 1.0952447652816775 0.21963211894035342 0.74188566207885753 -0.95686948299407948 -0.97001856565475453 0.83916601538658153 0.64927130937576305 0.22465144842863086 -1.6609618067741392 1.5073824524879458 1.6802362799644472 0.59824231266975414 0.58884355425834667 -0.49272036552429194 0.25791636854410177 0.7408721148967744 0.80734631419181835 0.24794243276119235 0.84946307539939891 1.0000000180025095e-35 0.94371801614761364 0.55665695667266857 0.4800564199686051 1.0391771197319033 -0.27988803386688227 1.1740867495536806 -0.86411932110786427 0.17864936590194705 0.48025263845920568 0.21460897475481036 -0.80168840289115895 0.70734077692031871 0.8164392113685609 0.61642810702323925 -0.63816359639167775 -0.75407394766807545 0.4800564199686051 0.78432005643844616 -1.3927702903747556 0.68938416242599498 1.4805571436882021 -1.0566987395286558 0.88007861375808727 -0.47033214569091791 0.17619657516479495
decision_type=2 2 2 2 2 2 2 2 2 2 2 2 2 2 2 2 2 2 2 2 2 2 2 2 2 2 2 2 2 2 2 2 2 2 2 2 2 2 2 2 2 2 2 2 2 2 2 2 2 2 2 2 2 2 2 2 2 2 2 2 2 2 2 2 2 2 2 2 2 2 2 2 2 2 2 2 2 2 2 2 2 2 2 2 2 2 2 2 2 2 2 2 2 2 2 2 2 2 2 2 2 2 2
left_child=1 3 5 16 7 20 29 12 9 24 50 30 28 36 32 42 45 41 90 69 65 22 39 25 54 26 -24 -22 47 85 31 46 51 -15 60 -28 -5 40 49 71 -19 72 -6 -12 100 -1 -4 -3 86 73 -11 64 58 82 -9 -56 59 88 78 -49 -16 -50 -27 76 -8 -2 -42 68 -40 -20 -60 -14 101 102 -48 -29 -33 -23 -32 -53 83 -54 -30 -34 -64 -7 -25 -80 -31 -36 -10 -62 -93 -68 -81 -65 -61 -89 -97 -84 -21 -18 -13
right_child=2 4 11 13 15 6 14 8 18 10 43 38 21 33 34 -17 17 37 19 44 27 77 23 48 -26 62 35 75 53 57 52 63 80 -35 89 -37 -38 -39 67 -41 66 -43 -44 -45 -46 -47 74 56 61 -51 -52 79 81 -55 55 -57 -58 -59 70 96 91 -63 84 95 -66 -67 93 -69 -70 -71 -72 -73 -74 -75 -76 -77 -78 -79 87 94 -82 -83 99 -85 -86 -87 -88 97 -90 -91 -92 92 -94 -95 -96 98 -98 -99 -100 -101 -102 -103 -104
leaf_value=0.020398998449858905 0.083826147185201219 -0.059502231627194715 -0.0099791621311408722 0.075002208140763374 -0.092492542650388643 0.030672815760830419 0.049707038808530606 -0.0092458311998989528 -0.054656953158749258 0.060191218412800201 0.0056099690031759172 -0.0047361040549086676 -0.013679638480501516 0.1233296229769202 0.018595862431999514 -0.10742877796649931 -0.014608073611367256 0.038651867217702286 -0.0043640356738741193 -0.034359897958114741 0.044609263097814149 -0.069534194861849155 -0.03512491977838799 -0.066269710880679053 -0.056600113864574163 -0.027778789458288385 -0.079781082631927916 0.063036745951350392 -0.0085755182590517339 0 0.012602096747995045 0.032331708435432094 0.06532421063451932 0.08091406594216824 0.047403548349501258 -0.053543528522280129 0.041032986142543637 -0.0046133287889606441 -0.024784984311723008 -0.047230751754130634 0.021588933568447828 -0.028227700524399397 -0.071207675739839493 -0.020780022986900449 -0.056500411543250091 0.045280024958699941 0.018962623975993621 -0.024431190940551455 -0.08947506139013503 0.0061284775502822349 0.036212278932312741 0.038392938030554963 0.020545581540471668 -0.030848284963989937 -0.014547160454924501 -0.035621933613717557 -0.045927974571590313 -0.008204955401076448 0.0040683264925556123 -0.032320683978497973 0.0365848672838772 -0.06988660959359054 -0.034094021357087924 0.015591043148189782 0.065762077799865176 0.10070869823756971 0.011094823226910085 -0.031394614357154731 -0.0096174633095778214 -0.019074247640790416 -0.010449229243804108 -0.02948403817415237 1.7501261434517793e-05 -0.018458407244943784 0.0075022754633548459 0.078869090494119901 0.020031422675922946 -0.089747194464613753 0.0088269935120756805 0.051605625311339588 0.060103093234822151 0.0086099859689612208 -0.015470746496042539 0.079164950103759762 -0.049371270490940221 0.019426271639357912 -0.051514168611405925 -0.0027161936574592823 0.0097699252445908151 0.037020903776839094 -0.066452964422895625 0.03401165608856184 0.025210351253194468 0.0032521586540554246 0.040362473710281094 0.025243317141751698 -0.04419665183090582 0.0036474343640729781 0.017935681932673947 -0.023004543649540701 -0.04276299160798179 -0.0084963508789859168 -0.0077494668636990845
leaf_weight=76 114 43 40 43 68 55 66 40 118 72 41 41 41 67 50 149 46 40 44 115 69 71 79 73 53 65 100 57 40 47 71 168 115 47 267 131 64 63 46 69 41 70 262 66 79 49 62 71 53 70 45 67 58 78 45 69 95 62 42 41 84 90 43 41 83 94 49 42 44 47 43 41 47 52 77 158 42 40 64 143 111 40 42 74 42 54 54 40 50 52 67 57 83 41 40 78 40 52 40 43 46 40 42
leaf_count=76 114 43 40 43 68 55 66 40 118 72 41 41 41 67 50 149 46 40 44 115 69 71 79 73 53 65 100 57 40 47 71 168 115 47 267 131 64 63 46 69 41 70 262 66 79 49 62 71 53 70 45 67 58 78 45 69 95 62 42 41 84 90 43 41 83 94 49 42 44 47 43 41 47 52 77 158 42 40 64 143 111 40 42 74 42 54 54 40 50 52 67 57 83 41 40 78 40 52 40 43 46 40 42
internal_value=-0.000198286 -0.0314922 0.0343373 0.0280071 -0.0475025 0.0511595 0.0425843 -0.0399035 -0.0257317 -0.00393775 0.0218181 0.00765815 -0.0489136 0.0822321 0.0492579 -0.0859082 0.00656485 -0.000316703 -0.0438812 -0.0350951 0.0781953 -0.0566061 -0.0538682 -0.0579681 -0.0318086 -0.0508072 -0.0577094 0.0678279 -0.0333397 0.010326 0.0145755 0.0202377 0.0583424 0.10675 0.0384591 -0.0652226 0.0553078 0.0123385 -0.0119733 -0.0337568 0.0186093 -0.0149228 -0.075878 -0.0106541 -0.0436832 0.0304819 0.00761487 -0.0411676 -0.0699136 -0.00524911 0.0514044 0.0514379 0.00696211 -0.0219807 -0.0229276 -0.027554 -0.0377244 -5.26298e-05 0.00410296 -0.0322914 0.0296962 -0.0777593 -0.0362152 0.0263076 0.0590692 0.0919298 0.0121975 -0.022253 -0.0176229 -0.0121516 -0.00324219 -0.0219141 -0.00771709 -0.0111944 0.0127559 0.0750107 0.0300067 -0.077608 0.00688182 0.0466486 0.0673041 0.0158707 -0.0161987 0.0711631 -0.0421989 0.0253829 -0.060494 0.00417646 0.00512746 0.0458508 -0.0592956 0.0320536 0.0290521 0.00766299 0.0494134 0.0212276 -0.038726 0.000816668 0.0229881 -0.0195749 -0.037047 -0.0119647 -0.00640647
internal_weight=7041 3694 3347 783 2911 2052 1560 2432 947 431 224 1295 1485 221 1292 479 562 437 516 331 492 992 881 730 207 460 310 284 493 268 958 548 699 114 593 231 107 234 337 151 171 203 330 107 240 125 179 290 270 205 117 399 410 203 154 114 247 159 312 152 274 143 150 369 149 208 131 132 90 91 85 82 133 135 139 215 210 111 227 250 300 98 125 189 85 109 127 156 97 319 185 224 140 90 183 159 81 92 118 85 161 86 83
internal_count=7041 3694 3347 783 2911 2052 1560 2432 947 431 224 1295 1485 221 1292 479 562 437 516 331 492 992 881 730 207 460 310 284 493 268 958 548 699 114 593 231 107 234 337 151 171 203 330 107 240 125 179 290 270 205 117 399 410 203 154 114 247 159 312 152 274 143 150 369 149 208 131 132 90 91 85 82 133 135 139 215 210 111 227 250 300 98 125 189 85 109 127 156 97 319 185 224 140 90 183 159 81 92 118 85 161 86 83
is_linear=0
shrinkage=0.06


Tree=2
num_leaves=112
num_cat=0
split_feature=9 8 8 9 8 9 6 8 8 9 8 8 8 9 8 8 8 8 9 9 8 7 8 9 9 9 8 8 8 8 8 9 9 1 8 8 8 6 8 3 8 9 8 8 6 0 9 9 3 9 3 8 6 9 8 8 8 7 7 1 9 8 9 3 8 8 0 6 9 0 8 2 9 2 1 9 9 8 8 8 8 8 3 8 6 8 9 6 8 8 7 6 9 8 6 0 3 9 9 9 8 9 2 8 8 8 9 0 0 3 8
split_gain=1836.48 844.375 376.093 217.797 204.967 113.184 107.764 69.9985 65.8192 85.7446 68.0074 52.7203 47.4575 33.1994 32.2539 24.7967 22.0968 18.7909 18.2589 16.2574 14.1248 13.6609 16.2799 12.3047 12.2448 11.783 19.874 10.1802 9.069 8.37258 8.30277 8.14563 7.40509 7.13651 8.71918 6.54142 6.28947 5.564 4.87636 4.53428 4.47235 4.27407 5.23588 4.01526 3.46191 3.44189 3.22016 3.15741 3.10719 3.08937 3.2524 3.06705 2.8779 2.74938 2.73928 2.49826 2.41553 2.22911 2.10581 2.08951 1.93684 2.61758 1.76335 2.62903 1.52461 1.51657 1.46632 1.43722 1.42974 1.62842 1.36162 1.23981 1.22696 1.22432 2.01931 1.53197 1.20152 1.14222 1.12811 1.11422 1.07053 1.04658 1.03873 0.958105 0.911144 0.868426 0.866283 0.833146 0.788615 0.705809 0.693782 0.648768 0.645872 0.579873 0.572863 0.565716 0.548409 0.514039 0.692199 0.571425 0.506156 0.460337 0.401662 0.370851 0.369115 0.307441 0.267456 0.208263 0.124378 0.104231 0.0745497
threshold=0.082359660416841521 -1.4973168373107908 0.69824787974357616 -0.63027289509773243 0.95735192298889171 0.24742772430181506 -0.83249902725219715 0.18913268297910693 0.46187606453895574 -0.58900588750839222 -0.41090059280395502 -1.1609394550323484 0.97553768754005443 -0.57525020837783802 1.280098080635071 -1.883705139160156 0.54369583725929271 0.29823110997676855 -0.1865415424108505 -1.2355224490165708 -0.97001856565475453 -1.2072371840476988 -0.20179661363363263 -1.125477075576782 0.45376281440258032 -1.6206812858581541 -0.86546930670738209 1.3391937613487246 -0.033605223521590226 0.86189281940460216 -1.883705139160156 0.39874011278152471 -1.1804997920989988 1.0000000180025095e-35 0.057307431474328048 0.71643367409706127 -0.36998800933361048 -0.33501714468002314 -0.82001024484634388 2.0607353448867802 -1.6791476011276243 -0.76782962679862965 -1.2745789289474485 -1.883705139160156 0.41120564937591558 0.17130158096551898 0.93698623776435863 0.39874011278152471 -0.61029079556465138 -1.4968802332878111 0.092610801570117487 0.36187051236629492 1.4061723947525027 -1.2905451655387876 0.48914931714534765 1.1119093894958498 -1.3427647948265073 -1.2907941937446592 -1.4411970973014829 -0.90169563889503468 -1.5106359124183653 -0.46544711291790003 1.5338048934936526 -0.89145144820213307 0.18913268297910693 -1.5927786231040952 0.19295527786016467 1.5927295684814455 1.5338048934936526 0.21460897475481036 0.45278316736221319 0.7408721148967744 -0.91914200782775868 0.82774528861045849 0.1524230241775513 0.95074191689491283 1.4539332389831545 1.1028165221214297 -1.0245677828788755 -1.5927786231040952 -1.1245733499526975 -0.22452342510223386 -0.18854984268546102 -0.079064261168241487 0.90868753194808971 0.88007861375808727 -0.37290871143341059 0.47339236736297613 -1.3291308879852293 0.92098850011825573 -1.4746205210685728 0.78432005643844616 -0.053422136232256882 0.40732413530349737 1.0952447652816775 0.25791636854410177 0.65493208169937145 1.0745429992675783 1.3607497215270998 1.1979002952575686 -0.99729454517364491 1.5870527029037478 0.089323412626981749 0.79370698332786571 0.6255210041999818 0.59824231266975414 1.1158099770545962 0.14964788407087329 0.3878390789031983 1.0000000180025095e-35 -0.7563708722591399
decision_type=2 2 2 2 2 2 2 2 2 2 2 2 2 2 2 2 2 2 2 2 2 2 2 2 2 2 2 2 2 2 2 2 2 2 2 2 2 2 2 2 2 2 2 2 2 2 2 2 2 2 2 2 2 2 2 2 2 2 2 2 2 2 2 2 2 2 2 2 2 2 2 2 2 2 2 2 2 2 2 2 2 2 2 2 2 2 2 2 2 2 2 2 2 2 2 2 2 2 2 2 2 2 2 2 2 2 2 2 2 2 2
left_child=1 3 5 15 6 17 11 28 9 20 38 23 24 43 37 53 31 64 86 40 41 32 25 56 -4 36 49 39 81 73 -15 -9 100 34 -12 -20 109 -6 -11 55 66 80 -43 -5 -18 65 104 -30 70 -27 78 -50 105 -1 93 68 90 -58 -25 -47 61 -28 63 84 -2 -21 -17 -29 69 -14 -33 101 110 75 -75 91 95 -39 -51 -42 -8 -7 88 -24 -31 92 -10 -53 -60 -65 -3 103 -37 -19 -83 -77 -91 -89 99 -99 -13 -57 -71 -26 -46 -48 -107 -52 -97 -23 -62
right_child=2 4 12 13 14 7 8 16 18 10 33 21 27 30 -16 19 44 54 35 45 -22 22 83 58 29 26 60 67 47 62 -32 48 -34 -35 -36 85 -38 77 -40 -41 79 42 -44 -45 46 59 52 -49 51 50 107 87 -54 -55 -56 71 57 -59 82 -61 72 -63 -64 89 -66 -67 -68 -69 -70 102 -72 -73 -74 74 -76 76 -78 -79 -80 -81 -82 94 -84 -85 -86 -87 -88 97 -90 96 -92 -93 -94 -95 -96 108 -98 98 -100 -101 -102 -103 -104 -105 -106 106 -108 -109 -110 -111 -112
leaf_value=0.025351608803105906 0.041268017351982135 -0.036207907560726865 -0.013979889967630423 0.068891618562299153 -0.081626502776632498 0.096670664978027343 -0.0036269371033247023 0.034446305610764193 -0.061230853195126 0.060204689962975691 0.00081686916047843492 -0.072174520901913911 0.0059337365729903637 0.12569007855111902 -0.10169368831207012 -0.0093405632749199875 0.022029157745436977 0.013485870532159295 -0.013736882080255848 0.012582725353042284 -0.053910328315153938 -0.016786889305201971 -0.06458319138969694 -0.0056769770071234396 0.029404442723627886 -0.024343009159444491 -0.049284453278955288 -0.025404721298738369 0.056240376793864101 0.011429377271714856 0.08624427965809317 0.074288999135079581 -0.050986576821368465 0.0088579980407173381 -0.036280340932309627 -0.024161156721272555 -0.046090310920085475 -0.057846794986011786 0.032961042086225606 0.014777564380023825 -0.012670409039947492 -0.018769787437919724 -0.045387278937548396 0.042108156884647904 0.049487671623059684 0.029132605813183436 0.035458048550025469 0.072995133734518478 0.060581128892221371 -0.040960821809830954 -0.027472757358849045 0.039052698577545127 0.047187822711636435 0.048985636370937995 -0.0055445622372157551 -0.0091727027270723793 -0.04962850568542878 -0.030966481040588887 -0.018033030912280083 0.012668370367837942 -0.06414795385405074 -0.068232148376004456 0.021987591094337403 0.0084751340380634175 0.026309454101891741 -0.0022239326555980369 0.0048442606338441876 -0.011862147916389523 0.0091740474646064378 -0.0031782663994655009 0.057749889648877659 -0.016881555677857249 -0.055888904005982148 0.0077689343602891934 0.025287497215243898 0.02343015540577471 0.029994735113779702 -0.068541818508080068 -0.055030009198635821 -0.025747893880605697 -0.017677317867191827 0.072887582159495048 -0.013496176909743193 -0.083121519171673305 0.023646857359107917 -0.041128477719626313 -0.04798142984714359 0.05989006311178207 -0.03088602001354732 0.0053689423951913005 -0.025581152508285507 0.032963072606035176 -0.035486315870285029 0.0046986917492135303 0.091366192732538501 0.011042123484679244 -0.0041415813386786815 0.048608692280879683 0.056125760876590554 0.035541057339891095 -0.092016123565760527 -0.00081597695385619091 -0.011498667689040305 0.019801882822450032 0.040681431742955229 0.03050741129338741 0.022263947613090276 -0.037189849572541303 0.017214870332607202 -0.023771545131504531 -0.080754019710752703
leaf_weight=42 62 68 42 42 97 69 41 70 73 79 40 52 54 43 144 46 51 62 81 44 66 40 69 45 45 46 101 78 87 58 67 68 51 45 51 52 66 162 42 56 57 75 44 59 104 50 52 185 201 66 44 48 52 40 68 50 89 44 43 72 42 57 47 82 62 54 58 52 54 49 77 51 42 46 54 47 44 146 74 49 40 78 52 45 43 66 79 49 46 43 66 110 59 55 41 43 42 67 54 42 43 48 41 50 97 74 49 48 41 44 53
leaf_count=42 62 68 42 42 97 69 41 70 73 79 40 52 54 43 144 46 51 62 81 44 66 40 69 45 45 46 101 78 87 58 67 68 51 45 51 52 66 162 42 56 57 75 44 59 104 50 52 185 201 66 44 48 52 40 68 50 89 44 43 72 42 57 47 82 62 54 58 52 54 49 77 51 42 46 54 47 44 146 74 49 40 78 52 45 43 66 79 49 46 43 66 110 59 55 41 43 42 67 54 42 43 48 41 50 97 74 49 48 41 44 53
internal_value=-6.84177e-05 -0.0294334 0.0323872 0.0285792 -0.0438142 0.049489 -0.0361266 0.0558545 -0.020207 -0.00606096 0.018605 -0.0464445 0.00834674 0.0797255 -0.0768503 0.00737528 0.0478738 0.0161276 -0.0381785 0.00156145 -0.0298952 -0.0542671 -0.0511403 -0.0293742 0.0172521 -0.0476507 -0.0516291 -0.00563278 0.0757325 0.0189252 0.102711 0.0549338 -0.071682 -0.0104644 -0.020077 -0.028223 -0.0321724 -0.0677736 0.0511451 -0.000891682 -0.0103387 -0.0217116 -0.0289578 0.0538709 0.0378041 0.0129433 0.0396141 0.0678837 0.0572298 -0.0397789 -0.0426961 0.0543204 0.0342083 0.037404 0.0039256 -0.00347288 -0.0376505 -0.0437765 -0.0173237 0.0196468 -0.062604 -0.0565439 0.0112335 0.00925047 0.034107 0.0044233 -0.00140186 -0.0201654 0.000919954 -0.00217587 0.066003 -0.00931754 -0.0690891 0.0239265 0.0174451 0.0255661 0.02103 -0.0631413 -0.0487775 -0.0189559 -0.0107695 0.0866373 -0.0209323 -0.0726123 0.0168705 -0.0347041 -0.0547425 0.0492439 -0.0250122 0.00453322 -0.0312465 0.0292884 -0.0304975 0.00948082 0.0800125 0.0177691 0.000606343 0.051329 0.0483693 0.0439969 -0.0820829 -0.00518981 -0.00711931 0.0246719 0.04549 0.0300712 0.0274778 -0.0329524 0.0142927 -0.0207527 -0.0742196
internal_weight=6935 3641 3294 723 2918 1924 2369 1615 933 523 257 1436 1370 211 549 512 1155 309 410 430 266 983 837 453 837 723 573 533 460 795 110 676 146 136 91 258 150 405 121 403 210 200 119 101 479 220 428 272 606 278 232 461 227 82 185 347 267 133 186 122 295 158 315 268 124 98 104 130 198 144 145 149 137 480 100 380 175 308 140 106 81 188 141 114 101 177 152 260 89 167 134 205 111 117 119 131 85 212 163 109 95 98 90 95 201 175 123 92 84 84 95
internal_count=6935 3641 3294 723 2918 1924 2369 1615 933 523 257 1436 1370 211 549 512 1155 309 410 430 266 983 837 453 837 723 573 533 460 795 110 676 146 136 91 258 150 405 121 403 210 200 119 101 479 220 428 272 606 278 232 461 227 82 185 347 267 133 186 122 295 158 315 268 124 98 104 130 198 144 145 149 137 480 100 380 175 308 140 106 81 188 141 114 101 177 152 260 89 167 134 205 111 117 119 131 85 212 163 109 95 98 90 95 201 175 123 92 84 84 95
is_linear=0
shrinkage=0.06


Tree=3
num_leaves=108
num_cat=0
split_feature=9 8 8 9 8 9 9 8 8 9 8 8 8 9 8 8 8 8 8 9 5 9 9 8 8 5 8 8 7 8 9 8 8 8 8 8 5 8 8 7 8 9 9 0 9 5 7 8 8 9 4 9 9 8 5 8 5 9 8 9 8 8 8 3 8 5 8 8 8 9 7 8 7 8 9 0 0 8 8 8 8 5 8 0 7 4 8 9 9 3 9 5 9 8 8 9 7 4 0 1 3 4 7 8 8 5 8
split_gain=1626.12 757.649 329.898 219.57 165.652 108.879 74.8487 61.8971 50.5136 96.0031 64.9297 41.1388 33.5008 31.0942 26.3998 23.0851 19.5853 16.9298 16.5112 15.6735 13.9863 13.6025 11.4333 16.7738 9.10253 8.95076 8.75937 8.5007 12.7934 8.14778 7.65928 7.12312 7.01566 6.93465 6.87059 6.60419 5.93474 5.61204 5.04007 4.65814 4.51582 4.32 4.08515 4.03048 3.56449 3.54042 3.52117 4.60253 3.07836 3.03529 2.96606 2.6125 2.60129 2.60126 2.49501 2.62131 2.48904 2.43052 2.33228 2.31628 2.06373 2.05583 1.96888 1.91462 1.82655 1.75122 1.61223 1.60728 1.52412 1.53783 1.48578 1.36302 1.20605 1.11904 1.08583 1.33976 1.07882 1.06267 1.05477 1.01269 1.01212 1.12318 0.982134 0.939721 1.77322 0.841752 0.743367 0.742151 0.73783 1.2338 0.825834 0.709296 0.66067 0.567546 0.535721 0.466342 0.398645 0.387915 0.381355 0.348003 0.318814 0.303978 0.295897 0.436868 0.185522 0.171244 0.141337
threshold=0.068603988736867919 -1.4427703619003294 0.69824787974357616 -0.63027289509773243 1.0119038820266726 0.24742772430181506 -0.91914200782775868 0.18913268297910693 0.47096353769302374 -0.57525020837783802 -0.41090059280395502 0.97553768754005443 -1.1609394550323484 -0.57525020837783802 -1.883705139160156 1.280098080635071 0.52551546692848217 0.29823110997676855 -0.83819603919982899 -1.2355224490165708 0.64927130937576305 -0.29303707182407374 -1.6206812858581541 -0.30180215835571284 1.2937347292900088 0.77275711297988903 -1.7882433533668516 -0.79728344082832325 -1.0234118700027464 -0.16997691243886945 -1.125477075576782 0.88007861375808727 0.86189281940460216 -1.1245733499526975 -1.5336830019950864 -1.5927786231040952 1.0197294950485232 -0.019971305504441258 -1.0882071852684019 0.46390463411808019 -1.883705139160156 1.6403004527091982 -0.76782962679862965 0.23626267164945605 -1.1804997920989988 1.1123438477516177 -0.83958560228347767 -0.46544711291790003 0.52551546692848217 -0.26641319692134852 -0.67232638597488392 0.39874011278152471 -1.5106359124183653 -0.49272036552429194 1.1123438477516177 0.36187051236629492 1.1123438477516177 -1.2905451655387876 -0.99729454517364491 0.39874011278152471 0.71643367409706127 1.1028165221214297 -1.6427814364433286 0.3737714439630509 0.82552939653396618 0.74188566207885753 -1.7200601696968076 -1.2427592277526853 1.5073824524879458 1.6536123752593996 0.66444215178489696 0.18913268297910693 -1.2239483594894407 -0.11088395863771437 1.5338048934936526 0.25791636854410177 0.084686793386936202 0.33459454774856573 -0.051791006699204438 0.78461951017379772 0.59824231266975414 1.2358296513557436 0.40732413530349737 0.17130158096551898 -1.5080429315567014 -0.47033214569091791 0.080034241080284133 -0.71280694007873524 1.5338048934936526 0.65493208169937145 0.75816252827644359 -0.73994550108909596 -0.040110195055603974 0.61642810702323925 0.92553222179412853 0.93698623776435863 -1.3910624980926511 -0.13390543684363362 0.25791636854410177 -0.63816359639167775 0.092610801570117487 -0.87432065606117237 0.91511324048042308 0.73461404442787182 1.1846389770507815 1.5136727094650271 1.2028220891952517
decision_type=2 2 2 2 2 2 2 2 2 2 2 2 2 2 2 2 2 2 2 2 2 2 2 2 2 2 2 2 2 2 2 2 2 2 2 2 2 2 2 2 2 2 2 2 2 2 2 2 2 2 2 2 2 2 2 2 2 2 2 2 2 2 2 2 2 2 2 2 2 2 2 2 2 2 2 2 2 2 2 2 2 2 2 2 2 2 2 2 2 2 2 2 2 2 2 2 2 2 2 2 2 2 2 2 2 2 2
left_child=1 3 5 14 6 17 12 29 9 18 33 20 30 40 57 49 25 71 38 35 -4 64 23 53 41 59 -15 28 44 -7 50 60 45 -11 43 66 65 -12 42 -39 -5 61 -8 62 72 79 -29 97 70 -6 -3 78 -30 -14 55 -27 -34 -1 -54 -9 -23 74 -21 100 101 -18 -16 96 69 -26 82 -2 -24 -25 75 -13 -47 -61 -31 99 -38 -82 -19 -52 -85 -68 -53 -44 89 90 105 -36 -62 -67 -33 -56 -32 -48 -37 -22 -40 -10 103 -78 -63 -58 -51
right_child=2 4 11 13 15 7 8 16 21 10 37 24 22 26 19 -17 36 48 -20 34 32 31 27 73 68 54 -28 46 52 51 67 94 56 -35 91 98 80 39 63 -41 -42 -43 87 -45 -46 76 47 -49 -50 106 83 86 58 -55 95 -57 88 -59 -60 77 92 104 -64 -65 -66 93 85 -69 -70 -71 -72 -73 -74 -75 -76 -77 102 -79 -80 -81 81 -83 -84 84 -86 -87 -88 -89 -90 -91 -92 -93 -94 -95 -96 -97 -98 -99 -100 -101 -102 -103 -104 -105 -106 -107 -108
leaf_value=0.023865886740733019 0.038831239297986028 -0.053760678352379215 -0.01781097188804831 0.064854248871636933 -0.077724444452538552 0.088474396636409144 -0.0079675134462002025 0.032408636563050909 -0.056565352193514502 0.069979594893571806 0.0061844357785927817 0.0047332550712906925 -0.012375845190299594 0.11093671416152608 0.00096983709709742383 -0.095634150350504904 0.017647430770616566 0.010166361055987061 -0.057988558545504533 0.018891852050444437 0.023585756014652393 -0.015716689699934099 -0.073637405716791379 -0.050570302298745595 -0.021370639746934171 0.062922772078031902 0.073100837450761055 -0.079089321811993907 -0.023108652947301214 0.068485523121356959 -0.010250259538846356 -0.035552296032863001 0.0011925800736420427 0.037157343152175906 0.001222589051679653 -0.030891668423490466 0.046901891409474261 -0.03219882815260932 -0.04389066747754812 -0.0049295511610273806 0.037517928916291562 0.014156688089526834 -0.033367872140285637 0.029950963233926275 -0.049900537736233208 0.016058456315248694 -0.043348807495501303 -0.070890446583848243 -0.0078095883509438279 -0.059149661561668815 -0.041519565450644585 0.077503612827610313 -0.030106115505909137 -0.031630138675155843 0.070063996031880377 0.047682341960352537 0.013510718490396227 0.046118184747310671 -0.050255171013171548 0.052186938312284804 -0.024411034150194608 -0.0066173444350436988 0.0035091495446574229 -0.023131920734244697 -0.068686387050442582 0.035644180116028733 -0.017167532271728285 -0.030383169432420549 -0.026927495318433886 -0.0070513174603762697 0.017445437251411854 0.024738128008553757 -0.054770228815878307 -0.067947441563373664 0.008275765756503321 -0.0071133658165255416 0.03237261862228525 0.040248531314833406 0.052992859094259666 0.0096726260092854493 0.03158483646784363 0.042421152117700617 -0.0013296745932959721 -0.040751236383391669 -0.024090512495669354 -0.004740281618136743 0.06511559443724782 -0.020706494922236519 0.020695820047520096 0.0025140975982297295 0.02049347265430472 -0.0085837686238810426 -0.03562724587894403 0.026162899772088001 -0.047266242425550116 0.055319543006627447 -0.018820390563829278 -0.056844071002801255 -0.020298388130054242 0.015400773701568442 -0.033316387588127716 -0.043763732477508741 0.03278844331133933 0.023947569319774063 -0.011872837569496848 0.0075953135148298977 -0.070110188929539796
leaf_weight=42 62 40 41 42 82 92 76 70 44 40 40 60 45 65 78 144 53 52 72 50 48 66 81 73 49 88 51 71 43 49 41 48 77 70 50 42 118 52 49 41 63 62 43 50 92 40 53 94 56 200 59 110 45 68 95 148 48 40 60 97 63 70 77 52 40 77 40 40 44 66 46 63 40 40 51 77 46 86 96 74 86 120 52 42 76 43 113 48 47 42 54 53 51 72 87 45 63 44 40 62 60 57 62 154 54 48 52
leaf_count=42 62 40 41 42 82 92 76 70 44 40 40 60 45 65 78 144 53 52 72 50 48 66 81 73 49 88 51 71 43 49 41 48 77 70 50 42 118 52 49 41 63 62 43 50 92 40 53 94 56 200 59 110 45 68 95 148 48 40 60 97 63 70 77 52 40 77 40 40 44 66 46 63 40 40 51 77 46 86 96 74 86 120 52 42 76 43 113 48 47 42 54 53 51 72 87 45 63 44 40 62 60 57 62 154 54 48 52
internal_value=-6.40705e-05 -0.0279206 0.0302301 0.0225238 -0.0428759 0.046124 -0.0361866 0.0525487 -0.0248021 -0.0139208 0.0157677 0.00773072 -0.0464929 0.0735628 0.00377922 -0.0750334 0.0450431 0.014695 -0.0319658 -0.00119632 0.0159747 -0.0400685 -0.0530323 -0.0409595 -0.00530234 0.0522676 0.0951202 -0.0573296 -0.050889 0.0712425 -0.0309927 -0.0328906 0.0177294 0.0496697 0.00845383 -0.0123295 0.0363098 -0.0123882 -0.0260764 -0.0204211 0.0490177 -0.000161974 -0.0185018 0.0155994 -0.0604514 0.0222687 -0.0659538 -0.0606532 0.00404412 -0.0658748 -0.038168 0.0666901 -0.0367733 -0.024191 0.0583386 0.053632 0.010681 0.0352178 -0.042042 0.0430274 -0.0247511 -0.00306266 0.00971249 -0.0337335 -0.0557175 0.0278576 -0.00515941 -0.0199498 -0.0172794 -0.013336 0.00853166 0.0320286 -0.0679496 -0.0573162 0.00086892 -0.00188488 0.0263216 0.0468584 0.0587026 0.0154778 0.041459 0.0381007 0.00440328 -0.0343284 -0.0303636 -0.0109338 0.0715718 -0.0270522 0.0136952 0.011852 0.014393 -0.00379973 -0.0297472 0.0313076 -0.0434374 0.0657932 -0.0156287 -0.0500492 -0.0261033 0.0192068 -0.0384803 -0.0498994 0.0277987 0.0260666 -0.0090307 0.0107237 -0.0617032
internal_weight=6935 3613 3322 826 2787 1946 2309 1615 1099 643 243 1376 1210 221 605 478 1155 331 400 523 843 456 849 226 533 629 116 623 361 460 361 315 802 110 280 243 526 133 328 93 105 374 167 177 213 486 262 191 206 334 217 368 148 113 376 236 316 82 105 253 180 312 127 161 141 202 161 144 159 115 150 125 121 113 188 137 302 183 145 184 324 206 104 177 118 83 223 91 239 192 150 103 114 149 135 140 104 97 82 110 109 101 262 200 124 96 252
internal_count=6935 3613 3322 826 2787 1946 2309 1615 1099 643 243 1376 1210 221 605 478 1155 331 400 523 843 456 849 226 533 629 116 623 361 460 361 315 802 110 280 243 526 133 328 93 105 374 167 177 213 486 262 191 206 334 217 368 148 113 376 236 316 82 105 253 180 312 127 161 141 202 161 144 159 115 150 125 121 113 188 137 302 183 145 184 324 206 104 177 118 83 223 91 239 192 150 103 114 149 135 140 104 97 82 110 109 101 262 200 124 96 252
is_linear=0
shrinkage=0.06


Tree=4
num_leaves=104
num_cat=0
split_feature=6 8 8 8 6 8 1 8 8 5 1 8 8 8 8 6 6 8 8 3 3 5 8 8 4 4 8 6 5 3 8 5 5 5 8 4 8 8 8 6 0 6 8 5 5 4 8 6 8 3 5 6 4 8 8 8 8 5 8 8 3 2 5 3 6 8 8 5 8 8 5 8 6 8 3 8 3 2 0 8 8 8 4 1 1 1 3 0 0 3 5 8 3 4 1 8 1 2 4 8 3 8 2
split_gain=1322.03 570.398 317.523 218.204 167.599 141.836 129.612 82.084 52.7697 41.9255 37.1142 35.8383 33.7101 25.8763 21.6912 21.413 19.3458 15.1718 14.601 13.3305 12.4028 11.6377 10.3905 10.0929 10.0341 9.71825 9.33297 8.60943 8.51849 8.39399 8.17647 7.73909 7.52705 6.60281 6.0011 11.4163 5.85787 5.50162 4.91524 4.74865 4.7186 4.23665 3.83848 3.75578 3.29424 3.23889 6.97629 2.75285 4.65411 3.15371 2.67745 2.62351 2.62069 2.44123 2.28413 2.21006 2.02648 1.86981 1.85714 1.83405 1.76711 1.7434 1.69578 1.67099 1.67792 1.63923 1.58661 1.5724 1.53986 1.5096 1.31119 1.27232 1.25485 1.0605 1.03419 0.867343 1.18303 0.71931 0.63649 0.60762 0.607173 0.603916 0.557268 0.547434 0.514743 0.750142 0.450214 0.76566 0.39499 0.391204 0.384095 0.364384 0.314413 0.312804 0.277323 0.26511 0.249249 0.263684 0.24125 0.195038 0.182444 0.175042 0.129249
threshold=0.038097223732620485 -1.4973168373107908 0.73461404442787182 0.95280820131301891 -0.70812854170799244 0.40732413530349737 1.0000000180025095e-35 0.1754933372139931 -1.1018437743186948 -0.43123023211956019 1.0000000180025095e-35 0.97553768754005443 -1.851882755756378 0.54369583725929271 1.2028220891952517 -0.27283042669296259 -1.0812399387359617 0.68006750941276561 -1.7882433533668516 -0.18854984268546102 0.092610801570117487 0.71101421117782604 -0.18815998733043668 -0.16997691243886945 -0.57167378067970265 -0.47033214569091791 1.3028275966644289 -1.0812399387359617 -0.73994550108909596 -1.0320318043231962 0.34823118150234228 0.18619880080223086 1.1123438477516177 0.77275711297988903 -0.010878414381295441 -0.67232638597488392 -1.7200601696968076 0.86189281940460216 -1.4427703619003294 1.5927295684814455 0.21460897475481036 -0.39720386266708368 0.36187051236629492 -0.61645966768264759 1.1740867495536806 -0.20077716559171674 -0.71545824408531178 -1.7030923366546629 -0.86546930670738209 0.3737714439630509 -0.64733111858367909 -1.4543513655662534 -0.60545364022254933 1.3664669990539553 -1.7200601696968076 0.54369583725929271 0.27095514535903936 1.1740867495536806 1.1846389770507815 0.80734631419181835 -0.61029079556465138 0.067604605108499541 1.1432152986526491 -0.46971046924591059 -0.77031230926513661 1.5073824524879458 1.0000000180025095e-35 1.3901869058609011 0.4800564199686051 0.31186503171920782 0.74188566207885753 -1.5745955705642698 1.5927295684814455 -1.2927647233009336 -0.32913015782833094 -1.3291308879852293 0.092610801570117487 0.71915432810783397 0.1279941909015179 0.61642810702323925 1.0119038820266726 0.68006750941276561 0.77541005611419689 -0.90169563889503468 -0.90169563889503468 1.2065384984016421 0.092610801570117487 0.23626267164945605 0.23626267164945605 -1.5943564176559446 0.64927130937576305 0.92098850011825573 1.2172533869743349 -0.47033214569091791 1.0000000180025095e-35 0.78461951017379772 0.67948076128959667 0.34994289278984075 1.1793985962867739 -0.079064261168241487 -0.18854984268546102 0.080034241080284133 0.26306973397731787
decision_type=2 2 2 2 2 2 2 2 2 2 2 2 2 2 2 2 2 2 2 2 2 2 2 2 2 2 2 2 2 2 2 2 2 2 2 2 2 2 2 2 2 2 2 2 2 2 2 2 2 2 2 2 2 2 2 2 2 2 2 2 2 2 2 2 2 2 2 2 2 2 2 2 2 2 2 2 2 2 2 2 2 2 2 2 2 2 2 2 2 2 2 2 2 2 2 2 2 2 2 2 2 2 2
left_child=1 6 7 4 8 10 12 23 27 30 19 21 28 33 41 94 54 55 -8 -6 60 -4 25 -2 -18 40 39 52 -1 45 -9 66 70 69 35 -21 -26 62 -29 58 83 -5 -35 63 -44 89 -47 74 49 86 71 -50 -3 -16 -14 -17 -22 91 67 -19 -12 -45 88 -40 75 72 -25 -13 -32 90 -15 -38 -28 102 -31 -65 -77 82 -64 -72 -43 -34 -69 -10 -59 96 87 -49 -23 -27 -11 -39 -84 -56 -7 -90 97 -86 -81 -24 -61 -33 -54
right_child=2 3 11 14 5 15 18 9 22 13 20 26 16 32 53 17 24 59 -20 34 56 37 99 31 36 29 65 38 -30 47 68 101 81 42 -36 -37 50 57 43 -41 -42 80 44 61 -46 46 -48 48 51 -51 -52 -53 73 -55 93 -57 -58 84 -60 100 -62 -63 78 64 -66 -67 -68 77 -70 -71 79 -73 -74 -75 -76 76 -78 -79 -80 98 -82 -83 92 -85 85 -87 -88 -89 95 -91 -92 -93 -94 -95 -96 -97 -98 -99 -100 -101 -102 -103 -104
leaf_value=0.052812695629246856 0.083958451386860436 -0.050486031408535269 -0.016747500487943975 -0.074225357521664023 0.023831229188272518 -0.050888443086255383 0.09770786899069081 0.023621289343120796 -0.053729155224393789 0.040413449676000864 0.039108171644945677 -0.0082336931916698816 -0.0011845047919778152 0.014855701863466991 -0.076711343795061115 0.0055114024937348936 0.034871597808800066 -0.021966775397315664 0.054814835458505344 0.016909448674879968 0.027181459967932864 0.020171169525262919 -0.058980961142960239 0.05703611038299277 0.027256747324764727 -0.066482226252826765 -0.018672630732953548 -0.0040396761877526492 0.022929487744684923 -0.019271236316300931 0.0044531620760758714 0.073694993675301926 0.040136500135525666 0.063043936589130989 -0.027670355533249674 -0.024867366976884384 0.012619985749307824 0.0062595020249738538 -0.028088919760286806 0.018242111590690911 -0.070772500049423537 -0.04582094730672083 0.043569963201860532 -0.021841788384597747 0.058135749875434808 -0.027927490939354069 -0.059592481506558562 -0.04537307605117951 -0.037114703194051975 -0.020690748155901304 -0.0081956335297889166 -0.054209337320498055 -0.022216432633850234 -0.094524963895926323 -0.019604960551485421 -0.01064656670256876 0.011514579052105546 0.019852473048356974 -0.011139913628529757 -0.029749785404652354 0.057782211272252929 -0.038034593192934986 0.01647283907184998 -0.0053014344200491897 -0.026018722568750378 -0.027883602804938949 0.041034928349234778 -0.00079562175460159772 -0.010878099111421983 0.035882682124748828 0.030900300371460618 1.5704299114188361e-05 -0.0055995798027142886 -0.038049882419722174 -0.033284114275885332 -0.020693171515741519 -0.0077794287387638337 -0.0030668936067926029 0.025750361953005195 0.025539524059742687 -0.057272006549049112 0.032398697218924917 0.0037153088028232255 -0.040143615012295367 0.0070245918753472246 0.018396914969896896 -0.031746875622135122 -0.032008508125363391 0.01615549218945387 -0.052618419214606374 0.052471566399660975 -0.0010240804607548365 0.011079571994339548 -0.012422286694044176 -0.041308982342280247 0.0085582256927762348 0.0047954524166700313 0.014216326111756571 0.01848699070516718 -0.074094080201784762 -0.037899616989451393 0.062757032078139638 -0.030455725759449527
leaf_weight=68 104 40 40 65 53 90 68 69 70 57 52 74 63 52 131 56 64 82 60 51 81 45 58 63 44 54 74 57 76 41 44 108 225 129 50 42 75 58 59 41 73 56 186 47 111 57 51 75 69 56 53 104 45 88 47 64 53 40 79 63 53 74 44 43 49 44 71 48 48 149 86 48 45 70 58 69 46 69 199 96 206 96 53 42 43 47 63 42 40 62 54 40 40 78 73 45 40 48 51 44 70 97 40
leaf_count=68 104 40 40 65 53 90 68 69 70 57 52 74 63 52 131 56 64 82 60 51 81 45 58 63 44 54 74 57 76 41 44 108 225 129 50 42 75 58 59 41 73 56 186 47 111 57 51 75 69 56 53 104 45 88 47 64 53 40 79 63 53 74 44 43 49 44 71 48 48 149 86 48 45 70 58 69 46 69 199 96 206 96 53 42 43 47 63 42 40 62 54 40 40 78 73 45 40 48 51 44 70 97 40
internal_value=-0.000156323 -0.0236795 0.028441 -0.0348806 -0.0275929 -0.00723165 0.0235242 0.0440806 -0.0390358 0.0371304 0.0177691 0.00553981 0.0120389 0.0407275 -0.0693393 -0.0290735 0.0042417 -0.0202618 0.0782291 -0.00156501 0.0335902 0.0143332 -0.0475268 0.0667284 0.0141141 -0.0453717 -0.00576078 -0.025433 0.0373493 -0.0420943 0.00815343 0.0611934 0.0315615 0.0487581 -0.0111194 -0.0019575 0.007918 0.016168 -0.0206989 -0.000842791 -0.0580113 -0.0590792 0.0535515 -0.0231203 0.0492107 -0.0520359 -0.043345 -0.0376052 -0.0398924 -0.0339827 0.00292274 -0.0476782 -0.036021 -0.0842937 -0.010636 -0.00307336 0.0211605 0.0102543 -0.00305906 -0.029769 0.0490469 -0.0320246 0.0211211 -0.0189427 -0.0161844 -0.0178341 0.0489691 -0.000758968 -0.0035122 0.0407062 0.0242389 0.00778942 -0.0138669 -0.0319499 -0.0277915 -0.0129523 -0.015691 0.00187309 0.0241695 0.026235 -0.0550308 0.0379488 0.00433735 -0.049088 0.0133484 0.0117505 -0.0379476 -0.0409383 0.0152361 -0.0596366 0.0467493 0.00324569 0.00703074 -0.0153048 -0.0469129 0.0123495 0.00919921 0.0109965 0.0232747 -0.0662147 -0.0343348 0.0688784 -0.0264726
internal_weight=7073 3881 3192 3137 2591 933 744 1896 1658 1453 435 1296 616 1292 546 498 472 335 128 196 239 729 1019 443 284 917 567 639 144 732 161 339 606 686 143 93 220 689 444 404 185 327 426 387 297 224 108 508 409 236 176 173 195 219 188 120 134 316 363 215 105 121 373 266 207 163 134 284 92 260 285 123 119 155 99 158 115 210 243 233 262 321 141 112 218 178 180 117 130 116 111 98 93 125 163 85 131 91 147 102 133 205 85
internal_count=7073 3881 3192 3137 2591 933 744 1896 1658 1453 435 1296 616 1292 546 498 472 335 128 196 239 729 1019 443 284 917 567 639 144 732 161 339 606 686 143 93 220 689 444 404 185 327 426 387 297 224 108 508 409 236 176 173 195 219 188 120 134 316 363 215 105 121 373 266 207 163 134 284 92 260 285 123 119 155 99 158 115 210 243 233 262 321 141 112 218 178 180 117 130 116 111 98 93 125 163 85 131 91 147 102 133 205 85
is_linear=0
shrinkage=0.06


Tree=5
num_leaves=112
num_cat=0
split_feature=9 8 8 9 8 8 9 9 8 9 8 8 9 8 8 8 8 9 8 8 9 8 5 8 8 9 9 8 8 8 5 9 8 5 9 8 8 9 8 9 8 9 8 6 8 9 9 5 5 8 8 8 8 9 4 1 8 8 5 8 1 8 8 9 9 8 9 8 8 8 5 8 9 8 5 8 5 6 3 8 8 7 5 1 8 5 8 8 8 9 7 4 1 9 4 6 9 5 8 3 9 8 7 4 9 5 5 9 9 7 7
split_gain=1308.77 583.577 259.203 186.774 131.88 87.3975 60.0103 52.3073 31.9685 70.7058 34.0469 31.1948 24.1044 23.3925 21.3742 21.2981 14.914 14.5561 12.4009 11.7623 10.5628 16.8478 9.86057 9.63357 9.61118 9.19448 8.66455 7.59412 6.9135 6.72374 6.63595 6.58293 6.36294 6.10358 5.19059 7.30401 4.93813 4.87124 4.80455 4.41024 4.3945 3.77408 3.49582 3.40209 2.98869 2.96668 2.93156 2.9101 2.86922 2.78945 2.77071 2.73273 2.72054 2.52676 2.15529 2.14886 2.14361 2.10108 2.05754 2.0437 2.02956 1.9708 1.91399 2.54769 1.89587 1.76106 1.57751 1.57464 1.51343 1.42611 1.15508 1.14592 1.32822 1.12519 1.12333 1.01043 1.00597 0.967009 0.943163 0.922883 0.882956 0.881047 0.69529 0.690837 0.684877 0.604886 0.537934 0.531833 0.523602 0.515063 0.385306 0.383141 0.372754 0.397555 0.707094 0.336191 0.298196 0.298016 0.261745 0.218113 0.43206 0.215104 0.209005 0.207828 0.198791 0.164596 0.155288 0.148514 0.132664 0.0970663 0.153904
threshold=0.068603988736867919 -1.3927702903747556 0.73461404442787182 -0.63027289509773243 1.0119038820266726 0.18913268297910693 0.3162060827016831 -0.91914200782775868 0.40732413530349737 -0.56149452924728382 -0.41090059280395502 1.1028165221214297 -0.57525020837783802 -1.7200601696968076 -1.1427537202835081 0.54369583725929271 1.2391881942749026 -1.2355224490165708 -0.065424922853708253 -0.97001856565475453 -1.4831245541572569 -0.26998245716094965 0.68014276027679454 -1.883705139160156 0.87098571658134472 0.3024504035711289 -0.29303707182407374 -1.5336830019950864 0.80734631419181835 0.34823118150234228 1.1123438477516177 -1.1529884338378904 -1.9609784483909605 0.77275711297988903 -1.6206812858581541 -0.7563708722591399 -1.7882433533668516 -1.2630338072776792 -0.93365514278411854 -0.76782962679862965 1.3391937613487246 -1.0566987395286558 -0.49272036552429194 -0.33501714468002314 0.36187051236629492 -1.0154317021369932 -1.1392327547073362 1.1740867495536806 1.698901414871216 -0.019971305504441258 -0.7563708722591399 -1.5927786231040952 -1.1927591562271116 1.5870527029037478 -0.33589969575405115 -0.90169563889503468 -0.82001024484634388 0.92553222179412853 1.1432152986526491 -1.2427592277526853 1.0000000180025095e-35 0.94371801614761364 0.58006197214126598 0.12362667545676233 -1.441857576370239 0.79370698332786571 0.3024504035711289 -1.4427703619003294 -1.2609450221061704 -0.7563708722591399 0.74188566207885753 1.5073824524879458 1.6802362799644472 -0.26998245716094965 1.1123438477516177 0.31186503171920782 0.18619880080223086 -1.5787218809127805 0.3737714439630509 0.71643367409706127 1.3664669990539553 -1.8255598545074461 1.5136727094650271 0.41595189273357397 -1.5927786231040952 0.64927130937576305 1.1846389770507815 0.61642810702323925 0.68006750941276561 -1.3180564641952512 -1.3743512630462644 -0.43655125796794886 -0.37463472038507456 1.5071810483932497 0.77541005611419689 -1.0812399387359617 1.0607873201370241 -0.49297311902046198 -0.12452058866620062 1.0766730904579165 0.88196355104446422 0.44369028508663183 0.79813382029533397 1.1793985962867739 0.97825327515602123 -0.80168840289115895 -0.89430275559425343 1.1708326339721682 -1.001676023006439 0.8148450255393983 0.91511324048042308
decision_type=2 2 2 2 2 2 2 2 2 2 2 2 2 2 2 2 2 2 2 2 2 2 2 2 2 2 2 2 2 2 2 2 2 2 2 2 2 2 2 2 2 2 2 2 2 2 2 2 2 2 2 2 2 2 2 2 2 2 2 2 2 2 2 2 2 2 2 2 2 2 2 2 2 2 2 2 2 2 2 2 2 2 2 2 2 2 2 2 2 2 2 2 2 2 2 2 2 2 2 2 2 2 2 2 2 2 2 2 2 2 2
left_child=1 3 5 13 7 18 29 14 9 19 56 22 36 32 31 33 43 51 66 39 21 34 -4 -14 58 106 65 41 79 105 70 54 -1 75 42 -36 -5 89 46 52 48 -19 -16 -6 107 -40 64 -46 86 -12 55 81 -9 61 95 -21 -11 102 96 90 98 74 63 -31 -22 97 73 91 -41 -47 -17 72 -42 -2 -26 85 -27 -37 -54 -28 -18 -15 83 -76 -43 -8 -13 -72 -32 -34 -33 -29 -63 94 -94 -3 104 -10 -23 100 109 -65 -30 -89 -24 -7 -20 -35 -48 -60 -111
right_child=2 4 11 12 16 6 15 8 26 10 49 40 23 17 20 30 80 27 25 50 38 60 24 -25 53 76 28 67 57 62 88 59 37 44 35 77 -38 -39 45 68 71 84 -44 -45 47 69 108 -49 -50 -51 -52 -53 78 -55 -56 -57 -58 -59 99 -61 -62 92 -64 101 -66 -67 -68 -69 -70 -71 87 -73 -74 -75 82 -77 -78 -79 -80 -81 -82 -83 -84 -85 -86 -87 -88 103 -90 -91 -92 -93 93 -95 -96 -97 -98 -99 -100 -101 -102 -103 -104 -105 -106 -107 -108 -109 -110 110 -112
leaf_value=0.035846810637096709 0.07499228889601571 -0.048000802374788022 -0.01722957845990147 0.053986228534579274 -0.071661555290222181 0.01660433861096057 0.036407974976660873 -0.0011327998755109865 -0.046895288470068144 0.047018714170327242 0.0032025999715778884 -0.005179127861786148 0.10609704714043196 -0.017024739910870095 -0.0087086123534139588 0.013981177525629974 -0.073658653736114507 0.024692137064698794 0.030936723763123151 -0.025095613537316624 -0.042075924915511424 -0.04430065854682641 0.012125491328537463 0.066954600705728909 0.0020170942057134967 0.050237755027535837 -0.013034737423110702 0.001743535034085919 -0.024352366779422891 0.014097741612948344 0.037738965390958883 -0.0096847549945708704 0.0067584564214161896 0.065189586898045881 -0.025336887550878928 -0.042332098010608131 0.027317076167548599 0.024686183674108294 -0.078132927283197637 -0.022951306949756004 -0.021060276880860328 0.0087214933757537184 -0.030466425902387004 -0.054365929788507225 0.040969745234969782 -0.047833435464714621 -0.043845953656405937 0.054678749175476181 0.0053896358230738099 -0.016330390153975822 -0.056197402008051095 -0.025131464327587498 -0.023644131042276105 0.019256366546336067 -0.027494960041982784 -0.043462804652963358 0.027741121627238328 -0.043486046027561481 0.027403978353582839 -0.029185515695810318 -0.069208400408426921 0.0051770906408131123 -0.010350944217110357 0.00038904077226296067 -0.062149826897929111 -0.058614076187444283 0.081805975731213898 -0.015294463613511701 -0.040585787411143132 -0.067147402638342318 0.029067592567764221 -0.026247764346003528 -0.0065035134632976692 0.05459900912344455 0.021837315054564942 0.033683852955505446 0.062316139890867123 -0.057195122732520101 -0.011313700076724801 -0.024291615834385154 -0.088917190709810578 -0.0047581085511483245 0.0068029411176352634 0.010448607258796693 -0.0014149141635564041 0.049177457229427568 -0.012957476630574092 0.024022950355078752 0.030474815722132467 -0.0017546303785321384 -0.01791934550261268 -0.0056883777726258406 0.0014605484579435803 0.0043020293210717766 -0.0082568808941670315 -0.03607996796021859 0.0092514838700944717 -0.036395733052355349 -0.057440533192952468 0.028152758787045387 0.015597431620793804 -0.0053919202692625 -0.032727458454486796 0.017399102755070017 0.018996060303047946 0.023571738362960191 0.040960643210383348 0.052652660826221102 -0.033273825287818908 0.017395495266152115 0.023792275539060173
leaf_weight=50 41 56 41 59 71 55 57 42 55 54 40 68 42 42 43 52 95 51 47 46 40 50 50 76 52 72 76 40 43 55 225 43 58 55 87 69 52 60 49 46 47 55 78 228 186 57 40 111 72 72 42 113 69 52 62 69 48 87 42 59 53 74 42 49 71 42 89 56 40 40 86 44 48 44 40 153 203 49 41 49 88 47 55 49 40 52 71 96 96 43 64 60 76 54 40 44 54 63 44 40 52 40 81 51 45 45 42 63 45 51 75
leaf_count=50 41 56 41 59 71 55 57 42 55 54 40 68 42 42 43 52 95 51 47 46 40 50 50 76 52 72 76 40 43 55 225 43 58 55 87 69 52 60 49 46 47 55 78 228 186 57 40 111 72 72 42 113 69 52 62 69 48 87 42 59 53 74 42 49 71 42 89 56 40 40 86 44 48 44 40 153 203 49 41 49 88 47 55 49 40 52 71 96 96 43 64 60 76 54 40 44 54 63 44 40 52 40 81 51 45 45 42 63 45 51 75
internal_value=-0.000150116 -0.0249726 0.0266783 0.0156761 -0.0390311 0.0396486 0.0324471 -0.0328927 -0.0235349 -0.0142714 0.0134443 0.00550731 0.0627072 0.000538048 -0.0419057 0.0379852 -0.0675203 -0.00647594 0.0605404 -0.0292982 -0.047145 -0.0410677 0.0111904 0.0817116 0.0125079 0.0538195 -0.0348452 0.00185179 -0.0291519 0.00753627 0.0296869 -0.0287655 0.0172716 0.0453498 -0.0332314 -0.0391488 0.0419016 0.0112803 -0.0553884 -0.0206933 -0.00975946 0.0116625 -0.0229183 -0.0587181 0.0500571 -0.0642587 -0.0484578 0.0462797 -0.00423045 -0.00933462 -0.042091 -0.0189036 -0.0143201 0.00681753 -0.0374468 -0.0364473 0.0383626 -0.0358204 0.0193052 -0.0200839 -0.0580636 0.00529355 0.00073137 0.00405419 -0.0554098 -0.0465085 0.0741781 -0.00730758 -0.0315946 -0.0564631 0.0228072 -0.0180194 -0.0139121 0.0652632 0.00976462 0.0377087 0.059369 -0.0489832 -0.0192456 -0.0176528 -0.0814721 -0.0107384 0.0124878 0.0158196 0.00442075 0.0429461 -0.00925927 0.0246832 0.0356865 0.00309358 -0.014786 -0.00266838 0.00165234 6.16475e-05 -0.00188094 -0.0432242 0.0134203 -0.041693 -0.0510543 0.0225903 0.021429 -0.00217352 -0.0300892 0.0218985 0.0156064 0.0200014 0.0361363 0.0590453 -0.0387707 0.0230956 0.0214077
internal_weight=7073 3674 3399 944 2730 2107 1569 2248 1105 609 214 1292 229 715 1143 1283 482 504 538 395 815 473 942 118 901 364 496 302 336 286 606 328 211 677 326 205 111 161 342 238 350 146 121 299 415 146 196 297 211 112 157 202 152 492 162 115 102 211 409 166 147 440 186 144 111 160 174 156 86 97 285 139 95 85 196 262 275 118 110 125 183 89 144 89 95 109 139 233 321 101 107 100 244 170 116 100 149 118 94 260 220 89 124 147 95 100 89 118 85 168 126
internal_count=7073 3674 3399 944 2730 2107 1569 2248 1105 609 214 1292 229 715 1143 1283 482 504 538 395 815 473 942 118 901 364 496 302 336 286 606 328 211 677 326 205 111 161 342 238 350 146 121 299 415 146 196 297 211 112 157 202 152 492 162 115 102 211 409 166 147 440 186 144 111 160 174 156 86 97 285 139 95 85 196 262 275 118 110 125 183 89 144 89 95 109 139 233 321 101 107 100 244 170 116 100 149 118 94 260 220 89 124 147 95 100 89 118 85 168 126
is_linear=0
shrinkage=0.06


Tree=6
num_leaves=112
num_cat=0
split_feature=9 8 8 9 8 9 8 9 8 9 8 8 8 9 8 8 8 8 9 8 8 8 9 8 9 5 8 8 9 5 8 8 8 5 2 9 8 9 8 1 8 5 8 9 8 8 9 8 8 4 8 6 9 9 8 9 8 8 9 3 8 6 8 5 8 8 4 8 9 9 8 8 8 2 6 8 3 8 9 3 9 8 9 9 8 9 8 2 9 1 8 5 9 9 8 2 9 2 8 2 8 2 4 8 8 9 8 6 5 6 5
split_gain=1143.79 519.232 229.361 172.005 111.075 77.2728 54.7554 45.1741 26.6261 62.4648 39.2394 24.7285 22.6762 22.272 18.5916 13.9454 13.6576 13.6245 13.4579 10.3615 10.1289 9.52783 8.8683 12.5577 8.28686 7.77127 7.92068 6.74654 6.28312 6.21664 5.51602 5.2904 5.08301 4.9691 4.83291 4.67923 4.40286 4.32108 6.76704 3.61304 4.04021 3.19033 3.18787 3.17527 4.91636 3.11957 3.09865 3.05445 3.02986 2.97825 2.89085 2.70843 2.65338 2.2611 2.09293 1.9953 1.95418 1.74238 2.20507 1.60418 1.51374 1.49423 1.37888 1.33312 1.31917 1.22114 1.18538 1.14005 1.1372 1.05873 1.04929 1.03723 0.974952 0.898151 0.87873 0.814012 0.778489 0.77112 0.746942 0.737728 0.686919 0.660586 0.643666 0.61598 0.594745 0.648591 0.58113 0.561706 0.55489 0.552304 0.544383 0.522348 0.487148 0.476938 0.639086 0.443711 0.439253 0.534917 0.42977 0.420541 0.402089 0.391147 0.381032 0.35188 0.331245 0.290931 0.219457 0.187883 0.163569 0.148517 0.132225
threshold=0.068603988736867919 -1.3927702903747556 0.73461404442787182 -0.63027289509773243 1.0119038820266726 0.24742772430181506 0.29823110997676855 -0.91914200782775868 0.47096353769302374 -0.56149452924728382 -0.41090059280395502 1.1028165221214297 -1.8155192732810972 -0.57525020837783802 -1.1609394550323484 0.54369583725929271 1.2937347292900088 0.34823118150234228 -1.2355224490165708 -0.033605223521590226 -0.83819603919982899 -1.5336830019950864 -1.4831245541572569 -0.31998524069786066 -0.29303707182407374 0.71101421117782604 0.87098571658134472 -1.851882755756378 -1.1804997920989988 1.1123438477516177 -0.7563708722591399 -1.7427870035171507 0.88007861375808727 1.1432152986526491 -0.34504343569278711 -1.125477075576782 -1.606415271759033 -1.6206812858581541 -0.7563708722591399 1.0000000180025095e-35 0.12094683200120927 1.1432152986526491 -0.82001024484634388 -0.76782962679862965 -1.1927591562271116 1.3528276681900027 1.6403004527091982 -1.2109395265579221 -0.93365514278411854 -0.63923451304435719 -1.9609784483909605 -0.39720386266708368 0.39874011278152471 -1.6344369649887083 -0.49272036552429194 1.5338048934936526 0.18913268297910693 0.56187891960144054 0.12362667545676233 0.79551240801811229 -0.18815998733043668 -1.6409085988998411 -1.4427703619003294 0.77275711297988903 0.71643367409706127 0.82552939653396618 0.57341578602790844 0.95280820131301891 0.3024504035711289 1.6802362799644472 -0.97001856565475453 -1.2745789289474485 1.5073824524879458 0.7408721148967744 0.78432005643844616 -1.6609618067741392 -0.89145144820213307 1.1710023880004885 -0.040110195055603974 -0.89145144820213307 0.93698623776435863 -0.24725564569234845 -0.75407394766807545 1.4805571436882021 0.1754933372139931 1.2143183350563052 -0.99729454517364491 0.67571672797203075 1.2941899895668032 0.67948076128959667 -1.2609450221061704 -0.52384456992149342 -0.85036364197731007 1.0607873201370241 0.6255210041999818 0.78430870175361644 0.7031398117542268 0.11104118451476098 0.98463061451911937 0.39337947964668279 1.1846389770507815 -0.71425384283065785 -0.50411303341388691 0.83916601538658153 0.63460847735404979 -1.0704543590545652 0.13912989944219592 0.84650379419326793 -0.80168840289115895 0.10028097406029703 -0.49297311902046198
decision_type=2 2 2 2 2 2 2 2 2 2 2 2 2 2 2 2 2 2 2 2 2 2 2 2 2 2 2 2 2 2 2 2 2 2 2 2 2 2 2 2 2 2 2 2 2 2 2 2 2 2 2 2 2 2 2 2 2 2 2 2 2 2 2 2 2 2 2 2 2 2 2 2 2 2 2 2 2 2 2 2 2 2 2 2 2 2 2 2 2 2 2 2 2 2 2 2 2 2 2 2 2 2 2 2 2 2 2 2 2 2 2
left_child=1 3 5 12 7 17 19 14 9 20 42 25 50 31 35 29 51 56 36 68 43 34 23 37 65 -4 41 -15 48 63 86 -5 64 66 -20 49 76 54 99 40 -12 87 -11 44 -9 46 73 -45 79 -3 -1 -6 106 60 -16 59 -2 58 -19 67 -25 -40 105 89 -26 110 -17 74 81 -47 92 -51 -71 100 -28 -36 -14 -53 -66 -24 -31 -7 -77 -61 -54 -86 -30 101 -87 -8 -37 -34 -46 -68 -95 103 -69 -98 -57 -39 -13 -27 -38 -43 -35 -23 -21 -106 -58 -60 -10
right_child=2 4 11 13 16 6 15 8 24 10 39 45 18 27 22 33 -18 57 21 52 -22 62 28 53 32 26 55 -29 30 80 -32 -33 91 104 75 90 102 38 61 -41 -42 95 -44 47 70 69 -48 -49 -50 71 -52 77 84 -55 -56 98 108 -59 109 83 -62 -63 -64 -65 78 -67 93 96 -70 72 -72 -73 -74 -75 -76 82 -78 -79 -80 -81 -82 -83 -84 -85 85 88 -88 -89 -90 -91 -92 -93 -94 94 -96 -97 97 -99 -100 -101 -102 -103 -104 -105 107 -107 -108 -109 -110 -111 -112
leaf_value=0.035670682375431063 0.032822301311152317 -0.046675365604375567 -0.013527620401391958 0.050620193568222664 -0.067648077043655677 0.068346117304592599 0.039619454417863617 -0.00028590932468484551 -0.045954190676642012 0.047780742779374122 -0.0038310750195892839 -0.00088532783472260765 -0.011065732621639037 0.097092667608261116 -0.0092398440772017768 0.013063772945431993 -0.079671053431087865 0.013712831819728018 0.030498554453946818 0.045607700452856392 -0.047760242947294744 -0.0068960406362283521 -0.046198924152959474 -0.035020285683931132 -0.01337236635972148 0.0078064849362623452 0.0036084179572323906 0.064502104292313261 -0.033917610507035116 0.055811349330764072 -0.064657872608729766 0.022099288724096756 -0.031131942818508198 0.036877950365023393 0.013829124678798177 -0.013065187009247508 -0.029189766633074453 -0.017468139506643637 -0.03465188362821936 0.0033683578501023893 -0.029952040726318952 0.025429208006130324 0.025030172544491028 -0.022794874397564235 -0.014352235057069496 -0.024473626782053282 0.0066594636855879796 -0.045303666093519754 -0.075712856959551572 -0.021502340652261458 0.016113562626298514 -0.04915893993254692 0.058387520454548023 -0.061882236870981405 -0.027489107831136173 0.018227647599966628 0.015171574684300205 -0.0097237884343621579 0.00030366299051622097 0.0019447957999072969 -0.052227839300036424 -0.051156772321442494 -0.014724958520970846 0.041292119377674838 -0.019743906101677564 -0.055733062252765746 0.027289083445283371 -0.0014773318436096554 0.073847690905703867 -0.0051541613938419946 -0.029507046156873305 -0.033277698320863039 -0.018601220608821935 -0.015491582306980523 0.014013930135310208 0.0084569627873312975 -0.0013392726215270328 -0.059405456110133842 -0.030631500358191815 -0.062380463981046907 0.042591198185438967 0.050655277371745216 -0.0013353535104542972 -0.0077703892249148332 0.058049029928796431 0.037485363921069582 -0.043558875695416895 0.0048292680416322708 0.050632253510611396 0.029442466250825989 -0.022285426589781821 -0.041557214820771834 -0.023476271205678068 0.025033169517124237 0.014971781905894255 0.016845252167969327 4.1289488192309024e-05 0.0091914714218451175 0.0096721729057825216 -0.027620414814752772 -0.0091227440368384129 0.016131641635671257 -0.020076608733534812 0.017955452653960001 0.035936889027847967 -0.00028942031765473078 0.034911629701769628 0.028450097482998742 0.022015989149190399 -0.0045296736928549675 -0.03595157021388877
leaf_weight=49 62 43 46 67 75 40 45 41 42 58 40 42 74 49 42 47 132 49 42 68 78 40 54 48 66 40 48 71 87 113 41 41 68 142 46 75 40 47 47 40 47 134 45 58 54 41 63 41 47 69 71 188 161 62 56 45 54 46 43 47 59 73 56 183 71 40 126 55 121 41 71 68 41 52 86 51 52 84 51 40 46 43 43 44 50 45 86 48 62 117 45 64 57 65 52 72 43 52 58 40 47 63 74 51 50 63 42 117 43 43 63
leaf_count=49 62 43 46 67 75 40 45 41 42 58 40 42 74 49 42 47 132 49 42 68 78 40 54 48 66 40 48 71 87 113 41 41 68 142 46 75 40 47 47 40 47 134 45 58 54 41 63 41 47 69 71 188 161 62 56 45 54 46 43 47 59 73 56 183 71 40 126 55 121 41 71 68 41 52 86 51 52 84 51 40 46 43 43 44 50 45 86 48 62 117 45 64 57 65 52 72 43 52 58 40 47 63 74 51 50 63 42 117 43 43 63
internal_value=0.000106155 -0.0231839 0.025479 0.0154959 -0.0364809 0.0377333 0.0428587 -0.0308055 -0.0220749 -0.0139849 0.0108822 0.00526373 0.000738039 0.0606425 -0.0392408 0.0347162 -0.0627 0.0115121 -0.00416771 0.0569826 -0.0282898 0.00347904 -0.0439024 -0.0382742 -0.0329692 0.0102452 0.0115 0.0785519 -0.0512718 0.042144 -0.0441954 0.0401499 -0.0273635 0.0283965 0.0128329 -0.0262363 -0.0150267 -0.0307647 -0.0357587 -0.0113802 -0.0181906 0.0176417 0.0382351 -0.0234216 -0.019221 -0.00890374 -0.00427712 -0.0325365 -0.0615828 -0.0324146 0.0243778 -0.0560165 0.051309 -0.0515309 -0.0199009 0.00621936 0.0242684 0.000201533 0.00367424 0.00414346 -0.0449599 -0.0450817 -0.00720365 0.0373019 -0.0207532 -0.0450273 0.0225308 0.00636582 0.0685485 -0.0164324 -0.023429 -0.0275893 -0.0120931 -0.00921841 0.0103854 0.00731188 -0.00714103 -0.0525513 -0.0245561 -0.053732 0.0523143 0.0599646 0.00394744 -0.00272084 0.0543932 0.0499156 -0.0389677 0.0105337 0.045557 0.0325319 -0.016728 -0.0365062 -0.0192589 0.0242763 0.0207771 0.0217377 0.00269029 0.00515588 0.013607 -0.0224649 -0.00535512 0.0130624 -0.0235524 0.0235087 0.0337917 -0.00295443 0.0419291 0.0309279 0.0184606 -0.00206833 -0.040405
internal_weight=6966 3632 3334 929 2703 2075 1735 2224 1095 630 230 1259 701 228 1129 1103 479 340 581 632 400 341 829 474 465 932 886 120 355 504 214 108 320 599 182 300 240 305 207 127 87 408 103 322 223 327 204 99 141 180 120 347 428 169 98 478 159 181 135 375 107 120 159 345 188 145 290 284 204 123 182 137 82 141 134 140 126 272 122 94 159 83 94 91 318 157 173 151 107 162 120 132 111 243 117 257 150 95 103 87 89 103 114 185 309 103 110 167 97 86 105
internal_count=6966 3632 3334 929 2703 2075 1735 2224 1095 630 230 1259 701 228 1129 1103 479 340 581 632 400 341 829 474 465 932 886 120 355 504 214 108 320 599 182 300 240 305 207 127 87 408 103 322 223 327 204 99 141 180 120 347 428 169 98 478 159 181 135 375 107 120 159 345 188 145 290 284 204 123 182 137 82 141 134 140 126 272 122 94 159 83 94 91 318 157 173 151 107 162 120 132 111 243 117 257 150 95 103 87 89 103 114 185 309 103 110 167 97 86 105
is_linear=0
shrinkage=0.06


Tree=7
num_leaves=109
num_cat=0
split_feature=9 5 9 7 7 9 6 5 7 6 9 7 1 7 4 9 1 7 0 9 9 3 4 9 9 9 9 9 7 0 6 9 3 0 4 4 3 7 6 7 9 3 9 9 3 9 1 0 0 9 1 0 3 5 7 9 7 6 4 9 1 3 7 0 3 9 9 6 7 5 3 0 3 7 0 7 9 7 6 4 7 0 7 4 5 6 7 4 9 9 7 3 9 3 4 6 9 9 3 3 5 4 6 3 0 7 3 9
split_gain=1012.61 316.068 122.019 120.738 86.1589 45.8458 43.823 29.049 28.5436 64.0268 24.2461 24.1652 23.0787 19.8731 13.447 12.3679 11.0776 10.8179 8.0055 7.19989 6.59085 6.20869 5.84779 5.42404 4.67358 4.63869 4.21232 4.11676 3.99757 3.65779 4.30551 3.61964 3.56918 3.55298 6.50822 2.92159 2.90513 2.87284 2.82912 2.71355 2.44523 3.66345 2.13487 1.98171 1.82147 1.80116 1.77386 1.7063 1.66202 1.58724 1.5405 1.30208 1.27585 1.22733 1.2262 1.21643 1.8276 1.1472 1.35937 1.2312 1.08394 1.44921 1.28154 1.22103 1.06299 1.01738 1.00006 0.949542 0.921542 0.993783 0.913344 0.875962 0.860844 0.728135 0.670623 0.712509 0.640906 0.618654 0.616086 0.61481 0.704877 0.605911 0.520734 0.562372 0.490726 0.485958 0.470428 0.42652 0.420805 0.420318 0.413365 0.707743 0.412596 0.660259 0.404687 0.378996 0.33885 0.379436 0.321524 0.311168 0.244648 0.238372 0.216496 0.74439 0.170181 0.102381 0.0221192 0.0199025
threshold=0.068603988736867919 -1.2030172944068906 -0.64402857422828663 0.24665692448616031 0.89840203523635875 1.4805571436882021 -1.3921675682067869 -0.55471602082252491 0.14638768136501315 -0.64594480395317067 -0.57525020837783802 -1.4913316965103147 0.41595189273357397 -0.32153214514255518 -0.70610728859901417 -0.1865415424108505 -0.90169563889503468 -1.0735465288162229 0.1279941909015179 0.041092643514275558 0.24742772430181506 -1.3131957650184629 -0.47033214569091791 -1.6206812858581541 -0.67153990268707264 0.93698623776435863 -1.0979657173156736 1.6669243574142458 -0.8562977910041808 0.14964788407087329 -1.0812399387359617 -0.33297289907932276 -0.18854984268546102 0.34453167021274572 -0.57167378067970265 0.068087762221694006 -0.18854984268546102 0.16309889405965808 -1.0190532207489011 0.76471036672592174 -1.125477075576782 -0.32913015782833094 -0.10666989907622336 1.0195202827453616 0.092610801570117487 -1.4693688750267027 1.4700673818588259 0.21460897475481036 0.1279941909015179 0.86820790171623241 1.4700673818588259 0.32287797331810003 0.5143517702817918 -0.89430275559425343 -1.6417346000671384 1.5338048934936526 0.83155623078346264 0.84650379419326793 1.2131794691085818 0.68938416242599498 0.67948076128959667 -1.0320318043231962 0.64773091673851024 0.21460897475481036 -0.89145144820213307 -1.304300785064697 -0.14660571515560147 1.530542850494385 -1.4746205210685728 -1.2647601962089536 1.7795746922492983 0.21460897475481036 -0.75087112188339222 0.71457675099372875 0.25791636854410177 0.59759628772735607 0.50878548622131359 0.96524789929389965 0.78432005643844616 -0.33589969575405115 -0.98998847603797901 0.21460897475481036 0.78142258524894725 -0.10012559592723845 0.92711439728736889 0.16246472299098971 0.71457675099372875 -0.73988714814186085 1.6935482025146487 -1.5931699275970457 0.86497962474823009 -1.4537760615348814 1.1708326339721682 0.5143517702817918 1.1793985962867739 1.1574285030364992 1.2542541623115542 1.4273093938827517 -0.46971046924591059 0.092610801570117487 0.98885804414749157 1.2131794691085818 -0.64594480395317067 -0.75087112188339222 0.25791636854410177 0.93182444572448742 0.092610801570117487 1.2143183350563052
decision_type=2 2 2 2 2 2 2 2 2 2 2 2 2 2 2 2 2 2 2 2 2 2 2 2 2 2 2 2 2 2 2 2 2 2 2 2 2 2 2 2 2 2 2 2 2 2 2 2 2 2 2 2 2 2 2 2 2 2 2 2 2 2 2 2 2 2 2 2 2 2 2 2 2 2 2 2 2 2 2 2 2 2 2 2 2 2 2 2 2 2 2 2 2 2 2 2 2 2 2 2 2 2 2 2 2 2 2 2
left_child=1 2 24 20 6 7 23 53 9 11 102 21 16 28 18 31 25 29 -13 36 -2 -8 71 32 68 49 33 55 -11 40 -31 -6 -3 34 -23 48 -10 85 -32 95 99 -42 66 73 104 89 60 -33 -14 90 -39 52 79 -5 65 94 101 59 98 78 62 -62 -37 76 77 -36 -17 105 -1 -70 -29 -19 -63 -27 75 -55 -64 -61 -41 80 -24 -51 83 -38 -65 -22 -76 -12 -72 -25 91 -9 -74 -94 -7 -18 107 -98 -59 -16 -75 -57 -4 -104 -40 -58 -34 -95
right_child=3 4 10 5 15 27 8 12 19 13 87 14 35 -15 17 42 39 22 -20 -21 37 26 51 45 -26 43 -28 70 -30 30 38 47 106 -35 54 46 82 50 44 57 41 -43 -44 -45 -46 -47 -48 -49 -50 81 -52 -53 -54 74 -56 56 67 58 -60 64 61 72 63 84 -66 -67 -68 -69 69 -71 88 -73 92 100 86 -77 -78 -79 -80 -81 -82 -83 -84 -85 -86 -87 -88 -89 -90 -91 -92 -93 93 96 -96 -97 97 -99 -100 -101 -102 -103 103 -105 -106 -107 -108 -109
leaf_value=-0.0070902422846473283 0.02607328338626512 -0.019331030342367383 0.026574480733145833 0.011514886671114105 -0.038789232583240019 0.0043692512467969208 0.008537368344871895 0.032373119257898493 -0.024418192960219836 0.050888492353382608 0.058701261889675387 -0.029699568097637248 0.03012294533670596 -0.0081655176082818665 -0.025343156861606982 -0.03656130790042466 0.025259393074549732 -0.035641628546542237 -0.062811006055158727 -0.01093882241821848 0.048580376002564006 -0.038837422019279581 -0.026402854237366803 -0.049185015866973179 0.0049793243577768067 0.021515320043281338 0.0068173697599005411 -0.013176260880678891 0.02517490142546594 -0.028960050499740431 0.0030385620342736892 -0.046005840898288977 -0.033730309217988724 -0.00028039271826461214 -0.013805051407414939 0.038064417715583526 -0.039560525159082476 0.035494797969487173 -0.020520786991940352 0.0064669321623254334 -0.026654573228338266 -0.008025362637467108 -0.027849037543061325 0.028992541122388964 -0.0051500344028194934 -0.055198069125833651 0.046098901681105295 -0.062413659343779071 0.01618543880947039 0.040363975133168799 0.050289904032088814 -0.016733714725501062 -0.019792660016047632 0.0054964223493589089 -0.019594791659014295 0.010106658202298122 0.0011723124729469418 0.014376839241385459 0.0045604356905179361 0.0021509752348065373 0.044849478160386737 0.02339135444797575 0.025202177803328427 0.027334249050402246 -0.0032239647296362747 -0.0032580259003318272 -0.048467276983615012 0.0096232601260708168 -0.021736528625998359 -0.0097623843930661671 0.0015552172624937644 -0.050207986085338795 0.038591784657158248 0.0079667927256086846 0.0027759133679348797 -0.0039647636412524848 0.037659749188653703 0.01265663509919893 0.016185562389414206 -0.025643630367612628 -0.03910461413823068 0.030035079012066125 -0.04366687696624328 -0.031410727540031068 0.018780256411543596 0.057606665081174221 0.010975294108720536 0.074211744546890265 -0.0069184733469571389 -0.039621572572122593 0.020698114062381253 0.020431441400732313 0.024309236860724493 0.032254616396685296 -0.0029884640703924364 0.016276691847592589 0.042780560578846806 0.03270334079169801 0.022496181632791247 -0.035711443165583265 0.014175219609379404 0.016255946660446455 0.026810121305832046 0.040302990168977496 -0.014162195424268279 -0.0028904714293777941 -0.040734134562619741 0.025133887056352156
leaf_weight=46 42 61 45 85 42 47 68 65 72 40 45 64 68 57 47 86 51 56 50 47 90 40 43 54 57 44 40 49 59 46 54 45 82 58 73 55 134 66 52 46 79 77 60 46 77 70 44 249 70 57 79 57 69 47 59 67 41 64 41 42 54 44 43 60 52 64 79 47 77 44 40 46 103 47 62 70 52 42 60 91 59 89 101 97 80 256 46 82 41 167 76 41 50 70 60 49 48 83 41 41 81 57 40 55 57 44 72 40
leaf_count=46 42 61 45 85 42 47 68 65 72 40 45 64 68 57 47 86 51 56 50 47 90 40 43 54 57 44 40 49 59 46 54 45 82 58 73 55 134 66 52 46 79 77 60 46 77 70 44 249 70 57 79 57 69 47 59 67 41 64 41 42 54 44 43 60 52 64 79 47 77 44 40 46 103 47 62 70 52 42 60 91 59 89 101 97 80 256 46 82 41 167 76 41 50 70 60 49 48 83 41 41 81 57 40 55 57 44 72 40
internal_value=9.75715e-05 -0.0218162 0.022909 0.0239712 -0.0288146 0.0189742 -0.0241592 0.0225209 -0.020273 -0.0165369 0.050233 -0.0204259 0.0251723 0.0198938 -0.0251575 -0.0501328 0.0188983 -0.0227647 -0.0446942 -0.0336384 0.0501352 -0.00784447 -0.0299777 -0.0400047 -0.00971199 0.0247831 -0.0112131 0.00234612 0.0360292 -0.0169782 -0.0122534 -0.0575656 -0.0323321 -0.0137014 -0.0169594 0.0318691 -0.0362308 0.0521241 -0.00891946 0.0122645 -0.0224192 -0.0176073 -0.0388009 0.0177791 -0.0124209 -0.0455228 0.0332697 -0.0600871 0.0232637 0.0293519 0.0438859 -0.0257727 -0.0276453 0.00538692 -0.0122895 0.00563354 0.0078723 0.00991772 0.0141692 0.00728034 0.0324823 0.0344392 0.0290346 0.0267434 0.00340042 -0.00898076 -0.0425555 0.00286528 -0.0147619 -0.0175472 -0.0067605 -0.0426927 0.0330429 0.0145952 0.00300465 -9.88978e-05 0.0324048 0.0075615 0.012124 -0.0303052 -0.0341165 0.0343556 -0.0386935 -0.0363143 0.0226567 0.0554228 0.00639194 0.0692643 -0.00269283 -0.0421964 0.0251394 0.0280444 0.0340436 0.0322865 0.000198405 0.021122 0.0338095 0.0367373 0.0177862 -0.0305882 0.0120215 0.0130888 0.0325575 0.0350227 -0.0174092 -0.000870164 -0.0372852 0.0299691
internal_weight=6966 3632 491 3334 3141 2801 2580 2308 2074 1623 267 1467 1998 156 1065 561 1034 951 114 451 533 402 421 506 224 546 334 493 99 530 286 336 215 294 236 964 404 491 240 488 244 156 225 218 186 291 826 294 138 328 145 319 262 310 196 363 256 388 146 242 782 492 290 235 136 137 165 132 167 121 130 102 438 172 225 117 95 84 106 193 102 146 332 231 140 346 108 127 81 221 182 106 394 291 107 100 241 131 105 88 128 124 140 95 109 85 154 110
internal_count=6966 3632 491 3334 3141 2801 2580 2308 2074 1623 267 1467 1998 156 1065 561 1034 951 114 451 533 402 421 506 224 546 334 493 99 530 286 336 215 294 236 964 404 491 240 488 244 156 225 218 186 291 826 294 138 328 145 319 262 310 196 363 256 388 146 242 782 492 290 235 136 137 165 132 167 121 130 102 438 172 225 117 95 84 106 193 102 146 332 231 140 346 108 127 81 221 182 106 394 291 107 100 241 131 105 88 128 124 140 95 109 85 154 110
is_linear=0
shrinkage=0.06


Tree=8
num_leaves=112
num_cat=0
split_feature=9 8 8 8 9 9 9 8 8 9 8 8 8 8 9 8 8 8 9 8 9 8 9 8 5 0 9 8 8 9 9 8 8 5 8 5 5 6 8 9 8 8 0 9 9 8 9 9 8 8 9 3 8 6 8 9 0 8 3 3 1 3 5 8 9 0 2 6 8 2 8 5 8 5 2 3 0 9 3 3 9 8 8 9 2 8 8 8 8 1 9 9 9 0 1 0 8 8 8 8 8 5 5 2 9 3 9 9 9 9 5
split_gain=895.972 426.448 195.896 109.193 99.96 57.467 50.0696 40.4 38.649 39.79 30.9986 29.3881 23.1051 14.3449 13.7946 11.7355 11.0558 10.5089 11.5091 10.2037 9.29614 9.23808 7.78963 6.90255 6.48712 6.22637 6.18276 7.93346 6.44836 5.74086 7.78778 5.60034 5.57253 5.25061 5.19736 5.33409 5.01894 3.91622 3.81798 3.57443 3.1874 2.94449 2.87967 2.86954 2.80936 2.70938 2.41888 2.41851 2.40096 2.32887 1.96708 1.74861 1.7422 1.6817 2.54725 1.89044 2.81177 1.53229 1.44591 1.34478 1.23038 1.22884 1.19843 1.53359 1.1695 1.15894 1.0857 1.07546 1.07224 1.07192 1.06675 1.19446 1.06008 1.01196 0.988463 1.84514 0.908022 0.889715 0.875088 0.801483 0.732635 0.725078 0.668711 0.668137 0.667669 0.665545 0.664032 0.556012 0.543035 0.532864 0.52318 0.518426 0.461534 0.456852 0.436746 0.471096 0.437758 0.397587 0.382638 0.367302 0.319538 0.393928 0.292699 0.247646 0.219943 0.209632 0.206896 0.183482 0.135627 0.238741 0.130679
threshold=0.082359660416841521 -1.5336830019950864 0.73461404442787182 0.95735192298889171 -0.63027289509773243 0.23367205262184146 -0.80909663438796986 0.29823110997676855 0.40732413530349737 -0.57525020837783802 -0.62909206748008717 -1.0882071852684019 1.1028165221214297 1.280098080635071 -0.56149452924728382 -1.1245733499526975 0.54369583725929271 -1.9109783768653867 -1.2355224490165708 -0.033605223521590226 -0.29303707182407374 0.29823110997676855 -1.1529884338378904 -0.065424922853708253 1.1123438477516177 0.27957032620906835 -1.6206812858581541 -0.86546930670738209 -0.30180215835571284 -0.94665333628654469 -1.4968802332878111 0.71643367409706127 -1.9109783768653867 1.1123438477516177 0.87098571658134472 1.0197294950485232 0.18619880080223086 -0.39720386266708368 -0.20179661363363263 -0.42615647614002222 1.3028275966644289 -1.3427647948265073 0.14964788407087329 0.39874011278152471 -1.4281018972396848 -1.6791476011276243 1.6403004527091982 -1.1117213964462278 -1.3609505891799925 -1.1245733499526975 1.5338048934936526 1.0766730904579165 -1.3291308879852293 -1.7030923366546629 -0.57908928394317616 -1.5243915915489195 0.21460897475481036 -1.6609618067741392 0.79551240801811229 0.092610801570117487 1.2065384984016421 1.6389943361282351 1.1123438477516177 0.96644482016563427 1.2143183350563052 0.27957032620906835 -0.60566291213035572 0.90868753194808971 -1.851882755756378 -0.21473368257284162 0.48914931714534765 -0.80168840289115895 1.0391771197319033 0.74188566207885753 0.34994289278984075 -0.32913015782833094 0.25791636854410177 1.1979002952575686 0.3737714439630509 1.0000000180025095e-35 1.2808780670166018 0.18913268297910693 1.1710023880004885 1.2808780670166018 0.43681606650352484 0.88007861375808727 1.4664725661277773 0.61642810702323925 1.1846389770507815 1.0000000180025095e-35 1.4805571436882021 0.93698623776435863 -0.75407394766807545 0.21460897475481036 -1.9558143019676206 0.06303309835493566 0.83916601538658153 0.59824231266975414 -1.4609534144401548 -0.22452342510223386 0.60733523964881908 1.2358296513557436 -0.55471602082252491 0.76258990168571483 0.3024504035711289 1.6389943361282351 -1.441857576370239 1.0607873201370241 0.53629684448242199 1.1708326339721682 1.5136727094650271
decision_type=2 2 2 2 2 2 2 2 2 2 2 2 2 2 2 2 2 2 2 2 2 2 2 2 2 2 2 2 2 2 2 2 2 2 2 2 2 2 2 2 2 2 2 2 2 2 2 2 2 2 2 2 2 2 2 2 2 2 2 2 2 2 2 2 2 2 2 2 2 2 2 2 2 2 2 2 2 2 2 2 2 2 2 2 2 2 2 2 2 2 2 2 2 2 2 2 2 2 2 2 2 2 2 2 2 2 2 2 2 2 2
left_child=1 4 5 6 17 21 11 19 9 15 49 22 34 37 32 48 24 -1 45 60 89 81 41 26 43 57 28 29 79 30 -28 97 -6 73 35 51 104 -5 -12 -40 46 69 74 -9 -43 65 88 106 98 -11 58 -4 -44 -29 55 -55 -57 -20 62 -50 -7 -42 -36 67 108 -19 -58 110 -16 -3 71 -23 -52 -18 -24 -76 -15 -38 -31 -13 -66 -2 -39 -79 -47 102 -63 105 -14 -10 -60 -26 -59 -65 -37 -96 103 -22 -8 -62 -35 -102 -33 -97 -21 -75 -32 -89 -45 -110 -64
right_child=2 3 12 13 14 7 8 16 20 10 38 23 40 76 68 -17 33 18 25 36 31 70 42 -25 91 -27 27 53 -30 78 47 85 -34 100 50 94 77 82 39 -41 61 44 52 64 -46 84 -48 -49 59 -51 72 -53 -54 54 -56 56 66 92 90 -61 99 86 63 93 80 -67 -68 -69 -70 -71 -72 -73 -74 87 75 -77 -78 83 -80 -81 -82 -83 -84 -85 -86 -87 -88 107 -90 -91 -92 -93 -94 -95 95 96 -98 -99 -100 -101 101 -103 -104 -105 -106 -107 -108 -109 109 -111 -112
leaf_value=0.029178095551936518 0.030035087202421637 -0.012942610976450584 -0.0037306144803407647 -0.060858649322717659 0.059656161563023918 0.049721543108224867 0.00029148005768989344 0.01737182979262434 -0.043014726624610908 0.051509195997118951 0.011799066627398132 -0.0092963305848029754 -0.0039481181550154489 -0.062543772952197346 0.086498500032858402 -0.041768452022468941 0.010850747762193138 -0.0042849410077950992 0.016498898817991305 0.027883375818425031 -0.002921502761542797 -0.0019997876379638907 -0.025098259692435912 -0.062415511312229298 0.050941207926687992 0.035106624207326347 -0.014892032345968554 -0.032575333396097021 -0.038515036784363597 -0.026568413464639049 -0.043185346817597746 -0.017923503023705309 0.031971213172963801 0.035215431147016758 -0.0042627657070528546 0.011515338780482611 0.056727716662704132 -0.042443052157445482 -0.019638355336653496 0.0031675999628657352 -0.022978288156195324 -0.020767800775901325 0.0030867669424042106 0.033543785592541092 -0.038830203274057971 -0.0083137080015328081 0.0077306525807082655 -0.034613465014558573 -0.024642792379595338 0.030695067949098296 0.016187216885639604 0.010015372847020627 -0.012205725883226843 -0.031495118533808958 -0.057652008499132427 -0.038175772979254681 -0.044211715209411404 0.0076523463503286549 0.00033519377451839632 -0.0093043568126325096 0.072560592805752985 -0.006921657481376315 0.0091310128685744372 0.0054109189175568255 0.022082447358335439 0.0076393474146248174 -0.06251266248106957 0.018405430234644724 0.064461414410624376 -0.024650245938370834 -0.0043863527503609657 0.010259273182251491 0.0040060832251117302 0.029081226873025296 -0.023713820547741998 -0.0085716521306471397 -0.078399519195159278 0.038903556005635727 -0.015565102640344677 -0.020714022030485633 0.034080005549878438 0.018346328402853614 -0.051699112222790722 0.048861510102787324 -0.019171003110706804 -0.029958044816485858 -0.016696435393961574 0.020316001333924399 -0.011961105596976445 -0.032506949927793405 -0.0083309894158223336 0.038965146430970536 -0.00078617131068956024 -0.0019488778616122615 0.011919343081189365 0.02336685220030172 0.014848684206604958 -0.011158989790123792 -0.0074994789019544074 0.059409567717380901 0.023760646295830488 0.03105580132485081 -0.025307427403476572 0.016462817642169638 0.036728241164651176 0.020501690848204104 -0.055256297645427416 0.0144256579743634 0.042847781397321302 0.032857976434882294 0.0041534317459141759
leaf_weight=68 43 50 62 81 49 49 41 43 82 49 47 44 70 72 43 60 50 77 55 46 43 50 54 41 114 41 43 44 88 77 47 62 70 85 42 44 72 248 51 46 51 52 47 95 107 51 49 77 49 47 73 69 59 50 81 92 40 48 57 41 60 63 50 55 51 46 49 45 42 93 74 63 43 44 50 76 71 70 54 58 52 58 74 185 41 87 48 85 60 60 42 45 42 64 40 129 63 48 46 90 70 155 68 45 80 45 58 57 91 42 45
leaf_count=68 43 50 62 81 49 49 41 43 82 49 47 44 70 72 43 60 50 77 55 46 43 50 54 41 114 41 43 44 88 77 47 62 70 85 42 44 72 248 51 46 51 52 47 95 107 51 49 77 49 47 73 69 59 50 81 92 40 48 57 41 60 63 50 55 51 46 49 45 42 93 74 63 43 44 50 76 71 70 54 58 52 58 74 185 41 87 48 85 60 60 42 45 42 64 40 129 63 48 46 90 70 155 68 45 80 45 58 57 91 42 45
internal_value=0.000184264 -0.0202986 0.0225144 -0.0299697 0.0228408 0.0340257 -0.0245557 0.0380571 -0.0135176 -0.0015945 0.0155803 -0.031222 0.00434701 -0.0542425 0.0577978 -0.0190043 0.0310967 0.00753233 0.00378335 0.049981 -0.0261113 0.00909898 -0.0206138 -0.0378014 0.0374281 0.0146822 -0.0366081 -0.0392297 -0.0265984 -0.0326233 -0.0385226 -0.0201004 0.043823 0.025323 0.00907944 0.0137798 0.0447159 -0.048139 -0.00202732 -0.00883997 -0.00905671 -0.0273583 -0.0134007 0.0328639 -0.0331272 -0.005642 -0.0034634 -0.043961 -0.0110627 0.0418023 0.00493183 0.00348521 -0.00540354 -0.0457094 -0.0474325 -0.0435901 -0.0467069 0.00866505 0.00290183 -0.0179002 0.0616527 -0.015141 0.00497492 0.00650663 0.0348001 0.000151806 -0.0549368 0.0107474 0.0765555 -0.0207166 0.00113632 0.00481232 0.0117959 0.019195 -0.0180211 -0.0147671 -0.0709476 0.0487912 -0.0222304 -0.0159851 0.0284666 0.0236272 -0.0447423 0.046314 -0.0133709 -0.0253381 -0.0113135 0.0209207 -0.0077553 -0.0388751 -0.00332791 0.047854 0.00368307 0.00141945 0.0179384 0.018892 0.0199886 -0.00740583 -0.00379811 0.0651554 0.0307789 0.0289279 -0.0219954 0.0217199 0.0337914 0.0250859 -0.0503681 0.0181109 0.0374982 0.0400066 0.00690354
internal_weight=7050 3677 3373 3004 673 2064 2458 1776 927 477 240 1531 1309 546 204 237 1124 469 401 652 450 288 588 943 533 186 902 712 190 356 225 308 119 591 968 452 453 403 144 97 341 302 286 374 159 215 179 182 177 96 516 131 106 356 312 231 181 145 400 90 199 162 301 259 331 123 89 140 85 143 187 113 116 281 180 126 143 327 131 102 103 101 322 255 92 217 111 231 130 142 99 159 90 119 321 277 237 91 87 150 310 225 130 174 126 89 105 142 228 133 95
internal_count=7050 3677 3373 3004 673 2064 2458 1776 927 477 240 1531 1309 546 204 237 1124 469 401 652 450 288 588 943 533 186 902 712 190 356 225 308 119 591 968 452 453 403 144 97 341 302 286 374 159 215 179 182 177 96 516 131 106 356 312 231 181 145 400 90 199 162 301 259 331 123 89 140 85 143 187 113 116 281 180 126 143 327 131 102 103 101 322 255 92 217 111 231 130 142 99 159 90 119 321 277 237 91 87 150 310 225 130 174 126 89 105 142 228 133 95
is_linear=0
shrinkage=0.06


Tree=9
num_leaves=110
num_cat=0
split_feature=6 8 8 8 6 8 1 8 8 5 1 8 8 6 8 6 8 8 5 8 4 7 3 8 4 8 8 5 8 6 8 8 7 8 5 5 8 8 7 8 8 0 7 1 5 5 6 8 7 8 7 8 3 8 0 5 0 8 8 3 8 5 8 3 3 5 3 1 6 7 8 4 7 3 5 8 7 8 6 8 7 8 4 7 7 6 4 0 8 4 0 4 1 4 5 8 5 8 5 8 3 7 5 0 7 7 7 5 7
split_gain=711.011 339.914 185.874 120.032 91.2837 79.7738 71.3753 39.6733 35.3342 25.242 22.3753 21.5391 21.4222 12.6508 12.474 12.0645 11.4514 10.9549 10.2065 9.08724 9.00244 8.78225 8.38018 8.29332 12.4778 7.80763 7.18525 7.079 5.4314 5.41271 5.38074 4.81862 9.16644 4.40534 4.1421 4.13877 3.85286 3.42 3.37507 4.17947 3.16997 3.14489 2.97698 2.97149 2.87543 2.80517 2.28944 1.94483 1.93097 1.87536 1.78509 1.7823 1.75658 1.70813 1.67904 1.75476 1.59152 1.40143 1.3474 1.31362 1.28823 1.80463 1.18341 1.08505 1.05228 1.02625 0.941125 1.79515 0.861206 0.812912 0.792376 0.792291 0.785623 0.743602 0.710688 0.704916 0.693884 1.24195 0.64713 0.622715 0.588963 0.586474 0.55287 0.548988 0.539251 0.509458 0.874348 0.508661 0.455407 0.440731 0.417836 0.382717 0.371932 0.350312 0.312853 0.296602 0.293371 0.277922 0.340858 0.255513 0.376521 0.218071 0.186289 0.178552 0.375982 0.267147 0.131847 0.0659217 0.0228389
threshold=0.038097223732620485 -1.5336830019950864 0.73461404442787182 0.95735192298889171 -0.70812854170799244 0.40732413530349737 1.0000000180025095e-35 0.29823110997676855 -1.0882071852684019 0.24794243276119235 1.0000000180025095e-35 -2.0018910169601436 0.97553768754005443 -1.0812399387359617 1.2028220891952517 -0.27283042669296259 0.54369583725929271 -0.033605223521590226 0.18619880080223086 0.71643367409706127 -0.60545364022254933 -1.1905260086059568 0.092610801570117487 -0.010878414381295441 -0.67232638597488392 -0.12452058866620062 -1.7655137777328489 0.74188566207885753 -0.54726958274841297 -1.0812399387359617 1.3028275966644289 -0.86546930670738209 -0.72260615229606617 -1.6791476011276243 1.1123438477516177 1.1123438477516177 -1.3427647948265073 -1.7200601696968076 -1.2239483594894407 -1.3427647948265073 0.46187606453895574 0.23626267164945605 -1.1905260086059568 -0.37463472038507456 1.7915164828300478 1.1432152986526491 -0.39720386266708368 0.87098571658134472 0.58088508248329174 0.54369583725929271 -0.98998847603797901 1.380103647708893 -0.61029079556465138 0.83007311820983898 0.25791636854410177 -0.64733111858367909 0.27957032620906835 1.1846389770507815 -1.2109395265579221 1.0000000180025095e-35 -0.22452342510223386 -0.46210168302059168 0.45278316736221319 1.6389943361282351 1.0000000180025095e-35 1.3901869058609011 0.3737714439630509 -0.63816359639167775 -0.64594480395317067 0.51403927803039562 0.20731303840875628 -0.47033214569091791 0.73128795623779308 -0.32913015782833094 -0.70907405018806446 0.61642810702323925 0.46390463411808019 0.098220024257898345 -0.8946857452392577 0.88007861375808727 0.8148450255393983 1.4664725661277773 -0.47033214569091791 -0.30482093989849085 -1.3910624980926511 0.90868753194808971 1.1456176638603213 0.34453167021274572 0.22095237672328952 0.33764275908470159 0.27957032620906835 -0.10012559592723845 -0.37463472038507456 0.842971831560135 1.5136727094650271 1.0119038820266726 -0.55471602082252491 0.60733523964881908 1.2358296513557436 0.38459731638431555 1.0000000180025095e-35 0.91511324048042308 0.92711439728736889 0.084686793386936202 0.91511324048042308 0.76471036672592174 -1.5916000008583067 0.83450001478195202 -0.53877985477447499
decision_type=2 2 2 2 2 2 2 2 2 2 2 2 2 2 2 2 2 2 2 2 2 2 2 2 2 2 2 2 2 2 2 2 2 2 2 2 2 2 2 2 2 2 2 2 2 2 2 2 2 2 2 2 2 2 2 2 2 2 2 2 2 2 2 2 2 2 2 2 2 2 2 2 2 2 2 2 2 2 2 2 2 2 2 2 2 2 2 2 2 2 2 2 2 2 2 2 2 2 2 2 2 2 2 2 2 2 2 2 2
left_child=1 6 7 4 8 10 11 17 29 40 23 -1 27 37 46 72 35 60 70 49 -15 41 52 24 28 31 -8 -4 -6 38 44 50 78 68 75 69 54 56 39 106 74 -10 58 73 57 53 -5 103 88 -17 64 -16 -12 90 55 -31 -13 65 84 -44 -2 -62 -37 -32 -23 -14 67 -52 -22 -11 89 -35 -7 -34 -9 102 77 -20 -33 96 -55 -65 -39 108 -38 101 -87 -75 -24 -19 -29 -51 -77 -67 -95 -48 -21 -36 -99 -71 -101 -49 -18 -47 105 -105 -3 -94 -45
right_child=2 3 12 14 5 15 26 9 21 16 22 13 30 20 51 19 34 18 76 79 33 25 48 -25 -26 -27 -28 45 -30 36 63 32 43 71 97 62 42 82 -40 -41 -42 -43 59 83 -46 47 95 85 -50 91 66 -53 -54 80 -56 -57 -58 -59 -60 -61 61 -63 -64 81 -66 93 -68 -69 -70 99 -72 -73 -74 87 -76 92 -78 -79 -80 -81 -82 -83 -84 -85 -86 86 -88 -89 -90 -91 -92 -93 107 94 -96 -97 -98 98 -100 100 -102 -103 -104 104 -106 -107 -108 -109 -110
leaf_value=0.046753696515567988 0.065297775384746015 -0.024243324681026177 -0.013846443989564005 -0.054822442812379447 0.035751320538026363 -0.040737371332159163 0.072674913404716379 0.0051199979215691034 -0.040630742358810756 0.028061826157550422 0.028273395485029766 -0.0021148771203762448 -0.0071818491999409168 0.039167086009374429 -0.057183427573089869 0.0053478005935437981 0.019432026399380485 0.033612159145289457 0.051382022577765828 -0.01645098730808367 0.014750690093425951 -0.036353463447374015 0.013921128309204837 -0.021898025879206563 -0.013258484144979816 -0.05336528809303822 0.041744494490755284 0.014409156489009192 0.0054257152251454745 -0.0047632257766952665 -0.021626104274883311 -0.050632873103170113 -0.014051171663047916 -0.0041682200696228477 0.033127074164923193 0.053029571516591989 -0.014110433649415006 -0.01621680963486433 -0.0098451640318546977 -0.039387428040188896 -0.0066087434237269921 -0.062159611705048329 -0.018057181595235453 -0.03022816571939823 0.011695353575331986 0.01283891740138101 -0.033170746237916104 0.0030743287896116572 0.025568585426914828 -0.012727365618695816 -0.02964930444712249 -0.072206872935295097 0.045361385751210272 -0.0026911719619984857 0.0016850962644937085 -0.017891909124329686 0.011912244141540107 -0.011036498696789803 -0.031550618001818652 -0.0044290741125153285 0.042914777186654859 0.061941276530636115 0.039621880106404425 -0.0065128470904310233 -0.022882250829302564 -0.0024727496221737077 -0.013251462180465461 -0.013854769131763185 0.026668454004318581 0.041238600444681237 0.01807695456230363 0.0062646549338815916 -0.030022869007041056 -0.018635062556622957 0.016415338674898854 0.01965877887457609 0.052712421443033966 0.039894499606114221 -0.040293782502477025 -0.027938930350485482 0.0062381674293212081 -0.015715094001469563 -0.0068076900141935889 -0.026293783515058455 -0.023422584031544184 0.017230061274514916 0.0064564714685504164 -0.029991899817166 0.0047165657649220101 0.0231879975568989 0.0061960409342549563 -0.004257247604429722 0.010200106797496909 -0.00015852526126100737 0.0055542482409431642 -0.041969346083170996 -0.023682708716661224 0.022355087025720675 0.029204397759471951 0.028357704993324632 0.037008093013793604 0.009073380412460353 0.026757569999180057 0.019197607787182318 0.023169666516925057 0.013410824403779793 -0.017375001143278748 0.014898428883021031 -0.03787041183643871
leaf_weight=56 78 40 40 63 43 75 80 43 67 133 51 66 79 50 141 54 68 57 73 68 68 70 43 51 68 68 51 66 43 80 51 100 43 40 85 60 51 44 41 84 63 57 48 42 52 42 50 44 42 44 77 74 60 68 48 71 50 67 59 58 62 46 99 63 46 73 49 46 41 52 42 70 80 40 43 64 79 175 86 78 42 48 57 49 67 67 52 43 42 45 42 41 45 67 66 210 60 70 155 72 78 56 43 93 61 78 57 55 107
leaf_count=56 78 40 40 63 43 75 80 43 67 133 51 66 79 50 141 54 68 57 73 68 68 70 43 51 68 68 51 66 43 80 51 100 43 40 85 60 51 44 41 84 63 57 48 42 52 42 50 44 42 44 77 74 60 68 48 71 50 67 59 58 62 46 99 63 46 73 49 46 41 52 42 70 80 40 43 64 79 175 86 78 42 48 57 49 67 67 52 43 42 45 42 41 45 67 66 210 60 70 155 72 78 56 43 93 61 78 57 55 107
internal_value=0.000173704 -0.017205 0.0210593 -0.0254153 -0.0201279 -0.00515035 0.0214998 0.033138 -0.028454 0.0267183 0.0133656 0.0118259 0.00375452 0.00770126 -0.0512346 -0.0215614 0.0299131 0.0450692 0.0399664 -0.0152091 0.0163751 -0.0357712 0.0258412 -0.00114438 0.0057868 -0.0335283 0.0610862 0.0103945 0.0208941 -0.0181195 -0.00504801 -0.0317658 -0.035358 0.0109898 0.0241186 0.0367004 -0.014466 -0.00304943 -0.0259245 -0.0294597 0.0034973 -0.0509932 -0.0189776 -0.0290352 -0.00131557 0.0117842 -0.0434194 0.0142996 0.0150531 -0.00326719 -0.0252836 -0.0626924 0.0378863 0.00602919 -0.00795735 -0.0110529 0.00393015 -0.00328232 -0.0237726 -0.0107675 0.0576759 0.0515676 0.0450187 -0.0142541 -0.0313039 -0.00140621 -0.0210312 -0.0239502 0.0194898 0.0326121 0.0262446 0.00241345 -0.0354737 -0.0213695 0.0109604 0.0185633 0.0458924 0.0434928 -0.0461256 -0.0231833 0.000689643 -0.0106506 -0.0110843 -0.0337513 -0.0196007 0.00994257 0.0126653 -0.0248772 0.00955049 0.0293413 0.0113564 -0.00880856 0.0157172 0.000803727 0.0026519 -0.0404339 -0.0200447 0.0289519 0.0272084 0.0354256 0.0331109 0.00654978 0.022537 0.0177114 0.0185088 0.0166862 -0.020487 0.0129655 -0.0359721
internal_weight=7050 3848 3202 3175 2637 943 673 1885 1694 1228 443 542 1317 486 538 500 1079 657 471 345 269 990 238 205 154 866 131 751 86 704 566 798 510 219 585 494 482 217 222 181 149 124 283 324 404 711 323 493 127 139 288 215 111 218 199 151 116 352 177 106 186 108 159 162 116 285 172 123 109 335 144 110 155 126 86 275 327 248 186 206 110 111 101 198 118 219 119 83 85 102 108 85 164 206 133 260 128 310 225 202 150 100 111 274 232 171 97 100 149
internal_count=7050 3848 3202 3175 2637 943 673 1885 1694 1228 443 542 1317 486 538 500 1079 657 471 345 269 990 238 205 154 866 131 751 86 704 566 798 510 219 585 494 482 217 222 181 149 124 283 324 404 711 323 493 127 139 288 215 111 218 199 151 116 352 177 106 186 108 159 162 116 285 172 123 109 335 144 110 155 126 86 275 327 248 186 206 110 111 101 198 118 219 119 83 85 102 108 85 164 206 133 260 128 310 225 202 150 100 111 274 232 171 97 100 149
is_linear=0
shrinkage=0.06


Tree=10
num_leaves=112
num_cat=0
split_feature=9 8 8 9 8 9 8 9 8 9 8 8 8 9 8 8 8 8 9 8 9 9 8 8 4 5 9 8 8 8 5 0 9 8 9 8 8 3 9 8 5 8 8 9 8 8 9 8 1 8 8 9 0 8 5 8 8 9 9 5 5 8 0 5 2 8 9 8 5 9 0 8 8 8 0 9 8 8 5 8 2 2 4 0 2 1 4 0 2 8 9 2 8 9 5 9 0 1 9 8 0 8 9 2 9 9 8 1 1 9 3
split_gain=711.383 337.871 149.074 84.855 80.9826 48.2814 35.1632 30.7043 31.1714 33.7791 29.6814 22.3517 16.6338 14.3033 11.4033 10.0421 9.53935 9.04834 8.70578 6.33043 5.95424 5.77847 6.85852 6.41576 5.4067 5.3164 5.18607 4.78723 4.62928 4.53406 3.88276 3.85566 3.54827 3.28613 3.25987 3.17926 3.02194 2.95897 3.65289 3.14091 2.91468 3.42263 2.68455 2.57389 2.65347 2.53023 2.3879 2.37594 2.37571 3.62242 2.31803 2.07328 2.03672 1.94311 1.92809 1.86707 1.74835 1.57992 1.5649 1.5332 1.49434 1.45077 1.40777 1.34234 1.32286 1.15066 1.55023 1.12098 1.09653 1.06124 1.05254 0.94047 0.907191 0.886168 0.850214 0.80501 0.924336 0.799732 0.780698 0.771324 0.766482 0.752626 0.742381 0.726072 0.725445 0.715949 0.686275 0.671404 0.647754 0.647369 0.60192 0.603832 0.577584 0.571125 0.528381 0.489506 0.482811 0.477164 0.417305 0.563005 0.414062 0.398876 0.388547 0.386076 0.344414 0.320074 0.319408 0.258186 0.25161 0.209275 0.169047
threshold=0.068603988736867919 -1.4973168373107908 0.73461404442787182 -0.63027289509773243 1.0119038820266726 0.24742772430181506 0.49823951721191412 -0.83660796284675587 0.47096353769302374 -0.57525020837783802 -0.41090059280395502 -1.1018437743186948 1.1028165221214297 -0.57525020837783802 -0.033605223521590226 1.2937347292900088 -1.9109783768653867 0.29823110997676855 -1.2355224490165708 -0.065424922853708253 -1.1529884338378904 -1.6069256067275999 -0.30180215835571284 -0.57908928394317616 -0.70610728859901417 0.71101421117782604 -0.29303707182407374 0.86189281940460216 -1.883705139160156 -1.2109395265579221 0.92711439728736889 0.30122427642345434 -1.5794142484664915 -1.1245733499526975 -0.76782962679862965 -1.883705139160156 0.92553222179412853 0.5143517702817918 -1.5106359124183653 -0.86546930670738209 1.0814723968505862 0.29823110997676855 0.58915486931800853 -1.441857576370239 -1.3427647948265073 -1.6791476011276243 -1.001676023006439 1.3028275966644289 1.0000000180025095e-35 0.057307431474328048 -0.97001856565475453 -0.26641319692134852 0.14964788407087329 -0.7563708722591399 1.7915164828300478 -1.5927786231040952 0.58006197214126598 0.13738234341144565 1.5870527029037478 1.1432152986526491 1.2358296513557436 0.94371801614761364 0.25791636854410177 0.18619880080223086 0.61056235432624828 -0.22452342510223386 0.3299617618322373 0.71643367409706127 1.1123438477516177 -0.74031826853752125 0.14964788407087329 0.79370698332786571 -1.2109395265579221 0.098220024257898345 0.21460897475481036 1.6802362799644472 1.5073824524879458 -0.49272036552429194 0.77275711297988903 -1.3109450936317442 0.71915432810783397 0.67571672797203075 -0.47033214569091791 0.27957032620906835 0.7408721148967744 0.1524230241775513 -0.63923451304435719 0.084686793386936202 0.84946307539939891 -1.7200601696968076 -0.026798253878951069 0.52368924021720897 0.83916601538658153 -0.96040901541709889 1.5136727094650271 0.19240503013134005 0.25791636854410177 1.0000000180025095e-35 -0.14660571515560147 1.1710023880004885 0.27957032620906835 -0.98365518450736988 0.93698623776435863 -0.25817026197910303 0.89571923017501842 1.0470316410064699 0.3982339501380921 -1.9558143019676206 -0.37463472038507456 -1.249278128147125 0.79551240801811229
decision_type=2 2 2 2 2 2 2 2 2 2 2 2 2 2 2 2 2 2 2 2 2 2 2 2 2 2 2 2 2 2 2 2 2 2 2 2 2 2 2 2 2 2 2 2 2 2 2 2 2 2 2 2 2 2 2 2 2 2 2 2 2 2 2 2 2 2 2 2 2 2 2 2 2 2 2 2 2 2 2 2 2 2 2 2 2 2 2 2 2 2 2 2 2 2 2 2 2 2 2 2 2 2 2 2 2 2 2 2 2 2 2
left_child=1 3 5 16 7 17 14 11 9 29 33 20 25 35 65 51 -1 83 45 21 43 22 77 24 -23 -4 71 59 -15 69 64 55 -25 -11 50 -5 67 38 53 46 41 63 85 -3 109 62 101 54 49 -12 -31 -6 72 -26 84 89 57 -19 61 81 105 68 -18 -16 103 -7 -67 -28 -29 -9 -48 -10 87 -65 -63 -49 -77 -13 -43 -54 97 100 -47 95 110 -32 -46 -22 92 -20 91 -69 -61 -41 104 -2 -17 -76 99 -53 -27 -40 -42 -8 -70 107 -59 -44 -24 -45 -14
