{"learner":{"attributes":{},"feature_names":[],"feature_types":[],"gradient_booster":{"model":{"cats":{"enc":[],"feature_segments":[],"sorted_idx":[]},"gbtree_model_param":{"num_parallel_tree":"1","num_trees":"83"},"iteration_indptr":[0,1,2,3,4,5,6,7,8,9,10,11,12,13,14,15,16,17,18,19,20,21,22,23,24,25,26,27,28,29,30,31,32,33,34,35,36,37,38,39,40,41,42,43,44,45,46,47,48,49,50,51,52,53,54,55,56,57,58,59,60,61,62,63,64,65,66,67,68,69,70,71,72,73,74,75,76,77,78,79,80,81,82,83],"tree_info":[0,0,0,0,0,0,0,0,0,0,0,0,0,0,0,0,0,0,0,0,0,0,0,0,0,0,0,0,0,0,0,0,0,0,0,0,0,0,0,0,0,0,0,0,0,0,0,0,0,0,0,0,0,0,0,0,0,0,0,0,0,0,0,0,0,0,0,0,0,0,0,0,0,0,0,0,0,0,0,0,0,0,0],"trees":[{"base_weights":[3.726113E-3,-9.118324E-1,3.0715466E-1,-2.4136488E-1,-2.4252276E0,-4.249955E-1,5.756254E-1,-7.2035664E-1,3.364418E-1,-1.8193285E0,-2.6257505E0,-6.564466E-1,-1.343284E-1,8.4308386E-1,1.5204723E-1,-5.2627303E-2,-6.0003597E-1,5.713565E-1,-4.266434E-1,1.3803563E-2,-1.909948E0,-2.7577043E0,-1.2495036E-1,-5.358036E-1,-8.8515437E-1,-2.8996298E-1,-6.526418E-2,5.915205E-1,1.0390989E0,-3.835719E-1,4.1621885E-1,-6.2466925E-1,-1.6229054E-2,6.395063E-1,2.9032356E-1,-3.3333134E-2,-8.220946E-1,-9.5036544E-2,-1.2974945E-1,-1.3754174E-1,-1.7444314E-1,-5.8594304E-1,-2.8503686E-2,-6.848256E-2,-8.23222E-1,-3.4691396E-1,-1.4631062E-2,-6.824001E-3,1.6175149E-2,2.9784045E-1,6.6230977E-1,1.2716786E0,5.743351E-1,3.5465738E-1,-8.5957426E-1,3.0459028E-1,4.6091586E-1,-4.026239E-2,-3.430057E-2,4.340489E-1,8.2751495E-1,2.0785674E-2,1.0556167E-2,-8.12386E-3,2.081169E-3,-3.8559694E-2,-6.0842656E-2,-2.3206241E-2,-3.712454E-2,-5.106829E-2,-3.8551398E-2,-2.3677412E-2,-1.5140355E-2,-2.0051124E-3,4.1513346E-2,1.4671178E-1,2.345093E-2,5.441906E-1,6.8332297E-1,1.1000423E0,8.9017674E-2,6.6924745E-1,2.8145826E-1,2.7095735E-2,1.6350888E-1,-1.1681552E0,-2.7374563E-1,2.645119E-1,2.5444342E-2,8.601171E-3,4.8036143E-1,2.7069457E-2,9.572979E-3,5.2421704E-2,2.9290454E-2,1.258361E-2,1.6656849E-3,5.572447E-3,1.4247799E-2,1.6118292E-2,3.3337235E-2,7.658742E-1,6.3591975E-1,5.2369166E-2,7.05731E-2,4.965058E-1,8.3442974E-1,3.002968E-1,5.2307327E-3,1.4956019E-2,6.5616895E-3,-1.2994415E0,-4.853011E-2,-1.2462204E-1,-2.626629E-2,3.567153E-2,2.5487426E-1,7.246545E-1,4.613323E-1,3.8577005E-2,4.7842678E-2,3.6364563E-2,4.372389E-2,3.9678656E-2,2.4186771E-2,5.503066E-2,4.148134E-2,6.785218E-3,1.9336466E-2,-3.3561524E-2,-8.523367E-2,3.224364E-3,-8.528583E-3,5.7889447E-3,1.5963988E-2,5.0467715E-2,2.187178E-2,2.8834242E-2,1.8163126E-2],"categories":[],"categories_nodes":[],"categories_segments":[],"categories_sizes":[],"default_left":[0,0,0,0,0,0,0,0,0,0,0,0,0,0,0,0,0,0,0,0,0,0,0,0,0,0,0,0,0,0,0,0,0,0,0,0,0,0,0,0,0,0,0,0,0,0,0,0,0,0,0,0,0,0,0,0,0,0,0,0,0,0,0,0,0,0,0,0,0,0,0,0,0,0,0,0,0,0,0,0,0,0,0,0,0,0,0,0,0,0,0,0,0,0,0,0,0,0,0,0,0,0,0,0,0,0,0,0,0,0,0,0,0,0,0,0,0,0,0,0,0,0,0,0,0,0,0,0,0,0,0,0,0,0,0,0,0,0,0],"id":0,"left_children":[1,3,5,7,9,11,13,15,17,19,21,23,25,27,29,-1,31,33,35,-1,37,39,-1,41,43,45,47,49,51,53,55,57,-1,59,61,63,65,-1,-1,-1,-1,67,-1,-1,69,71,-1,-1,73,75,77,79,81,83,85,87,89,-1,-1,91,93,-1,-1,-1,-1,-1,-1,-1,-1,-1,-1,-1,-1,-1,95,97,-1,99,101,103,-1,105,107,-1,109,111,113,115,-1,-1,117,-1,-1,-1,-1,-1,-1,-1,-1,-1,-1,119,121,-1,-1,123,125,127,-1,-1,-1,129,-1,131,-1,-1,133,135,137,-1,-1,-1,-1,-1,-1,-1,-1,-1,-1,-1,-1,-1,-1,-1,-1,-1,-1,-1,-1],"loss_changes":[2.0563276E3,1.8686743E3,1.0931473E3,3.5420715E2,6.1540527E1,1.0027597E2,4.6072644E2,1.2404572E1,1.0442602E2,2.7680542E1,2.1600098E1,2.2203766E1,7.10343E0,1.2203296E2,2.2330693E2,0E0,2.9977875E0,8.234726E0,2.1344961E1,0E0,6.3471375E0,1.3301758E1,0E0,1.2499084E0,3.1051483E0,4.075222E-1,1.8244373E0,2.2478912E1,1.5018274E2,1.8371182E2,5.0607758E0,3.3747864E-1,0E0,1.3232025E1,4.829545E-1,4.9648073E-1,1.381752E0,0E0,0E0,0E0,0E0,1.5583878E0,0E0,0E0,3.6260986E-1,2.4544144E-1,0E0,0E0,2.2010364E-1,2.9431057E0,1.6301575E0,3.1438232E1,1.2768433E1,3.697073E0,5.6916565E1,1.2994633E0,4.5373535E0,0E0,0E0,7.068405E-1,2.2514954E0,0E0,0E0,0E0,0E0,0E0,0E0,0E0,0E0,0E0,0E0,0E0,0E0,0E0,2.5844812E-1,3.7977302E-1,0E0,2.1862793E-1,2.1750183E0,7.4693604E0,0E0,9.465271E0,3.9077377E-1,0E0,2.9112542E-1,8.212006E0,2.6454716E0,5.153656E-1,0E0,0E0,2.787506E0,0E0,0E0,0E0,0E0,0E0,0E0,0E0,0E0,0E0,0E0,2.514038E-1,6.6841125E-1,0E0,0E0,2.3167534E0,1.1621399E0,3.8351917E-1,0E0,0E0,0E0,1.2209091E1,0E0,2.0052493E-1,0E0,0E0,3.6834145E-1,1.5744171E0,1.7972717E0,0E0,0E0,0E0,0E0,0E0,0E0,0E0,0E0,0E0,0E0,0E0,0E0,0E0,0E0,0E0,0E0,0E0,0E0,0E0,0E0],"parents":[2147483647,0,0,1,1,2,2,3,3,4,4,5,5,6,6,7,7,8,8,9,9,10,10,11,11,12,12,13,13,14,14,16,16,17,17,18,18,20,20,21,21,23,23,24,24,25,25,26,26,27,27,28,28,29,29,30,30,31,31,33,33,34,34,35,35,36,36,41,41,44,44,45,45,48,48,49,49,50,50,51,51,52,52,53,53,54,54,55,55,56,56,59,59,60,60,74,74,75,75,77,77,78,78,79,79,81,81,82,82,84,84,85,85,86,86,87,87,90,90,101,101,102,102,105,105,106,106,107,107,111,111,113,113,116,116,117,117,118,118],"right_children":[2,4,6,8,10,12,14,16,18,20,22,24,26,28,30,-1,32,34,36,-1,38,40,-1,42,44,46,48,50,52,54,56,58,-1,60,62,64,66,-1,-1,-1,-1,68,-1,-1,70,72,-1,-1,74,76,78,80,82,84,86,88,90,-1,-1,92,94,-1,-1,-1,-1,-1,-1,-1,-1,-1,-1,-1,-1,-1,96,98,-1,100,102,104,-1,106,108,-1,110,112,114,116,-1,-1,118,-1,-1,-1,-1,-1,-1,-1,-1,-1,-1,120,122,-1,-1,124,126,128,-1,-1,-1,130,-1,132,-1,-1,134,136,138,-1,-1,-1,-1,-1,-1,-1,-1,-1,-1,-1,-1,-1,-1,-1,-1,-1,-1,-1,-1],"split_conditions":[-6.8058264E-1,6.89606E-1,-7.02823E-1,-9.872548E-1,8.9260757E-1,-1.0276344E0,7.881932E-1,-1.4602724E0,5.791169E-1,7.264503E-1,9.185714E-1,-1.0651904E0,-9.1892016E-1,-1.0999788E-1,1.0814208E0,-5.2627303E-2,-1.0276344E0,4.7262138E-1,6.3502705E-1,1.3803563E-2,7.2954184E-1,7.96989E-1,-1.2495036E-1,-1.1629723E0,-1.7034372E0,-9.7305536E-1,-7.8446954E-1,-5.4130477E-1,-3.8492343E-1,6.212714E-1,9.946393E-1,-3.8691553E-1,-1.6229054E-2,-2.9902744E-1,5.520493E-1,1.4361836E-1,6.625384E-1,-9.5036544E-2,-1.2974945E-1,-1.3754174E-1,-1.7444314E-1,-1.3790696E0,-2.8503686E-2,-6.848256E-2,3.0348295E-1,-4.2000532E-1,-1.4631062E-2,-6.824001E-3,-7.569582E-1,-6.6288716E-1,-4.5965818E-1,2.873159E-1,1.3143798E0,5.6713617E-1,1.0272856E0,1.1469649E0,1.1084884E0,-4.026239E-2,-3.430057E-2,-5.2065897E-1,3.2512072E-1,2.0785674E-2,1.0556167E-2,-8.12386E-3,2.081169E-3,-3.8559694E-2,-6.0842656E-2,-2.3206241E-2,-3.712454E-2,-5.106829E-2,-3.8551398E-2,-2.3677412E-2,-1.5140355E-2,-2.0051124E-3,-1.1377612E0,-6.757554E-1,2.345093E-2,-1.6372825E0,-3.380758E-1,-2.8795045E-2,8.9017674E-2,1.2061093E0,1.3680713E0,2.7095735E-2,5.791169E-1,1.0063813E0,-8.409151E-3,1.3143798E0,2.5444342E-2,8.601171E-3,4.221261E-1,2.7069457E-2,9.572979E-3,5.2421704E-2,2.9290454E-2,1.258361E-2,1.6656849E-3,5.572447E-3,1.4247799E-2,1.6118292E-2,3.3337235E-2,-4.3259057E-1,-1.6235818E-1,5.2369166E-2,7.05731E-2,4.1848615E-1,1.0063813E0,4.794787E-1,5.2307327E-3,1.4956019E-2,6.5616895E-3,6.625384E-1,-4.853011E-2,-1.6155647E0,-2.626629E-2,3.567153E-2,1.6289929E-1,1.3006241E0,1.6924388E0,3.8577005E-2,4.7842678E-2,3.6364563E-2,4.372389E-2,3.9678656E-2,2.4186771E-2,5.503066E-2,4.148134E-2,6.785218E-3,1.9336466E-2,-3.3561524E-2,-8.523367E-2,3.224364E-3,-8.528583E-3,5.7889447E-3,1.5963988E-2,5.0467715E-2,2.187178E-2,2.8834242E-2,1.8163126E-2],"split_indices":[3,9,9,9,4,9,5,9,9,5,9,7,9,9,9,0,9,9,9,0,9,9,0,9,9,9,9,9,5,9,4,4,0,9,9,2,9,0,0,0,0,9,0,0,3,4,0,0,9,9,9,4,9,9,9,3,9,0,0,4,5,0,0,0,0,0,0,0,0,0,0,0,0,0,2,9,0,2,9,9,0,9,9,0,9,3,2,9,0,0,7,0,0,0,0,0,0,0,0,0,0,9,9,0,0,9,3,5,0,0,0,9,0,2,0,0,3,9,9,0,0,0,0,0,0,0,0,0,0,0,0,0,0,0,0,0,0,0,0],"split_type":[0,0,0,0,0,0,0,0,0,0,0,0,0,0,0,0,0,0,0,0,0,0,0,0,0,0,0,0,0,0,0,0,0,0,0,0,0,0,0,0,0,0,0,0,0,0,0,0,0,0,0,0,0,0,0,0,0,0,0,0,0,0,0,0,0,0,0,0,0,0,0,0,0,0,0,0,0,0,0,0,0,0,0,0,0,0,0,0,0,0,0,0,0,0,0,0,0,0,0,0,0,0,0,0,0,0,0,0,0,0,0,0,0,0,0,0,0,0,0,0,0,0,0,0,0,0,0,0,0,0,0,0,0,0,0,0,0,0,0],"sum_hessian":[7.399E3,1.841E3,5.558E3,1.277E3,5.64E2,1.491E3,4.067E3,6.98E2,5.79E2,1.44E2,4.2E2,8.29E2,6.62E2,2.492E3,1.575E3,2.99E2,3.99E2,4.43E2,1.36E2,6E0,1.38E2,3.33E2,8.7E1,5.46E2,2.83E2,2.02E2,4.6E2,1.094E3,1.398E3,5.2E2,1.055E3,3.7E2,2.9E1,3.55E2,8.8E1,6.9E1,6.7E1,6.5E1,7.3E1,8.7E1,2.46E2,2.92E2,2.54E2,5E1,2.33E2,8.6E1,1.16E2,2.88E2,1.72E2,2.14E2,8.8E2,9.3E2,4.68E2,2.04E2,3.16E2,3.05E2,7.5E2,1.88E2,1.82E2,1.72E2,1.83E2,5.7E1,3.1E1,2.7E1,4.2E1,3.8E1,2.9E1,4.4E1,2.48E2,1.97E2,3.6E1,5.4E1,3.2E1,5.8E1,1.14E2,8.3E1,1.31E2,1.39E2,7.41E2,5.19E2,4.11E2,3.52E2,1.16E2,1.34E2,7E1,2.06E2,1.1E2,2.32E2,7.3E1,4.4E1,7.06E2,1.61E2,1.1E1,1.59E2,2.4E1,7E0,1.07E2,5.4E1,2.9E1,7E0,1.32E2,2.62E2,4.79E2,1.35E2,3.84E2,1.75E2,1.77E2,1.05E2,1.1E1,2.5E1,4.5E1,1.48E2,5.8E1,5.9E1,5.1E1,4E0,2.28E2,4.7E1,6.59E2,6E1,2.02E2,3.71E2,1.08E2,6E1,1.15E2,1.07E2,7E1,1.2E1,9.3E1,2.2E1,1.26E2,5E0,5.4E1,1.6E1,2.12E2,3.4E1,1.3E1,5.85E2,7.4E1],"tree_param":{"num_deleted":"0","num_feature":"10","num_nodes":"139","size_leaf_vector":"1"}},{"base_weights":[-2.9283566E-3,-7.187487E-1,4.4637328E-1,-3.1930706E-1,-1.9122307E0,-7.7630156E-1,5.539723E-1,-5.658296E-1,8.648955E-2,-2.3989508E0,-7.3077065E-1,-4.2498153E-2,-5.1117793E-2,8.754286E-1,2.301194E-1,-8.635165E-1,-4.9057943E-1,-5.7798494E-2,4.3411234E-1,-2.5032167E0,-1.0795471E-1,-1.0120907E0,-3.226294E-1,6.095271E-1,1.1583326E0,-5.596952E-1,4.1404307E-1,-6.6190705E-2,-7.892676E-1,-5.3792226E-1,-3.213325E-1,-1.0875406E-1,3.331489E-3,3.451158E-1,3.3995505E-2,-1.2569939E-1,-1.6057913E-1,-7.425233E-2,-4.7252685E-2,-2.6173765E-2,-1.0310139E-2,4.4250807E-1,6.7231053E-1,9.893917E-1,8.36793E-2,-9.901585E-1,1.983085E-1,3.0225414E-1,5.0936586E-1,-4.855582E-2,-3.3477437E-2,-5.8777416E-1,-4.8920694E-1,-1.3217896E-2,-2.0594057E-2,-1.1974973E-2,-5.5976594E-3,1.3434974E-2,2.2330223E-2,2.266483E-2,2.998012E-2,6.4486825E-1,4.7146775E-2,1.0633192E0,6.7647856E-1,-3.900647E-1,-1.3545285E0,8.872002E-2,3.7683845E-1,2.5620885E-2,2.4474794E-1,6.626241E-1,4.1847628E-1,-3.6578026E-2,-2.7359115E-2,-3.6667433E-2,-4.75068E-1,7.4430466E-1,3.601983E-2,6.9717094E-2,5.978747E-2,4.491406E-2,3.446497E-2,-3.9301988E-2,-3.5132915E-2,-6.280043E-2,-9.1483034E-2,-1.1823812E-1,1.9769621E-1,2.4406973E-2,3.710236E-3,1.8047474E-1,3.4985533E-1,4.831483E-1,8.469682E-1,4.3645832E-1,2.9759905E-1,-3.1472117E-2,-2.6727838E-2,3.9648287E-2,5.0110146E-2,3.0596824E-3,-1.312746E-2,-1.7136984E-2,-3.3294105E-3,2.1846026E-2,8.715791E-3,5.5614244E-3,1.25893755E-2,3.637063E-2,1.8122805E-2,2.9378457E-2,9.006514E-3,5.1804252E-2,3.094075E-2,2.1564316E-2,2.788036E-2,2.6037507E-2,1.5669227E-2],"categories":[],"categories_nodes":[],"categories_segments":[],"categories_sizes":[],"default_left":[0,0,0,0,0,0,0,0,0,0,0,0,0,0,0,0,0,0,0,0,0,0,0,0,0,0,0,0,0,0,0,0,0,0,0,0,0,0,0,0,0,0,0,0,0,0,0,0,0,0,0,0,0,0,0,0,0,0,0,0,0,0,0,0,0,0,0,0,0,0,0,0,0,0,0,0,0,0,0,0,0,0,0,0,0,0,0,0,0,0,0,0,0,0,0,0,0,0,0,0,0,0,0,0,0,0,0,0,0,0,0,0,0,0,0,0,0,0,0],"id":1,"left_children":[1,3,5,7,9,11,13,15,17,19,21,-1,-1,23,25,27,29,31,33,35,-1,37,39,41,43,45,47,-1,49,51,53,55,-1,57,-1,-1,-1,-1,-1,-1,-1,59,61,63,-1,65,67,69,71,-1,-1,73,75,-1,-1,-1,-1,-1,-1,-1,-1,77,-1,79,81,83,85,87,89,-1,91,93,95,-1,-1,-1,97,99,-1,-1,-1,-1,-1,101,-1,-1,-1,103,105,-1,-1,107,109,111,113,115,117,-1,-1,-1,-1,-1,-1,-1,-1,-1,-1,-1,-1,-1,-1,-1,-1,-1,-1,-1,-1,-1,-1],"loss_changes":[2.3873784E3,1.3637134E3,6.00618E2,2.1480493E2,4.099619E2,9.9586487E-1,4.3615613E2,2.9281067E1,4.0790863E1,2.497754E1,2.3794266E1,0E0,0E0,1.571759E2,3.0402533E2,3.45401E0,8.310242E0,3.3322556E0,2.5186539E0,2.1869629E1,0E0,4.8406906E0,1.4035816E0,1.0957275E1,3.8553345E1,1.2934334E2,1.7847015E1,0E0,2.9170227E-1,1.5929108E0,4.1212463E-1,5.3023577E-1,0E0,3.5537148E-1,0E0,0E0,0E0,0E0,0E0,0E0,0E0,8.329582E-1,1.6921082E0,1.2766052E1,0E0,5.441815E1,2.776967E0,5.471634E0,1.2308716E1,0E0,0E0,7.483368E-1,3.0658722E-1,0E0,0E0,0E0,0E0,0E0,0E0,0E0,0E0,2.175171E0,0E0,1.4385986E0,2.2689438E-1,6.6509047E0,5.805725E0,2.0987086E0,4.763422E-1,0E0,3.5566864E0,1.0552475E1,1.0604324E0,0E0,0E0,0E0,2.2429657E-1,6.327057E-1,0E0,0E0,0E0,0E0,0E0,6.083009E-1,0E0,0E0,0E0,3.175625E-1,4.4853163E-1,0E0,0E0,8.4290886E-1,2.2191296E0,2.6707077E-1,2.2785187E-1,8.3540344E-1,2.2509193E-1,0E0,0E0,0E0,0E0,0E0,0E0,0E0,0E0,0E0,0E0,0E0,0E0,0E0,0E0,0E0,0E0,0E0,0E0,0E0,0E0,0E0,0E0],"parents":[2147483647,0,0,1,1,2,2,3,3,4,4,5,5,6,6,7,7,8,8,9,9,10,10,13,13,14,14,15,15,16,16,17,17,18,18,19,19,21,21,22,22,23,23,24,24,25,25,26,26,28,28,29,29,30,30,31,31,33,33,41,41,42,42,43,43,45,45,46,46,47,47,48,48,51,51,52,52,61,61,63,63,64,64,65,65,66,66,67,67,68,68,70,70,71,71,72,72,76,76,77,77,83,83,87,87,88,88,91,91,92,92,93,93,94,94,95,95,96,96],"right_children":[2,4,6,8,10,12,14,16,18,20,22,-1,-1,24,26,28,30,32,34,36,-1,38,40,42,44,46,48,-1,50,52,54,56,-1,58,-1,-1,-1,-1,-1,-1,-1,60,62,64,-1,66,68,70,72,-1,-1,74,76,-1,-1,-1,-1,-1,-1,-1,-1,78,-1,80,82,84,86,88,90,-1,92,94,96,-1,-1,-1,98,100,-1,-1,-1,-1,-1,102,-1,-1,-1,104,106,-1,-1,108,110,112,114,116,118,-1,-1,-1,-1,-1,-1,-1,-1,-1,-1,-1,-1,-1,-1,-1,-1,-1,-1,-1,-1,-1,-1],"split_conditions":[-2.4287029E-1,-5.518285E-2,-1.17452E0,-9.4598776E-1,-1.1826136E-1,2.0658582E-2,4.1848615E-1,-1.4602724E0,-6.757554E-1,9.327708E-1,1.0272856E0,-4.2498153E-2,-5.1117793E-2,-5.5862658E-2,5.477163E-1,-1.7034372E0,-1.0547019E0,-7.569582E-1,-5.963274E-1,7.96989E-1,-1.0795471E-1,8.6580426E-1,2.4708952E-1,-4.5965818E-1,2.873159E-1,-2.5883833E-1,9.601693E-1,-6.6190705E-2,1.7072959E-2,-3.8691553E-1,-5.2065897E-1,-9.1892016E-1,3.331489E-3,-6.6288716E-1,3.3995505E-2,-1.2569939E-1,-1.6057913E-1,-7.425233E-2,-4.7252685E-2,-2.6173765E-2,-1.0310139E-2,-5.4130477E-1,-1.2330982E-1,3.6435094E-1,8.36793E-2,6.625384E-1,1.1084884E0,5.391811E-1,1.3006241E0,-4.855582E-2,-3.3477437E-2,-1.1492168E0,-1.4332048E0,-1.3217896E-2,-2.0594057E-2,-1.1974973E-2,-5.5976594E-3,1.3434974E-2,2.2330223E-2,2.266483E-2,2.998012E-2,-3.664746E-1,4.7146775E-2,-8.358071E-2,-6.8058264E-1,6.3502705E-1,6.89606E-1,2.9039744E-1,2.2716074E0,2.5620885E-2,7.2522056E-1,1.219865E0,1.6924388E0,-3.6578026E-2,-2.7359115E-2,-3.6667433E-2,1.3882104E-1,-4.0552297E-1,3.601983E-2,6.9717094E-2,5.978747E-2,4.491406E-2,3.446497E-2,7.532267E-1,-3.5132915E-2,-6.280043E-2,-9.1483034E-2,1.7092862E0,1.1263351E0,2.4406973E-2,3.710236E-3,8.112452E-1,1.3143798E0,3.9866593E-1,1.4281255E0,1.5167212E0,1.5616362E0,-3.1472117E-2,-2.6727838E-2,3.9648287E-2,5.0110146E-2,3.0596824E-3,-1.312746E-2,-1.7136984E-2,-3.3294105E-3,2.1846026E-2,8.715791E-3,5.5614244E-3,1.25893755E-2,3.637063E-2,1.8122805E-2,2.9378457E-2,9.006514E-3,5.1804252E-2,3.094075E-2,2.1564316E-2,2.788036E-2,2.6037507E-2,1.5669227E-2],"split_indices":[1,6,6,9,3,1,9,9,9,9,9,0,0,9,1,9,9,9,9,9,0,3,0,9,4,3,4,0,4,4,4,9,0,9,0,0,0,0,0,0,0,9,9,9,0,9,9,9,9,0,0,9,9,0,0,0,0,0,0,0,0,9,0,4,3,9,9,0,3,0,3,9,9,0,0,0,0,9,0,0,0,0,0,6,0,0,0,3,6,0,0,1,9,0,3,9,6,0,0,0,0,0,0,0,0,0,0,0,0,0,0,0,0,0,0,0,0,0,0],"split_type":[0,0,0,0,0,0,0,0,0,0,0,0,0,0,0,0,0,0,0,0,0,0,0,0,0,0,0,0,0,0,0,0,0,0,0,0,0,0,0,0,0,0,0,0,0,0,0,0,0,0,0,0,0,0,0,0,0,0,0,0,0,0,0,0,0,0,0,0,0,0,0,0,0,0,0,0,0,0,0,0,0,0,0,0,0,0,0,0,0,0,0,0,0,0,0,0,0,0,0,0,0,0,0,0,0,0,0,0,0,0,0,0,0,0,0,0,0,0,0],"sum_hessian":[7.42E3,2.861E3,4.559E3,2.145E3,7.16E2,3.68E2,4.191E3,1.334E3,8.11E2,5.06E2,2.1E2,2.02E2,1.66E2,2.102E3,2.089E3,2.66E2,1.068E3,5.74E2,2.37E2,4.27E2,7.9E1,1.23E2,8.7E1,1.086E3,1.016E3,3.94E2,1.695E3,5.8E1,2.08E2,8.32E2,2.36E2,3.96E2,1.78E2,1.45E2,9.2E1,1.33E2,2.94E2,5.8E1,6.5E1,4.8E1,3.9E1,3E2,7.86E2,5.97E2,4.19E2,2.51E2,1.43E2,7.83E2,9.12E2,1.88E2,2E1,4.03E2,4.29E2,4.5E1,1.91E2,5.5E1,3.41E2,2.9E1,1.16E2,1.46E2,1.54E2,6.41E2,1.45E2,4.8E2,1.17E2,9.6E1,1.55E2,9E1,5.3E1,2.44E2,5.39E2,3.36E2,5.76E2,3.41E2,6.2E1,3.8E1,3.91E2,1.91E2,4.5E2,1.84E2,2.96E2,6.3E1,5.4E1,3.5E1,6.1E1,5.9E1,9.6E1,3.1E1,5.9E1,4.8E1,5E0,3.37E2,2.02E2,1.73E2,1.63E2,4.98E2,7.8E1,1.37E2,2.54E2,1.06E2,8.5E1,2.4E1,1.1E1,7E0,2.4E1,1.2E1,4.7E1,8.6E1,2.51E2,2.9E1,1.73E2,1.69E2,4E0,1.53E2,1E1,1.39E2,3.59E2,1.3E1,6.5E1],"tree_param":{"num_deleted":"0","num_feature":"10","num_nodes":"119","size_leaf_vector":"1"}},{"base_weights":[-2.9513807E-5,-6.788566E-1,4.2146733E-1,-2.988374E-1,-1.7897087E0,-7.322267E-1,5.222398E-1,-5.3271407E-1,8.0917224E-2,-2.2641692E0,-6.9693303E-1,-4.0211268E-2,-4.8134916E-2,8.2170534E-1,2.19401E-1,-8.136843E-1,-4.60805E-1,-5.606785E-2,4.151573E-1,-2.3592033E0,-1.0169398E-1,-9.643133E-1,-3.0124E-1,5.733595E-1,1.0868189E0,-5.1203406E-1,3.8859504E-1,-6.2070485E-2,-7.40227E-1,-5.0707453E-1,-3.00474E-1,-1.1539139E-1,3.3475354E-2,3.2630184E-1,3.2026436E-2,-1.1435654E-1,-1.4963089E-1,-7.310013E-2,-4.5824192E-2,-2.485056E-2,-9.384808E-3,4.1876978E-1,6.3159835E-1,9.265282E-1,7.872442E-2,1.7799532E-1,-9.5499253E-1,2.8814474E-1,4.8155534E-1,-4.586711E-2,-3.386581E-2,-5.561374E-1,-4.5854145E-1,-9.284959E-3,-3.1275028E-1,-1.1564617E-2,-5.9303027E-3,-2.8953768E-4,4.300392E-3,1.256433E-2,2.1184802E-2,2.1483062E-2,2.8278688E-2,6.908223E-1,5.71492E-1,9.952504E-1,6.3925046E-1,7.845357E-2,3.6030793E-1,-4.0528435E-1,-1.2201258E0,2.5123298E-2,2.3942275E-1,6.611177E-1,4.1370815E-1,-3.456095E-2,-2.58874E-2,-4.395513E-1,-3.2632135E-2,-1.990459E-2,-1.3494171E-2,5.5787396E-1,4.2493593E-2,3.1928863E-2,3.9479245E-2,6.448019E-2,5.5334743E-2,4.2663507E-2,3.252147E-2,-5.325919E-2,1.5407588E-1,2.2945845E-2,3.5348486E-3,-7.8260794E-2,-3.3028625E-2,-1.2708572E0,-4.961456E-3,1.8812238E-1,3.4319222E-1,7.5622064E-1,3.403686E-1,2.6093422E-2,1.7801085E-2,-2.9268444E-2,-2.4578298E-2,3.5424985E-2,1.7113656E-2,5.136843E-3,-5.633729E-3,-6.478553E-3,1.09934E-2,1.9601397E-3,-1.2385346E-2,-5.9355967E-2,-8.575717E-2,7.799665E-3,1.34351E-2,3.2140844E-2,1.839925E-2,4.7275428E-2,2.1823002E-2,2.761215E-2,1.609708E-2],"categories":[],"categories_nodes":[],"categories_segments":[],"categories_sizes":[],"default_left":[0,0,0,0,0,0,0,0,0,0,0,0,0,0,0,0,0,0,0,0,0,0,0,0,0,0,0,0,0,0,0,0,0,0,0,0,0,0,0,0,0,0,0,0,0,0,0,0,0,0,0,0,0,0,0,0,0,0,0,0,0,0,0,0,0,0,0,0,0,0,0,0,0,0,0,0,0,0,0,0,0,0,0,0,0,0,0,0,0,0,0,0,0,0,0,0,0,0,0,0,0,0,0,0,0,0,0,0,0,0,0,0,0,0,0,0,0,0,0,0,0,0,0],"id":2,"left_children":[1,3,5,7,9,11,13,15,17,19,21,-1,-1,23,25,27,29,31,33,35,-1,37,39,41,43,45,47,-1,49,51,53,55,57,59,-1,-1,-1,-1,-1,-1,-1,61,63,65,-1,67,69,71,73,-1,-1,75,77,-1,79,-1,-1,-1,-1,-1,-1,-1,-1,81,83,85,87,89,91,93,95,-1,97,99,101,-1,-1,103,-1,-1,-1,105,-1,-1,-1,-1,-1,-1,-1,107,109,-1,-1,111,-1,113,-1,115,117,119,121,-1,-1,-1,-1,-1,-1,-1,-1,-1,-1,-1,-1,-1,-1,-1,-1,-1,-1,-1,-1,-1,-1],"loss_changes":[2.1238945E3,1.1995673E3,5.3298914E2,1.8839845E2,3.73271E2,7.943115E-1,3.8176025E2,2.595575E1,3.7098602E1,2.129541E1,2.2999084E1,0E0,0E0,1.3848108E2,2.5974966E2,3.1580505E0,7.549698E0,3.0628614E0,2.220848E0,1.9021484E1,0E0,5.3043137E0,1.3994122E0,9.475189E0,3.5095215E1,1.2083564E2,1.5698975E1,0E0,2.2367859E-1,1.5497894E0,3.5406876E-1,4.1508722E-1,3.3774376E-1,3.226366E-1,0E0,0E0,0E0,0E0,0E0,0E0,0E0,7.183075E-1,2.2324219E0,1.0940491E1,0E0,2.7795687E0,3.431015E1,5.082344E0,1.0341049E1,0E0,0E0,6.0990906E-1,3.1630707E-1,0E0,2.526455E-1,0E0,0E0,0E0,0E0,0E0,0E0,0E0,0E0,3.1555176E-1,8.4454346E-1,1.3166504E0,2.6316833E-1,1.0332522E0,3.2959318E-1,3.757635E0,9.161499E0,0E0,3.1105118E0,6.91967E0,1.4040527E0,0E0,0E0,2.0331573E-1,0E0,0E0,0E0,2.1320724E-1,0E0,0E0,0E0,0E0,0E0,0E0,0E0,2.2932498E-1,5.2997386E-1,0E0,0E0,3.8686445E-1,0E0,4.7716675E0,0E0,8.021622E-1,1.1426449E0,1.8535309E0,3.1149244E-1,0E0,0E0,0E0,0E0,0E0,0E0,0E0,0E0,0E0,0E0,0E0,0E0,0E0,0E0,0E0,0E0,0E0,0E0,0E0,0E0,0E0,0E0],"parents":[2147483647,0,0,1,1,2,2,3,3,4,4,5,5,6,6,7,7,8,8,9,9,10,10,13,13,14,14,15,15,16,16,17,17,18,18,19,19,21,21,22,22,23,23,24,24,25,25,26,26,28,28,29,29,30,30,31,31,32,32,33,33,41,41,42,42,43,43,45,45,46,46,47,47,48,48,51,51,52,52,54,54,63,63,64,64,65,65,66,66,67,67,68,68,69,69,70,70,72,72,73,73,74,74,77,77,81,81,89,89,90,90,93,93,95,95,97,97,98,98,99,99,100,100],"right_children":[2,4,6,8,10,12,14,16,18,20,22,-1,-1,24,26,28,30,32,34,36,-1,38,40,42,44,46,48,-1,50,52,54,56,58,60,-1,-1,-1,-1,-1,-1,-1,62,64,66,-1,68,70,72,74,-1,-1,76,78,-1,80,-1,-1,-1,-1,-1,-1,-1,-1,82,84,86,88,90,92,94,96,-1,98,100,102,-1,-1,104,-1,-1,-1,106,-1,-1,-1,-1,-1,-1,-1,108,110,-1,-1,112,-1,114,-1,116,118,120,122,-1,-1,-1,-1,-1,-1,-1,-1,-1,-1,-1,-1,-1,-1,-1,-1,-1,-1,-1,-1,-1,-1],"split_conditions":[-2.4287029E-1,-1.894258E-1,-1.3116224E0,-9.4598776E-1,-1.1826136E-1,2.0658582E-2,4.1848615E-1,-1.4602724E0,-6.757554E-1,9.327708E-1,1.0272856E0,-4.0211268E-2,-4.8134916E-2,-5.5862658E-2,5.477163E-1,-1.7034372E0,-1.0547019E0,-7.8446954E-1,-1.4495533E0,7.841208E-1,-1.0169398E-1,4.4405994E-1,2.4708952E-1,-4.5965818E-1,2.873159E-1,8.5662353E-1,9.946393E-1,-6.2070485E-2,3.0348295E-1,-3.8691553E-1,-1.1387482E0,-9.1892016E-1,-7.298906E-1,-6.6288716E-1,3.2026436E-2,-1.1435654E-1,-1.4963089E-1,-7.310013E-2,-4.5824192E-2,-2.485056E-2,-9.384808E-3,-5.4130477E-1,1.0237375E0,3.6435094E-1,7.872442E-2,1.1084884E0,6.625384E-1,5.249817E-1,4.5554852E-1,-4.586711E-2,-3.386581E-2,-1.1492168E0,-5.0639915E-1,-9.284959E-3,2.2543582E-1,-1.1564617E-2,-5.9303027E-3,-2.8953768E-4,4.300392E-3,1.256433E-2,2.1184802E-2,2.1483062E-2,2.8278688E-2,-4.3259057E-1,-1.6235818E-1,-4.9110793E-2,-6.8058264E-1,2.9039744E-1,2.2716074E0,6.3502705E-1,-1.1826136E-1,2.5123298E-2,8.6580426E-1,1.3006241E0,1.679127E0,-3.456095E-2,-2.58874E-2,1.3882104E-1,-3.2632135E-2,-1.990459E-2,-1.3494171E-2,4.8528072E-1,4.2493593E-2,3.1928863E-2,3.9479245E-2,6.448019E-2,5.5334743E-2,4.2663507E-2,3.252147E-2,6.3502705E-1,-6.8058264E-1,2.2945845E-2,3.5348486E-3,3.1205112E-1,-3.3028625E-2,6.89606E-1,-4.961456E-3,8.264259E-1,1.3143798E0,1.9904468E0,1.8653607E0,2.6093422E-2,1.7801085E-2,-2.9268444E-2,-2.4578298E-2,3.5424985E-2,1.7113656E-2,5.136843E-3,-5.633729E-3,-6.478553E-3,1.09934E-2,1.9601397E-3,-1.2385346E-2,-5.9355967E-2,-8.575717E-2,7.799665E-3,1.34351E-2,3.2140844E-2,1.839925E-2,4.7275428E-2,2.1823002E-2,2.761215E-2,1.609708E-2],"split_indices":[1,9,9,9,3,1,9,9,9,9,9,0,0,9,1,9,9,9,7,9,0,3,0,9,4,7,4,0,3,4,0,9,9,9,0,0,0,0,0,0,0,9,7,9,0,9,9,9,7,0,0,9,1,0,0,0,0,0,0,0,0,0,0,9,9,4,3,0,3,9,3,0,3,9,9,0,0,0,0,0,0,0,0,0,0,0,0,0,0,9,3,0,0,0,0,9,0,4,9,3,1,0,0,0,0,0,0,0,0,0,0,0,0,0,0,0,0,0,0,0,0,0,0],"split_type":[0,0,0,0,0,0,0,0,0,0,0,0,0,0,0,0,0,0,0,0,0,0,0,0,0,0,0,0,0,0,0,0,0,0,0,0,0,0,0,0,0,0,0,0,0,0,0,0,0,0,0,0,0,0,0,0,0,0,0,0,0,0,0,0,0,0,0,0,0,0,0,0,0,0,0,0,0,0,0,0,0,0,0,0,0,0,0,0,0,0,0,0,0,0,0,0,0,0,0,0,0,0,0,0,0,0,0,0,0,0,0,0,0,0,0,0,0,0,0,0,0,0,0],"sum_hessian":[7.42E3,2.842E3,4.578E3,2.119E3,7.23E2,3.67E2,4.211E3,1.311E3,8.08E2,5.03E2,2.2E2,2.03E2,1.64E2,2.116E3,2.095E3,2.64E2,1.047E3,5.74E2,2.34E2,4.27E2,7.6E1,1.3E2,9E1,1.095E3,1.021E3,3.93E2,1.702E3,6.1E1,2.03E2,8.1E2,2.37E2,3.45E2,2.29E2,1.37E2,9.7E1,1.03E2,3.24E2,5.4E1,7.6E1,4.9E1,4.1E1,3.03E2,7.92E2,6.01E2,4.2E2,1.54E2,2.39E2,8.21E2,8.81E2,1.74E2,2.9E1,3.95E2,4.15E2,2E1,2.17E2,5.8E1,2.87E2,1.15E2,1.14E2,2.8E1,1.09E2,1.46E2,1.57E2,3.91E2,4.01E2,4.82E2,1.19E2,1.01E2,5.3E1,7.9E1,1.6E2,2.2E2,6.01E2,2.38E2,6.43E2,3.36E2,5.9E1,3.47E2,6.8E1,1.75E2,4.2E1,5.1E1,3.4E2,2.83E2,1.18E2,2.21E2,2.61E2,6.3E1,5.6E1,3.7E1,6.4E1,4.9E1,4E0,2.5E1,5.4E1,1.53E2,7E0,4.05E2,1.96E2,1.82E2,5.6E1,5.41E2,1.02E2,1.24E2,2.23E2,4.4E1,7E0,8E0,2.9E1,6E0,5.8E1,1.4E1,1.1E1,5.9E1,9.4E1,1.57E2,2.48E2,2.8E1,1.68E2,1.67E2,1.5E1,1.8E1,3.8E1],"tree_param":{"num_deleted":"0","num_feature":"10","num_nodes":"123","size_leaf_vector":"1"}},{"base_weights":[9.71577E-4,-6.369925E-1,3.9852083E-1,-3.0150953E-1,-1.6863326E0,-5.5425882E-2,5.609439E-1,-5.631054E-1,-1.875588E-1,-2.1363404E0,-6.748726E-1,-3.1693965E-1,4.1307253E-1,7.0465934E-1,3.6026773E-1,-5.1090014E-1,-1.15935765E-1,-2.196335E-1,3.0066432E-2,-2.2254043E0,-1.0023182E-1,-4.1659147E-1,-6.582262E-2,2.6718965E-1,-5.7681584E-1,6.5212804E-1,2.3212923E-1,5.4503757E-1,1.2052732E0,2.0007816E-1,4.1648054E-1,-4.4629842E-1,-7.6911867E-1,-1.6897961E-1,-6.72187E-1,-1.0249306E-1,-2.2861433E0,-2.6767027E-1,-3.910175E-2,-4.6157964E-2,3.1266624E-1,-3.712528E-1,-8.7574786E-1,4.393654E-2,4.222601E-1,2.0049202E-1,2.3231164E-2,-1.06289815E-2,6.6265196E-1,1.2109619E0,1.2599115E-2,-5.335059E-2,2.3418222E-1,5.966516E-1,3.5218313E-1,-3.261855E-2,-3.985712E-1,-3.0016815E-2,-4.8450597E-2,-3.0670935E-1,4.632392E-2,-1.7143814E-1,-7.50563E-1,-1.3792655E-1,-6.534252E-2,-1.0229165E-2,-2.3114795E-2,1.2874468E-1,3.5262161E-1,-7.050479E-1,6.712438E-1,-7.982232E-2,-6.322661E-1,1.3934672E-2,3.083754E-2,2.2090727E-2,1.7158018E-1,4.0981498E-1,-5.077022E-1,5.733087E-1,7.511017E-1,5.6668576E-2,7.4070446E-2,2.0939458E-2,2.0550588E-1,6.803988E-1,2.8770524E-1,4.414408E-3,3.7476572E-1,1.4088972E-2,-4.13394E-1,-4.3579283E-1,-1.8408346E-1,2.2279951E-1,-6.213095E-2,-3.727113E-2,2.9684743E-2,-4.0282376E-2,-5.567734E-2,-3.6663634E-1,1.8800026E-2,-1.4924055E-2,3.6435837E-1,-3.668649E-2,-4.50202E-2,-7.150888E-4,4.1917566E-2,-6.10213E-2,-4.542363E-1,1.2575641E-1,2.3063874E-1,-3.1106042E-2,4.4922513E-1,-3.8748477E-2,4.578173E-2,6.624155E-1,5.151959E-1,6.238475E-1,9.4808924E-1,1.6081154E-1,2.3734298E-1,4.794452E-2,5.510248E-1,1.9723136E-2,1.0076411E-2,-5.9389602E-3,7.2437604E-3,1.6094135E-2,3.8756976E-1,1.4546822E-2,-7.220574E-3,-2.348259E-2,-3.4660336E-2,-3.0967472E-2,-2.3944536E-2,-1.3708945E-2,-5.4034623E-3,-3.8116446E-4,1.5505578E-2,1.0224713E-2,-4.929225E-3,-4.4661304E-3,-3.7150964E-2,2.2898419E-2,7.264232E-3,-1.023905E-2,-3.291027E-2,-3.804644E-5,1.0285941E-2,1.5253521E-2,5.4344134E-3,2.7901491E-2,1.6025638E-2,4.2418737E-2,2.466352E-2,8.6555E-3,3.1415988E-2,4.0609278E-2,3.0972553E-2,5.8305286E-2,2.1375522E-2,1.16495965E-2,5.475165E-3,7.4925274E-3,1.5243828E-2,3.5756942E-2,2.0614661E-2,2.4111237E-2,1.6821506E-2],"categories":[],"categories_nodes":[],"categories_segments":[],"categories_sizes":[],"default_left":[0,0,0,0,0,0,0,0,0,0,0,0,0,0,0,0,0,0,0,0,0,0,0,0,0,0,0,0,0,0,0,0,0,0,0,0,0,0,0,0,0,0,0,0,0,0,0,0,0,0,0,0,0,0,0,0,0,0,0,0,0,0,0,0,0,0,0,0,0,0,0,0,0,0,0,0,0,0,0,0,0,0,0,0,0,0,0,0,0,0,0,0,0,0,0,0,0,0,0,0,0,0,0,0,0,0,0,0,0,0,0,0,0,0,0,0,0,0,0,0,0,0,0,0,0,0,0,0,0,0,0,0,0,0,0,0,0,0,0,0,0,0,0,0,0,0,0,0,0,0,0,0,0,0,0,0,0,0,0,0,0,0,0,0,0,0,0,0,0],"id":3,"left_children":[1,3,5,7,9,11,13,15,17,19,21,23,25,27,29,31,-1,33,-1,35,-1,37,-1,39,41,43,45,47,49,51,53,55,57,59,61,-1,63,65,-1,-1,67,69,71,-1,73,75,-1,77,79,81,-1,-1,83,85,87,-1,89,-1,-1,91,93,95,97,-1,-1,-1,-1,99,101,103,105,-1,107,-1,-1,-1,109,111,113,115,117,-1,-1,-1,119,121,123,125,127,129,131,133,135,137,139,-1,-1,-1,-1,141,-1,-1,143,-1,-1,-1,-1,-1,145,147,149,-1,151,-1,-1,153,155,157,159,161,163,-1,165,-1,-1,-1,-1,-1,167,-1,-1,-1,-1,-1,-1,-1,-1,-1,-1,-1,-1,-1,-1,-1,-1,-1,-1,-1,-1,-1,-1,-1,-1,-1,-1,-1,-1,-1,-1,-1,-1,-1,-1,-1,-1,-1,-1,-1,-1],"loss_changes":[1.8811158E3,1.00165894E3,3.3696246E2,6.421422E1,3.116737E2,1.4789278E2,9.668115E1,4.5301086E1,3.344181E1,1.4191895E1,2.2703308E1,1.1780127E2,1.8480927E1,1.5559601E2,1.2549133E1,1.0036072E1,0E0,3.2851067E1,0E0,6.56604E0,0E0,4.4824715E0,0E0,1.1649864E1,3.2479904E1,2.9537125E0,1.1025915E0,9.729056E1,2.2938232E0,1.4001392E1,1.1738525E1,2.042099E0,6.790085E-1,3.8496986E1,5.4781265E0,0E0,1.5301514E0,8.784518E-1,0E0,0E0,1.6257706E0,1.12237564E2,2.2813934E1,0E0,7.1829987E-1,9.209261E-1,0E0,5.4963352E1,9.062134E0,1.1969604E0,0E0,0E0,1.07271E0,6.73098E0,6.0486603E0,0E0,2.1343155E0,0E0,0E0,1.2408302E1,9.73413E0,6.9027042E0,8.1443787E-1,0E0,0E0,0E0,0E0,4.1500435E0,1.4663696E0,3.4409332E-1,1.480957E0,0E0,9.205002E0,0E0,0E0,0E0,4.4768476E-1,5.562336E0,2.1886345E1,2.6856537E0,1.4466675E1,0E0,0E0,0E0,3.5611153E-1,2.6021957E0,2.1436882E-1,6.0121655E-1,8.30925E-1,4.5819628E-1,8.7436676E-1,8.251419E-1,1.6744776E0,1.5821896E0,1.490018E0,0E0,0E0,0E0,0E0,8.532946E-1,0E0,0E0,7.106228E-1,0E0,0E0,0E0,0E0,0E0,2.5730019E0,6.0921526E-1,2.2149467E-1,0E0,2.0936584E-1,0E0,0E0,2.2355957E0,1.0728455E0,1.6227264E0,2.807129E0,2.6454282E-1,2.6552296E-1,0E0,6.8538284E-1,0E0,0E0,0E0,0E0,0E0,8.1494904E-1,0E0,0E0,0E0,0E0,0E0,0E0,0E0,0E0,0E0,0E0,0E0,0E0,0E0,0E0,0E0,0E0,0E0,0E0,0E0,0E0,0E0,0E0,0E0,0E0,0E0,0E0,0E0,0E0,0E0,0E0,0E0,0E0,0E0,0E0,0E0,0E0,0E0,0E0,0E0,0E0],"parents":[2147483647,0,0,1,1,2,2,3,3,4,4,5,5,6,6,7,7,8,8,9,9,10,10,11,11,12,12,13,13,14,14,15,15,17,17,19,19,21,21,23,23,24,24,25,25,26,26,27,27,28,28,29,29,30,30,31,31,32,32,33,33,34,34,36,36,37,37,40,40,41,41,42,42,44,44,45,45,47,47,48,48,49,49,52,52,53,53,54,54,56,56,59,59,60,60,61,61,62,62,67,67,68,68,69,69,70,70,72,72,76,76,77,77,78,78,79,79,80,80,84,84,85,85,86,86,87,87,88,88,89,89,90,90,91,91,92,92,93,93,94,94,99,99,102,102,108,108,109,109,110,110,112,112,115,115,116,116,117,117,118,118,119,119,120,120,122,122,128,128],"right_children":[2,4,6,8,10,12,14,16,18,20,22,24,26,28,30,32,-1,34,-1,36,-1,38,-1,40,42,44,46,48,50,52,54,56,58,60,62,-1,64,66,-1,-1,68,70,72,-1,74,76,-1,78,80,82,-1,-1,84,86,88,-1,90,-1,-1,92,94,96,98,-1,-1,-1,-1,100,102,104,106,-1,108,-1,-1,-1,110,112,114,116,118,-1,-1,-1,120,122,124,126,128,130,132,134,136,138,140,-1,-1,-1,-1,142,-1,-1,144,-1,-1,-1,-1,-1,146,148,150,-1,152,-1,-1,154,156,158,160,162,164,-1,166,-1,-1,-1,-1,-1,168,-1,-1,-1,-1,-1,-1,-1,-1,-1,-1,-1,-1,-1,-1,-1,-1,-1,-1,-1,-1,-1,-1,-1,-1,-1,-1,-1,-1,-1,-1,-1,-1,-1,-1,-1,-1,-1,-1,-1,-1],"split_conditions":[-2.4287029E-1,8.463265E-2,-3.99422E-1,-5.3999895E-1,-2.5883833E-1,5.477163E-1,5.5618083E-1,-2.1290779E-1,9.067581E-1,-9.617433E-1,3.1205112E-1,-4.875671E-1,6.2374264E-1,2.1975623E-1,9.601693E-1,-2.1732205E-1,-1.15935765E-1,-4.635789E-1,3.0066432E-2,-2.3511076E0,-1.0023182E-1,6.865761E-1,-6.582262E-2,-3.9177055E0,1.5219444E-1,6.226626E-1,8.9260757E-1,-7.921613E-2,1.0340688E0,5.477163E-1,4.5554852E-1,-1.7670691E0,-1.031768E0,-7.6992804E-1,-1.0266771E0,-1.0249306E-1,-5.0639915E-1,2.3049152E-1,-3.910175E-2,-4.6157964E-2,2.0658582E-2,-2.6304242E-1,2.8418747E-1,4.393654E-2,-2.1781266E0,7.243942E-1,2.3231164E-2,-4.530972E-1,-5.2065897E-1,2.873159E-1,1.2599115E-2,-5.335059E-2,3.1205112E-1,1.8653607E0,2.8418747E-1,-3.261855E-2,-1.8859783E0,-3.0016815E-2,-4.8450597E-2,-1.2490166E0,-4.875671E-1,-1.8966283E0,4.2031962E-1,-1.3792655E-1,-6.534252E-2,-1.0229165E-2,-2.3114795E-2,-1.242904E0,-4.6033425E0,-7.309623E-1,-8.358071E-2,-7.982232E-2,7.243942E-1,1.3934672E-2,3.083754E-2,2.2090727E-2,8.264259E-1,-2.697816E0,5.477163E-1,7.050676E-1,3.0348295E-1,5.6668576E-2,7.4070446E-2,2.0939458E-2,3.552813E-1,8.6580426E-1,9.9063325E-1,2.9039744E-1,5.477163E-1,-2.069858E0,4.4197333E-1,-5.2065897E-1,4.4405994E-1,1.17167346E-1,-1.7359673E0,-3.727113E-2,2.9684743E-2,-4.0282376E-2,-5.567734E-2,-1.5859617E0,1.8800026E-2,-1.4924055E-2,8.168869E-1,-3.668649E-2,-4.50202E-2,-7.150888E-4,4.1917566E-2,-6.10213E-2,9.067581E-1,2.3049152E-1,6.431406E-1,-3.1106042E-2,-5.882187E-1,-3.8748477E-2,4.578173E-2,1.0063813E0,-4.265198E0,2.9039744E-1,8.820413E-1,7.300137E-1,6.568345E-1,4.794452E-2,8.820413E-1,1.9723136E-2,1.0076411E-2,-5.9389602E-3,7.2437604E-3,1.6094135E-2,1.4278332E0,1.4546822E-2,-7.220574E-3,-2.348259E-2,-3.4660336E-2,-3.0967472E-2,-2.3944536E-2,-1.3708945E-2,-5.4034623E-3,-3.8116446E-4,1.5505578E-2,1.0224713E-2,-4.929225E-3,-4.4661304E-3,-3.7150964E-2,2.2898419E-2,7.264232E-3,-1.023905E-2,-3.291027E-2,-3.804644E-5,1.0285941E-2,1.5253521E-2,5.4344134E-3,2.7901491E-2,1.6025638E-2,4.2418737E-2,2.466352E-2,8.6555E-3,3.1415988E-2,4.0609278E-2,3.0972553E-2,5.8305286E-2,2.1375522E-2,1.16495965E-2,5.475165E-3,7.4925274E-3,1.5243828E-2,3.5756942E-2,2.0614661E-2,2.4111237E-2,1.6821506E-2],"split_indices":[1,4,3,3,3,1,4,7,7,3,0,4,4,4,4,4,0,7,0,1,0,2,0,2,4,7,4,7,2,1,7,7,7,1,4,0,1,2,0,0,1,7,1,0,0,4,0,4,4,4,0,0,0,1,1,0,8,0,0,7,4,0,0,0,0,0,0,3,0,7,4,0,4,0,0,0,4,0,1,8,3,0,0,0,7,3,2,0,1,0,0,4,3,0,8,0,0,0,0,8,0,0,2,0,0,0,0,0,7,2,2,0,4,0,0,3,2,0,2,2,4,0,2,0,0,0,0,0,8,0,0,0,0,0,0,0,0,0,0,0,0,0,0,0,0,0,0,0,0,0,0,0,0,0,0,0,0,0,0,0,0,0,0,0,0,0,0,0,0],"split_type":[0,0,0,0,0,0,0,0,0,0,0,0,0,0,0,0,0,0,0,0,0,0,0,0,0,0,0,0,0,0,0,0,0,0,0,0,0,0,0,0,0,0,0,0,0,0,0,0,0,0,0,0,0,0,0,0,0,0,0,0,0,0,0,0,0,0,0,0,0,0,0,0,0,0,0,0,0,0,0,0,0,0,0,0,0,0,0,0,0,0,0,0,0,0,0,0,0,0,0,0,0,0,0,0,0,0,0,0,0,0,0,0,0,0,0,0,0,0,0,0,0,0,0,0,0,0,0,0,0,0,0,0,0,0,0,0,0,0,0,0,0,0,0,0,0,0,0,0,0,0,0,0,0,0,0,0,0,0,0,0,0,0,0,0,0,0,0,0,0],"sum_hessian":[7.414E3,2.846E3,4.568E3,2.158E3,6.88E2,1.204E3,3.364E3,6.53E2,1.505E3,4.75E2,2.13E2,7.73E2,4.31E2,1.958E3,1.406E3,6.31E2,2.2E1,1.439E3,6.6E1,3.94E2,8.1E1,1.34E2,7.9E1,2.38E2,5.35E2,1.84E2,2.47E2,1.487E3,4.71E2,3.67E2,1.039E3,5.08E2,1.23E2,1.296E3,1.43E2,4.6E1,3.48E2,8.4E1,5E1,9E0,2.29E2,3.19E2,2.16E2,1.34E2,5E1,2.08E2,3.9E1,2.6E2,1.227E3,4.68E2,3E0,1E1,3.57E2,2.7E2,7.69E2,1.62E2,3.46E2,1.8E1,1.05E2,7.9E2,5.06E2,2E1,1.23E2,3.43E2,5E0,4.8E1,3.6E1,4.2E1,1.87E2,2.42E2,7.7E1,7.3E1,1.43E2,1.8E1,3.2E1,2.8E1,1.8E2,1.41E2,1.19E2,6.16E2,6.11E2,4.3E1,4.25E2,6.8E1,2.89E2,2.11E2,5.9E1,4.7E1,7.22E2,1.2E1,3.34E2,3.83E2,4.07E2,1.92E2,3.14E2,1.2E1,8E0,9E1,3.3E1,1.1E1,3.1E1,3E0,1.84E2,8.6E1,1.56E2,3E0,7.4E1,4.3E1,1E2,1.04E2,7.6E1,5E0,1.36E2,1.08E2,1.1E1,2.37E2,3.79E2,3.75E2,2.36E2,1.24E2,1.65E2,1.06E2,1.05E2,4.2E1,1.7E1,2.5E1,2.2E1,8.1E1,6.41E2,4E0,8E0,2.99E2,3.5E1,1.14E2,2.69E2,2.75E2,1.32E2,2.6E1,1.66E2,2.4E1,2.9E2,6E0,5E0,1.71E2,1.3E1,2.6E1,7.4E1,2.8E1,7.6E1,6.4E1,1.2E1,1.23E2,1.3E1,1.99E2,3.8E1,9E0,3.7E2,2.46E2,1.29E2,2.26E2,1E1,8.2E1,4.2E1,2.3E1,1.42E2,8.4E1,2.1E1,5.62E2,7.9E1],"tree_param":{"num_deleted":"0","num_feature":"10","num_nodes":"169","size_leaf_vector":"1"}},{"base_weights":[2.0779395E-3,-5.92713E-1,3.7464434E-1,-2.613184E-1,-1.5903002E0,-6.4859915E-1,4.633029E-1,-4.6012497E-1,8.497044E-2,-2.004155E0,-6.154473E-1,-3.539346E-2,-4.2698245E-2,7.291673E-1,1.9596569E-1,-6.438733E-1,-3.837282E-1,-1.1043429E-2,4.3083015E-1,-2.1941624E0,-1.7892143E0,-4.0894812E-1,-6.119198E-2,6.189764E-1,1.1240659E0,-4.6527037E-1,3.4559155E-1,-3.0487245E-2,-7.2805977E-1,-4.287815E-1,-2.2908731E-1,1.12811156E-1,-8.334216E-2,1.9816944E-2,2.8540766E-2,-9.53051E-2,-2.2545185E0,-1.15490295E-1,-1.5758032E0,-5.348557E-1,-1.0381708E-2,4.7669283E-1,7.4860656E-1,1.1423411E0,2.0183098E-2,1.6338915E-1,-8.676918E-1,2.59216E-1,4.2087978E-1,-6.586789E-1,-5.3192828E-2,-4.5714465E-1,-2.1334808E-2,-2.5623587E-1,-8.922629E-3,2.0072314E-1,3.119845E-3,-1.003582E-1,-1.6973224E-4,-1.4595276E-1,-1.18625544E-1,-1.04482844E-1,-8.074494E-2,-2.5343124E-2,-4.035436E-2,3.700578E-1,5.3737026E-1,6.6305137E-1,8.903618E-1,5.3544085E-2,6.950445E-2,2.0902115E-1,-5.543019E-2,-1.2184441E0,-6.5883625E-1,4.0761787E-1,2.2001833E-1,6.0889995E-1,3.8114882E-1,-4.0846106E-2,-2.7239276E-2,-2.8722446E-2,-2.127768E-2,-9.3307365E-3,-2.7897266E-1,5.215343E-3,1.45953605E-2,-9.526564E-3,-5.2605066E-3,2.2794653E-2,1.02781365E-2,6.042751E-1,2.8018832E-2,7.0782185E-1,3.3495966E-2,2.7243089E-2,9.2508733E-1,3.5315086E-3,2.527794E-1,-1.9843797E-1,2.5978507E-3,-1.287752E0,-4.094982E-3,-9.404096E-1,-4.7407126E-1,3.2960925E-2,2.2517705E-2,3.237675E-1,1.8951523E-1,7.3886245E-1,4.388985E-1,4.9897212E-1,3.6785352E-1,-1.747598E-2,-6.761972E-3,3.0949214E-2,3.841797E-2,4.4649184E-2,3.0738357E-2,6.345568E-2,5.214901E-2,3.1949612E-3,1.6039804E-2,-3.0512565E-5,-1.8233918E-2,-7.8767166E-2,-3.502768E-2,-2.2547552E-2,-5.829039E-2,2.9563855E-3,-3.3065397E-2,1.3594057E-2,2.3187758E-2,7.5621787E-3,1.3451926E-2,2.457177E-2,4.79617E-2,2.9855533E-2,1.3824215E-2,3.4932397E-2,2.0389635E-2,2.2706749E-2,1.7985934E-2],"categories":[],"categories_nodes":[],"categories_segments":[],"categories_sizes":[],"default_left":[0,0,0,0,0,0,0,0,0,0,0,0,0,0,0,0,0,0,0,0,0,0,0,0,0,0,0,0,0,0,0,0,0,0,0,0,0,0,0,0,0,0,0,0,0,0,0,0,0,0,0,0,0,0,0,0,0,0,0,0,0,0,0,0,0,0,0,0,0,0,0,0,0,0,0,0,0,0,0,0,0,0,0,0,0,0,0,0,0,0,0,0,0,0,0,0,0,0,0,0,0,0,0,0,0,0,0,0,0,0,0,0,0,0,0,0,0,0,0,0,0,0,0,0,0,0,0,0,0,0,0,0,0,0,0,0,0,0,0,0,0,0,0],"id":4,"left_children":[1,3,5,7,9,11,13,15,17,19,21,-1,-1,23,25,27,29,31,33,35,37,39,-1,41,43,45,47,-1,49,51,53,55,57,-1,-1,-1,59,-1,61,63,-1,65,67,69,-1,71,73,75,77,79,-1,81,-1,83,-1,85,-1,87,-1,-1,-1,-1,-1,-1,-1,89,91,93,95,-1,-1,97,99,101,103,105,107,109,111,-1,-1,-1,-1,-1,113,-1,-1,-1,-1,-1,-1,115,-1,117,-1,-1,119,-1,121,123,-1,125,-1,127,129,-1,-1,131,133,135,137,139,141,-1,-1,-1,-1,-1,-1,-1,-1,-1,-1,-1,-1,-1,-1,-1,-1,-1,-1,-1,-1,-1,-1,-1,-1,-1,-1,-1,-1,-1,-1],"loss_changes":[1.6447095E3,9.4438245E2,4.144483E2,1.4790222E2,2.856062E2,7.1928406E-1,2.983382E2,1.8783936E1,2.6058285E1,1.4511108E1,1.7287758E1,0E0,0E0,9.057556E1,2.076647E2,3.9993744E0,6.5933075E0,5.5256157E0,5.3320694E-1,4.0792236E0,2.4689941E0,4.1534233E0,0E0,2.988855E1,6.0092773E0,9.824475E1,1.0959839E1,0E0,1.7906036E0,1.3081512E0,4.2618084E-1,1.2006178E0,5.331962E-1,0E0,0E0,0E0,4.2196045E0,0E0,3.892212E-1,1.0220985E0,0E0,4.816513E0,9.550507E0,2.423706E-1,0E0,1.5401173E0,1.6121048E1,4.5219955E0,6.4609833E0,3.2541656E-1,0E0,9.246826E-1,0E0,3.093605E-1,0E0,4.160087E-1,0E0,2.1732473E-1,0E0,0E0,0E0,0E0,0E0,0E0,0E0,4.732437E-1,1.9337921E0,1.952301E0,4.210724E0,0E0,0E0,8.088956E-1,4.0115565E-1,6.763733E0,7.213043E0,4.4892693E-1,1.9222755E0,2.9712563E0,9.09729E-1,0E0,0E0,0E0,0E0,0E0,2.1956253E-1,0E0,0E0,0E0,0E0,0E0,0E0,3.0599976E-1,0E0,2.0883331E0,0E0,0E0,8.040314E-1,0E0,2.6171875E-1,2.3981652E-1,0E0,2.8666687E-1,0E0,4.7950745E-1,3.8497715E0,0E0,0E0,7.3705006E-1,1.0485439E0,1.2324181E0,7.0300007E-1,6.6358566E-1,3.2421875E-1,0E0,0E0,0E0,0E0,0E0,0E0,0E0,0E0,0E0,0E0,0E0,0E0,0E0,0E0,0E0,0E0,0E0,0E0,0E0,0E0,0E0,0E0,0E0,0E0,0E0,0E0,0E0,0E0,0E0,0E0],"parents":[2147483647,0,0,1,1,2,2,3,3,4,4,5,5,6,6,7,7,8,8,9,9,10,10,13,13,14,14,15,15,16,16,17,17,18,18,19,19,20,20,21,21,23,23,24,24,25,25,26,26,28,28,29,29,30,30,31,31,32,32,36,36,38,38,39,39,41,41,42,42,43,43,45,45,46,46,47,47,48,48,49,49,51,51,53,53,55,55,57,57,65,65,66,66,67,67,68,68,71,71,72,72,73,73,74,74,75,75,76,76,77,77,78,78,84,84,91,91,93,93,96,96,98,98,99,99,101,101,103,103,104,104,107,107,108,108,109,109,110,110,111,111,112,112],"right_children":[2,4,6,8,10,12,14,16,18,20,22,-1,-1,24,26,28,30,32,34,36,38,40,-1,42,44,46,48,-1,50,52,54,56,58,-1,-1,-1,60,-1,62,64,-1,66,68,70,-1,72,74,76,78,80,-1,82,-1,84,-1,86,-1,88,-1,-1,-1,-1,-1,-1,-1,90,92,94,96,-1,-1,98,100,102,104,106,108,110,112,-1,-1,-1,-1,-1,114,-1,-1,-1,-1,-1,-1,116,-1,118,-1,-1,120,-1,122,124,-1,126,-1,128,130,-1,-1,132,134,136,138,140,142,-1,-1,-1,-1,-1,-1,-1,-1,-1,-1,-1,-1,-1,-1,-1,-1,-1,-1,-1,-1,-1,-1,-1,-1,-1,-1,-1,-1,-1,-1],"split_conditions":[-2.4287029E-1,-5.518285E-2,-1.17452E0,-8.635924E-1,-1.1826136E-1,2.0658582E-2,3.179315E-1,-1.2367008E0,-6.148515E-1,-1.242904E0,3.1205112E-1,-3.539346E-2,-4.2698245E-2,2.52846E-1,5.477163E-1,-1.031768E0,-1.1988821E0,-1.2323045E0,-1.5665326E0,-2.3511076E0,2.3049152E-1,-7.6992804E-1,-6.119198E-2,-1.7955035E-1,5.5618083E-1,8.5662353E-1,9.601693E-1,-3.0487245E-2,4.4197333E-1,-9.8795986E-1,2.2543582E-1,-1.4996878E0,-7.3921895E-1,1.9816944E-2,2.8540766E-2,-9.53051E-2,-1.2969921E0,-1.15490295E-1,2.0378213E-1,7.951681E-1,-1.0381708E-2,-3.2988724E-1,1.6289929E-1,2.873159E-1,2.0183098E-2,8.0648893E-1,2.8418747E-1,5.044857E-1,8.6580426E-1,1.7072959E-2,-5.3192828E-2,-3.1935376E-1,-2.1334808E-2,8.898857E-3,-8.922629E-3,-6.7703813E-1,3.119845E-3,-4.2000532E-1,-1.6973224E-4,-1.4595276E-1,-1.18625544E-1,-1.04482844E-1,-8.074494E-2,-2.5343124E-2,-4.035436E-2,-5.2065897E-1,9.4018054E-1,1.0237375E0,2.0658582E-2,5.3544085E-2,6.950445E-2,2.8418747E-1,1.7092862E0,-5.3999895E-1,7.243942E-1,5.7253E-1,1.6047473E-1,1.3128953E0,1.2507086E0,-4.0846106E-2,-2.7239276E-2,-2.8722446E-2,-2.127768E-2,-9.3307365E-3,7.734493E-1,5.215343E-3,1.45953605E-2,-9.526564E-3,-5.2605066E-3,2.2794653E-2,1.02781365E-2,2.7172422E-1,2.8018832E-2,2.557448E-1,3.3495966E-2,2.7243089E-2,-2.1732205E-1,3.5315086E-3,-5.3999895E-1,7.532267E-1,2.5978507E-3,8.775942E-1,-4.094982E-3,-3.9177055E0,7.532267E-1,3.2960925E-2,2.2517705E-2,7.2522056E-1,8.264259E-1,2.4708952E-1,1.8653607E0,1.1283827E0,1.140717E0,-1.747598E-2,-6.761972E-3,3.0949214E-2,3.841797E-2,4.4649184E-2,3.0738357E-2,6.345568E-2,5.214901E-2,3.1949612E-3,1.6039804E-2,-3.0512565E-5,-1.8233918E-2,-7.8767166E-2,-3.502768E-2,-2.2547552E-2,-5.829039E-2,2.9563855E-3,-3.3065397E-2,1.3594057E-2,2.3187758E-2,7.5621787E-3,1.3451926E-2,2.457177E-2,4.79617E-2,2.9855533E-2,1.3824215E-2,3.4932397E-2,2.0389635E-2,2.2706749E-2,1.7985934E-2],"split_indices":[1,6,6,6,3,1,6,6,6,3,0,0,0,4,1,7,7,7,7,1,2,1,0,6,4,7,4,0,0,6,0,7,6,0,0,0,1,0,0,2,0,7,3,4,0,7,1,6,3,4,0,4,0,0,0,6,0,4,0,0,0,0,0,0,0,4,7,7,1,0,0,1,3,3,4,7,0,6,6,0,0,0,0,0,2,0,0,0,0,0,0,7,0,6,0,0,4,0,3,6,0,6,0,2,6,0,0,3,4,0,1,4,7,0,0,0,0,0,0,0,0,0,0,0,0,0,0,0,0,0,0,0,0,0,0,0,0,0,0,0,0,0,0],"split_type":[0,0,0,0,0,0,0,0,0,0,0,0,0,0,0,0,0,0,0,0,0,0,0,0,0,0,0,0,0,0,0,0,0,0,0,0,0,0,0,0,0,0,0,0,0,0,0,0,0,0,0,0,0,0,0,0,0,0,0,0,0,0,0,0,0,0,0,0,0,0,0,0,0,0,0,0,0,0,0,0,0,0,0,0,0,0,0,0,0,0,0,0,0,0,0,0,0,0,0,0,0,0,0,0,0,0,0,0,0,0,0,0,0,0,0,0,0,0,0,0,0,0,0,0,0,0,0,0,0,0,0,0,0,0,0,0,0,0,0,0,0,0,0],"sum_hessian":[7.419E3,2.857E3,4.562E3,2.146E3,7.11E2,3.63E2,4.199E3,1.363E3,7.83E2,4.98E2,2.13E2,1.96E2,1.67E2,2.104E3,2.095E3,3.97E2,9.66E2,6.14E2,1.69E2,2.57E2,2.41E2,1.43E2,7E1,1.648E3,4.56E2,3.86E2,1.709E3,1.56E2,2.41E2,7.46E2,2.2E2,2.26E2,3.88E2,5.6E1,1.13E2,2.7E1,2.3E2,1.4E2,1.01E2,9.2E1,5.1E1,7.89E2,8.59E2,4.45E2,1.1E1,1.51E2,2.35E2,7.99E2,9.1E2,1.73E2,6.8E1,5.32E2,2.14E2,1.62E2,5.8E1,9.1E1,1.35E2,3.2E2,6.8E1,1.33E2,9.7E1,5.3E1,4.8E1,5.4E1,3.8E1,2.9E2,4.99E2,5.41E2,3.18E2,3.2E1,4.13E2,1.25E2,2.6E1,8.5E1,1.5E2,1.64E2,6.35E2,1.55E2,7.55E2,1.53E2,2E1,4.35E2,9.7E1,3.2E1,1.3E2,2.6E1,6.5E1,5.4E1,2.66E2,2.75E2,1.5E1,2.5E2,2.49E2,3.73E2,1.68E2,2.5E1,2.93E2,2.9E1,9.6E1,1E1,1.6E1,8E1,5E0,5.7E1,9.3E1,2.6E1,1.38E2,1.41E2,4.94E2,8.5E1,7E1,7.1E1,6.84E2,1.2E2,1E1,7.9E1,1.71E2,3.11E2,6.2E1,7.9E1,2.14E2,7E0,8.9E1,4E0,6E0,7.6E1,4E0,4E0,5.3E1,1.2E1,8.1E1,5.8E1,8.3E1,1.77E2,3.17E2,1.5E1,7E1,5.3E1,1.7E1,4.4E1,2.7E1,5.86E2,9.8E1],"tree_param":{"num_deleted":"0","num_feature":"10","num_nodes":"143","size_leaf_vector":"1"}},{"base_weights":[2.7401675E-5,-5.646295E-1,3.504637E-1,-2.5016105E-1,-1.4932883E0,-6.1006606E-1,4.343838E-1,-4.4768086E-1,6.897846E-2,-1.8654003E0,-5.5075026E-1,-3.352299E-2,-3.9962478E-2,6.8629307E-1,1.819258E-1,-6.80421E-1,-3.8670558E-1,-4.554868E-2,3.5204685E-1,-1.982035E0,-1.4460211E0,-7.808156E-1,-2.454603E-1,4.755983E-1,9.108715E-1,-4.3143746E-1,3.2350472E-1,-5.2138362E-2,-3.7369415E-2,-4.2634064E-1,-2.5098065E-1,-9.626551E-2,1.8590415E-3,2.790978E-1,2.7230417E-2,-9.7681284E-2,-1.293687E-1,-9.658738E-2,-7.510887E-2,-3.4346197E-2,-5.5797335E-2,-8.559303E-3,-2.1392092E-2,3.4805515E-1,5.251334E-1,7.822451E-1,1.0895413E0,1.4427935E-1,-8.033814E-1,2.3534766E-1,3.9764175E-1,-4.6813977E-1,-3.8600978E-1,-6.670894E-3,-1.6033454E-2,-9.905149E-3,-4.920467E-3,1.0617128E-2,1.8129682E-2,2.985967E-1,2.3505582E-2,5.7649714E-1,4.7346863E-1,8.4336066E-1,3.1631786E-2,5.018638E-2,6.646583E-2,6.0284544E-2,2.998214E-1,-3.2910895E-1,-1.0367031E0,3.348485E-1,1.9038536E-1,5.179381E-1,3.247278E-1,-2.9132439E-2,-2.1179985E-2,-2.9112363E-2,-3.7389788E-1,1.9456489E-2,1.3128809E-2,4.6432018E-1,3.5513975E-2,2.6478844E-2,3.2791372E-2,5.79696E-2,4.809268E-2,-6.0504217E-2,1.3174607E-1,1.9131254E-2,-1.0763706E-3,-3.693306E-2,-2.744459E-2,-1.0800437E0,-4.2645927E-3,2.2606438E-2,2.981506E-1,3.0525377E-1,1.5924281E-1,3.7380356E-1,4.0275436E-2,3.4024477E-1,1.3564289E-2,-2.5338901E-2,-2.0749498E-2,2.9742021E-2,1.2642798E-2,5.426135E-3,-6.1886753E-3,-5.4608E-3,9.390218E-3,3.0384224E-3,-8.4655285E-3,-5.4060128E-2,-7.6299585E-2,9.250133E-3,1.8841367E-2,7.762353E-3,2.0840608E-2,2.7139178E-3,1.0936149E-2,1.9139253E-2,2.5123822E-2,2.1359045E-2,1.3668265E-2],"categories":[],"categories_nodes":[],"categories_segments":[],"categories_sizes":[],"default_left":[0,0,0,0,0,0,0,0,0,0,0,0,0,0,0,0,0,0,0,0,0,0,0,0,0,0,0,0,0,0,0,0,0,0,0,0,0,0,0,0,0,0,0,0,0,0,0,0,0,0,0,0,0,0,0,0,0,0,0,0,0,0,0,0,0,0,0,0,0,0,0,0,0,0,0,0,0,0,0,0,0,0,0,0,0,0,0,0,0,0,0,0,0,0,0,0,0,0,0,0,0,0,0,0,0,0,0,0,0,0,0,0,0,0,0,0,0,0,0,0,0,0,0,0,0],"id":5,"left_children":[1,3,5,7,9,11,13,15,17,19,21,-1,-1,23,25,27,29,31,33,35,37,39,41,43,45,47,49,-1,-1,51,53,55,-1,57,-1,-1,-1,-1,-1,-1,-1,-1,-1,59,61,63,65,67,69,71,73,75,77,-1,-1,-1,-1,-1,-1,79,-1,81,83,85,-1,-1,-1,87,89,91,93,95,97,99,101,-1,-1,-1,103,-1,-1,105,-1,-1,-1,-1,-1,107,109,-1,-1,111,-1,113,-1,-1,115,117,119,121,-1,123,-1,-1,-1,-1,-1,-1,-1,-1,-1,-1,-1,-1,-1,-1,-1,-1,-1,-1,-1,-1,-1,-1,-1],"loss_changes":[1.468242E3,8.2925397E2,3.6946008E2,1.339671E2,2.5045825E2,5.009918E-1,2.676494E2,1.8231537E1,2.6396923E1,2.086731E1,1.4146141E1,0E0,0E0,9.907184E1,1.830495E2,2.1258392E0,5.452957E0,2.2576823E0,1.5513363E0,1.929712E1,7.143402E-1,2.8220367E0,9.571314E-1,6.6154633E0,2.2128418E1,8.4864006E1,1.1045456E1,0E0,0E0,1.086853E0,4.9930096E-1,3.226297E-1,0E0,2.507925E-1,0E0,0E0,0E0,0E0,0E0,0E0,0E0,0E0,0E0,4.935379E-1,1.6670837E0,8.646545E0,5.5874634E-1,2.0175173E0,2.6101486E1,3.4185333E0,7.883087E0,5.21286E-1,2.3068237E-1,0E0,0E0,0E0,0E0,0E0,0E0,2.039423E-1,0E0,2.5379944E-1,5.743103E-1,1.3006287E0,0E0,0E0,0E0,9.053427E-1,3.3819056E-1,3.0298023E0,6.601898E0,2.0460129E-1,1.8749237E0,7.302887E0,7.7480316E-1,0E0,0E0,0E0,2.967453E-1,0E0,0E0,2.6908875E-1,0E0,0E0,0E0,0E0,0E0,2.6821905E-1,3.8259745E-1,0E0,0E0,2.52439E-1,0E0,3.5475006E0,0E0,0E0,2.3932552E-1,7.8021336E-1,1.120431E0,2.4908829E-1,0E0,7.6234055E-1,0E0,0E0,0E0,0E0,0E0,0E0,0E0,0E0,0E0,0E0,0E0,0E0,0E0,0E0,0E0,0E0,0E0,0E0,0E0,0E0,0E0,0E0,0E0],"parents":[2147483647,0,0,1,1,2,2,3,3,4,4,5,5,6,6,7,7,8,8,9,9,10,10,13,13,14,14,15,15,16,16,17,17,18,18,19,19,20,20,21,21,22,22,23,23,24,24,25,25,26,26,29,29,30,30,31,31,33,33,43,43,44,44,45,45,46,46,47,47,48,48,49,49,50,50,51,51,52,52,59,59,61,61,62,62,63,63,67,67,68,68,69,69,70,70,71,71,72,72,73,73,74,74,78,78,81,81,87,87,88,88,91,91,93,93,96,96,97,97,98,98,99,99,101,101],"right_children":[2,4,6,8,10,12,14,16,18,20,22,-1,-1,24,26,28,30,32,34,36,38,40,42,44,46,48,50,-1,-1,52,54,56,-1,58,-1,-1,-1,-1,-1,-1,-1,-1,-1,60,62,64,66,68,70,72,74,76,78,-1,-1,-1,-1,-1,-1,80,-1,82,84,86,-1,-1,-1,88,90,92,94,96,98,100,102,-1,-1,-1,104,-1,-1,106,-1,-1,-1,-1,-1,108,110,-1,-1,112,-1,114,-1,-1,116,118,120,122,-1,124,-1,-1,-1,-1,-1,-1,-1,-1,-1,-1,-1,-1,-1,-1,-1,-1,-1,-1,-1,-1,-1,-1,-1],"split_conditions":[-2.4287029E-1,-1.894258E-1,-1.3116224E0,-9.4598776E-1,9.727066E-1,2.0658582E-2,4.1848615E-1,-1.4602724E0,-6.757554E-1,9.185714E-1,1.0272856E0,-3.352299E-2,-3.9962478E-2,-5.5862658E-2,5.477163E-1,-1.7034372E0,-1.0547019E0,-7.8446954E-1,-1.4495533E0,7.96989E-1,9.45639E-1,2.6874322E-1,2.3049152E-1,-4.5965818E-1,2.873159E-1,8.5662353E-1,9.601693E-1,-5.2138362E-2,-3.7369415E-2,-3.8691553E-1,-1.1594801E0,-9.1892016E-1,1.8590415E-3,-6.6288716E-1,2.7230417E-2,-9.7681284E-2,-1.293687E-1,-9.658738E-2,-7.510887E-2,-3.4346197E-2,-5.5797335E-2,-8.559303E-3,-2.1392092E-2,-5.4130477E-1,1.0237375E0,3.6435094E-1,1.07874215E-1,1.1084884E0,6.625384E-1,5.391811E-1,1.3006241E0,-1.1492168E0,-1.4332048E0,-6.670894E-3,-1.6033454E-2,-9.905149E-3,-4.920467E-3,1.0617128E-2,1.8129682E-2,2.9039744E-1,2.3505582E-2,-4.3259057E-1,-1.6235818E-1,-2.1732205E-1,3.1631786E-2,5.018638E-2,6.646583E-2,2.9039744E-1,1.0340688E0,6.3502705E-1,9.270775E-1,2.5221032E-1,9.551364E-2,1.219865E0,1.6924388E0,-2.9132439E-2,-2.1179985E-2,-2.9112363E-2,1.3882104E-1,1.9456489E-2,1.3128809E-2,4.8528072E-1,3.5513975E-2,2.6478844E-2,3.2791372E-2,5.79696E-2,4.809268E-2,6.3502705E-1,1.8705598E-1,1.9131254E-2,-1.0763706E-3,3.1205112E-1,-2.744459E-2,7.0247424E-1,-4.2645927E-3,2.2606438E-2,4.3046692E-1,6.0795945E-1,8.112452E-1,7.082949E-1,4.0275436E-2,9.9063325E-1,1.3564289E-2,-2.5338901E-2,-2.0749498E-2,2.9742021E-2,1.2642798E-2,5.426135E-3,-6.1886753E-3,-5.4608E-3,9.390218E-3,3.0384224E-3,-8.4655285E-3,-5.4060128E-2,-7.6299585E-2,9.250133E-3,1.8841367E-2,7.762353E-3,2.0840608E-2,2.7139178E-3,1.0936149E-2,1.9139253E-2,2.5123822E-2,2.1359045E-2,1.3668265E-2],"split_indices":[1,9,9,9,9,1,9,9,9,9,9,0,0,9,1,9,9,9,7,9,9,0,2,9,4,7,4,0,0,4,2,9,0,9,0,0,0,0,0,0,0,0,0,9,7,9,9,9,9,9,9,9,9,0,0,0,0,0,0,0,0,9,9,4,0,0,0,0,2,9,4,2,0,9,9,0,0,0,0,0,0,0,0,0,0,0,0,9,2,0,0,0,0,9,0,0,9,9,1,2,0,2,0,0,0,0,0,0,0,0,0,0,0,0,0,0,0,0,0,0,0,0,0,0,0],"split_type":[0,0,0,0,0,0,0,0,0,0,0,0,0,0,0,0,0,0,0,0,0,0,0,0,0,0,0,0,0,0,0,0,0,0,0,0,0,0,0,0,0,0,0,0,0,0,0,0,0,0,0,0,0,0,0,0,0,0,0,0,0,0,0,0,0,0,0,0,0,0,0,0,0,0,0,0,0,0,0,0,0,0,0,0,0,0,0,0,0,0,0,0,0,0,0,0,0,0,0,0,0,0,0,0,0,0,0,0,0,0,0,0,0,0,0,0,0,0,0,0,0,0,0,0,0],"sum_hessian":[7.417E3,2.84E3,4.577E3,2.123E3,7.17E2,3.67E2,4.21E3,1.311E3,8.12E2,5.13E2,2.04E2,2E2,1.67E2,2.106E3,2.104E3,2.69E2,1.042E3,5.79E2,2.33E2,3.97E2,1.16E2,1.15E2,8.9E1,1.089E3,1.017E3,3.94E2,1.71E3,5.8E1,2.11E2,8.04E2,2.38E2,3.48E2,2.31E2,1.39E2,9.4E1,1.36E2,2.61E2,5.7E1,5.9E1,5.1E1,6.4E1,4.8E1,4.1E1,3.08E2,7.81E2,5.96E2,4.21E2,1.55E2,2.39E2,7.84E2,9.26E2,3.87E2,4.17E2,2.6E1,2.12E2,5.7E1,2.91E2,2.8E1,1.11E2,1.5E2,1.58E2,3.84E2,3.97E2,4.78E2,1.18E2,3.3E1,3.88E2,1.02E2,5.3E1,8E1,1.59E2,2.41E2,5.43E2,3.46E2,5.8E2,3.32E2,5.5E1,3.9E1,3.78E2,1.1E2,4E1,5.2E1,3.32E2,2.83E2,1.14E2,1.13E2,3.65E2,3.8E1,6.4E1,5E1,3E0,2.5E1,5.5E1,1.52E2,7E0,1.06E2,1.35E2,1.13E2,4.3E2,1.81E2,1.65E2,4.98E2,8.2E1,1.31E2,2.47E2,4.5E1,7E0,8E0,3E1,6E0,5.8E1,1.4E1,1.1E1,8.3E1,6.9E1,1.5E1,1.2E2,2.3E1,9E1,7.3E1,3.57E2,8.7E1,9.4E1,4.34E2,6.4E1],"tree_param":{"num_deleted":"0","num_feature":"10","num_nodes":"125","size_leaf_vector":"1"}},{"base_weights":[-5.9789266E-3,-5.3558666E-1,3.2807437E-1,-2.768971E-1,-1.7782352E0,-5.733733E-1,4.0615195E-1,1.9698538E-2,-4.0825555E-1,-1.8230851E0,-1.0062687E0,-3.133417E-2,-3.7750386E-2,6.0122794E-1,1.1074675E-1,-6.0198374E-2,2.9348674E-1,-1.0201595E0,-3.6606178E-1,-8.882597E-2,-1.9241111E0,-7.093861E-2,-2.5826627E-2,4.303012E-1,7.0682657E-1,-4.587573E-1,2.763843E-1,-2.3743126E-1,-2.6929049E-2,2.6308963E-1,2.713907E-2,-6.513557E-2,-3.7465498E-2,-3.987468E-1,3.4694818E-1,-1.9979931E0,-9.1403365E-2,3.2744998E-1,4.7601315E-1,8.625922E-1,4.121787E-1,1.3246521E-1,-7.464065E-1,1.9121705E-1,3.2383865E-1,-2.1015385E-2,-1.1430509E-2,-4.898216E-3,1.731944E-3,9.891493E-3,1.7097093E-2,-6.3694686E-1,-3.4565836E-1,2.4629673E-2,-2.1234961E-2,-1.051682E-1,-1.2548327E-1,2.798176E-1,2.2186765E-2,5.5319273E-1,2.6637336E-2,7.5122184E-1,1.0232037E0,4.795764E-1,1.9870684E-1,3.4354087E-2,2.7053475E-1,-2.8081992E-1,-1.0181551E0,2.7170447E-1,1.5328032E-1,3.8384312E-1,2.9780468E-1,-4.9033936E-2,-5.8118355E-1,-4.0061173E-1,-2.3893441E-1,1.8937347E-2,1.2677397E-2,2.902408E-2,3.8068954E-2,3.6826808E-2,8.0438757E-1,4.7533385E-2,6.2331475E-2,3.7098062E-1,5.8011174E-1,2.189079E-1,-2.2108832E-4,-3.5838329E-3,5.198313E-3,1.767955E-2,2.1312835E-3,-8.0084096E-4,-2.5701921E-2,-5.1201306E-2,-7.189557E-2,1.964172E-2,1.5507428E-1,6.360086E-2,1.9120383E-1,2.0251803E-2,6.057663E-1,2.2846685E-1,3.298168E-1,-3.6157653E-2,-2.5541658E-2,-2.5381645E-2,-2.0344624E-2,-3.0498657E-2,-1.0872226E-2,5.076697E-2,4.3313537E-2,2.7275316E-2,1.8399926E-2,3.8290996E-2,2.781576E-2,4.7219885E-3,1.4838787E-2,-2.4717205E-4,1.1384828E-2,1.194086E-2,2.85031E-4,1.0369734E-2,2.2264898E-2,3.8129363E-2,9.369092E-3,9.137924E-3,1.5522378E-2,1.5114069E-2,2.0571424E-2],"categories":[],"categories_nodes":[],"categories_segments":[],"categories_sizes":[],"default_left":[0,0,0,0,0,0,0,0,0,0,0,0,0,0,0,0,0,0,0,0,0,0,0,0,0,0,0,0,0,0,0,0,0,0,0,0,0,0,0,0,0,0,0,0,0,0,0,0,0,0,0,0,0,0,0,0,0,0,0,0,0,0,0,0,0,0,0,0,0,0,0,0,0,0,0,0,0,0,0,0,0,0,0,0,0,0,0,0,0,0,0,0,0,0,0,0,0,0,0,0,0,0,0,0,0,0,0,0,0,0,0,0,0,0,0,0,0,0,0,0,0,0,0,0,0,0,0,0,0,0,0],"id":6,"left_children":[1,3,5,7,9,11,13,15,17,19,21,-1,-1,23,25,27,29,31,33,-1,35,-1,-1,37,39,41,43,45,47,49,-1,-1,-1,51,53,55,-1,57,59,61,63,65,67,69,71,-1,-1,-1,-1,-1,-1,73,75,-1,-1,-1,-1,77,-1,79,-1,81,83,85,87,89,91,93,95,97,99,101,103,-1,105,107,109,-1,-1,-1,-1,-1,111,-1,-1,113,115,117,-1,-1,-1,-1,-1,-1,-1,-1,-1,-1,119,121,123,-1,125,127,129,-1,-1,-1,-1,-1,-1,-1,-1,-1,-1,-1,-1,-1,-1,-1,-1,-1,-1,-1,-1,-1,-1,-1,-1,-1,-1],"loss_changes":[1.3134314E3,9.223342E2,3.2076727E2,9.2679245E1,1.4369141E1,5.443573E-1,2.4138385E2,1.602794E1,4.2001648E1,1.1841309E1,2.3283806E0,0E0,0E0,4.509204E1,1.5758188E2,3.3366263E0,6.205368E-1,1.7150421E0,3.620169E1,0E0,5.9296875E0,0E0,0E0,4.3149414E0,7.094971E1,6.417766E1,5.1348724E0,3.7372875E-1,1.4671676E0,2.3555756E-1,0E0,0E0,0E0,1.835373E1,3.268732E0,1.2452393E0,0E0,4.547119E-1,1.2806396E0,1.7047424E1,7.647888E0,1.6725557E0,3.1644577E1,1.3619537E0,1.1227722E0,0E0,0E0,0E0,0E0,0E0,0E0,1.9768219E0,6.96167E0,0E0,0E0,0E0,0E0,2.6433086E-1,0E0,6.095848E-1,0E0,3.6912537E0,2.5698853E-1,4.158905E0,5.429392E-1,3.7424022E-1,2.7628255E-1,3.7602706E0,3.200348E0,8.813267E-1,1.0717654E0,2.2165375E0,1.1843529E0,0E0,3.1373596E-1,8.8487244E-1,6.3233967E0,0E0,0E0,0E0,0E0,0E0,5.7266235E-1,0E0,0E0,8.744106E-1,9.805069E-1,4.5071363E-1,0E0,0E0,0E0,0E0,0E0,0E0,0E0,0E0,0E0,0E0,2.799176E-1,7.7557194E-1,6.4582634E-1,0E0,3.9239216E-1,3.7737083E-1,2.7331543E-1,0E0,0E0,0E0,0E0,0E0,0E0,0E0,0E0,0E0,0E0,0E0,0E0,0E0,0E0,0E0,0E0,0E0,0E0,0E0,0E0,0E0,0E0,0E0,0E0,0E0,0E0],"parents":[2147483647,0,0,1,1,2,2,3,3,4,4,5,5,6,6,7,7,8,8,9,9,10,10,13,13,14,14,15,15,16,16,17,17,18,18,20,20,23,23,24,24,25,25,26,26,27,27,28,28,29,29,33,33,34,34,35,35,37,37,38,38,39,39,40,40,41,41,42,42,43,43,44,44,51,51,52,52,57,57,59,59,61,61,62,62,63,63,64,64,65,65,66,66,67,67,68,68,69,69,70,70,71,71,72,72,74,74,75,75,76,76,82,82,85,85,86,86,87,87,98,98,99,99,100,100,102,102,103,103,104,104],"right_children":[2,4,6,8,10,12,14,16,18,20,22,-1,-1,24,26,28,30,32,34,-1,36,-1,-1,38,40,42,44,46,48,50,-1,-1,-1,52,54,56,-1,58,60,62,64,66,68,70,72,-1,-1,-1,-1,-1,-1,74,76,-1,-1,-1,-1,78,-1,80,-1,82,84,86,88,90,92,94,96,98,100,102,104,-1,106,108,110,-1,-1,-1,-1,-1,112,-1,-1,114,116,118,-1,-1,-1,-1,-1,-1,-1,-1,-1,-1,120,122,124,-1,126,128,130,-1,-1,-1,-1,-1,-1,-1,-1,-1,-1,-1,-1,-1,-1,-1,-1,-1,-1,-1,-1,-1,-1,-1,-1,-1,-1],"split_conditions":[-2.4287029E-1,1.12778E0,-1.3116224E0,-8.171238E-1,9.45639E-1,2.0658582E-2,7.881932E-1,-6.757554E-1,-1.5605209E0,7.841208E-1,-1.8240498E0,-3.133417E-2,-3.7750386E-2,-1.0999788E-1,5.477163E-1,-9.1892016E-1,-1.2184534E0,4.4405994E-1,9.6871805E-1,-8.882597E-2,9.185714E-1,-7.093861E-2,-2.5826627E-2,-4.5965818E-1,-1.9969471E-1,1.1586506E0,8.9260757E-1,-1.0675701E0,-7.8446954E-1,-6.6288716E-1,2.713907E-2,-6.513557E-2,-3.7465498E-2,-1.4602724E0,-7.5643206E-1,8.240566E-1,-9.1403365E-2,-5.4130477E-1,-3.664746E-1,2.873159E-1,1.8653607E0,1.1084884E0,6.625384E-1,1.0969077E0,1.3143798E0,-2.1015385E-2,-1.1430509E-2,-4.898216E-3,1.731944E-3,9.891493E-3,1.7097093E-2,-1.7034372E0,-1.0547019E0,2.4629673E-2,-2.1234961E-2,-1.051682E-1,-1.2548327E-1,-1.5889108E0,2.2186765E-2,-4.0552297E-1,2.6637336E-2,-2.8795045E-2,1.07874215E-1,1.074774E0,4.4197333E-1,2.0658582E-2,2.2716074E0,6.3502705E-1,7.0247424E-1,1.3143798E0,8.112452E-1,1.219865E0,1.0952908E0,-4.9033936E-2,3.0348295E-1,-1.1629723E0,-1.0334632E0,1.8937347E-2,1.2677397E-2,2.902408E-2,3.8068954E-2,3.6826808E-2,2.818169E-1,4.7533385E-2,6.2331475E-2,4.1848615E-1,1.0063813E0,5.103494E-1,-2.2108832E-4,-3.5838329E-3,5.198313E-3,1.767955E-2,2.1312835E-3,-8.0084096E-4,-2.5701921E-2,-5.1201306E-2,-7.189557E-2,1.964172E-2,1.6289929E-1,5.791169E-1,1.0414504E0,2.0251803E-2,1.8653607E0,8.6580426E-1,1.5167212E0,-3.6157653E-2,-2.5541658E-2,-2.5381645E-2,-2.0344624E-2,-3.0498657E-2,-1.0872226E-2,5.076697E-2,4.3313537E-2,2.7275316E-2,1.8399926E-2,3.8290996E-2,2.781576E-2,4.7219885E-3,1.4838787E-2,-2.4717205E-4,1.1384828E-2,1.194086E-2,2.85031E-4,1.0369734E-2,2.2264898E-2,3.8129363E-2,9.369092E-3,9.137924E-3,1.5522378E-2,1.5114069E-2,2.0571424E-2],"split_indices":[1,5,9,5,9,1,5,9,1,9,1,0,0,9,1,9,5,3,8,0,9,0,0,9,5,5,4,9,9,9,0,0,0,9,4,9,0,9,9,4,1,9,9,5,9,0,0,0,0,0,0,9,9,0,0,0,0,5,0,9,0,9,9,1,0,1,3,9,9,9,1,9,4,0,3,9,1,0,0,0,0,0,9,0,0,9,3,5,0,0,0,0,0,0,0,0,0,0,3,9,8,0,1,3,9,0,0,0,0,0,0,0,0,0,0,0,0,0,0,0,0,0,0,0,0,0,0,0,0,0,0],"split_type":[0,0,0,0,0,0,0,0,0,0,0,0,0,0,0,0,0,0,0,0,0,0,0,0,0,0,0,0,0,0,0,0,0,0,0,0,0,0,0,0,0,0,0,0,0,0,0,0,0,0,0,0,0,0,0,0,0,0,0,0,0,0,0,0,0,0,0,0,0,0,0,0,0,0,0,0,0,0,0,0,0,0,0,0,0,0,0,0,0,0,0,0,0,0,0,0,0,0,0,0,0,0,0,0,0,0,0,0,0,0,0,0,0,0,0,0,0,0,0,0,0,0,0,0,0,0,0,0,0,0,0],"sum_hessian":[7.421E3,2.87E3,4.551E3,2.377E3,4.93E2,3.62E2,4.189E3,7.3E2,1.647E3,4.64E2,2.9E1,1.97E2,1.65E2,2.522E3,1.667E3,5.66E2,1.64E2,1.04E2,1.543E3,1.11E2,3.53E2,2.1E1,8E0,9.66E2,1.556E3,3.75E2,1.292E3,8.8E1,4.78E2,1.41E2,2.3E1,8.7E1,1.7E1,1.476E3,6.7E1,2.93E2,6E1,3.01E2,6.65E2,1.016E3,5.4E2,1.23E2,2.52E2,4.65E2,8.27E2,2.3E1,6.5E1,2.41E2,2.37E2,2.8E1,1.13E2,2.66E2,1.21E3,6.2E1,5E0,8.9E1,2.04E2,1.47E2,1.54E2,1.88E2,4.77E2,6.05E2,4.11E2,4.09E2,1.31E2,7.3E1,5E1,9.4E1,1.58E2,1.46E2,3.19E2,2.44E2,5.83E2,5.8E1,2.08E2,7.96E2,4.14E2,9.3E1,5.4E1,1.07E2,8.1E1,1.74E2,4.31E2,3.1E1,3.8E2,2E2,2.09E2,1.19E2,1.2E1,2.6E1,4.7E1,4.5E1,5E0,3.4E1,6E1,8.7E1,7.1E1,9.7E1,4.9E1,9.6E1,2.23E2,2.05E2,3.9E1,1.88E2,3.95E2,1.79E2,2.9E1,5.77E2,2.19E2,7.1E1,3.43E2,2.77E2,1.54E2,8.3E1,1.17E2,1.35E2,7.4E1,2.1E1,9.8E1,9E0,4E1,2.8E1,6.8E1,2.05E2,1.8E1,3.6E1,3E0,5.6E1,1.32E2,6.1E1,3.34E2],"tree_param":{"num_deleted":"0","num_feature":"10","num_nodes":"131","size_leaf_vector":"1"}},{"base_weights":[-9.4688596E-4,1.4419304E-1,-4.5854512E-1,-3.3856872E-1,4.5560956E-1,-9.461918E-1,2.615592E-1,-4.5091224E-1,-9.252584E-2,5.304384E-1,5.0424963E-2,-7.349848E-3,-1.4518626E0,1.6806827E-1,2.958842E-1,-5.759645E-1,-3.734066E-1,-1.9234668E-1,-4.1829724E-2,3.677108E-1,6.518431E-1,-1.8041903E-1,2.5199836E-1,1.4180665E-1,-4.846941E-1,-1.5381545E0,-6.048551E-1,-5.5191186E-3,1.8267368E-1,3.1759226E-1,2.1712233E-1,-4.619036E-2,-5.5209637E-1,-4.0091556E-1,-1.8624457E-2,-7.5683156E-3,-1.3104405E-2,-4.499976E-3,8.751785E-4,2.2090358E-1,4.2493886E-1,8.0714834E-1,3.7169182E-1,1.8422844E-2,-4.4723514E-1,3.990993E-3,2.816921E-1,2.3175038E-1,7.5743524E-3,-1.8533647E-2,-5.613033E-1,-1.1363385E0,-1.723525E0,-4.8376624E-2,-4.26953E-1,1.863234E-2,1.6634692E-1,2.627177E-1,2.035448E-2,2.1929258E-2,1.7761695E-1,-4.9134132E-1,-3.4432326E-2,-3.4139198E-1,-2.5656193E-2,9.347035E-2,1.574677E-2,2.12388E-2,4.4072556E-1,7.019953E-1,9.645626E-1,4.2786238E-1,1.7375858E-1,-7.198054E-1,-1.6308908E-1,3.4119278E-1,7.734186E-3,1.08884415E-2,3.172494E-1,2.095624E-3,-8.409183E-3,-3.5598304E-2,-1.7749475E-2,-5.5620547E-2,-7.7882275E-2,-1.8532329E0,-7.9064794E-2,-7.6856604E-3,-2.7362036E-2,1.0914352E-2,3.2669943E-2,8.887514E-3,1.9184697E-2,3.6435788E-3,2.0698589E-1,-3.556582E-2,-2.4820773E-2,-2.3997316E-2,-1.6977929E-2,8.071077E-3,2.9463453E-2,5.195858E-1,4.0856168E-1,3.4073494E-2,7.606821E-1,4.400458E-2,5.8805734E-2,5.238854E-1,3.1209987E-1,1.922614E-1,5.0798934E-2,-2.973129E-2,-8.4037864E-1,-1.1073949E-1,-2.1554852E-2,1.797283E-2,5.334837E-1,1.5749602E-2,2.726091E-2,-9.771872E-2,-1.18154906E-1,9.063178E-3,-3.1050544E-3,1.4693388E-2,9.293707E-2,-6.615365E-3,6.827564E-3,2.5931027E-2,3.419032E-2,2.6465582E-2,2.2838386E-2,5.210013E-2,4.3295488E-2,3.2469522E-2,1.9393522E-2,2.2178838E-2,1.3101936E-2,7.426011E-4,1.2437317E-2,1.1581652E-2,-4.399213E-3,-3.3800937E-2,-5.4718345E-2,-2.1928882E-3,-9.999133E-3,3.705162E-2,1.7591221E-2,1.2949018E-2,6.7739055E-4],"categories":[],"categories_nodes":[],"categories_segments":[],"categories_sizes":[],"default_left":[0,0,0,0,0,0,0,0,0,0,0,0,0,0,0,0,0,0,0,0,0,0,0,0,0,0,0,0,0,0,0,0,0,0,0,0,0,0,0,0,0,0,0,0,0,0,0,0,0,0,0,0,0,0,0,0,0,0,0,0,0,0,0,0,0,0,0,0,0,0,0,0,0,0,0,0,0,0,0,0,0,0,0,0,0,0,0,0,0,0,0,0,0,0,0,0,0,0,0,0,0,0,0,0,0,0,0,0,0,0,0,0,0,0,0,0,0,0,0,0,0,0,0,0,0,0,0,0,0,0,0,0,0,0,0,0,0,0,0,0,0,0,0,0,0,0,0,0,0],"id":7,"left_children":[1,3,5,7,9,11,13,15,17,19,21,23,25,27,29,31,33,35,37,39,41,43,45,47,49,51,53,-1,55,57,59,-1,61,63,-1,-1,-1,-1,-1,65,67,69,71,-1,73,-1,75,77,79,-1,81,83,85,-1,87,-1,89,91,-1,-1,93,95,-1,97,-1,99,-1,-1,101,103,105,107,109,111,113,115,-1,-1,117,-1,-1,-1,-1,-1,-1,119,-1,-1,-1,-1,121,-1,-1,-1,123,-1,-1,-1,-1,-1,125,127,129,-1,131,-1,-1,133,135,137,139,-1,141,143,-1,-1,145,-1,-1,-1,-1,-1,-1,-1,147,-1,-1,-1,-1,-1,-1,-1,-1,-1,-1,-1,-1,-1,-1,-1,-1,-1,-1,-1,-1,-1,-1,-1,-1],"loss_changes":[4.927382E2,8.470213E2,6.2771216E2,6.101094E1,1.0378906E2,5.058249E2,2.2439613E0,1.4375671E1,3.502468E0,5.6744934E1,2.498609E1,2.6767122E1,4.9219116E1,7.753463E-1,7.9675674E-1,2.0348053E0,1.4432526E0,3.6155415E-1,8.6712337E-1,1.026445E1,7.1492065E1,3.2786995E1,1.5498352E0,3.4563832E0,9.4530296E-1,4.3801514E1,1.8665581E0,0E0,3.1394386E-1,3.5279083E-1,5.971799E-1,0E0,2.6434326E-1,8.1279755E-1,0E0,0E0,0E0,0E0,0E0,1.8187218E0,7.6242065E-1,1.6571472E1,6.475914E0,0E0,1.2409496E1,0E0,2.1749725E0,6.5084743E-1,4.7808957E-1,0E0,2.507229E-1,5.0493774E0,1.8784668E1,0E0,2.4698353E-1,0E0,3.4362507E-1,7.2948265E-1,0E0,0E0,3.1242585E-1,7.9398346E-1,0E0,5.436516E-1,0E0,2.2657359E-1,0E0,0E0,1.5116272E0,4.4086E0,4.3515015E-1,4.873596E0,2.8907585E-1,1.6063766E0,7.7723384E-1,1.1737194E0,0E0,0E0,2.8278494E-1,0E0,0E0,0E0,0E0,0E0,0E0,3.513916E0,0E0,0E0,0E0,0E0,2.066086E-1,0E0,0E0,0E0,2.9656243E-1,0E0,0E0,0E0,0E0,0E0,4.4887882E-1,5.243988E-1,2.2003174E-1,0E0,9.222717E-1,0E0,0E0,6.0240936E-1,1.0251808E0,3.0836725E-1,3.6546847E-1,0E0,2.5079346E-1,2.6672173E-1,0E0,0E0,3.2418633E-1,0E0,0E0,0E0,0E0,0E0,0E0,0E0,2.1205047E-1,0E0,0E0,0E0,0E0,0E0,0E0,0E0,0E0,0E0,0E0,0E0,0E0,0E0,0E0,0E0,0E0,0E0,0E0,0E0,0E0,0E0,0E0,0E0,0E0],"parents":[2147483647,0,0,1,1,2,2,3,3,4,4,5,5,6,6,7,7,8,8,9,9,10,10,11,11,12,12,13,13,14,14,15,15,16,16,17,17,18,18,19,19,20,20,21,21,22,22,23,23,24,24,25,25,26,26,28,28,29,29,30,30,32,32,33,33,39,39,40,40,41,41,42,42,44,44,46,46,47,47,48,48,50,50,51,51,52,52,54,54,56,56,57,57,60,60,61,61,63,63,65,65,68,68,69,69,70,70,71,71,72,72,73,73,74,74,75,75,78,78,85,85,90,90,94,94,100,100,101,101,102,102,104,104,107,107,108,108,109,109,110,110,112,112,113,113,116,116,124,124],"right_children":[2,4,6,8,10,12,14,16,18,20,22,24,26,28,30,32,34,36,38,40,42,44,46,48,50,52,54,-1,56,58,60,-1,62,64,-1,-1,-1,-1,-1,66,68,70,72,-1,74,-1,76,78,80,-1,82,84,86,-1,88,-1,90,92,-1,-1,94,96,-1,98,-1,100,-1,-1,102,104,106,108,110,112,114,116,-1,-1,118,-1,-1,-1,-1,-1,-1,120,-1,-1,-1,-1,122,-1,-1,-1,124,-1,-1,-1,-1,-1,126,128,130,-1,132,-1,-1,134,136,138,140,-1,142,144,-1,-1,146,-1,-1,-1,-1,-1,-1,-1,148,-1,-1,-1,-1,-1,-1,-1,-1,-1,-1,-1,-1,-1,-1,-1,-1,-1,-1,-1,-1,-1,-1,-1,-1],"split_conditions":[1.0351648E0,-7.02823E-1,1.0543532E0,-1.0276344E0,8.190639E-1,6.7540663E-1,1.4896537E0,-1.4602724E0,-9.1892016E-1,-1.2330982E-1,1.0814208E0,6.3502705E-1,9.727066E-1,1.0814208E0,1.679127E0,-1.7034372E0,-1.1629723E0,-5.2065897E-1,-7.8446954E-1,-5.4130477E-1,-1.9969471E-1,7.532267E-1,1.1084884E0,5.791169E-1,6.48339E-1,7.699214E-1,1.1885219E0,-5.5191186E-3,1.375082E0,1.4994495E0,-7.9026866E-1,-4.619036E-2,-1.6355463E0,-1.3653139E0,-1.8624457E-2,-7.5683156E-3,-1.3104405E-2,-4.499976E-3,8.751785E-4,-6.6288716E-1,-4.5965818E-1,2.873159E-1,1.3143798E0,1.8422844E-2,1.0272856E0,3.990993E-3,1.3143798E0,8.9260757E-1,7.532267E-1,-1.8533647E-2,8.168869E-1,7.1756107E-1,9.185714E-1,-4.8376624E-2,1.8705598E-1,1.863234E-2,5.502418E-1,3.3370483E-1,2.035448E-2,2.1929258E-2,3.5026394E-2,-1.6763695E0,-3.4432326E-2,-1.2367008E0,-2.5656193E-2,2.9564586E-1,1.574677E-2,2.12388E-2,-3.664746E-1,-2.8795045E-2,1.07874215E-1,4.8897293E-1,4.4197333E-1,2.9039744E-1,5.9970295E-1,1.219865E0,7.734186E-3,1.08884415E-2,2.2543582E-1,2.095624E-3,-8.409183E-3,-3.5598304E-2,-1.7749475E-2,-5.5620547E-2,-7.7882275E-2,8.240566E-1,-7.9064794E-2,-7.6856604E-3,-2.7362036E-2,1.0914352E-2,-1.4635361E0,8.887514E-3,1.9184697E-2,3.6435788E-3,9.6891445E-1,-3.556582E-2,-2.4820773E-2,-2.3997316E-2,-1.6977929E-2,8.071077E-3,4.91111E-1,2.7172422E-1,2.4708952E-1,3.4073494E-2,-2.1732205E-1,4.400458E-2,5.8805734E-2,1.3006241E0,7.264503E-1,4.4860652E-1,-1.2246344E0,-2.973129E-2,-1.6372825E0,-7.033944E-1,-2.1554852E-2,1.797283E-2,1.2873122E0,1.5749602E-2,2.726091E-2,-9.771872E-2,-1.18154906E-1,9.063178E-3,-3.1050544E-3,1.4693388E-2,1.8212843E-1,-6.615365E-3,6.827564E-3,2.5931027E-2,3.419032E-2,2.6465582E-2,2.2838386E-2,5.210013E-2,4.3295488E-2,3.2469522E-2,1.9393522E-2,2.2178838E-2,1.3101936E-2,7.426011E-4,1.2437317E-2,1.1581652E-2,-4.399213E-3,-3.3800937E-2,-5.4718345E-2,-2.1928882E-3,-9.999133E-3,3.705162E-2,1.7591221E-2,1.2949018E-2,6.7739055E-4],"split_indices":[5,9,9,9,5,9,9,9,9,9,9,9,9,9,9,9,9,4,9,9,5,6,9,9,9,9,6,0,6,6,2,0,9,9,0,0,0,0,0,9,9,4,9,0,9,0,9,4,6,0,2,9,9,0,2,0,0,0,0,0,2,9,0,6,0,2,0,0,9,9,9,7,0,0,2,9,0,0,0,0,0,0,0,0,0,9,0,0,0,0,2,0,0,0,2,0,0,0,0,0,2,7,0,0,4,0,0,9,5,5,2,0,2,2,0,0,9,0,0,0,0,0,0,0,0,0,0,0,0,0,0,0,0,0,0,0,0,0,0,0,0,0,0,0,0,0,0,0,0],"split_type":[0,0,0,0,0,0,0,0,0,0,0,0,0,0,0,0,0,0,0,0,0,0,0,0,0,0,0,0,0,0,0,0,0,0,0,0,0,0,0,0,0,0,0,0,0,0,0,0,0,0,0,0,0,0,0,0,0,0,0,0,0,0,0,0,0,0,0,0,0,0,0,0,0,0,0,0,0,0,0,0,0,0,0,0,0,0,0,0,0,0,0,0,0,0,0,0,0,0,0,0,0,0,0,0,0,0,0,0,0,0,0,0,0,0,0,0,0,0,0,0,0,0,0,0,0,0,0,0,0,0,0,0,0,0,0,0,0,0,0,0,0,0,0,0,0,0,0,0,0],"sum_hessian":[7.416E3,5.631E3,1.785E3,2.208E3,3.423E3,1.064E3,7.21E2,1.515E3,6.93E2,2.889E3,5.34E2,3.73E2,6.91E2,1.96E2,5.25E2,5.76E2,9.39E2,2.32E2,4.61E2,1.237E3,1.652E3,2.49E2,2.85E2,2.85E2,8.8E1,6.26E2,6.5E1,1E1,1.86E2,4.08E2,1.17E2,5.8E1,5.18E2,6.48E2,2.91E2,6.8E1,1.64E2,2.9E2,1.71E2,3.49E2,8.88E2,1.061E3,5.91E2,8.8E1,1.61E2,4E1,2.45E2,1.7E2,1.15E2,2.9E1,5.9E1,2.01E2,4.25E2,2.8E1,3.7E1,1.8E1,1.68E2,1.21E2,2.87E2,2.2E1,9.5E1,1.46E2,3.72E2,2.07E2,4.41E2,8.7E1,2.62E2,1.68E2,7.2E2,6.41E2,4.2E2,4.59E2,1.32E2,8.1E1,8E1,1.75E2,7E1,1.1E2,6E1,9.8E1,1.7E1,5.1E1,8E0,9.2E1,1.09E2,3.18E2,1.07E2,4E0,3.3E1,1.5E2,1.8E1,4.2E1,7.9E1,2E1,7.5E1,5.9E1,8.7E1,9.9E1,1.08E2,5.2E1,3.5E1,2.02E2,5.18E2,2E2,4.41E2,3.1E1,3.89E2,2.48E2,2.11E2,1.14E2,1.8E1,3.1E1,5E1,6.5E1,1.5E1,1.47E2,2.8E1,4.6E1,1.4E1,1.16E2,2.02E2,7E0,1.1E1,5.5E1,2E1,1.3E1,2.2E1,7.9E1,1.23E2,2.29E2,2.89E2,1.09E2,3.32E2,2.26E2,2.2E1,1.28E2,8.3E1,9E0,1.05E2,8E0,1E1,1.3E1,3.7E1,2.9E1,3.6E1,1.9E1,9E0,7E0,1.3E1],"tree_param":{"num_deleted":"0","num_feature":"10","num_nodes":"149","size_leaf_vector":"1"}},{"base_weights":[-1.2142222E-3,-4.6781924E-1,2.9048496E-1,-2.0867507E-1,-1.236303E0,-5.0765395E-1,3.6064437E-1,-3.7312835E-1,5.8630653E-2,-1.5668741E0,-4.8843613E-1,-2.7653104E-2,-3.3562206E-2,5.725077E-1,1.4760622E-1,-5.6822914E-1,-3.2286713E-1,-3.826349E-2,2.9404137E-1,-1.6515845E0,-7.405206E-2,-6.737124E-1,-2.0907971E-1,3.9714321E-1,7.55436E-1,-3.6915305E-1,2.67691E-1,-4.3521922E-2,-5.175485E-1,-3.5426915E-1,-2.108524E-1,-7.2459504E-2,2.5353848E-3,1.362952E-2,2.2431616E-2,-8.129758E-2,-1.0781398E-1,-5.116842E-2,-3.180642E-2,-5.1829168E-3,-1.7265016E-2,2.9013303E-1,4.3838248E-1,6.4912194E-1,9.0593356E-1,-6.477895E-1,1.23047635E-1,1.9360104E-1,3.306232E-1,-3.193264E-2,-2.0115055E-2,-3.7554738E-1,-1.7957486E-2,-5.5085104E-3,-1.3506304E-2,-7.757864E-3,-3.7198358E-3,1.0114506E-2,1.8125856E-2,4.18779E-1,3.1015417E-2,6.980426E-1,2.6378967E-2,4.7080472E-2,5.5993684E-2,-2.3924756E-1,-8.977004E-1,1.2866321E-2,1.2397784E-2,2.8790012E-1,1.5698539E-1,4.2911676E-1,2.7017203E-1,-3.1654248E-1,-2.4130687E-2,4.8981702E-1,2.3189986E-2,4.863456E-2,3.972183E-2,-1.979481E-3,-2.3058275E-2,-4.132214E-2,-6.02967E-2,-5.1724203E-3,7.4580065E-3,3.0504122E-1,1.2417373E-2,1.1684798E-1,2.2752334E-1,3.0566382E-1,5.6141484E-1,2.1191323E-2,2.5552213E-1,-2.3081956E-2,-1.6284687E-2,2.543351E-2,3.37542E-2,3.4835727E-3,-7.176835E-3,1.8760681E-2,5.989315E-3,4.0457244E-3,9.019111E-3,2.3782885E-2,1.1693942E-2,1.8656101E-2,3.131072E-3,3.4578934E-2,1.8663816E-2,1.6444895E-2,9.621442E-3],"categories":[],"categories_nodes":[],"categories_segments":[],"categories_sizes":[],"default_left":[0,0,0,0,0,0,0,0,0,0,0,0,0,0,0,0,0,0,0,0,0,0,0,0,0,0,0,0,0,0,0,0,0,0,0,0,0,0,0,0,0,0,0,0,0,0,0,0,0,0,0,0,0,0,0,0,0,0,0,0,0,0,0,0,0,0,0,0,0,0,0,0,0,0,0,0,0,0,0,0,0,0,0,0,0,0,0,0,0,0,0,0,0,0,0,0,0,0,0,0,0,0,0,0,0,0,0,0,0,0,0],"id":8,"left_children":[1,3,5,7,9,11,13,15,17,19,21,-1,-1,23,25,27,29,31,33,35,-1,37,39,41,43,45,47,-1,49,51,53,55,-1,-1,-1,-1,-1,-1,-1,-1,-1,57,59,61,63,65,67,69,71,-1,-1,73,-1,-1,-1,-1,-1,-1,-1,75,-1,77,-1,-1,-1,79,81,83,-1,85,87,89,91,93,-1,95,-1,-1,-1,97,-1,-1,-1,-1,-1,99,-1,101,103,105,107,-1,109,-1,-1,-1,-1,-1,-1,-1,-1,-1,-1,-1,-1,-1,-1,-1,-1,-1,-1],"loss_changes":[1.00434296E3,5.6489484E2,2.5452875E2,9.342435E1,1.7574023E2,5.0216675E-1,1.8828912E2,1.2624603E1,1.8504316E1,1.0906006E1,1.1253132E1,0E0,0E0,6.667554E1,1.2943964E2,1.5671921E0,3.579544E0,1.5892091E0,1.1351681E0,1.3180054E1,0E0,2.729641E0,8.362849E-1,4.537781E0,1.5477905E1,5.4086143E1,7.79084E0,0E0,2.8697968E-1,7.877426E-1,3.6518002E-1,2.2851372E-1,0E0,0E0,0E0,0E0,0E0,0E0,0E0,0E0,0E0,3.6356163E-1,8.615875E-1,5.7342834E0,2.9000854E-1,2.5355751E1,1.3175306E0,2.6271324E0,5.2591705E0,0E0,0E0,7.2592163E-1,0E0,0E0,0E0,0E0,0E0,0E0,0E0,1.148056E0,0E0,1.1707001E0,0E0,0E0,0E0,3.3545556E0,2.4472046E0,7.171207E-1,0E0,2.0569229E-1,1.5611706E0,5.369171E0,5.5724335E-1,4.2320824E-1,0E0,5.511894E-1,0E0,0E0,0E0,2.8232938E-1,0E0,0E0,0E0,0E0,0E0,2.2822952E-1,0E0,5.8605766E-1,1.0051746E0,2.1817017E-1,3.4474564E-1,0E0,7.9863167E-1,0E0,0E0,0E0,0E0,0E0,0E0,0E0,0E0,0E0,0E0,0E0,0E0,0E0,0E0,0E0,0E0,0E0,0E0],"parents":[2147483647,0,0,1,1,2,2,3,3,4,4,5,5,6,6,7,7,8,8,9,9,10,10,13,13,14,14,15,15,16,16,17,17,18,18,19,19,21,21,22,22,23,23,24,24,25,25,26,26,28,28,29,29,30,30,31,31,41,41,42,42,43,43,44,44,45,45,46,46,47,47,48,48,51,51,59,59,61,61,65,65,66,66,67,67,69,69,70,70,71,71,72,72,73,73,75,75,79,79,85,85,87,87,88,88,89,89,90,90,92,92],"right_children":[2,4,6,8,10,12,14,16,18,20,22,-1,-1,24,26,28,30,32,34,36,-1,38,40,42,44,46,48,-1,50,52,54,56,-1,-1,-1,-1,-1,-1,-1,-1,-1,58,60,62,64,66,68,70,72,-1,-1,74,-1,-1,-1,-1,-1,-1,-1,76,-1,78,-1,-1,-1,80,82,84,-1,86,88,90,92,94,-1,96,-1,-1,-1,98,-1,-1,-1,-1,-1,100,-1,102,104,106,108,-1,110,-1,-1,-1,-1,-1,-1,-1,-1,-1,-1,-1,-1,-1,-1,-1,-1,-1,-1],"split_conditions":[-2.4287029E-1,-5.518285E-2,-1.17452E0,-9.4598776E-1,-1.1826136E-1,2.0658582E-2,4.1848615E-1,-1.4602724E0,-6.757554E-1,9.185714E-1,1.0272856E0,-2.7653104E-2,-3.3562206E-2,-5.5862658E-2,5.477163E-1,-1.7034372E0,-1.0547019E0,-7.569582E-1,-5.5266476E-1,7.96989E-1,-7.405206E-2,4.4405994E-1,-8.409151E-3,-4.5965818E-1,2.873159E-1,-2.5883833E-1,9.601693E-1,-4.3521922E-2,1.7072959E-2,-1.1629723E0,-1.1594801E0,-9.1892016E-1,2.5353848E-3,1.362952E-2,2.2431616E-2,-8.129758E-2,-1.0781398E-1,-5.116842E-2,-3.180642E-2,-5.1829168E-3,-1.7265016E-2,-5.963274E-1,-1.2330982E-1,3.6435094E-1,1.331669E-1,6.625384E-1,1.0942891E0,5.249817E-1,1.3006241E0,-3.193264E-2,-2.0115055E-2,-1.3653139E0,-1.7957486E-2,-5.5085104E-3,-1.3506304E-2,-7.757864E-3,-3.7198358E-3,1.0114506E-2,1.8125856E-2,-3.664746E-1,3.1015417E-2,-2.1732205E-1,2.6378967E-2,4.7080472E-2,5.5993684E-2,6.3502705E-1,6.89606E-1,2.9039744E-1,1.2397784E-2,6.865761E-1,7.2522056E-1,1.219865E0,-7.9026866E-1,-1.4194491E0,-2.4130687E-2,-4.0552297E-1,2.3189986E-2,4.863456E-2,3.972183E-2,7.532267E-1,-2.3058275E-2,-4.132214E-2,-6.02967E-2,-5.1724203E-3,7.4580065E-3,5.069344E-1,1.2417373E-2,8.264259E-1,1.3143798E0,3.9866593E-1,1.4281255E0,2.1191323E-2,1.679127E0,-2.3081956E-2,-1.6284687E-2,2.543351E-2,3.37542E-2,3.4835727E-3,-7.176835E-3,1.8760681E-2,5.989315E-3,4.0457244E-3,9.019111E-3,2.3782885E-2,1.1693942E-2,1.8656101E-2,3.131072E-3,3.4578934E-2,1.8663816E-2,1.6444895E-2,9.621442E-3],"split_indices":[1,6,6,9,3,1,9,9,9,9,9,0,0,9,1,9,9,9,6,9,0,3,2,9,4,3,4,0,4,9,2,9,0,0,0,0,0,0,0,0,0,9,9,9,9,9,9,9,9,0,0,9,0,0,0,0,0,0,0,9,0,4,0,0,0,9,9,0,0,2,3,9,2,9,0,9,0,0,0,6,0,0,0,0,0,0,0,4,9,0,3,0,9,0,0,0,0,0,0,0,0,0,0,0,0,0,0,0,0,0,0],"split_type":[0,0,0,0,0,0,0,0,0,0,0,0,0,0,0,0,0,0,0,0,0,0,0,0,0,0,0,0,0,0,0,0,0,0,0,0,0,0,0,0,0,0,0,0,0,0,0,0,0,0,0,0,0,0,0,0,0,0,0,0,0,0,0,0,0,0,0,0,0,0,0,0,0,0,0,0,0,0,0,0,0,0,0,0,0,0,0,0,0,0,0,0,0,0,0,0,0,0,0,0,0,0,0,0,0,0,0,0,0,0,0],"sum_hessian":[7.376E3,2.837E3,4.539E3,2.123E3,7.14E2,3.66E2,4.173E3,1.314E3,8.09E2,4.94E2,2.2E2,2E2,1.66E2,2.091E3,2.082E3,2.66E2,1.048E3,5.74E2,2.35E2,3.89E2,1.05E2,1.31E2,8.9E1,1.07E3,1.021E3,3.92E2,1.69E3,6E1,2.06E2,8.16E2,2.32E2,4.03E2,1.71E2,1.31E2,1.04E2,1.33E2,2.56E2,5.5E1,7.6E1,3.6E1,5.3E1,3.01E2,7.69E2,6.03E2,4.18E2,2.5E2,1.42E2,7.79E2,9.11E2,1.88E2,1.8E1,5.82E2,2.34E2,2.6E1,2.06E2,6E1,3.43E2,2.9E1,2.72E2,6.23E2,1.46E2,4.86E2,1.17E2,8.5E1,3.33E2,9.6E1,1.54E2,6.2E1,8E1,2.15E2,5.64E2,3.43E2,5.68E2,1.87E2,3.95E2,1.88E2,4.35E2,1.1E2,3.76E2,3.7E1,5.9E1,5.6E1,9.8E1,3.3E1,2.9E1,1.74E2,4.1E1,3.62E2,2.02E2,1.8E2,1.63E2,8E1,4.88E2,7E1,1.17E2,1.04E2,8.4E1,2.5E1,1.2E1,1.67E2,7E0,1.48E2,2.14E2,3E1,1.72E2,1.76E2,4E0,1.52E2,1.1E1,4.06E2,8.2E1],"tree_param":{"num_deleted":"0","num_feature":"10","num_nodes":"111","size_leaf_vector":"1"}},{"base_weights":[-1.9451105E-3,-4.4242537E-1,2.741091E-1,-2.3152849E-1,-1.4845815E0,-4.7635722E-1,3.3887747E-1,1.3967277E-2,-3.4041902E-1,-1.5914648E0,-1.2360091E0,-2.5830964E-2,-3.1673208E-2,5.0078803E-1,9.3214855E-2,-5.1092997E-2,2.430507E-1,-3.6968014E-1,2.0607468E-2,-1.6554756E0,-7.274595E-2,-7.651185E-2,-2.1101145E-2,3.563481E-1,5.897018E-1,-3.7826437E-1,2.2665429E-1,-1.1884736E-1,1.1697513E-2,2.157556E-1,2.3015099E-2,-8.4923965E-1,-3.3580303E-1,-1.4345351E0,-1.0680291E-1,2.6534238E-1,3.9199278E-1,7.175627E-1,3.4499943E-1,9.1766655E-2,-6.339708E-1,1.7304091E-1,2.7742907E-1,-1.4756246E-2,-8.8332884E-2,-1.8550832E-3,2.4850154E-3,1.0180012E-2,1.5435227E-2,-5.4320645E-2,-3.2275036E-2,-5.3255063E-1,-2.9169327E-1,-8.709903E-2,-3.330585E-2,1.6441416E-2,6.772593E-3,4.4584736E-1,3.6721873E-1,6.270134E-1,8.4920615E-1,4.0390712E-1,1.6086991E-1,5.22828E-3,2.2604293E-1,-2.6781532E-1,-8.1169385E-1,1.567739E-2,1.3992324E-1,4.346637E-1,2.6446852E-1,-5.901411E-3,2.2093033E-4,-4.1093763E-2,-4.8305222E-1,-3.521647E-1,-2.3640852E-1,2.3328843E-2,3.1779878E-2,2.0605067E-2,2.4496267E-2,3.0607248E-2,6.718166E-1,4.3596532E-2,5.259683E-2,4.842928E-1,3.0335483E-1,-3.963157E-3,1.6864419E-1,1.6326307E-3,-1.8356835E-2,1.49264E-2,6.761581E-4,-2.2817035E-3,-3.5873806E-1,-8.478231E-1,-6.213769E-3,1.0152462E-1,2.1105736E-1,5.005378E-1,1.2495826E-2,1.6734568E-2,1.1078898E-2,-3.0042095E-2,-2.1029994E-2,-1.7510898E-2,-2.2680476E-2,-2.0306159E-2,-1.1134724E-2,4.2604238E-2,3.557036E-2,1.0539378E-2,2.9493723E-2,-1.6069777E-3,1.8651115E-2,1.09846E-2,1.4573995E-3,-1.5727289E-2,-2.5882574E-2,-4.2622104E-2,-5.9798755E-2,6.8370197E-3,-1.8453182E-3,1.0343878E-2,1.5619985E-2,3.5453446E-2,1.5369192E-2],"categories":[],"categories_nodes":[],"categories_segments":[],"categories_sizes":[],"default_left":[0,0,0,0,0,0,0,0,0,0,0,0,0,0,0,0,0,0,0,0,0,0,0,0,0,0,0,0,0,0,0,0,0,0,0,0,0,0,0,0,0,0,0,0,0,0,0,0,0,0,0,0,0,0,0,0,0,0,0,0,0,0,0,0,0,0,0,0,0,0,0,0,0,0,0,0,0,0,0,0,0,0,0,0,0,0,0,0,0,0,0,0,0,0,0,0,0,0,0,0,0,0,0,0,0,0,0,0,0,0,0,0,0,0,0,0,0,0,0,0,0,0,0,0,0,0,0],"id":9,"left_children":[1,3,5,7,9,11,13,15,17,19,21,-1,-1,23,25,27,29,31,-1,33,-1,-1,-1,35,37,39,41,43,45,47,-1,49,51,53,-1,55,57,59,61,63,65,67,69,-1,71,-1,-1,-1,-1,-1,-1,73,75,-1,-1,-1,-1,77,79,81,83,85,87,89,91,93,95,-1,97,99,101,-1,-1,-1,103,105,107,-1,-1,-1,-1,-1,109,-1,-1,111,113,-1,115,-1,-1,-1,-1,-1,117,119,-1,121,123,125,-1,-1,-1,-1,-1,-1,-1,-1,-1,-1,-1,-1,-1,-1,-1,-1,-1,-1,-1,-1,-1,-1,-1,-1,-1,-1,-1],"loss_changes":[9.0346094E2,6.286261E2,2.2225217E2,6.3696518E1,9.841919E0,5.177536E-1,1.6720532E2,1.0950879E1,3.3218597E1,5.0321655E0,4.5775604E0,0E0,0E0,3.223456E1,1.0535214E2,2.4376895E0,4.991932E-1,2.5297913E1,0E0,3.8623657E0,0E0,0E0,0E0,2.9889145E0,4.8641174E1,4.4497444E1,3.479103E0,1.0358269E0,3.7997386E-1,2.0133686E-1,0E0,1.0772858E0,1.2624176E1,4.2442322E-1,0E0,3.2089996E-1,6.796799E-1,1.1449341E1,5.7651443E0,1.5262641E0,1.5259216E1,1.8112392E0,1.1878281E0,0E0,2.0761228E-1,0E0,0E0,0E0,0E0,0E0,0E0,1.5359879E0,3.9320297E0,0E0,0E0,0E0,0E0,7.021408E-1,2.6210785E-1,2.7041626E0,4.373169E-1,3.08152E0,2.522242E-1,5.6997466E-1,2.4721193E-1,1.6614118E0,3.9745636E0,0E0,1.244813E0,5.669575E-1,6.3799286E-1,0E0,0E0,0E0,2.245369E-1,7.3314667E-1,3.2170715E0,0E0,0E0,0E0,0E0,0E0,6.963806E-1,0E0,0E0,3.7416458E-1,4.7161484E-1,0E0,2.6312852E-1,0E0,0E0,0E0,0E0,0E0,2.3392868E-1,2.0576248E0,0E0,5.0904226E-1,2.4223661E-1,5.7891464E-1,0E0,0E0,0E0,0E0,0E0,0E0,0E0,0E0,0E0,0E0,0E0,0E0,0E0,0E0,0E0,0E0,0E0,0E0,0E0,0E0,0E0,0E0,0E0,0E0,0E0,0E0,0E0],"parents":[2147483647,0,0,1,1,2,2,3,3,4,4,5,5,6,6,7,7,8,8,9,9,10,10,13,13,14,14,15,15,16,16,17,17,19,19,23,23,24,24,25,25,26,26,27,27,28,28,29,29,31,31,32,32,33,33,35,35,36,36,37,37,38,38,39,39,40,40,41,41,42,42,44,44,51,51,52,52,57,57,58,58,59,59,60,60,61,61,62,62,63,63,64,64,65,65,66,66,68,68,69,69,70,70,74,74,75,75,76,76,82,82,85,85,86,86,88,88,94,94,95,95,97,97,98,98,99,99],"right_children":[2,4,6,8,10,12,14,16,18,20,22,-1,-1,24,26,28,30,32,-1,34,-1,-1,-1,36,38,40,42,44,46,48,-1,50,52,54,-1,56,58,60,62,64,66,68,70,-1,72,-1,-1,-1,-1,-1,-1,74,76,-1,-1,-1,-1,78,80,82,84,86,88,90,92,94,96,-1,98,100,102,-1,-1,-1,104,106,108,-1,-1,-1,-1,-1,110,-1,-1,112,114,-1,116,-1,-1,-1,-1,-1,118,120,-1,122,124,126,-1,-1,-1,-1,-1,-1,-1,-1,-1,-1,-1,-1,-1,-1,-1,-1,-1,-1,-1,-1,-1,-1,-1,-1,-1,-1,-1],"split_conditions":[-2.4287029E-1,1.12778E0,-1.17452E0,-8.171238E-1,-1.1023203E0,2.0658582E-2,7.881932E-1,-6.757554E-1,1.0738722E0,9.185714E-1,9.8690605E-1,-2.5830964E-2,-3.1673208E-2,-1.0999788E-1,5.477163E-1,-8.1153715E-1,-1.2184534E0,-1.5605209E0,2.0607468E-2,8.240566E-1,-7.274595E-2,-7.651185E-2,-2.1101145E-2,-4.9700135E-1,-1.9969471E-1,8.5662353E-1,9.946393E-1,-9.4598776E-1,-7.569582E-1,-6.148515E-1,2.3015099E-2,4.4405994E-1,-1.4602724E0,-5.0639915E-1,-1.0680291E-1,-5.2065897E-1,-3.664746E-1,2.873159E-1,1.8653607E0,1.1084884E0,6.625384E-1,5.391811E-1,4.221261E-1,-1.4756246E-2,7.2522056E-1,-1.8550832E-3,2.4850154E-3,1.0180012E-2,1.5435227E-2,-5.4320645E-2,-3.2275036E-2,-1.7034372E0,-1.1629723E0,-8.709903E-2,-3.330585E-2,1.6441416E-2,6.772593E-3,-4.0552297E-1,-1.894258E-1,-2.8795045E-2,1.331669E-1,4.8897293E-1,3.8686362E-1,1.5599803E0,2.2716074E0,6.3502705E-1,9.397809E-1,1.567739E-2,8.6580426E-1,1.3006241E0,1.679127E0,-5.901411E-3,2.2093033E-4,-4.1093763E-2,3.0348295E-1,-1.3653139E0,-1.0334632E0,2.3328843E-2,3.1779878E-2,2.0605067E-2,2.4496267E-2,3.0607248E-2,2.6850498E-1,4.3596532E-2,5.259683E-2,8.112452E-1,2.8418747E-1,-3.963157E-3,1.3680713E0,1.6326307E-3,-1.8356835E-2,1.49264E-2,6.761581E-4,-2.2817035E-3,6.48339E-1,7.0247424E-1,-6.213769E-3,1.4364945E0,1.1469649E0,1.0063813E0,1.2495826E-2,1.6734568E-2,1.1078898E-2,-3.0042095E-2,-2.1029994E-2,-1.7510898E-2,-2.2680476E-2,-2.0306159E-2,-1.1134724E-2,4.2604238E-2,3.557036E-2,1.0539378E-2,2.9493723E-2,-1.6069777E-3,1.8651115E-2,1.09846E-2,1.4573995E-3,-1.5727289E-2,-2.5882574E-2,-4.2622104E-2,-5.9798755E-2,6.8370197E-3,-1.8453182E-3,1.0343878E-2,1.5619985E-2,3.5453446E-2,1.5369192E-2],"split_indices":[1,5,6,5,3,1,5,9,7,9,9,0,0,9,1,9,5,1,0,9,0,0,0,7,5,7,4,9,9,6,0,3,9,1,0,4,9,4,1,9,9,9,7,0,3,0,0,0,0,0,0,9,9,0,0,0,0,9,9,9,9,7,5,5,3,9,6,0,3,9,9,0,0,0,3,9,1,0,0,0,0,0,9,0,0,1,1,0,9,0,0,0,0,0,9,9,0,5,3,3,0,0,0,0,0,0,0,0,0,0,0,0,0,0,0,0,0,0,0,0,0,0,0,0,0,0,0],"split_type":[0,0,0,0,0,0,0,0,0,0,0,0,0,0,0,0,0,0,0,0,0,0,0,0,0,0,0,0,0,0,0,0,0,0,0,0,0,0,0,0,0,0,0,0,0,0,0,0,0,0,0,0,0,0,0,0,0,0,0,0,0,0,0,0,0,0,0,0,0,0,0,0,0,0,0,0,0,0,0,0,0,0,0,0,0,0,0,0,0,0,0,0,0,0,0,0,0,0,0,0,0,0,0,0,0,0,0,0,0,0,0,0,0,0,0,0,0,0,0,0,0,0,0,0,0,0,0],"sum_hessian":[7.427E3,2.861E3,4.566E3,2.381E3,4.8E2,3.62E2,4.204E3,7.32E2,1.649E3,3.3E2,1.5E2,1.99E2,1.63E2,2.533E3,1.671E3,5.71E2,1.61E2,1.582E3,6.7E1,2.78E2,5.2E1,1.43E2,7E0,9.68E2,1.565E3,3.68E2,1.303E3,2.74E2,2.97E2,1.38E2,2.3E1,1.02E2,1.48E3,1.07E2,1.71E2,2.76E2,6.92E2,1.026E3,5.39E2,1.3E2,2.38E2,6.37E2,6.66E2,5.1E1,2.23E2,1.22E2,1.75E2,6.9E1,6.9E1,8.4E1,1.8E1,2.68E2,1.212E3,1.04E2,3E0,2.6E2,1.6E1,2.1E2,4.82E2,6.13E2,4.13E2,4.07E2,1.32E2,8E1,5E1,7.9E1,1.59E2,1.71E2,4.66E2,4.7E1,6.19E2,2.01E2,2.2E1,6.1E1,2.07E2,5.75E2,6.37E2,1.3E2,8E1,3.14E2,1.68E2,1.75E2,4.38E2,8.3E1,3.3E2,2.23E2,1.84E2,4E0,1.28E2,7.6E1,4E0,4.5E1,5E0,2.3E1,5.6E1,1.51E2,8E0,3.05E2,1.61E2,3.5E1,1.2E1,5.21E2,9.8E1,1.79E2,2.8E1,1.78E2,3.97E2,2.09E2,4.28E2,2.87E2,1.51E2,6E0,2.17E2,4E0,1.8E2,1.16E2,1.2E1,2.7E1,2.9E1,8.3E1,6.8E1,2.79E2,2.6E1,9.4E1,6.7E1,2.4E1,1.1E1],"tree_param":{"num_deleted":"0","num_feature":"10","num_nodes":"127","size_leaf_vector":"1"}},{"base_weights":[-2.5428566E-3,1.1982768E-1,-3.8513193E-1,-2.8073305E-1,3.7833953E-1,-7.990666E-1,2.070245E-1,-3.771299E-1,-7.337062E-2,4.3550676E-1,1.4361353E-2,-5.9029325E-3,-1.240934E0,-1.9557975E-1,2.2446144E-1,-4.835153E-1,-3.109529E-1,-1.569416E-1,-3.1484008E-2,3.0790484E-1,5.262395E-1,-1.6682853E-1,2.0098385E-1,1.1553773E-1,-4.0133423E-1,-1.3160882E0,-7.6721513E-1,-3.0882428E-3,-1.6818179E-2,1.0015217E-2,2.5334215E-1,-3.8781613E-2,-4.629567E-1,-3.3335155E-1,-1.5562556E-2,-5.982906E-3,-1.7955081E-1,-3.5261698E-3,1.4156314E-2,2.0022441E-1,3.5895568E-1,6.693291E-1,3.012135E-1,1.529054E-2,-3.727904E-1,2.5830913E-1,1.3113904E-1,1.9447343E-1,-3.8369026E-3,-1.4942954E-2,-4.6815553E-1,-9.529263E-1,-1.500327E0,-5.161266E-2,-2.6475301E-2,1.6571281E-2,1.8524575E-1,-4.0701523E-1,-2.8958583E-2,-2.793493E-1,-2.1501774E-2,-2.0652868E-1,-6.9350023E-3,4.4593433E-4,1.1298095E-2,4.82509E-3,1.3939379E-2,3.873074E-1,2.0063581E-2,5.812483E-1,8.0184275E-1,3.4410632E-1,1.3836107E-1,-6.5682834E-1,-1.7714654E-1,4.299166E-3,1.6420338E-2,1.2921098E-2,4.141568E-3,9.240746E-3,2.6756427E-1,1.2089862E-3,-7.556117E-3,-2.9142631E-2,-9.608353E-3,-4.6205565E-2,-6.464867E-2,-1.5627831E0,-7.5896755E-2,1.8950226E-2,1.4861684E-1,-2.9853562E-2,-2.0211862E-2,-2.0050488E-2,-1.3628071E-2,-2.3627387E-1,-6.779248E-3,1.9456068E-2,2.6344365E-2,2.8145475E-2,6.3139737E-1,4.156403E-2,4.9557228E-2,2.5915438E-1,4.6744475E-1,2.326135E-2,1.5472174E-1,-4.1469395E-2,-2.0937342E-2,-5.985658E-3,-1.992483E-2,1.2967275E-2,2.4504323E-2,-8.12274E-2,-1.01109974E-1,2.3707517E-3,1.7741582E-1,-1.5055895E-2,-1.31213665E-5,4.3184403E-2,3.5614483E-2,2.2738358E-2,1.1988262E-2,3.0476553E-2,1.9879889E-2,9.06047E-3,-5.1181475E-3,3.5715094E-3,1.0736598E-2,1.2797001E-2,3.7248326E-3],"categories":[],"categories_nodes":[],"categories_segments":[],"categories_sizes":[],"default_left":[0,0,0,0,0,0,0,0,0,0,0,0,0,0,0,0,0,0,0,0,0,0,0,0,0,0,0,0,0,0,0,0,0,0,0,0,0,0,0,0,0,0,0,0,0,0,0,0,0,0,0,0,0,0,0,0,0,0,0,0,0,0,0,0,0,0,0,0,0,0,0,0,0,0,0,0,0,0,0,0,0,0,0,0,0,0,0,0,0,0,0,0,0,0,0,0,0,0,0,0,0,0,0,0,0,0,0,0,0,0,0,0,0,0,0,0,0,0,0,0,0,0,0,0,0,0,0,0,0,0,0],"id":10,"left_children":[1,3,5,7,9,11,13,15,17,19,21,23,25,27,29,31,33,35,37,39,41,43,45,47,49,51,53,-1,-1,-1,55,-1,57,59,-1,-1,61,-1,63,65,67,69,71,-1,73,75,77,79,81,-1,83,85,87,-1,-1,-1,89,91,-1,93,-1,95,-1,-1,-1,-1,-1,97,-1,99,101,103,105,107,109,-1,-1,-1,-1,-1,111,-1,-1,-1,-1,-1,-1,113,-1,-1,115,-1,-1,-1,-1,117,-1,-1,-1,-1,119,-1,-1,121,123,125,127,-1,-1,-1,-1,-1,-1,-1,-1,-1,129,-1,-1,-1,-1,-1,-1,-1,-1,-1,-1,-1,-1,-1,-1],"loss_changes":[3.466835E2,5.8112494E2,4.401054E2,4.3964478E1,7.095505E1,3.702638E2,5.2572765E0,1.0352463E1,2.4446917E0,3.388214E1,1.57569475E1,1.829369E1,2.2641235E1,3.6295438E-1,1.1156349E0,1.4711456E0,9.4527435E-1,2.752576E-1,5.8467966E-1,6.6454697E0,5.5095764E1,2.0682087E1,8.6807823E-1,2.7479007E0,7.358513E-1,3.6896667E1,2.3558426E0,0E0,0E0,0E0,6.5366745E-1,0E0,2.7194977E-1,7.1899414E-1,0E0,0E0,2.4979687E-1,0E0,2.0457621E-1,1.5044498E0,3.8477325E-1,1.1562225E1,4.6191483E0,0E0,8.688929E0,3.276062E-1,5.3477085E-1,4.5719814E-1,3.479326E-1,0E0,2.1046543E-1,3.3211975E0,2.6872559E0,0E0,0E0,0E0,5.155611E-1,6.600609E-1,0E0,4.8874474E-1,0E0,2.785411E-1,0E0,0E0,0E0,0E0,0E0,1.0150566E0,0E0,3.1357574E0,2.3483276E-1,5.3767776E0,2.6294422E-1,3.1991005E-1,1.1073089E0,0E0,0E0,0E0,0E0,0E0,3.05943E-1,0E0,0E0,0E0,0E0,0E0,0E0,4.187195E0,0E0,0E0,2.9898095E-1,0E0,0E0,0E0,0E0,2.957511E-1,0E0,0E0,0E0,0E0,8.1433105E-1,0E0,0E0,2.1442318E0,9.299431E-1,2.8976062E-1,2.71096E-1,0E0,0E0,0E0,0E0,0E0,0E0,0E0,0E0,0E0,3.0074024E-1,0E0,0E0,0E0,0E0,0E0,0E0,0E0,0E0,0E0,0E0,0E0,0E0,0E0,0E0],"parents":[2147483647,0,0,1,1,2,2,3,3,4,4,5,5,6,6,7,7,8,8,9,9,10,10,11,11,12,12,13,13,14,14,15,15,16,16,17,17,18,18,19,19,20,20,21,21,22,22,23,23,24,24,25,25,26,26,30,30,32,32,33,33,36,36,38,38,39,39,40,40,41,41,42,42,44,44,45,45,46,46,47,47,48,48,50,50,51,51,52,52,56,56,57,57,59,59,61,61,67,67,69,69,70,70,71,71,72,72,73,73,74,74,80,80,87,87,90,90,95,95,100,100,103,103,104,104,105,105,106,106,116,116],"right_children":[2,4,6,8,10,12,14,16,18,20,22,24,26,28,30,32,34,36,38,40,42,44,46,48,50,52,54,-1,-1,-1,56,-1,58,60,-1,-1,62,-1,64,66,68,70,72,-1,74,76,78,80,82,-1,84,86,88,-1,-1,-1,90,92,-1,94,-1,96,-1,-1,-1,-1,-1,98,-1,100,102,104,106,108,110,-1,-1,-1,-1,-1,112,-1,-1,-1,-1,-1,-1,114,-1,-1,116,-1,-1,-1,-1,118,-1,-1,-1,-1,120,-1,-1,122,124,126,128,-1,-1,-1,-1,-1,-1,-1,-1,-1,130,-1,-1,-1,-1,-1,-1,-1,-1,-1,-1,-1,-1,-1,-1],"split_conditions":[1.0351648E0,-7.02823E-1,1.0272856E0,-1.0276344E0,8.499361E-1,6.7540663E-1,1.0814208E0,-1.4602724E0,-9.1892016E-1,-1.2330982E-1,1.0814208E0,6.3502705E-1,9.45639E-1,-9.528231E-2,1.5167212E0,-1.7034372E0,-1.1629723E0,-5.2065897E-1,-7.8446954E-1,-5.137934E-1,-1.9969471E-1,7.532267E-1,3.1205112E-1,5.791169E-1,6.48339E-1,7.699214E-1,1.0002179E0,-3.0882428E-3,-1.6818179E-2,1.0015217E-2,1.679127E0,-3.8781613E-2,-1.6355463E0,-1.3653139E0,-1.5562556E-2,-5.982906E-3,-4.2000532E-1,-3.5261698E-3,3.553585E-1,-6.6288716E-1,-3.380758E-1,2.873159E-1,1.3143798E0,1.529054E-2,1.0139736E0,1.1084884E0,1.4361836E-1,8.9260757E-1,7.532267E-1,-1.4942954E-2,8.603225E-1,7.1756107E-1,9.057032E-1,-5.161266E-2,-2.6475301E-2,1.6571281E-2,-7.9026866E-1,-1.6763695E0,-2.8958583E-2,-1.2367008E0,-2.1501774E-2,2.0378213E-1,-6.9350023E-3,4.4593433E-4,1.1298095E-2,4.82509E-3,1.3939379E-2,-4.3259057E-1,2.0063581E-2,-2.8795045E-2,1.331669E-1,1.2061093E0,5.103494E-1,1.1885219E0,5.9970295E-1,4.299166E-3,1.6420338E-2,1.2921098E-2,4.141568E-3,9.240746E-3,2.2543582E-1,1.2089862E-3,-7.556117E-3,-2.9142631E-2,-9.608353E-3,-4.6205565E-2,-6.464867E-2,8.240566E-1,-7.5896755E-2,1.8950226E-2,7.846401E-2,-2.9853562E-2,-2.0211862E-2,-2.0050488E-2,-1.3628071E-2,7.734493E-1,-6.779248E-3,1.9456068E-2,2.6344365E-2,2.8145475E-2,-1.8423228E-1,4.156403E-2,4.9557228E-2,4.1848615E-1,1.2873122E0,8.168869E-1,-5.0793135E-1,-4.1469395E-2,-2.0937342E-2,-5.985658E-3,-1.992483E-2,1.2967275E-2,2.4504323E-2,-8.12274E-2,-1.01109974E-1,2.3707517E-3,9.6891445E-1,-1.5055895E-2,-1.31213665E-5,4.3184403E-2,3.5614483E-2,2.2738358E-2,1.1988262E-2,3.0476553E-2,1.9879889E-2,9.06047E-3,-5.1181475E-3,3.5715094E-3,1.0736598E-2,1.2797001E-2,3.7248326E-3],"split_indices":[5,9,9,9,5,9,9,9,9,9,9,9,9,2,9,9,9,4,9,9,5,6,0,9,9,9,9,0,0,0,9,0,9,9,0,0,4,0,0,9,9,4,9,0,9,9,2,4,6,0,2,9,9,0,0,0,2,9,0,6,0,0,0,0,0,0,0,9,0,9,9,9,5,6,2,0,0,0,0,0,0,0,0,0,0,0,0,9,0,0,2,0,0,0,0,2,0,0,0,0,4,0,0,9,9,2,2,0,0,0,0,0,0,0,0,0,2,0,0,0,0,0,0,0,0,0,0,0,0,0,0],"split_type":[0,0,0,0,0,0,0,0,0,0,0,0,0,0,0,0,0,0,0,0,0,0,0,0,0,0,0,0,0,0,0,0,0,0,0,0,0,0,0,0,0,0,0,0,0,0,0,0,0,0,0,0,0,0,0,0,0,0,0,0,0,0,0,0,0,0,0,0,0,0,0,0,0,0,0,0,0,0,0,0,0,0,0,0,0,0,0,0,0,0,0,0,0,0,0,0,0,0,0,0,0,0,0,0,0,0,0,0,0,0,0,0,0,0,0,0,0,0,0,0,0,0,0,0,0,0,0,0,0,0,0],"sum_hessian":[7.402E3,5.609E3,1.793E3,2.2E3,3.409E3,1.055E3,7.38E2,1.501E3,6.99E2,2.946E3,4.63E2,3.78E2,6.77E2,3E1,7.08E2,5.72E2,9.29E2,2.32E2,4.67E2,1.227E3,1.719E3,2.35E2,2.28E2,2.9E2,8.8E1,5.82E2,9.5E1,1.2E1,1.8E1,2.4E2,4.68E2,5.9E1,5.13E2,6.42E2,2.87E2,6.8E1,1.64E2,2.92E2,1.75E2,3.97E2,8.3E2,1.049E3,6.7E2,7.7E1,1.58E2,1.23E2,1.05E2,1.74E2,1.16E2,2.9E1,5.9E1,1.99E2,3.83E2,7.2E1,2.3E1,3.47E2,1.21E2,1.42E2,3.71E2,2.09E2,4.33E2,1.13E2,5.1E1,1.7E2,5E0,8.5E1,3.12E2,3.75E2,4.55E2,6.35E2,4.14E2,5.29E2,1.41E2,6.3E1,9.5E1,1E1,1.13E2,4.3E1,6.2E1,1.15E2,5.9E1,9.8E1,1.8E1,5.5E1,4E0,8.5E1,1.14E2,2.96E2,8.7E1,2.4E1,9.7E1,5.8E1,8.4E1,9.8E1,1.11E2,8.4E1,2.9E1,1.74E2,2.01E2,2.01E2,4.34E2,8.3E1,3.31E2,3.16E2,2.13E2,1.8E1,1.23E2,5.5E1,8E0,6.5E1,3E1,4.6E1,1.3E1,1.16E2,1.8E2,2.1E1,7.6E1,7.9E1,5E0,1.22E2,3.12E2,1.02E2,2.14E2,1.61E2,5.2E1,8E0,1E1,2.6E1,9.7E1,5.7E1,1.9E1],"tree_param":{"num_deleted":"0","num_feature":"10","num_nodes":"131","size_leaf_vector":"1"}},{"base_weights":[1.6911867E-3,-3.862259E-1,2.4328177E-1,-2.02794E-1,-1.3127202E0,-4.2136642E-1,3.0116603E-1,1.2268656E-2,-2.9837406E-1,-1.4105623E0,-1.0832253E0,-1.8859133E-2,-4.3683678E-1,4.4455782E-1,8.380809E-2,-4.5685694E-2,2.136671E-1,-3.2478437E-1,1.8337384E-2,-1.4665016E0,-6.434413E-2,-6.741157E-2,-1.9478666E-2,-2.7339261E-2,-2.0182043E-2,3.167801E-1,5.2371854E-1,-3.362862E-1,2.0233205E-1,-1.03581086E-1,1.0253344E-2,1.1316926E-2,2.0654937E-2,-7.484593E-1,-2.9463306E-1,-1.2634993E0,-9.501923E-2,2.3752478E-1,3.5142165E-1,6.3632953E-1,3.05995E-1,8.617488E-2,-5.5991125E-1,1.3896215E-1,2.3801993E-1,-1.2660046E-2,-4.693227E-3,-1.3758675E-3,1.9129092E-3,-5.174952E-2,-3.520704E-2,-4.720033E-1,-2.570169E-1,-7.672082E-2,-2.9387672E-2,2.0049675E-1,1.6274717E-2,4.0829867E-1,3.2803938E-1,5.5342925E-1,7.548692E-1,3.5569996E-1,1.4681076E-1,1.5487066E-2,1.2137662E-2,-2.2613415E-1,-7.210827E-1,1.9897933E-1,1.0956721E-1,2.8365168E-1,2.1908107E-1,-3.6442477E-2,-4.294376E-1,-2.9512846E-1,-1.8138507E-1,1.3957975E-2,8.421574E-3,3.5217267E-1,2.8481353E-2,1.8690769E-2,2.2500038E-2,2.7213927E-2,5.9028167E-1,3.402137E-2,4.6095353E-2,4.2951623E-1,2.646819E-1,1.200713E-3,1.6070232E-1,2.1548185E-3,-1.6593942E-2,-1.2269975E-3,-3.1296152E-1,-7.507233E-1,-3.304231E-3,1.4957766E-2,1.0071687E-1,1.0022655E-1,1.8650664E-2,1.4991982E-2,3.238745E-2,9.458494E-3,2.3969793E-1,-2.6599227E-2,-1.7014278E-2,-1.9425562E-2,-1.6029192E-2,-2.4100835E-2,-8.020813E-3,9.251734E-3,2.2195423E-2,3.747574E-2,3.1295203E-2,2.2392763E-2,2.9167019E-2,-2.0599791E-3,1.6293328E-2,1.0578934E-2,1.3192976E-3,-1.3679399E-2,-2.306657E-2,-3.4536354E-2,-5.049101E-2,8.047689E-3,-6.226008E-3,2.7231334E-3,7.4365227E-3,1.5784757E-2,9.858039E-3],"categories":[],"categories_nodes":[],"categories_segments":[],"categories_sizes":[],"default_left":[0,0,0,0,0,0,0,0,0,0,0,0,0,0,0,0,0,0,0,0,0,0,0,0,0,0,0,0,0,0,0,0,0,0,0,0,0,0,0,0,0,0,0,0,0,0,0,0,0,0,0,0,0,0,0,0,0,0,0,0,0,0,0,0,0,0,0,0,0,0,0,0,0,0,0,0,0,0,0,0,0,0,0,0,0,0,0,0,0,0,0,0,0,0,0,0,0,0,0,0,0,0,0,0,0,0,0,0,0,0,0,0,0,0,0,0,0,0,0,0,0,0,0,0,0,0,0,0,0],"id":11,"left_children":[1,3,5,7,9,11,13,15,17,19,21,-1,23,25,27,29,31,33,-1,35,-1,-1,-1,-1,-1,37,39,41,43,45,47,-1,-1,49,51,53,-1,55,57,59,61,63,65,67,69,-1,-1,-1,-1,-1,-1,71,73,-1,-1,75,-1,77,79,81,83,85,87,89,-1,91,93,95,97,99,101,-1,103,105,107,-1,-1,109,-1,-1,-1,-1,111,-1,-1,113,115,-1,117,-1,-1,-1,119,121,-1,-1,123,125,-1,-1,-1,-1,127,-1,-1,-1,-1,-1,-1,-1,-1,-1,-1,-1,-1,-1,-1,-1,-1,-1,-1,-1,-1,-1,-1,-1,-1,-1,-1],"loss_changes":[6.926636E2,4.8165994E2,1.7541412E2,4.8712227E1,8.227844E0,3.9933777E-1,1.3055087E2,8.540977E0,2.6317749E1,3.760498E0,3.9315948E0,0E0,3.6657715E-1,2.5286407E1,8.312895E1,1.8427441E0,4.3745947E-1,1.9756897E1,0E0,3.5029907E0,0E0,0E0,0E0,0E0,0E0,2.536583E0,3.78703E1,3.479116E1,2.893776E0,7.366657E-1,2.0959707E-1,0E0,0E0,1.1490059E0,9.629189E0,3.232422E-1,0E0,2.9237938E-1,6.921234E-1,9.441071E0,4.142849E0,1.0500586E0,1.2693176E1,8.008833E-1,6.2451553E-1,0E0,0E0,0E0,0E0,0E0,0E0,1.0809898E0,3.4262009E0,0E0,0E0,2.3800993E-1,0E0,4.5536232E-1,2.0002747E-1,1.8378143E0,3.9642334E-1,2.5538712E0,2.2328186E-1,5.010983E-1,0E0,1.428051E0,3.1261673E0,7.212801E-1,5.558276E-1,1.8616047E0,6.951008E-1,0E0,2.1543121E-1,5.162277E-1,4.2439775E0,0E0,0E0,2.9573917E-1,0E0,0E0,0E0,0E0,5.473175E-1,0E0,0E0,4.3374252E-1,3.9524555E-1,0E0,2.4649763E-1,0E0,0E0,0E0,2.1169996E-1,1.7299042E0,0E0,0E0,3.9322442E-1,3.92792E-1,0E0,0E0,0E0,0E0,7.134781E-1,0E0,0E0,0E0,0E0,0E0,0E0,0E0,0E0,0E0,0E0,0E0,0E0,0E0,0E0,0E0,0E0,0E0,0E0,0E0,0E0,0E0,0E0,0E0,0E0,0E0,0E0],"parents":[2147483647,0,0,1,1,2,2,3,3,4,4,5,5,6,6,7,7,8,8,9,9,10,10,12,12,13,13,14,14,15,15,16,16,17,17,19,19,25,25,26,26,27,27,28,28,29,29,30,30,33,33,34,34,35,35,37,37,38,38,39,39,40,40,41,41,42,42,43,43,44,44,51,51,52,52,55,55,57,57,58,58,59,59,60,60,61,61,62,62,63,63,65,65,66,66,67,67,68,68,69,69,70,70,72,72,73,73,74,74,77,77,82,82,85,85,86,86,88,88,92,92,93,93,96,96,97,97,102,102],"right_children":[2,4,6,8,10,12,14,16,18,20,22,-1,24,26,28,30,32,34,-1,36,-1,-1,-1,-1,-1,38,40,42,44,46,48,-1,-1,50,52,54,-1,56,58,60,62,64,66,68,70,-1,-1,-1,-1,-1,-1,72,74,-1,-1,76,-1,78,80,82,84,86,88,90,-1,92,94,96,98,100,102,-1,104,106,108,-1,-1,110,-1,-1,-1,-1,112,-1,-1,114,116,-1,118,-1,-1,-1,120,122,-1,-1,124,126,-1,-1,-1,-1,128,-1,-1,-1,-1,-1,-1,-1,-1,-1,-1,-1,-1,-1,-1,-1,-1,-1,-1,-1,-1,-1,-1,-1,-1,-1,-1],"split_conditions":[-2.4287029E-1,1.12778E0,-1.3116224E0,-8.171238E-1,-1.1023203E0,-1.6355463E0,7.881932E-1,-6.757554E-1,1.0738722E0,9.185714E-1,9.8690605E-1,-1.8859133E-2,-1.4602724E0,-1.0999788E-1,5.477163E-1,-8.1153715E-1,-1.2184534E0,-1.5605209E0,1.8337384E-2,8.240566E-1,-6.434413E-2,-6.741157E-2,-1.9478666E-2,-2.7339261E-2,-2.0182043E-2,-3.2988724E-1,-1.9969471E-1,8.5662353E-1,8.9260757E-1,-9.4598776E-1,-7.569582E-1,1.1316926E-2,2.0654937E-2,1.6289929E-1,-1.4735843E0,-5.0639915E-1,-9.501923E-2,-5.4130477E-1,-3.664746E-1,2.873159E-1,1.8653607E0,1.1084884E0,6.625384E-1,1.0969077E0,1.3006241E0,-1.2660046E-2,-4.693227E-3,-1.3758675E-3,1.9129092E-3,-5.174952E-2,-3.520704E-2,-1.7034372E0,-1.0547019E0,-7.672082E-2,-2.9387672E-2,-1.5889108E0,1.6274717E-2,-4.0552297E-1,-1.6235818E-1,-2.8795045E-2,1.07874215E-1,4.8897293E-1,4.794787E-1,1.5599803E0,1.2137662E-2,6.3502705E-1,-1.1826136E-1,1.3143798E0,1.6249917E0,1.233177E0,1.5167212E0,-3.6442477E-2,1.7072959E-2,-3.8691553E-1,-1.0334632E0,1.3957975E-2,8.421574E-3,-1.3983818E0,2.8481353E-2,1.8690769E-2,2.2500038E-2,2.7213927E-2,2.818169E-1,3.402137E-2,4.6095353E-2,1.2464888E0,2.8418747E-1,1.200713E-3,1.3680713E0,2.1548185E-3,-1.6593942E-2,-1.2269975E-3,6.48339E-1,6.89606E-1,-3.304231E-3,1.4957766E-2,7.082949E-1,8.112452E-1,1.8650664E-2,1.4991982E-2,3.238745E-2,9.458494E-3,1.679127E0,-2.6599227E-2,-1.7014278E-2,-1.9425562E-2,-1.6029192E-2,-2.4100835E-2,-8.020813E-3,9.251734E-3,2.2195423E-2,3.747574E-2,3.1295203E-2,2.2392763E-2,2.9167019E-2,-2.0599791E-3,1.6293328E-2,1.0578934E-2,1.3192976E-3,-1.3679399E-2,-2.306657E-2,-3.4536354E-2,-5.049101E-2,8.047689E-3,-6.226008E-3,2.7231334E-3,7.4365227E-3,1.5784757E-2,9.858039E-3],"split_indices":[1,5,9,5,3,9,5,9,7,9,9,0,9,9,1,9,5,1,0,9,0,0,0,0,0,7,5,7,4,9,9,0,0,3,9,1,0,9,9,4,1,9,9,5,9,0,0,0,0,0,0,9,9,0,0,5,0,9,9,9,9,7,5,5,0,9,3,9,9,9,9,0,4,4,1,0,0,2,0,0,0,0,9,0,0,9,1,0,9,0,0,0,9,9,0,0,2,1,0,0,0,0,9,0,0,0,0,0,0,0,0,0,0,0,0,0,0,0,0,0,0,0,0,0,0,0,0,0,0],"split_type":[0,0,0,0,0,0,0,0,0,0,0,0,0,0,0,0,0,0,0,0,0,0,0,0,0,0,0,0,0,0,0,0,0,0,0,0,0,0,0,0,0,0,0,0,0,0,0,0,0,0,0,0,0,0,0,0,0,0,0,0,0,0,0,0,0,0,0,0,0,0,0,0,0,0,0,0,0,0,0,0,0,0,0,0,0,0,0,0,0,0,0,0,0,0,0,0,0,0,0,0,0,0,0,0,0,0,0,0,0,0,0,0,0,0,0,0,0,0,0,0,0,0,0,0,0,0,0,0,0],"sum_hessian":[7.388E3,2.835E3,4.553E3,2.368E3,4.67E2,3.64E2,4.189E3,7.29E2,1.639E3,3.22E2,1.45E2,5E1,3.14E2,2.523E3,1.666E3,5.67E2,1.62E2,1.571E3,6.8E1,2.72E2,5E1,1.37E2,8E0,2.6E2,5.4E1,9.68E2,1.555E3,3.66E2,1.3E3,2.78E2,2.89E2,1.39E2,2.3E1,1.02E2,1.469E3,1.06E2,1.66E2,2.98E2,6.7E2,1.023E3,5.32E2,1.27E2,2.39E2,4.71E2,8.29E2,5.1E1,2.27E2,1.14E2,1.75E2,5.6E1,4.6E1,2.54E2,1.215E3,1.03E2,3E0,1.47E2,1.51E2,1.88E2,4.82E2,6.07E2,4.16E2,4.04E2,1.28E2,8E1,4.7E1,7.9E1,1.6E2,1.52E2,3.19E2,2.37E2,5.92E2,5.6E1,1.98E2,8.05E2,4.1E2,9.3E1,5.4E1,1.07E2,8.1E1,3.65E2,1.17E2,1.69E2,4.38E2,3.2E1,3.84E2,2.2E2,1.84E2,1.3E1,1.15E2,7.6E1,4E0,2.4E1,5.5E1,1.53E2,7E0,9.9E1,5.3E1,3.07E2,1.2E1,2.12E2,2.5E1,1.52E2,4.4E2,1.78E2,2E1,3.9E2,4.15E2,7.1E1,3.39E2,1E1,9.7E1,2.84E2,1.54E2,1.16E2,1.04E2,4E0,1.8E2,1.03E2,1.2E1,2.8E1,2.7E1,5.6E1,9.7E1,4.6E1,7E0,9.4E1,2.13E2,3.33E2,1.07E2],"tree_param":{"num_deleted":"0","num_feature":"10","num_nodes":"129","size_leaf_vector":"1"}},{"base_weights":[-3.6027408E-3,-3.6950883E-1,2.2598736E-1,-1.9181052E-1,-1.2385582E0,-3.9547333E-1,2.8003356E-1,2.6597006E-2,-2.7735606E-1,-1.3315514E0,-1.0244142E0,-1.7787002E-2,-4.1011727E-1,4.1659376E-1,7.541044E-2,-3.1754073E-2,2.0637377E-1,-6.979333E-1,-2.5000107E-1,-1.3818763E0,-6.1362676E-2,-6.363682E-2,-1.849448E-2,-2.5678568E-2,-1.852591E-2,2.9751045E-1,4.9012512E-1,-3.2530618E-1,1.8922488E-1,-7.857253E-2,1.3435484E-3,1.1020261E-2,1.9491516E-2,-4.4887397E-2,-2.5450937E-2,-2.698176E-1,2.6307452E-1,-1.1924317E0,-8.923119E-2,1.2276896E-2,3.2264638E-1,5.9853256E-1,2.8470725E-1,8.830196E-2,-5.128734E-1,1.3033283E-1,2.2258271E-1,-1.1852073E-2,-3.889366E-3,-4.2952687E-1,-2.3057511E-1,1.6784936E-2,-2.2607506E-3,-7.237701E-2,-2.8212165E-2,2.1505345E-2,1.836576E-2,5.20491E-1,7.0980453E-1,3.326251E-1,1.367097E-1,1.62917E-2,1.9024566E-1,-1.9400945E-1,-7.017826E-1,1.8621238E-1,1.0363411E-1,2.6440054E-1,2.0503372E-1,-3.254224E-2,-3.8042307E-1,-2.7346644E-1,-1.6073066E-1,2.5673844E-2,5.556977E-1,3.201211E-2,7.219664E-1,2.5272334E-1,4.0817603E-1,1.5037361E-1,-8.8169303E-4,-3.419992E-3,3.5064546E-3,1.2893237E-2,-3.6607578E-3,-5.5512757E-4,-1.8116064E-2,-3.5153914E-2,-5.023522E-2,1.3437196E-2,6.605704E-3,7.133882E-2,1.601678E-1,1.4317792E-2,2.995958E-2,7.216336E-3,2.1862736E-1,-2.3668641E-2,-1.5738888E-2,-1.7502768E-2,-1.3126502E-2,-2.2255922E-2,-7.1733478E-3,3.8404237E-2,3.1516306E-2,4.411838E-2,3.263747E-2,1.8844085E-2,1.24012055E-2,2.7335366E-2,1.8899724E-2,9.763519E-3,-3.4805448E-4,7.571444E-3,9.5983024E-4,7.853009E-3,1.783634E-2,1.3987184E-2,8.549971E-3],"categories":[],"categories_nodes":[],"categories_segments":[],"categories_sizes":[],"default_left":[0,0,0,0,0,0,0,0,0,0,0,0,0,0,0,0,0,0,0,0,0,0,0,0,0,0,0,0,0,0,0,0,0,0,0,0,0,0,0,0,0,0,0,0,0,0,0,0,0,0,0,0,0,0,0,0,0,0,0,0,0,0,0,0,0,0,0,0,0,0,0,0,0,0,0,0,0,0,0,0,0,0,0,0,0,0,0,0,0,0,0,0,0,0,0,0,0,0,0,0,0,0,0,0,0,0,0,0,0,0,0,0,0,0,0,0,0,0,0],"id":12,"left_children":[1,3,5,7,9,11,13,15,17,19,21,-1,23,25,27,29,31,33,35,37,-1,-1,-1,-1,-1,39,41,43,45,47,-1,-1,-1,-1,-1,49,51,53,-1,-1,55,57,59,61,63,65,67,-1,-1,69,71,-1,-1,-1,-1,-1,-1,73,75,77,79,81,83,85,87,89,91,93,95,-1,97,99,101,-1,103,-1,105,107,109,111,-1,-1,-1,-1,-1,-1,-1,-1,-1,-1,-1,113,115,-1,-1,-1,117,-1,-1,-1,-1,-1,-1,-1,-1,-1,-1,-1,-1,-1,-1,-1,-1,-1,-1,-1,-1,-1,-1],"loss_changes":[6.235097E2,4.415411E2,1.5334238E2,4.443177E1,7.6221313E0,3.4763718E-1,1.17217285E2,7.0434875E0,1.9394379E1,3.0634766E0,3.4891052E0,0E0,3.7104034E-1,2.181662E1,7.6781075E1,1.2891808E0,3.52993E-1,9.460335E-1,1.6440361E1,2.9759521E0,0E0,0E0,0E0,0E0,0E0,2.153099E0,3.433902E1,2.8966232E1,2.5309753E0,4.2652082E-1,0E0,0E0,0E0,0E0,0E0,9.550217E0,3.1921244E-1,2.3466492E-1,0E0,0E0,2.8336334E-1,8.264252E0,3.7577744E0,8.579175E-1,1.5246391E1,6.8344116E-1,5.310898E-1,0E0,0E0,1.3722191E0,3.6652374E0,0E0,0E0,0E0,0E0,0E0,0E0,1.6074371E0,3.1079102E-1,2.2991676E0,2.815652E-1,2.2278401E-1,3.1994975E-1,1.9399524E0,1.7838669E0,4.011078E-1,5.789752E-1,1.2833576E0,6.455498E-1,0E0,2.0415878E-1,6.7217255E-1,4.066247E0,0E0,6.0339355E-1,0E0,3.1069946E-1,4.7168636E-1,6.970558E-1,2.3965049E-1,0E0,0E0,0E0,0E0,0E0,0E0,0E0,0E0,0E0,0E0,0E0,6.3596475E-1,4.1340208E-1,0E0,0E0,0E0,5.133896E-1,0E0,0E0,0E0,0E0,0E0,0E0,0E0,0E0,0E0,0E0,0E0,0E0,0E0,0E0,0E0,0E0,0E0,0E0,0E0,0E0,0E0,0E0],"parents":[2147483647,0,0,1,1,2,2,3,3,4,4,5,5,6,6,7,7,8,8,9,9,10,10,12,12,13,13,14,14,15,15,16,16,17,17,18,18,19,19,25,25,26,26,27,27,28,28,29,29,35,35,36,36,37,37,40,40,41,41,42,42,43,43,44,44,45,45,46,46,49,49,50,50,57,57,58,58,59,59,60,60,61,61,62,62,63,63,64,64,65,65,66,66,67,67,68,68,70,70,71,71,72,72,74,74,76,76,77,77,78,78,79,79,91,91,92,92,96,96],"right_children":[2,4,6,8,10,12,14,16,18,20,22,-1,24,26,28,30,32,34,36,38,-1,-1,-1,-1,-1,40,42,44,46,48,-1,-1,-1,-1,-1,50,52,54,-1,-1,56,58,60,62,64,66,68,-1,-1,70,72,-1,-1,-1,-1,-1,-1,74,76,78,80,82,84,86,88,90,92,94,96,-1,98,100,102,-1,104,-1,106,108,110,112,-1,-1,-1,-1,-1,-1,-1,-1,-1,-1,-1,114,116,-1,-1,-1,118,-1,-1,-1,-1,-1,-1,-1,-1,-1,-1,-1,-1,-1,-1,-1,-1,-1,-1,-1,-1,-1,-1],"split_conditions":[-2.4287029E-1,1.12778E0,-1.3116224E0,-8.4799594E-1,-1.1023203E0,-1.6355463E0,7.881932E-1,-6.757554E-1,-1.5605209E0,9.185714E-1,9.8690605E-1,-1.7787002E-2,-1.4602724E0,-1.0999788E-1,5.477163E-1,-7.8446954E-1,-1.2184534E0,4.4405994E-1,1.0596308E0,8.240566E-1,-6.1362676E-2,-6.363682E-2,-1.849448E-2,-2.5678568E-2,-1.852591E-2,-5.137934E-1,-1.9969471E-1,1.1586506E0,8.9260757E-1,-9.4598776E-1,1.3435484E-3,1.1020261E-2,1.9491516E-2,-4.4887397E-2,-2.5450937E-2,-1.4332048E0,-1.9969471E-1,-5.0639915E-1,-8.923119E-2,1.2276896E-2,2.0378213E-1,2.873159E-1,1.8653607E0,1.1084884E0,6.625384E-1,1.0969077E0,1.3006241E0,-1.1852073E-2,-3.889366E-3,-1.6896815E0,-1.0547019E0,1.6784936E-2,-2.2607506E-3,-7.237701E-2,-2.8212165E-2,2.1505345E-2,1.836576E-2,-2.8795045E-2,1.07874215E-1,1.074774E0,3.186847E-1,2.0658582E-2,2.2716074E0,6.3502705E-1,7.0247424E-1,1.3143798E0,7.2522056E-1,1.233177E0,8.6580426E-1,-3.254224E-2,3.0348295E-1,-3.1935376E-1,-1.0334632E0,2.5673844E-2,-2.1732205E-1,3.201211E-2,2.818169E-1,4.1848615E-1,1.0063813E0,4.4197333E-1,-8.8169303E-4,-3.419992E-3,3.5064546E-3,1.2893237E-2,-3.6607578E-3,-5.5512757E-4,-1.8116064E-2,-3.5153914E-2,-5.023522E-2,1.3437196E-2,6.605704E-3,5.791169E-1,1.0369039E0,1.4317792E-2,2.995958E-2,7.216336E-3,1.6924388E0,-2.3668641E-2,-1.5738888E-2,-1.7502768E-2,-1.3126502E-2,-2.2255922E-2,-7.1733478E-3,3.8404237E-2,3.1516306E-2,4.411838E-2,3.263747E-2,1.8844085E-2,1.24012055E-2,2.7335366E-2,1.8899724E-2,9.763519E-3,-3.4805448E-4,7.571444E-3,9.5983024E-4,7.853009E-3,1.783634E-2,1.3987184E-2,8.549971E-3],"split_indices":[1,5,9,5,3,9,5,9,1,9,9,0,9,9,1,9,5,3,8,9,0,0,0,0,0,9,5,5,4,9,0,0,0,0,0,9,5,1,0,0,0,4,1,9,9,5,9,0,0,9,9,0,0,0,0,0,0,9,9,1,8,1,3,9,9,9,3,9,3,0,3,4,1,0,4,0,9,9,3,0,0,0,0,0,0,0,0,0,0,0,0,9,8,0,0,0,9,0,0,0,0,0,0,0,0,0,0,0,0,0,0,0,0,0,0,0,0,0,0],"split_type":[0,0,0,0,0,0,0,0,0,0,0,0,0,0,0,0,0,0,0,0,0,0,0,0,0,0,0,0,0,0,0,0,0,0,0,0,0,0,0,0,0,0,0,0,0,0,0,0,0,0,0,0,0,0,0,0,0,0,0,0,0,0,0,0,0,0,0,0,0,0,0,0,0,0,0,0,0,0,0,0,0,0,0,0,0,0,0,0,0,0,0,0,0,0,0,0,0,0,0,0,0,0,0,0,0,0,0,0,0,0,0,0,0,0,0,0,0,0,0],"sum_hessian":[7.419E3,2.86E3,4.559E3,2.376E3,4.84E2,3.64E2,4.195E3,6.69E2,1.707E3,3.32E2,1.52E2,5.1E1,3.13E2,2.515E3,