tree
version=v4
num_class=1
num_tree_per_iteration=1
label_index=0
max_feature_idx=9
objective=regression
feature_names=Column_0 Column_1 Column_2 Column_3 Column_4 Column_5 Column_6 Column_7 Column_8 Column_9
feature_infos=[-4.9281487464904785:0.63685661554336548] [-2.6146364212036133:3.7100627422332764] [-5.1990861892700195:1.272971510887146] [-2.2269694805145264:2.5527749061584473] [-5.5711894035339355:1.3641557693481445] [-1.9902403354644775:2.1465384960174561] [-1.982926607131958:1.6860036849975586] [-2.3018357753753662:1.4582350254058838] [-2.4405524730682373:1.9915002584457397] [-1.7305047512054443:1.7332621812820435]
tree_sizes=11127 11105 11135 11151

Tree=0
num_leaves=128
num_cat=0
split_feature=9 9 9 9 9 5 9 9 9 9 9 9 9 9 9 5 9 3 8 9 9 0 9 9 9 9 9 9 9 9 9 9 9 9 2 9 9 9 9 9 2 9 9 2 9 2 9 1 4 9 9 9 6 2 9 9 2 6 9 6 9 2 9 9 2 9 9 9 9 9 9 2 5 2 5 3 9 9 9 9 9 9 9 9 4 0 8 2 0 9 9 2 2 9 9 4 2 9 9 8 9 2 0 4 0 0 6 2 3 9 9 9 9 2 9 9 9 2 2 4 3 5 2 9 1 2 6
split_gain=1736.11 494.492 699.705 516.887 290.559 254.885 218.647 114.968 105.76 98.6626 98.383 152.133 94.6675 90.7776 117.724 99.2694 60.9378 58.6576 56.5491 50.6776 46.5297 43.0774 53.2281 48.2122 54.2907 70.7 37.1668 33.1033 30.5006 27.3748 24.7345 24.6275 22.2501 20.3967 19.0706 16.9216 47.0136 35.6032 16.8904 16.8856 16.8605 16.6262 26.348 15.5867 13.0418 12.9646 12.2569 11.7172 11.3951 10.7214 10.5194 9.59759 9.00937 8.333 7.89267 7.59482 7.35034 7.08533 11.5391 13.5982 9.80411 6.52713 6.02341 5.01993 3.89299 3.76195 3.76188 3.71613 3.71472 3.4822 3.4484 3.41191 3.30572 3.30202 3.22447 2.96768 2.94981 2.9357 2.92819 2.80666 2.7401 2.6857 2.35496 2.30666 2.16793 2.13698 2.01938 1.9969 1.92481 1.81343 3.05504 1.70645 1.69771 1.67434 1.58793 1.55544 1.5205 1.39733 1.62454 1.37786 1.34234 1.30423 1.27787 1.21059 1.19788 1.18829 1.18335 1.14474 1.07888 1.05467 1.04472 1.01143 0.943709 0.917365 0.879336 0.807332 0.977354 0.743182 0.677327 0.673446 0.655913 0.628171 0.599296 0.737709 0.592842 0.572878 0.525103
threshold=0.73065117001533519 -1.1392327547073362 0.16489368677139285 -0.10666989907622336 -0.75407394766807545 1.0197294950485232 0.21991638094186786 0.5500524938106538 -0.21316542476415631 0.17864936590194705 1.6269885301589968 1.5604287981987002 1.1708326339721682 -0.35959677398204798 -0.42615647614002222 -1.3265030980110166 1.6003646254539492 1.9201549887657168 -1.3927702903747556 0.44000713527202612 1.102054297924042 0.45280016958713537 -1.6481926441192625 -1.6069256067275999 -1.5106359124183653 -1.4693688750267027 1.0195202827453616 1.4539332389831545 0.99200892448425304 -0.31966094672679896 -1.1117213964462278 0.027336971834301952 0.12362667545676233 -1.6344369649887083 0.024168025236576799 -0.71280694007873524 -0.49271617829799647 -0.45278035104274744 1.5471168756484988 1.3740616440773012 0.48025263845920568 -1.249278128147125 -1.3318121433258054 0.26306973397731787 0.46751846373081213 0.58884355425834667 -1.6894596219062803 -0.90169563889503468 -0.67232638597488392 -0.69905126094818104 -1.5931699275970457 0.75816252827644359 1.3439886569976809 0.56712579727172863 -1.4556132555007932 1.4406213760375979 0.41509725153446203 0.16246472299098971 0.27493907511234289 0.34902189671993261 0.24742772430181506 -0.95315605401992787 -1.249278128147125 0.3024504035711289 0.67571672797203075 -0.22647736221551892 1.0882986783981325 -0.399532601237297 -0.43946841359138483 0.7031398117542268 -0.86411932110786427 0.58884355425834667 0.55665695667266857 0.024168025236576799 -0.73994550108909596 1.4984139800071719 0.99200892448425304 -0.040110195055603974 -1.5381472110748289 1.6536123752593996 -0.58900588750839222 1.6136765480041506 -0.093357957899570451 -0.63027289509773243 -1.1438745856285093 0.17130158096551898 -1.2745789289474485 -1.3440858125686643 0.1279941909015179 -1.0154317021369932 -0.98792037367820729 0.89290067553520214 -0.58394512534141529 0.05484831519424916 -1.125477075576782 -0.50411303341388691 -0.30160684883594507 1.2941899895668032 1.3208138942718508 0.46187606453895574 1.0332759618759157 0.69743552803993236 0.43114647269248968 -0.40346042811870569 0.43114647269248968 0.3878390789031983 0.65994662046432506 0.30650527775287634 -0.89145144820213307 0.23367205262184146 -1.1667441129684446 0.3299617618322373 -0.11998183652758597 1.0000000180025095e-35 -1.1667441129684446 -1.3455678224563596 -1.3593235015869138 0.17619657516479495 -0.69253605604171742 0.53963595628738414 -1.3131957650184629 1.3901869058609011 0.91461947560310375 1.3607497215270998 0.1524230241775513 -0.084422904998064027 0.65994662046432506
decision_type=2 2 2 2 2 2 2 2 2 2 2 2 2 2 2 2 2 2 2 2 2 2 2 2 2 2 2 2 2 2 2 2 2 2 2 2 2 2 2 2 2 2 2 2 2 2 2 2 2 2 2 2 2 2 2 2 2 2 2 2 2 2 2 2 2 2 2 2 2 2 2 2 2 2 2 2 2 2 2 2 2 2 2 2 2 2 2 2 2 2 2 2 2 2 2 2 2 2 2 2 2 2 2 2 2 2 2 2 2 2 2 2 2 2 2 2 2 2 2 2 2 2 2 2 2 2 2
left_child=1 18 3 4 30 12 9 19 13 -4 11 27 20 14 15 49 53 39 41 57 26 22 46 33 50 40 76 28 51 -15 94 77 93 -24 87 43 95 -38 -29 52 -26 42 115 -17 -21 -19 -20 74 88 -6 -25 -7 72 -13 -50 73 96 60 -59 63 109 -23 -56 -60 67 101 100 -16 -39 71 -49 102 -14 -30 85 122 -2 82 120 -12 83 -18 -5 -51 -10 -32 -72 -28 -27 -76 125 126 -48 -33 -3 117 -11 -54 -99 -75 -36 -31 118 -87 -44 -41 113 -65 -62 -8 -43 -110 -86 -46 -64 116 -1 -37 -9 -71 -52 -120 123 -74 -82 -91 -73
right_child=5 2 6 31 8 10 7 69 84 56 79 16 17 29 64 35 81 45 21 44 -22 61 23 24 25 48 34 38 55 65 47 32 -34 -35 66 36 37 68 -40 105 -42 110 104 -45 106 -47 92 70 54 80 78 -53 97 -55 62 -57 -58 58 59 -61 108 -63 114 107 -66 -67 -68 -69 -70 119 86 91 75 99 89 -77 -78 -79 -80 -81 124 -83 -84 -85 112 103 -88 -89 -90 90 -92 -93 -94 -95 -96 -97 -98 98 -100 -101 -102 -103 -104 -105 -106 -107 -108 -109 111 -111 -112 -113 -114 -115 -116 -117 -118 -119 121 -121 -122 -123 -124 -125 -126 -127 -128
leaf_value=-0.03575305164886871 0.063822963320064777 -0.018333795083665328 -0.025958572309675666 0.029223670934097591 -0.037624972533878906 0.034520910384289019 -0.053113327395615202 -0.012749018557740941 0.022506310490713152 -0.13165605652410597 0.070171575666626212 -0.013006897600516647 -0.015245776172042747 -0.073778135177192325 0.018592689759747007 -0.092583465139004117 0.025110990539391167 -0.072700908910927398 -0.043032143112716303 -0.086861505808896289 0.059787518595722809 -0.067872128768227444 -0.051932372919417644 -0.055026677774640695 -0.12625487513512096 -0.048036930671163061 -0.004535012069824278 0.077128868802878517 0.009441787370419806 -0.044222288496793723 0.017978618345244751 0.059102426531697845 0.038160582878373366 -0.10677904242587667 0.0049714545914254791 -0.0037543659073044494 -0.079025518108603601 -0.037354580753961648 0.033736072305402556 0.036896524832224352 -0.073590351447493402 -0.054772015464005099 -0.0063853214539284636 -0.045042604951039587 -0.06560967319118409 -0.023148748917949425 0.0044464216078845421 0.020011804935604501 -0.065762535504199304 -0.0041513728459770163 -0.01262425281201119 0.057282728568852567 0.0080693269533112077 -0.045352209082938459 -0.028203708998307337 0.053240086663070105 -0.1533528049505723 -0.008047662902515797 -0.062125292557839447 -0.011609873017319876 -0.024964118666065217 -0.10425688575720665 -0.053063636461677485 -0.036746048994449415 0.0083961663496963396 -0.02035086904723454 0.036727518975152459 0.037990580888528767 -0.0097679918580474701 -0.0024338463564034301 0.020994664589389676 -0.014833535919739583 0.0016254302899606119 0.017043605469260256 0.017448544520209705 -0.012366782337405756 0.039845042213856714 0.033697709851382339 -0.030624853543139725 0.088577835212809861 -0.0026801261814976894 0.048749012177044658 0.048744818557766904 -0.015064044744129737 0.011959201312977919 0.030292132224616599 0.039060292516605685 -0.024945304675704837 -0.072033866258972443 0.0060544003237563131 0.018925620065291641 -0.0078345630774060634 -0.010999769784896205 0.073934259423200754 -0.0022367625010827207 -0.023813303327898269 -0.096308445685056088 0.028805690469854376 0.011212282873245853 0.032014119979170738 0.020128897998865556 -0.032363773230749016 0.0052032420340851031 0.019765775760699451 -0.018861518532562998 0.021140430200400726 -0.041005343386618827 -0.047822832592275967 -0.019688705718445772 -0.035135345458272529 -0.036559982073006259 -0.0076332567940873147 0.0015597414049464773 -0.053061097687115089 -0.038237720884294814 -0.026121721219715701 -0.04884784277071965 -0.013943950912428124 0.00063995822971341565 0.0085303241128275292 -0.021079640932305625 -0.0082318906821687993 0.011689047376140472 0.010958020526471513 0.0037824546936115417 -0.0046417743205930508 -0.022958351936530664
leaf_weight=109 32 31 31 25 26 58 27 50 48 21 55 40 32 79 45 33 28 24 31 51 135 33 29 26 39 22 20 188 33 142 199 57 82 55 26 43 79 26 28 43 35 49 135 43 60 31 24 45 29 121 68 443 26 41 100 26 35 26 53 30 58 38 46 72 26 27 26 65 24 35 22 40 142 25 112 31 36 142 53 160 71 28 102 81 146 85 129 31 48 20 34 40 63 141 30 20 31 37 23 68 35 46 20 54 22 24 22 79 51 28 21 29 26 88 34 24 28 31 29 22 42 62 22 24 69 30 70
leaf_count=109 32 31 31 25 26 58 27 50 48 21 55 40 32 79 45 33 28 24 31 51 135 33 29 26 39 22 20 188 33 142 199 57 82 55 26 43 79 26 28 43 35 49 135 43 60 31 24 45 29 121 68 443 26 41 100 26 35 26 53 30 58 38 46 72 26 27 26 65 24 35 22 40 142 25 112 31 36 142 53 160 71 28 102 81 146 85 129 31 48 20 34 40 63 141 30 20 31 37 23 68 35 46 20 54 22 24 22 79 51 28 21 29 26 88 34 24 28 31 29 22 42 62 22 24 69 30 70
internal_value=-2.30577e-05 -0.0157765 -0.00696182 0.00718482 -0.00407585 0.0390956 -0.0393432 -0.031973 -0.0184571 -0.103611 0.0534624 0.0468127 0.0171288 -0.0247991 -0.0160603 -0.0247033 -0.00214592 0.00228617 -0.0437155 -0.044232 0.0370425 -0.0512081 -0.0475331 -0.053337 -0.0477066 -0.0592873 0.02192 0.0545248 0.0487475 -0.0485321 0.0198618 0.0503513 0.0608325 -0.0886776 0.00688508 -0.0460534 -0.0387781 -0.0582678 0.0716853 0.00891339 -0.102659 -0.0278859 -0.0228987 -0.0666196 -0.0638944 -0.0456836 -0.0165534 0.0224166 -0.0474581 -0.00727857 -0.0258787 0.0547216 0.00431351 -0.0297326 -0.0412084 0.0288275 -0.130671 -0.0345199 -0.040001 -0.043502 -0.026968 -0.0885232 -0.036911 -0.0481125 0.0261995 -0.038957 0.0210285 0.0302941 -0.0245642 -0.00946125 0.0328998 -0.0115378 -0.000490534 0.0234105 0.0185146 0.00172498 0.0518902 0.0392567 -0.0209222 0.0842159 -0.00486857 0.0375779 0.0451604 -0.0085799 0.0131354 0.0214984 0.0365837 -0.0171824 -0.0652748 0.0132859 0.0075958 -0.0169499 -0.00673665 0.0699829 -0.010581 -0.0116998 -0.112798 0.0181791 0.0223559 0.0282139 0.0138527 -0.0415073 -0.00642187 0.0263731 -0.00824189 0.0316464 -0.0565366 -0.0428177 -0.0196093 -0.0447518 -0.0499003 -0.0154668 0.0104053 -0.0585546 -0.0473125 -0.0370523 -0.0387639 -0.00815199 -0.00809585 0.00187204 -0.0160135 -0.00542838 0.00410177 0.00303225 0.000509236 -0.000328492 -0.0201641
internal_weight=7041 5020 3817 2657 2108 2021 1160 1042 1317 118 1221 1006 800 1097 803 667 137 459 1203 674 341 815 744 626 542 353 206 869 653 294 791 549 280 84 138 299 223 129 216 404 74 388 318 76 221 55 118 730 279 368 189 501 337 81 209 152 87 453 260 234 193 71 180 204 136 215 87 110 50 368 196 311 251 126 534 219 68 269 163 215 342 56 127 202 220 338 151 51 70 196 84 150 87 198 61 94 52 86 60 93 61 188 161 139 157 67 170 151 138 55 70 80 172 148 80 161 137 74 141 57 110 91 188 166 140 50 110
internal_count=7041 5020 3817 2657 2108 2021 1160 1042 1317 118 1221 1006 800 1097 803 667 137 459 1203 674 341 815 744 626 542 353 206 869 653 294 791 549 280 84 138 299 223 129 216 404 74 388 318 76 221 55 118 730 279 368 189 501 337 81 209 152 87 453 260 234 193 71 180 204 136 215 87 110 50 368 196 311 251 126 534 219 68 269 163 215 342 56 127 202 220 338 151 51 70 196 84 150 87 198 61 94 52 86 60 93 61 188 161 139 157 67 170 151 138 55 70 80 172 148 80 161 137 74 141 57 110 91 188 166 140 50 110
is_linear=0
shrinkage=1


Tree=1
num_leaves=128
num_cat=0
split_feature=9 9 9 9 9 5 9 9 9 9 9 9 9 9 7 9 7 9 9 9 9 9 9 9 9 9 9 9 9 9 9 9 9 9 9 9 7 7 9 2 2 9 9 9 9 9 9 9 9 9 9 9 9 6 9 6 9 6 9 2 9 5 2 9 9 1 2 9 9 9 9 9 2 9 2 6 0 1 9 2 9 4 0 9 9 2 9 4 4 2 0 9 0 2 2 2 2 2 9 5 0 4 9 6 1 9 9 9 5 7 0 7 9 9 9 1 2 0 2 0 7 9 9 9 9 4 0
split_gain=1515.37 433.401 593.532 455.701 264.92 239.214 192.262 99.4723 96.5775 93.0144 87.3699 135.553 83.183 105.762 104.525 79.652 58.7035 55.3212 54.27 46.188 43.4181 40.1223 34.6835 33.457 58.5776 42.2072 50.7081 80.5371 31.5527 26.1126 24.1401 20.5708 20.2682 18.2055 17.899 17.7775 17.7308 21.8428 38.3258 17.1567 17.0443 16.4436 14.47 12.1665 11.1221 11.0134 10.6951 10.1544 9.63956 9.29644 9.09317 7.67585 7.36274 7.30527 6.72923 6.08428 9.58701 12.1252 8.22598 5.83117 5.14977 4.99025 4.87721 4.60583 3.82613 3.75498 3.61529 3.36202 3.3069 3.06667 2.98422 2.90097 3.30284 2.81802 2.70514 2.60359 2.5819 2.46045 2.39817 2.3818 3.43534 2.33156 2.31879 2.30024 2.1713 2.08146 2.01688 1.94685 1.75459 1.6551 1.58654 1.50061 1.49883 1.44719 1.44305 1.40716 1.5562 1.33839 1.25355 1.23393 1.21202 1.12983 1.1193 1.10241 1.08982 1.02652 0.971679 0.967851 0.953214 1.03933 0.9425 0.888468 0.882068 0.881827 0.785353 2.0726 0.690485 0.667898 0.650892 0.643972 0.627106 1.39415 1.4766 0.623192 0.935844 0.596773 0.757291
threshold=0.73065117001533519 -1.1392327547073362 0.16489368677139285 -0.10666989907622336 -0.75407394766807545 1.0197294950485232 0.21991638094186786 0.5500524938106538 -0.21316542476415631 1.1708326339721682 1.6269885301589968 1.5604287981987002 -0.35959677398204798 -0.42615647614002222 -1.4077746868133543 0.17864936590194705 -1.5581775307655332 1.2143183350563052 1.6003646254539492 0.44000713527202612 1.102054297924042 1.1845883131027224 1.0195202827453616 -1.7032153010368345 -1.6481926441192625 -1.6069256067275999 -1.5106359124183653 -1.4693688750267027 1.4539332389831545 1.0195202827453616 -0.31966094672679896 -1.1117213964462278 0.027336971834301952 0.12362667545676233 -1.6344369649887083 -1.3318121433258054 -0.1209946498274803 -0.8562977910041808 -0.71280694007873524 0.024168025236576799 0.48025263845920568 1.5471168756484988 1.3740616440773012 -1.249278128147125 -1.5931699275970457 -1.4556132555007932 0.46751846373081213 -0.86411932110786427 -0.74031826853752125 -0.69905126094818104 1.4406213760375979 -0.79534095525741566 0.75816252827644359 1.3439886569976809 -1.1667441129684446 0.16246472299098971 0.27493907511234289 0.34902189671993261 0.24742772430181506 0.56712579727172863 -1.6894596219062803 0.55665695667266857 0.30650527775287634 -1.2630338072776792 0.3024504035711289 0.1524230241775513 -1.1051840782165525 -0.22647736221551892 -1.5381472110748289 1.0332759618759157 -0.040110195055603974 0.7031398117542268 0.58884355425834667 -0.093357957899570451 -0.30160684883594507 -1.7030923366546629 0.19295527786016467 0.1524230241775513 1.6136765480041506 0.69743552803993236 -0.399532601237297 -0.67232638597488392 0.21460897475481036 0.99200892448425304 1.6536123752593996 0.34994289278984075 -0.76782962679862965 -1.1438745856285093 -0.47033214569091791 -0.58394512534141529 0.30122427642345434 1.2941899895668032 0.32287797331810003 -1.3223675489425657 0.89290067553520214 0.91461947560310375 0.37166170775890356 0.69743552803993236 -1.125477075576782 -0.64733111858367909 0.3878390789031983 1.0442760586738589 0.041092643514275558 0.5977628529071809 1.4700673818588259 1.0882986783981325 1.3208138942718508 0.99200892448425304 -0.64733111858367909 -1.2740830183029173 0.36618536710739141 0.43048222362995153 0.23367205262184146 -0.11998183652758597 -0.63027289509773243 1.0000000180025095e-35 -1.0400292277336118 0.30122427642345434 0.58884355425834667 0.30122427642345434 -1.3576400279998777 -0.98792037367820729 -1.0154317021369932 -1.0291873812675474 -0.97416469454765309 0.77541005611419689 0.40949277579784399
decision_type=2 2 2 2 2 2 2 2 2 2 2 2 2 2 2 2 2 2 2 2 2 2 2 2 2 2 2 2 2 2 2 2 2 2 2 2 2 2 2 2 2 2 2 2 2 2 2 2 2 2 2 2 2 2 2 2 2 2 2 2 2 2 2 2 2 2 2 2 2 2 2 2 2 2 2 2 2 2 2 2 2 2 2 2 2 2 2 2 2 2 2 2 2 2 2 2 2 2 2 2 2 2 2 2 2 2 2 2 2 2 2 2 2 2 2 2 2 2 2 2 2 2 2 2 2 2 2
left_child=1 16 3 4 31 9 15 19 12 20 11 28 13 14 49 -4 35 21 59 55 22 -11 83 66 60 34 44 40 29 52 -14 98 70 102 -26 119 37 38 48 93 -28 -30 53 45 -27 -29 -21 76 -16 -6 65 -49 -7 61 81 58 -57 64 112 -13 -25 -19 74 100 -58 -31 -18 97 116 -41 73 72 125 -5 -17 -36 108 114 -20 80 -15 -45 -50 -2 -12 -23 -53 -10 -78 -62 -40 -55 -38 -24 -74 96 -63 -32 -3 -60 -37 104 -34 118 -98 -71 -93 -54 120 -110 -44 -67 -8 -89 -51 -116 -46 -72 -48 -1 -33 122 -122 -90 -125 126 -9
right_child=5 2 6 32 8 10 7 71 87 17 84 18 30 79 36 62 23 42 78 46 -22 85 39 24 25 26 27 43 41 50 67 47 33 -35 75 63 92 -39 90 69 -42 -43 110 54 68 -47 103 51 82 77 -52 86 107 91 -56 56 57 -59 99 -61 89 95 -64 -65 -66 111 -68 -69 -70 105 117 -73 94 -75 -76 -77 88 -79 -80 -81 -82 -83 -84 -85 -86 -87 -88 113 123 -91 -92 106 -94 -95 -96 -97 101 -99 -100 -101 -102 -103 -104 -105 -106 -107 -108 -109 109 -111 -112 -113 -114 -115 115 -117 -118 -119 -120 -121 121 -123 -124 124 -126 -127 -128
leaf_value=-0.038804221404604169 0.060001214435606291 -0.016870451680031314 -0.027057275722424192 0.027406214401125908 -0.035167984692034901 0.032943134462194788 -0.049323642041002008 -0.0056795502654318 0.021350409535691145 0.016703167252242565 0.067256943274427342 -0.014633466759206435 -0.069295662393172586 0.017274751955022413 -0.038578196283843784 -0.12459725981408901 -0.062718061322257643 -0.016697491136820695 0.023741189287654285 -0.080624854998155082 0.056879489421844488 -0.072449774237779471 -0.0061250884170559322 -0.030957670675383676 -0.05005431091412902 -0.053295024715620899 -0.11813271583295336 -0.061186323634215771 0.073465277223857414 0.004317154196905904 -0.042058737397193909 0.020467558643544343 0.051215798720236752 0.036452186924506379 -0.076186494032541907 -0.0046958520285491105 -0.007922256879670464 -0.074257488677531111 -0.019431563850545598 0.0048984296942273017 -0.068791780842317116 0.029522159757713481 0.036089565736405989 -0.065907700615269793 -0.022670068439434879 -0.025609804688292184 -0.062074687854567573 0.037551866825536004 -0.062269735565552348 -0.0037134104539777975 0.051170497516105917 0.023306986292952608 0.054154837222021315 0.0067896821965964943 -0.036012457337762628 -0.0077532472876975164 -0.058382556498050686 -0.011802014426300021 -0.014657223706358467 -0.042612750210413122 0.0042951383445012778 0.0060869107593692117 -0.14290067114328084 -0.028090648527722806 -0.040685641920814919 0.020459756631331118 -0.098191715163343102 -0.019216545224534694 -0.029509885063660996 0.019285887249690645 0.029061764223618555 0.0018766182487265075 -0.01906878979929354 0.046923752343998509 -0.085187939678629254 -0.11115373501906525 0.028712461726136614 0.0037264855539875241 0.046467063438009333 0.0096911405594172807 0.036021553747581717 -0.050380640755216755 -0.092802756786346446 0.038392431470187935 0.084454510953181836 -0.047590653550240308 0.0064539009397516821 0.011516405503985519 0.022301146905960106 -0.010376180107021587 -0.0035537209970733295 0.026951471426420744 -0.026899786395105447 -0.023400464776204902 -0.0077399592103791388 0.014997935159639878 0.0072679256380070003 -0.030055818164890464 -0.0022068534324306151 -0.024642444885613627 -0.017154744792666557 -0.010507951830654887 0.067654297387961179 -0.046064418198457413 -0.0066684192428365348 0.034270313382148747 0.012164960021064396 0.038276888971978971 0.014651548843539787 0.0011453666862238337 0.022622401468657159 0.033311400533868718 -0.032909888500968619 0.0015883679900850569 -0.014390600985999025 -0.0031590495488525911 -0.012263488090854695 0.040452855110168461 -0.046230114304593638 -0.029572514524417268 0.014391784544192977 0.016816024041309215 -0.0022432336350902914 0.0049295627490871336 0.019314125235433934 -0.012585728883743286 0.0047051525375406654
leaf_weight=82 32 28 29 29 26 55 27 112 49 24 53 37 83 44 26 21 20 37 28 54 139 25 21 26 31 28 50 27 193 31 149 66 30 82 20 113 22 80 44 25 36 26 33 69 21 116 66 138 25 126 28 57 427 25 55 25 49 32 86 40 27 92 37 31 143 50 33 26 55 33 110 55 105 103 23 36 70 69 26 21 65 82 24 36 155 30 27 140 40 62 25 35 21 31 41 21 31 43 30 56 23 32 164 66 24 24 20 21 31 26 36 25 29 27 85 80 93 24 27 55 30 161 23 21 26 24 20
leaf_count=82 32 28 29 29 26 55 27 112 49 24 53 37 83 44 26 21 20 37 28 54 139 25 21 26 31 28 50 27 193 31 149 66 30 82 20 113 22 80 44 25 36 26 33 69 21 116 66 138 25 126 28 57 427 25 55 25 49 32 86 40 27 92 37 31 143 50 33 26 55 33 110 55 105 103 23 36 70 69 26 21 65 82 24 36 155 30 27 140 40 62 25 35 21 31 41 21 31 43 30 56 23 32 164 66 24 24 20 21 31 26 36 25 29 27 85 80 93 24 27 55 30 161 23 21 26 24 20
internal_value=3.18577e-05 -0.0148526 -0.00648887 0.00658134 -0.00409265 0.0367225 -0.0368065 -0.029951 -0.0178765 0.015645 0.0509138 0.0446215 -0.0239568 -0.0153344 -0.0235323 -0.0993477 -0.04111 0.00108483 -0.00272795 -0.041439 0.0354385 -0.0367678 0.020477 -0.047613 -0.0450595 -0.0503547 -0.0457205 -0.0552556 0.0518625 0.0460765 -0.0462614 0.0190517 0.0473584 0.0569537 -0.0831175 -0.0220418 -0.0475238 -0.0531661 -0.0410173 0.005602 -0.0985065 0.0684062 0.00890686 -0.0443468 -0.024493 -0.0327053 -0.0606268 0.0213706 -0.0655354 -0.00685726 0.0261603 0.030279 0.0513198 0.00434869 -0.0522311 -0.032181 -0.0374756 -0.0407437 -0.0253676 -0.0295281 -0.0118042 -8.13725e-05 -0.124584 -0.0109877 -0.0454811 0.0191373 -0.0862148 -0.0372151 -0.0194357 0.0197571 0.0372263 -0.00865616 -0.0105742 0.0428741 -0.106348 -0.100221 0.0173141 -0.00472084 0.0353292 0.0257099 0.0286799 -0.0578627 -0.0787816 0.0492835 0.0804152 -0.0599822 0.0180296 0.0126074 0.0226764 -0.00592706 -0.0138117 0.0173117 -0.0175911 -0.0166711 -0.0159617 0.00306039 0.00158435 -0.0395402 -0.00945179 -0.0187398 -0.00691271 -0.00319204 0.0653879 -0.0533735 0.00117613 0.0260772 0.0218878 0.0534975 0.0147562 0.0086168 0.0294868 0.0251256 -0.0415502 0.00993028 -0.00672972 -0.00899684 -0.014361 0.0313865 -0.0580154 -0.0353392 0.0159709 0.0144954 0.00726496 0.0175486 0.0131236 -0.00546257 -0.00408256
internal_weight=6935 4934 3743 2616 2074 2001 1127 1017 1300 806 1195 987 1084 783 653 110 1191 465 131 660 341 79 202 887 834 719 632 435 856 637 301 774 542 276 87 304 267 224 144 134 86 219 386 349 197 143 213 716 75 386 134 222 503 317 206 447 249 224 198 77 115 237 81 167 192 106 53 218 169 82 266 357 302 132 44 56 494 360 54 130 109 151 49 68 208 55 84 216 157 89 69 80 43 52 146 200 179 192 58 142 136 87 194 159 55 57 55 448 337 57 69 75 56 167 291 165 114 134 93 137 280 214 53 87 47 156 132
internal_count=6935 4934 3743 2616 2074 2001 1127 1017 1300 806 1195 987 1084 783 653 110 1191 465 131 660 341 79 202 887 834 719 632 435 856 637 301 774 542 276 87 304 267 224 144 134 86 219 386 349 197 143 213 716 75 386 134 222 503 317 206 447 249 224 198 77 115 237 81 167 192 106 53 218 169 82 266 357 302 132 44 56 494 360 54 130 109 151 49 68 208 55 84 216 157 89 69 80 43 52 146 200 179 192 58 142 136 87 194 159 55 57 55 448 337 57 69 75 56 167 291 165 114 134 93 137 280 214 53 87 47 156 132
is_linear=0
shrinkage=0.05


Tree=2
num_leaves=128
num_cat=0
split_feature=9 9 9 9 9 5 9 9 9 9 9 9 9 9 9 7 9 7 9 9 0 9 9 9 9 9 9 9 1 9 9 9 9 9 9 7 7 9 9 2 9 9 9 9 2 9 1 9 9 9 6 9 6 6 9 9 9 3 2 2 9 2 2 5 9 9 9 9 9 9 9 2 9 9 3 5 9 7 9 0 1 0 9 3 7 9 9 2 2 0 2 2 2 9 6 2 6 9 3 9 3 9 2 0 5 2 0 3 9 9 1 9 1 5 0 2 9 3 6 9 2 2 1 9 2 3 2
split_gain=1395.82 397.597 578.617 431.688 239.426 220.892 175.548 98.0916 94.9526 88.3097 84.8225 83.4816 129.438 72.1884 98.5704 96.7036 69.5065 55.1561 49.1491 41.6905 31.8257 34.2645 41.2276 36.9877 64.0491 26.9416 35.2296 26.1542 20.909 20.7954 20.1372 19.4307 19.2595 17.7951 17.409 17.3004 19.9908 30.6985 15.9635 15.2736 15.2107 12.1619 12.0702 11.3258 11.0109 10.9147 10.0114 9.81935 9.67169 8.78711 8.14896 7.42154 6.82211 9.37313 10.4814 7.63534 6.51717 6.28759 6.1064 5.91655 5.67488 4.80839 4.47258 4.19103 4.09701 3.32749 3.31837 3.20085 3.15586 3.14386 2.99326 2.99175 2.89218 2.85028 2.81572 2.77202 2.5269 2.34018 2.26535 2.25939 2.17853 1.948 1.88511 1.86433 1.85563 1.77991 1.89976 1.77139 1.71277 1.46872 1.46485 1.45724 1.39634 1.39104 1.30977 1.3095 1.29281 1.26947 1.21376 1.21112 1.15923 1.1224 1.11941 1.0571 1.00109 0.975526 0.974872 0.917844 0.914808 0.9008 0.87576 0.868439 1.93431 0.833338 0.822182 0.779127 0.752661 0.727096 0.719964 0.709925 0.640673 0.866173 1.34812 0.639915 0.604306 0.676484 0.540475
threshold=0.73065117001533519 -1.1392327547073362 0.16489368677139285 -0.10666989907622336 -0.75407394766807545 1.0506009459495547 0.21991638094186786 0.5500524938106538 1.1845883131027224 1.2143183350563052 -0.21316542476415631 1.6269885301589968 1.5604287981987002 -0.35959677398204798 -0.42615647614002222 -1.4077746868133543 0.17864936590194705 -1.5748887658119199 1.6003646254539492 0.44000713527202612 0.47445386648178106 -1.6481926441192625 -1.6069256067275999 -1.5106359124183653 -1.4693688750267027 1.102054297924042 1.0195202827453616 1.4539332389831545 -0.63816359639167775 -0.31966094672679896 0.027336971834301952 -1.1117213964462278 -1.3318121433258054 0.12362667545676233 -1.6894596219062803 -0.070860028266906724 -0.8562977910041808 -0.71280694007873524 -1.6344369649887083 0.024168025236576799 1.3740616440773012 -1.249278128147125 1.5471168756484988 -1.4556132555007932 0.45853486657142645 0.46751846373081213 -0.90169563889503468 -0.74031826853752125 -1.5931699275970457 1.1708326339721682 1.3439886569976809 -0.69905126094818104 0.16246472299098971 0.34902189671993261 0.27493907511234289 0.24742772430181506 -1.1667441129684446 1.0766730904579165 0.30650527775287634 0.56712579727172863 1.4406213760375979 0.71915432810783397 -0.30160684883594507 0.55665695667266857 0.3024504035711289 -0.399532601237297 -0.22647736221551892 0.99200892448425304 1.6802362799644472 0.7031398117542268 -1.5381472110748289 0.58884355425834667 -0.86411932110786427 1.0332759618759157 0.79551240801811229 -0.73994550108909596 -0.040110195055603974 -0.25468631833791727 -0.093357957899570451 0.21460897475481036 0.1524230241775513 0.58272233605384838 -1.2630338072776792 -0.18854984268546102 0.88169082999229442 -1.0291873812675474 -0.98792037367820729 0.34994289278984075 0.67571672797203075 0.17130158096551898 0.50197042524814617 -0.97487434744834889 0.93633723258972179 -0.80909663438796986 -0.08627621084451674 0.32822409272193914 -1.1434266567230222 -1.125477075576782 1.3578336834907534 0.05484831519424916 0.23319111764431003 0.68938416242599498 -1.3223675489425657 0.43114647269248968 -0.64733111858367909 0.69743552803993236 0.43114647269248968 -0.46971046924591059 -0.90538632869720448 1.0882986783981325 -1.1652276515960691 -0.63027289509773243 1.0000000180025095e-35 0.64927130937576305 0.21460897475481036 0.84946307539939891 0.2886947393417359 -1.3131957650184629 0.84650379419326793 0.23367205262184146 0.91461947560310375 0.37166170775890356 1.4700673818588259 0.3299617618322373 -0.62738069891929615 -1.172612130641937 -0.14957829564809796
decision_type=2 2 2 2 2 2 2 2 2 2 2 2 2 2 2 2 2 2 2 2 2 2 2 2 2 2 2 2 2 2 2 2 2 2 2 2 2 2 2 2 2 2 2 2 2 2 2 2 2 2 2 2 2 2 2 2 2 2 2 2 2 2 2 2 2 2 2 2 2 2 2 2 2 2 2 2 2 2 2 2 2 2 2 2 2 2 2 2 2 2 2 2 2 2 2 2 2 2 2 2 2 2 2 2 2 2 2 2 2 2 2 2 2 2 2 2 2 2 2 2 2 2 2 2 2 2 2
left_child=1 17 3 4 31 8 16 19 25 87 13 12 27 14 15 51 -4 32 59 52 21 34 38 48 44 26 67 28 57 -15 76 97 114 99 -19 36 37 47 -23 102 50 43 -29 -26 -25 -21 75 -17 -24 -27 63 -6 55 54 -54 119 96 118 62 -14 74 65 -18 -11 116 -16 105 -2 -13 71 117 106 -48 -41 90 89 78 -38 -5 -49 111 -22 103 -39 -20 110 107 -10 -37 -33 -30 -36 -42 -74 100 -66 -43 -3 120 -32 126 115 -28 -34 123 -31 124 -87 -91 -75 -77 -53 -113 -52 -1 -73 -56 -50 -7 -8 121 -65 -123 -57 -9 -126 -12
right_child=5 2 6 30 10 11 7 69 9 40 94 68 18 29 61 35 58 20 84 45 81 22 23 24 41 49 39 42 60 66 33 46 82 -35 91 88 77 83 -40 73 92 56 -44 -45 -46 -47 72 79 70 -51 113 80 53 -55 64 104 -58 -59 -60 -61 -62 -63 -64 98 95 -67 -68 -69 -70 -71 -72 101 93 109 -76 85 -78 -79 -80 -81 -82 -83 -84 -85 -86 86 -88 -89 -90 108 -92 -93 -94 -95 -96 -97 -98 -99 -100 -101 -102 -103 -104 -105 -106 -107 -108 -109 -110 -111 -112 112 -114 -115 -116 -117 -118 -119 -120 -121 -122 122 -124 -125 125 -127 -128
leaf_value=-0.040471918818851316 0.056778802673021961 -0.016617046044238151 -0.026298875387372647 0.025963731509234225 -0.032421961455391002 0.038390262700893268 -0.046747019886970526 -0.011077815231884707 -0.068609150029994834 -0.015625037680356165 0.025009838349762416 0.068321113820586893 -0.013085851007092156 -0.065736833893800084 0.016525648550928706 -0.034963583561254605 -0.12058973718773236 -0.046572812666764135 0.024793899389249939 -0.077413682008193707 -0.092667483019106323 -0.047352153422503637 -0.05053663454179106 -0.11487243884318583 -0.05857398490751943 0.054248673213379728 -0.0056669298648124658 0.069940449289373458 0.036082989163696767 -0.039877879854342713 0.05333795001951315 0.01651181138905361 -0.004733601334692885 0.034665003667275117 0.0058230319409631193 -0.025064749173496083 -0.074250271244787835 -0.0070443488365082548 -0.096900400740128984 0.0044921096996404231 0.02341576999674241 -0.062153683909598523 0.032319604814983909 -0.024373127010006171 -0.069587730134234707 -0.050901205962646516 0.018566764785675333 -0.058170861005783087 -0.010204752521130487 0.020336760386824609 0.0093515503435180735 -0.0034915574020808839 -0.0072170051017209236 -0.010721119149820879 -0.045231879198992693 -0.017679002763772454 -0.034469258611400926 0.023169682854786516 -0.13761126367669357 -0.040873003491135533 0.04841239612836104 0.0017268623630313771 -0.078222560286521914 0.0056504582705837426 -0.033039856344461445 0.034147788004742732 -0.017837371371985815 0.036096863269805907 0.083872124993282823 0.0023771469539497049 -0.027910927114850381 -0.016283065792173146 0.036217243399309075 0.018730513932995307 0.010402201569283932 0.0083401010789438505 0.030153008754606605 -0.048696445780141012 0.044041615268131634 -0.088243210812409725 0.0035897797512678578 -0.064291151523590093 -0.02216234239547149 -0.024143887223261926 0.045675009063311983 0.007071288926354927 0.01711364309938455 -0.045762970391660933 -0.0050150081345980823 0.027050817994001719 0.020655936442992906 -0.0091235728604862325 0.039707212133163756 0.023801813886966557 0.0063793710895697596 -0.044160724692046648 -0.049559117726823115 -0.0018550630574564225 -0.0079405234016191508 0.066156241913636532 0.0066908413605568443 -0.025338630080223086 -0.021213793131192368 -0.016738493740558625 -0.023395883485122962 -0.029213016344742344 0.0047721145519365876 -0.0044022087908976168 0.017701963684521618 0.032087392166808802 0.019502848793903516 -0.014049026326657358 -0.0032887118077757427 0.02088176143708928 -0.030444028816725078 -0.0074753361472556764 -0.06380372124333536 -0.019394369661394094 0.051522528583353211 -0.031580119400188837 0.011239156507266064 0.0049572072433013668 -0.0085503851492022588 -0.0084731948056391317 -0.0097067986615002166 -0.00065712382568529359 0.015123873531051419
leaf_weight=47 44 30 28 27 25 26 28 52 26 38 20 111 37 78 48 28 21 36 34 58 32 28 28 36 30 139 20 184 31 145 58 196 121 83 21 22 70 42 53 25 59 67 27 129 33 166 49 24 68 24 25 135 22 31 26 53 59 24 37 42 25 22 24 92 74 71 27 49 114 60 58 74 114 38 38 26 134 20 110 23 64 24 22 26 20 43 32 31 21 83 43 64 21 39 79 79 93 28 25 149 37 24 30 21 53 43 20 28 52 26 73 87 81 57 94 42 30 35 428 28 23 37 35 34 33 53 84
leaf_count=47 44 30 28 27 25 26 28 52 26 38 20 111 37 78 48 28 21 36 34 58 32 28 28 36 30 139 20 184 31 145 58 196 121 83 21 22 70 42 53 25 59 67 27 129 33 166 49 24 68 24 25 135 22 31 26 53 59 24 37 42 25 22 24 92 74 71 27 49 114 60 58 74 114 38 38 26 134 20 110 23 64 24 22 26 20 43 32 31 21 83 43 64 21 39 79 79 93 28 25 149 37 24 30 21 53 43 20 28 52 26 73 87 81 57 94 42 30 35 428 28 23 37 35 34 33 53 84
internal_value=0.000276623 -0.0139036 -0.00602599 0.0067223 -0.00362613 0.0350592 -0.0356708 -0.0292571 0.0158104 0.000586995 -0.016651 0.0490804 0.0425656 -0.022307 -0.0145734 -0.0225897 -0.0954994 -0.0390149 -0.00319283 -0.0403706 -0.0452823 -0.0427441 -0.0469 -0.0424935 -0.0503431 0.0338387 0.0227335 0.0499284 0.0445566 -0.0435381 0.0456735 0.0180811 -0.0205566 0.0549218 -0.0179354 -0.045206 -0.0505779 -0.0384781 -0.080559 0.00669294 0.00869915 -0.0420514 0.0653016 -0.0311519 -0.094518 -0.0580796 0.020279 -0.0603428 -0.0237612 0.04941 0.00394668 -0.00659154 -0.0316017 -0.0369547 -0.0404139 -0.0242949 -0.0497871 0.0495176 -0.118527 -0.028185 0.0270139 0.0232966 -0.100186 -0.000557919 -0.0438573 0.0272366 -0.0352175 0.0463818 0.0765365 -0.00803219 -0.0188214 -0.010129 0.0297803 0.0190405 0.0218514 0.0166291 0.0356112 -0.0691692 0.0406928 -0.0744189 -0.00474865 -0.0818475 -0.00882109 -0.0138376 0.0332175 0.0119045 0.00719445 -0.0571873 -0.0156095 0.0194678 0.0275136 -0.00540611 0.0281297 0.0332276 0.0116531 -0.0390315 -0.0551864 -0.0096428 0.00220347 0.0628383 0.0145422 -0.0154336 -0.0152281 -0.00661361 -0.0178341 -0.037606 -0.00536117 0.00254823 0.0236064 0.0245669 0.0166839 -0.00651592 -0.00891118 0.0175215 -0.0340481 -0.0131852 -0.0561259 -0.0134839 0.0508565 -0.0398506 0.00359464 0.00246093 -0.00163616 -0.0142185 -0.00685353 -0.00420133 0.0172451
internal_weight=7073 5025 3826 2676 2115 2048 1150 1040 864 469 1322 1184 959 1102 809 668 110 1199 133 682 894 838 717 636 447 395 232 826 615 293 561 793 305 290 121 276 233 143 81 139 412 378 211 159 69 224 735 75 189 163 332 392 458 262 231 196 219 478 82 79 137 141 45 250 209 119 215 93 225 358 161 298 202 89 112 533 271 90 137 47 367 56 164 68 54 202 103 57 43 331 74 85 80 153 220 153 160 58 212 207 141 140 50 142 140 188 158 71 135 64 99 303 168 82 141 116 56 103 454 56 187 164 72 87 138 86 104
internal_count=7073 5025 3826 2676 2115 2048 1150 1040 864 469 1322 1184 959 1102 809 668 110 1199 133 682 894 838 717 636 447 395 232 826 615 293 561 793 305 290 121 276 233 143 81 139 412 378 211 159 69 224 735 75 189 163 332 392 458 262 231 196 219 478 82 79 137 141 45 250 209 119 215 93 225 358 161 298 202 89 112 533 271 90 137 47 367 56 164 68 54 202 103 57 43 331 74 85 80 153 220 153 160 58 212 207 141 140 50 142 140 188 158 71 135 64 99 303 168 82 141 116 56 103 454 56 187 164 72 87 138 86 104
is_linear=0
shrinkage=0.05


Tree=3
num_leaves=128
num_cat=0
split_feature=9 9 9 9 9 5 9 9 9 9 9 9 9 9 9 7 9 7 9 9 9 9 9 9 9 9 9 9 9 9 9 9 5 9 9 2 7 7 9 2 9 9 9 9 2 9 9 9 9 9 9 9 1 9 5 2 2 9 2 9 9 9 9 5 2 9 9 3 2 9 9 9 9 9 2 9 4 9 0 9 2 9 9 4 9 0 9 3 1 4 4 2 3 9 9 2 2 0 0 2 9 9 9 2 2 9 2 2 9 0 9 2 2 2 2 1 3 7 7 3 0 5 3 9 2 2 4
split_gain=1258.23 357.224 533.074 372.713 215.786 191.241 181.67 86.7943 79.3376 73.0461 70.9563 109.295 70.0509 69.3544 90.5016 86.4693 53.2602 49.8525 44.7565 37.233 32.7989 25.3571 28.3592 24.641 22.0468 20.2557 34.1971 38.8404 63.7691 20.8767 19.2301 17.1371 15.9334 15.8422 15.8045 13.7045 13.2562 16.4713 30.3446 13.0809 12.8766 11.7885 11.7721 11.2616 10.5281 9.19338 8.95456 8.57503 7.74062 6.92551 6.49627 6.06272 6.01349 5.95653 5.41141 5.27661 5.16047 4.95688 3.74561 3.58793 3.33428 10.3626 7.37346 5.21951 3.15928 3.08107 2.86362 3.11196 2.62339 3.13144 2.39998 2.37783 2.36836 2.65892 2.34074 2.3327 2.27242 2.24731 2.06651 2.0554 2.02 2.01553 1.99041 1.85399 1.83358 1.75871 1.7039 1.68582 1.59299 1.58249 1.51324 1.48175 1.47527 1.38665 1.38651 1.26417 1.11607 1.1144 1.10696 1.10522 1.09604 1.02053 1.00187 0.988288 0.985935 0.983375 0.936131 0.885315 0.836368 0.803845 0.801819 0.799287 0.778207 0.761518 0.715256 0.710566 0.661516 0.651938 0.648636 0.632775 0.626424 0.57957 0.656821 0.553259 0.550322 0.517984 0.516612
threshold=0.73065117001533519 -1.1392327547073362 0.16489368677139285 -0.10666989907622336 -0.75407394766807545 1.0197294950485232 0.21991638094186786 0.5500524938106538 -0.21316542476415631 1.1845883131027224 1.6269885301589968 1.5604287981987002 1.2143183350563052 -0.35959677398204798 -0.42615647614002222 -1.4077746868133543 0.17864936590194705 -1.5916000008583067 1.6003646254539492 0.44000713527202612 -1.7169709801673887 1.102054297924042 1.0195202827453616 1.4539332389831545 1.0057646036148074 -1.6481926441192625 -1.6069256067275999 -1.5106359124183653 -1.4693688750267027 -1.7032153010368345 -0.31966094672679896 0.027336971834301952 -0.67820259928703297 0.12362667545676233 -1.3318121433258054 0.024168025236576799 -0.070860028266906724 -0.8562977910041808 -0.71280694007873524 0.50197042524814617 -1.6344369649887083 1.5471168756484988 -1.249278128147125 1.3740616440773012 0.21963211894035342 -1.4556132555007932 0.46751846373081213 1.1708326339721682 -1.5931699275970457 -0.69905126094818104 0.75816252827644359 1.4406213760375979 -0.90169563889503468 -1.1667441129684446 0.55665695667266857 0.45853486657142645 0.56712579727172863 -1.1117213964462278 0.024168025236576799 -1.6894596219062803 0.3162060827016831 0.27493907511234289 0.24742772430181506 -0.24600152671337125 0.93633723258972179 -0.22647736221551892 0.41249577701091772 -0.32913015782833094 0.69743552803993236 -0.399532601237297 -0.040110195055603974 0.7031398117542268 -0.79534095525741566 -0.86411932110786427 0.58884355425834667 0.99200892448425304 -0.67232638597488392 1.0332759618759157 0.30122427642345434 1.6802362799644472 0.045885797590017326 -0.093357957899570451 -1.5381472110748289 -0.60545364022254933 1.6136765480041506 0.17130158096551898 -0.63027289509773243 -0.18854984268546102 1.4700673818588259 -1.1438745856285093 1.0442760586738589 0.34994289278984075 0.23319111764431003 -1.2630338072776792 -1.0291873812675474 -1.3223675489425657 -0.32332566380500788 0.30122427642345434 0.32287797331810003 -0.67081829905509938 0.041092643514275558 0.68938416242599498 -1.125477075576782 0.13275895640254023 0.87118187546730053 -1.3180564641952512 0.69743552803993236 -0.49707196652889246 -0.11998183652758597 0.40949277579784399 1.0882986783981325 0.89290067553520214 1.0000000180025095e-35 -0.10614171624183653 0.34994289278984075 -1.1652276515960691 -0.46971046924591059 -1.8924056887626646 0.43048222362995153 -1.3131957650184629 0.30122427642345434 1.2049582004547121 -0.89145144820213307 0.23367205262184146 0.50197042524814617 -0.14957829564809796 0.53963595628738414
decision_type=2 2 2 2 2 2 2 2 2 2 2 2 2 2 2 2 2 2 2 2 2 2 2 2 2 2 2 2 2 2 2 2 2 2 2 2 2 2 2 2 2 2 2 2 2 2 2 2 2 2 2 2 2 2 2 2 2 2 2 2 2 2 2 2 2 2 2 2 2 2 2 2 2 2 2 2 2 2 2 2 2 2 2 2 2 2 2 2 2 2 2 2 2 2 2 2 2 2 2 2 2 2 2 2 2 2 2 2 2 2 2 2 2 2 2 2 2 2 2 2 2 2 2 2 2 2 2
left_child=1 17 3 4 32 9 16 19 13 21 11 23 91 14 15 49 -4 34 56 60 -19 22 75 24 50 29 40 48 39 -22 -15 70 52 100 97 95 37 38 44 -29 -27 -25 45 54 -17 -30 -21 -23 -28 -6 -7 58 85 76 -14 96 -13 102 -26 -31 61 62 123 103 80 106 124 -68 69 -16 81 74 73 -54 121 -2 -44 -37 -63 -12 88 -5 119 117 -20 -3 -85 -40 -56 125 -82 -11 -39 105 115 -24 -18 -1 -38 -87 -33 111 -34 -62 -45 -36 -32 -61 -91 -90 -79 -76 -48 -96 -64 -59 -105 -51 -60 -50 -72 -9 -123 -8 -65 -10 -73
right_child=5 2 6 31 8 10 7 71 89 12 79 18 43 30 68 36 55 20 84 46 25 47 35 41 51 26 27 28 42 59 65 33 57 -35 93 77 98 92 87 -41 -42 -43 53 104 -46 -47 112 -49 82 83 -52 -53 72 -55 64 -57 -58 94 118 107 63 78 114 66 -66 -67 67 -69 -70 -71 120 126 -74 -75 101 -77 -78 110 -80 -81 90 -83 -84 86 -86 99 -88 -89 109 108 -92 -93 -94 -95 113 -97 -98 -99 -100 -101 -102 -103 -104 116 -106 -107 -108 -109 -110 -111 -112 -113 -114 -115 -116 -117 -118 -119 -120 -121 -122 122 -124 -125 -126 -127 -128
leaf_value=-0.036482186257839208 0.054973686678068984 0.014894806411951256 -0.026056619687005879 0.024827063988362041 -0.031781063973903657 0.029207047060975488 -0.044686735134858352 -0.012745837737684666 0.025325594048785129 -0.065343015090278955 0.065201064974069606 -0.01274908997763235 -0.012819823355800132 -0.062607393315039492 0.014942663918870192 -0.079752376931054247 -0.11560996256091378 -0.093615649081766616 0.021568072148199596 -0.073592980883338238 -0.06074606509044253 0.051861394976460667 -0.0053936642255972729 0.066511103527053542 0.0029894699209502768 -0.04571357718829451 -0.046714171380908408 -0.10575293982028962 -0.056120320823457505 -0.027227436279257139 -0.038249472750199812 0.045130076452537825 -0.015203081324164355 0.033267792766348697 -0.014605218482514224 0.0042003167071885871 -0.0071797611990145269 -0.071235481947660453 -0.0069309569414084159 -0.060613415638605755 -0.090650078710520055 0.027604790188372138 -0.05973315440215074 0.021417752685754198 -0.040701262094080454 -0.023555629325460698 -0.05499986292266134 0.017700215778313579 -0.010553847858216614 0.0030847745008583441 0.04891241693001086 0.046653752716688007 0.018794263534205546 -0.032529433298919157 0.0019426692178416433 -0.13375473094708992 -0.038980427086353304 0.0061756238072467528 0.018380558878416196 0.0022976839549041224 -0.023605900981596539 -0.059852115064859393 -0.0039325166094516008 -0.032321970421692423 0.017396691491197668 -0.017375104477757527 -0.0089030701184162394 -0.032825405679402814 0.0071156301458055781 0.032413576910757039 0.026125625002064876 -0.0025270808555726567 0.012107035558184853 0.033959124816151764 -0.014658472323990477 0.034266644794689986 -0.045573859694211377 0.017441945663980534 -0.040706145044948377 0.079403460248608462 0.003838504258111987 0.042022146943670055 -0.025529450247133219 -0.0039191566395801397 0.041402265763488315 0.015413691503080454 -0.01401332684357961 -0.023051410792740409 0.02299965840453903 0.010655749465096287 -0.0070461256783973013 -0.042944831401109697 -0.049668482070167858 -0.019753778029751798 0.010471795018762352 -0.021836258933461947 -0.085533102022276986 -0.025131898221312739 -0.024134969072682519 0.024864194735462936 0.061550423183611459 -0.023464819788932802 -0.0016361594166872757 -0.017133240639749501 0.035777104208650795 -0.0038374486702625016 -0.027603337168693544 -0.0098578650803704346 0.00087145221919787154 0.0090749150810196348 0.030458645105361937 -0.0056549947809528666 -0.044786632580494666 -0.00092997311714700321 -0.015863816479319021 0.017899802832297331 -0.0065179616084386563 -0.0031321970591479641 0.028174424830272243 -0.018842640621826435 0.036263686675449901 -0.007134782071225346 -1.4004800950401818e-05 -0.030545358806848527 -0.043001921075146374 0.014032583525404336 0.0073742392310953662
leaf_weight=74 34 262 23 27 24 52 25 22 22 22 99 38 40 82 44 34 21 31 27 54 28 128 21 183 27 28 26 49 26 29 147 26 27 88 26 22 20 59 44 32 52 24 76 45 43 133 66 23 74 60 456 25 43 58 32 32 39 20 39 20 34 31 20 57 54 28 26 30 23 72 111 30 22 129 92 37 91 36 55 106 109 103 53 97 28 54 74 26 23 142 44 29 23 21 24 28 35 48 20 105 167 25 27 35 22 105 40 55 26 22 24 36 108 35 37 45 28 136 53 38 28 74 57 29 40 29 22
leaf_count=74 34 262 23 27 24 52 25 22 22 22 99 38 40 82 44 34 21 31 27 54 28 128 21 183 27 28 26 49 26 29 147 26 27 88 26 22 20 59 44 32 52 24 76 45 43 133 66 23 74 60 456 25 43 58 32 32 39 20 39 20 34 31 20 57 54 28 26 30 23 72 111 30 22 129 92 37 91 36 55 106 109 103 53 97 28 54 74 26 23 142 44 29 23 21 24 28 35 48 20 105 167 25 27 35 22 105 40 55 26 22 24 36 108 35 37 45 28 136 53 38 28 74 57 29 40 29 22
internal_value=-0.000138351 -0.0135815 -0.00613534 0.00614896 -0.00342006 0.0334426 -0.0346574 -0.0280666 -0.0158386 0.0144104 0.0460709 0.0404542 0.000853372 -0.0213258 -0.0136268 -0.0213476 -0.0951953 -0.0376906 -0.00189368 -0.0386103 -0.0433838 0.0313352 0.0195947 0.0469563 0.0420433 -0.0414842 -0.044732 -0.0408483 -0.0486504 -0.0231748 -0.0419227 0.0427641 0.0171671 0.0514887 -0.0189212 0.00569328 -0.043112 -0.0477506 -0.0372734 -0.0888767 -0.0756808 0.0621546 -0.0399563 0.00808489 -0.058746 -0.0291981 -0.0550845 0.0468087 -0.0216993 -0.00630241 0.0469567 0.0245058 0.0209753 -0.0473959 0.00418827 -0.11277 -0.0263645 0.0039659 0.0195029 -0.0125773 -0.0301031 -0.0351436 -0.0246752 -0.026007 0.00662035 -0.0337803 -0.0317904 -0.0220697 0.0229242 0.025971 0.0334933 -0.00813472 0.0283082 0.0302985 -0.00980988 0.0448085 -0.0523348 0.0181136 -0.0482162 0.0728945 0.0040259 0.0386676 -0.0175 -0.00455439 0.0322245 0.0175372 -0.00834347 -0.0131589 0.0105747 0.0115944 0.000682856 -0.0536776 -0.0658575 -0.00807643 0.00945116 -0.0150382 -0.0986423 -0.0322571 -0.0160393 0.021771 0.0595824 -0.0141725 -0.0085727 -0.0166533 0.0265896 -0.00606902 -0.0361312 -0.0066288 0.00915563 0.0165373 0.0230626 -0.0121897 -0.0489528 0.00380526 -0.0118174 0.0144406 -0.0125909 -0.00122304 0.024265 -0.013508 0.0284123 -0.00538361 -0.00406001 -0.0377857 -0.0371199 0.0192974 0.00172204
internal_weight=6966 4975 3802 2658 2108 1991 1144 1033 1315 795 1196 991 442 1096 799 660 111 1173 132 675 899 353 202 859 652 868 736 656 465 132 297 550 793 281 274 131 269 229 147 81 80 207 384 391 77 159 228 151 191 391 508 144 615 225 324 88 77 178 119 104 447 197 111 250 284 215 153 56 139 116 269 358 194 172 306 71 167 82 86 205 230 130 165 367 55 421 171 70 77 219 153 51 82 152 124 49 56 122 40 159 193 153 54 97 67 131 187 75 168 45 60 128 174 59 57 65 63 196 92 112 139 153 131 54 97 51 52
internal_count=6966 4975 3802 2658 2108 1991 1144 1033 1315 795 1196 991 442 1096 799 660 111 1173 132 675 899 353 202 859 652 868 736 656 465 132 297 550 793 281 274 131 269 229 147 81 80 207 384 391 77 159 228 151 191 391 508 144 615 225 324 88 77 178 119 104 447 197 111 250 284 215 153 56 139 116 269 358 194 172 306 71 167 82 86 205 230 130 165 367 55 421 171 70 77 219 153 51 82 152 124 49 56 122 40 159 193 153 54 97 67 131 187 75 168 45 60 128 174 59 57 65 63 196 92 112 139 153 131 54 97 51 52
is_linear=0
shrinkage=0.05


end of trees

feature_importances:
Column_9=293
Column_2=82
Column_0=28
Column_5=19
Column_7=19
Column_3=18
Column_6=16
Column_1=15
Column_4=15
Column_8=3

parameters:
[boosting: gbdt]
[objective: regression]
[metric: l2]
[tree_learner: serial]
[device_type: cpu]
[data_sample_strategy: bagging]
[data: ]
[valid: ]
[num_iterations: 600]
[learning_rate: 0.05]
[num_leaves: 128]
[num_threads: 16]
[seed: 2023]
[deterministic: 0]
[force_col_wise: 0]
[force_row_wise: 0]
[histogram_pool_size: -1]
[max_depth: 20]
[min_data_in_leaf: 20]
[min_sum_hessian_in_leaf: 0.001]
[bagging_fraction: 0.9]
[pos_bagging_fraction: 1]
[neg_bagging_fraction: 1]
[bagging_freq: 1]
[bagging_seed: 26561]
[bagging_by_query: 0]
[feature_fraction: 0.85]
[feature_fraction_bynode: 1]
[feature_fraction_seed: 22040]
[extra_trees: 0]
[extra_seed: 25715]
[early_stopping_round: 0]
[early_stopping_min_delta: 0]
[first_metric_only: 0]
[max_delta_step: 0]
[lambda_l1: 0]
[lambda_l2: 1]
[linear_lambda: 0]
[min_gain_to_split: 0]
[drop_rate: 0.1]
[max_drop: 50]
[skip_drop: 0.5]
[xgboost_dart_mode: 0]
[uniform_drop: 0]
[drop_seed: 17353]
[top_rate: 0.2]
[other_rate: 0.1]
[min_data_per_group: 100]
[max_cat_threshold: 32]
[cat_l2: 10]
[cat_smooth: 10]
[max_cat_to_onehot: 4]
[top_k: 20]
[monotone_constraints: ]
[monotone_constraints_method: basic]
[monotone_penalty: 0]
[feature_contri: ]
[forcedsplits_filename: ]
[refit_decay_rate: 0.9]
[cegb_tradeoff: 1]
[cegb_penalty_split: 0]
[cegb_penalty_feature_lazy: ]
[cegb_penalty_feature_coupled: ]
[path_smooth: 0]
[interaction_constraints: ]
[verbosity: 1]
[saved_feature_importance_type: 0]
[use_quantized_grad: 0]
[num_grad_quant_bins: 4]
[quant_train_renew_leaf: 0]
[stochastic_rounding: 1]
[linear_tree: 0]
[max_bin: 255]
[max_bin_by_feature: ]
[min_data_in_bin: 3]
[bin_construct_sample_cnt: 200000]
[data_random_seed: 6644]
[is_enable_sparse: 1]
[enable_bundle: 1]
[use_missing: 1]
[zero_as_missing: 0]
[feature_pre_filter: 1]
[pre_partition: 0]
[two_round: 0]
[header: 0]
[label_column: ]
[weight_column: ]
[group_column: ]
[ignore_column: ]
[categorical_feature: ]
[forcedbins_filename: ]
[precise_float_parser: 0]
[parser_config_file: ]
[objective_seed: 2023]
[num_class: 1]
[is_unbalance: 0]
[scale_pos_weight: 1]
[sigmoid: 1]
[boost_from_average: 1]
[reg_sqrt: 0]
[alpha: 0.9]
[fair_c: 1]
[poisson_max_delta_step: 0.7]
[tweedie_variance_power: 1.5]
[lambdarank_truncation_level: 30]
[lambdarank_norm: 1]
[label_gain: ]
[lambdarank_position_bias_regularization: 0]
[eval_at: ]
[multi_error_top_k: 1]
[auc_mu_weights: ]
[num_machines: 1]
[local_listen_port: 12400]
[time_out: 120]
[machine_list_filename: ]
[machines: ]
[gpu_platform_id: -1]
[gpu_device_id: -1]
[gpu_use_dp: 0]
[num_gpu: 1]

end of parameters

pandas_categorical:null
