tree
version=v4
num_class=1
num_tree_per_iteration=1
label_index=0
max_feature_idx=9
objective=regression
feature_names=Column_0 Column_1 Column_2 Column_3 Column_4 Column_5 Column_6 Column_7 Column_8 Column_9
feature_infos=[-4.9281487464904785:0.63685661554336548] [-2.6146364212036133:3.7100627422332764] [-5.1990861892700195:1.272971510887146] [-2.2269694805145264:2.5527749061584473] [-5.5711894035339355:1.3641557693481445] [-1.9902403354644775:2.1465384960174561] [-1.982926607131958:1.6860036849975586] [-2.3018357753753662:1.4582350254058838] [-2.4405524730682373:1.9915002584457397] [-1.7305047512054443:1.7332621812820435]
tree_sizes=9927 9961 9912 10101 9961 9926 10016 9953

Tree=0
num_leaves=112
num_cat=0
split_feature=9 9 9 9 8 9 9 1 9 9 9 9 3 9 9 9 4 0 9 9 2 3 9 9 9 9 9 9 9 1 9 9 9 9 2 6 6 6 9 9 9 9 2 6 9 3 9 9 0 0 5 9 9 9 9 9 4 9 9 9 9 6 6 4 9 6 9 6 9 9 2 3 9 9 9 3 9 9 4 6 9 9 9 5 9 9 2 2 0 2 9 9 9 2 5 9 2 9 2 9 2 9 0 0 9 9 9 5 9 2 2
split_gain=1413.2 714.006 883.194 357.232 257.426 223.802 219.49 193.266 125.334 202.302 91.3397 127.608 90.4032 95.3065 79.0113 88.209 65.4845 63.798 60.6524 82.4421 47.7837 46.9068 43.906 55.9772 50.3201 43.2501 44.2232 42.6043 67.9073 37.1657 33.1516 30.6905 41.3429 28.2588 27.0729 26.6332 20.8186 20.2765 19.6813 18.6406 18.0528 15.8969 14.9082 14.3434 14.2818 14.07 13.7296 13.3448 12.765 12.7563 11.2556 10.2602 9.14143 8.59573 8.58827 7.97279 7.94443 7.87888 18.8749 7.65343 7.44296 6.74516 6.61255 6.39824 6.11576 6.32284 5.46815 6.87334 5.4341 5.19608 5.13351 5.06652 4.86325 4.82329 6.49927 5.75057 4.75207 4.08963 3.87819 4.17867 3.87063 3.82174 3.75748 3.74926 3.64268 3.84235 3.58492 3.36009 3.29296 2.97909 2.97619 4.58995 3.54531 2.93261 2.70535 3.53778 2.58994 2.26635 2.25596 2.24782 2.11891 2.02496 1.99922 4.18167 1.93931 1.86273 1.81735 1.79262 1.77628 1.77427 1.77032
threshold=0.82694086432456981 0.26118339598178869 -1.0429430603981016 -0.01348631316795945 0.40732413530349737 0.3024504035711289 -0.67153990268707264 1.0000000180025095e-35 -1.6757040023803709 -1.6344369649887083 -1.373079180717468 -1.4143462181091306 2.0607353448867802 1.5338048934936526 1.2675660848617556 1.3075019121170046 -0.13390543684363362 0.30122427642345434 1.102054297924042 0.90947490930557262 0.56712579727172863 -1.0320318043231962 -0.35959677398204798 -0.27972511947154993 -0.13329377770423886 -0.63027289509773243 -0.41284452378749842 0.63436147570610057 0.52254116535186779 1.2065384984016421 0.21991638094186786 -1.1667441129684446 -1.249278128147125 1.6403004527091982 0.13275895640254023 -0.39720386266708368 0.10028097406029703 0.038097223732620485 1.6935482025146487 -0.23978930711746213 0.5500524938106538 1.4539332389831545 0.34994289278984075 1.2196152210235598 1.6802362799644472 0.65493208169937145 1.1295656561851504 -0.58900588750839222 0.32287797331810003 0.34453167021274572 0.24794243276119235 -1.0704543590545652 -1.6206812858581541 0.81318518519401561 1.1708326339721682 -0.65778425335884083 1.1456176638603213 -0.399532601237297 -0.50647184252738942 -1.6894596219062803 0.97825327515602123 0.16246472299098971 -1.7030923366546629 -0.63923451304435719 0.44000713527202612 0.53557908535003673 1.6802362799644472 1.5927295684814455 1.2675660848617556 0.027336971834301952 1.0000000180025095e-35 -0.75087112188339222 1.1570770144462588 -1.5106359124183653 -1.4556132555007932 -1.7349367737770078 1.3873735666275027 1.5204929709434511 0.87606266140937816 1.4683561325073244 0.67562848329544078 0.2886947393417359 -0.61651721596717823 -0.64733111858367909 -1.0291873812675474 -0.71280694007873524 0.76258990168571483 0.71915432810783397 0.32287797331810003 0.82774528861045849 -0.78158527612686146 -0.94665333628654469 -0.90538632869720448 0.7408721148967744 1.6371585130691531 1.1708326339721682 0.69743552803993236 1.4139974117279055 -1.1920572519302366 -1.0154317021369932 -0.32332566380500788 -0.83660796284675587 0.25791636854410177 0.34453167021274572 0.66187280416488659 -1.3868348598480222 -0.14660571515560147 -1.0486600399017332 0.41249577701091772 -0.12786052748560903 -1.3440858125686643
decision_type=2 2 2 2 2 2 2 2 2 2 2 2 2 2 2 2 2 2 2 2 2 2 2 2 2 2 2 2 2 2 2 2 2 2 2 2 2 2 2 2 2 2 2 2 2 2 2 2 2 2 2 2 2 2 2 2 2 2 2 2 2 2 2 2 2 2 2 2 2 2 2 2 2 2 2 2 2 2 2 2 2 2 2 2 2 2 2 2 2 2 2 2 2 2 2 2 2 2 2 2 2 2 2 2 2 2 2 2 2 2 2
left_child=1 2 8 6 14 20 84 17 59 49 11 16 13 18 56 48 62 25 19 -6 -3 42 57 45 102 55 47 28 36 33 37 32 -12 -15 -13 63 96 69 46 -28 -30 43 -18 -20 -35 -24 -14 82 89 -10 71 -33 -23 80 -45 -8 -2 58 -9 -1 110 -32 -11 -19 108 -66 67 72 -56 -5 -61 -38 -48 75 -75 -64 -17 -43 -70 -80 104 -22 -27 -54 -4 90 88 -59 -58 -16 91 99 -93 98 95 -74 -7 -78 -82 -86 -57 -94 106 -104 -29 -36 -25 -49 -52 -71 -21
right_child=4 5 3 30 12 27 7 22 9 10 31 34 38 29 15 76 21 35 41 60 81 52 23 24 -26 26 39 53 40 -31 61 51 -34 44 105 -37 50 -39 -40 -41 -42 77 -44 54 -46 -47 66 107 -50 -51 64 -53 83 -55 68 100 86 87 -60 70 -62 -63 73 -65 65 -67 -68 -69 78 109 -72 -73 94 74 -76 -77 97 -79 79 -81 93 -83 -84 -85 85 -87 -88 -89 -90 -91 -92 92 101 -95 -96 -97 -98 -99 -100 -101 -102 -103 103 -105 -106 -107 -108 -109 -110 -111 -112
leaf_value=0.023440692922903947 0.038748948878975363 -0.16538840323652329 0.0071334260630320605 0.057313569912231396 0.025313716520298082 -0.0087020163113670293 -0.042414103604886087 -0.01539129832144346 -0.1280690951575883 -0.0022876016237718846 -0.026187521203429084 -0.13725748206853655 0.040975663498550488 0.076608427917661412 -0.051840165086812211 0.0018412127765478092 -0.06765423020402378 0.012396031391055572 0.037035792550148709 0.044701943870917436 -0.060488864206735819 -0.06605733234441985 0.049761896386422269 -0.033205846293107986 0.018084190591509102 -0.037733674701847492 -0.061130795316184601 -0.026508389171757161 -0.098154181199071669 0.086505823219992173 0.027707856801415132 -0.040994600311595651 0.0063147601701605358 -0.011831370593631685 -0.094328040636378396 -0.03132488415023961 -0.068450248017564413 0.068113100524956185 0.055075294785134912 -0.029827079877330579 -0.063304035886779422 0.03655770037889694 -0.11542962153684529 -0.027748588594664423 0.055080396178565569 0.013710743764391334 -0.021238148188141841 -0.0038893699672679256 -0.022623945934621352 -0.081629466706810261 -0.035001413588216075 -0.016024737640292035 -0.02303111766927908 -0.002834319746645983 0.033974147848718279 -0.061914816381333129 -0.01767491334052973 -0.048988362191168318 0.01596409333105811 -0.028561970420903388 0.074176698430803059 -0.0042117690141153814 -0.021249253830151082 -0.019885049394565681 -0.049288833103295057 -0.026473173991997598 0.023133036757450577 -0.026092842605318176 0.017649792849783741 0.031128917444169062 0.012965168420767679 -0.04439807968130606 0.0019578472071750497 -0.013306142108438272 -0.032333325399269149 -0.055625780288319507 0.026032537893091217 0.058557123386067299 -0.015930491769036586 0.014930502717214756 -0.026468721883294837 -0.099924494029325545 -0.014211844162938851 -0.047390790836808937 0.017758319564506412 0.015700592632429775 0.027971263228738275 -0.011708388212681171 0.018647332979442818 -0.080390465754999071 0.033735602037415498 0.012916872847229303 0.02879285473322088 -0.026050938920972603 -0.0024662900306848543 0.032628401113750684 -0.027102683739660044 0.0027890956272206137 -0.040849175601854922 0.034588577953761301 -0.095583822558802448 0.019178049693622225 0.013259740579103297 -0.029596220211980599 -0.010284210035260441 -0.063858332392372541 -0.016535308119453845 0.015254314102516051 -0.019999585819946677 0.044033424763869858 0.061898241933021667
leaf_weight=81 121 41 28 83 158 54 15.999999999999998 152 57 33 252 39 25 31 27 151 41 106 74 35 17 25 121 51 239 29 116 56 54 242 63 200 159 23 17 66 55 165 25 86 167 134 37 12.999999999999998 10.999999999999998 36 14.999999999999998 18 23 31 38 54 56 30 25 14.999999999999998 12.000000000000002 15.000000000000002 69 13.000000000000002 244 22 25 17 121 46 22 25 47 45 14.999999999999998 53 18 99 85 27 36 29 25 18 44 26 44 24 27 88 21 10.999999999999998 10.999999999999998 30 144 89 143 97 27 19 30 14.999999999999998 139 143 37 106 10.000000000000002 10.999999999999998 30 29 29 35 54 189 94
leaf_count=81 121 41 28 83 158 54 16 152 57 33 252 39 25 31 27 151 41 106 74 35 17 25 121 51 239 29 116 56 54 242 63 200 159 23 17 66 55 165 25 86 167 134 37 13 11 36 15 18 23 31 38 54 56 30 25 15 12 15 69 13 244 22 25 17 121 46 22 25 47 45 15 53 18 99 85 27 36 29 25 18 44 26 44 24 27 88 21 11 11 30 144 89 143 97 27 19 30 15 139 143 37 106 10 11 30 29 29 35 54 189 94
internal_value=-8.32096e-05 -0.0133386 -0.00348302 0.01341 0.0377604 -0.0480652 0.0038807 -0.00841574 -0.0356375 -0.0399863 -0.0345654 -0.0498993 0.0484423 0.0533376 0.00477201 -0.0113035 -0.0391653 -0.0298937 0.0450045 0.0558041 -0.126271 -0.0621892 0.00848958 0.017041 0.00559578 -0.041278 -0.0335669 -0.0418018 -0.0494882 0.0774331 0.0485842 -0.0221266 -0.0136288 0.0428559 -0.10586 -0.00594902 -0.0382124 0.0536634 0.0148695 -0.048016 -0.0722232 0.0291837 -0.0914911 0.0196514 0.0107719 0.0416345 0.00789434 -0.0102069 -0.0553901 -0.112811 -0.0433511 -0.0357697 -0.0397644 -0.0286665 0.00939179 -0.0774472 0.0321491 -0.00871647 -0.00557377 0.0157247 0.0686174 0.0194934 -0.0233298 0.00781007 -0.0373942 -0.0431992 0.00105959 -0.00378568 0.0137933 0.0459517 -0.0066352 -0.0571624 0.00351141 -0.0262501 -0.0222231 -0.0398113 0.00634336 0.0408049 0.00787566 -0.00296611 -0.0307704 -0.0860627 -0.0239397 -0.0308338 0.0251426 0.0258135 0.0135416 -0.0342337 -0.00025007 -0.0679935 0.0271522 0.0252235 0.0217131 -0.033676 0.00954953 0.0181519 -0.0155152 0.0193814 -0.0375542 0.032035 -0.087223 0.0247929 -0.0238436 -0.00951333 -0.021032 -0.0768862 -0.0274415 0.00880114 -0.0265057 0.0416948 0.0576124
internal_weight=7041 5215 4063 2664 1826 1152 2097 1329 1399 1290 1202 537 1379 1203 447 282 452 585 896 531 84 183 744 497 340 396 328 1068 672 307 567 665 411 65 85 189 451 482 176 202 221 365 78 202 34 157 151 126 80 88 367 254 105 396 128 68 165 247 221 109 373 85 269 123 259 167 126 104 115 317 28 108 79 236 184 52 202 163 90 43 366 43 73 80 768 740 44 26 23 57 652 508 338 280 64 37 84 51 183 170 52 249 101 21 86 46 80 53 92 234 129
internal_count=7041 5215 4063 2664 1826 1152 2097 1329 1399 1290 1202 537 1379 1203 447 282 452 585 896 531 84 183 744 497 340 396 328 1068 672 307 567 665 411 65 85 189 451 482 176 202 221 365 78 202 34 157 151 126 80 88 367 254 105 396 128 68 165 247 221 109 373 85 269 123 259 167 126 104 115 317 28 108 79 236 184 52 202 163 90 43 366 43 73 80 768 740 44 26 23 57 652 508 338 280 64 37 84 51 183 170 52 249 101 21 86 46 80 53 92 234 129
is_linear=0
shrinkage=1


Tree=1
num_leaves=112
num_cat=0
split_feature=9 9 9 9 7 9 9 1 9 9 1 9 9 9 9 9 9 9 9 4 2 1 7 1 9 9 9 9 9 9 9 2 7 6 6 4 9 9 9 9 9 9 0 0 9 6 9 0 2 0 9 9 9 4 9 6 9 6 9 9 9 9 1 9 9 6 6 7 9 9 9 9 9 9 9 2 9 9 0 2 0 9 6 9 9 6 9 2 9 9 2 9 9 9 8 0 9 2 6 9 2 9 9 9 2 2 6 9 9 2 9
split_gain=1229.37 636.303 769.33 315.093 273.786 194.465 189.493 177.294 108.028 188.095 76.9922 75.4527 114.036 72.5874 75.1175 63.0318 101.65 52.5096 77.7489 47.4724 41.0431 40.4188 40.2697 39.3187 37.3115 32.0817 60.9754 30.0675 29.3597 36.1325 24.8411 22.9088 22.5616 18.2707 17.6191 17.4247 16.8781 16.6062 16.5764 27.4974 35.0821 15.4608 15.4603 13.452 13.1811 14.3721 13.0108 12.6045 10.9203 10.2329 10.1104 9.60499 9.18949 8.62455 7.38395 6.89047 6.86883 21.248 6.82781 17.2652 6.39939 6.33212 9.8277 6.70816 6.28159 5.87072 5.7691 5.26877 5.1154 5.09311 4.96249 4.65577 5.48516 4.45923 4.38273 3.95271 3.86511 3.8385 3.58011 3.51716 3.36651 3.35918 3.24871 3.06358 3.41158 2.86601 2.86349 2.75886 2.52912 7.56771 4.17559 2.38075 3.78725 2.96151 2.18424 2.02286 2.00191 1.97819 1.95292 1.82652 1.78904 1.74514 1.72616 1.70213 1.68778 1.67881 1.63947 1.47039 1.4657 1.45379 1.4383
threshold=0.82694086432456981 0.26118339598178869 -1.0429430603981016 -0.01348631316795945 0.54746168851852428 0.3024504035711289 -0.67153990268707264 1.0000000180025095e-35 -1.6757040023803709 -1.6344369649887083 1.2065384984016421 -1.373079180717468 -1.4143462181091306 1.102054297924042 0.90947490930557262 1.2675660848617556 1.3075019121170046 -0.63027289509773243 -0.41284452378749842 -0.13390543684363362 0.56712579727172863 1.0000000180025095e-35 -1.2740830183029173 0.1524230241775513 1.5204929709434511 0.63436147570610057 0.52254116535186779 0.21991638094186786 -1.1667441129684446 -1.249278128147125 -1.5243915915489195 0.089323412626981749 -1.3576400279998777 0.038097223732620485 0.038097223732620485 -0.73988714814186085 0.5500524938106538 -0.65778425335884083 1.6935482025146487 1.6403004527091982 1.5204929709434511 -0.23978930711746213 0.43114647269248968 0.25791636854410177 -0.13329377770423886 -0.45938761532306666 1.1708326339721682 0.34453167021274572 -0.45363435149192805 0.32287797331810003 1.4539332389831545 -1.0704543590545652 1.6802362799644472 -0.84053975343704213 0.93698623776435863 -1.7030923366546629 1.1708326339721682 1.2196152210235598 1.6403004527091982 1.6935482025146487 0.7994295358657838 0.39874011278152471 1.2065384984016421 0.44000713527202612 -1.6894596219062803 0.16246472299098971 0.53557908535003673 0.84826743602752697 -1.5519028902053831 -1.5106359124183653 -0.61651721596717823 -1.5106359124183653 -1.4556132555007932 1.1433213353157046 -1.5656585693359373 1.0000000180025095e-35 0.027336971834301952 0.67562848329544078 0.25791636854410177 0.69743552803993236 0.27957032620906835 1.1570770144462588 1.5927295684814455 -1.0291873812675474 -0.71280694007873524 -1.6409085988998411 0.3162060827016831 0.80602750182151806 1.3873735666275027 1.4139974117279055 0.63228118419647228 -0.78158527612686146 -0.94665333628654469 -0.90538632869720448 0.96644482016563427 0.19295527786016467 -0.83660796284675587 -0.23645249009132382 1.2196152210235598 -1.0154317021369932 -0.62738069891929615 0.66187280416488659 0.12362667545676233 -1.3868348598480222 -0.12786052748560903 0.65399897098541271 -1.2677941322326658 0.89571923017501842 -0.25310124456882471 0.78430870175361644 -0.33297289907932276
decision_type=2 2 2 2 2 2 2 2 2 2 2 2 2 2 2 2 2 2 2 2 2 2 2 2 2 2 2 2 2 2 2 2 2 2 2 2 2 2 2 2 2 2 2 2 2 2 2 2 2 2 2 2 2 2 2 2 2 2 2 2 2 2 2 2 2 2 2 2 2 2 2 2 2 2 2 2 2 2 2 2 2 2 2 2 2 2 2 2 2 2 2 2 2 2 2 2 2 2 2 2 2 2 2 2 2 2 2 2 2 2 2
left_child=1 2 8 6 15 20 83 17 64 47 13 12 19 14 107 46 49 37 32 55 -3 30 -9 43 -12 26 33 34 29 -13 68 -14 70 -7 76 67 -28 78 39 40 56 42 108 44 45 -24 73 -10 53 87 88 -30 82 -45 -16 -11 57 81 -26 -60 77 62 105 -63 -1 -29 -65 -25 -21 -32 -19 74 -73 -2 -57 -66 -5 101 -8 -59 94 -15 -41 -4 91 -23 -64 -17 109 -90 -91 92 99 -94 -50 -38 -95 -87 -56 -85 -39 -27 -36 -33 -78 -35 -74 -6 -20 -18 -69
right_child=4 5 3 27 10 25 7 22 9 11 24 28 31 38 54 16 50 18 41 21 -22 85 23 35 58 60 36 65 51 -31 69 103 -34 61 102 -37 95 100 -40 52 -42 -43 -44 48 -46 -47 -48 -49 80 -51 -52 -53 -54 -55 98 71 -58 79 59 -61 -62 63 86 66 75 -67 -68 110 -70 -71 -72 72 106 -75 -76 -77 104 -79 -80 -81 -82 -83 -84 84 -86 97 -88 -89 89 90 -92 -93 93 96 -96 -97 -98 -99 -100 -101 -102 -103 -104 -105 -106 -107 -108 -109 -110 -111 -112
leaf_value=0.021897121476940812 0.023982691206037993 -0.15575351828620548 0.0068514560401025746 0.054314734437797642 0.021552343627632555 -0.0074690877092787288 -0.050411317391054956 -0.014479595564461004 -0.12136542584936499 -0.0021266713839124987 0.035238617773921718 -0.024429172049371565 -0.13188009725676642 0.030607562895486318 0.046423152346035529 -0.048733617416743577 -0.0017050468909912053 -0.036984358672742489 -0.060464055661340145 -0.064597911470466188 -0.080701294759424724 -0.019174282126869932 0.0085565093244144401 0.0097040754077689986 0.084756216584025212 -0.025878180669886727 -0.094180061381596791 0.026236598554885748 -0.039220217549180619 0.0058641033396424702 -0.059846650004386909 -0.089960464364603948 0.013310076551087992 -0.067362905383110058 0.047261136894424759 0.01683409710849949 -0.071336090962092077 -0.053962424894173945 0.057883533484795517 -0.0017168957394148622 0.06620314969466283 -0.027610631044029346 0.00036673494864122142 -0.031978663977454691 0.01554746725798949 -0.026575664848939556 0.037452402498040882 -0.076884007804534027 0.023588342964649192 -0.023762303367257119 0.033295788184592605 -0.015362129442949304 0.022099440710412133 0.017086273784700193 0.063832727368637057 -0.021717619595046228 0.030809411628260498 -0.027322172707524794 0.0076889250570764921 0.075575393311520855 -0.010750295639950403 -0.022320733109817789 -0.047482571693567129 -0.046074123342498011 -0.023410971760749813 -0.0039448447102172811 -0.023915786627266143 0.02953465973789042 -0.10552285237515227 -0.023492274228483441 -0.011293571728610379 -0.013029530722843975 -0.027528072037809603 -0.015366560441907496 -0.051346760988235478 0.012361418228829281 0.029876070188151468 -0.033832226920520327 -0.013323976658284664 0.0065055893226103351 0.018636859144483296 -0.00036438615061342718 -0.02396797345718369 0.0176982489125482 0.014604828101985249 -0.057998367873105118 -0.025159201187931975 -0.075505694933235654 0.025493492354761883 0.013165800158372699 -0.010953673318420586 0.031859682421659083 0.012393754652802305 0.027763711185990903 0.058725079664817229 -0.055181702034127325 0.018256490724580781 -0.027125553475020249 0.075036281922407327 0.032816662762662492 -0.08849095574447087 -0.0098596178793481423 0.067676855040633158 -0.060781438968011317 0.042577399038102315 -0.046218955737573134 -0.050468655472451995 0.0349073162366604 -0.043167690237363186 0.0080588524409380378 0.047165485842013237
leaf_weight=79 11.000000000000002 41 26 78 133 51 13.000000000000002 149 58 36 62 244 35 68 57 28 107 26 97 17 40 48 42 12.999999999999998 184 55 51 65 196 164 24 18 130 49 23 198 44 10.999999999999998 33 34 51 140 12.999999999999998 15.999999999999998 45 91 153 33 10.000000000000002 24 37 56 26 18 222 25 83 28 11.999999999999998 46 48 84 25 118 14.000000000000002 21 44 21 46 19 67 94 73 17 30 14.999999999999998 44 242 13.999999999999998 9.9999999999999982 34 9.9999999999999982 31 28 80 10.000000000000002 45 31 52 33 37 141 82 137 11.999999999999998 123 110 17 113 138 41 27 137 27 183 26 9.9999999999999982 28 29 58 92
leaf_count=79 11 41 26 78 133 51 13 149 58 36 62 244 35 68 57 28 107 26 97 17 40 48 42 13 184 55 51 65 196 164 24 18 130 49 23 198 44 11 33 34 51 140 13 16 45 91 153 33 10 24 37 56 26 18 222 25 83 28 12 46 48 84 25 118 14 21 44 21 46 19 67 94 73 17 30 15 44 242 14 10 34 10 31 28 80 10 45 31 52 33 37 141 82 137 12 123 110 17 113 138 41 27 137 27 183 26 10 28 29 58 92
internal_value=8.18757e-05 -0.0124713 -0.00316915 0.0127999 0.0353755 -0.0458943 0.00382401 -0.00752591 -0.0332425 -0.037293 0.0487735 -0.0319308 -0.0459964 0.041527 0.0530356 0.00729112 -0.00363822 -0.0281807 -0.02213 -0.0360428 -0.120127 -0.0557919 0.00868517 0.0145301 0.0706621 -0.0399573 -0.0466 0.0463551 -0.0206045 -0.0122679 -0.075592 -0.100726 -0.000102324 -0.0357847 0.0513803 0.0262215 -0.0682649 -0.0658723 0.0244143 0.0210155 0.0295525 -0.0396731 -0.0515384 0.000350714 -0.00760809 -0.0155002 0.031752 -0.106246 0.0160021 -0.0526609 0.00904345 -0.0340001 -0.00250415 -0.00625709 0.0648381 -0.022547 0.0198756 0.0118558 0.0795551 0.0618983 -0.0280784 -0.0394495 -0.0479995 -0.034236 0.0146641 0.0189061 -0.0402395 0.0407245 -0.0956615 -0.0446821 -0.018793 -0.0256929 -0.0215171 0.000386007 -0.0385073 -0.00511273 0.0440181 -0.0306045 -0.0323435 -0.0184816 0.0293893 0.0266825 -0.0125313 0.0240288 0.0246421 -0.0271813 -0.0336883 -0.0638243 0.00581208 0.0112403 0.00044222 0.0258797 0.0241155 0.0208683 0.0444738 -0.0598372 0.0236204 -0.0402229 0.0678239 0.0303878 -0.0823428 -0.0207861 0.0650539 -0.074155 0.0402573 -0.0607376 -0.0308599 0.0240761 -0.0568544 0.00175498 0.0441768
internal_weight=6935 5116 4003 2615 1819 1113 2064 1322 1388 1280 1231 1189 529 927 553 588 407 581 502 449 81 181 741 592 304 1032 660 551 660 408 106 80 223 442 465 324 218 79 374 341 250 279 139 268 178 133 181 91 90 83 324 252 91 34 392 268 199 116 242 58 372 391 145 246 108 86 162 126 63 43 93 232 177 28 55 29 305 324 27 38 56 78 65 742 716 75 70 59 287 122 70 636 495 329 22 167 247 27 335 166 52 82 160 45 227 75 83 161 126 165 113
internal_count=6935 5116 4003 2615 1819 1113 2064 1322 1388 1280 1231 1189 529 927 553 588 407 581 502 449 81 181 741 592 304 1032 660 551 660 408 106 80 223 442 465 324 218 79 374 341 250 279 139 268 178 133 181 91 90 83 324 252 91 34 392 268 199 116 242 58 372 391 145 246 108 86 162 126 63 43 93 232 177 28 55 29 305 324 27 38 56 78 65 742 716 75 70 59 287 122 70 636 495 329 22 167 247 27 335 166 52 82 160 45 227 75 83 161 126 165 113
is_linear=0
shrinkage=0.05


Tree=2
num_leaves=112
num_cat=0
split_feature=9 9 9 9 7 9 9 1 9 9 1 9 9 9 9 9 9 9 9 9 9 2 9 9 9 3 9 1 9 9 9 9 9 7 2 9 9 6 6 9 1 9 0 9 3 6 0 3 6 0 7 7 9 9 3 9 9 9 5 9 9 6 0 3 3 9 9 9 6 2 9 0 2 9 3 3 6 9 9 2 9 9 9 9 2 2 9 2 9 9 9 9 0 3 3 9 2 9 6 3 9 2 9 9 5 0 9 0 2 9 9
split_gain=1147.47 597.258 697.907 297.629 245.624 195.125 178.662 160.808 97.8161 160.445 84.6961 74.5477 97.4184 54.9223 71.6684 51.1994 73.0377 45.0565 105.42 40.0809 42.9247 38.5184 36.6098 33.4581 57.3061 29.2303 29.0437 78.1708 25.9956 34.7408 25.3118 25.148 24.2495 22.1019 20.7811 18.4928 17.3849 16.8189 15.7723 14.4653 15.1324 13.9488 14.0421 12.3722 11.3388 10.8121 10.6513 10.1516 10.0963 9.95793 9.39488 14.5316 8.46177 8.34754 7.85266 7.39343 7.03258 6.64075 10.5972 7.83919 6.51691 5.4702 5.10391 4.75984 5.93564 4.58691 4.55866 4.36476 4.29599 4.14376 4.02246 3.92814 3.85498 3.51289 3.4012 3.3908 3.15438 3.11751 3.08805 3.08278 2.78656 2.75955 7.77733 3.93405 2.60138 2.55258 2.53418 2.40222 2.31198 3.36856 2.89786 2.22399 2.21193 2.0966 2.04145 2.03577 1.95989 1.95231 1.93868 1.90171 1.89807 1.79546 1.74234 1.95525 1.69197 1.68318 1.66773 1.61157 1.54087 1.43271 1.37325
threshold=0.82694086432456981 0.26118339598178869 -1.0429430603981016 -0.01348631316795945 0.6143074929714204 0.3024504035711289 -0.67153990268707264 1.0000000180025095e-35 -1.6757040023803709 -1.6344369649887083 1.2065384984016421 -1.373079180717468 -1.4143462181091306 1.102054297924042 0.90947490930557262 -0.63027289509773243 -0.41284452378749842 1.2675660848617556 1.3075019121170046 -0.35959677398204798 -0.27972511947154993 0.58884355425834667 -0.13329377770423886 0.63436147570610057 0.52254116535186779 1.4984139800071719 -1.5106359124183653 1.0000000180025095e-35 -1.1667441129684446 -1.249278128147125 1.4539332389831545 1.6935482025146487 0.21991638094186786 -1.3576400279998777 0.13275895640254023 -0.65778425335884083 0.5500524938106538 0.038097223732620485 0.038097223732620485 1.1708326339721682 0.41595189273357397 -0.23978930711746213 0.43114647269248968 1.5204929709434511 0.65493208169937145 1.2196152210235598 0.32287797331810003 -1.0320318043231962 -1.6409085988998411 0.32287797331810003 0.46390463411808019 -1.2072371840476988 -1.0704543590545652 1.5204929709434511 1.9201549887657168 0.81318518519401561 -1.6894596219062803 1.1570770144462588 1.6371585130691531 1.6802362799644472 0.97825327515602123 0.34902189671993261 0.32287797331810003 -0.46971046924591059 -1.4537760615348814 -1.4556132555007932 -0.61651721596717823 0.027336971834301952 0.16246472299098971 0.71915432810783397 0.2886947393417359 0.25791636854410177 -0.12786052748560903 0.67562848329544078 0.23319111764431003 -0.32913015782833094 1.5927295684814455 1.1845883131027224 -1.0291873812675474 0.76258990168571483 -0.71280694007873524 1.3873735666275027 1.4139974117279055 1.4406213760375979 0.80602750182151806 0.82774528861045849 0.44000713527202612 0.52368924021720897 -0.78158527612686146 -0.94665333628654469 -0.90538632869720448 1.0745429992675783 0.34453167021274572 -0.18854984268546102 1.0000000180025095e-35 -1.0154317021369932 -1.365804076194763 -0.83660796284675587 -1.2677941322326658 -1.0320318043231962 -1.3868348598480222 0.65399897098541271 0.46751846373081213 0.3162060827016831 0.21707098931074145 0.19295527786016467 0.66187280416488659 0.1279941909015179 -0.12786052748560903 0.10987100377678873 -0.25310124456882471
decision_type=2 2 2 2 2 2 2 2 2 2 2 2 2 2 2 2 2 2 2 2 2 2 2 2 2 2 2 2 2 2 2 2 2 2 2 2 2 2 2 2 2 2 2 2 2 2 2 2 2 2 2 2 2 2 2 2 2 2 2 2 2 2 2 2 2 2 2 2 2 2 2 2 2 2 2 2 2 2 2 2 2 2 2 2 2 2 2 2 2 2 2 2 2 2 2 2 2 2 2 2 2 2 2 2 2 2 2 2 2 2 2
left_child=1 2 8 6 17 21 78 15 56 46 13 12 26 14 -6 35 33 39 49 50 44 -3 74 24 37 53 27 47 29 -13 81 45 38 66 -14 71 -26 -7 67 40 -2 42 110 -12 -21 -27 -10 62 75 85 51 -9 -30 -15 -45 73 -1 -47 77 76 96 63 -11 64 -39 99 -17 -5 -34 -52 -23 -8 -58 106 -22 -29 -60 -59 -4 -42 88 -20 -83 101 -75 -19 -63 -88 89 95 107 -62 93 -50 -37 -80 -16 -92 -67 -28 -36 -84 103 -65 -66 -38 -25 -91 -69 -110 -18
right_child=4 5 3 32 10 23 7 19 9 11 43 28 34 25 60 16 41 18 30 20 22 70 -24 55 36 31 65 48 52 -31 -32 -33 68 -35 100 94 105 61 -40 -41 79 -43 -44 54 -46 57 -48 -49 92 -51 69 -53 -54 -55 -56 -57 72 58 59 -61 91 86 -64 102 104 98 -68 108 -70 -71 -72 -73 -74 84 -76 -77 -78 -79 80 -81 -82 82 83 -85 -86 -87 87 -89 -90 90 97 -93 -94 -95 -96 -97 -98 -99 -100 -101 -102 -103 -104 -105 -106 -107 -108 -109 109 -111 -112
leaf_value=0.020922861210104213 0.034731015034260286 -0.14602122902870179 0.0062786180948023688 0.052073650367288705 0.022606620604042397 -0.0066706852030474694 -0.048070790937968649 -0.013582554157210948 -0.11825157549916482 -0.10607314507166546 0.035045902120570342 -0.023685978774492647 -0.12311721041395858 0.029462866249837374 0.040131029232246124 -0.034266227147271559 -0.057436487024262697 -0.047186170145869261 0.0015273792371902216 0.044697165731492086 -0.023684328272938732 -0.053373749514943683 0.016141558981272487 -0.024011256219002242 -0.091203246333382351 0.02668086239369586 -0.009902601912617685 -0.0073715985372760588 -0.037047638588818939 0.0056228834568866574 0.03648476689711385 0.054005729881199928 0.024685482725952612 0.012878116947959048 -0.085085227659770432 -0.059709071842106914 -0.067586596541934538 -0.021878254342646827 0.061165311345548347 0.035376236236844605 -0.023160005725609761 -0.02660146727130331 0.00034970817422228201 0.077964816127711223 0.012014664835037872 -0.024978390562793482 -0.077115302513807257 -0.056132986671046207 -0.016891651134937999 -0.02188394211784557 -0.047813330292701725 0.014551785543783389 -0.015016608903089824 0.062679913834212939 0.036851900928013492 -0.0017411703119675319 -0.031323313306678417 0.013100021119628633 -0.00094132702515432323 0.019321852315355232 0.069827709665250537 -0.014909912855364383 -0.070034289253609522 -0.045598277038541336 -0.059473314422827508 -0.025981096235605391 -0.010682080782620082 0.028218827427675328 -0.0027300126948638969 -0.011304933872694772 -0.091384102518741905 -0.010891999089268641 0.006373806059774426 -0.033847644395541908 0.0065720044753768241 -0.03618862554430962 -0.022409576852176642 0.04851171001791954 0.015977498815364897 0.0044456045531357331 0.014479494522410361 0.02496009117698875 0.0065588769089016648 0.017996198505811072 -0.022074204389873436 -0.072997947888714929 -0.024288156628608705 -0.04336096924362761 0.030311041120169819 0.0027113334476084943 0.026344010922022994 0.053861345320331815 -0.051304883882403375 -0.044575672424756567 -0.088238242188015514 0.031258471027342943 0.056275863289833077 0.017194500639392384 -0.050289259986443957 -0.025655468753897227 -0.057470828294754028 -0.012703170656765761 -0.053200014432271327 -0.029601281871940912 -0.044060002819255546 -0.052438506304190086 -0.0091573128709569584 0.016881736905647898 0.036361421865445602 0.047717753470989693 -0.040425061434507373
leaf_weight=82 30 47 29 82 171 49 13.000000000000002 145 48 38 23 254 36 37 40 30 100 31 167 122 84 18 244 56 54 49 84 75 202 167 86 32 65 136 20 21 44 20 164 180 23 144 12.999999999999998 236 35 22 38 37 19.000000000000004 26 19 66 58 46 14.999999999999998 29 10.000000000000002 13 32 26 198 31 27 28 64 77 65 47 18 13.999999999999998 25 15.999999999999998 17 203 9.9999999999999982 10.999999999999998 36 13 30 17 87 57 17 22 72 27 46 32 137 33 143 48 23 11.999999999999998 36 136 99 115 9.9999999999999982 25 30 37 13.999999999999998 118 53 115 31 52 134 56 27
leaf_count=82 30 47 29 82 171 49 13 145 48 38 23 254 36 37 40 30 100 31 167 122 84 18 244 56 54 49 84 75 202 167 86 32 65 136 20 21 44 20 164 180 23 144 13 236 35 22 38 37 19 26 19 66 58 46 15 29 10 13 32 26 198 31 27 28 64 77 65 47 18 14 25 16 17 203 10 11 36 13 30 17 87 57 17 22 72 27 46 32 137 33 143 48 23 12 36 136 99 115 10 25 30 37 14 118 53 115 31 52 134 56 27
internal_value=-8.51194e-05 -0.0120975 -0.00310265 0.011899 0.0336687 -0.0439133 0.00322564 -0.00776635 -0.0316796 -0.0355185 0.0481407 -0.030753 -0.0449261 0.0403563 0.0497239 -0.0269516 -0.0209075 0.0108001 0.0016623 0.00785157 0.0160163 -0.114276 0.00594043 -0.0378313 -0.0446501 0.023229 -0.035222 -0.0468066 -0.0197976 -0.0120741 0.0127331 0.0136865 0.0440476 -1.27946e-05 -0.0933761 -0.0624893 -0.0660768 -0.0344966 0.0483421 0.0279041 0.00846257 -0.0378432 -0.0491354 0.0723942 0.0375334 0.00668529 -0.10117 -0.0799113 -0.0222918 -0.048762 -0.00870989 -0.00475511 -0.0322094 0.0483993 0.0756639 -0.0260976 0.0136979 -0.000352915 0.00433088 -0.00356345 0.0616784 -0.0378303 -0.0923911 -0.0414341 -0.048583 -0.0207537 -0.0184091 0.0415791 0.0187782 -0.033113 -0.0770475 -0.0286052 -0.00820814 -0.0280386 -0.0204303 -0.0114311 -0.0124669 0.0319468 0.0225402 -0.0116053 0.0231742 0.0058257 0.0111712 0.000639635 -0.0308563 -0.0602356 -0.0277234 -0.0325627 0.0243209 0.0226524 0.0196948 0.066943 -0.0390661 -0.0286661 -0.0789382 0.0286091 0.0519497 0.0223479 -0.0293149 -0.013716 -0.0699683 -0.00663019 -0.0350491 -0.0329585 -0.0529238 -0.0570266 -0.0188827 0.0114758 0.0377446 0.0399409 -0.054164
internal_weight=7073 5217 4068 2668 1856 1149 2102 1340 1400 1291 1136 1205 524 862 556 601 515 720 470 739 495 90 338 1059 668 306 438 242 681 421 386 223 566 231 86 86 213 455 483 250 70 284 140 274 157 191 86 102 140 84 244 211 260 83 251 391 109 142 120 94 385 406 65 297 137 196 95 319 83 33 43 29 27 362 94 86 68 26 762 40 733 300 133 76 275 58 109 78 646 509 343 246 54 31 57 166 139 258 87 109 50 54 160 146 117 159 87 85 237 190 127
internal_count=7073 5217 4068 2668 1856 1149 2102 1340 1400 1291 1136 1205 524 862 556 601 515 720 470 739 495 90 338 1059 668 306 438 242 681 421 386 223 566 231 86 86 213 455 483 250 70 284 140 274 157 191 86 102 140 84 244 211 260 83 251 391 109 142 120 94 385 406 65 297 137 196 95 319 83 33 43 29 27 362 94 86 68 26 762 40 733 300 133 76 275 58 109 78 646 509 343 246 54 31 57 166 139 258 87 109 50 54 160 146 117 159 87 85 237 190 127
is_linear=0
shrinkage=0.05


Tree=3
num_leaves=112
num_cat=0
split_feature=9 9 9 9 7 9 9 1 9 4 3 9 1 9 9 4 9 9 9 9 9 9 9 2 9 9 9 9 9 0 9 2 8 9 5 9 3 9 9 9 9 9 9 9 0 2 7 7 9 5 5 9 9 9 4 5 9 2 9 1 9 5 9 9 2 9 0 1 9 9 5 9 4 2 3 9 2 9 9 9 9 9 9 3 3 0 3 9 1 9 9 9 2 9 5 9 9 2 7 0 2 2 2 9 3 2 0 4 9 5 9
split_gain=984.034 569.542 601.609 263.182 223.346 171.945 156.775 147.816 93.6825 135.204 77.027 68.5075 50.8373 50.7503 91.6825 45.6865 37.3406 42.9651 34.6806 34.3336 118.743 32.3849 50.4155 31.6857 30.8885 26.0812 30.1797 24.0743 31.9909 23.9235 23.6549 19.2694 18.3194 15.9597 15.7643 23.6881 15.6388 15.6357 21.1516 13.4794 12.9232 12.8577 11.2063 10.1824 9.94188 9.74349 8.8132 14.8852 7.98338 7.93022 12.6412 8.12356 7.51281 7.0296 6.91109 6.8049 6.3517 6.11028 5.99485 5.50757 5.34865 15.1982 8.58454 5.25639 5.24101 5.20878 5.06672 4.93759 4.31986 4.25966 3.82729 3.74451 4.3936 3.68374 3.68151 3.66544 3.53165 3.31325 3.24143 3.22727 2.9409 3.03992 2.89467 2.68092 2.64638 2.59622 2.48283 2.30666 2.25696 2.11056 2.0239 2.02095 1.97366 1.92218 1.87061 1.84939 6.85717 2.60769 1.81324 1.80539 1.7746 1.82337 1.61422 1.56378 1.55491 1.5298 1.50823 1.50539 1.50037 1.6074 1.47245
threshold=0.82694086432456981 0.26118339598178869 -1.0429430603981016 -0.01348631316795945 0.56417387723922741 0.3024504035711289 -0.67153990268707264 1.0000000180025095e-35 -1.6757040023803709 -0.13390543684363362 1.9201549887657168 0.90947490930557262 1.0000000180025095e-35 1.2675660848617556 1.3075019121170046 -1.0432220101356504 -0.35959677398204798 -0.27972511947154993 -0.13329377770423886 -1.373079180717468 -1.4143462181091306 0.63436147570610057 0.52254116535186779 0.58884355425834667 -1.5243915915489195 -1.1667441129684446 -1.249278128147125 1.5338048934936526 1.102054297924042 0.21460897475481036 0.21991638094186786 0.089323412626981749 0.86189281940460216 0.5500524938106538 1.8532593846321108 1.7068601846694949 1.0000000180025095e-35 1.6935482025146487 1.1295656561851504 -1.6206812858581541 1.4539332389831545 1.1708326339721682 -0.33297289907932276 0.10987100377678873 0.32287797331810003 0.78430870175361644 0.46390463411808019 -1.2740830183029173 -1.0704543590545652 -0.3694873303174972 0.21707098931074145 0.3299617618322373 -0.63027289509773243 0.7994295358657838 -0.43655125796794886 -1.0486600399017332 0.97825327515602123 0.87118187546730053 0.041092643514275558 0.94300961494445812 -0.61651721596717823 -0.52384456992149342 -0.64402857422828663 -1.6894596219062803 -0.23645249009132382 0.20616070926189425 0.32287797331810003 0.41595189273357397 0.44000713527202612 0.49502982199192053 -0.64733111858367909 -1.4556132555007932 -0.16768633574247357 1.0000000180025095e-35 2.0607353448867802 -0.23978930711746213 0.7408721148967744 0.67562848329544078 0.2886947393417359 -1.5106359124183653 -1.0291873812675474 -0.69905126094818104 0.24742772430181506 0.23319111764431003 1.0766730904579165 0.36618536710739141 -1.0320318043231962 -0.41284452378749842 0.67948076128959667 1.5204929709434511 0.41249577701091772 -0.34628482162952418 0.024168025236576799 -0.61651721596717823 -0.61645966768264759 1.4139974117279055 1.3873735666275027 0.63228118419647228 -1.3576400279998777 0.17130158096551898 0.82774528861045849 -0.95315605401992787 -1.365804076194763 1.102054297924042 0.23319111764431003 0.65399897098541271 0.34453167021274572 -0.032564855180680745 1.6802362799644472 1.698901414871216 -1.3868348598480222
decision_type=2 2 2 2 2 2 2 2 2 2 2 2 2 2 2 2 2 2 2 2 2 2 2 2 2 2 2 2 2 2 2 2 2 2 2 2 2 2 2 2 2 2 2 2 2 2 2 2 2 2 2 2 2 2 2 2 2 2 2 2 2 2 2 2 2 2 2 2 2 2 2 2 2 2 2 2 2 2 2 2 2 2 2 2 2 2 2 2 2 2 2 2 2 2 2 2 2 2 2 2 2 2 2 2 2 2 2 2 2 2 2
left_child=1 2 8 6 13 23 80 15 63 19 11 -6 24 41 45 32 46 42 83 20 54 22 49 -3 44 26 -21 28 56 36 43 -22 55 -24 -29 -36 93 38 103 -14 84 67 91 58 -11 85 47 -9 -27 51 -51 104 105 77 86 -8 102 64 -5 66 62 98 -31 107 88 -45 -30 -2 90 -70 -54 72 -56 -65 -59 -63 -48 -23 -25 -26 -4 -82 -32 -19 95 -15 -10 -57 -40 -61 -52 -18 -74 -17 -95 96 -16 -97 -62 -71 101 -79 -13 -12 -7 -38 -84 -1 109 -76 -33
right_child=4 5 3 30 10 21 7 16 9 12 37 27 39 14 40 29 17 18 -20 25 31 53 33 78 79 48 -28 34 59 60 82 110 -34 -35 35 -37 52 -39 57 -41 -42 -43 -44 65 -46 -47 76 -49 -50 50 68 -53 70 -55 71 87 -58 74 -60 89 61 75 -64 73 -66 -67 -68 -69 69 99 -72 -73 92 -75 108 -77 -78 100 -80 -81 81 -83 106 -85 -86 -87 -88 -89 -90 -91 -92 -93 -94 94 -96 97 -98 -99 -100 -101 -102 -103 -104 -105 -106 -107 -108 -109 -110 -111 -112
leaf_value=0.012028893276583404 0.026572280377149572 -0.13899155563496529 0.0056402488048964495 0.048143420490351592 0.02166109001427366 -0.026515004783868791 -0.031253268840638081 -0.013467439918468396 -0.028781439800901955 -0.10443527056347757 0.050636088588963381 0.038498565242734067 -0.072571480449508216 -0.041697514802217485 0.0032527615514583888 -0.036706126481294635 0.0079128687332073854 -0.022247793306079178 0.015522527003971241 -0.021977713738400569 -0.11955619454383851 -0.018406873592175545 -0.086313796461674211 -0.04956341627985239 -0.053136237263679512 -0.03553401429578662 0.0053700861311517661 0.074216658307303646 -0.0078545295195106193 -0.012226357735583887 0.023959762995893308 -0.081464547250005945 -0.027205450015683332 -0.054305574123622385 -0.010759684973163531 0.067508381146651059 -0.089158402268703169 0.051639131605625159 -0.01229587969454852 -0.02178620711989844 0.032199756323166615 0.034334691585567984 0.045395337273408706 0.057433618088157813 -0.071777443647384642 -0.067741680628544576 -0.045542197674512869 0.014197570463228558 -0.014389773058231737 -0.056801905925723095 -0.031999744256822081 -0.0084240991192064806 -0.019120021028952165 -0.0083537385978719649 -0.0095347097434103495 0.013303518852034769 0.063912285297317836 0.0416715374047106 0.031822905794415678 0.031617079535499214 -0.0093005761403037474 -0.043114962159319127 -0.060446821898221974 -0.022238916158676143 -0.016700795308376353 0.033013834732194103 0.030424724436468549 -0.014456414082087577 -0.042943627465712397 -0.037722492643765045 -0.054758329010030748 -0.027514769788831474 -0.048155337572097778 0.013472988469792264 0.014226505373988084 -0.023912335176076466 -0.010977036113451634 -0.023640220931598122 -0.086688948392868045 -0.021372601689977778 0.023065725759109264 0.011044330162103058 -0.008053814726216451 0.0027013032625500975 -0.0066924233117606497 -0.017316976650839762 -0.063972970594962444 -0.0060162837329124546 0.014085999008966611 0.049498823858224433 -0.016677877339616159 0.027138504944741727 -0.020407506761451564 -0.0051970067477668629 -0.031134639393824798 0.010257496927497965 0.024365709176553146 -0.009201228240918782 0.0068193969767420528 -0.018381982026621699 -0.021923958895994085 -0.036089817455536882 0.053097078086125973 0.030307518330312547 -0.045324353098869327 -0.052938902919942687 0.014159226329887614 0.025699286371469499 0.023463927037440813 -0.0072404096472180549 -0.054439790227583475
leaf_weight=39 10.000000000000002 46 29 109 170 33 9.9999999999999982 149 14.000000000000002 83 22 42 15.999999999999998 31 124 27 29 89 239 238 35 79 56 14.999999999999998 19 199 174 231 15.999999999999998 15.999999999999998 54 17 61 170 14.999999999999998 25 25 29 9.9999999999999982 64 52 160 110 195 49 36 19 71 60 68 40 58 9.9999999999999982 56 124 90 225 9.9999999999999982 141 95 39 46 23 14.000000000000002 47 30 17 21 113 20 70 79 9.9999999999999982 12.999999999999998 15.999999999999998 66 12.999999999999998 48 24 17 677 60 13.000000000000002 11.999999999999998 39 20 10.999999999999998 18 31 25 56 27 23 16.000000000000004 11.999999999999998 32 55 35 30 39 55 141 100 30 24 9.9999999999999982 15.999999999999998 49 11.999999999999998 17 27
leaf_count=39 10 46 29 109 170 33 10 149 14 83 22 42 16 31 124 27 29 89 239 238 35 79 56 15 19 199 174 231 16 16 54 17 61 170 15 25 25 29 10 64 52 160 110 195 49 36 19 71 60 68 40 58 10 56 124 90 225 10 141 95 39 46 23 14 47 30 17 21 113 20 70 79 10 13 16 66 13 48 24 17 677 60 13 12 39 20 11 18 31 25 56 27 23 16 12 32 55 35 30 39 55 141 100 30 24 10 16 49 12 17 27
internal_value=-3.19806e-05 -0.0111252 -0.00228237 0.0116338 0.0317941 -0.04229 0.00349189 -0.00690471 -0.0291212 -0.0330657 0.0444741 0.050628 -0.0660991 0.00732945 -0.00232283 -0.0261428 0.00755198 0.0153735 0.00515608 -0.0249052 -0.0378493 -0.0367099 -0.0432784 -0.110382 -0.0817093 -0.0182998 -0.0104429 0.0568183 0.0502855 -0.0357217 0.0421123 -0.0911837 -0.00519007 -0.0625821 0.0691225 0.0386113 -0.0498215 0.0179651 0.0127192 -0.0327138 0.0095184 0.028657 0.0361446 0.0464182 -0.0929431 -0.0477775 -0.00815183 -0.00451534 -0.0307099 -0.0334881 -0.0374035 -0.0218245 -0.0603328 -0.0248936 -0.0214195 0.00632374 0.0583218 0.0027 0.0391021 0.0307554 -0.0246503 -0.0208195 -0.0414643 0.0139755 -0.00546226 0.0543381 0.0121799 -0.000804563 -0.0322887 -0.0371273 -0.0505946 -0.0186182 -0.0139957 -0.00517721 0.0156239 -0.0321109 -0.0322583 -0.0277266 -0.074006 -0.0391198 0.0214882 0.0221033 0.0172112 -0.0192861 0.00528193 -0.0326534 -0.0461307 0.0100579 0.00751184 0.0357207 -0.0233261 0.0174959 -0.029985 -0.0271584 -0.0170034 0.00719971 0.00983931 0.000106664 -0.0022946 -0.0254575 -0.0306566 -0.0330691 0.0490786 0.0397012 -0.0350796 -0.080568 0.00426511 0.019844 0.00905553 0.00328009 -0.0664595
internal_weight=6966 5166 4025 2651 1800 1141 2093 1327 1374 1259 1185 961 248 615 424 569 758 506 340 1011 340 1056 677 85 168 671 412 791 520 390 558 79 179 226 271 40 170 224 195 80 337 191 166 475 132 87 252 220 259 451 336 115 115 379 261 118 367 143 250 153 220 181 39 115 88 225 33 31 268 172 80 236 157 27 55 112 32 323 39 36 766 737 83 101 285 51 25 108 41 120 96 56 33 55 28 246 179 67 69 59 244 189 142 52 57 35 29 88 45 33 44
internal_count=6966 5166 4025 2651 1800 1141 2093 1327 1374 1259 1185 961 248 615 424 569 758 506 340 1011 340 1056 677 85 168 671 412 791 520 390 558 79 179 226 271 40 170 224 195 80 337 191 166 475 132 87 252 220 259 451 336 115 115 379 261 118 367 143 250 153 220 181 39 115 88 225 33 31 268 172 80 236 157 27 55 112 32 323 39 36 766 737 83 101 285 51 25 108 41 120 96 56 33 55 28 246 179 67 69 59 244 189 142 52 57 35 29 88 45 33 44
is_linear=0
shrinkage=0.05


Tree=4
num_leaves=112
num_cat=0
split_feature=9 9 9 9 8 9 9 1 9 9 9 9 3 9 9 9 9 9 0 4 9 9 9 1 9 9 2 9 9 9 9 9 9 9 6 2 9 6 9 9 6 9 9 6 0 9 9 3 5 0 9 9 9 9 9 4 9 9 4 6 9 9 9 1 6 9 6 3 9 4 3 9 6 9 2 9 6 9 2 2 9 9 0 9 2 9 9 5 9 9 2 9 0 9 2 2 9 3 2 9 9 9 3 9 3 9 2 3 9 0 9
split_gain=936.77 498.341 563.751 239.795 174.039 155.677 141.541 120.683 81.9423 132.019 61.9232 89.8371 55.3743 68.5432 52.5286 61.7211 44.7648 55.0042 41.8931 38.3135 33.1182 35.9211 34.4003 32.6321 29.9375 31.8993 29.3495 27.889 43.9872 23.894 38.1315 21.0168 20.8738 27.8718 17.5924 16.856 16.0023 13.4185 13.3466 13.1156 12.8223 12.8193 11.9536 11.1299 9.88634 9.68372 9.26236 8.92549 8.88521 8.47579 7.6886 13.0337 6.85251 6.75028 6.49704 6.27888 5.16658 5.14613 5.02819 4.99218 4.96739 4.67399 4.59089 4.55421 4.47556 4.25707 4.25052 4.08903 3.9574 3.92044 3.80565 3.78113 3.77444 3.75303 3.64483 3.31962 5.00979 3.17272 3.12002 2.92067 2.77975 2.709 2.63566 2.57833 2.49873 2.47169 2.44403 2.34588 2.38673 2.27691 2.2333 2.20537 2.02637 1.89996 1.79597 1.77183 1.67658 1.61928 1.6078 1.57972 3.0849 2.24281 1.68717 1.62648 1.57796 1.55561 1.51497 1.48327 1.40047 1.36212 1.35949
threshold=0.82694086432456981 0.26118339598178869 -1.0429430603981016 -0.01348631316795945 0.40732413530349737 0.3024504035711289 -0.67153990268707264 1.0000000180025095e-35 -1.6757040023803709 -1.6344369649887083 -1.373079180717468 -1.4143462181091306 2.0607353448867802 1.5338048934936526 1.2675660848617556 1.3075019121170046 1.102054297924042 0.90947490930557262 0.30122427642345434 -0.13390543684363362 -0.35959677398204798 -0.27972511947154993 -0.13329377770423886 1.0000000180025095e-35 -0.63027289509773243 -0.41284452378749842 0.58884355425834667 0.63436147570610057 0.52254116535186779 1.6403004527091982 1.6935482025146487 0.21991638094186786 -1.1667441129684446 -1.249278128147125 -0.39720386266708368 0.089323412626981749 -1.5243915915489195 0.038097223732620485 1.6935482025146487 -0.23978930711746213 0.10028097406029703 0.5500524938106538 1.4539332389831545 1.2196152210235598 0.36618536710739141 1.1295656561851504 0.39874011278152471 0.65493208169937145 -1.2030172944068906 0.32287797331810003 -0.399532601237297 -0.50647184252738942 1.1708326339721682 -1.0704543590545652 0.81318518519401561 1.1456176638603213 -0.65778425335884083 0.44000713527202612 -0.63923451304435719 -1.7030923366546629 0.97825327515602123 -1.5106359124183653 -1.5519028902053831 1.2065384984016421 0.53557908535003673 -1.6894596219062803 -1.5787218809127805 -0.18854984268546102 0.027336971834301952 -0.10012559592723845 -0.75087112188339222 -1.4556132555007932 0.16246472299098971 1.3873735666275027 0.63228118419647228 1.6802362799644472 1.5927295684814455 -1.5106359124183653 0.71915432810783397 0.76258990168571483 -0.61651721596717823 0.67562848329544078 0.32287797331810003 1.1570770144462588 -0.1712960675358772 -1.0291873812675474 -0.69905126094818104 1.6371585130691531 1.1708326339721682 0.2886947393417359 0.82774528861045849 1.5204929709434511 0.17130158096551898 1.0745429992675783 0.69743552803993236 0.80602750182151806 -1.3868348598480222 0.3737714439630509 0.19791434705257419 -0.78158527612686146 -0.94665333628654469 -0.90538632869720448 -0.61029079556465138 -0.83660796284675587 1.0000000180025095e-35 0.66187280416488659 -0.21473368257284162 1.4984139800071719 -1.5931699275970457 0.19295527786016467 -0.31966094672679896
decision_type=2 2 2 2 2 2 2 2 2 2 2 2 2 2 2 2 2 2 2 2 2 2 2 2 2 2 2 2 2 2 2 2 2 2 2 2 2 2 2 2 2 2 2 2 2 2 2 2 2 2 2 2 2 2 2 2 2 2 2 2 2 2 2 2 2 2 2 2 2 2 2 2 2 2 2 2 2 2 2 2 2 2 2 2 2 2 2 2 2 2 2 2 2 2 2 2 2 2 2 2 2 2 2 2 2 2 2 2 2 2 2
left_child=1 2 8 6 14 26 85 18 65 44 11 19 13 16 55 49 17 -6 24 59 50 47 -23 36 56 48 -3 28 40 -15 84 37 33 -12 58 -13 62 68 45 -27 94 -30 43 107 -10 -14 70 110 80 90 51 -9 -45 -34 81 -2 -8 -48 -20 -11 -19 66 -21 -54 -59 -1 -61 108 -5 -67 -42 -63 -33 -17 -65 76 83 -38 -52 82 -26 105 -57 -47 -31 -4 99 88 -85 -28 -16 -44 -66 -62 -7 106 -37 -76 -64 100 102 -102 -87 -103 -58 -29 -83 -18 -25 -43 -22
right_child=4 5 3 31 12 27 7 20 9 10 32 35 38 29 15 73 42 60 34 23 21 22 -24 67 25 39 89 54 41 30 -32 72 53 -35 -36 96 77 -39 -40 -41 46 109 91 52 -46 75 57 -49 -50 -51 78 -53 63 -55 -56 79 104 64 -60 61 93 71 98 74 92 69 -68 -69 -70 -71 -72 -73 -74 -75 97 -77 -78 -79 -80 -81 -82 95 -84 87 -86 86 -88 -89 -90 -91 -92 -93 -94 -95 -96 -97 -98 -99 -100 -101 101 103 -104 -105 -106 -107 -108 -109 -110 -111 -112
leaf_value=0.0186124440457891 0.031129064305092803 -0.13356085538864135 0.0056811884916708648 0.047435305233706128 0.020575590319695733 -0.0072698047110701311 -0.033733370108529927 -0.012949878382161748 -0.10368821918964387 -0.0010507107712328435 -0.021111775809863155 -0.11325525672812212 0.034404804025377544 0.072592159541877546 -0.042853621321339769 0.0016340342139209256 0.038186618685722352 0.046858229224137432 0.0099167794622769326 -0.052856678329408172 0.031658586190671342 -0.019501236183842755 0.014919156586152636 -0.011417892155134016 -0.029954280417699083 -0.050384099900195038 -0.050863080678714645 -0.022379917522956587 -0.080481839712177011 0.015754014540177125 0.066030387154647291 0.022020361628105393 -0.033635110725452631 0.0049461728067784439 -0.025818174366767588 -0.078745040297508243 -0.05142566925949521 0.056150078663119565 0.044846987775687519 -0.023507667550953425 -0.056446246995079913 -0.061329078951547315 0.030051526387758327 -0.024721285561099648 -0.058436244048855529 -0.01738074856499831 -0.019229583843914141 0.010235469385652859 0.011686968311754078 -0.018055764581684185 -0.043378942310810083 0.01350413437154311 0.024467406314062447 -0.012796157551929355 -0.0010395160938302677 -0.016001830995082855 -0.053251522779464724 -0.040126147345314188 -0.018577796438088021 -0.023470105824841037 0.063109270870685574 -0.010628171111505057 -0.060621859268708667 0.013854895750548513 -0.035329469458924401 0.013138974391456157 -0.054121674361981842 -0.042823913395404818 0.034070504922830057 -0.025856360824157792 -0.03666097814666814 -0.025596764268754402 -0.004141368189205726 0.017034661464111988 0.0098197253082286245 0.018668514544454715 -0.021497828707098963 -0.019898790282507739 -0.01006497283681081 0.021989789307117466 -0.010017718489592275 -0.02463188722998981 0.015446702856570483 0.0029235662257720142 -0.011901104721156033 0.017039648597331151 0.010833043910177618 -0.0030509307817555963 0.027222433473382681 -0.082963185012340554 -0.066614254514376331 0.047220166413872333 -0.013667331315467462 0.048626496911048894 -0.022675321344286205 -0.021015594405337023 -0.052872777190701714 -0.012548867863370106 -0.098595783898704936 0.026258668493003002 0.010232776248389308 0.023570744123842038 0.029111747936375682 0.015125497417376106 -0.079360220362158396 -0.0079717716622737158 -0.034375470396011104 0.022659098247199187 -0.03200008779425513 -0.047611921564454124 0.044547166878526862
leaf_weight=84 131 44 28 87 157 50 14.999999999999998 152 61 34 259 37 27 221 30 157 34 126 112 14.999999999999998 48 101 251 44 25 112 17 57 55 11.999999999999998 55 66 189 169 64 21 26 161 28 81 61 42 131 14.999999999999998 21 10.999999999999998 82 33 42 22 19.000000000000004 66 37 51 29 14.000000000000002 20 122 17 36 199 96 9.9999999999999982 41 17 13.000000000000002 18 19 226 10.999999999999998 57 78 17 52 9.9999999999999982 23 24 13.999999999999998 11.999999999999998 24 59 82 10.999999999999998 20 21 45 57 29 20 23 29 26 33 49 31 77 28 31 37 171 84 139 123 112 33 30 123 41 9.9999999999999982 125 76
leaf_count=84 131 44 28 87 157 50 15 152 61 34 259 37 27 221 30 157 34 126 112 15 48 101 251 44 25 112 17 57 55 12 55 66 189 169 64 21 26 161 28 81 61 42 131 15 21 11 82 33 42 22 19 66 37 51 29 14 20 122 17 36 199 96 10 41 17 13 18 19 226 11 57 78 17 52 10 23 24 14 12 24 59 82 11 20 21 45 57 29 20 23 29 26 33 49 31 77 28 31 37 171 84 139 123 112 33 30 123 41 10 125 76
internal_value=0.000146873 -0.0107565 -0.00245821 0.0110229 0.0306047 -0.0396695 0.00326999 -0.00651358 -0.0283554 -0.0319018 -0.0276247 -0.0405046 0.0395041 0.0433834 0.00429502 -0.00886996 0.0363114 0.0455923 -0.0236603 -0.0311758 0.00662046 0.0139214 0.00501558 -0.0492525 -0.0331305 -0.0265574 -0.104905 -0.0344696 -0.0406772 0.0637295 0.0409065 0.0401531 -0.0174952 -0.010835 -0.00459786 -0.0870046 -0.0674385 0.0442203 0.013702 -0.0392837 -0.031618 -0.0589383 0.022759 0.0148133 -0.092943 0.00778647 -0.0355448 0.0337304 -0.00690815 -0.0456362 -0.00829991 -0.00491577 0.00609318 -0.0292783 -0.0238661 0.0254371 -0.0631343 -0.0299302 0.00604766 -0.0189603 0.0560111 -0.0216148 -0.0834792 0.010151 -0.034891 0.0133553 -0.0344856 -0.0232741 0.0379246 -0.00505323 -0.0472773 -0.0174462 0.0166764 0.00552864 0.0034742 0.00190287 -0.0019474 -0.0411457 -0.0312007 0.00990155 -0.0162338 -0.0256524 -0.00210258 0.00411073 -0.00167712 0.0205028 0.021062 0.00773626 0.0154406 -0.0708939 -0.0554482 0.0331756 -0.0215808 0.0604545 -0.0133704 -0.0280785 -0.065314 -0.00698921 -0.0919475 0.0219097 0.020382 0.0174966 0.0259981 0.0198773 -0.0706765 -0.0175586 -0.0306165 0.0301081 -0.0157419 -0.0514063 0.0398512
internal_weight=7050 5192 4035 2654 1858 1157 2097 1338 1381 1273 1191 523 1388 1206 470 290 897 531 580 437 758 509 352 175 387 319 84 1073 675 309 88 557 668 428 193 86 102 474 182 193 453 222 366 209 82 154 372 157 126 81 249 218 134 240 398 180 68 254 129 262 374 228 62 119 172 108 54 73 313 24 118 174 83 209 82 127 104 40 31 49 84 369 25 80 33 759 731 69 40 40 59 157 50 248 81 282 49 41 47 674 503 335 168 251 53 87 205 75 54 167 124
internal_count=7050 5192 4035 2654 1858 1157 2097 1338 1381 1273 1191 523 1388 1206 470 290 897 531 580 437 758 509 352 175 387 319 84 1073 675 309 88 557 668 428 193 86 102 474 182 193 453 222 366 209 82 154 372 157 126 81 249 218 134 240 398 180 68 254 129 262 374 228 62 119 172 108 54 73 313 24 118 174 83 209 82 127 104 40 31 49 84 369 25 80 33 759 731 69 40 40 59 157 50 248 81 282 49 41 47 674 503 335 168 251 53 87 205 75 54 167 124
is_linear=0
shrinkage=0.05


Tree=5
num_leaves=112
num_cat=0
split_feature=9 9 9 9 7 9 9 1 9 9 3 9 9 9 9 9 9 7 4 3 5 1 9 9 0 9 9 9 9 9 9 9 9 9 1 5 0 6 9 4 9 6 6 9 9 6 3 0 5 9 0 9 9 9 0 9 9 9 0 7 9 9 0 4 6 7 9 6 6 9 9 3 0 4 9 1 9 7 0 1 9 1 9 9 9 6 1 9 9 8 9 9 6 9 9 9 9 5 0 9 6 9 9 0 9 9 9 4 9 1 0
split_gain=844.895 434.071 511.303 208.632 176.462 130.267 123.678 123.56 71.3514 108.62 67.8404 60.4085 75.1072 51.302 42.3144 67.6694 39.2477 53.1181 36.4804 33.3455 27.1857 26.8209 23.7376 41.0993 23.3339 22.2525 31.4198 20.4777 19.4558 25.4739 16.1758 27.9696 15.457 14.4953 19.9365 14.0835 13.5618 12.8891 12.6219 12.5297 12.4495 12.3753 11.2074 9.08264 8.30822 7.75906 7.71432 7.65729 7.61171 7.29208 7.17608 6.69847 6.67182 6.16162 6.00368 5.94959 5.41695 5.36382 5.10194 4.91339 4.72137 4.66685 4.22031 4.53398 4.20177 3.96164 3.89438 3.8062 3.77436 3.52509 4.02135 3.96148 3.47452 3.32216 3.17773 3.11936 3.09559 3.05653 3.7134 3.0011 2.98011 2.87636 2.70307 2.66311 6.69068 2.31361 3.46953 2.2347 2.43964 1.94884 1.92384 1.84908 1.83279 1.82662 3.06929 2.65012 2.19674 1.76057 1.74198 1.54961 1.54306 1.52282 1.44277 1.4177 1.3372 1.30009 1.19436 1.18313 1.18155 1.49038 1.17499
threshold=0.82694086432456981 0.26118339598178869 -1.0429430603981016 -0.01348631316795945 0.54746168851852428 0.3024504035711289 -0.67153990268707264 1.0000000180025095e-35 -1.6757040023803709 -1.6344369649887083 1.9201549887657168 -1.373079180717468 -1.4143462181091306 0.90947490930557262 1.2675660848617556 1.3075019121170046 -0.63027289509773243 0.41377100348472601 -0.13390543684363362 -1.0320318043231962 -1.2338887453079221 0.1524230241775513 0.63436147570610057 0.52254116535186779 0.30122427642345434 1.5338048934936526 1.102054297924042 0.21991638094186786 -1.1667441129684446 -1.249278128147125 1.6403004527091982 1.7068601846694949 -1.3868348598480222 1.6935482025146487 0.41595189273357397 -1.2338887453079221 0.25791636854410177 0.038097223732620485 0.5500524938106538 -0.57167378067970265 -0.23978930711746213 0.10028097406029703 -0.27283042669296259 -0.13329377770423886 1.1708326339721682 -0.45938761532306666 -0.18854984268546102 0.30122427642345434 0.24794243276119235 -1.5519028902053831 0.36618536710739141 1.4406213760375979 -1.5243915915489195 -1.0704543590545652 0.30122427642345434 0.7994295358657838 0.93698623776435863 -0.34628482162952418 0.25791636854410177 1.1156507730484011 1.4539332389831545 -1.6894596219062803 0.30122427642345434 1.1118367314338686 -1.7030923366546629 1.0655161142349245 0.44000713527202612 0.53557908535003673 0.16246472299098971 -1.5106359124183653 -1.4556132555007932 -1.7349367737770078 0.25791636854410177 -0.10012559592723845 1.1433213353157046 1.0000000180025095e-35 0.68938416242599498 0.71457675099372875 0.23626267164945605 1.4700673818588259 0.027336971834301952 0.67948076128959667 -0.61651721596717823 1.4139974117279055 1.3873735666275027 1.1574285030364992 0.67948076128959667 -1.0291873812675474 -0.71280694007873524 0.92098850011825573 1.5204929709434511 1.102054297924042 1.2196152210235598 -0.78158527612686146 -0.94665333628654469 -0.89163067936897267 -0.83660796284675587 -0.43123023211956019 0.17130158096551898 -1.0154317021369932 -1.2677941322326658 -0.41284452378749842 1.6802362799644472 0.1279941909015179 0.89571923017501842 0.41249577701091772 0.27493907511234289 -0.032564855180680745 0.7719181776046754 -0.63816359639167775 0.19295527786016467
decision_type=2 2 2 2 2 2 2 2 2 2 2 2 2 2 2 2 2 2 2 2 2 2 2 2 2 2 2 2 2 2 2 2 2 2 2 2 2 2 2 2 2 2 2 2 2 2 2 2 2 2 2 2 2 2 2 2 2 2 2 2 2 2 2 2 2 2 2 2 2 2 2 2 2 2 2 2 2 2 2 2 2 2 2 2 2 2 2 2 2 2 2 2 2 2 2 2 2 2 2 2 2 2 2 2 2 2 2 2 2 2 2
left_child=1 2 8 6 14 24 87 16 61 50 13 12 18 104 44 47 39 35 64 49 -9 36 23 41 106 26 56 37 29 -13 -27 -32 72 34 91 82 43 80 -25 -8 58 97 57 45 74 -22 75 -16 79 -20 -10 83 -51 -30 65 76 -15 -23 -19 -56 85 107 77 -64 -11 -38 105 -68 -29 71 -71 -66 -14 -63 -2 -21 -24 81 -79 -43 -5 -36 -18 84 -17 -28 -87 -4 93 -60 -62 -12 -58 94 99 103 -97 -7 -69 -89 -72 -37 -65 -96 -6 -50 -3 -1 109 -78 -40
right_child=4 5 3 27 10 22 7 20 9 11 33 28 32 25 15 51 17 40 19 46 21 42 55 38 -26 30 60 68 53 -31 31 -33 -34 -35 62 101 54 -39 110 -41 -42 48 -44 -45 -46 -47 -48 -49 66 52 -52 -53 -54 -55 59 -57 92 -59 89 -61 90 73 63 102 69 -67 67 98 -70 70 100 -73 -74 -75 -76 -77 108 78 -80 -81 -82 -83 -84 -85 -86 86 -88 88 -90 -91 -92 -93 -94 -95 95 96 -98 -99 -100 -101 -102 -103 -104 -105 -106 -107 -108 -109 -110 -111 -112
leaf_value=0.010414072219282389 0.018753620351736361 -0.053924932725289289 0.0051040664839092642 0.044152291100702172 0.01753938150578651 -0.0086338600063962604 -0.017937626140192151 -0.011772093245597096 -0.096972124477227528 -0.0014805120910750702 0.047870331133405372 -0.020304747176928279 -0.077338261902332311 0.037486034234364828 -0.054932128258471227 0.0016206229600434531 -0.028770031513912338 -0.049272291625247287 -0.031312008388340473 -0.033018751040152797 0.0051555956666095139 0.0062070042515794434 -0.0182304067557977 -0.076873898203090096 -0.13163444049218123 0.068987182766892183 0.028656385242938998 0.02079332285758221 -0.031762334961799824 0.0048844511264606438 -0.0049422478691364333 0.061692075583399564 -0.049512232343355819 0.047173863829988422 -0.0053221914138143452 0.010999652258771704 0.0129045745455905 0.053209909433271835 -0.058146405443549154 -0.065288458558229304 -0.022365947407321868 -0.05132108869617933 0.014051373099408499 0.011376358932466246 0.030378841498383768 -0.021305599624662649 -0.048186536294382971 -0.021048383814715119 -0.02774736357754783 -0.087945809791672908 -0.053960266047053868 0.023478422256355935 -0.043703661859035493 -0.012392569709230554 0.016082653918096591 -0.007642767669861778 0.051998212851890151 0.036691030962713832 -0.0053248142738911222 -0.014859025819459932 0.028623977841175707 0.0096731124471666069 0.036365788380304971 -0.0014673892489747344 -0.015660496428608894 0.045870318157332286 -0.038170477571919215 -0.03366113363040818 -0.003397618564353748 -0.010303083718999436 -0.022305764268401643 -0.0438951664371416 -0.11232330760648174 -0.022233715790013472 -0.014527677273144947 -0.011101920264975532 -0.01770746827773426 0.0069980800255305233 -0.020782550109403306 -0.030830766825061858 0.032074850751499157 0.020326729094315515 -0.0097130947934103117 -0.0056610710263528211 0.0216648363308715 -0.010921173478709535 0.019228671716215711 0.01355415120367603 0.011517366256426883 -0.033214170995511508 0.04483187126702276 0.027595810074773099 0.062590335986830975 0.026182602461712026 0.0017011385048843093 0.024918271918539649 0.01450611928460795 -0.027820835510889694 -0.013391062547452749 0.02722833025540021 -0.043260405336817104 -0.0071377049683808138 0.01651698556893012 0.013916215555141926 0.030021553460893958 -0.015076850469452903 -0.08116115052253009 0.023197828266355729 -0.035406758184315733 -0.029159609180688856 -0.044900635894665052
leaf_weight=35 12.000000000000002 15.999999999999998 27 80 137 69 19 148 59 31 23 245 27 59 52 163 27 101 10.999999999999998 26 38 17 111 58 33 214 19 65 198 169 23 48 29 32 25 132 18 163 39 64 146 72 204 47 161 98 36 27 37 52 17 54 13.999999999999998 54 35 56 218 115 10.000000000000002 19 96 17.000000000000004 13.999999999999998 32 23 20 126 17 21 94 70 31 30 13.999999999999998 14.999999999999998 45 45 17 37 32 225 18 61 53 55 14.999999999999998 23 28 80 18 28 35 98 143 35 107 108 13.999999999999998 32 140 10.999999999999998 11.999999999999998 15.999999999999998 75 28 56 31 44 60 124 120
leaf_count=35 12 16 27 80 137 69 19 148 59 31 23 245 27 59 52 163 27 101 11 26 38 17 111 58 33 214 19 65 198 169 23 48 29 32 25 132 18 163 39 64 146 72 204 47 161 98 36 27 37 52 17 54 14 54 35 56 218 115 10 19 96 17 14 32 23 20 126 17 21 94 70 31 30 14 15 45 45 17 37 32 225 18 61 53 55 15 23 28 80 18 28 35 98 143 35 107 108 14 32 140 11 12 16 75 28 56 31 44 60 124 120
internal_value=6.55817e-05 -0.0102944 -0.00256116 0.0103128 0.0290882 -0.0374024 0.00308112 -0.00594134 -0.0271996 -0.0305392 0.0396961 -0.026806 -0.0393971 0.045479 0.00657099 -0.00255834 -0.0230851 -0.0177969 -0.0309821 -0.0479866 0.00739804 0.0120532 -0.0327277 -0.0384683 -0.0986352 0.0504825 0.0444699 0.0375663 -0.016742 -0.0100352 0.0620159 0.0403375 -0.0819869 0.0162439 0.0114874 -0.000161413 0.000464267 0.041688 -0.0563963 -0.0547917 -0.0326203 -0.0298131 0.0215087 -0.00740283 0.0260991 -0.0139284 -0.0294916 -0.0437595 -0.033708 -0.0729798 -0.0881768 0.00756021 -0.0793535 -0.0276771 0.0160243 -0.0229137 0.0527479 0.0328412 -0.0439647 0.00512355 0.0271238 0.0113461 0.00226194 0.0123469 -0.0188103 0.0309862 -0.0290306 -0.0334969 0.0149151 -0.0211397 -0.0175092 -0.0323727 -0.0973706 -0.00498093 0.000405508 -0.0194749 -0.0253992 -0.00424429 -0.0120686 -0.04537 0.0353766 0.00563252 -0.0158177 0.00431366 0.00675348 0.0148255 0.00735255 0.0194484 0.0199814 -0.0237808 0.0326132 0.0363108 0.0554702 0.0210263 0.0194807 0.0165375 0.0197794 -0.0121629 -0.0209561 0.025043 -0.0256443 0.0094494 0.00474214 0.0100799 0.0198257 -0.0203594 -0.0732058 0.0177351 -0.0287796 -0.0262323 -0.0484927
internal_weight=7023 5176 4028 2646 1847 1148 2092 1349 1382 1272 1255 1196 530 1006 592 404 590 507 444 184 759 611 1068 672 80 841 556 554 666 414 285 71 86 249 217 232 275 468 217 83 275 455 336 183 188 136 107 79 372 77 76 325 66 252 92 396 375 132 129 54 181 110 159 62 260 38 268 175 86 229 175 54 57 31 27 71 340 97 54 104 305 43 88 271 218 57 38 743 716 28 124 58 316 636 493 325 215 83 49 168 81 144 48 110 165 93 47 79 229 169 159
internal_count=7023 5176 4028 2646 1847 1148 2092 1349 1382 1272 1255 1196 530 1006 592 404 590 507 444 184 759 611 1068 672 80 841 556 554 666 414 285 71 86 249 217 232 275 468 217 83 275 455 336 183 188 136 107 79 372 77 76 325 66 252 92 396 375 132 129 54 181 110 159 62 260 38 268 175 86 229 175 54 57 31 27 71 340 97 54 104 305 43 88 271 218 57 38 743 716 28 124 58 316 636 493 325 215 83 49 168 81 144 48 110 165 93 47 79 229 169 159
is_linear=0
shrinkage=0.05


Tree=6
num_leaves=112
num_cat=0
split_feature=9 9 9 9 7 9 9 1 9 9 3 9 9 9 9 9 4 4 3 9 9 9 9 9 9 9 9 2 9 5 4 9 2 4 9 1 9 6 6 9 9 9 2 9 9 6 6 2 9 7 7 7 3 9 9 8 9 9 6 2 2 3 3 6 6 9 9 9 9 6 3 4 1 9 9 9 1 9 9 9 2 9 9 3 2 9 1 9 3 5 3 9 9 8 9 9 2 2 9 9 3 9 6 9 9 9 2 9 7 9 2
split_gain=751.907 404.461 464.008 198.71 157.662 130.52 113.534 101.23 68.1348 108.036 61.946 49.4581 47.001 67.5056 41.3052 57.4131 35.9006 33.1285 28.2454 24.7487 29.0004 25.5454 22.5963 37.8571 22.145 28.9238 18.471 18.0882 17.6302 22.9006 16.7473 14.8973 13.6578 12.9296 12.5589 17.8259 11.5041 11.1747 10.7425 10.1198 21.6082 9.77233 8.25904 7.83419 7.54655 7.34055 7.03675 6.37315 5.92956 5.57197 5.37315 10.7826 5.32432 5.11654 5.09086 4.97016 4.72804 4.68805 4.21054 4.14811 5.08278 3.83313 3.9687 3.67729 3.53526 3.4064 3.28201 3.27166 3.03304 2.99895 2.98749 2.97136 2.95253 2.94936 2.91793 2.61029 2.58657 2.55857 2.41818 4.66884 2.28093 2.23091 2.3077 2.17524 2.14832 2.12109 2.01566 1.8855 1.87896 1.72293 1.72131 1.65482 1.60043 1.57397 1.52655 1.43837 1.42925 1.47554 1.41235 2.7155 1.76514 1.52187 1.38136 1.35352 1.34311 4.76515 2.15813 1.3334 1.32804 1.32258 1.31945
threshold=0.82694086432456981 0.26118339598178869 -1.0429430603981016 -0.01348631316795945 0.54746168851852428 0.3024504035711289 -0.67153990268707264 1.0000000180025095e-35 -1.6757040023803709 -1.6344369649887083 1.9201549887657168 0.90947490930557262 -1.373079180717468 -1.4143462181091306 1.2675660848617556 1.3075019121170046 -1.0432220101356504 -0.13390543684363362 -1.0320318043231962 -0.35959677398204798 -0.27972511947154993 -0.13329377770423886 0.63436147570610057 0.52254116535186779 1.5338048934936526 1.102054297924042 0.21991638094186786 0.56712579727172863 -0.63027289509773243 -0.61645966768264759 -0.57167378067970265 -0.41284452378749842 0.089323412626981749 -0.57167378067970265 1.6935482025146487 0.41595189273357397 0.5500524938106538 0.038097223732620485 0.038097223732620485 1.6403004527091982 1.7068601846694949 -0.23978930711746213 0.26306973397731787 -0.33297289907932276 1.1708326339721682 -1.7652760744094846 -1.0190532207489011 0.78430870175361644 -1.1667441129684446 -1.5247541666030882 0.46390463411808019 -1.2740830183029173 -0.18854984268546102 1.4539332389831545 0.7994295358657838 -0.62909206748008717 0.97825327515602123 1.4406213760375979 0.34902189671993261 0.87118187546730053 1.0000000180025095e-35 -0.46971046924591059 -1.4537760615348814 -1.7030923366546629 0.16246472299098971 -1.5106359124183653 -1.7032153010368345 -1.4556132555007932 -1.0566987395286558 1.1574285030364992 -1.5943564176559446 -0.10012559592723845 1.0000000180025095e-35 -1.249278128147125 0.68938416242599498 0.041092643514275558 0.67948076128959667 1.1433213353157046 -1.2630338072776792 -1.1667441129684446 0.089323412626981749 -1.0291873812675474 -0.69905126094818104 0.23319111764431003 0.7408721148967744 1.5204929709434511 0.67948076128959667 0.46751846373081213 1.0766730904579165 0.74188566207885753 -0.61029079556465138 -1.2767894864082334 1.102054297924042 -1.3745844960212705 -0.61651721596717823 -0.34628482162952418 -0.62738069891929615 0.67571672797203075 -0.96040901541709889 -0.89163067936897267 -0.61029079556465138 -0.93289768695831288 1.0000000180025095e-35 -1.3868348598480222 1.4139974117279055 1.3873735666275027 0.65399897098541271 0.89571923017501842 -0.93985486030578602 0.12362667545676233 0.84946307539939891
decision_type=2 2 2 2 2 2 2 2 2 2 2 2 2 2 2 2 2 2 2 2 2 2 2 2 2 2 2 2 2 2 2 2 2 2 2 2 2 2 2 2 2 2 2 2 2 2 2 2 2 2 2 2 2 2 2 2 2 2 2 2 2 2 2 2 2 2 2 2 2 2 2 2 2 2 2 2 2 2 2 2 2 2 2 2 2 2 2 2 2 2 2 2 2 2 2 2 2 2 2 2 2 2 2 2 2 2 2 2 2 2 2
left_child=1 2 8 6 14 27 81 16 66 45 11 107 13 17 44 47 31 63 42 50 43 83 23 38 25 56 37 -3 33 49 48 55 -15 -18 35 92 -25 75 -7 -26 -41 -31 -19 95 77 -10 78 -16 73 94 51 -9 72 88 74 -8 -13 69 61 60 86 62 -40 -11 -28 70 -1 -67 -48 -27 -65 -68 -20 -14 -24 -5 -71 -2 91 -80 -33 -4 98 -22 -52 -59 -37 -63 104 -60 -91 -32 -12 -69 -30 -21 -35 -98 100 101 -83 -100 -23 -34 105 -17 -106 -6 -51 -39 -76
right_child=4 5 3 26 10 22 7 19 9 12 34 24 30 32 15 53 28 18 52 20 21 102 54 36 39 57 64 -29 29 41 46 80 103 96 -36 59 -38 109 58 40 -42 -43 -44 -45 -46 -47 68 -49 -50 108 84 -53 -54 -55 -56 -57 -58 85 89 -61 -62 87 -64 65 -66 67 71 93 -70 76 -72 -73 -74 -75 110 -77 -78 -79 79 -81 -82 82 -84 -85 -86 -87 -88 -89 -90 90 -92 -93 -94 -95 -96 -97 97 -99 99 -101 -102 -103 -104 -105 106 -107 -108 -109 -110 -111 -112
leaf_value=0.020740782788821632 0.018431965129760402 -0.12130724063941412 0.0046788878397395215 0.040721019887709403 0.016425985726199941 -0.0054992178435592605 -0.023661254981363362 -0.011647244894739566 -0.052737074380829224 -0.0016854421269860778 0.044462358593940737 0.04229059412011079 -0.016485927999019625 -0.10287828309195382 -0.02824097327852192 0.0030463115748261774 -0.010449792915845619 -0.04846570787419166 -0.032017251064202619 0.0062120231633473726 -0.01939931821883813 0.0098999413797476645 -0.01742092644404988 -0.07320709400257823 0.065468554919314498 0.026458157755826651 0.020126314845049023 -0.069695144705474374 -0.026212651034196219 -0.044754015809815861 -0.01810533237394862 -0.0099959462015345047 -0.070661897886367078 -0.041966434009373194 0.044359198119491343 -0.0091454891612132404 -0.046384245703040172 0.035346498437549757 -0.017117845805154908 -0.0032922743074595934 0.059179672956466679 -0.021425913833081723 -0.085317716114223008 0.038679220395929678 0.029350154545226711 -0.092736364528536799 -0.031585291231460609 -0.057978092133998876 -0.031912110533033104 -0.0010439762296820326 -0.038551693804123821 0.012150918471493893 -0.044034089233194081 0.025366325608708641 -0.0079290226512288651 0.011865265306374623 0.055185948385132688 0.026549974090863612 -0.011504509106453044 0.012722611613779529 -0.015619212925434112 -0.026510323506041336 -0.04450193635367472 -0.019723145745228977 -0.0032859437506307259 -0.0099132401075693651 0.0093913852513312964 -0.037208313867449765 -0.0066349391142527265 -0.012967410992132498 -0.044773833105421587 -0.018767670848562071 -0.010535632767000824 0.0053139400755238637 -0.029165443283272908 0.030442540891362592 0.017059286461713223 -0.01172394188504447 -0.0013879266500501245 -0.018996573164024286 -0.02701124190650088 0.014139419822539721 0.0086442237561744333 0.0030455096409871029 -0.0098327308463362559 0.043278732470103672 0.012513726393286234 -0.046671322782834375 -0.0058627897971554807 -0.017750658447805205 -0.03404500500575916 -0.031524589246716993 0.025683237207787382 -0.019439471084902536 -0.010347394642942563 0.02270615531929902 -0.071951021597935608 -0.041359666802666409 0.019047293847856615 0.020694781625904095 0.027807732721169792 0.0079766561794916493 0.017693439330540451 -0.047002729560647695 0.0086692018307718069 0.020925921243879032 -0.0094219521473860382 0.028299697767943145 0.015432414824241087 0.052485640306178839 -0.017007575416937471
leaf_weight=55 11.000000000000002 41 29 110 141 47 9.9999999999999982 148 20 33 24 139 17 34 51 127 15.999999999999998 34 27 27 88 143 116 58 212 18 65 39 26 114 190 37 20 14.999999999999998 31 13.999999999999998 171 22 17 19 49 79 39 101 162 63 140 31 12.999999999999998 34 16.000000000000004 69 34 32 58 98 224 106 31 55 49 144 108 31 21 100 42 17 13.999999999999998 15.000000000000002 22 10.999999999999998 41 112 191 210 11.999999999999998 15.999999999999998 65 89 46 35 52 11.999999999999998 11.999999999999998 27 38 13.999999999999998 37 37 36 28 34 66 40 27 38 9.9999999999999982 51 383 104 84 101 27 33 52 31 31 18 145 31
leaf_count=55 11 41 29 110 141 47 10 148 20 33 24 139 17 34 51 127 16 34 27 27 88 143 116 58 212 18 65 39 26 114 190 37 20 15 31 14 171 22 17 19 49 79 39 101 162 63 140 31 13 34 16 69 34 32 58 98 224 106 31 55 49 144 108 31 21 100 42 17 14 15 22 11 41 112 191 210 12 16 65 89 46 35 52 12 12 27 38 14 37 37 36 28 34 66 40 27 38 10 51 383 104 84 101 27 33 52 31 31 18 145 31
internal_value=-1.45959e-05 -0.00976475 -0.00230958 0.00999886 0.0275983 -0.036052 0.00275759 -0.00599619 -0.0257428 -0.0289694 0.0376881 0.0432426 -0.0250848 -0.0362768 0.00614499 -0.00308171 -0.0216172 -0.0284963 -0.0453931 0.00621515 0.0125967 0.00447355 -0.0313364 -0.0369977 0.0483517 0.0422642 0.0360197 -0.0973174 -0.0302973 -0.0247952 -0.0162477 -0.00382806 -0.0780575 -0.0513769 0.0150908 0.0106643 -0.0534666 0.0397936 -0.028205 0.0599215 0.0419295 -0.0353649 -0.0690407 0.0304807 0.0252945 -0.0838405 -0.0203542 -0.0400461 -0.00100029 -0.00735553 -0.00678081 -0.00405906 -0.0279628 0.00673021 -0.0217886 0.00838888 0.0503778 0.0255288 -0.0309413 0.00179846 -0.00421674 -0.0341651 -0.0409431 -0.0173766 0.0144373 -0.0195543 0.0122945 -0.01616 -0.0293745 0.0112391 -0.0307581 0.00330773 -0.0194055 0.00233637 -0.0241364 0.0340916 0.000510434 0.000781306 -0.0165513 -0.0116213 -0.0196354 0.0184609 0.0190172 -0.0167025 -0.027007 0.0302437 0.00661987 -0.028579 0.00451767 -0.021927 -0.0261377 -0.019965 0.0340758 -0.0234785 -0.0168953 0.014722 -0.0614455 -0.066552 0.0198239 0.0185265 0.0244917 0.0122682 0.013185 -0.0583328 0.00611579 0.00832779 -0.00010384 0.0187172 0.00484296 0.0504516 -0.0275516
internal_weight=6980 5159 4020 2636 1821 1139 2063 1325 1384 1276 1238 993 1193 525 583 394 581 444 175 744 499 344 1059 663 821 541 573 80 390 311 668 191 81 79 245 214 229 487 434 280 68 193 73 155 189 83 526 82 142 118 245 217 102 312 396 108 363 178 387 156 101 283 125 269 86 236 108 183 154 45 53 53 68 129 338 320 27 27 372 154 83 738 709 100 28 133 52 158 280 104 73 218 58 83 66 54 63 48 657 518 139 135 244 47 243 179 64 172 52 167 222
internal_count=6980 5159 4020 2636 1821 1139 2063 1325 1384 1276 1238 993 1193 525 583 394 581 444 175 744 499 344 1059 663 821 541 573 80 390 311 668 191 81 79 245 214 229 487 434 280 68 193 73 155 189 83 526 82 142 118 245 217 102 312 396 108 363 178 387 156 101 283 125 269 86 236 108 183 154 45 53 53 68 129 338 320 27 27 372 154 83 738 709 100 28 133 52 158 280 104 73 218 58 83 66 54 63 48 657 518 139 135 244 47 243 179 64 172 52 167 222
is_linear=0
shrinkage=0.05


Tree=7
num_leaves=112
num_cat=0
split_feature=9 9 9 9 7 9 9 1 9 9 1 9 9 9 9 0 9 9 4 6 9 9 9 9 7 9 9 0 3 9 9 9 9 9 6 9 9 6 9 9 9 6 9 1 9 7 9 0 7 7 9 0 9 9 9 6 9 1 9 9 9 9 9 9 1 9 9 6 4 6 4 9 9 6 1 5 6 6 9 3 4 3 9 9 9 0 9 9 9 0 9 6 3 3 9 0 9 9 9 9 0 0 9 9 9 9 9 1 9 9 9
split_gain=687.325 369.298 409.07 177.775 144.671 116.194 104.907 90.3773 60.088 94.6308 52.8975 40.553 59.6996 38.2985 42.2637 32.3143 31.5592 61.2498 26.6297 32.2106 25.2154 26.4139 23.813 23.2443 21.498 20.7018 33.6615 19.6405 18.0136 16.2407 16.2144 20.3424 15.9305 14.436 13.4694 13.4602 12.3418 10.8014 10.4524 10.4234 9.41901 9.25648 9.13625 7.81357 7.49643 6.65483 6.56302 6.33449 5.87344 9.28991 5.73524 7.54527 4.45574 4.38151 4.27531 4.03906 4.02669 5.41 3.9887 3.75699 3.64763 3.63692 3.28708 3.26107 3.06212 3.03956 8.40103 2.97712 2.95478 2.8051 2.7619 2.61003 2.54888 6.07599 4.05628 5.09558 3.54867 2.53063 2.43264 2.111 2.05441 2.04244 1.96859 1.95342 2.56587 1.92327 1.77593 2.33117 1.77296 1.63043 1.62463 1.61522 1.5986 1.53956 1.47063 1.46059 1.68462 1.35271 1.3491 1.40395 1.3152 1.29638 1.2805 1.96975 1.27725 4.70211 1.76345 1.27684 1.27444 1.47615 1.20664
threshold=0.82694086432456981 0.26118339598178869 -1.0429430603981016 -0.01348631316795945 0.56417387723922741 0.3024504035711289 -0.67153990268707264 1.0000000180025095e-35 -1.6757040023803709 -1.6206812858581541 1.2065384984016421 -1.373079180717468 -1.4143462181091306 1.102054297924042 0.92323055863380443 0.30122427642345434 1.2675660848617556 1.3075019121170046 -0.13390543684363362 -1.5787218809127805 -0.35959677398204798 -0.27972511947154993 -0.13329377770423886 -0.63027289509773243 0.29679055511951452 0.63436147570610057 0.52254116535186779 0.30122427642345434 1.4984139800071719 1.5204929709434511 -1.1667441129684446 -1.249278128147125 0.21991638094186786 -1.5243915915489195 -0.39720386266708368 1.6935482025146487 -1.3868348598480222 0.038097223732620485 -0.25310124456882471 0.5500524938106538 1.4539332389831545 0.038097223732620485 1.1708326339721682 0.41595189273357397 -0.33297289907932276 -1.2907941937446592 1.5204929709434511 0.30122427642345434 0.46390463411808019 -1.2740830183029173 -1.6344369649887083 0.32287797331810003 -0.65778425335884083 0.81318518519401561 -1.0704543590545652 -1.6409085988998411 0.39874011278152471 1.2065384984016421 -1.6894596219062803 -1.5106359124183653 0.44000713527202612 -1.4556132555007932 0.89571923017501842 -1.5106359124183653 0.41595189273357397 1.6403004527091982 1.6935482025146487 0.16246472299098971 -0.63923451304435719 0.53557908535003673 -0.10012559592723845 0.027336971834301952 1.6802362799644472 1.5927295684814455 0.67948076128959667 1.6371585130691531 1.2196152210235598 1.2196152210235598 -0.61651721596717823 -1.8755170702934263 -0.80744788050651539 -0.32913015782833094 0.67562848329544078 -1.0154317021369932 -0.96040901541709889 0.23626267164945605 -0.89163067936897267 -0.71280694007873524 0.3162060827016831 0.34453167021274572 -0.93289768695831288 -1.2677941322326658 1.0766730904579165 1.0000000180025095e-35 0.12362667545676233 0.27957032620906835 -0.14660571515560147 -0.34628482162952418 0.7994295358657838 0.7719181776046754 0.17130158096551898 0.19295527786016467 -0.78158527612686146 -0.83660796284675587 1.4139974117279055 1.3873735666275027 1.4406213760375979 0.94300961494445812 -0.11998183652758597 -0.080046016722917543 0.66187280416488659
decision_type=2 2 2 2 2 2 2 2 2 2 2 2 2 2 2 2 2 2 2 2 2 2 2 2 2 2 2 2 2 2 2 2 2 2 2 2 2 2 2 2 2 2 2 2 2 2 2 2 2 2 2 2 2 2 2 2 2 2 2 2 2 2 2 2 2 2 2 2 2 2 2 2 2 2 2 2 2 2 2 2 2 2 2 2 2 2 2 2 2 2 2 2 2 2 2 2 2 2 2 2 2 2 2 2 2 2 2 2 2 2 2
left_child=1 2 8 6 16 27 83 15 58 50 13 12 18 14 62 23 42 47 55 81 48 44 95 52 45 26 37 -3 46 -12 31 -13 41 89 68 43 85 -7 -26 -28 92 71 64 -30 97 78 -15 -18 49 -9 51 -10 -8 82 -32 -11 57 -39 -1 79 -58 -61 -6 -35 -2 -31 -67 -34 -17 -62 -60 -5 73 74 76 107 -45 -16 -25 -57 -50 -20 110 -4 -85 -14 90 102 -59 -21 -86 -63 104 -54 -43 96 -23 -22 99 -84 -71 -41 103 -88 105 -19 -106 -76 -24 -110 -27
right_child=4 5 3 32 10 25 7 20 9 11 29 30 36 28 77 34 17 40 19 33 21 22 108 24 38 53 39 -29 35 65 54 -33 67 63 -36 -37 -38 56 -40 101 -42 94 -44 72 -46 -47 -48 -49 80 -51 -52 -53 93 -55 -56 59 60 88 70 61 69 91 -64 -65 -66 66 -68 -69 -70 100 -72 -73 -74 -75 75 -77 -78 -79 -80 -81 -82 -83 98 84 86 -87 87 -89 -90 -91 -92 -93 -94 -95 -96 -97 -98 -99 -100 -101 -102 -103 -104 -105 106 -107 -108 -109 109 -111 -112
leaf_value=0.016236287837519365 0.020636764199783407 -0.068248435180142245 0.008447822324294401 0.040979785453982474 0.015750035712302761 -0.0051952046196674928 -0.028784064762294295 -0.010793038449274043 -0.091894244526823377 -0.0024907331399748379 0.027397112559308025 -0.01784140825215727 -0.069484731803337738 0.022459530316431216 0.045331980241643782 0.0087047617595057639 -0.050205693863056323 0.0027470207637782362 -0.0090223146315111091 -0.082221187586369732 0.0061469222698360684 -0.025451416833972448 0.0015442969995395593 -0.026651769344295775 -0.045549471906207978 -0.01890477101350653 -0.069872863693483944 -0.12029632329940797 0.023570138814986923 0.062934414335747355 -0.028396866264908269 0.0044018614932096432 0.019040016198562364 -0.046468250329295802 -0.021689844198191345 0.041931007107098905 -0.044393024742603308 -0.0462815695719139 -0.022006223459266921 -0.053242532874262609 0.027320899952341011 0.033359959840774535 0.028008098693609963 0.011205486241831548 0.036993096612748647 0.010428820641484494 0.048663329766417039 -0.019458291852580651 -0.037551374341312199 0.011138492733506221 -0.047335481750113623 -0.057937844594319665 -0.044820978244145715 -0.00091164249128529006 -0.012018421742444238 -0.01684656672878191 -0.016131110526863245 -0.03624726747473081 0.0087728448108666448 -0.0091127117006108167 -0.033904716347445962 -0.020023168909592909 0.029837052355850897 -0.014633735691507659 -0.010090364933013917 0.0072839158082691332 0.055952287658497135 -0.0035502918064594271 -0.015707062667102686 -0.030907909572124484 -0.020320317981143796 0.029740950178387949 0.015582622365198202 -0.018766871935411083 0.015236668072810228 -0.0020709029199289428 -0.016614819478127176 0.056053221504264908 -0.0085994700757568831 -0.042556758349140487 -0.010634093871340157 -0.028446294218301773 -0.022791789882307605 0.025431980917939041 0.01853210075662054 -0.10021179421194669 0.02246854836698127 0.010372757735093694 -0.019526793229136061 -0.049993964781363809 0.0075650947459507739 -0.040498791635036474 -0.0047772138700383953 -0.070310750348227369 0.050082132572101229 -0.0047436977482654833 -0.0091890256300016689 0.021855139280004161 -0.013034239296490949 -0.032464087009429932 -0.012075148592703045 -0.040517027363661799 0.024036424731427475 0.012944763366101406 -0.0051233140480083728 0.019935469293629687 0.012873342152880995 0.035084576378850374 0.019160085197451507 0.010522256529128011 -0.0058190304528190091
leaf_weight=84 10.999999999999998 52 56 81 144 51 14.999999999999998 155 47 46 50 249 23 53 256 112 53 128 47 45 29 48 23 27 93 57 57 34 50 193 191 174 58 23 66 29 29 73 102 42 53 24 163 17 104 38 48 27 18.000000000000004 69 27 38 17 27 53 14.999999999999998 76 29 17.000000000000004 99 118 68 61 13.999999999999998 24 10.999999999999998 53 19 12.999999999999998 13.999999999999998 13.999999999999998 225 26 36 21 34 31 106 61 23 12.999999999999998 19 186 112 57 28 112 76 46 10.999999999999998 87 11.999999999999998 39 34 143 21 26 27 29 57 31 123 145 117 47 57 18 15.999999999999998 85 131 27
leaf_count=84 11 52 56 81 144 51 15 155 47 46 50 249 23 53 256 112 53 128 47 45 29 48 23 27 93 57 57 34 50 193 191 174 58 23 66 29 29 73 102 42 53 24 163 17 104 38 48 27 18 69 27 38 17 27 53 15 76 29 17 99 118 68 61 14 24 11 53 19 13 14 14 225 26 36 21 34 31 106 61 23 13 19 186 112 57 28 112 76 46 11 87 12 39 34 143 21 26 27 29 57 31 123 145 117 47 57 18 16 85 131 27
internal_value=0.0002691 -0.00910883 -0.00203308 0.0095455 0.0263665 -0.0343731 0.00288046 -0.00561011 -0.0239124 -0.0270194 0.036254 -0.0227718 -0.0335025 0.0302417 0.038348 -0.0204467 0.00664462 -0.00109315 -0.0258775 -0.0419928 0.00585125 0.012434 0.00440055 -0.028735 -0.0230465 -0.0297069 -0.0350879 -0.0899717 0.0174389 0.0542706 -0.0146575 -0.00870289 0.0348094 -0.0608175 -0.00359104 0.0104044 -0.0729082 -0.0269406 -0.0334096 -0.0509694 0.00814442 0.0382439 0.0230588 0.00628285 0.0290722 -0.0068716 0.0352678 -0.0401968 -0.00689989 -0.00401786 -0.0707601 -0.0775639 -0.0556448 -0.020367 -0.0249028 -0.0160126 -0.0297856 -0.036443 0.010631 -0.0188544 -0.0255283 -0.0156631 0.0200663 -0.0351248 -0.000128276 0.0593725 0.0478282 0.0134917 0.00606142 -0.0297847 -0.00459042 0.0328397 0.00140409 -0.00105889 0.0044099 0.0119328 -0.00673419 0.0486171 -0.0143755 -0.0331002 -0.0269485 -0.0149552 -0.0218359 0.0176545 0.0183718 -0.0879572 0.0170001 0.0185686 -0.0263839 -0.076879 0.0120041 -0.0235566 0.00454555 -0.0628395 0.0478918 -0.0166623 -0.0199363 0.0139711 -0.0239414 -0.0251844 -0.0184788 -0.0440575 0.020202 0.0176801 0.00601314 0.00812163 -2.00844e-05 0.024517 0.0128074 0.013994 -0.0148166
internal_weight=7019 5164 4035 2639 1855 1129 2089 1327 1396 1281 1235 1169 502 928 567 578 620 422 422 159 749 494 334 387 321 1043 660 86 361 307 667 423 550 93 191 260 80 438 195 222 342 473 198 231 160 126 101 80 255 224 112 85 66 383 244 263 387 148 115 217 239 179 205 37 35 257 64 77 125 163 31 306 181 155 119 71 48 362 88 38 31 66 356 762 706 51 594 450 75 56 144 80 289 51 167 95 74 56 272 243 45 165 374 229 250 185 65 37 239 216 84
internal_count=7019 5164 4035 2639 1855 1129 2089 1327 1396 1281 1235 1169 502 928 567 578 620 422 422 159 749 494 334 387 321 1043 660 86 361 307 667 423 550 93 191 260 80 438 195 222 342 473 198 231 160 126 101 80 255 224 112 85 66 383 244 263 387 148 115 217 239 179 205 37 35 257 64 77 125 163 31 306 181 155 119 71 48 362 88 38 31 66 356 762 706 51 594 450 75 56 144 80 289 51 167 95 74 56 272 243 45 165 374 229 250 185 65 37 239 216 84
is_linear=0
shrinkage=0.05


end of trees

feature_importances:
Column_9=519
Column_2=72
Column_6=67
Column_0=54
Column_3=50
Column_1=39
Column_4=30
Column_7=27
Column_5=23
Column_8=7

parameters:
[boosting: gbdt]
[objective: regression]
[metric: l2]
[tree_learner: serial]
[device_type: cpu]
[data_sample_strategy: bagging]
[data: ]
[valid: ]
[num_iterations: 600]
[learning_rate: 0.05]
[num_leaves: 112]
[num_threads: 16]
[seed: 2023]
[deterministic: 0]
[force_col_wise: 0]
[force_row_wise: 0]
[histogram_pool_size: -1]
[max_depth: 20]
[min_data_in_leaf: 10]
[min_sum_hessian_in_leaf: 0.001]
[bagging_fraction: 0.9]
[pos_bagging_fraction: 1]
[neg_bagging_fraction: 1]
[bagging_freq: 1]
[bagging_seed: 26561]
[bagging_by_query: 0]
[feature_fraction: 0.85]
[feature_fraction_bynode: 1]
[feature_fraction_seed: 22040]
[extra_trees: 0]
[extra_seed: 25715]
[early_stopping_round: 0]
[early_stopping_min_delta: 0]
[first_metric_only: 0]
[max_delta_step: 0]
[lambda_l1: 0]
[lambda_l2: 1]
[linear_lambda: 0]
[min_gain_to_split: 0]
[drop_rate: 0.1]
[max_drop: 50]
[skip_drop: 0.5]
[xgboost_dart_mode: 0]
[uniform_drop: 0]
[drop_seed: 17353]
[top_rate: 0.2]
[other_rate: 0.1]
[min_data_per_group: 100]
[max_cat_threshold: 32]
[cat_l2: 10]
[cat_smooth: 10]
[max_cat_to_onehot: 4]
[top_k: 20]
[monotone_constraints: ]
[monotone_constraints_method: basic]
[monotone_penalty: 0]
[feature_contri: ]
[forcedsplits_filename: ]
[refit_decay_rate: 0.9]
[cegb_tradeoff: 1]
[cegb_penalty_split: 0]
[cegb_penalty_feature_lazy: ]
[cegb_penalty_feature_coupled: ]
[path_smooth: 0]
[interaction_constraints: ]
[verbosity: 1]
[saved_feature_importance_type: 0]
[use_quantized_grad: 0]
[num_grad_quant_bins: 4]
[quant_train_renew_leaf: 0]
[stochastic_rounding: 1]
[linear_tree: 0]
[max_bin: 255]
[max_bin_by_feature: ]
[min_data_in_bin: 3]
[bin_construct_sample_cnt: 200000]
[data_random_seed: 6644]
[is_enable_sparse: 1]
[enable_bundle: 1]
[use_missing: 1]
[zero_as_missing: 0]
[feature_pre_filter: 1]
[pre_partition: 0]
[two_round: 0]
[header: 0]
[label_column: ]
[weight_column: ]
[group_column: ]
[ignore_column: ]
[categorical_feature: ]
[forcedbins_filename: ]
[precise_float_parser: 0]
[parser_config_file: ]
[objective_seed: 2023]
[num_class: 1]
[is_unbalance: 0]
[scale_pos_weight: 1]
[sigmoid: 1]
[boost_from_average: 1]
[reg_sqrt: 0]
[alpha: 0.9]
[fair_c: 1]
[poisson_max_delta_step: 0.7]
[tweedie_variance_power: 1.5]
[lambdarank_truncation_level: 30]
[lambdarank_norm: 1]
[label_gain: ]
[lambdarank_position_bias_regularization: 0]
[eval_at: ]
[multi_error_top_k: 1]
[auc_mu_weights: ]
[num_machines: 1]
[local_listen_port: 12400]
[time_out: 120]
[machine_list_filename: ]
[machines: ]
[gpu_platform_id: -1]
[gpu_device_id: -1]
[gpu_use_dp: 0]
[num_gpu: 1]

end of parameters

pandas_categorical:null
