tree
version=v4
num_class=1
num_tree_per_iteration=1
label_index=0
max_feature_idx=9
objective=regression
feature_names=Column_0 Column_1 Column_2 Column_3 Column_4 Column_5 Column_6 Column_7 Column_8 Column_9
feature_infos=[-4.9281487464904785:0.63685661554336548] [-2.6146364212036133:3.7100627422332764] [-5.1990861892700195:1.272971510887146] [-2.2269694805145264:2.5527749061584473] [-5.5711894035339355:1.3641557693481445] [-1.9902403354644775:2.1465384960174561] [-1.982926607131958:1.6860036849975586] [-2.3018357753753662:1.4582350254058838] [-2.4405524730682373:1.9915002584457397] [-1.7305047512054443:1.7332621812820435]
tree_sizes=4800 4804 4773 5043 4901 5328 5076 5425 5587 5520 5626 5953

Tree=0
num_leaves=54
num_cat=0
split_feature=9 1 9 9 1 9 9 9 9 9 5 9 9 1 9 9 9 1 9 9 1 9 1 1 9 3 9 9 9 4 1 6 3 2 9 9 8 1 2 9 9 5 3 5 2 2 2 0 8 9 5 5 9
split_gain=3586.49 1543.58 1159.53 124.837 122.858 81.0065 90.1496 59.6064 52.4334 16.6741 10.5693 8.09995 9.9144 7.77718 6.5882 6.5431 6.47517 6.08019 4.59345 4.5163 2.9408 2.63001 3.17805 2.15143 1.95857 1.87507 1.4367 1.42887 1.26226 0.977721 0.91052 0.546218 0.455184 0.435947 0.407435 0.399718 0.394304 0.561422 0.391741 0.29194 0.25196 0.201823 0.203273 0.129531 0.0985464 0.134587 0.0756001 0.0563999 0.0447666 0.0371536 0.033357 0.0278402 0.00848109
threshold=0.5775638520717622 0.41595189273357397 -1.2767894864082334 1.4139974117279055 0.1524230241775513 -1.001676023006439 0.24742772430181506 -1.5243915915489195 -0.25310124456882471 0.5500524938106538 -1.0177885890007017 0.19240503013134005 -0.01348631316795945 -0.37463472038507456 -1.3180564641952512 -1.1804997920989988 0.64811712503433239 1.2065384984016421 1.3873735666275027 1.102054297924042 0.1524230241775513 1.1570770144462588 1.2065384984016421 1.2065384984016421 -1.4143462181091306 -1.172612130641937 0.60685011744499218 -0.79534095525741566 -1.5519028902053831 0.23630111664533618 1.0000000180025095e-35 1.530542850494385 -1.3131957650184629 0.30650527775287634 0.67562848329544078 -0.93289768695831288 0.77552661299705516 1.4700673818588259 0.45853486657142645 -1.0566987395286558 0.21991638094186786 1.3284440040588381 2.0607353448867802 1.1123438477516177 0.24135091900825503 0.84946307539939891 -0.58394512534141529 0.32287797331810003 -0.033605223521590226 -1.4968802332878111 1.9150022864341738 1.2049582004547121 -1.249278128147125
decision_type=2 2 2 2 2 2 2 2 2 2 2 2 2 2 2 2 2 2 2 2 2 2 2 2 2 2 2 2 2 2 2 2 2 2 2 2 2 2 2 2 2 2 2 2 2 2 2 2 2 2 2 2 2
left_child=2 4 7 18 13 15 8 28 10 17 27 12 -10 -2 24 52 -6 25 21 34 35 26 -23 41 32 -8 -3 -7 -1 48 -29 36 -9 -33 -18 -12 51 44 -16 -17 -13 -5 47 -27 -38 -46 -24 -43 -19 -34 -44 -25 -4
right_child=1 3 5 23 16 6 9 14 11 -11 20 40 -14 -15 38 39 19 29 -20 -21 -22 22 46 31 -26 43 -28 30 -30 -31 -32 33 49 -35 -36 -37 37 -39 -40 -41 -42 42 50 -45 45 -47 -48 -49 -50 -51 -52 -53 -54
leaf_value=-0.048275946531030386 -0.12901121714333885 -0.035488481154856401 0.011817452920185679 0.0021751696883550299 -0.057075826998589436 0.043324579976116516 0.02304346651487791 -0.026401905384929626 0.059874769973420193 -0.001704726198524647 0.03847648165752298 0.05294974713160637 0.073280151005595734 -0.10850299547732069 0.0034786286328696379 0.026499986124783589 -0.079077485075161436 0.020744027227033661 -0.018366865028301704 -0.066126833555911826 0.031675536828196002 -0.025700467965412685 -0.032065796910781735 -0.003742963099001856 -0.014514397626666543 0.037971281082977398 -0.051289222708222532 0.055136732245433827 -0.036377030591370596 0.028501420648233616 0.047857880042334829 0.0077530252434548459 -0.022338677200378909 -0.00028839505259728389 -0.097646399232236211 0.044264115646934027 0.0031550343372405182 -0.0055224990440831219 -0.0047024121905191998 0.031798893618666904 0.041530479589613624 0.010022973212623014 0.0028369703112814124 0.031130273268001288 -0.0024480333712148406 0.0024134130761943942 -0.038870590452510262 0.0065633457681037056 0.01579828375336384 -0.017491824594746418 0.0057411629179114874 -0.006694780252851495 0.015021185083204984
leaf_weight=358 683 51 54 43 60 100 47 103 488 58 143 58 424 127 42 253 54 55 56 61 113 120 55 40 201 337 76 451 59 64 176 40 59 56 69 542 62 59 40 111 55 70 40 56 40 40 273 56 60 70 52 48 133
leaf_count=358 683 51 54 43 60 100 47 103 488 58 143 58 424 127 42 253 54 55 56 61 113 120 55 40 201 337 76 451 59 64 176 40 59 56 69 542 62 59 40 111 55 70 40 56 40 40 273 56 60 70 52 48 133
internal_value=-5.9502e-05 -0.0609158 0.0300638 -0.0165271 -0.114624 0.0448488 0.0484833 -0.0298466 0.0536582 0.0289324 0.0465173 0.0642208 0.0661871 -0.125941 -0.0161263 0.0235023 -0.0766694 0.0318109 -0.0354867 -0.0826831 0.0415507 -0.0371088 -0.0346726 0.00200923 -0.0190736 0.0356617 -0.0453177 0.0518962 -0.0466978 0.0221664 0.0531826 -0.000829205 -0.0229186 0.00304573 -0.090246 0.0431225 -0.00214313 -0.000633676 -0.000448409 0.028215 0.0478574 0.00620628 0.00696045 0.0370932 0.00138005 9.75269e-08 -0.0378487 0.00859639 0.0183738 -0.0199095 0.00458707 -0.00547759 0.0141957
internal_weight=7041 2331 4710 1277 1054 3778 3227 932 2550 677 1525 1025 912 810 515 551 244 619 631 184 798 575 448 646 433 440 127 727 417 179 627 385 232 96 123 685 289 201 82 364 113 261 218 393 142 80 328 126 115 129 92 88 187
internal_count=7041 2331 4710 1277 1054 3778 3227 932 2550 677 1525 1025 912 810 515 551 244 619 631 184 798 575 448 646 433 440 127 727 417 179 627 385 232 96 123 685 289 201 82 364 113 261 218 393 142 80 328 126 115 129 92 88 187
is_linear=0
shrinkage=1


Tree=1
num_leaves=54
num_cat=0
split_feature=9 1 9 9 1 9 9 9 9 9 7 9 9 1 9 9 9 1 9 9 1 9 1 1 9 9 9 9 9 9 5 9 1 9 2 7 9 9 0 1 9 5 4 1 4 1 0 2 8 4 5 9 0
split_gain=3171.08 1364.58 1025.32 110.467 108.244 71.5828 79.6251 52.6675 46.3646 14.7572 8.93952 7.36788 8.09394 6.80141 5.82977 5.77698 5.72002 5.35576 4.05279 3.98404 2.61126 2.33249 2.80204 1.90916 1.73437 1.25961 1.09719 0.99502 0.87727 0.653325 0.7432 0.485255 0.753383 0.465066 0.433881 0.395498 0.337994 0.254801 0.232841 0.218046 0.21384 0.177908 0.174617 0.12106 0.120136 0.111572 0.10327 0.0868619 0.0744754 0.0531943 0.0462914 0.00433149 0.00212794
threshold=0.5775638520717622 0.41595189273357397 -1.2767894864082334 1.4139974117279055 0.1524230241775513 -1.001676023006439 0.24742772430181506 -1.5243915915489195 -0.23978930711746213 0.5500524938106538 -1.0735465288162229 0.19240503013134005 -0.01348631316795945 -0.37463472038507456 -1.3180564641952512 -1.1804997920989988 0.64811712503433239 1.2065384984016421 1.3873735666275027 1.102054297924042 0.1524230241775513 1.1570770144462588 1.2065384984016421 1.2065384984016421 -1.4143462181091306 0.60685011744499218 -1.5519028902053831 0.52254116535186779 0.3024504035711289 -0.79534095525741566 -1.4499896168708799 1.4672452211380007 1.4700673818588259 -0.91914200782775868 0.2847875058650971 -1.9759627580642698 0.67562848329544078 -1.0566987395286558 0.34453167021274572 -0.37463472038507456 0.21991638094186786 1.3284440040588381 -0.26833789050579065 1.9971251487731936 1.2131794691085818 0.67948076128959667 0.27957032620906835 -0.60566291213035572 -0.033605223521590226 1.1118367314338686 -0.52384456992149342 -1.249278128147125 0.21460897475481036
decision_type=2 2 2 2 2 2 2 2 2 2 2 2 2 2 2 2 2 2 2 2 2 2 2 2 2 2 2 2 2 2 2 2 2 2 2 2 2 2 2 2 2 2 2 2 2 2 2 2 2 2 2 2 2
left_child=2 4 7 18 13 15 8 26 10 17 29 12 -10 -2 24 51 -6 27 21 36 33 25 -23 41 39 -3 -1 45 -19 -7 -31 -25 34 -12 47 -16 -18 -17 -36 42 -13 -5 -9 -24 46 -8 -43 -33 -30 -48 -22 -4 -53
right_child=1 3 5 23 16 6 9 14 11 -11 20 40 -14 -15 35 37 19 28 -20 -21 50 22 43 31 -26 -27 -28 -29 48 30 -32 32 -34 -35 38 -37 -38 -39 -40 -41 -42 44 -44 -45 -46 -47 49 -49 -50 -51 -52 52 -54
leaf_value=-0.045387548474548248 -0.12128195763889112 -0.033400211327351055 0.011121205697276376 0.0020475339025618844 -0.053707507935703773 0.039707518246438762 0.037000821975931047 -0.023965776235813439 0.056537938113336433 -0.0016042681593384782 0.036699972825230291 0.049826520099478251 0.068893599864174329 -0.10204376847669482 -0.0045940775112914192 0.024916155252510345 -0.074419192990389738 0.027968068328041294 -0.017284278353578163 -0.062223308340195696 0.033318602233273646 -0.024171275360525147 -0.034054266525166375 -0.00504701008604138 -0.013647936826811568 -0.048251926716271924 -0.034230877155065537 0.024431158539517356 0.020002325238576577 0.045873936644858782 0.052321313351926281 0.0025526020211252298 -0.0049099655898631016 0.042223915776870777 0.0013988533522903482 0.0036248889121093921 -0.091871405451638355 0.029907903735925043 -0.0040516152002118442 -0.026191244502480213 0.039083056645733964 0.0026724751057754913 -0.018221009124652483 -0.040026460239520438 0.0097152744293386162 0.032433360720329943 0.0080897742346638726 0.0061993027553713369 0.015058200864564804 0.0050728579580597583 0.026276792350937335 0.015984153056957506 0.012597863073879853
leaf_weight=358 683 51 54 43 60 53 185 54 461 58 158 58 424 127 41 253 54 51 56 61 69 120 251 76 201 76 59 54 66 215 390 54 75 617 76 41 69 111 43 51 55 40 127 77 42 201 62 61 62 74 50 54 79
leaf_count=358 683 51 54 43 60 53 185 54 461 58 158 58 424 127 41 253 54 51 56 61 69 120 251 76 201 76 59 54 66 215 390 54 75 617 76 41 69 111 43 51 55 40 127 77 42 201 62 61 62 74 50 54 79
internal_value=-5.70874e-05 -0.0572806 0.028268 -0.0155445 -0.107779 0.042171 0.0455878 -0.0280685 0.0504514 0.0272123 0.043882 0.0606073 0.0625353 -0.118403 -0.0151704 0.0221033 -0.0721472 0.0299203 -0.0333796 -0.0778049 0.039799 -0.0349039 -0.0326068 0.00189174 -0.0179429 -0.0426423 -0.043909 0.0335361 0.020862 0.0493515 0.0501195 -0.000781313 0.000261397 0.0411542 0.00195826 -0.000418144 -0.0849198 0.0265326 -0.000537995 -0.0215637 0.0450387 0.00584557 -0.0200901 -0.0355919 0.00655456 0.0347279 0.00571577 0.00457543 0.0177893 0.00654102 0.0306535 0.0133544 0.0141265
internal_weight=7041 2331 4710 1277 1054 3778 3227 932 2550 677 1552 998 885 810 515 551 244 619 631 184 894 575 448 646 433 127 417 440 179 658 605 385 309 775 234 82 123 364 119 232 113 261 181 328 218 386 176 115 128 136 119 187 133
internal_count=7041 2331 4710 1277 1054 3778 3227 932 2550 677 1552 998 885 810 515 551 244 619 631 184 894 575 448 646 433 127 417 440 179 658 605 385 309 775 234 82 123 364 119 232 113 261 181 328 218 386 176 115 128 136 119 187 133
is_linear=0
shrinkage=0.06


Tree=2
num_leaves=54
num_cat=0
split_feature=9 1 9 1 9 9 9 9 9 9 7 9 1 9 9 9 1 9 9 9 1 9 1 3 9 1 9 9 9 1 3 1 5 6 2 1 2 9 9 6 5 5 1 1 3 7 9 9 5 9 0 8 9
split_gain=2703.7 1166.17 904.188 100.359 96.2996 63.4604 65.7147 46.2806 42.4308 12.5633 8.96643 5.35887 5.24361 4.89389 4.73991 4.39029 4.33669 3.50211 7.22005 3.03801 2.32979 2.14141 2.33467 1.63348 1.50966 1.45624 1.41575 0.709516 0.656273 0.598483 0.49402 0.491965 0.675439 0.409424 0.393749 0.388164 0.303064 0.290693 0.261159 0.230738 0.230597 0.219941 0.136041 0.124871 0.111094 0.0965264 0.0861643 0.0706348 0.061459 0.0605088 0.0362581 0.0226359 0.0213749
threshold=0.5775638520717622 0.41595189273357397 -1.2767894864082334 0.1524230241775513 1.4139974117279055 -1.001676023006439 0.23367205262184146 -1.5243915915489195 -0.25310124456882471 0.5500524938106538 -1.1069689393043516 -1.3180564641952512 1.2065384984016421 0.64811712503433239 -1.194255471229553 1.102054297924042 -0.37463472038507456 -0.01348631316795945 0.19240503013134005 1.1570770144462588 0.1524230241775513 1.3873735666275027 1.2065384984016421 -1.0320318043231962 -1.4143462181091306 1.2065384984016421 0.60685011744499218 -1.5519028902053831 0.3024504035711289 0.1524230241775513 -1.3131957650184629 1.4700673818588259 1.3901869058609011 -1.0812399387359617 0.48025263845920568 -2.2193431854248042 0.24135091900825503 -0.93289768695831288 -0.76782962679862965 1.4061723947525027 1.3284440040588381 -0.52384456992149342 0.1524230241775513 1.9971251487731936 2.0607353448867802 -1.3409288525581358 0.67562848329544078 -1.4968802332878111 1.9458737373352053 1.6136765480041506 0.30122427642345434 -0.033605223521590226 -1.249278128147125
decision_type=2 2 2 2 2 2 2 2 2 2 2 2 2 2 2 2 2 2 2 2 2 2 2 2 2 2 2 2 2 2 2 2 2 2 2 2 2 2 2 2 2 2 2 2 2 2 2 2 2 2 2 2 2
left_child=2 3 7 16 19 14 8 27 10 12 29 24 23 -5 52 46 35 -10 -19 26 37 22 -21 -8 30 40 -3 42 -14 38 -9 32 39 -16 -13 -2 -34 -12 -7 -27 -6 -22 -1 -24 50 -35 -15 -32 -46 -38 -42 -30 -4
right_child=1 4 5 13 25 6 9 11 17 -11 20 34 28 15 33 -17 -18 18 -20 21 41 -23 43 -25 -26 31 -28 -29 51 -31 47 -33 36 45 -36 -37 49 -39 -40 -41 44 -43 -44 -45 48 -47 -48 -49 -50 -51 -52 -53 -54
leaf_value=-0.041355050808466395 -0.10479581172511261 -0.030772021092068065 0.0098521012070455737 -0.050296834688295017 0.00088629431883956113 0.041158900264021629 0.023099011231963701 -0.023983851680767186 0.053102640097635719 -0.0017770595232833105 0.033978751904230851 0.0033974626632096864 0.026035760179809898 -0.069550251767039301 0.017873092125264965 -0.057107095360755915 -0.096653875988721841 0.06474708735710237 0.043837768218346999 -0.022811835046358933 0.031882879040610622 -0.016635141377179127 -0.031584196649699574 0.033744994194458817 -0.012877189596664279 0 -0.045694847953784 -0.03241082492189587 0.018660086983341279 0.039028209377641544 -0.019819147290314656 -0.0050400329847633844 0.005570826404099353 0.023277636504672856 -0.0047165223378233794 -0.1161697661198175 0.0020450508700450877 0.039237047212491535 0.04872964224340573 -0.0049841128277874208 0.0089282098124921321 0.023993121171636239 -0.04954230184853077 -0.037181138857108782 0.0022993173105642197 0.027142066402490748 -0.085977223992347723 -0.014875684632496397 0.0057461886390298604 -0.00089650189468637106 0.0059005738564727591 0.01443050755984508 0.012994217329060321
leaf_weight=324 158 54 55 65 42 76 76 102 486 52 129 44 45 47 48 65 119 409 83 126 70 52 250 390 185 61 76 52 58 72 58 74 79 172 40 505 47 628 466 75 49 55 47 81 46 171 67 65 49 49 70 64 107
leaf_count=324 158 54 55 65 42 76 76 102 486 52 129 44 45 47 48 65 119 409 83 126 70 52 250 390 185 61 76 52 58 72 58 74 79 172 40 505 47 628 466 75 49 55 47 81 46 171 67 65 49 49 70 64 107
internal_value=5.56938e-05 -0.0530088 0.0264976 -0.100635 -0.0147798 0.0396765 0.0429629 -0.0268293 0.0475246 0.0264334 0.0410926 -0.0142932 0.0287594 -0.066496 0.020849 -0.072033 -0.111181 0.0573051 0.0613279 -0.0312441 0.0370585 -0.0289672 -0.0303179 0.0320748 -0.0171159 0.00164681 -0.0398242 -0.0413873 0.0193367 0.0468082 -0.020502 -0.000672509 0.000360302 0.0244471 -0.000405783 -0.11363 0.00283525 0.0383949 0.0477569 -0.00277802 0.00514723 0.028677 -0.0425388 -0.0330798 0.00594757 0.025295 -0.0799206 -0.0173962 0.00418101 0.000488014 0.00726126 0.0166254 0.0120312
internal_weight=6935 2306 4629 1026 1280 3712 3159 917 2474 685 1496 494 633 244 553 179 782 978 492 639 882 509 457 466 410 641 130 423 167 614 225 385 311 391 84 663 175 757 542 136 256 125 371 331 214 343 114 123 95 96 119 122 162
internal_count=6935 2306 4629 1026 1280 3712 3159 917 2474 685 1496 494 633 244 553 179 782 978 492 639 882 509 457 466 410 641 130 423 167 614 225 385 311 391 84 663 175 757 542 136 256 125 371 331 214 343 114 123 95 96 119 122 162
is_linear=0
shrinkage=0.06


Tree=3
num_leaves=57
num_cat=0
split_feature=9 1 9 1 9 9 9 9 9 9 7 1 9 9 9 9 9 1 9 9 1 9 1 9 1 9 9 9 1 3 9 3 4 9 1 9 9 2 4 5 5 9 1 8 1 2 3 2 1 9 5 2 9 5 8 9
split_gain=2390.72 1031.13 799.636 88.4669 85.2228 56.0612 58.1221 40.9145 39.6112 11.5575 7.35425 5.57546 4.78444 4.32518 4.18535 4.01435 3.87893 3.78443 2.86059 2.69168 2.25728 1.88465 2.05832 1.72894 1.29266 1.24314 0.61353 0.578388 0.513361 0.494253 0.460129 0.431314 0.373211 0.373032 0.301873 0.290844 0.286243 0.233065 0.218272 0.203693 0.188624 0.177798 0.149926 0.234551 0.121577 0.102377 0.0971224 0.0637109 0.0627735 0.059469 0.0536641 0.0496016 0.0360534 0.0197212 0.0170694 0.0163426
threshold=0.5775638520717622 0.41595189273357397 -1.2767894864082334 0.1524230241775513 1.4139974117279055 -1.001676023006439 0.21991638094186786 -1.5243915915489195 -0.23978930711746213 0.53629684448242199 -1.1069689393043516 1.2065384984016421 -1.304300785064697 0.64811712503433239 -1.194255471229553 -0.01348631316795945 1.102054297924042 -0.37463472038507456 0.17864936590194705 1.1570770144462588 0.1524230241775513 1.3873735666275027 1.2065384984016421 -1.4143462181091306 1.2065384984016421 0.60685011744499218 -1.5519028902053831 0.3024504035711289 0.1524230241775513 -1.0320318043231962 1.6669243574142458 -1.3131957650184629 1.1456176638603213 -0.93289768695831288 -2.2193431854248042 -0.52022752165794361 -1.0566987395286558 -0.062705134972929941 0.67406946420669567 1.3284440040588381 -0.52384456992149342 1.5737407207489016 1.4700673818588259 0.77552661299705516 0.1524230241775513 0.2847875058650971 2.0607353448867802 0.34994289278984075 1.9971251487731936 -1.4968802332878111 1.9458737373352053 -1.1486206650733946 1.5338048934936526 1.2049582004547121 -0.033605223521590226 -1.249278128147125
decision_type=2 2 2 2 2 2 2 2 2 2 2 2 2 2 2 2 2 2 2 2 2 2 2 2 2 2 2 2 2 2 2 2 2 2 2 2 2 2 2 2 2 2 2 2 2 2 2 2 2 2 2 2 2 2 2 2
left_child=2 3 7 17 19 14 8 26 10 11 28 29 23 -5 55 -10 38 34 -17 25 33 22 -21 31 39 -3 44 -13 35 -8 32 -9 42 -12 -2 -7 51 -24 -15 -6 -22 -34 43 53 -1 -45 52 -25 -39 -33 -48 -16 -41 -26 -29 -4
right_child=1 4 5 13 24 6 9 12 15 -11 20 27 -14 16 36 18 -18 -19 -20 21 40 -23 37 47 30 -27 -28 54 -30 -31 -32 49 41 -35 -36 -37 -38 48 -40 46 -42 -43 -44 45 -46 -47 50 -49 -50 -51 -52 -53 -54 -55 -56 -57
leaf_value=-0.038881384611863357 -0.09854760886138339 -0.028959268660978834 0.0092715308471981971 -0.047324749198826871 0.0008343533679063237 0.04401769194732489 0.024588080987334247 -0.02255879162237482 0.05014385688565183 0.0031445344842683811 0.031955711462864515 0.024507574839436486 0.0029314865969415557 -0.0850306829724993 0.017359694549938041 0.061424695362363529 -0.053732585440982465 -0.090902966749668121 0.046790610569279363 -0.021453902479231828 0.029996849595660891 -0.01565586502709479 -0.026764526523900836 -0.012685495783633085 -0.0029946687296032904 -0.042988761705237542 -0.030502865566397613 0.017559458785390447 0.036718593977902031 0.03221498237068162 0.004839230719779152 -0.018650153712069583 0.0030143219071538433 0.037307409931189382 -0.10921335512281877 0.053170627005556789 0.026339476427994668 -0.030798581839939738 -0.068538033997690359 0.0053076943068074119 0.022579240143299099 -0.0016023623825167303 -0.0061834459694665531 0.002277689921328934 -0.046631690889596941 -0.0017312514025431412 0.0021642936541441272 -0.009582907111319745 -0.036682339251041411 -0.013996666979383338 0.0054083125586807728 0.022235709147645704 0.0082244548027293161 -0.0055727779626982598 0.013577997981011869 0.012221783358112184
leaf_weight=324 158 54 55 65 42 496 61 102 457 77 129 45 56 41 44 384 65 119 81 126 70 52 88 127 43 76 52 58 72 407 47 58 75 657 505 46 111 178 73 61 55 47 42 40 47 51 46 86 65 65 49 236 58 40 64 107
leaf_count=324 158 54 55 65 42 496 61 102 457 77 129 45 56 41 44 384 65 119 81 126 70 52 88 127 43 76 52 58 72 407 47 58 75 657 505 46 111 178 73 61 55 47 42 40 47 51 46 86 65 65 49 236 58 40 64 107
internal_value=4.97073e-05 -0.049849 0.0249141 -0.0946332 -0.0139011 0.0373078 0.0403967 -0.0252347 0.044795 0.0252305 0.038787 0.0278901 -0.0134466 -0.0625751 0.0196105 0.054673 -0.0677859 -0.104536 0.0589943 -0.0293896 0.0352135 -0.027244 -0.0285124 -0.0155562 0.00155143 -0.0374725 -0.0389232 0.0182019 0.0440134 0.0312882 -0.000632951 -0.0192907 -0.00142361 0.0364784 -0.106833 0.044902 0.0229925 -0.0311085 -0.0752096 0.00484955 0.0269858 0.00118842 -0.00292524 -0.00207365 -0.0400021 0 0.00560213 -0.0115115 -0.0325409 -0.0163721 0.00393893 0.0215553 0.006836 -0.00436011 0.015647 0.01132
internal_weight=6935 2306 4629 1026 1280 3712 3159 917 2447 712 1525 635 494 244 553 922 179 782 465 639 911 509 457 438 641 130 423 167 614 468 385 225 338 786 663 542 391 331 114 256 125 122 216 174 371 91 214 213 243 123 95 280 119 83 122 162
internal_count=6935 2306 4629 1026 1280 3712 3159 917 2447 712 1525 635 494 244 553 922 179 782 465 639 911 509 457 438 641 130 423 167 614 468 385 225 338 786 663 542 391 331 114 256 125 122 216 174 371 91 214 213 243 123 95 280 119 83 122 162
is_linear=0
shrinkage=0.06


Tree=4
num_leaves=55
num_cat=0
split_feature=9 1 9 1 9 9 9 9 9 9 5 9 1 9 9 9 9 1 9 9 9 1 9 1 9 1 3 9 9 5 9 9 3 6 1 8 4 2 6 9 9 9 5 3 1 2 2 9 2 5 2 5 0 4
split_gain=2200.45 944.224 695.042 76.9521 76.0621 51.5406 54.5034 36.3207 35.9314 11.025 5.70548 4.53921 4.26846 3.80508 3.3319 3.17653 3.06205 2.87361 2.82464 2.72405 2.29512 2.12153 1.67458 1.8288 1.57971 1.35185 1.23882 0.986251 0.974284 0.842654 0.611223 0.593494 0.47108 0.429046 0.382155 0.380652 0.259552 0.206965 0.199054 0.189289 0.168036 0.155055 0.142669 0.155344 0.125648 0.202158 0.211343 0.100524 0.0927716 0.0793102 0.0679152 0.0506954 0.0160256 0.000247088
threshold=0.5775638520717622 0.41595189273357397 -1.2767894864082334 0.1524230241775513 1.4139974117279055 -1.001676023006439 0.21991638094186786 -0.22647736221551892 -1.5243915915489195 0.5500524938106538 -0.89430275559425343 -1.304300785064697 1.2065384984016421 -1.194255471229553 0.64811712503433239 -0.01348631316795945 1.102054297924042 -0.37463472038507456 0.17864936590194705 1.3873735666275027 -0.79534095525741566 0.1524230241775513 1.1570770144462588 1.2065384984016421 -1.4143462181091306 1.2065384984016421 -1.0320318043231962 -0.25310124456882471 0.60685011744499218 -1.5734754204750059 -1.5519028902053831 0.3024504035711289 -1.3131957650184629 -1.0812399387359617 -2.2193431854248042 1.380103647708893 1.1456176638603213 -0.99659264087676991 0.47339236736297613 -1.0566987395286558 -0.91914200782775868 -1.0979657173156736 1.3593154549598696 2.0607353448867802 1.4700673818588259 0.17619657516479495 0.87118187546730053 -1.3868348598480222 0.78430870175361644 -0.52384456992149342 0.37166170775890356 1.9458737373352053 0.32287797331810003 0.13564850017428401
decision_type=2 2 2 2 2 2 2 2 2 2 2 2 2 2 2 2 2 2 2 2 2 2 2 2 2 2 2 2 2 2 2 2 2 2 2 2 2 2 2 2 2 2 2 2 2 2 2 2 2 2 2 2 2 2
left_child=2 3 8 17 19 13 7 10 30 12 20 24 26 -4 -5 -9 -16 34 -17 22 -7 27 28 -24 32 42 -8 40 -3 -22 -1 -14 -10 -15 -2 36 44 -25 -28 41 -12 49 -6 52 45 -27 -47 -26 -38 -35 -49 -45 -44 -33
right_child=1 4 5 14 25 6 9 15 11 -11 21 -13 31 33 16 18 -18 -19 -20 -21 29 -23 23 37 47 35 38 -29 -30 -31 -32 53 -34 39 -36 -37 48 -39 -40 -41 -42 -43 43 51 -46 46 -48 50 -50 -51 -52 -53 -54 -55
leaf_value=-0.037524284568303062 -0.092637281471828231 -0.026895970713584978 0.010657512906850618 -0.045030763940513127 0.0017500113122579123 0.033703572016773806 0.020631753812804091 0.047510543490768567 -0.021363400009795298 -0.0021112488618652732 0.029534224673112234 0.0038581093621122731 0.023152160811424256 0.01520847934020683 -0.070089799673080447 0.057832292250732872 -0.050635582742236909 -0.086351092047807651 0.043612696495400852 -0.014440670492834059 0.035615594671240876 0.02421557612663933 -0.020295345909660679 -0.022756630980386966 -0.013475253230647037 0.00051848500133270311 0.030955623050056287 0.043053531927721836 -0.040188172134069292 0.043162566131287876 -0.028407451119206166 0.012484509620508179 -0.015061289065697741 0.024095861876067125 -0.10283277881734723 0.0034317825538704968 0.0019261817781107931 -0.030111656360328195 0.025757195700560842 0.025190440927269093 0.034049199493418274 0.017692505414996826 0.0079705580417876662 0.0018530904906706844 -0.0059515974911461987 -0.0063089504928751433 -0.00077605632860929918 -0.011155760301307409 -0.0014365610739041582 0.018633989030952158 -0.0079190393971824424 0.0049558136470767913 0.0053460970985824653 0.016089515609809982
leaf_weight=354 158 46 168 59 53 197 76 435 102 55 134 54 54 49 124 401 62 122 82 57 111 111 127 40 56 62 334 55 77 545 54 49 123 105 525 62 72 303 92 117 425 83 68 48 41 54 51 91 47 52 81 48 45 77
leaf_count=354 158 46 168 59 53 197 76 435 102 55 134 54 54 49 124 401 62 122 82 57 111 111 127 40 56 62 334 55 77 545 54 49 123 105 525 62 72 303 92 117 425 83 68 48 41 54 51 91 47 52 81 48 45 77
internal_value=0.00015876 -0.0472575 0.0237727 -0.0895563 -0.0130721 0.0350572 0.0380024 0.0422432 -0.0231585 0.0235942 0.0366563 -0.0124362 0.0256761 0.0184208 -0.0596143 0.05179 -0.0639426 -0.0985764 0.0555257 -0.0275747 0.0400949 0.0325526 -0.0288006 -0.026957 -0.0143961 0.00141907 0.028561 0.0340083 -0.0355225 0.0419508 -0.0364047 0.0174838 -0.0180267 0.0215843 -0.100622 -0.000812285 -0.00164327 -0.02934 0.02991 0.0223978 0.0330323 0.0209126 0.00474535 0.00546441 -0.00292177 -0.00211121 -0.00371082 -0.0107239 0.000547136 0.0224542 -0.00972076 0.00350141 0.00703411 0.0148442
internal_weight=7073 2351 4722 1050 1301 3807 3233 2496 915 737 1578 507 682 574 245 918 186 805 483 650 853 725 593 470 453 651 502 614 123 656 408 180 225 406 683 389 327 343 426 357 559 240 262 209 208 167 105 228 119 157 172 96 113 126
internal_count=7073 2351 4722 1050 1301 3807 3233 2496 915 737 1578 507 682 574 245 918 186 805 483 650 853 725 593 470 453 651 502 614 123 656 408 180 225 406 683 389 327 343 426 357 559 240 262 209 208 167 105 228 119 157 172 96 113 126
is_linear=0
shrinkage=0.06


Tree=5
num_leaves=60
num_cat=0
split_feature=9 1 9 1 9 9 9 9 9 9 5 9 9 9 9 1 9 9 1 9 9 9 1 9 1 1 3 9 1 9 9 3 6 1 8 9 4 9 9 9 5 3 1 8 9 9 1 8 5 3 5 7 7 4 9 9 9 7 8
split_gain=1945.69 834.783 614.646 67.8943 67.3091 45.5166 48.1904 31.7465 28.7826 9.25888 6.22189 4.73984 4.98069 4.02087 3.36849 3.27949 2.92946 2.68599 2.50044 2.40215 2.29779 1.48473 1.61101 1.39282 1.20015 1.14029 0.973068 0.852798 0.804319 0.527436 0.522374 0.41369 0.374646 0.369265 0.337424 0.311734 0.230014 0.164485 0.161876 0.133641 0.125864 0.136395 0.110871 0.186405 0.109718 0.0968082 0.0806729 0.077083 0.0755182 0.0701334 0.0648631 0.0614617 0.0354933 0.0175445 0.0141846 0.00946208 0.0390964 0.00427205 0.00180138
threshold=0.5775638520717622 0.41595189273357397 -1.2767894864082334 0.1524230241775513 1.4139974117279055 -1.001676023006439 0.24742772430181506 -1.5243915915489195 -0.25310124456882471 0.5500524938106538 -0.83255985379219044 0.19240503013134005 -0.01348631316795945 -1.304300785064697 -1.194255471229553 1.2065384984016421 0.64811712503433239 1.102054297924042 -0.37463472038507456 1.3873735666275027 -0.79534095525741566 1.1570770144462588 1.2065384984016421 -1.4143462181091306 1.2065384984016421 0.1524230241775513 -1.172612130641937 0.60685011744499218 1.0000000180025095e-35 -1.5519028902053831 0.3024504035711289 -1.3131957650184629 -1.0812399387359617 -2.4828720092773433 1.380103647708893 -0.91914200782775868 1.1456176638603213 0.67562848329544078 -1.0566987395286558 -1.0979657173156736 1.3593154549598696 2.0607353448867802 1.4700673818588259 0.78461951017379772 0.21991638094186786 -1.3318121433258054 1.9971251487731936 1.0300842523574831 1.0814723968505862 1.0000000180025095e-35 -0.52384456992149342 1.132361948490143 0.79813382029533397 -0.26833789050579065 1.5338048934936526 -1.3868348598480222 -1.3593235015869138 -0.90643143653869618 -0.033605223521590226
decision_type=2 2 2 2 2 2 2 2 2 2 2 2 2 2 2 2 2 2 2 2 2 2 2 2 2 2 2 2 2 2 2 2 2 2 2 2 2 2 2 2 2 2 2 2 2 2 2 2 2 2 2 2 2 2 2 2 2 2 2
left_child=2 3 7 18 19 14 8 29 10 15 20 12 -10 23 -4 26 -5 37 33 21 -7 27 -23 31 40 35 -8 -3 -22 -1 -17 53 -16 -2 36 -12 42 -18 39 50 -6 54 43 -26 -13 55 -24 -38 -28 -27 -34 -43 -45 -9 -42 -25 -57 -33 -32
right_child=1 4 5 16 24 6 9 13 11 -11 25 44 -14 -15 32 30 17 -19 -20 -21 28 22 46 45 34 49 48 -29 -30 -31 58 57 38 -35 -36 -37 47 -39 -40 -41 41 51 -44 52 -46 -47 -48 -49 -50 -51 -52 -53 -54 -55 -56 56 -58 -59 -60
leaf_value=-0.035279169860692086 -0.080783544889518194 -0.025316547255566778 0.010021845762149468 -0.04237394851595163 0.0016469551080630883 0.032093961870478048 0.017019939148679695 -0.022247651383280751 0.04429631873133711 -0.0019868361214175822 0.026073270147389704 0.038588547796010973 0.053849549288516277 0.0036308316580104557 0.014314220822900533 0.021788288519057359 -0.057955394694679654 -0.047645672951425827 -0.081212145276185935 -0.013589168503366668 0.040860159854986221 -0.019087138359434902 -0.026349212011236411 -0.012680922771755018 -0.004009429434190942 0.018864609908798464 0.028111809020433854 -0.037807794781831591 0.034964111292000971 -0.026733993962678039 0.015531809716518699 -0.0126452543975857 0.0226637492702817 -0.095672587285549726 0.0032291439480281302 0.031622933814382137 0.0018351935791649987 -0.071453614722127509 0.023691823415079357 0.016643592555009357 0.0050371773417325731 0.0013626220655331219 -0.0056030040528359162 0.0012427279241383077 0.030171897216847064 -0.0073715535975992681 -0.030989699149131772 -0.0011975924970362992 0.023199932959097534 0.025031295133170796 0.017537044574137569 0.0047050238396558501 -0.0011823914055402081 -0.01703786885086447 0.0075321660905199889 -0.0081221421543508764 -0.011648590329247102 -0.016257823173749318 0.012148702292001018
leaf_weight=354 55 46 168 59 53 278 46 55 490 55 100 55 428 54 49 54 56 62 122 57 489 127 259 56 82 45 334 77 197 54 62 77 105 628 62 348 69 68 117 83 46 43 41 41 56 59 84 50 66 66 52 53 44 47 67 59 54 46 64
leaf_count=354 55 46 168 59 53 278 46 55 490 55 100 55 428 54 49 54 56 62 122 57 489 127 259 56 82 45 334 77 197 54 62 77 105 628 62 348 69 68 117 83 46 43 41 41 56 59 84 50 66 66 52 53 44 47 67 59 54 46 64
internal_value=0.000148782 -0.0444381 0.0223538 -0.0842102 -0.0122946 0.0329656 0.0357335 -0.0217795 0.0395241 0.0214825 0.0342187 0.0473298 0.0488106 -0.0116999 0.0173303 0.0235539 -0.0560808 -0.0601467 -0.0926837 -0.0259372 0.037213 -0.0270892 -0.0253505 -0.0135446 0.00133681 0.0289869 0.0263619 -0.0334265 0.0392291 -0.034231 0.0164559 -0.0169563 0.0203077 -0.0946022 -0.00076487 0.0304584 -0.00154797 -0.0659181 0.0210713 0.0196759 0.00447109 0.00514743 -0.00275178 -0.00198688 0.0347032 -0.0100922 -0.0275899 0.000511553 0.0273762 0.0227756 0.0211254 0.00329924 0 -0.020094 0.00662223 -0.0109577 -0.00994738 -0.0141649 0.0139698
internal_weight=7073 2351 4722 1050 1301 3807 3233 915 2552 681 1523 1029 918 507 574 626 245 186 805 650 964 593 470 453 651 559 446 123 686 408 180 225 406 683 389 448 327 124 357 240 262 209 208 167 111 228 343 119 400 111 157 96 85 102 113 169 113 123 126
internal_count=7073 2351 4722 1050 1301 3807 3233 915 2552 681 1523 1029 918 507 574 626 245 186 805 650 964 593 470 453 651 559 446 123 686 408 180 225 406 683 389 448 327 124 357 240 262 209 208 167 111 228 343 119 400 111 157 96 85 102 113 169 113 123 126
is_linear=0
shrinkage=0.06


Tree=6
num_leaves=57
num_cat=0
split_feature=9 1 9 9 1 9 9 9 9 9 5 9 9 9 1 9 9 1 9 9 9 1 1 9 9 3 9 7 9 6 5 1 4 6 9 2 1 1 3 2 5 2 1 6 9 2 9 2 2 1 2 5 9 8 2 1
split_gain=1704.69 721.158 534.227 57.2005 56.1228 40.201 41.8551 26.739 25.4071 8.29503 5.76242 3.74399 4.59649 3.56776 3.26835 3.20022 3.12167 2.98658 1.9915 1.76077 1.4437 1.30108 1.26611 1.09425 0.93695 0.852561 0.761341 0.76094 0.626502 0.587033 0.524638 0.498001 0.348363 0.328655 0.310187 0.294129 0.202481 0.16558 0.14718 0.129206 0.111686 0.110828 0.102351 0.100996 0.0922527 0.0887976 0.0878898 0.0765423 0.127068 0.0648492 0.0523583 0.0450678 0.0388465 0.0371842 0.0201751 0.00801518
threshold=0.5775638520717622 0.41595189273357397 -1.2767894864082334 1.4006855487823489 0.1524230241775513 -1.001676023006439 0.24742772430181506 -1.5243915915489195 -0.25310124456882471 0.5500524938106538 -0.89430275559425343 0.19240503013134005 -0.01348631316795945 0.64811712503433239 -0.37463472038507456 -1.304300785064697 -1.194255471229553 1.2065384984016421 1.102054297924042 -0.79534095525741566 1.1570770144462588 0.1524230241775513 1.2065384984016421 -1.4143462181091306 1.2143183350563052 -1.172612130641937 1.3607497215270998 0.56417387723922741 0.60685011744499218 -1.6409085988998411 -1.4499896168708799 1.4700673818588259 0.67406946420669567 -1.0812399387359617 0.3024504035711289 0.2847875058650971 -2.2193431854248042 1.9971251487731936 -1.4537760615348814 0.80602750182151806 -0.73994550108909596 0.34994289278984075 0.41595189273357397 1.530542850494385 1.4938690662384035 0.84946307539939891 0.21991638094186786 -0.45363435149192805 0.82774528861045849 0.67948076128959667 0.13275895640254023 -0.52384456992149342 1.1845883131027224 -0.033605223521590226 -0.19301487505435941 0.1524230241775513
decision_type=2 2 2 2 2 2 2 2 2 2 2 2 2 2 2 2 2 2 2 2 2 2 2 2 2 2 2 2 2 2 2 2 2 2 2 2 2 2 2 2 2 2 2 2 2 2 2 2 2 2 2 2 2 2 2 2
left_child=2 4 7 20 14 16 8 29 10 17 19 12 -10 -6 36 23 50 25 32 -7 28 -12 44 38 52 -8 37 39 -3 55 -21 35 -15 -18 -19 43 -2 -26 -9 -24 -35 54 -23 -29 -5 -37 -13 -46 -49 -27 -4 -42 -22 -36 -25 -1
right_child=1 3 5 22 13 6 9 15 11 -11 21 46 -14 18 -16 -17 33 34 -20 30 24 42 27 41 26 49 -28 31 -30 -31 -32 -33 -34 40 53 45 -38 -39 -40 -41 51 -43 -44 -45 47 -47 -48 48 -50 -51 -52 -53 -54 -55 -56 -57
leaf_value=-0.032953571721719574 -0.082181504670137198 -0.024207652940469625 0.0073680717465281487 0.0012741373931481079 -0.03856975499060699 0.029623355630071051 0.015876609712515189 -0.018842949742525813 0.041397412319856178 -0.0012642370756715535 0.028945029665650546 0.036589097434282299 0.050629182328423145 -0.071714435460955586 -0.074963854324817655 0.0025585003956221041 0.013366367824673653 0.019590125699253641 -0.045956034088956897 0.033393206943542912 -0.019875760126411911 0.023251931624235334 -0.0069133699440833505 -0.0097396982175608476 -0.02498281791155078 0.02724903509272656 -0.018703684827243838 0.0022621666367992127 -0.034954716935942438 -0.027919520330690117 0.038484044630795911 -0.0041320535700578032 -0.05717140528857708 0.016393852089237618 0.014701319735327904 -0.0023490012054904722 -0.091083760624708132 -0.030682433424457423 -0.01437603918227684 -0.0023985368791368919 0.021303261070013312 -0.0076140752883035352 0.016993803169145141 0.0062978001719386119 0.0019228806768248718 0.00099395293221030308 0.028670777932080352 0.0066539511770533867 0.0029171856648119335 0.023817113090478459 0.010361625668269639 0.017004159144391968 -0.014843899068123889 0.010810539800623832 -0.013142463102238253 -0.039587670514749922
leaf_weight=232 160 50 74 43 58 192 45 74 488 59 554 59 416 42 119 53 49 50 57 207 49 73 78 80 237 212 80 70 78 136 452 70 79 75 65 51 515 61 140 41 223 87 42 40 40 60 54 95 65 194 97 55 52 55 42 42
leaf_count=232 160 50 74 43 58 192 45 74 488 59 554 59 416 42 119 53 49 50 57 207 49 73 78 80 237 212 80 70 78 136 452 70 79 75 65 51 515 61 140 41 223 87 42 40 40 60 54 95 65 194 97 55 52 55 42 42
internal_value=0.000218684 -0.0421829 0.0209901 -0.0117165 -0.0793992 0.0307951 0.0334064 -0.020933 0.0369559 0.0201199 0.0319804 0.0443477 0.0457035 -0.0532342 -0.087092 -0.0112037 0.0160914 0.0221599 -0.0577368 0.0353385 -0.0249601 0.0276535 0.000604358 -0.0129442 -0.0232661 0.0247582 -0.0247367 -0.0014184 -0.0310234 -0.0321592 0.0369471 0.000218941 -0.062815 0.0189985 0.0151273 0.00163652 -0.0891072 -0.0262683 -0.016029 -0.00544079 0.0197234 -0.00969562 0.0211843 0.00382724 0.00403366 -0.000495687 0.0331424 0.00458782 0.00520071 0.0256864 0.00915142 0.0205382 -0.0175148 0.0130717 -0.0110572 -0.0341326
internal_weight=6966 2290 4676 1260 1030 3790 3217 886 2537 680 1520 1017 904 236 794 476 573 621 178 851 607 669 653 423 479 451 378 410 128 410 659 291 121 402 170 221 675 298 214 119 353 209 115 110 243 111 113 200 160 406 171 278 101 120 122 274
internal_count=6966 2290 4676 1260 1030 3790 3217 886 2537 680 1520 1017 904 236 794 476 573 621 178 851 607 669 653 423 479 451 378 410 128 410 659 291 121 402 170 221 675 298 214 119 353 209 115 110 243 111 113 200 160 406 171 278 101 120 122 274
is_linear=0
shrinkage=0.06


Tree=7
num_leaves=61
num_cat=0
split_feature=9 1 9 9 1 9 9 9 9 9 5 9 9 9 1 9 9 1 9 9 9 1 9 1 9 1 3 9 6 1 4 6 1 5 9 1 3 6 7 0 0 9 1 3 1 0 9 7 5 7 0 1 0 6 9 1 5 9 9 9
split_gain=1507.46 637.616 472.504 50.7196 49.4483 35.5052 36.9633 23.6381 22.4521 7.3432 5.08659 3.27902 4.0551 3.15109 2.85439 2.83571 2.75796 2.62862 1.97723 1.75333 1.5478 1.13625 1.0165 1.09459 0.963906 0.814288 0.745909 0.546875 0.513801 0.500736 0.305903 0.285982 0.273207 0.436336 0.271944 0.169332 0.127951 0.115718 0.104761 0.102033 0.0980968 0.0978815 0.0857251 0.0848075 0.0805036 0.0790464 0.0713558 0.0670705 0.0627155 0.0623473 0.0566719 0.0524092 0.0284814 0.0131761 0.00725014 0.00623311 0.00415179 0.00286839 0.0107156 0.0928293
threshold=0.5775638520717622 0.41595189273357397 -1.2767894864082334 1.4139974117279055 0.1524230241775513 -1.001676023006439 0.24742772430181506 -1.5243915915489195 -0.25310124456882471 0.5500524938106538 -0.89430275559425343 0.19240503013134005 -0.01348631316795945 0.64811712503433239 -0.37463472038507456 -1.304300785064697 -1.194255471229553 1.2065384984016421 1.3873735666275027 1.102054297924042 -0.79534095525741566 0.1524230241775513 1.1570770144462588 1.2065384984016421 -1.4143462181091306 1.2065384984016421 -1.172612130641937 0.60685011744499218 -1.6409085988998411 0.1524230241775513 0.67406946420669567 -1.0812399387359617 1.4700673818588259 1.3901869058609011 0.3024504035711289 -2.4828720092773433 -1.4537760615348814 1.4061723947525027 -1.3409288525581358 0.32287797331810003 0.14964788407087329 -1.3318121433258054 0.41595189273357397 1.4984139800071719 1.9971251487731936 0.32287797331810003 0.21991638094186786 1.015381455421448 1.5445441603660586 1.0000000180025095e-35 0.36618536710739141 0.67948076128959667 0.30122427642345434 0.47339236736297613 -0.52022752165794361 0.1524230241775513 0.74188566207885753 -0.93289768695831288 -0.399532601237297 -0.27972511947154993
decision_type=2 2 2 2 2 2 2 2 2 2 2 2 2 2 2 2 2 2 2 2 2 2 2 2 2 2 2 2 2 2 2 2 2 2 2 2 2 2 2 2 2 2 2 2 2 2 2 2 2 2 2 2 2 2 2 2 2 2 2 2
left_child=2 4 7 18 14 16 8 28 10 17 20 12 -10 -6 35 24 45 26 22 30 -7 57 27 -24 36 39 -8 -3 55 54 -15 -18 33 37 -19 -2 -9 -27 40 47 -33 52 -23 -35 -25 -4 -13 -5 -41 -36 -45 53 -26 -28 -22 -1 -53 -12 -59 -60
right_child=1 3 5 25 13 6 9 15 11 -11 21 46 -14 19 -16 -17 31 34 -20 -21 29 42 23 44 41 32 51 -29 -30 -31 -32 38 -34 43 49 -37 -38 -39 -40 48 -42 -43 -44 50 -46 -47 -48 -49 -50 -51 -52 56 -54 -55 -56 -57 -58 58 59 -61
leaf_value=-0.030984843992112536 -0.071643189434571708 -0.02278367343369652 0.0094647967044264054 0.0063545765703943158 -0.036294793534834502 0.027855164483845854 0.014944721467145112 -0.01772744693279266 0.038918644957015851 -0.00118964689001441 0.024443195087899421 0.0344303415954113 0.047598715342206055 -0.067511637826298557 -0.070503500846028327 0.0024078331500705743 0.012580425258278847 0.018437765891061109 -0.011567877581542624 -0.043246213736205262 0.034768342814607937 0.0218756686515502 -0.01694946497946213 -0.023206866193462062 -0.0087799346491276298 -0.00032081473921425642 0.027149853779308831 -0.032883983197091494 -0.026256576304018061 0.02862816540860548 -0.053784000831842427 0.018515130725885749 -0.0039586966231387735 0.0035193695080363088 0.014253094095364212 -0.084705202993855977 -0.013519594349957843 -0.0040381806811364369 0.020143766920114384 0.00069099413793966436 0.014137091626145251 -0.0063162614835633171 0.015997887318217479 -0.00033652932414912298 -0.027625389919831201 0.0056884230538163079 0.026981807918982071 0.0033135472806968855 0.0037949535539373758 0.010120673798745677 0.0024435042109570613 0.023356062228083608 -0.011715889414865524 0.022666953883320094 0.039724887207702349 -0.037267648791157917 0.01864557562833247 0.029172695479524419 0.024171931367983918 0.03018744695429899
leaf_weight=232 54 50 129 69 58 192 45 74 488 59 115 59 416 42 119 53 49 50 55 57 498 73 116 258 97 57 133 78 136 81 79 108 71 80 59 621 140 74 173 55 72 53 42 58 77 42 54 69 50 61 43 149 59 79 80 42 45 253 138 48
leaf_count=232 54 50 129 69 58 192 45 74 488 59 115 59 416 42 119 53 49 50 55 57 498 73 116 258 97 57 133 78 136 81 79 108 71 80 59 621 140 74 173 55 72 53 42 58 77 42 54 69 50 61 43 149 59 79 80 42 45 253 138 48
internal_value=0.000203423 -0.0396699 0.0197363 -0.0110221 -0.0746642 0.0289576 0.0314118 -0.0196904 0.0347476 0.0189245 0.0300695 0.0416972 0.0429678 -0.0500987 -0.0818861 -0.0105414 0.015138 0.020844 -0.0229702 -0.0543352 0.0332261 0.0260016 -0.0240211 -0.0224789 -0.0121799 0.0010865 0.0232832 -0.0291923 -0.0302461 0.0347373 -0.0591125 0.0178714 -0.000624399 0.000125422 0.0142397 -0.0837766 -0.0150782 -0.00248084 0.0185513 0.00379921 0.0168848 -0.00912602 0.0199371 0.00204796 -0.0243195 0.00861061 0.0311914 0.004912 0.00224753 0.012303 0.000800578 0.0241537 -0.0099961 0.0256218 0.0355322 -0.0321017 0.0223954 0.0272115 0.0278658 0.0259095
internal_weight=6966 2290 4676 1260 1030 3790 3217 886 2537 680 1520 1017 904 236 794 476 573 621 634 178 851 669 579 451 423 626 451 128 410 659 121 402 383 312 170 675 214 131 353 243 180 209 115 181 335 171 113 138 105 120 101 406 156 212 578 274 194 554 439 186
internal_count=6966 2290 4676 1260 1030 3790 3217 886 2537 680 1520 1017 904 236 794 476 573 621 634 178 851 669 579 451 423 626 451 128 410 659 121 402 383 312 170 675 214 131 353 243 180 209 115 181 335 171 113 138 105 120 101 406 156 212 578 274 194 554 439 186
is_linear=0
shrinkage=0.06


Tree=8
num_leaves=63
num_cat=0
split_feature=9 1 9 9 1 9 9 9 9 5 9 9 9 1 1 4 9 9 9 9 9 1 9 1 9 1 1 9 5 9 9 9 6 9 9 9 4 0 2 2 9 0 2 3 4 2 1 9 3 1 0 1 9 2 2 2 9 5 9 2 8 2
split_gain=1343.45 586.615 431.328 46.8971 45.18 31.7901 26.9494 22.3991 22.1472 3.55734 2.81647 2.56219 2.24376 3.12863 2.1716 2.0558 2.02956 1.49996 1.42516 1.60603 2.05439 1.26269 0.964962 0.858836 0.812611 0.644591 0.628171 0.591814 0.645101 0.420511 0.39753 0.374755 0.341665 0.346659 0.333577 0.288858 0.268718 0.265522 0.255495 0.264933 0.239437 0.213168 0.267114 0.190062 0.171509 0.163114 0.133064 0.116796 0.154161 0.107266 0.10571 0.10542 0.0698172 0.059935 0.167457 0.0568315 0.0516942 0.0485228 0.0355057 0.0351093 0.0273249 0.0253043
threshold=0.563808172941208 0.41595189273357397 -1.2767894864082334 1.4139974117279055 0.1524230241775513 -1.001676023006439 0.21991638094186786 -1.5243915915489195 -0.22647736221551892 -1.0177885890007017 -1.304300785064697 -1.194255471229553 0.53629684448242199 1.2065384984016421 -0.63816359639167775 0.67406946420669567 -0.040110195055603974 0.17864936590194705 1.3873735666275027 0.59309443831443798 1.1433213353157046 0.1524230241775513 -1.4143462181091306 1.2065384984016421 0.64811712503433239 -2.2193431854248042 1.2065384984016421 -0.79534095525741566 -1.5734754204750059 -1.5519028902053831 -0.27972511947154993 1.102054297924042 -0.45938761532306666 -0.91914200782775868 1.1708326339721682 0.3024504035711289 -0.3021187931299209 0.32287797331810003 0.26306973397731787 -0.47535316646099085 -1.0566987395286558 0.34453167021274572 0.87118187546730053 -1.0320318043231962 -0.43655125796794886 -0.040987364016473286 0.41595189273357397 1.5071810483932497 1.6389943361282351 0.1524230241775513 0.40949277579784399 1.9971251487731936 1.6669243574142458 -0.27988803386688227 0.50197042524814617 0.7408721148967744 -1.3318121433258054 -0.55471602082252491 -0.37290871143341059 0.78430870175361644 -0.033605223521590226 0.13275895640254023
decision_type=2 2 2 2 2 2 2 2 2 2 2 2 2 2 2 2 2 2 2 2 2 2 2 2 2 2 2 2 2 2 2 2 2 2 2 2 2 2 2 2 2 2 2 2 2 2 2 2 2 2 2 2 2 2 2 2 2 2 2 2 2 2
left_child=2 4 7 18 14 11 8 29 9 27 22 61 13 43 25 -6 37 -18 19 -3 -21 30 36 47 -17 -2 34 -7 -29 49 32 -26 33 -11 -22 -15 -9 -10 39 50 44 59 -43 -8 -13 -28 -23 -5 -49 -1 -25 -47 -50 -46 -55 -36 -24 -38 -34 -40 -37 -4
right_child=1 3 5 23 15 6 12 10 16 21 -12 40 -14 35 -16 24 17 -19 -20 20 26 46 56 38 31 -27 45 28 -30 -31 -32 -33 58 -35 55 60 57 -39 41 -41 -42 42 -44 -45 53 51 -48 48 52 -51 -52 -53 -54 54 -56 -57 -58 -59 -60 -61 -62 -63
leaf_value=-0.028750169851005654 -0.072351528878424581 -0.011659677055198698 0.0066739616885683256 0.0014562809714337896 -0.059446354366698352 0.026344723761011404 0.018528226189715495 -0.018981732493385355 0.037519538213540843 0.023542899955944583 0.0025062088765582793 0.012008132289526826 0.0075474181002427934 0.0177956718897485 -0.069036173422257985 -0.035284447081520086 0.044619230424563082 0.034036383769861074 -0.011537007665566715 -0.032315857972204688 -0.02207828470907713 0.021300379096203154 -0.0092127361260085344 -0.0026548932938872333 -0.050895450707042919 -0.081354078932518642 -0.019571828530232111 0.027221055945834596 0.033645638397399417 -0.022104586058192783 0.031089603715472751 -0.040066111667681543 0.02404198706608552 0.028030028696109852 -0.017121570577472444 0.013069039633870124 -0.014191500926964751 0.029731380611658094 0.0013086854465072975 0.0040000826583903599 0.019972322944884321 -0.0061955565459309858 -4.3507101257210179e-05 0.023717561730154345 0.013611366476118564 -0.022777037901091951 0.014917773526616211 0.0067596860684396229 0.00094786157384298228 -0.035106136648551278 0.0012694574027632673 -0.027975073538842748 0.0042072491267851238 0.020029281450756661 0.014720950360435085 -0.012231390916556121 -0.0063106885526963436 -0.010737491717014241 0.018233545750379561 -0.00084783477755099473 0.0096646199015029254 0.0091074606474365431
leaf_weight=310 156 55 75 62 52 105 63 46 332 164 58 58 55 48 181 55 449 81 57 79 56 73 172 51 84 469 89 110 516 53 107 58 51 359 59 64 106 51 43 71 111 64 45 412 54 190 40 79 42 45 44 60 80 86 73 44 56 67 47 70 61 97
leaf_count=310 156 55 75 62 52 105 63 46 332 164 58 58 55 48 181 55 449 81 57 79 56 73 172 51 84 469 89 110 516 53 107 58 51 359 59 64 106 51 43 71 111 64 45 412 54 190 40 79 42 45 44 60 80 86 73 44 56 67 47 70 61 97
internal_value=-0.000135882 -0.0366431 0.0186496 -0.0102745 -0.0700879 0.0276706 0.0299791 -0.0183066 0.0329215 0.02855 -0.00981112 0.0143453 0.0195376 0.0205329 -0.0770411 -0.0473384 0.0404023 0.0430803 -0.0211737 -0.0220138 -0.0229685 0.025751 -0.0114248 0.00126659 -0.043828 -0.0792358 -0.0214119 0.0317225 0.0325715 -0.0287575 0.0267249 -0.0468253 0.0259144 0.026682 -0.0178011 0.0134062 -0.0143308 0.0365782 -0.00051478 0.00123998 0.0171016 -0.00185348 -0.00373375 0.0230823 0.0158346 -0.0230305 0.0192444 0.00390934 0.00462535 -0.0296691 -0.000780509 -0.024155 0.00315077 0.0167875 0.0177369 -0.015228 -0.00855682 -0.0129577 0.0215292 0 0.0115452 0.00812574
internal_weight=7050 2395 4655 1340 1055 3742 3188 913 2485 1572 505 554 703 648 806 249 913 530 689 632 577 841 447 651 197 625 498 731 626 408 728 142 621 523 159 173 219 383 388 166 382 222 109 475 271 339 113 263 201 355 95 250 122 213 159 103 228 173 98 113 125 172
internal_count=7050 2395 4655 1340 1055 3742 3188 913 2485 1572 505 554 703 648 806 249 913 530 689 632 577 841 447 651 197 625 498 731 626 408 728 142 621 523 159 173 219 383 388 166 382 222 109 475 271 339 113 263 201 355 95 250 122 213 159 103 228 173 98 113 125 172
is_linear=0
shrinkage=0.06


Tree=9
num_leaves=62
num_cat=0
split_feature=6 1 6 5 1 5 6 7 1 1 5 6 7 7 4 6 1 7 5 1 3 4 1 4 6 5 7 6 1 7 8 7 5 5 6 3 3 3 1 1 0 1 5 1 4 1 2 1 0 1 2 1 2 2 8 7 7 8 2 4 6
split_gain=1115.21 564.059 364.067 38.4414 37.4665 27.5746 26.4357 24.4114 11.7017 7.534 7.22687 12.2696 7.30882 3.95003 2.6109 3.76902 3.37264 2.60843 2.2726 1.94941 1.62136 1.56334 1.39884 1.06581 1.03396 0.92516 0.865006 0.828085 0.687593 0.526698 0.501112 0.500486 0.48031 0.350912 0.340455 0.321284 0.308764 0.277392 0.266126 0.536212 0.245718 0.221825 0.219444 0.213696 0.213466 0.212265 0.252269 0.149011 0.128995 0.127841 0.123957 0.099997 0.0953261 0.124046 0.0749332 0.0742714 0.0694246 0.0442291 0.0262678 0.0260826 0.0164286
threshold=0.5977628529071809 0.41595189273357397 -1.1434266567230222 0.98885804414749157 0.1524230241775513 1.1432152986526491 -0.8946857452392577 -0.78945198655128468 1.2065384984016421 -0.90169563889503468 -0.27687297761440272 -0.27283042669296259 0.36363638937473303 -1.3576400279998777 0.80919095873832714 0.72213333845138561 0.94300961494445812 -1.0568343400955198 1.2358296513557436 -0.37463472038507456 0.092610801570117487 0.70784932374954235 1.0000000180025095e-35 0.30386185646057134 -1.4543513655662534 -0.52384456992149342 -1.6417346000671384 0.78432005643844616 1.4700673818588259 -0.47193501889705652 0.84825891256332409 -1.1403913497924802 -1.6352183222770689 0.92711439728736889 0.47339236736297613 -0.61029079556465138 -1.3131957650184629 -1.0320318043231962 0.67948076128959667 1.2065384984016421 0.30122427642345434 0.41595189273357397 1.1123438477516177 -2.2193431854248042 -0.43655125796794886 1.2065384984016421 0.21963211894035342 -0.63816359639167775 0.34453167021274572 1.9971251487731936 0.2847875058650971 0.1524230241775513 0.82774528861045849 -0.54050752520561207 0.72552382946014415 -1.4746205210685728 1.0989395380020144 -0.033605223521590226 -0.51878973841667164 -0.26833789050579065 -1.8274627923965452
decision_type=2 2 2 2 2 2 2 2 2 2 2 2 2 2 2 2 2 2 2 2 2 2 2 2 2 2 2 2 2 2 2 2 2 2 2 2 2 2 2 2 2 2 2 2 2 2 2 2 2 2 2 2 2 2 2 2 2 2 2 2 2
left_child=2 4 7 33 19 6 13 9 10 55 11 17 40 25 16 -16 -5 32 42 43 56 -6 30 50 51 44 47 -23 45 -24 -19 -15 -8 38 37 -27 59 -12 -3 -40 -13 -31 -17 -2 -4 52 58 -11 -48 -41 -10 60 53 -20 -18 -1 -14 -52 -47 -28 -9
right_child=1 3 5 14 21 -7 8 24 23 26 34 12 20 31 15 18 54 22 28 -21 -22 27 29 -25 -26 35 36 -29 -30 41 -32 -33 -34 -35 -36 -37 -38 -39 39 49 -42 -43 -44 -45 -46 46 48 -49 -50 -51 57 -53 -54 -55 -56 -57 -58 -59 -60 -61 -62
leaf_value=0.0055237187321593119 -0.06803808512353593 -0.025991375967519926 0.010526892813509457 -0.018103190295430348 -0.054418897561172942 -0.011894553197709762 0.024550975605100393 -0.029889535035979877 0.014312244303180621 -0.0046280014397237787 0.016790656282621275 0.026132219653263272 0.036322484952084566 0.017267522913515569 0.013781280258777276 -0.010732187248559462 -0.0018678989261097739 0.02561939773519669 0.0018943982318316288 -0.062961786173638845 0.040991683459863426 -0.031459797271660393 0.028007326607193263 0.023009731067810204 -0.018644414179704406 0.0028251588653140469 -0.017747607255784364 -0.04413870257182087 -0.0034983397255336844 0.020548373149390415 0.0315495534324646 0.02255434658301288 0.031103457916430117 -0.013996786995628931 0.01514348746786515 0.0090049115762357475 -0.010887295236399808 0.023269849816915288 -0.015595757450470153 -0.020231757853656336 0.01912007231644864 0.014044537929863465 -0.0045516833619660005 -0.075720108682211809 0.015687930983054089 0.0023431126811275524 0.0012068937666437072 -0.0085947450775562245 -0.0028220144427614285 -0.024610971419117115 0.011699842508072439 -0.033045559737993321 0.0021167224171438387 0.0061086506146585213 0.0013072884265333414 0.0097954049887812953 0.031394142178867171 0.0076022710962719182 0.0049942131550253727 -0.013126407942873366 -0.025727750312340886
leaf_weight=40 156 51 72 57 66 68 79 88 64 65 50 106 234 174 84 53 47 421 40 125 491 41 41 43 65 52 51 138 70 175 99 173 570 45 44 91 153 231 101 265 52 40 45 525 97 41 68 122 47 78 45 45 69 110 59 54 114 42 45 46 227
leaf_count=40 156 51 72 57 66 68 79 88 64 65 50 106 234 174 84 53 47 421 40 125 491 41 41 43 65 52 51 138 70 175 99 173 570 45 44 91 153 231 101 265 52 40 45 525 97 41 68 122 47 78 45 45 69 110 59 54 114 42 45 46 227
internal_value=-0.000128492 -0.0330671 0.017155 -0.00775532 -0.0661375 0.0257494 0.0264652 -0.0158062 0.0289038 -0.00719143 0.0299138 0.031056 0.03622 0.015546 0.000309532 0.00197025 -0.00647077 0.0274159 0.000252236 -0.0724361 0.0384834 -0.0451815 0.024915 0.0144914 -0.0265134 0.0105497 -0.0105093 -0.0414588 0.00193377 0.0209364 0.0268183 0.0199778 0.0303541 -0.0202146 0.0213141 0.00683462 -0.0128624 0.0222019 -0.0207384 -0.0200645 0.0239969 0.0194368 -0.00802945 -0.0740715 0.0135993 0.00285954 0.00139586 -0.0072798 -0.000398112 -0.0213137 0.0118907 -0.027862 0.00416319 0.00504457 -4.88023e-05 0.0081181 0.0348198 0.00989875 0.00384074 -0.0157736 -0.0270003
internal_weight=7050 2426 4624 1375 1051 3668 3600 956 2941 531 2747 2422 997 659 835 672 163 1425 588 806 839 245 776 194 425 312 437 179 490 256 520 347 649 540 325 143 250 281 495 444 158 215 98 681 169 420 201 187 115 343 151 360 219 150 106 94 348 87 86 97 315
internal_count=7050 2426 4624 1375 1051 3668 3600 956 2941 531 2747 2422 997 659 835 672 163 1425 588 806 839 245 776 194 425 312 437 179 490 256 520 347 649 540 325 143 250 281 495 444 158 215 98 681 169 420 201 187 115 343 151 360 219 150 106 94 348 87 86 97 315
is_linear=0
shrinkage=0.06


Tree=10
num_leaves=63
num_cat=0
split_feature=9 1 9 9 1 9 9 9 9 9 5 1 9 9 1 9 1 4 0 9 9 9 1 9 1 1 9 1 2 1 4 6 1 1 1 2 1 2 5 0 2 3 6 2 2 5 3 5 2 1 9 4 6 2 9 0 0 1 2 1 5 8
split_gain=1048.23 453.866 333.066 36.4017 34.921 24.2295 25.3924 16.9097 15.3974 4.47497 3.53736 2.23167 2.19143 2.61741 1.85529 1.72524 1.60983 1.54534 1.80153 1.36876 1.36452 0.896434 0.878593 0.748301 0.663545 0.610261 0.60092 0.596819 0.584953 0.440125 0.375287 0.374644 0.361747 0.234441 0.231605 0.319711 0.225179 0.215193 0.204524 0.188385 0.272541 0.162761 0.152166 0.143975 0.136476 0.134373 0.120893 0.099383 0.0873655 0.0815343 0.378749 0.0754205 0.0745634 0.0676267 0.158798 0.0570222 0.0509175 0.0428114 0.0361066 0.0141491 0.00550918 0.00310566
threshold=0.5775638520717622 0.41595189273357397 -1.2767894864082334 1.4139974117279055 0.1524230241775513 -1.0154317021369932 0.24742772430181506 -1.5243915915489195 -0.25310124456882471 0.53629684448242199 -0.83255985379219044 1.2065384984016421 0.20616070926189425 -0.01348631316795945 -0.90169563889503468 -1.194255471229553 -0.37463472038507456 0.67406946420669567 0.25791636854410177 -0.79534095525741566 1.1570770144462588 1.3873735666275027 1.2065384984016421 -1.3868348598480222 1.2065384984016421 0.41595189273357397 0.60685011744499218 1.0000000180025095e-35 0.50197042524814617 0.94300961494445812 0.23630111664533618 -1.6409085988998411 -2.2193431854248042 0.94300961494445812 1.4700673818588259 0.26306973397731787 -0.63816359639167775 -1.365804076194763 -0.86343130469322193 0.34453167021274572 0.84946307539939891 -1.3131957650184629 -1.0812399387359617 -0.040987364016473286 0.024168025236576799 1.3284440040588381 2.2013156414031987 -0.73994550108909596 0.76258990168571483 1.0000000180025095e-35 -0.91914200782775868 -0.9756612479686736 1.530542850494385 0.61056235432624828 -1.4968802332878111 0.3878390789031983 0.32287797331810003 1.4700673818588259 0.37166170775890356 0.1524230241775513 -0.52384456992149342 0.97553768754005443
decision_type=2 2 2 2 2 2 2 2 2 2 2 2 2 2 2 2 2 2 2 2 2 2 2 2 2 2 2 2 2 2 2 2 2 2 2 2 2 2 2 2 2 2 2 2 2 2 2 2 2 2 2 2 2 2 2 2 2 2 2 2 2 2
left_child=2 4 7 20 16 15 8 31 10 11 19 33 13 44 -9 56 32 -6 -19 -7 26 22 -22 41 45 49 -3 -21 -11 -15 57 59 -2 55 35 37 -25 -26 -35 61 -41 -16 -17 -24 51 -5 52 -44 -45 50 -12 -10 -47 54 -43 -8 -4 -13 -38 -1 -49 -37
right_child=1 3 5 24 17 6 9 14 12 28 25 30 -14 29 23 42 -18 18 -20 27 21 -23 43 36 34 -27 -28 -29 -30 -31 -32 -33 -34 38 -36 39 58 -39 -40 40 -42 53 47 48 -46 46 -48 60 -50 -51 -52 -53 -54 -55 -56 -57 -58 -59 -60 -61 -62 -63
leaf_value=-0.025869094319218633 -0.063621920385011813 -0.018610504096517193 0.007850831997908635 0.00012519945630933655 -0.052222758685167014 0.02336678327322006 0.021556218916803066 0.0023486002089113602 0.024455825606170961 0.0075466563627123841 0.019543613752598561 0.010764733564773839 0.024427331798842974 0.04052632029097656 -0.014363837015965291 0.010469734384212642 -0.058980389887143762 -0.027330767195958356 -0.042212671717430685 0.030329032412028264 -0.013762321414352637 -0.0097663082850298708 -0.016845865373401079 -0.0033736268822103736 -0.001042300908967073 0.013394317566332492 -0.028504011481245862 0.025503485381822375 -0.0024097935544060804 0.033627458080649375 0.015661545256795806 -0.021905732781737002 -0.071068990840551988 0.020117557165345974 -0.0034759371454940844 0.0010242852164166314 -0.0094427715533723436 0.0039964727535819339 0.012908834194983629 -0.0059178297754475164 0.0003172697177979835 -0.015065288120653572 0.012242561020248923 -0.023068664623469841 0.033450685392908686 0.0033390572650026378 0.0017968518977589292 0.016626961357571416 -0.019060895242663318 0.019871027394001546 0.024599743471214814 0.031128300919532774 0.0064053183913279277 -0.0074903173339439608 -0.0097039706410467618 0.016927911355179182 0.0047236088332296769 0.0072367964373791921 -0.0062965535203761917 -0.031411018235342841 0.013328788600794292 7.5409361826420587e-05
leaf_weight=228 163 51 124 42 51 269 279 48 48 41 134 62 83 347 92 47 120 51 140 478 126 55 84 57 42 43 78 203 41 95 62 142 529 41 75 41 71 94 50 56 42 40 70 122 356 72 72 191 128 184 223 99 76 40 99 48 43 50 50 41 54 40
leaf_count=228 163 51 124 42 51 269 279 48 48 41 134 62 83 347 92 47 120 51 140 478 126 55 84 57 42 43 78 203 41 95 62 142 529 41 75 41 71 94 50 56 42 40 70 122 356 72 72 191 128 184 223 99 76 40 99 48 43 50 50 41 54 40
internal_value=-4.77951e-05 -0.0327281 0.016389 -0.00892973 -0.0619488 0.0242551 0.0262039 -0.0162117 0.0289356 0.015784 0.0250746 0.0176027 0.0346612 0.0355269 -0.00872009 0.0122951 -0.0679572 -0.041567 -0.0384333 0.0273936 -0.0190364 -0.0175328 -0.0184252 -0.00991931 0.00105762 0.0212517 -0.024812 0.0289389 0.00252709 0.0391363 0.011691 -0.0252131 -0.0694178 0.0200155 -0.000498433 0.000200266 -0.00675237 0.00240034 0.0164053 -0.00144201 -0.00320883 -0.0119449 0.0146425 -0.02012 0.0322719 0.00338979 0.00398249 0.015211 -0.0211247 0.0218392 0.0227786 0.02917 0.00498631 -0.0105954 -0.0113862 0.0209488 0.00711424 0.00932084 -0.00825413 -0.0268492 0.0159815 0.000635509
internal_weight=7023 2350 4673 1296 1054 3765 3236 908 2562 674 1534 592 1028 945 497 529 812 242 191 950 644 515 460 449 652 584 129 681 82 442 174 411 692 418 390 315 178 136 91 179 98 271 362 334 503 262 220 315 250 541 357 147 148 179 139 327 167 112 121 269 245 81
internal_count=7023 2350 4673 1296 1054 3765 3236 908 2562 674 1534 592 1028 945 497 529 812 242 191 950 644 515 460 449 652 584 129 681 82 442 174 411 692 418 390 315 178 136 91 179 98 271 362 334 503 262 220 315 250 541 357 147 148 179 139 327 167 112 121 269 245 81
is_linear=0
shrinkage=0.06


Tree=11
num_leaves=67
num_cat=0
split_feature=9 1 9 9 1 9 9 9 9 5 9 1 9 1 9 1 9 9 1 9 9 9 9 0 9 9 1 1 5 1 6 4 4 9 9 9 6 1 2 1 2 0 2 3 3 9 2 5 2 3 4 2 6 2 2 9 4 2 1 9 6 9 6 1 2 1
split_gain=927.147 404.995 297.569 31.5311 30.7979 22.2578 19.263 14.9422 14.3991 2.25565 1.90724 1.64561 1.61523 1.61212 1.92169 1.48547 1.43393 1.80711 1.11719 1.02419 1.04424 1.87891 0.912716 0.697046 0.660346 0.626866 0.612157 0.588337 0.46917 0.44532 0.348104 0.329569 0.309424 0.286079 0.271181 0.252808 0.296171 0.205162 0.282325 0.198363 0.17906 0.160141 0.259663 0.140785 0.129418 0.126169 0.123386 0.118518 0.113022 0.106443 0.0914094 0.0748826 0.0650583 0.0619139 0.0577939 0.139398 0.0516304 0.0507861 0.0479329 0.0472698 0.0395911 0.0373053 0.0363332 0.0360881 0.0303156 0.0105993
threshold=0.563808172941208 0.41595189273357397 -1.2767894864082334 1.4139974117279055 0.1524230241775513 -0.98792037367820729 0.21991638094186786 -1.5243915915489195 -0.22647736221551892 -0.98691710829734791 -1.194255471229553 -0.90169563889503468 -0.01348631316795945 1.2065384984016421 0.53629684448242199 -0.63816359639167775 0.64811712503433239 1.102054297924042 0.1524230241775513 1.3873735666275027 0.59309443831443798 1.1433213353157046 0.17864936590194705 0.34453167021274572 -1.3868348598480222 -0.79534095525741566 -2.2193431854248042 1.2065384984016421 -1.4191181659698484 1.2065384984016421 -1.7030923366546629 0.23630111664533618 0.67406946420669567 -1.0566987395286558 1.1708326339721682 -0.27972511947154993 -0.45938761532306666 1.4700673818588259 0.32822409272193914 -0.63816359639167775 -1.365804076194763 0.34453167021274572 0.84946307539939891 -1.3131957650184629 -1.0320318043231962 -0.93289768695831288 -0.084422904998064027 1.3284440040588381 0.52368924021720897 2.2013156414031987 -0.43655125796794886 0.7408721148967744 1.530542850494385 0.76258990168571483 0.61056235432624828 -1.4968802332878111 -0.26833789050579065 0.13275895640254023 0.41595189273357397 -0.74031826853752125 1.530542850494385 -0.37290871143341059 -1.4543513655662534 1.4700673818588259 0.37166170775890356 0.1524230241775513
decision_type=2 2 2 2 2 2 2 2 2 2 2 2 2 2 2 2 2 2 2 2 2 2 2 2 2 2 2 2 2 2 2 2 2 2 2 2 2 2 2 2 2 2 2 2 2 2 2 2 2 2 2 2 2 2 2 2 2 2 2 2 2 2 2 2 2 2
left_child=2 4 7 19 15 10 8 30 9 25 57 -9 23 14 44 26 -6 32 35 20 -3 -22 -14 -10 43 -7 -2 47 65 34 -1 63 -18 50 -23 36 45 38 40 -26 -29 -40 -43 56 -8 -11 -31 -5 -35 52 -12 -36 -49 -48 55 -45 -13 -4 -20 -30 -42 -38 -32 -15 -41 -27
right_child=1 3 5 27 16 6 13 11 12 18 33 24 22 31 -16 -17 17 -19 58 -21 21 29 -24 -25 39 28 -28 37 59 46 62 -33 -34 48 51 -37 61 -39 41 64 60 42 -44 54 -46 -47 53 49 -50 -51 -52 -53 -54 -55 -56 -57 -58 -59 -60 -61 -62 -63 -64 -65 -66 -67
leaf_value=-0.026071523816173614 -0.059827882307331742 -0.0095789386570313082 0.005127932614150555 0.00011786219460326572 -0.029543545108349594 0.021494018239065486 0.015341922545891541 0.0022105599958069468 0.031466137417411333 0.019496859513010296 0.0099770268695919123 -0.015523847595155238 0.037686628088508679 0.01012910159712746 0.007050167393331465 -0.057144729133424811 -0.054310410784512021 -0.032446886488107528 0.017259714264954838 -0.0091907937039504752 -0.028187184114456174 -0.018171245110446006 0.029064073100322628 0.02146130729147366 -0.0031746992482593007 0.025708856533794011 -0.067571814831030572 -0.00098121725412107308 0.025806012955037028 -0.015748377404831072 -0.022517969841115613 0.014736768367035047 -0.042364798742004585 0.018496189059977679 -0.0138686613653455 0.026117293162237511 0.020039256177386458 -0.0032701250122014534 0.00051165228433710586 -0.0088840741218688575 0.002330709357387157 -0.0058831347645664552 0.00029867618812551327 -0.01418341735913986 0.019689310220856834 0.023384568307365548 -0.021574487641101748 0.003141458214652941 0.013103833997746308 0.0016905175807873066 0.013773810699203361 -0.0090690254053418951 0.0060259904433767521 -0.017926106807104374 -0.0070518598509270967 -0.0091275547539442763 -0.010780820412984626 0.0078373419979226693 0.012608923384073106 0.029932860355360229 0.0051659546504251473 0.014747871112823486 -0.017930039474143171 0.0068111025187022551 -0.0059261679488836847 0.021413071516901253
leaf_weight=190 163 52 75 42 60 115 64 48 406 104 56 49 387 62 56 178 40 64 76 55 74 57 81 41 57 168 471 42 109 80 169 62 78 96 58 109 48 75 79 71 60 52 42 40 411 365 126 72 44 72 224 40 76 128 40 99 43 92 43 280 40 44 52 50 50 71
leaf_count=190 163 52 75 42 60 115 64 48 406 104 56 49 387 62 56 178 40 64 76 55 74 57 81 41 57 168 471 42 109 80 169 62 78 96 58 109 48 75 79 71 60 52 42 40 411 365 126 72 44 72 224 40 76 128 40 99 43 92 43 280 40 44 52 50 50 71
internal_value=-4.49376e-05 -0.0305262 0.015542 -0.0083896 -0.0582515 0.0230237 0.0250246 -0.0152516 0.0275497 0.0239425 0.0122452 -0.00820814 0.03355 0.0162252 0.0179005 -0.0638949 -0.039106 -0.042047 0.0215749 -0.0175208 -0.0182399 -0.0190108 0.0362722 0.0306118 -0.00933771 0.0264162 -0.0656877 0.00099698 0.0272724 -0.0175552 -0.0237136 0.0110052 -0.0468869 0.0144171 -0.0144616 0.0225759 0.0218319 -0.000467456 0.000189096 -0.00635766 0.00218032 -0.00141397 -0.00308382 -0.0112425 0.0191496 0.0225786 -0.0189255 0.00319317 0.016949 0.00374993 0.013074 -0.0120816 0.00469347 -0.019837 -0.00997445 -0.0107163 -0.0135113 0.00669402 0.0157483 0.028861 0.00356413 0.0177589 -0.0215511 0.00877433 -0.00776957 0.0245522
internal_weight=7023 2376 4647 1322 1054 3739 3152 908 2447 1532 587 497 915 705 531 812 242 182 789 670 615 563 468 447 449 743 634 652 628 489 411 174 118 420 155 670 561 390 315 178 142 173 94 271 475 469 334 262 140 220 280 98 148 254 179 139 92 167 119 389 100 92 221 112 121 239
internal_count=7023 2376 4647 1322 1054 3739 3152 908 2447 1532 587 497 915 705 531 812 242 182 789 670 615 563 468 447 449 743 634 652 628 489 411 174 118 420 155 670 561 390 315 178 142 173 94 271 475 469 334 262 140 220 280 98 148 254 179 139 92 167 119 389 100 92 221 112 121 239
is_linear=0
shrinkage=0.06


end of trees

feature_importances:
Column_9=286
Column_1=148
Column_2=59
Column_5=52
Column_3=32
Column_6=31
Column_4=27
Column_0=22
Column_7=21
Column_8=17

parameters:
[boosting: gbdt]
[objective: regression]
[metric: l2]
[tree_learner: serial]
[device_type: cpu]
[data_sample_strategy: bagging]
[data: ]
[valid: ]
[num_iterations: 600]
[learning_rate: 0.06]
[num_leaves: 112]
[num_threads: 16]
[seed: 2023]
[deterministic: 0]
[force_col_wise: 0]
[force_row_wise: 0]
[histogram_pool_size: -1]
[max_depth: 22]
[min_data_in_leaf: 40]
[min_sum_hessian_in_leaf: 0.001]
[bagging_fraction: 0.9]
[pos_bagging_fraction: 1]
[neg_bagging_fraction: 1]
[bagging_freq: 2]
[bagging_seed: 26561]
[bagging_by_query: 0]
[feature_fraction: 0.85]
[feature_fraction_bynode: 1]
[feature_fraction_seed: 22040]
[extra_trees: 0]
[extra_seed: 25715]
[early_stopping_round: 0]
[early_stopping_min_delta: 0]
[first_metric_only: 0]
[max_delta_step: 0]
[lambda_l1: 0.1]
[lambda_l2: 1]
[linear_lambda: 0]
[min_gain_to_split: 0]
[drop_rate: 0.1]
[max_drop: 50]
[skip_drop: 0.5]
[xgboost_dart_mode: 0]
[uniform_drop: 0]
[drop_seed: 17353]
[top_rate: 0.2]
[other_rate: 0.1]
[min_data_per_group: 100]
[max_cat_threshold: 32]
[cat_l2: 10]
[cat_smooth: 10]
[max_cat_to_onehot: 4]
[top_k: 20]
[monotone_constraints: ]
[monotone_constraints_method: basic]
[monotone_penalty: 0]
[feature_contri: ]
[forcedsplits_filename: ]
[refit_decay_rate: 0.9]
[cegb_tradeoff: 1]
[cegb_penalty_split: 0]
[cegb_penalty_feature_lazy: ]
[cegb_penalty_feature_coupled: ]
[path_smooth: 0]
[interaction_constraints: ]
[verbosity: 1]
[saved_feature_importance_type: 0]
[use_quantized_grad: 0]
[num_grad_quant_bins: 4]
[quant_train_renew_leaf: 0]
[stochastic_rounding: 1]
[linear_tree: 0]
[max_bin: 255]
[max_bin_by_feature: ]
[min_data_in_bin: 3]
[bin_construct_sample_cnt: 200000]
[data_random_seed: 6644]
[is_enable_sparse: 1]
[enable_bundle: 1]
[use_missing: 1]
[zero_as_missing: 0]
[feature_pre_filter: 1]
[pre_partition: 0]
[two_round: 0]
[header: 0]
[label_column: ]
[weight_column: ]
[group_column: ]
[ignore_column: ]
[categorical_feature: ]
[forcedbins_filename: ]
[precise_float_parser: 0]
[parser_config_file: ]
[objective_seed: 2023]
[num_class: 1]
[is_unbalance: 0]
[scale_pos_weight: 1]
[sigmoid: 1]
[boost_from_average: 1]
[reg_sqrt: 0]
[alpha: 0.9]
[fair_c: 1]
[poisson_max_delta_step: 0.7]
[tweedie_variance_power: 1.5]
[lambdarank_truncation_level: 30]
[lambdarank_norm: 1]
[label_gain: ]
[lambdarank_position_bias_regularization: 0]
[eval_at: ]
[multi_error_top_k: 1]
[auc_mu_weights: ]
[num_machines: 1]
[local_listen_port: 12400]
[time_out: 120]
[machine_list_filename: ]
[machines: ]
[gpu_platform_id: -1]
[gpu_device_id: -1]
[gpu_use_dp: 0]
[num_gpu: 1]

end of parameters

pandas_categorical:null
