tree
version=v4
num_class=1
num_tree_per_iteration=1
label_index=0
max_feature_idx=9
objective=regression
feature_names=Column_0 Column_1 Column_2 Column_3 Column_4 Column_5 Column_6 Column_7 Column_8 Column_9
feature_infos=[-4.9281487464904785:0.63685661554336548] [-2.6146364212036133:3.7100627422332764] [-5.1990861892700195:1.272971510887146] [-2.2269694805145264:2.5527749061584473] [-5.5711894035339355:1.3641557693481445] [-1.9902403354644775:2.1465384960174561] [-1.982926607131958:1.6860036849975586] [-2.3018357753753662:1.4582350254058838] [-2.4405524730682373:1.9915002584457397] [-1.7305047512054443:1.7332621812820435]
tree_sizes=9739 9776 9759 9763 9809 9791 9772 9792 9788 9802 9760 9808 9813 9815 9843 9868 9793 9840 9833 9873 9884 9897 9885 9870 9901 9895 9879 9860 9953 9926 9937 9953 9971 9975 9936 9933 9971 9867 9855 10055 9938 9863 10016 10051 9960 9991 10090 10055 10075 10025 9986 10050

Tree=0
num_leaves=112
num_cat=0
split_feature=3 3 3 9 3 3 3 3 5 3 9 9 5 6 9 9 1 9 9 1 1 9 3 5 9 6 3 9 9 9 9 9 9 9 9 9 3 9 9 1 5 4 9 1 5 9 1 9 9 1 5 9 8 1 3 8 3 9 4 8 0 9 0 9 5 3 9 0 9 0 9 3 4 4 4 3 4 4 9 3 1 0 4 3 3 3 3 9 8 9 1 9 3 3 3 5 3 9 5 6 3 6 3 2 6 3 2 5 6 9 4
split_gain=3859.67 837.421 612.362 211.086 138.358 89.5115 62.1489 59.1769 45.071 38.1294 33.5206 29.7001 28.9226 28.095 27.2387 45.3871 49.5924 29.3431 25.4969 22.2431 30.7128 21.1748 23.0934 20.8816 25.097 20.4269 19.7375 16.7205 15.4097 19.8822 13.8847 13.3544 16.5951 13.2552 12.8671 18.935 12.5671 10.4135 10.1902 17.7284 9.83934 8.84262 8.72271 8.46627 7.79737 12.7447 7.45024 7.13662 15.574 6.34342 6.28425 6.00392 5.3154 5.18581 4.80671 4.65668 4.48914 4.34942 4.02893 4.01063 4.00764 3.9939 3.33678 3.27745 3.22727 3.19608 2.90553 2.77339 2.51563 2.45245 2.27436 2.20028 2.13288 1.95023 1.8802 1.8426 1.62482 1.62061 2.24196 1.54902 1.52202 1.41806 1.40297 1.31316 1.25345 1.11155 0.942939 1.11327 0.901978 0.892301 0.776844 0.753701 0.687603 0.656294 0.613082 0.60357 0.594324 0.589484 0.487839 0.483391 0.471231 0.452218 0.425945 0.423375 0.395904 0.38307 0.284573 0.280324 0.254393 0.159791 0.100042
threshold=-0.32913015782833094 0.79551240801811229 -1.0320318043231962 0.75816252827644359 1.4984139800071719 1.0000000180025095e-35 -0.75087112188339222 -1.5943564176559446 -0.83255985379219044 0.5143517702817918 1.6003646254539492 -1.1392327547073362 0.80362856388092052 -1.4543513655662534 0.17864936590194705 -0.19985347986221311 -0.37463472038507456 0.3162060827016831 0.71689549088478099 0.41595189273357397 1.2065384984016421 1.1845883131027224 1.7795746922492983 -0.77081695199012745 0.16489368677139285 -0.21064370870590207 -1.4537760615348814 -1.3455678224563596 -1.125477075576782 -0.75407394766807545 -1.3180564641952512 0.19240503013134005 0.5775638520717622 -0.35959677398204798 -1.5243915915489195 -1.4693688750267027 1.2172533869743349 1.7068601846694949 -1.125477075576782 0.41595189273357397 -1.1412743926048277 -0.60545364022254933 0.23367205262184146 0.41595189273357397 -0.52384456992149342 0.5500524938106538 0.41595189273357397 -0.43946841359138483 -0.34628482162952418 1.4700673818588259 -1.1104029417037962 -0.71280694007873524 0.23004526644945147 0.41595189273357397 0.3737714439630509 0.3982339501380921 1.2172533869743349 -1.249278128147125 -0.67232638597488392 0.039124358445405967 0.17130158096551898 0.44000713527202612 0.27957032620906835 1.4406213760375979 -0.5855882167816161 -2.0160974264144893 -0.69905126094818104 0.30122427642345434 -0.10666989907622336 0.17130158096551898 0.44000713527202612 -0.61029079556465138 1.0111852288246157 -0.23455700278282163 -0.26833789050579065 1.7795746922492983 -0.53789392113685597 -0.13390543684363362 1.4406213760375979 -0.61029079556465138 -0.63816359639167775 0.32287797331810003 0.77541005611419689 0.092610801570117487 -0.18854984268546102 0.93609276413917553 0.23319111764431003 0.027336971834301952 0.89825895428657543 -1.0979657173156736 -0.90169563889503468 0.53629684448242199 -0.18854984268546102 0.092610801570117487 0.65493208169937145 -0.64733111858367909 -1.172612130641937 0.63436147570610057 -0.67820259928703297 -1.1434266567230222 -1.172612130641937 0.53557908535003673 -1.3131957650184629 0.50197042524814617 -0.52157138288021077 0.23319111764431003 0.21963211894035342 -0.83255985379219044 1.1574285030364992 -1.1529884338378904 -0.43655125796794886
decision_type=2 2 2 2 2 2 2 2 2 2 2 2 2 2 2 2 2 2 2 2 2 2 2 2 2 2 2 2 2 2 2 2 2 2 2 2 2 2 2 2 2 2 2 2 2 2 2 2 2 2 2 2 2 2 2 2 2 2 2 2 2 2 2 2 2 2 2 2 2 2 2 2 2 2 2 2 2 2 2 2 2 2 2 2 2 2 2 2 2 2 2 2 2 2 2 2 2 2 2 2 2 2 2 2 2 2 2 2 2 2 2
left_child=2 5 3 7 8 11 18 65 42 12 21 64 14 -8 15 16 28 59 30 60 56 108 -23 24 -11 33 -5 34 74 54 73 40 61 -25 102 -36 49 75 57 50 66 -42 -3 100 -41 70 89 95 -49 63 76 -31 -26 -14 83 -27 85 99 -52 -16 -10 -33 80 -22 -2 -1 -13 -38 92 -17 -46 97 -65 -4 109 -12 -40 -57 94 -72 -62 86 -19 107 -66 -21 -71 -88 -69 -32 110 -48 -43 -53 -79 -18 -45 -60 -94 -15 -29 104 -9 -37 -91 -92 -68 -30 -6 -7 -85
right_child=1 4 6 26 10 9 13 27 19 23 37 31 53 38 17 69 47 82 -20 20 36 22 -24 25 52 55 -28 43 29 51 46 32 -34 -35 35 103 67 -39 39 44 41 68 -44 96 45 -47 91 48 -50 -51 58 93 -54 -55 -56 77 -58 -59 71 -61 62 -63 -64 72 84 -67 106 88 -70 81 79 -73 -74 -75 -76 -77 -78 78 -80 -81 -82 -83 -84 90 -86 -87 87 -89 -90 101 105 -93 98 -95 -96 -97 -98 -99 -100 -101 -102 -103 -104 -105 -106 -107 -108 -109 -110 -111 -112
leaf_value=0.11506916187159069 -0.031154953531929389 -0.11356207877942075 0.029530142101702048 0.13693373809269033 -0.079217268560989026 -0.034096815535742751 -0.017282908892574951 0.073661378119688328 -0.047280604785761737 -0.028847924190430845 -0.063163033024056306 -0.01418819404023584 0.027635166410126779 0.013701625727091113 -0.049307879901771878 0.02006560163918469 -0.055320481112084291 -0.02626042181575363 0.077052981126605441 -0.013826124610840892 -0.048104350888607636 -0.095371639172353209 -0.15745891613750981 -0.028055385031560343 -0.0569194060862874 -0.029139636875423622 0.10729352568017539 0.078942899413616721 0.015134245332705845 -0.039366836414309755 0.040658546858728238 -0.0092042044714677439 0.02203758414903776 -0.06514172060630985 0.012740303673071381 0.062183523936588062 -0.084882586699139811 -0.0445303619339667 0.026483754974001142 0.038506538872863171 -0.000149374928787622 0.023074859244449509 -0.071802209159216784 0.059167731139265198 0.010349441000383144 0.029263179531227698 0.024793621885865848 -0.0047715171344911954 -0.044395856375631371 -0.057487916343793008 0.021842275445349998 -0.0090137210667943016 -0.090392631621550118 0.0016580145684344462 -0.011234108936472169 -0.0022479263565940229 -0.042625008686584663 -0.0019221647396655199 0.053261116874462132 -0.076185814799325777 -0.060849838181815046 -0.03135826064359757 -0.052178490697952044 -0.016250529688299716 -0.005008664878669594 0.090777344292586201 0.0083024901123812441 -0.069642003113001463 0.034847921218899472 0.0080754016355269239 0.0031862607317672525 0.035858937445184431 -0.037032974459651473 0.013338959404297518 -0.017328963943800832 -0.083030078868033513 0.0091471977517434775 -0.014263094067370915 -0.0027095141159080827 -0.011598932200975331 -0.081488251871797562 0.012703427658638531 -0.01181002745584704 0.0005561479706832998 -0.020355189941172944 -0.024502391131671363 -0.0087266595737692798 0.004395869973816963 -0.049711433840954729 0.052190313474942643 0.010619516171826866 0.037739838923134893 0.019636444800730686 -0.018633107666641741 -0.024137649608988215 -0.041731084986276236 0.044702416039624299 0.03865942284578721 0.0099000691916123571 0.023083040114634724 0.066696979068185738 0.046257854103803092 0.056367798688605836 0.046216206696107993 0.065952185123793403 0.0020478167277190591 0.001045705012552779 0.0071729053608902077 -0.095341357426709988 -0.025056705946492373 -0.003291872521173194
leaf_weight=51 73 47 64 202 54 85 64 45 49 95 48 43 44 75 76 47 95 40 81 73 52 54 50 80 49 93 201 165 47 54 54 75 50 67 70 44 42 46 47 40 76 117 48 75 46 78 55 53 115 92 58 49 43 75 77 45 42 63 65 40 44 51 45 40 40 161 41 42 54 48 41 203 42 57 59 153 40 61 40 61 92 56 82 42 43 101 46 44 40 109 43 49 50 88 62 48 49 42 47 43 94 82 51 45 43 41 45 41 248 41 45
leaf_count=51 73 47 64 202 54 85 64 45 49 95 48 43 44 75 76 47 95 40 81 73 52 54 50 80 49 93 201 165 47 54 54 75 50 67 70 44 42 46 47 40 76 117 48 75 46 78 55 53 115 92 58 49 43 75 77 45 42 63 65 40 44 51 45 40 40 161 41 42 54 48 41 203 42 57 59 153 40 61 40 61 92 56 82 42 43 101 46 44 40 109 43 49 50 88 62 48 49 42 47 43 94 82 51 45 43 41 45 41 248 41 45
internal_value=2.80329e-05 -0.0337943 0.0553933 0.086623 -0.0698085 -0.0156076 0.0302622 0.0694835 -0.0542856 -0.0217346 -0.0908553 0.00155394 -0.0168198 0.0208128 -0.0190787 -0.0155336 -0.0210514 -0.0377123 0.0455485 -0.0494724 -0.0428582 -0.101742 -0.126551 -0.034216 -0.0511524 -0.0270217 0.122482 0.0601204 -0.0122657 -0.00697918 0.0404105 0.00722296 -0.00681487 -0.0453657 0.0476419 0.0365798 -0.0538727 -0.0725748 0.0235453 0.0267527 0.012475 0.0177641 -0.0935551 0.0682516 0.0142909 0.00980134 0.0459386 -0.041023 -0.0320685 -0.0448925 0.0339644 -0.0223865 -0.0734973 0.0115133 0.00178398 -0.0179027 -0.0247892 0.0106261 0.0374458 -0.0592506 -0.0654411 -0.0184421 -0.0700047 -0.0357942 -0.02185 0.0971903 -0.00156518 -0.0696538 0.0228704 0.00782893 -0.000502598 0.040247 -0.0273577 0.0221731 -0.0271422 -0.0786813 0.0188438 -0.0127056 -0.0154883 -0.00556612 -0.0753916 0.00471513 -0.0168204 0.0057287 -0.0132498 -0.0201964 0.00131911 -0.00220153 -0.0607804 0.0510535 0.00254509 0.0313089 0.0196442 -0.0153698 -0.0194918 -0.0511638 0.0539509 0.0480517 0.0151904 0.0173864 0.0748182 0.053218 0.0652737 0.0548467 0.0565675 0.0066502 0.00469893 0.0116821 -0.0927688 -0.0314701 -0.00131263
internal_weight=7418 4605 2813 1253 1544 3061 1560 850 891 2256 653 805 1621 966 1502 1264 1023 238 594 796 566 406 104 635 187 448 403 638 712 527 513 649 176 147 255 159 350 247 902 721 473 344 95 383 266 226 392 311 168 226 455 191 92 119 336 301 216 181 368 116 230 126 181 134 156 212 129 124 268 241 148 310 82 121 185 201 87 208 163 102 136 194 122 259 83 174 138 90 82 288 171 104 214 137 123 143 124 107 97 118 259 234 96 89 152 84 86 88 302 126 87
internal_count=7418 4605 2813 1253 1544 3061 1560 850 891 2256 653 805 1621 966 1502 1264 1023 238 594 796 566 406 104 635 187 448 403 638 712 527 513 649 176 147 255 159 350 247 902 721 473 344 95 383 266 226 392 311 168 226 455 191 92 119 336 301 216 181 368 116 230 126 181 134 156 212 129 124 268 241 148 310 82 121 185 201 87 208 163 102 136 194 122 259 83 174 138 90 82 288 171 104 214 137 123 143 124 107 97 118 259 234 96 89 152 84 86 88 302 126 87
is_linear=0
shrinkage=1


Tree=1
num_leaves=112
num_cat=0
split_feature=9 9 7 9 5 4 4 9 4 9 6 9 9 4 1 9 9 1 6 9 2 1 9 9 9 0 9 4 6 9 9 4 9 5 6 9 9 7 9 6 9 9 8 9 2 4 9 5 9 9 9 9 9 2 6 9 9 9 1 1 9 7 2 6 6 1 9 2 7 9 9 9 0 2 2 2 9 0 9 2 2 9 9 9 9 9 5 9 4 2 9 6 0 2 9 7 9 5 9 9 5 4 2 9 6 4 2 2 9 0 2
split_gain=1637.48 1283.48 314.159 208.307 176.635 270.917 250.356 149.395 138.358 131.914 116.44 72.5762 68.6969 50.9682 50.1242 47.0949 44.1982 40.2911 35.0921 30.7763 28.2973 28.2124 33.6346 27.7664 25.7649 25.3812 25.0333 21.986 25.625 20.3032 19.1142 18.5149 18.4142 18.0721 15.6967 15.6662 14.546 11.5697 10.853 11.2606 10.6532 10.1509 32.2165 9.41603 9.14185 8.61953 8.08302 8.35189 8.19813 14.8216 6.84437 14.2843 6.03687 5.92565 8.64324 5.89896 5.87614 6.10264 5.77638 4.74536 4.72257 4.70559 4.53748 4.45135 4.36777 4.21297 4.60277 4.55853 4.02459 8.87833 7.25765 3.70432 3.5806 3.57485 3.68196 3.5689 3.44286 3.40222 3.29217 2.97337 2.75248 2.74064 2.38336 2.98677 2.12178 2.00785 1.99263 1.77312 1.7336 1.65459 1.59208 1.58188 1.42021 1.39478 1.35179 1.92488 1.55437 1.28286 1.23334 1.22748 1.22145 2.33706 1.5038 1.05594 1.00636 1.00379 0.968839 1.30213 0.796283 0.735969 0.68198
threshold=0.99200892448425304 0.7031398117542268 -1.7921375036239622 1.2276302576065066 -0.83255985379219044 0.23630111664533618 -0.67232638597488392 1.5604287981987002 -1.1776555180549619 -1.6069256067275999 -1.3921675682067869 0.96449759602546703 0.53629684448242199 0.2700809538364411 -1.1652276515960691 0.7719181776046754 0.39874011278152471 -1.1652276515960691 0.10028097406029703 -0.49271617829799647 -0.69253605604171742 0.94300961494445812 -0.040110195055603974 1.3474377393722536 1.1845883131027224 0.06303309835493566 -0.10666989907622336 -0.066345751285552965 -1.4543513655662534 -1.3455678224563596 1.7068601846694949 -0.032564855180680745 1.4006855487823489 -0.46210168302059168 -1.6409085988998411 0.21991638094186786 -0.60276153683662403 0.48061683773994451 -0.35959677398204798 -0.27283042669296259 1.5870527029037478 -0.1865415424108505 -0.43817384541034693 0.88196355104446422 0.67571672797203075 -0.032564855180680745 -0.98792037367820729 -0.70907405018806446 -1.0979657173156736 -1.249278128147125 -0.75407394766807545 -0.71280694007873524 -0.33297289907932276 0.63228118419647228 0.65994662046432506 -1.125477075576782 1.5338048934936526 1.4273093938827517 0.67948076128959667 1.4700673818588259 -0.93289768695831288 -2.0762310028076167 -0.49707196652889246 0.53557908535003673 1.2818019390106203 -0.90169563889503468 -0.93289768695831288 0.61056235432624828 -0.8562977910041808 -1.4693688750267027 -1.4143462181091306 -0.26641319692134852 0.34453167021274572 0.71915432810783397 -0.58394512534141529 0.71915432810783397 -0.64402857422828663 0.17130158096551898 -0.74031826853752125 0.024168025236576799 -0.84456461668014515 0.85445222258567821 -0.58900588750839222 -0.56149452924728382 -0.066734075546264635 -0.64402857422828663 0.64927130937576305 -0.80909663438796986 -0.33589969575405115 -0.25817026197910303 -1.0154317021369932 1.1574285030364992 0.34453167021274572 0.76258990168571483 -0.43946841359138483 0.6143074929714204 -0.31966094672679896 -0.3386158794164657 -1.6894596219062803 -0.01348631316795945 -0.5855882167816161 0.70784932374954235 0.30650527775287634 0.027336971834301952 -1.7652760744094846 -0.20077716559171674 0.067604605108499541 0.58884355425834667 1.0000000180025095e-35 0.14964788407087329 -0.27988803386688227
decision_type=2 2 2 2 2 2 2 2 2 2 2 2 2 2 2 2 2 2 2 2 2 2 2 2 2 2 2 2 2 2 2 2 2 2 2 2 2 2 2 2 2 2 2 2 2 2 2 2 2 2 2 2 2 2 2 2 2 2 2 2 2 2 2 2 2 2 2 2 2 2 2 2 2 2 2 2 2 2 2 2 2 2 2 2 2 2 2 2 2 2 2 2 2 2 2 2 2 2 2 2 2 2 2 2 2 2 2 2 2 2 2
left_child=1 2 29 17 5 19 8 23 41 34 27 15 13 14 55 109 21 93 35 20 76 22 26 44 91 -10 46 28 110 -1 40 -21 79 80 98 -7 50 -15 -35 52 -9 42 -6 81 64 -18 48 60 49 68 65 -52 -40 54 -14 77 57 -34 73 -46 -48 -31 -50 100 -5 66 -22 88 69 -16 -71 -54 -42 74 -24 92 78 -12 -4 -25 -27 -17 -63 -84 -28 -53 -61 -68 -67 -74 -64 -19 -59 -2 -82 -96 -97 -23 -8 -43 102 -102 -39 108 -100 -105 -49 -108 -76 -3 -11
right_child=3 11 4 7 6 18 9 30 25 10 12 -13 53 37 16 43 45 24 -20 31 36 97 58 32 -26 33 84 -29 -30 61 -32 -33 56 38 -36 -37 -38 63 39 -41 72 99 -44 -45 59 -47 47 106 62 -51 51 85 71 -55 -56 -57 -58 75 -60 86 -62 82 90 -65 -66 67 87 -69 -70 70 -72 -73 89 -75 103 -77 -78 -79 -80 -81 94 -83 83 -85 -86 -87 -88 -89 -90 -91 -92 -93 -94 -95 95 96 -98 -99 104 -101 101 -103 -104 105 -106 -107 107 -109 -110 -111 -112
leaf_value=0.026646661700414759 -0.036382196942676921 0.08529886303629193 0.024593311761433329 -0.038470747029108382 0.040993131238493047 -0.11716578455825351 -0.02444512256949263 -0.10061884529307737 0.0080855401142135904 0.070551002659580919 -0.025572389520286173 0.032607541815179289 0.030292433750541772 -0.038073428534610237 0.0017483079926325724 0.11595293910435268 -0.034500362279349342 -0.071875218993141532 -0.051824868530086048 -0.045668198422893228 0.0038771273248474781 0.065002817217842665 0.013050911900454334 -0.0057442480507874632 -0.12571283300813424 -0.015007161588343825 0.059551807044388408 0.019169436212121086 0.040315071852744688 0.085485246381589344 -0.036807832948232096 -0.0042781987026865986 -0.034993325882836386 -0.024484778789656336 -0.05914301769400751 -0.068958381744531477 0.020874647658055936 -0.0029576502899275859 -0.08374354377458261 -0.028895549434452102 -0.077282322615385063 0.044065166755517318 -0.024211221066407031 0.10079087115546403 -0.012612113359827513 -0.001354144349895619 0.014411056311234184 0.031447562826842801 0.053075301152009223 -0.0044210770839681985 -0.037290039845705031 -0.010968764848130591 -0.039012672644108529 0.031556220475818721 0.058417649146987168 0.0044198879015779017 -0.038658533633782938 -0.014830985132372007 0.023818608963489533 -0.046948936535090927 -0.011746426083147526 0.054068091533621243 0.035307342639509236 0.0080401397779885989 -0.064018826081834984 0.0037786144081352123 -0.021936800178974421 0.020380780607461929 0.045481393403396374 0.053048172502982903 0.02338007814945639 -0.062754595907529187 -0.070432487437358263 0.014987922176197172 -0.0055671276754606508 -0.021997312455878149 0.03708903456252554 -0.0058907180584242772 0.0037226986371223687 0.014384516437479761 -0.03879631759782335 0.14076785315060225 0.082068750973258692 0.05829373516965268 0.0391607712588527 0.0016277820826120053 -0.026283793580817415 -0.0069597336243966525 -0.011556398375232408 -0.051204842811045433 0.019719968300226123 -0.089114833679092065 -0.0018607865402717951 -0.05628818987097059 -0.018305143618517941 -0.042031050135466187 -0.025229730607755484 0.044852369346788948 -0.0073566557370688549 0.027835229950059544 0.0039345823425799608 -0.013451644987744444 -0.017604921169163859 -0.0080875970766805527 -0.019456548142872874 0.0048110873793650944 0.012791095490524403 0.026529655306336452 -0.017590806586713328 0.067433337207234226 0.090538459305252339
leaf_weight=55 41 41 76 61 54 66 84 58 45 43 88 60 67 42 51 174 46 62 145 91 70 47 41 40 82 57 76 43 83 55 58 69 56 56 42 51 70 40 42 51 143 44 53 176 51 73 45 40 51 64 74 118 47 142 122 56 57 47 44 40 53 105 105 73 57 73 66 47 40 40 136 89 51 49 49 90 45 53 45 71 66 60 55 66 43 71 46 57 40 68 42 266 91 41 67 43 64 41 52 54 59 50 82 43 60 41 64 52 40 108 83
leaf_count=55 41 41 76 61 54 66 84 58 45 43 88 60 67 42 51 174 46 62 145 91 70 47 41 40 82 57 76 43 83 55 58 69 56 56 42 51 70 40 42 51 143 44 53 176 51 73 45 40 51 64 74 118 47 142 122 56 57 47 44 40 53 105 105 73 57 73 66 47 40 40 136 89 51 49 49 90 45 53 45 71 66 60 55 66 43 71 46 57 40 68 42 266 91 41 67 43 64 41 52 54 59 50 82 43 60 41 64 52 40 108 83
internal_value=2.07975e-05 0.0146715 0.00497765 -0.0542106 0.00111032 -0.0180871 0.00788797 -0.0394441 -0.0209634 0.0165314 0.0205346 0.096291 0.0162514 0.0119583 0.0164417 0.103035 0.0203888 -0.0866047 -0.0723436 -0.00397111 0.00056063 0.023603 0.0211643 -0.0230845 -0.0943551 -0.0349484 0.0269998 0.0591913 0.0672378 0.0610093 -0.0698693 -0.0280307 -0.0140607 -0.0383045 -0.0260826 -0.0970165 -0.00481049 -0.00889515 -0.0491877 -0.0550438 -0.0756909 0.021714 0.00865941 0.113729 -0.0389154 -0.0144477 0.0230207 0.014037 0.0272769 0.0212962 -0.00777781 -0.0150941 -0.0622653 0.0415114 0.0487224 -0.0118288 -0.0209639 -0.0172472 0.00394806 -0.0278266 0.000167693 0.0675742 0.0370576 -0.00471299 -0.0513469 -0.00226574 -0.00823791 0.00487008 0.0274989 0.0240919 0.0304522 -0.0549819 -0.0697653 0.00050063 -0.00281502 -0.0127023 0.0227247 -0.0183524 0.017024 0.00703724 -0.0276907 0.122939 0.0628051 0.069783 0.0526714 -0.00618991 -0.0364626 -0.0152051 -0.0015982 -0.0600635 0.0310982 -0.086121 -0.00643942 -0.047038 -0.0305784 -0.0271888 -0.0324194 0.0563588 -0.018673 0.0356149 -0.0088122 -0.00398145 -0.0129632 -0.00669752 -0.0140598 -0.0016681 0.0226168 0.0192264 -0.0112398 0.0729652 0.0844211
internal_weight=7418 5841 5222 1577 4886 1274 3612 1085 832 2780 2542 619 2290 1959 1613 559 1416 492 262 1012 852 1297 1209 707 410 627 902 252 209 336 378 160 452 582 238 117 686 346 285 229 320 205 107 410 255 119 783 254 529 331 616 263 178 331 189 197 341 284 307 137 98 281 198 304 118 353 193 160 267 227 176 136 262 263 214 228 166 141 121 111 297 234 226 121 119 189 86 123 113 119 147 328 138 82 240 174 107 88 196 98 231 109 122 173 112 84 156 116 89 149 126
internal_count=7418 5841 5222 1577 4886 1274 3612 1085 832 2780 2542 619 2290 1959 1613 559 1416 492 262 1012 852 1297 1209 707 410 627 902 252 209 336 378 160 452 582 238 117 686 346 285 229 320 205 107 410 255 119 783 254 529 331 616 263 178 331 189 197 341 284 307 137 98 281 198 304 118 353 193 160 267 227 176 136 262 263 214 228 166 141 121 111 297 234 226 121 119 189 86 123 113 119 147 328 138 82 240 174 107 88 196 98 231 109 122 173 112 84 156 116 89 149 126
is_linear=0
shrinkage=0.06


Tree=2
num_leaves=112
num_cat=0
split_feature=3 3 3 9 3 3 3 3 5 3 7 6 5 9 9 9 1 9 9 5 9 1 1 6 9 3 3 9 9 9 9 9 9 9 9 7 8 3 7 9 6 1 7 7 1 9 9 9 9 9 8 7 9 9 6 9 9 9 7 3 7 2 8 9 5 5 5 3 5 2 0 3 3 1 9 3 9 2 9 1 3 3 3 5 7 8 3 0 9 6 3 6 9 7 9 3 9 9 7 2 7 9 1 3 3 8 6 2 0 2 3
split_gain=3032.4 669.162 483.512 154.574 111.611 68.8819 47.9124 45.0628 36.4992 28.4708 27.2522 23.8634 23.6328 22.9872 21.4945 36.9408 38.229 24.3911 19.1893 17.9873 19.8537 17.8555 21.1393 17.0013 15.6408 15.3714 12.4612 12.4384 16.2916 12.0214 11.0102 18.6406 10.3751 10.2036 9.47953 9.07603 8.73946 7.87072 7.5577 9.70001 6.98407 6.79177 6.2716 5.82758 5.71177 5.37373 7.68021 8.87371 5.78402 5.1592 4.96827 4.81717 4.49422 4.11999 4.10479 5.86385 5.00858 4.09862 4.02273 3.85348 3.29313 3.23764 3.06657 3.00709 4.40222 2.915 2.82257 2.62523 2.13978 2.116 1.87521 1.81619 1.8073 1.68235 1.48482 1.39703 1.39054 1.2292 1.21442 1.10054 1.06357 1.04013 1.02637 1.01988 1.0016 0.979025 0.933455 0.886281 0.86757 1.90727 0.848036 0.823141 0.780311 0.775957 0.766867 0.753761 0.670367 1.60153 0.653469 0.62143 0.584252 0.53694 0.535507 0.513722 0.335315 0.32217 0.308333 0.288031 0.271759 0.221934 0.183465
threshold=-0.32913015782833094 0.79551240801811229 -1.0320318043231962 0.75816252827644359 1.4984139800071719 1.0000000180025095e-35 -0.75087112188339222 -1.5943564176559446 -0.83255985379219044 0.5143517702817918 0.53075048327445995 -1.4543513655662534 0.80362856388092052 -1.1392327547073362 0.17864936590194705 -0.19985347986221311 -0.37463472038507456 0.3162060827016831 0.71689549088478099 -0.77081695199012745 0.16489368677139285 0.41595189273357397 1.4700673818588259 -0.21064370870590207 1.7068601846694949 -1.4537760615348814 1.2172533869743349 -1.125477075576782 -0.75407394766807545 -1.3455678224563596 -1.4968802332878111 -1.4693688750267027 -0.74031826853752125 -1.3180564641952512 -0.35959677398204798 0.44719342887401586 0.67097464203834545 -0.46971046924591059 -0.18784048408269879 -0.34628482162952418 0.038097223732620485 0.41595189273357397 0.44719342887401586 0.83155623078346264 0.41595189273357397 -1.125477075576782 0.3162060827016831 0.5500524938106538 -0.10666989907622336 1.6003646254539492 0.23004526644945147 0.14638768136501315 -0.71280694007873524 -0.74031826853752125 0.16246472299098971 -1.125477075576782 0.563808172941208 0.49502982199192053 0.56417387723922741 0.23319111764431003 -1.4077746868133543 -0.36676120758056635 0.92098850011825573 -0.17322960495948789 -0.3386158794164657 -1.1104029417037962 -0.5855882167816161 -2.0160974264144893 1.4828012585639956 -0.8011280596256255 0.32287797331810003 -0.18854984268546102 1.2172533869743349 -0.90169563889503468 -0.10666989907622336 1.7795746922492983 1.1845883131027224 0.54540804028511058 1.0882986783981325 -0.37463472038507456 -1.3131957650184629 0.3737714439630509 0.3737714439630509 -0.67820259928703297 -1.1905260086059568 -1.1018437743186948 -0.18854984268546102 0.30122427642345434 -0.13329377770423886 -0.58375811576843251 -0.89145144820213307 1.3439886569976809 -1.1529884338378904 0.84826743602752697 0.53629684448242199 0.93609276413917553 0.12362667545676233 0.013581299688667061 -1.4746205210685728 -0.84456461668014515 -1.5247541666030882 0.041092643514275558 -0.90169563889503468 -1.172612130641937 -1.7349367737770078 0.25731852650642401 -1.8274627923965452 0.11104118451476098 0.19295527786016467 0.48025263845920568 -1.172612130641937
decision_type=2 2 2 2 2 2 2 2 2 2 2 2 2 2 2 2 2 2 2 2 2 2 2 2 2 2 2 2 2 2 2 2 2 2 2 2 2 2 2 2 2 2 2 2 2 2 2 2 2 2 2 2 2 2 2 2 2 2 2 2 2 2 2 2 2 2 2 2 2 2 2 2 2 2 2 2 2 2 2 2 2 2 2 2 2 2 2 2 2 2 2 2 2 2 2 2 2 2 2 2 2 2 2 2 2 2 2 2 2 2 2
left_child=2 5 3 7 8 13 18 67 40 12 -6 -8 14 66 15 16 27 51 33 20 -11 43 26 34 49 104 35 73 59 30 80 -32 83 85 -21 -23 57 45 -18 -40 -3 110 91 -10 90 100 48 108 53 76 -22 -16 -30 -47 55 -39 -56 60 -14 84 107 -62 -28 -38 74 -57 -2 -1 95 -17 96 -63 -24 92 -65 -51 78 -49 -12 -45 -9 -61 93 -15 -29 -4 -68 -19 89 -67 -35 -25 -7 -71 -46 -37 97 -44 -54 -55 -13 -84 -86 -43 -5 -89 -75 -34 -48 -33 -31
right_child=1 4 6 25 10 9 11 29 21 19 24 37 58 32 17 69 38 87 -20 23 50 22 72 42 -26 -27 62 28 52 41 31 109 36 44 -36 68 63 54 39 -41 -42 103 70 79 94 46 47 77 -50 75 -52 -53 98 99 56 65 -58 -59 -60 81 61 71 -64 64 -66 88 86 -69 -70 82 -72 -73 -74 106 -76 -77 -78 -79 -80 -81 -82 -83 101 -85 102 -87 -88 105 -90 -91 -92 -93 -94 -95 -96 -97 -98 -99 -100 -101 -102 -103 -104 -105 -106 -107 -108 -109 -110 -111 -112
leaf_value=0.10341761175155639 -0.027673855892921744 -0.10022812379107755 0.025195440647006035 0.13245661355875718 -0.11505903463893467 -0.035768355846405024 -0.015869588316932543 0.066975087246894827 -0.044648402633314779 -0.025529909864813089 -0.089378039234562931 0.017437370298938316 0.0012894461977125053 0.022580605521409405 -0.042933891918659206 0.017639069924929311 -0.049181014821856418 -0.0073608843649427087 0.067964152839448705 -0.025416792942138458 -0.049918960653245442 -0.045682088676095002 -0.051414471558902573 -0.033596221716867554 -0.040386313093745192 0.094737473967075353 -0.059555328210194901 -0.00016879271343350411 -0.035449138601620994 0.070650139374905316 0.0044830981889053389 0.055666253604672165 0.0058191143564347708 0.049666772853320752 -0.057439554136190833 -0.011681860805394944 -0.0021912729025068806 0.0010896753612086888 -0.012261118565127254 -0.039908879272008341 -0.063161540687084183 0.053172178568778095 -0.018129294031858447 -0.05865625998973846 0.022035498975962398 0.040954546682039898 0.0092378444839268919 0.038019492139250537 0.057613414647967306 -0.055970809891819948 -0.082107174055142826 -0.071385275536920964 -0.010849528374652681 0.014983570275784926 -0.007325785733014345 0.0086175881167252846 0.019826375366711033 0.012898606378851192 0.023921422822134834 -0.00034726837991382292 -0.026635800246415393 0.00036654867708194451 -0.037069614151462177 0.015465788531303405 -0.00030291971810428157 0.028995215353997128 -0.0044231578660493881 0.081083386350862735 -0.032266720390537892 0.013542997194125373 -0.001413497270140797 -0.01344491908788681 -0.070327797740697862 -0.021608840140598742 0.03112705663235291 -0.073772858596161797 -0.099434538630338812 0.023789058407468179 -0.075593901995371082 -0.075681755888462057 0.049355934221236429 -0.010012055952714968 -0.0048776002710801541 0.011045564671163449 0.0056646576643500837 0.01299391402469741 -0.017550235470193767 -0.013586370006270174 0.034985741758346553 0.011714089724462388 0.040443700036185012 -0.020296747666500185 -0.022670103491569053 0.0022910898201491522 0.034453553745746608 -0.019811275671562177 -0.020026444915343417 -0.0017479761586038638 -0.020767881967889316 0.027184560573378275 0.0076602854551422557 0.0043840529659230788 0.013930622200481595 0.039914614019393918 0.11267410385116072 -0.023280461127688064 -0.012397227738584793 -0.0008557138475490377 0.0020615854853803807 0.041386285407202579 0.05984605435441049
leaf_weight=49 75 50 64 78 80 53 66 49 87 89 113 76 70 114 74 55 112 44 80 76 47 59 91 53 45 199 53 41 53 165 56 43 41 141 66 88 40 58 79 117 47 76 44 79 59 89 41 58 42 47 43 40 88 42 59 44 40 41 48 87 41 60 60 59 41 75 43 160 40 50 74 74 47 43 45 151 51 61 168 59 60 78 47 47 61 53 42 41 44 40 147 45 48 45 49 119 43 45 43 42 42 41 71 49 120 40 41 46 46 41 88
leaf_count=49 75 50 64 78 80 53 66 49 87 89 113 76 70 114 74 55 112 44 80 76 47 59 91 53 45 199 53 41 53 165 56 43 41 141 66 88 40 58 79 117 47 76 44 79 59 89 41 58 42 47 43 40 88 42 59 44 40 41 48 87 41 60 60 59 41 75 43 160 40 50 74 74 47 43 45 151 51 61 168 59 60 78 47 47 61 53 42 41 44 40 147 45 48 45 49 119 43 45 43 42 42 41 71 49 120 40 41 46 46 41 88
internal_value=-6.17654e-05 -0.030114 0.0492209 0.0772878 -0.0624173 -0.0138159 0.0269657 0.0624756 -0.0483112 -0.0192443 -0.0812267 0.0186625 -0.0149938 0.00117149 -0.0170414 -0.0138593 -0.0188479 -0.0335467 0.0404034 -0.0301331 -0.0462807 -0.0438652 -0.0378996 -0.0235364 -0.0763071 0.108214 -0.0309956 -0.0111099 -0.00631747 0.0542082 0.0434022 0.0316814 0.00621138 0.0359582 -0.0406821 -0.024485 0.00181276 0.0212258 -0.0364776 -0.0289449 -0.0832182 0.0611615 -0.0153811 -0.0583472 0.0406024 0.025851 0.0290604 0.020478 0.037095 -0.0792526 -0.0661629 -0.0535551 -0.0206359 0.0317422 0.0142152 0.0181617 0.00361334 -0.00443022 0.0107202 0.00147968 -0.00722635 -0.0119586 -0.0481512 0.0120711 0.0160758 0.0229513 -0.0191086 0.0868443 -0.0192096 0.00735513 -0.00927247 -0.00721488 -0.0584019 -0.0244613 0.0225885 -0.0699099 -0.0845617 0.0310839 -0.0814768 -0.0665137 0.0579224 -0.00502116 0.00412005 0.0193763 0.00774209 0.0199269 -0.0111777 -0.0149235 0.0267642 0.0232406 0.0451569 -0.0278772 -0.0299444 0.00841753 0.0280441 -0.0164858 -0.0135443 -0.0100914 -0.0143287 0.0214733 0.0141518 -0.000426905 0.0102723 0.0484285 0.121154 -0.0187454 -0.0174526 0.00218391 0.00564641 0.0494063 0.0671899
internal_weight=7369 4578 2791 1233 1534 3044 1558 836 879 2235 655 965 1610 809 1492 1253 1015 239 593 625 179 782 557 446 575 397 419 707 522 627 249 140 649 513 142 306 488 899 308 196 97 378 304 225 396 539 421 206 215 530 90 114 184 173 360 261 99 303 118 338 262 175 113 185 145 203 160 209 247 238 206 134 138 185 104 198 332 119 281 138 109 165 183 161 173 117 85 125 159 115 288 98 101 95 108 207 132 89 131 84 118 88 132 125 198 81 84 87 87 84 253
internal_count=7369 4578 2791 1233 1534 3044 1558 836 879 2235 655 965 1610 809 1492 1253 1015 239 593 625 179 782 557 446 575 397 419 707 522 627 249 140 649 513 142 306 488 899 308 196 97 378 304 225 396 539 421 206 215 530 90 114 184 173 360 261 99 303 118 338 262 175 113 185 145 203 160 209 247 238 206 134 138 185 104 198 332 119 281 138 109 165 183 161 173 117 85 125 159 115 288 98 101 95 108 207 132 89 131 84 118 88 132 125 198 81 84 87 87 84 253
is_linear=0
shrinkage=0.06


Tree=3
num_leaves=112
num_cat=0
split_feature=3 3 3 9 3 3 3 3 9 5 7 4 7 1 5 9 9 1 1 9 9 3 9 9 9 9 9 9 9 9 9 9 9 9 3 3 9 9 2 1 7 7 3 7 1 1 4 9 9 9 9 9 1 9 9 1 4 9 1 9 5 3 5 3 3 4 0 3 5 3 9 2 3 3 4 9 5 9 3 2 0 2 3 4 2 4 1 3 9 7 2 1 8 3 9 4 4 2 7 3 3 3 3 3 3 5 3 3 0 2 4
split_gain=2684.7 592.243 427.632 136.559 98.6021 61.3272 42.3379 39.8048 39.032 32.3371 24.2012 21.7202 34.625 25.0492 45.6493 21.1505 16.9651 15.7757 19.0374 14.6124 14.1933 13.6058 13.0934 12.4425 18.4962 20.7732 10.5683 10.4465 9.87486 9.73733 13.1986 9.00376 8.71157 10.0344 7.65545 6.96481 6.22356 6.10933 6.09791 5.96319 5.43718 5.39448 6.30217 5.14558 5.01927 4.9804 4.81631 4.75486 6.79045 7.84681 5.11589 3.75717 3.64347 5.28612 3.62287 3.26212 3.18632 3.05485 2.90631 3.59303 2.77657 2.77581 2.68415 2.57147 2.54807 2.38706 2.36129 2.32614 2.1349 2.03699 1.95346 1.7851 1.77966 1.74703 1.66678 1.63618 1.59479 1.58718 1.51679 1.46844 1.34293 1.33174 1.28412 1.11239 1.07725 0.971257 0.954712 0.925373 0.878196 0.859021 0.852055 0.779478 0.755466 0.728763 0.669819 0.636014 0.957058 0.542827 0.511154 0.499994 0.499176 0.466343 0.439545 0.432952 0.389209 0.364206 0.267697 0.243895 0.238807 0.178014 0.168622
threshold=-0.32913015782833094 0.79551240801811229 -1.0320318043231962 0.75816252827644359 1.4984139800071719 0.092610801570117487 -0.75087112188339222 -1.5943564176559446 -1.1392327547073362 -0.83255985379219044 0.56417387723922741 -0.67232638597488392 0.54746168851852428 -0.37463472038507456 -0.80168840289115895 -1.5243915915489195 0.71689549088478099 0.41595189273357397 1.2065384984016421 0.21991638094186786 -0.76782962679862965 -1.4537760615348814 1.7068601846694949 -0.19985347986221311 0.17864936590194705 0.5775638520717622 -1.3455678224563596 -0.21316542476415631 1.1845883131027224 -1.5243915915489195 -1.4693688750267027 -1.3180564641952512 -0.35959677398204798 -0.43946841359138483 1.0766730904579165 -0.46971046924591059 0.23367205262184146 1.3607497215270998 -0.10614171624183653 0.41595189273357397 -1.4077746868133543 -1.2072371840476988 0.5143517702817918 0.83155623078346264 0.41595189273357397 -0.37463472038507456 -0.032564855180680745 -1.125477075576782 0.3162060827016831 0.5500524938106538 -0.10666989907622336 1.6136765480041506 0.41595189273357397 -1.125477075576782 -0.74031826853752125 -1.1652276515960691 -0.13390543684363362 -0.98792037367820729 1.4700673818588259 1.4406213760375979 0.64927130937576305 -0.18854984268546102 -1.1104029417037962 1.2172533869743349 0.3737714439630509 -0.70610728859901417 0.30122427642345434 -2.0160974264144893 0.80362856388092052 0.3737714439630509 -0.69905126094818104 0.48025263845920568 0.3737714439630509 1.9201549887657168 0.20321029424667361 -0.41284452378749842 1.0506009459495547 -0.10666989907622336 -0.18854984268546102 -0.01926855510100722 0.21460897475481036 0.65399897098541271 0.5143517702817918 -0.23455700278282163 0.54540804028511058 -0.43655125796794886 -0.37463472038507456 0.3737714439630509 -1.0979657173156736 0.6143074929714204 1.0000000180025095e-35 1.0000000180025095e-35 0.70734077692031871 1.6389943361282351 0.53629684448242199 0.47207520902156835 -0.43655125796794886 -0.84456461668014515 -1.5247541666030882 0.5143517702817918 -1.3131957650184629 0.23319111764431003 0.93609276413917553 -1.172612130641937 -0.18854984268546102 -0.92517420649528492 -1.7349367737770078 -0.18854984268546102 0.19295527786016467 0.48025263845920568 -0.3021187931299209
decision_type=2 2 2 2 2 2 2 2 2 2 2 2 2 2 2 2 2 2 2 2 2 2 2 2 2 2 2 2 2 2 2 2 2 2 2 2 2 2 2 2 2 2 2 2 2 2 2 2 2 2 2 2 2 2 2 2 2 2 2 2 2 2 2 2 2 2 2 2 2 2 2 2 2 2 2 2 2 2 2 2 2 2 2 2 2 2 2 2 2 2 2 2 2 2 2 2 2 2 2 2 2 2 2 2 2 2 2 2 2 2 2
left_child=2 5 3 7 9 8 16 67 45 36 28 27 13 41 19 -8 31 43 63 -15 55 106 51 40 77 46 29 32 -6 100 -31 83 33 -7 58 47 -3 71 64 -28 90 70 57 -11 88 65 -26 98 50 108 54 79 53 -37 -49 -10 -40 -43 59 -20 -54 -42 -55 89 -14 -2 -36 -1 -27 -39 -13 -16 101 -53 -48 -35 -68 104 -67 -12 -63 92 -34 -4 -51 -64 -45 -21 -33 -19 -22 -69 -58 -81 -46 96 -90 -56 -17 -73 -9 -59 -91 -41 -25 -57 -5 -107 -50 -32 -80
right_child=1 4 6 21 10 11 15 26 20 17 22 12 38 14 37 35 -18 18 34 87 23 -23 -24 24 25 68 39 -29 -30 30 109 44 82 75 66 52 -38 69 56 103 61 42 -44 86 94 -47 74 48 49 84 -52 73 60 62 97 105 81 72 -60 -61 -62 80 85 -65 -66 78 76 91 -70 -71 -72 99 -74 -75 -76 -77 -78 -79 110 93 -82 -83 -84 -85 -86 -87 -88 -89 95 102 -92 -93 -94 -95 -96 -97 -98 -99 -100 -101 -102 -103 -104 -105 -106 107 -108 -109 -110 -111 -112
leaf_value=0.097336655101776123 -0.030060007569582565 -0.094749806842803944 0.024485343484651475 0.12460982072806058 -0.078281211316585539 -0.043843450576411903 -0.014931624347316241 0.063036951241493222 0.0015731397576880855 -0.041999940339137204 -0.087427837750086418 -0.027685383468640568 0.018705682912873008 -0.079215697132050983 -0.033853397011756887 0.016404715732320562 0.063936646196577282 -0.024390545722354072 -0.039486174488067627 -0.032834865574603495 0.0053840175221892108 0.089081643440723418 -0.038015811712845515 0.018843288614352544 -0.035021304168599721 0.0058889631216214695 0.063192120114180045 -0.011102394333258271 -0.12064629924681879 0.01043544149179669 0.052402187542481854 0.033104354581550546 -0.040953923802221973 -0.025522545516490934 -0.063111726556931216 0.0010254029031385177 -0.059736694788446225 0.0016581816431473601 0.0059036514115933742 0.050023281417883834 -0.0029941325856904892 -0.017046172719764507 -0.024039239595207988 -0.055180876417458058 0.020735404583811758 -0.036693592126071449 -0.0055165205999610145 0.038524577589829759 0.0086967709902673954 0.035776986285791554 0.054237001202827269 -0.052555870307119265 0.01432878108951263 0.0081120227813720695 0.014105463144737622 0.024796718243757884 -0.021319461451677072 0.0053771819192161025 -0.045379160821437829 -0.015370137535190832 -0.0051833976022899152 -0.012883737994730473 0.01784665369838476 -0.035274762558085579 0.0022140036288539272 -0.004539459995459765 -0.056901971837748651 0.067490444660941257 0.024701060796777405 -0.013599615592247165 -0.013291126445867121 -0.015561673309813652 -0.0092611437976776977 -0.070097165616989129 -0.021140343235473015 -0.0099702594863343985 -0.039251236827439299 0.026248090825429771 -0.021281246523444469 -0.061471157960171961 -0.025954451955008232 -0.002992776669080416 -0.055514497688838406 0.011762985794039976 0.02238473659849936 0.029383413804366307 -0.071216534245014187 -0.047384801280040002 0.042655519152926924 -0.009667907592789694 -0.004666049941243337 0.08352143986253853 -0.010240040225806097 -0.077061368733644484 0.032427684119939799 0.037848613957324653 0.056879697901361125 0.025591418615607327 0.0072113572362550466 -0.025219811912626029 0.047277879080772398 -0.0010212415250917448 -0.018158537543378771 0.037567634925842287 0.010067565357998798 0.02064192993767926 0.10596953183560331 0.014032213386790506 0.0019405221897870935 0.038962230452469417 -0.013672097540005696
leaf_weight=49 45 49 62 78 47 80 66 49 51 87 103 98 58 63 56 76 80 57 44 45 46 199 45 44 46 41 253 74 61 67 43 56 92 41 69 58 48 54 53 76 41 58 78 79 59 74 69 89 41 58 42 56 47 44 42 44 41 73 55 53 56 54 54 41 84 48 45 78 53 70 63 69 75 124 41 74 76 81 51 52 87 58 62 55 61 101 59 77 100 54 83 82 72 167 49 82 50 42 42 47 49 86 63 49 56 60 120 86 46 41 42
leaf_count=49 45 49 62 78 47 80 66 49 51 87 103 98 58 63 56 76 80 57 44 45 46 199 45 44 46 41 253 74 61 67 43 56 92 41 69 58 48 54 53 76 41 58 78 79 59 74 69 89 41 58 42 56 47 44 42 44 41 73 55 53 56 54 54 41 84 48 45 78 53 70 63 69 75 124 41 74 76 81 51 52 87 58 62 55 61 101 59 77 100 54 83 82 72 167 49 82 50 42 42 47 49 86 63 49 56 60 120 86 46 41 42
internal_value=-6.16888e-05 -0.0283387 0.0463095 0.0727051 -0.0587288 -0.0130056 0.0253791 0.0587805 -0.00273962 -0.045468 -0.0764099 -0.0200788 -0.0163888 -0.0221038 -0.0320334 0.0175724 0.038012 -0.0412813 -0.0356699 -0.0553775 0.00272322 0.101776 -0.0709185 -0.00137546 0.00520205 -0.0053341 0.0510071 -0.0320043 -0.103207 0.0408618 0.0307613 0.0338293 -0.0363576 -0.0275257 -0.0445066 0.0199859 -0.0783325 -0.0172656 -0.000536489 0.0575329 -0.0105168 -0.0130434 -0.00895851 -0.0549003 0.0381939 -0.0233706 -0.0187519 0.0243385 0.0273591 0.019281 0.0349184 -0.0737626 0.0133865 0.0172101 0.0298746 0.0153455 -0.00672319 -0.00482085 -0.0338046 -0.0267231 0.003657 -0.0171713 0.0218386 -0.021417 0.00911766 -0.0178381 -0.0527835 0.0816898 0.0167705 -0.00689898 -0.0222437 -0.0245868 -0.00167993 -0.0650267 -0.011586 -0.0157907 -0.0463265 0.01977 -0.0136687 -0.0783925 -0.0211591 -0.0107181 -0.0472137 0.0187568 0.0292558 0.0255812 -0.0625861 -0.0424262 0.0424687 -0.0179002 -0.000976149 0.0762486 -0.014517 -0.0737104 0.0263992 0.0445258 0.0478217 0.0202231 0.0133214 -0.0197596 0.0558358 0.00185665 -0.0144566 0.0455728 0.014196 0.0189519 0.113962 0.0169521 0.00532351 0.0465189 -0.0181545
internal_weight=7369 4578 2791 1233 1534 3044 1558 836 1243 879 655 1801 1378 1012 481 965 593 782 557 185 983 397 547 742 431 250 627 423 108 249 151 513 349 195 342 899 97 296 366 378 311 531 370 225 396 260 156 539 421 206 215 502 360 257 173 241 224 292 152 97 103 182 199 215 142 186 190 209 94 124 161 172 234 180 110 115 121 181 141 322 141 171 154 117 119 155 138 122 288 174 129 160 113 219 108 232 150 84 118 116 98 159 117 125 100 190 198 146 87 84 93
internal_count=7369 4578 2791 1233 1534 3044 1558 836 1243 879 655 1801 1378 1012 481 965 593 782 557 185 983 397 547 742 431 250 627 423 108 249 151 513 349 195 342 899 97 296 366 378 311 531 370 225 396 260 156 539 421 206 215 502 360 257 173 241 224 292 152 97 103 182 199 215 142 186 190 209 94 124 161 172 234 180 110 115 121 181 141 322 141 171 154 117 119 155 138 122 288 174 129 160 113 219 108 232 150 84 118 116 98 159 117 125 100 190 198 146 87 84 93
is_linear=0
shrinkage=0.06


Tree=4
num_leaves=112
num_cat=0
split_feature=3 3 3 9 3 3 3 3 5 9 4 9 9 5 4 9 1 4 1 1 5 9 9 3 9 3 9 9 1 9 6 9 9 9 9 9 3 8 1 5 3 9 5 9 0 9 9 1 1 1 9 3 3 9 1 9 8 9 3 1 9 9 3 6 3 3 9 9 9 3 4 4 8 2 2 4 3 3 4 9 8 9 4 1 1 9 9 6 3 9 3 4 3 3 3 9 1 2 3 3 3 9 9 9 9 4 3 3 3 9 3
split_gain=2420.11 497.697 437.503 124.411 84.6267 54.5823 36.0723 32.8082 27.7642 22.5018 22.3337 21.3839 21.0984 18.6253 38.4883 15.2931 15.0466 14.727 14.0033 17.8043 13.8998 14.3498 12.9534 12.4597 12.3939 24.1111 12.039 10.198 8.85181 11.6786 8.83065 8.57952 15.6353 8.35581 8.1293 7.99544 7.77056 7.59562 7.51442 7.51071 6.86144 6.66929 6.46712 10.6902 6.04935 5.79565 5.52452 5.42735 4.68807 4.56344 4.17847 4.10599 3.94923 3.86543 3.78618 3.69038 2.9207 2.78551 2.92074 2.74351 2.58547 2.54065 2.5119 2.46605 2.44599 2.4327 2.37252 4.59485 2.32454 2.01924 1.67515 1.43675 1.41222 1.23062 1.16685 1.22849 1.11871 1.08889 1.07713 1.06222 1.01895 0.966952 0.96003 0.874115 0.798234 1.05427 0.791765 0.748368 0.713797 0.70471 0.698879 0.697469 0.675393 0.656022 0.573569 0.570315 0.565627 0.430429 0.410359 0.372484 0.370142 0.350534 0.342287 0.339956 0.336353 0.314657 0.283309 0.261005 0.236967 0.210053 0.202107
threshold=-0.18854984268546102 -1.0320318043231962 0.79551240801811229 0.75816252827644359 1.4984139800071719 -0.75087112188339222 -1.5943564176559446 0.5143517702817918 -0.83255985379219044 -1.1392327547073362 -0.67232638597488392 -1.1529884338378904 1.6136765480041506 -0.86343130469322193 0.20321029424667361 0.71689549088478099 0.41595189273357397 -1.1438745856285093 0.41595189273357397 1.2065384984016421 -0.77081695199012745 0.16489368677139285 -0.040110195055603974 -1.4537760615348814 1.1845883131027224 1.9201549887657168 -0.75407394766807545 -1.3455678224563596 -1.4287564754486082 0.16489368677139285 1.0952447652816775 -1.4968802332878111 -1.4693688750267027 -0.71280694007873524 -1.3180564641952512 -1.6344369649887083 1.3578336834907534 -1.2609450221061704 -0.90169563889503468 -1.1104029417037962 1.7795746922492983 -0.35959677398204798 -0.55471602082252491 0.5500524938106538 0.23626267164945605 -0.35959677398204798 0.23367205262184146 1.4700673818588259 0.41595189273357397 0.41595189273357397 -1.249278128147125 0.23319111764431003 -0.46971046924591059 -0.43946841359138483 -1.1652276515960691 0.21991638094186786 0.3982339501380921 -1.1117213964462278 0.092610801570117487 1.0000000180025095e-35 0.027336971834301952 0.44000713527202612 -1.8755170702934263 0.47339236736297613 1.0000000180025095e-35 1.2172533869743349 1.4406213760375979 1.5471168756484988 1.3873735666275027 -0.46971046924591059 1.0000000180025095e-35 -0.23455700278282163 0.49823951721191412 -0.10614171624183653 0.76258990168571483 -0.43655125796794886 -0.46971046924591059 -0.89145144820213307 0.30386185646057134 -0.10666989907622336 0.43005365133285528 -1.6894596219062803 0.068087762221694006 1.0000000180025095e-35 1.2065384984016421 0.027336971834301952 -0.10666989907622336 -0.64594480395317067 0.23319111764431003 1.0882986783981325 0.3737714439630509 -0.50411303341388691 -1.3131957650184629 0.3737714439630509 -1.172612130641937 0.53629684448242199 1.0000000180025095e-35 0.045885797590017326 0.092610801570117487 2.2013156414031987 -1.172612130641937 -1.6619483232498167 1.3341258168220522 -0.87787500023841847 -1.373079180717468 -0.13390543684363362 0.93609276413917553 0.092610801570117487 2.0607353448867802 -0.10666989907622336 1.0000000180025095e-35
decision_type=2 2 2 2 2 2 2 2 2 2 2 2 2 2 2 2 2 2 2 2 2 2 2 2 2 2 2 2 2 2 2 2 2 2 2 2 2 2 2 2 2 2 2 2 2 2 2 2 2 2 2 2 2 2 2 2 2 2 2 2 2 2 2 2 2 2 2 2 2 2 2 2 2 2 2 2 2 2 2 2 2 2 2 2 2 2 2 2 2 2 2 2 2 2 2 2 2 2 2 2 2 2 2 2 2 2 2 2 2 2 2
left_child=1 3 7 6 8 15 62 9 46 35 17 37 24 14 26 34 39 72 45 65 21 -9 41 -5 89 -26 51 31 -15 57 82 92 -33 -28 71 81 47 50 107 69 -14 -22 -18 61 -19 -10 -4 66 77 94 104 98 74 -46 -47 -23 -24 -30 86 -55 90 -44 -1 -63 -35 80 -21 -68 88 -13 -39 -3 -11 -58 75 -41 -45 -36 -16 83 -20 -2 -31 -54 85 -75 110 -71 -32 97 103 -66 -8 -53 -29 -50 -64 -6 -12 -42 -51 -83 -49 -60 -7 -62 -82 -37 -91 -77 -59
right_child=2 5 4 23 12 11 27 20 18 10 13 16 40 28 78 -17 42 44 19 36 22 55 56 -25 25 -27 33 49 29 30 68 32 -34 64 48 38 -38 70 -40 52 99 -43 43 76 53 54 -48 102 95 100 -52 93 79 59 -56 -57 73 58 60 -61 105 63 96 -65 91 -67 67 -69 -70 87 -72 -73 -74 84 -76 109 -78 -79 -80 -81 106 101 -84 -85 -86 -87 -88 -89 -90 108 -92 -93 -94 -95 -96 -97 -98 -99 -100 -101 -102 -103 -104 -105 -106 -107 -108 -109 -110 -111 -112
leaf_value=0.087489061219351627 -0.023387645114551891 0.023405897129498997 -0.089025479297248675 0.10687842564786215 -0.088929839044809333 0.0098051442070864123 0.059082951507568357 -0.023783331657294182 -0.029031441855721356 -0.0091112359715625636 0.015432503613231122 0.021320238638669251 -0.038430757641792296 0.024726232494007457 -0.037872716812247575 0.060265236598473999 0.024987265656300061 -0.0098301769116167313 -0.025242261231309033 -0.040228734838962547 -0.022830641603051892 -0.070478156631812436 -0.022728144936984582 0.083672308831975073 -0.073222566260567196 -0.12952980243458467 -0.03289754792173271 0.062910607898091706 -0.0085369863005268359 -0.0323891093896135 -0.001283279539909787 0.0030253273868247081 0.043373162022296415 0.0011312259383266792 0.044586006994048751 -0.024111651071186721 -0.061233358212371365 -0.004022778974287212 -0.05799783230990898 0.026244105702638625 -0.056067069018759373 -0.048918395976225527 0.0052067933672666541 0.026450460306235723 -0.043337882348253753 -0.041498490281769482 -0.056204119485967298 -0.041919712440534065 0.01932848814877941 0.047732101979255669 -0.0044458092218782885 4.7555027144920556e-05 0.022571208782851435 -0.013278061428848579 -0.062327029184861625 -0.042672284905115758 -0.0019342046192081612 0.01326746361812248 -0.0024988362474933912 -0.031361856601934517 0.014165043310645749 -0.017157299336932955 0.060646455462620798 -0.0005422000620514155 -0.0094772302589244059 -0.032971640961414035 -0.013310539545237341 -0.039020259876052538 0.0079451251032037866 0.00029203358699320532 -0.017354402693303732 0.0092161024272582447 0.0053645190240717245 -0.016657301764773286 0.022327470465139911 0.034200472969561808 0.012003393714566057 0.034997668062296254 -0.055437813729047769 0.029585869088224491 -0.0093259768479370658 -0.0077708474383172063 -0.017811823102450646 0.014133374975195952 -0.019930729622819596 -0.0044535159389589626 0.021247066838400705 0.010777154014578887 -0.010941193066563989 -0.06193818450399808 -0.008005504457185007 -0.019254034437239172 0.043858419432478431 -0.0084276032380254592 0.052198834598064417 0.030232118900941338 0.076560621406721027 -0.070132016386304577 0.0073783101838614251 -0.068927313880222593 0.035693104736506935 -0.015781703909311225 -0.054774781304962772 0.0049475244944517651 0.017888833333266106 0.0060344788446204693 -0.016139775518045019 -0.033259228610410918 -0.074093406496978376 0.044712746279107193 0.0071231067851185801
leaf_weight=83 43 64 48 210 47 43 49 95 40 41 60 47 68 54 43 80 65 58 40 59 81 47 92 206 78 50 68 165 42 45 51 56 93 63 143 86 66 79 40 54 81 71 74 55 78 60 50 65 60 74 58 68 171 48 131 44 58 67 45 112 50 62 64 69 92 43 65 44 53 48 64 52 56 45 43 63 40 137 50 64 55 53 42 83 41 68 41 55 69 111 48 46 58 58 95 48 68 62 55 81 47 50 48 40 72 40 78 40 81 53 50
leaf_count=83 43 64 48 210 47 43 49 95 40 41 60 47 68 54 43 80 65 58 40 59 81 47 92 206 78 50 68 165 42 45 51 56 93 63 143 86 66 79 40 54 81 71 74 55 78 60 50 65 60 74 58 68 171 48 131 44 58 67 45 112 50 62 64 69 92 43 65 44 53 48 64 52 56 45 43 63 40 137 50 64 55 53 42 83 41 68 41 55 69 111 48 46 58 58 95 48 68 62 55 81 47 50 48 40 72 40 78 40 81 53 50
internal_value=0.000159317 0.0394177 -0.0296128 0.0686588 -0.0549803 0.0203328 0.0553722 -0.0149506 -0.0428107 -0.0112161 -0.00852553 0.0137214 -0.0713448 -0.00481744 -0.0126307 0.0356817 0.0178501 -0.0210941 -0.0389651 -0.0336745 -0.0267918 -0.0406973 -0.0210168 0.0956439 -0.0794193 -0.0961442 -0.00608852 0.047998 0.00156744 -0.000279487 -0.0102812 0.0382386 0.0284101 -0.0147995 0.0316442 -0.0260473 -0.0421306 3.62758e-06 -0.0351093 0.0231245 -0.0559535 -0.0353349 0.00794036 0.00413625 -0.0277245 -0.0516072 -0.073138 -0.0374 0.0358521 0.0544069 0.00847706 0.00360587 0.0264919 -0.0319758 -0.0560967 -0.057774 -0.0137261 0.00584956 0.00748509 -0.0261274 0.00297082 -0.0035357 0.0768416 -0.00856715 -0.00848477 -0.0199031 -0.0300126 -0.0240582 -0.00231941 0.0110278 -0.0101518 0.0172807 -0.000662187 -0.00967482 0.0330147 0.0355014 0.0206809 0.0400785 -0.0479333 0.0219954 -0.0164151 -0.0154935 -0.0257705 0.0199273 -0.0124814 -0.00952218 0.0137223 0.00605606 -0.00698028 -0.0719725 -0.0022714 -0.0129376 0.051424 -0.00379486 0.0592577 0.0245175 0.0694489 -0.0790814 0.0117808 -0.0629542 0.0434851 -0.0118894 -0.0479181 0.000882582 0.0150803 0.0107893 -0.0135022 -0.0273491 -0.0674857 0.0394472 0.010826
internal_weight=7452 3214 4238 1268 1551 1946 852 2687 892 2045 1733 1362 659 1340 603 584 1046 393 794 563 642 186 456 416 429 128 510 637 737 683 260 256 149 269 504 312 347 316 166 681 230 152 365 300 296 231 98 281 388 381 173 241 531 238 191 91 304 423 381 160 223 205 215 131 201 216 168 109 173 150 143 116 97 212 213 170 95 280 93 318 173 146 87 254 154 113 158 103 120 301 133 138 107 126 260 108 132 109 115 162 121 103 113 85 115 90 133 126 192 116 117
internal_count=7452 3214 4238 1268 1551 1946 852 2687 892 2045 1733 1362 659 1340 603 584 1046 393 794 563 642 186 456 416 429 128 510 637 737 683 260 256 149 269 504 312 347 316 166 681 230 152 365 300 296 231 98 281 388 381 173 241 531 238 191 91 304 423 381 160 223 205 215 131 201 216 168 109 173 150 143 116 97 212 213 170 95 280 93 318 173 146 87 254 154 113 158 103 120 301 133 138 107 126 260 108 132 109 115 162 121 103 113 85 115 90 133 126 192 116 117
is_linear=0
shrinkage=0.06


Tree=5
num_leaves=112
num_cat=0
split_feature=3 3 3 9 3 3 3 3 5 9 4 9 7 3 5 4 9 1 4 9 1 5 9 9 9 3 9 9 9 9 9 1 9 6 7 9 9 7 9 9 7 9 9 3 9 6 0 9 7 6 7 7 1 5 9 3 7 7 9 9 7 7 3 9 3 9 5 9 1 3 9 9 0 3 9 1 9 6 9 1 3 3 0 5 9 4 9 9 3 9 4 4 6 9 9 3 6 8 9 3 3 9 1 3 9 9 9 7 3 3 9
split_gain=2142.71 440.16 387.385 109.786 75.3793 48.7485 31.9202 29.0665 21.4418 19.9589 19.7709 19.486 19.0114 17.9593 16.4998 34.1991 15.4158 14.8197 13.0379 12.7205 12.3214 12.304 12.7186 12.1661 11.4493 11.0859 9.89825 9.69159 8.98328 8.09284 7.86219 7.8397 10.3578 7.82804 7.65864 7.596 13.8226 7.54914 7.2058 7.07108 6.83546 6.26279 6.17572 6.14607 5.89157 5.47499 5.34418 5.31555 5.28977 4.97106 4.8747 4.73533 3.99846 3.86627 3.71168 3.6375 3.62781 3.32731 3.24693 2.67979 2.65802 2.49718 2.47498 3.10998 2.4263 2.34713 4.58945 2.23061 2.20685 2.19755 2.06093 1.77991 1.76295 1.68805 1.533 1.50096 1.42418 1.3402 1.20499 1.16287 0.939744 0.89355 0.881038 0.87477 0.850333 0.838607 0.781566 0.761597 0.757116 1.07447 0.695117 0.692755 0.65666 0.638958 1.16487 0.629212 0.622775 0.619996 0.603906 0.582318 0.581204 0.557554 0.533102 0.480171 0.450313 1.22479 0.431865 0.385867 0.358906 0.308327 0.306177
threshold=-0.18854984268546102 -1.0320318043231962 0.79551240801811229 0.75816252827644359 1.6389943361282351 -0.61029079556465138 -1.5943564176559446 0.5143517702817918 -0.83255985379219044 -1.1392327547073362 -0.67232638597488392 0.71689549088478099 0.53075048327445995 1.3578336834907534 -0.86343130469322193 0.16942939907312396 -1.1392327547073362 0.41595189273357397 -1.1438745856285093 -1.441857576370239 1.4700673818588259 -0.77081695199012745 0.16489368677139285 0.2886947393417359 -0.040110195055603974 -1.5943564176559446 0.563808172941208 -0.75407394766807545 -1.3455678224563596 -0.71280694007873524 1.6136765480041506 -1.4287564754486082 0.16489368677139285 1.0952447652816775 0.91511324048042308 -1.4968802332878111 -1.4693688750267027 0.44719342887401586 -0.10666989907622336 -1.6344369649887083 -1.1069689393043516 1.5604287981987002 -0.74031826853752125 -0.89145144820213307 -0.35959677398204798 -0.27283042669296259 0.23626267164945605 1.5471168756484988 0.84826743602752697 0.038097223732620485 0.44719342887401586 -1.5581775307655332 0.41595189273357397 -0.49297311902046198 1.3208138942718508 0.23319111764431003 -0.020726401824504134 -1.4077746868133543 0.21991638094186786 0.44000713527202612 0.06283064000308515 0.51403927803039562 0.092610801570117487 0.027336971834301952 2.0607353448867802 0.5500524938106538 0.68014276027679454 -0.30634900927543635 1.0000000180025095e-35 -2.0160974264144893 1.3873735666275027 1.1708326339721682 0.32287797331810003 1.0000000180025095e-35 1.0882986783981325 -1.1652276515960691 -0.22647736221551892 0.47339236736297613 -1.5931699275970457 0.41595189273357397 -0.89145144820213307 -1.3131957650184629 0.34453167021274572 -0.80168840289115895 -1.6894596219062803 -0.066345751285552965 -1.0979657173156736 -1.304300785064697 1.0766730904579165 1.4672452211380007 0.77541005611419689 -0.60545364022254933 0.038097223732620485 0.12362667545676233 0.013581299688667061 0.23319111764431003 1.3439886569976809 -0.71545824408531178 1.6669243574142458 0.3737714439630509 -1.3131957650184629 -0.10666989907622336 1.0000000180025095e-35 -1.172612130641937 -1.0704543590545652 -0.74031826853752125 -1.0154317021369932 0.76471036672592174 0.092610801570117487 -1.172612130641937 -1.6619483232498167
decision_type=2 2 2 2 2 2 2 2 2 2 2 2 2 2 2 2 2 2 2 2 2 2 2 2 2 2 2 2 2 2 2 2 2 2 2 2 2 2 2 2 2 2 2 2 2 2 2 2 2 2 2 2 2 2 2 2 2 2 2 2 2 2 2 2 2 2 2 2 2 2 2 2 2 2 2 2 2 2 2 2 2 2 2 2 2 2 2 2 2 2 2 2 2 2 2 2 2 2 2 2 2 2 2 2 2 2 2 2 2 2 2
left_child=1 3 7 6 8 11 69 9 49 39 18 19 -6 17 15 27 51 48 61 78 37 22 -9 38 44 -5 59 55 35 -29 71 -16 62 82 41 100 -37 -19 42 84 -41 54 83 79 -23 57 -20 88 -10 -4 96 -7 103 67 -15 108 -48 -44 -24 -25 -17 -11 75 97 98 66 87 104 -58 -1 95 74 93 -31 -14 -33 -50 -61 -3 86 -13 -27 -34 -18 -2 91 -21 -55 89 92 -28 -53 -39 94 -52 -35 -26 -64 -32 -57 -8 -77 -71 -30 -45 -106 -85 -65 -12 -54 -86
right_child=2 5 4 25 12 16 28 21 13 10 14 80 30 34 31 60 23 20 46 43 -22 24 58 26 50 81 90 29 52 73 64 32 33 70 -36 36 -38 47 -40 40 -42 -43 45 53 -46 -47 56 -49 76 -51 72 85 109 65 -56 99 68 -59 -60 77 -62 -63 63 107 -66 -67 -68 -69 -70 102 -72 -73 -74 -75 -76 101 -78 -79 -80 -81 -82 -83 -84 106 110 -87 -88 -89 -90 -91 -92 -93 -94 -95 -96 -97 -98 -99 -100 -101 -102 -103 -104 -105 105 -107 -108 -109 -110 -111 -112
leaf_value=0.087025519809722895 -0.022016278207979419 -0.002961984019943101 -0.083291842257275289 0.10528984828617262 -0.10181602096930145 0.0078970284699462368 0.055608873066902154 -0.022371196562424301 -0.034341629943251607 -0.012056386837008886 0.014521733344883705 0.06362691908815632 -0.078024220170744923 -0.057952395952853952 0.02326963286291469 -0.033238946043986535 0.031314544011961737 -0.040493131273718015 -0.0092503630710781513 0.031145776952014252 -0.045100237469924122 -0.02147750876335109 -0.06633756616525352 0.0023340953421102811 -0.028434567489927367 0.088983483933633381 0.012262367926609631 -0.030952300517779328 0.059158711102353524 0.0014825744095258414 -0.054630308080803255 0.00056731763777629978 -0.016963491513331732 -0.0012077636886388063 -0.028595038541338661 0.0028469923169989332 0.040798456857813165 -0.010057940796385771 0.035815724811976465 -0.025651099839313761 -0.054881229819321045 -0.076855669940601681 0.011172221835749813 0.020397368124287045 -0.046024057606856024 0.020699652565816011 -0.041510232582092285 -0.034224822709272643 -0.063929481778826028 -0.052158548501073092 -0.014862844351841056 -0.011998701119012285 0.04490636126041412 0.016478854371540581 -0.035019893814106376 4.4743087122459761e-05 -0.013584682403589196 -0.0062033426845564121 -0.040168842299779253 -0.019684821585416797 -0.054950125850991086 0.0072725239213564073 -0.0081831612319393631 0.0053917985251173374 -0.062757317395643747 0.027408593697981397 0.0029545072933247021 0.045288426378878151 -0.029496797829866406 0.060078094545006747 0.0074772451561358234 -0.086685237022546616 0.00030322015670660352 -0.01058189609551499 -0.062960243748946931 0.010803917482714443 -0.046133667197720753 -0.0043445252411794368 0.010803502433120889 0.027055661598443987 0.045626996120628038 0.075889853416734446 -0.030911680074577983 0.02409598099209111 -0.0073132308456244771 -0.016786534104104106 0.043428629508385289 0.026434558026661923 -0.019646597490675988 -0.0034111551170182574 0.023736362346943391 -0.00072280849879834705 -0.019866253522389073 -0.017816004565783909 -0.00095286954745002429 -0.010294099760534508 -0.01718368451580405 -0.00024029557486008625 -0.039741126307419362 -0.0079305176432481247 0.041271515971523218 0.020002595658813207 0.073914749096675086 0.049099529247730964 0.038052116146627457 0.023986987756565211 0.015852905724796335 0.014075288214022295 0.0069435168621795511 0.033596134580671788 -0.014853368309709956
leaf_weight=49 43 42 50 137 63 71 49 95 79 40 60 45 82 96 54 64 52 66 58 50 113 81 47 72 55 123 51 68 165 59 43 43 44 51 43 56 93 73 78 126 40 54 78 41 71 96 74 57 62 48 45 43 74 66 48 68 52 78 44 49 43 57 66 43 109 131 64 40 112 84 53 51 69 128 141 101 57 40 46 49 48 156 43 86 53 56 116 87 61 50 46 40 50 41 45 69 49 82 55 58 58 41 82 95 52 71 62 47 55 47 50
leaf_count=49 43 42 50 137 63 71 49 95 79 40 60 45 82 96 54 64 52 66 58 50 113 81 47 72 55 123 51 68 165 59 43 43 44 51 43 56 93 73 78 126 40 54 78 41 71 96 74 57 62 48 45 43 74 66 48 68 52 78 44 49 43 57 66 43 109 131 64 40 112 84 53 51 69 128 141 101 57 40 46 49 48 156 43 86 53 56 116 87 61 50 46 40 50 41 45 69 49 82 55 58 58 41 82 95 52 71 62 47 55 47 50
internal_value=0.000142923 0.037083 -0.0278709 0.0645822 -0.0517414 0.0191346 0.0520986 -0.0140736 -0.0419106 -0.0105579 -0.00802337 0.0288798 -0.0698069 -0.0389212 -0.00453383 -0.0118879 0.0098459 -0.0337035 -0.0198494 0.0259584 -0.0277304 -0.0252199 -0.0383071 0.0136957 -0.0197833 0.0899344 0.00293928 -0.00518706 0.0451588 -0.0133274 -0.065387 0.00147486 -0.000262256 -0.00968234 -0.0531347 0.0359875 0.0267289 -0.0220883 0.0188938 -0.0245271 -0.0330528 -0.0582333 0.0158745 0.0284375 -0.0332476 0.00948778 -0.0260881 -0.0177485 -0.0476113 -0.068845 -0.0129249 -0.00453945 0.0511793 0.0249216 -0.0506852 0.00339607 -0.0300853 0.00242383 -0.0543891 -0.00612332 -0.0425031 -0.000617403 0.00550874 0.00139179 -0.0555603 0.020849 0.0167265 0.0316748 -0.0246371 0.0723002 -0.00218172 -0.0725382 -0.00729637 -0.00672399 -0.0688766 0.0107047 -0.0559609 -0.0130485 0.00413932 0.0372517 0.0550485 0.0820024 -0.0242667 0.0237749 -0.0145929 -0.0109886 0.0400095 0.0223528 -0.0135554 -0.0112381 0.0180128 -0.00678069 -0.0142699 -0.0113621 -0.00812662 -0.00657348 -0.0234621 -0.00389407 -0.0468812 -0.00356546 0.0484024 0.0136651 0.0673866 0.0557314 0.0280274 0.0302889 0.0208529 0.0101632 0.0110919 0.0409229 -0.0111965
internal_weight=7452 3214 4238 1268 1551 1946 852 2687 1007 2045 1733 948 544 909 1340 603 998 668 393 855 470 642 186 788 456 416 258 496 637 255 481 737 683 260 241 256 149 357 530 312 166 198 452 767 152 252 296 291 198 98 304 210 381 552 144 241 238 156 91 161 107 97 423 238 207 348 217 204 164 215 173 274 200 187 223 185 119 89 88 215 93 279 87 200 146 139 166 153 234 173 97 83 123 131 90 120 104 148 98 126 107 142 166 260 164 123 148 90 115 121 103
internal_count=7452 3214 4238 1268 1551 1946 852 2687 1007 2045 1733 948 544 909 1340 603 998 668 393 855 470 642 186 788 456 416 258 496 637 255 481 737 683 260 241 256 149 357 530 312 166 198 452 767 152 252 296 291 198 98 304 210 381 552 144 241 238 156 91 161 107 97 423 238 207 348 217 204 164 215 173 274 200 187 223 185 119 89 88 215 93 279 87 200 146 139 166 153 234 173 97 83 123 131 90 120 104 148 98 126 107 142 166 260 164 123 148 90 115 121 103
is_linear=0
shrinkage=0.06


Tree=6
num_leaves=112
num_cat=0
split_feature=3 3 9 3 3 3 5 6 3 9 4 7 5 3 3 1 4 7 9 3 9 7 6 6 9 1 9 9 9 6 9 9 9 9 3 7 9 9 9 9 4 1 9 9 9 4 9 9 5 4 3 7 9 9 2 9 1 1 9 4 3 9 3 5 6 9 9 9 9 2 3 3 8 2 2 4 9 7 3 3 9 3 9 9 6 9 2 1 7 8 3 2 9 4 3 7 3 3 9 7 4 3 2 9 9 3 9 3 6 5 5
split_gain=1878.39 479.675 226.907 93.2676 92.9577 56.4988 31.6402 18.7364 18.1726 18.1071 16.5309 23.6263 16.3901 16.1384 16.047 13.9883 25.5529 13.9069 13.4462 15.0751 10.6022 13.5528 10.4768 8.47897 8.46204 8.39905 8.29214 7.94645 12.6239 10.5424 8.44976 10.2092 5.9319 6.57906 5.95147 5.86314 5.27879 5.19679 5.40532 9.338 5.06915 4.75706 7.77944 4.11159 3.56633 3.5267 3.37938 3.2081 4.39769 3.14399 3.01673 2.98235 2.7676 9.80297 2.37881 2.37784 2.36084 2.09945 2.81054 2.07991 2.0472 1.93246 1.85055 1.84806 1.79301 1.63459 7.64802 4.47819 1.28013 1.26263 1.25054 1.24109 2.12685 1.20203 1.9019 1.19791 1.16092 1.14456 1.03429 1.0204 1.23213 0.94528 0.892864 1.23859 0.87118 1.00845 0.849979 0.848956 0.77037 0.755953 0.728978 0.718864 0.705614 0.694809 0.692747 0.686857 0.646188 0.620394 0.538408 0.501537 0.460656 0.328115 0.363393 0.322773 0.319712 0.277229 0.270218 0.216611 0.212177 0.18502 0.159343
threshold=-0.46971046924591059 0.65493208169937145 0.75816252827644359 1.3578336834907534 -1.172612130641937 1.0000000180025095e-35 -0.86343130469322193 -1.1434266567230222 -1.7349367737770078 -1.441857576370239 -0.70610728859901417 0.59759628772735607 0.98885804414749157 -0.89145144820213307 -1.3131957650184629 -0.37463472038507456 0.37142364680767065 0.88169082999229442 1.1845883131027224 1.7795746922492983 1.5604287981987002 0.44719342887401586 -0.21064370870590207 0.038097223732620485 1.7068601846694949 0.41595189273357397 -0.21316542476415631 0.19240503013134005 0.563808172941208 -0.27283042669296259 -0.74031826853752125 -1.1117213964462278 -1.125477075576782 -0.75407394766807545 0.3737714439630509 0.280079334974289 -0.69905126094818104 -1.3318121433258054 -1.4968802332878111 -1.4556132555007932 1.0000000180025095e-35 0.41595189273357397 -1.125477075576782 -1.5106359124183653 -0.69905126094818104 0.60719668865203869 -0.37290871143341059 0.5500524938106538 0.68014276027679454 -0.032564855180680745 0.93609276413917553 -1.1069689393043516 -0.43946841359138483 -0.34628482162952418 -0.8011280596256255 1.3474377393722536 0.41595189273357397 0.41595189273357397 -1.0979657173156736 -0.57167378067970265 -1.7349367737770078 -0.10666989907622336 1.0766730904579165 -0.49297311902046198 1.3439886569976809 1.5604287981987002 1.6003646254539492 1.1570770144462588 -1.6344369649887083 0.61056235432624828 -1.0320318043231962 0.3737714439630509 -0.14270365983247754 -1.3440858125686643 0.71915432810783397 0.23630111664533618 1.0882986783981325 0.46390463411808019 2.0607353448867802 0.3737714439630509 0.027336971834301952 0.3737714439630509 1.4672452211380007 0.12362667545676233 1.3439886569976809 0.16489368677139285 0.67571672797203075 -1.1652276515960691 -1.5916000008583067 -0.99729454517364491 0.23319111764431003 -0.1712960675358772 -0.10666989907622336 -0.40346042811870569 0.23319111764431003 -1.5247541666030882 0.23319111764431003 -0.18854984268546102 -1.3593235015869138 -1.1905260086059568 -0.87432065606117237 -0.32913015782833094 0.15447776764631274 -0.47940422594547266 -0.86411932110786427 -0.61029079556465138 -1.1529884338378904 0.3737714439630509 0.72213333845138561 1.0814723968505862 1.1123438477516177
decision_type=2 2 2 2 2 2 2 2 2 2 2 2 2 2 2 2 2 2 2 2 2 2 2 2 2 2 2 2 2 2 2 2 2 2 2 2 2 2 2 2 2 2 2 2 2 2 2 2 2 2 2 2 2 2 2 2 2 2 2 2 2 2 2 2 2 2 2 2 2 2 2 2 2 2 2 2 2 2 2 2 2 2 2 2 2 2 2 2 2 2 2 2 2 2 2 2 2 2 2 2 2 2 2 2 2 2 2 2 2 2 2
left_child=2 5 4 6 8 7 23 68 -1 40 22 15 18 57 60 32 35 20 76 -20 21 50 52 -3 65 46 100 29 49 30 31 59 89 34 96 71 -32 38 -10 -40 43 42 88 -6 -35 54 -23 48 -43 -29 84 97 103 77 -13 107 -39 58 -11 -9 -4 -31 82 79 -52 67 -67 -14 -2 -30 -16 72 -17 -44 92 -51 -5 -54 -78 -56 -81 -57 83 -27 85 -8 91 -48 98 106 -55 -68 105 -36 -24 -61 99 -38 -15 -34 -19 -33 -103 -7 -101 -75 -12 -18 -94 -50 -85
right_child=1 3 14 12 9 10 17 27 37 13 11 45 24 41 70 16 55 26 19 -21 -22 25 94 -25 -26 62 -28 28 69 61 36 101 33 44 93 -37 51 56 39 -41 -42 47 73 -45 -46 -47 87 -49 109 75 64 -53 53 90 63 81 -58 -59 -60 95 -62 -63 -64 -65 -66 66 86 -69 -70 -71 -72 -73 -74 74 -76 -77 78 -79 -80 80 -82 -83 -84 110 -86 -87 -88 -89 -90 -91 -92 -93 108 -95 -96 -97 -98 -99 -100 104 -102 102 -104 -105 -106 -107 -108 -109 -110 -111 -112
leaf_value=0.074039576617154212 -0.0095479879709426327 -0.074640232942606272 0.10425795055318762 -0.071802048930100032 0.022450775363091979 -0.029865621061819902 -0.024329059091149543 -0.012268161790072918 0.051710619655939247 0.031678594865732719 -0.027498510809831841 0.01354028211384202 -0.057632061492651696 0.013687462413841386 0.071481241731169806 -0.032956297588263503 -0.0096765068813841389 -0.048112693117089468 -0.06229002760251362 -0.11405709542677953 -0.055968887618609832 -0.017527331770342939 0.00056957706490489226 -0.043031728679564459 -0.028530285412410521 -0.0076891523268037033 -0.023876516883864121 -0.025978614074843271 0.02272222371387761 0.015739482608955292 -0.021392387505065887 0.023623056040683262 0 -0.026349049461895927 -0.0056338279003070452 -0.055651745129227631 0.010265903432990386 0.059037369973280213 0.01085611987452954 0.044544647593096079 -0.012045276650227607 0.022098418750223659 0.021835602544581712 -0.0014146120065653867 -0.0081905796746997283 0.016898019419051707 -0.029947368906302885 0.025468005220998416 -0.0014751386062919415 -0.0018157697474467565 -0.052132425082581382 -0.0083932092729583387 -0.014289374773522191 -0.027478696776553988 0.0087789432388090064 0.0025774220443402344 0.04412187276026782 0.02905399727152318 0.045152372231483461 0.0092547881555993371 0.086141843327256135 0.028392044697088351 -0.021245602073077158 -0.012311102183784048 -0.033759610081802713 -0.083204317474365228 -0.053116260337829582 -0.029726555598945152 -0.021877751499436885 0.0077173440137624054 0.053851145950230675 -0.039874617699744562 -0.014961805039150424 0.033934729061628637 0.02251577035237003 -0.012959401820077382 -0.052778484503063584 -0.00019153425496603758 -0.066563298197535717 -0.0085067053650910007 0.0033993704190105195 -0.0082595329328494903 -0.0047401661370618971 -0.021568931315342588 -0.02059487419449927 -0.038452513523640167 -0.059038337574814845 -0.045728205301040818 0.0093482090902879192 -0.013689370724674943 -0.039067467310657238 -0.037739001897878426 0.045951249718666071 -0.015037935347695435 -0.0098846939729357302 -0.0010675450245290995 -0.00016224781489642017 0.0011685656714728293 0.024122622641020042 0.0041045370474931293 -0.062441658318042749 0.020953766713088209 0.013464656660584017 -0.040523446594751794 0.010652628099979602 0.025306263652112748 -0.017871269806226095 -0.016262176942869144 0.034227384742700831 0.0038853507534911233 -0.013697885602712631
leaf_weight=131 59 75 80 83 61 52 48 44 103 107 42 45 63 58 160 78 46 72 44 51 41 50 43 66 52 94 50 41 47 117 46 70 40 67 53 49 73 175 49 82 41 62 66 43 101 63 43 76 43 79 55 74 45 63 47 64 84 97 199 40 171 84 78 44 54 44 59 40 82 43 43 52 42 113 73 66 108 41 76 52 74 50 79 44 45 61 105 42 68 76 72 42 43 83 43 49 86 48 42 58 46 65 77 64 72 53 44 84 52 44 40
leaf_count=131 59 75 80 83 61 52 48 44 103 107 42 45 63 58 160 78 46 72 44 51 41 50 43 66 52 94 50 41 47 117 46 70 40 67 53 49 73 175 49 82 41 62 66 43 101 63 43 76 43 79 55 74 45 63 47 64 84 97 199 40 171 84 78 44 54 44 59 40 82 43 43 52 42 113 73 66 108 41 76 52 74 50 79 44 45 61 105 42 68 76 72 42 43 83 43 49 86 48 42 58 46 65 77 64 72 53 44 84 52 44 40
internal_value=9.54117e-05 -0.0209404 0.0434758 -0.045167 0.0346003 -0.00664852 -0.0337501 0.00354678 0.0537473 0.0256483 -0.012997 -0.010038 -0.061207 0.0280771 0.0817038 -0.0139624 -0.0220893 -0.0296981 -0.0707758 -0.0911044 -0.0261995 -0.024444 -0.0234969 -0.0603365 -0.0524713 -0.0182212 -0.0454952 0.0062844 -0.00243471 0.00935662 0.00524435 0.0112614 -0.00868843 -0.00571303 -0.00140925 -0.0368417 -0.00333056 0.048192 0.0410294 0.0322122 0.00547811 0.0230141 0.025986 0.0125496 -0.0156164 0.0042571 -0.0308963 0.0153769 0.0100142 -0.0113831 -0.0354081 0.000956357 -0.0282628 -0.0239276 0.00111916 -0.00858279 0.0544344 0.0379284 0.0405986 -0.00168655 0.0923543 0.0212009 -0.0130009 -0.00145189 -0.043529 -0.0558736 -0.0591554 -0.0473004 -0.0169066 0.0158487 0.0680879 -0.0311229 -0.0269331 0.030574 0.0321945 -0.00702426 -0.0631851 -0.0077857 -0.0588661 0.0012959 -0.00144805 -0.00210177 -0.0103794 -0.0127748 -0.029339 -0.0326198 -0.0535837 -0.0383255 0.0148749 -0.018802 -0.0339894 -0.0472721 0.0347596 -0.0115286 -0.00457316 0.00348966 0.00394388 0.00679456 0.0183845 0.00608008 -0.0542772 0.0194105 0.0170992 -0.0361445 0.00787641 0.0314197 -0.0229729 -0.0141151 0.0400824 0.00111289 -0.0181672
internal_weight=7408 4989 2419 1850 1965 3139 1083 1204 624 1341 1935 1512 767 1196 454 1187 465 942 362 95 774 733 423 141 405 470 168 1063 276 787 586 345 722 560 392 221 241 493 234 131 145 793 568 104 168 325 135 225 149 186 263 195 337 221 262 244 259 403 306 133 251 201 335 217 109 353 250 103 141 90 203 172 120 400 334 145 267 86 184 173 126 114 257 178 154 109 206 85 168 162 135 101 261 136 86 89 256 121 100 170 118 212 142 116 130 166 86 130 95 87 84
internal_count=7408 4989 2419 1850 1965 3139 1083 1204 624 1341 1935 1512 767 1196 454 1187 465 942 362 95 774 733 423 141 405 470 168 1063 276 787 586 345 722 560 392 221 241 493 234 131 145 793 568 104 168 325 135 225 149 186 263 195 337 221 262 244 259 403 306 133 251 201 335 217 109 353 250 103 141 90 203 172 120 400 334 145 267 86 184 173 126 114 257 178 154 109 206 85 168 162 135 101 261 136 86 89 256 121 100 170 118 212 142 116 130 166 86 130 95 87 84
is_linear=0
shrinkage=0.06


Tree=7
num_leaves=112
num_cat=0
split_feature=3 3 9 3 3 3 5 3 6 4 7 5 3 7 9 3 1 4 6 9 7 6 3 3 9 9 9 6 9 9 9 9 9 7 9 9 3 7 1 9 8 0 9 5 4 4 9 7 4 7 9 5 9 4 1 7 1 4 3 6 9 7 9 9 9 9 3 4 5 9 1 9 3 7 3 4 0 1 4 9 0 9 3 3 1 3 3 0 4 7 3 3 0 3 7 9 6 1 4 6 3 9 7 7 0 3 0 9 3 9 5
split_gain=1662.95 424.896 200.651 83.1876 82.5147 50.0536 28.0222 23.5941 16.5927 14.6417 20.9442 14.567 14.1573 13.4722 13.4233 13.3939 12.3896 22.6348 11.9553 10.7338 10.1853 9.28166 8.99652 8.99187 7.59885 7.03781 11.1979 9.32641 7.48233 9.04773 6.74287 6.49224 6.76789 5.81694 5.25921 5.8258 5.27339 5.17958 4.82187 4.67812 4.21419 3.79208 3.21282 3.18579 3.1208 3.10981 2.82862 6.12821 2.78198 2.64231 2.24203 4.08054 2.1057 2.05815 1.92064 5.71671 1.84752 1.8419 1.81291 1.70988 1.70325 1.68863 1.5645 2.91295 1.5237 2.78408 1.52122 1.37082 1.35363 1.22994 2.1578 1.12597 1.08798 1.96856 1.06296 1.05795 1.04458 1.12302 1.01044 0.989214 0.896747 0.884789 0.838013 0.794926 0.700191 0.645114 0.615569 0.61457 0.610207 0.610045 0.581632 0.546533 0.50806 0.472519 0.470415 0.443112 0.435078 0.402923 0.374187 0.364484 0.282372 0.278014 0.271217 0.241562 0.241445 0.199664 0.191256 0.133583 0.115192 0.0811072 0.0739717
threshold=-0.46971046924591059 0.65493208169937145 0.75816252827644359 -1.3131957650184629 1.3578336834907534 1.0000000180025095e-35 -0.80168840289115895 -0.89145144820213307 -1.1434266567230222 -0.70610728859901417 0.59759628772735607 1.0814723968505862 -1.3131957650184629 0.83155623078346264 1.1845883131027224 1.7795746922492983 -0.37463472038507456 0.37142364680767065 -1.3921675682067869 -0.21316542476415631 0.21323350816965106 -0.21064370870590207 -1.7349367737770078 1.0766730904579165 -1.3180564641952512 0.19240503013134005 0.563808172941208 -0.27283042669296259 -0.74031826853752125 -1.1117213964462278 1.7068601846694949 1.5604287981987002 1.6003646254539492 0.44719342887401586 -1.125477075576782 -0.75407394766807545 0.3737714439630509 0.280079334974289 0.41595189273357397 -0.69905126094818104 0.83007311820983898 0.23626267164945605 -0.71280694007873524 -0.61645966768264759 0.60719668865203869 1.0780558586120608 -1.4556132555007932 -0.75602856278419484 -0.032564855180680745 -1.1069689393043516 0.5500524938106538 0.68014276027679454 1.3474377393722536 -0.13390543684363362 -0.37463472038507456 -1.2072371840476988 0.41595189273357397 -0.57167378067970265 -1.8755170702934263 -0.33501714468002314 -0.10666989907622336 0.046119431033730514 -0.43946841359138483 -0.34628482162952418 1.4539332389831545 1.5204929709434511 1.6389943361282351 1.0000000180025095e-35 -0.24600152671337125 -0.74031826853752125 1.0000000180025095e-35 -1.6344369649887083 0.3737714439630509 -0.20455168932676313 -1.0320318043231962 0.23630111664533618 0.45280016958713537 1.2065384984016421 0.70784932374954235 -1.125477075576782 0.17130158096551898 1.0882986783981325 0.3737714439630509 -1.0320318043231962 0.67948076128959667 0.79551240801811229 0.23319111764431003 0.23626267164945605 -0.40346042811870569 -1.5247541666030882 0.092610801570117487 -0.18854984268546102 0.06303309835493566 -0.75087112188339222 -1.5748887658119199 1.4539332389831545 -0.1484599597752094 -0.90169563889503468 0.33764275908470159 1.3439886569976809 -0.32913015782833094 -0.67153990268707264 -1.0568343400955198 0.73128795623779308 0.34453167021274572 0.23319111764431003 0.30122427642345434 -0.15991766005754468 -1.4537760615348814 -0.97416469454765309 1.1432152986526491
decision_type=2 2 2 2 2 2 2 2 2 2 2 2 2 2 2 2 2 2 2 2 2 2 2 2 2 2 2 2 2 2 2 2 2 2 2 2 2 2 2 2 2 2 2 2 2 2 2 2 2 2 2 2 2 2 2 2 2 2 2 2 2 2 2 2 2 2 2 2 2 2 2 2 2 2 2 2 2 2 2 2 2 2 2 2 2 2 2 2 2 2 2 2 2 2 2 2 2 2 2 2 2 2 2 2 2 2 2 2 2 2 2
left_child=2 5 3 22 6 8 20 24 71 21 16 14 58 23 66 -16 34 37 -9 59 61 41 -1 33 54 27 48 28 29 57 31 -13 -33 85 80 36 90 72 83 -30 43 92 -37 69 53 -21 47 -24 -27 91 51 79 106 -12 55 94 103 -10 -4 -15 107 -3 -43 -64 -25 -66 -6 87 -42 -20 -71 -2 73 -18 -14 -50 77 95 -70 93 -11 -68 -54 -26 -28 -8 -23 -55 -38 -59 102 -41 -7 -45 -5 98 -69 -92 -58 -87 -31 -44 -36 -35 -34 -99 -19 -29 -48 -102 -40
right_child=1 4 12 7 11 9 13 18 25 10 44 30 74 19 15 -17 17 52 40 45 -22 86 46 64 38 26 84 60 39 100 -32 32 104 56 35 42 88 -39 110 49 68 62 101 50 -46 -47 108 -49 75 -51 -52 -53 82 67 -56 -57 76 89 -60 -61 -62 -63 63 -65 65 -67 81 96 78 70 -72 -73 -74 -75 -76 -77 -78 -79 -80 -81 -82 -83 -84 -85 -86 99 -88 -89 -90 -91 97 -93 -94 -95 -96 -97 -98 105 -100 -101 109 -103 -104 -105 -106 -107 -108 -109 -110 -111 -112
leaf_value=0.069630856589837503 -0.0089846564800944179 -0.027478433617523737 0.1025528771495819 0.022173910486988906 -0.04799999702657972 -0.01012843781452071 -0.022816006138061101 -0.003798666383637345 -0.011548429628461599 -0.022621216847926753 0.0093367381974716075 -0.029880156423364366 0.067219003249399417 -0.064023150413501553 -0.058635679785410559 -0.10727191880963884 -0.035298113132826985 -0.01072255016490817 0.030480824317130228 -0.014238645377036717 -0.06861337385428222 0.0005361791104184125 0.022231074677537314 -0.041264958900074623 0.047052718437717349 -0.024457009236727442 0.020823435032997432 0.018598475279552596 -0.020136153607450902 0.022225635444614249 -0.026850767420147949 -0.07832299715677897 -0.054029402101912143 -0.017052510452659233 0.0035850944392136065 -0.026753684028170327 -0.0053020580021871455 -0.052379421690003938 0.025819131818413731 0.0096582728794499025 0.036223054793747982 -0.037840666506570919 -0.012080157999570173 0.018780592058639741 0.015899979998823255 -0.036930457975183212 0.058647378896046605 0.052973942029476161 -0.0017081853160285387 -0.0078963314002007245 0.024151464151342707 0.00084820052435120136 0.0024251558778270216 -0.0025414437197614458 0.033607515620914366 0.0037624252727613424 -0.0069651114184941564 0.0087130442850473448 0.082509328076404889 -0.045198136619159147 0.026708563887371736 -0.046566927098310909 -0.012790288179954316 -0.031513808806904221 -0.016081692066339946 -0.038233944397643209 -0.070201501589316831 -0.0018287955790238326 0.015878315277820965 0.010127708187874626 0.027701950878866257 -0.02058090168575431 -0.037527281666420539 -0.018387250159782154 0.050693511039018625 -0.012193443226558505 -0.0029836174070607033 -0.020511929569797496 0.028831662536250895 0.023944631546855936 -0.012785277530025034 -0.057646557209855419 -0.0077736780279699484 0.038595211113845146 0.0092007090342943829 -0.037484645760122767 -0.0093050913604145694 -0.012936969372638782 -0.014146400431437152 -0.0010047733629494904 -0.0011611432837803891 0.0010998826787940094 -0.020467161543667317 0.011284046507521777 0.034097021208089939 -0.0041315198678795878 0.0060528936197099805 0.0075016180155582203 -0.015382209561410405 -0.025709863302319551 0.013685866846305477 -0.0054166971055730692 0.011083957439369482 -0.026197455571141354 -0.04446029066899243 0.0012295883398416431 -0.016860505109324176 0.012384829192095763 0.048949269544450856 0.018822973118674369 0.033488674346605934
leaf_weight=131 59 41 49 40 69 46 77 72 44 78 76 48 160 40 44 52 47 80 96 55 87 43 45 85 166 41 42 41 46 70 52 44 122 45 40 54 53 49 89 73 76 84 53 63 63 41 102 59 79 74 89 77 64 47 65 51 41 40 202 90 84 51 46 118 43 49 76 42 43 50 61 82 52 73 43 66 48 58 82 61 84 176 50 154 48 46 43 42 83 49 87 48 43 105 50 40 55 42 62 42 81 61 45 42 84 42 50 76 94 61 44
leaf_count=131 59 41 49 40 69 46 77 72 44 78 76 48 160 40 44 52 47 80 96 55 87 43 45 85 166 41 42 41 46 70 52 44 122 45 40 54 53 49 89 73 76 84 53 63 63 41 102 59 79 74 89 77 64 47 65 51 41 40 202 90 84 51 46 118 43 49 76 42 43 50 61 82 52 73 43 66 48 58 82 61 84 176 50 154 48 46 43 42 83 49 87 48 43 105 50 40 55 42 62 42 81 61 45 42 84 42 50 76 94 61 44
internal_value=8.14598e-05 -0.0197112 0.0408985 0.0325516 -0.0425126 -0.00625985 -0.0317724 0.025963 0.00333587 -0.0122354 -0.00944976 -0.0576009 0.0768479 -0.0273942 -0.065409 -0.0859383 -0.0131448 -0.0207942 0.0194345 -0.0401869 -0.053542 -0.0221183 0.0558593 -0.0230594 0.0345706 0.00591261 -0.00229086 0.00880404 0.00493456 0.0105971 -0.048104 -0.0516702 -0.0556704 -0.0188312 -0.00817972 -0.00537632 -0.00132442 -0.0346797 0.0390017 -0.0031323 0.0215348 -0.0266045 -0.014696 0.0189007 0.00400789 -0.0243345 0.0495944 0.0401244 -0.0107209 0.000899906 0.0155819 0.0129798 -0.00807851 0.00105313 0.0246272 0.0201952 -0.0141552 -0.00158719 0.0868613 -0.0515266 0.0199455 -0.0385761 -0.0304889 -0.0264442 -0.034787 -0.0282935 -0.0589843 -0.00229923 0.0292319 0.0250705 0.0200539 -0.0159105 -0.0292943 -0.0253468 0.064043 -0.0066138 -0.0113416 -0.0132535 0.0246323 0.0169854 -0.0177044 -0.0617429 -0.00197237 0.0431528 0.0149257 -0.0281383 -0.00429692 -0.00766977 -0.0108512 0.00327773 0.0037125 0.00639841 -0.0154288 0.0142608 0.0292316 -0.0101042 0.00253392 0.00158873 -0.0122463 -0.0323517 0.0182689 -0.00869708 0.00777734 -0.0218512 -0.050419 0.00455814 -0.0132856 0.0148031 0.0543292 0.0160928 0.028677
internal_weight=7408 4989 2419 1965 1850 3139 1083 1534 1204 1935 1512 767 454 904 417 96 1187 465 875 226 179 423 431 678 659 1063 276 787 586 345 350 298 250 501 722 560 392 221 453 241 803 337 168 602 325 96 300 104 186 195 395 306 244 262 206 141 336 133 251 130 201 92 248 164 177 92 321 186 201 207 111 141 172 120 203 145 249 201 125 229 162 252 114 320 90 165 86 89 136 89 256 121 89 168 90 143 97 171 103 88 212 114 85 87 206 84 130 117 196 142 133
internal_count=7408 4989 2419 1965 1850 3139 1083 1534 1204 1935 1512 767 454 904 417 96 1187 465 875 226 179 423 431 678 659 1063 276 787 586 345 350 298 250 501 722 560 392 221 453 241 803 337 168 602 325 96 300 104 186 195 395 306 244 262 206 141 336 133 251 130 201 92 248 164 177 92 321 186 201 207 111 141 172 120 203 145 249 201 125 229 162 252 114 320 90 165 86 89 136 89 256 121 89 168 90 143 97 171 103 88 212 114 85 87 206 84 130 117 196 142 133
is_linear=0
shrinkage=0.06


Tree=8
num_leaves=112
num_cat=0
split_feature=3 3 3 9 3 3 3 3 5 6 9 9 9 4 9 9 9 6 9 9 9 9 9 4 9 9 8 1 3 9 9 1 9 8 5 1 5 9 1 9 9 5 9 9 6 3 9 8 5 3 0 9 9 5 9 9 1 9 8 9 9 2 3 9 0 3 4 8 4 5 6 4 9 6 8 2 1 8 1 6 3 9 4 9 9 5 9 5 9 1 3 9 9 9 2 9 6 3 8 0 9 3 1 4 3 0 4 2 9 0 3
split_gain=1487.95 297.586 277.248 76.381 36.9913 36.2656 34.3001 22.0466 14.7772 16.0171 14.6395 14.5338 13.9237 14.1409 12.1248 22.231 11.5246 29.9956 10.9826 16.0788 18.9556 10.4848 10.4612 9.94402 9.14782 8.65879 8.42425 8.178 8.17199 5.83203 5.70206 5.58482 5.44456 5.22882 5.07711 4.84992 4.56807 4.40314 4.04227 3.89322 9.63738 3.86386 3.42895 5.02788 3.35716 3.34258 2.98856 2.80227 2.73178 2.64845 2.63761 2.36741 2.28871 2.93132 2.16353 1.96428 1.9002 1.78866 1.9593 1.58499 1.52916 1.50952 1.50008 1.45179 1.33586 1.30238 1.28494 1.26846 1.26465 1.25365 2.95339 1.25319 1.14256 1.20313 1.70396 1.16811 1.13589 1.1104 1.01159 1.1779 0.98648 0.897626 0.891266 0.872545 0.844684 1.49093 0.834207 0.808889 0.803374 0.684072 0.632565 0.528037 0.464184 0.950575 0.456754 0.381903 0.376229 0.3702 0.351242 0.342707 0.294912 0.281623 0.233932 0.221277 0.198005 0.177041 0.175653 0.171285 0.135294 0.130642 0.12664
threshold=-0.18854984268546102 -1.0320318043231962 0.93609276413917553 0.75816252827644359 0.5143517702817918 1.6389943361282351 -0.61029079556465138 -1.4537760615348814 -0.77081695199012745 -0.21064370870590207 0.17864936590194705 0.73065117001533519 -1.1392327547073362 -0.67232638597488392 1.6003646254539492 1.1845883131027224 0.16489368677139285 0.47339236736297613 1.4006855487823489 1.5604287981987002 1.6269885301589968 -1.1392327547073362 0.21991638094186786 -1.1438745856285093 -0.35959677398204798 -1.3180564641952512 -1.1609394550323484 0.41595189273357397 -1.5943564176559446 0.3162060827016831 -1.3180564641952512 0.41595189273357397 -1.6344369649887083 -0.73819050192832936 -0.83255985379219044 0.41595189273357397 -0.46210168302059168 0.2886947393417359 0.41595189273357397 -1.4968802332878111 -1.441857576370239 -1.1412743926048277 -0.75407394766807545 -0.71280694007873524 0.34902189671993261 -1.7349367737770078 0.42625145614147192 0.34823118150234228 -0.49297311902046198 0.23319111764431003 0.23626267164945605 -1.5931699275970457 0.5500524938106538 0.68014276027679454 0.027336971834301952 -0.43946841359138483 1.0000000180025095e-35 -1.125477075576782 -1.5336830019950864 -1.4556132555007932 1.3740616440773012 0.50197042524814617 0.092610801570117487 0.44000713527202612 0.21460897475481036 1.7795746922492983 0.87606266140937816 1.0000000180025095e-35 -0.87432065606117237 1.1123438477516177 -0.21064370870590207 0.77541005611419689 -0.10666989907622336 -0.77031230926513661 0.73461404442787182 0.63228118419647228 1.2065384984016421 0.43005365133285528 -1.1652276515960691 1.3439886569976809 0.23319111764431003 1.0882986783981325 -0.53789392113685597 -0.066734075546264635 -0.74031826853752125 -1.4499896168708799 -0.76782962679862965 -0.83255985379219044 -1.6894596219062803 -0.63816359639167775 0.092610801570117487 0.041092643514275558 -0.98792037367820729 -1.0154317021369932 0.24135091900825503 -0.86411932110786427 1.4683561325073244 -1.172612130641937 -1.4109506607055662 0.32287797331810003 -0.399532601237297 0.3737714439630509 1.2065384984016421 0.64028856158256542 0.23319111764431003 0.30122427642345434 0.842971831560135 0.11104118451476098 -1.1667441129684446 0.21460897475481036 1.0000000180025095e-35
decision_type=2 2 2 2 2 2 2 2 2 2 2 2 2 2 2 2 2 2 2 2 2 2 2 2 2 2 2 2 2 2 2 2 2 2 2 2 2 2 2 2 2 2 2 2 2 2 2 2 2 2 2 2 2 2 2 2 2 2 2 2 2 2 2 2 2 2 2 2 2 2 2 2 2 2 2 2 2 2 2 2 2 2 2 2 2 2 2 2 2 2 2 2 2 2 2 2 2 2 2 2 2 2 2 2 2 2 2 2 2 2 2
left_child=1 3 4 7 12 18 11 45 10 24 87 25 32 23 15 81 26 29 34 96 61 48 -12 77 100 51 42 41 -5 67 39 -19 88 108 -4 57 -36 -29 -32 -9 -41 82 62 -44 63 -1 -31 106 -8 83 -25 -3 53 -37 101 -52 -57 58 -27 -47 80 -21 -15 -39 -49 -16 -46 -18 -26 70 84 91 73 92 -75 -74 -73 -14 -38 105 -33 -7 -23 86 -59 -86 95 -6 -2 -13 110 -66 93 -43 -53 -28 -20 -30 -50 -93 -10 -51 -98 -71 -58 -80 -11 -90 -34 -103 -45
right_child=2 6 5 28 8 14 21 30 9 47 22 89 13 16 65 -17 17 31 19 20 -22 27 -24 50 68 35 49 37 97 46 38 60 33 -35 36 52 78 44 -40 40 -42 72 43 90 66 59 -48 64 98 54 55 94 -54 -55 -56 56 104 69 -60 -61 -62 -63 -64 -65 71 -67 -68 -69 -70 103 -72 76 75 74 -76 -77 -78 -79 79 -81 -82 -83 -84 -85 85 -87 -88 -89 107 -91 -92 99 -94 -95 -96 -97 102 -99 -100 -101 -102 109 -104 -105 -106 -107 -108 -109 -110 -111 -112
leaf_value=0.065183465932846074 -0.018949749042026023 -0.0017612407532605259 -0.065648272698575788 0.0880928417109757 -0.016069876930349836 -0.065797875283746157 -0.010453809613601438 0.038126500433491119 -0.022430389598608019 -0.015441561607947185 -0.073633980456818918 0.054484834499981087 -0.0079574567568374832 0.0056362979373894631 -0.03570553939482745 -0.098273022651672357 -0.031705634437501427 0.019965948505221674 -0.013494638825289723 -0.050827805352660842 -0.015514478138872337 0.0099356536725535988 -0.036148552851586399 -0.010112541584266445 -0.036750133074723274 0.028407707356372658 0.0058508301982656118 0.019095172754983649 0.070911344321806041 -0.0061882543210922446 0.046438075677760968 -0.00099729964961963054 -0.024231057271565475 -0.047319075709435991 -0.022290352187704209 0.02223827255457159 -0.035536741814305703 -0.0025276084175705907 0.030996090801195666 -0.0014687748218576114 0.032211873718311912 0.020712985257081911 -0.025832434345065398 0 0.010165330576281027 0.039945908319382439 -0.028051172479987143 -0.018640334236052106 0.0059873877611898926 -0.00061338456042615819 -0.033342936545610428 0.017239078136478982 0.025816892333619001 0.0044918935214169325 0.0084976538880784276 -0.0099079481642693288 -0.021527683488820514 0.034475168201658461 0.0098041932029963655 0.055303421212567219 0.0043610932267950592 -0.072192041769260307 -0.0060935416614104586 -0.018229735342649427 -0.0096058427632293285 -0.050026717106261887 -0.0022864223824853596 -0.048168974145182536 -0.052814884481222728 0.018532034126723683 0.045213497496786569 -0.0046727469518305139 0.031040336133174178 0.0010130401853381133 0.01613625622287785 0.01616402695228656 -0.017245518849445255 0.004800616968606339 -0.052959948092452747 -0.034716011559090966 -0.012863816035144469 -0.054117337168219259 -0.00083906173761934049 0.014738720195546541 0.030375516585681748 0.01475882424786687 0.00043187398861272856 -0.028011056219114035 -0.01115638439722781 0.038716792131992098 -0.010197714603176483 -0.0048663279489458847 0.025739802867782359 0.0088701888083347249 0.0096317298493307571 0.01261669994307601 -0.015742323903590441 0.058894708297622035 -0.00088451642203809968 0.0013342663356775625 -0.014072500355406241 -0.0077704079179465764 -0.023976889271504032 0.027044909399968606 -0.029848099685211977 -0.042941295114430511 -0.022950709730386733 -0.0052117444813266044 -0.0172460832197 -0.0025468728871539583 -0.004392829064787788
leaf_weight=124 43 43 43 138 76 84 104 92 49 42 46 45 40 79 50 65 65 52 81 52 54 65 78 58 76 48 77 47 200 47 210 55 72 40 42 61 61 49 109 44 94 98 64 44 76 62 47 50 63 88 77 81 76 79 82 47 72 80 42 107 73 40 76 40 50 165 46 41 45 40 62 46 52 40 94 44 73 60 120 40 50 186 44 72 68 43 58 40 52 46 64 71 48 41 68 68 49 70 41 53 54 49 51 80 44 65 73 47 50 42 43
leaf_count=124 43 43 43 138 76 84 104 92 49 42 46 45 40 79 50 65 65 52 81 52 54 65 78 58 76 48 77 47 200 47 210 55 72 40 42 61 61 49 109 44 94 98 64 44 76 62 47 50 63 88 77 81 76 79 82 47 72 80 42 107 73 40 76 40 50 165 46 41 45 40 62 46 52 40 94 44 73 60 120 40 50 186 44 72 68 43 58 40 52 46 64 71 48 41 68 68 49 70 41 53 54 49 51 80 44 65 73 47 50 42 43
internal_value=2.44821e-05 0.0308292 -0.0234293 0.0536856 -0.0134152 -0.0471414 0.0161815 0.0432326 -0.0233913 -0.0187991 -0.0362588 0.0242565 -0.00888682 -0.00679221 -0.0587517 -0.0661392 -0.00381706 -0.0118936 -0.0379048 -0.0295961 -0.0444289 0.00832206 -0.0506283 -0.0167145 -0.0319589 0.0217993 1.18389e-05 0.0114999 0.0750699 -0.0288316 0.0359487 0.00284421 -0.0207336 -0.0282975 -0.0450966 0.0249945 -0.0421745 0.00267968 0.0413125 0.0283108 0.0214535 0.0157901 -0.00692794 -0.0118147 -0.000993071 0.0566711 -0.0174262 -0.0122811 -0.00359621 0.00482868 -0.0221928 0.0103663 0.0172812 0.0124122 0.000445336 -0.0250084 -0.0208187 0.0285221 0.0200611 0.050008 -0.0021742 -0.060922 -4.03774e-05 -0.00984222 -0.00944962 -0.0469325 0.00539243 -0.0385763 -0.0432069 0.0304724 0.0331584 -0.00778235 0.0184291 0.0164809 0.0117517 0.0245827 -0.0125649 -0.00021206 -0.0449649 -0.0472993 -0.00682928 -0.0580249 0.00550905 0.00892871 0.0289676 0.0246187 0.00674705 -0.0204943 -0.0118828 0.0471521 -0.00566354 -0.00438985 0.0197254 0.0173938 0.0139346 0.00917066 -0.0173872 0.068069 0.00318136 -0.0021306 -0.0183414 -0.00320348 -0.0202566 0.0244831 -0.0250144 -0.0497542 -0.0204684 -0.00853452 -0.0216294 -0.00554387 -0.0021137
internal_weight=7412 3204 4208 1250 2960 1248 1954 842 922 682 240 962 2038 1734 550 335 1336 430 698 327 146 992 124 398 224 871 906 784 408 200 549 230 304 162 371 679 328 258 319 230 138 526 370 215 211 293 94 458 208 536 298 192 216 140 261 240 163 463 90 169 178 92 155 89 343 215 122 106 121 373 253 293 417 321 134 96 119 100 286 225 105 270 109 275 191 111 203 116 142 91 151 174 187 139 149 145 181 270 104 124 103 179 100 120 116 185 115 99 122 91 87
internal_count=7412 3204 4208 1250 2960 1248 1954 842 922 682 240 962 2038 1734 550 335 1336 430 698 327 146 992 124 398 224 871 906 784 408 200 549 230 304 162 371 679 328 258 319 230 138 526 370 215 211 293 94 458 208 536 298 192 216 140 261 240 163 463 90 169 178 92 155 89 343 215 122 106 121 373 253 293 417 321 134 96 119 100 286 225 105 270 109 275 191 111 203 116 142 91 151 174 187 139 149 145 181 270 104 124 103 179 100 120 116 185 115 99 122 91 87
is_linear=0
shrinkage=0.06


Tree=9
num_leaves=112
num_cat=0
split_feature=3 3 3 6 3 3 3 3 5 7 6 6 3 1 6 5 7 6 3 1 6 5 7 6 1 7 5 1 5 7 1 4 6 7 7 6 8 7 6 1 5 6 1 6 8 1 3 3 6 5 7 6 7 1 7 7 3 6 3 7 1 3 4 4 6 6 4 4 4 1 0 6 2 1 1 2 3 1 4 0 4 5 3 3 7 4 5 3 3 3 3 5 3 1 6 7 8 2 3 7 0 3 2 6 8 3 3 2 3 7 2
split_gain=1317.54 263.047 246.222 63.3309 47.0737 30.3933 19.3921 16.6746 14.024 12.4831 11.606 10.2799 10.2455 9.11799 8.98695 8.92567 15.8254 12.3717 8.89725 8.74712 8.96755 10.9367 8.71071 8.63707 8.42076 7.67553 7.54004 6.71104 6.18624 6.17845 5.28492 4.99744 4.80886 4.55301 4.41433 4.32976 4.2867 4.28103 4.25462 4.03839 4.01097 3.50383 3.50256 3.41043 3.1479 3.08789 2.82814 2.71861 2.53607 3.67181 2.28353 2.2554 2.14932 2.06909 1.88466 8.46025 1.80918 1.70505 1.68903 1.68626 1.36503 1.3313 1.3122 1.264 1.25096 1.17022 1.13947 1.13758 1.11106 1.0872 1.03675 1.03304 1.01781 1.01023 1.61166 0.999721 0.985918 0.950153 0.881257 1.49834 0.865396 0.841589 0.784041 0.768458 0.750133 0.705689 0.678997 0.677635 0.648123 0.636134 0.628964 0.559878 0.555854 0.528975 0.501138 0.492315 0.448495 0.273968 0.257837 0.249858 0.187767 0.167857 0.166367 0.106906 0.0978773 0.0892255 0.048667 0.0457024 0.199252 0.0399917 0.0341465
threshold=-0.18854984268546102 -1.0320318043231962 0.79551240801811229 0.84650379419326793 1.6389943361282351 -0.61029079556465138 -1.4537760615348814 0.3737714439630509 -0.86343130469322193 0.53075048327445995 -1.0190532207489011 -1.0812399387359617 1.2172533869743349 0.41595189273357397 -1.1434266567230222 -0.77081695199012745 -0.672471523284912 -0.21064370870590207 -1.4537760615348814 -1.692285358905792 -0.77031230926513661 -0.77081695199012745 0.44719342887401586 -0.27283042669296259 0.41595189273357397 -1.3910624980926511 -0.27687297761440272 1.2065384984016421 1.6371585130691531 0.79813382029533397 0.41595189273357397 0.842971831560135 0.038097223732620485 0.84826743602752697 0.53075048327445995 -0.45938761532306666 1.0573574900627138 0.84826743602752697 -1.1434266567230222 0.41595189273357397 -0.55471602082252491 0.34902189671993261 -1.1652276515960691 0.038097223732620485 -1.2927647233009336 -0.37463472038507456 -1.7349367737770078 0.092610801570117487 -0.77031230926513661 -0.61645966768264759 -1.3910624980926511 1.4683561325073244 -0.8562977910041808 0.41595189273357397 -0.83958560228347767 -1.2239483594894407 -0.75087112188339222 1.3439886569976809 0.092610801570117487 0.88169082999229442 0.67948076128959667 1.7795746922492983 -0.3021187931299209 -0.53789392113685597 -0.08627621084451674 0.16246472299098971 0.87606266140937816 0.33764275908470159 0.842971831560135 0.1524230241775513 0.30122427642345434 0.34902189671993261 -0.95315605401992787 1.2065384984016421 0.1524230241775513 -0.21473368257284162 -0.89145144820213307 1.0000000180025095e-35 -0.13390543684363362 0.32287797331810003 -0.3021187931299209 0.52578550577163707 0.5143517702817918 1.3578336834907534 -1.2740830183029173 -0.066345751285552965 0.86537146568298351 0.092610801570117487 -1.8755170702934263 -0.32913015782833094 0.092610801570117487 -0.43123023211956019 1.0000000180025095e-35 -0.37463472038507456 1.3439886569976809 0.68115335702896129 0.83007311820983898 0.48025263845920568 0.23319111764431003 -1.3242176771163938 0.19295527786016467 0.93609276413917553 0.21963211894035342 1.2196152210235598 -1.0745678544044492 2.2013156414031987 -0.75087112188339222 0.65399897098541271 -0.32913015782833094 0.14638768136501315 0.45853486657142645
decision_type=2 2 2 2 2 2 2 2 2 2 2 2 2 2 2 2 2 2 2 2 2 2 2 2 2 2 2 2 2 2 2 2 2 2 2 2 2 2 2 2 2 2 2 2 2 2 2 2 2 2 2 2 2 2 2 2 2 2 2 2 2 2 2 2 2 2 2 2 2 2 2 2 2 2 2 2 2 2 2 2 2 2 2 2 2 2 2 2 2 2 2 2 2 2 2 2 2 2 2 2 2 2 2 2 2 2 2 2 2 2 2
left_child=1 3 7 6 8 11 46 10 32 -6 45 44 13 37 85 16 82 29 88 -12 42 25 57 33 31 90 64 -28 73 70 35 56 -4 -23 94 48 60 -10 54 -40 -32 81 99 -18 76 80 -1 62 49 89 -50 101 -49 -36 55 -8 97 -15 100 -37 69 -38 -27 -51 87 -54 -43 -45 71 -11 -17 -26 -58 74 -14 -46 -3 84 -55 -80 92 -42 -9 -75 -48 -7 109 -25 -5 -16 102 -74 -2 -39 103 -53 -66 -13 -60 -21 -44 -24 -22 -19 -94 -63 -78 108 -61 -29 -100
right_child=2 5 4 18 9 14 38 15 12 36 19 24 28 22 30 17 43 34 -20 20 21 23 51 26 68 47 27 86 -30 -31 40 -33 -34 -35 53 59 61 93 39 -41 41 66 58 67 75 -47 77 52 50 63 -52 95 65 78 -56 -57 72 -59 98 107 -62 105 -64 -65 96 -67 -68 -69 -70 -71 -72 -73 91 83 -76 -77 106 -79 79 -81 -82 -83 -84 -85 -86 -87 -88 -89 -90 -91 -92 -93 104 -95 -96 -97 -98 -99 110 -101 -102 -103 -104 -105 -106 -107 -108 -109 -110 -111 -112
leaf_value=0.06130374633693695 -0.011240889722371545 0.025510375256234025 -0.071754736288027324 0.090991821389931893 -0.08014958634583845 -0.0031649788235718346 0.031946562573061145 -0.0063126782633968299 -0.025097533110296354 -0.060176562332337896 0.018790594646390879 0.034159611765386122 -0.045021482162661358 -0.040055878847186796 0.022169135652917799 -0.0073986241983366192 -0.051938774285451413 -0.014082648864947259 0.059897315011574671 -0.0044995362793511526 0 0.00034118946790695183 -0.0070078301190957424 0.0094595875788480045 0.012988533591255545 -0.019753917420627896 -0.021609514885310394 -0.0032255475468240501 -0.017483078573147456 -0.035646766729863742 0.016911635036360131 0.047441136440923133 -0.039643962045995206 -0.022378377081666671 -0.010123806463427058 0.031346013692229294 -0.032271463013213611 -0.037562038934826847 0.044932089436550936 0.029153232240135014 -0.0042313091313200329 0.0095633317582406018 0.0081209316853067415 -0.039728179596364502 0.011287676833229275 -0.028810003391395392 0.048346422379667103 -0.015660791265560938 0.0095769467804437663 -0.0019242659874227164 -0.0055977859455805558 -0.015505830120416763 -0.038918470224551853 0.006082784861086734 0.035284070397471327 0.0013039504639962886 0.015761018811801419 -0.024782044422626496 0.0040972684632388078 0.021627195635012218 -0.06725294998660683 -0.042050887780945477 -0.0059994192773822775 0.0099022577256782339 0.019154585761949419 -0.02367492391023299 -0.0021521557263554409 -0.025174869972811296 0.0084516808258030887 -0.047946970241276296 -0.02000144561199892 0.023294444982301103 0.030331453921794888 -0.038187719253301618 -0.030521720896546652 -0.00050910188621756708 0.016071485501539428 0.053534642316676949 -0.0085963079701822532 0.0047942055805332276 -0.0081807803213596337 -0.016960049040349468 -0.015626633820098799 -0.052030584261658484 0.033106331686954947 -0.013377699647979304 0.0071087322196234821 1.5260621535292413e-05 0.074645586046991466 0.013516541084903922 -0.010445809485018253 0.019171613767743113 -0.023446502962010972 -0.051298879748896541 -0.010626150424217249 -0.025967911897261036 0.0093469319746418041 0.027435402211454723 0.00024418405065789996 -0.011719784796770129 0.014218167264428403 -0.011753767284422951 -0.0046898944602474903 -0.020640848667457187 -0.016071557150984354 -0.051659549700586414 0.010603591094724833 0.013210703977299457 0.014244973908898966 -0.00022646513361749903 -0.0019792373519997263
leaf_weight=124 52 46 43 51 68 52 117 73 71 92 52 163 76 72 91 47 52 47 207 46 40 44 74 59 74 80 71 42 44 105 54 61 40 104 94 42 45 49 179 109 41 76 60 47 40 77 43 44 77 55 64 45 59 69 90 46 60 64 69 55 63 81 42 73 47 45 46 64 54 126 61 98 74 49 77 65 47 80 64 54 67 41 73 88 47 54 45 55 157 73 69 41 46 56 76 54 42 96 40 41 53 91 65 57 43 75 43 46 52 41 42
leaf_count=124 52 46 43 51 68 52 117 73 71 92 52 163 76 72 91 47 52 47 207 46 40 44 74 59 74 80 71 42 44 105 54 61 40 104 94 42 45 49 179 109 41 76 60 47 40 77 43 44 77 55 64 45 59 69 90 46 60 64 69 55 63 81 42 73 47 45 46 64 54 126 61 98 74 49 77 65 47 80 64 54 67 41 73 88 47 54 45 55 157 73 69 41 46 56 76 54 42 96 40 41 53 91 65 57 43 75 43 46 52 41 42
internal_value=1.76219e-05 0.0290048 -0.0220522 0.0504942 -0.041122 0.0152328 0.040847 -0.0109953 -0.0332287 -0.0552649 -0.00734748 0.0228344 -0.0309799 -0.0259766 0.00783347 -0.0172111 -0.0257019 -0.0132684 0.0697313 -0.00507685 -0.00602179 -0.00893316 -0.0208064 -0.00324084 0.0264368 -0.0159344 0.00130192 -0.00694547 -0.0394692 -0.0252233 0.00981528 0.0308594 -0.0570787 -0.0155864 -0.00767618 0.0127867 -0.0515707 -0.0374755 0.0339197 0.0391233 0.00251478 -0.00130152 0.0021908 -0.038537 0.0119429 -0.0183789 0.0533953 -0.0222691 0.0093547 0.0125488 0.0026137 -0.0142809 -0.0278717 -0.00290442 0.0278182 0.0234328 0.0283975 -0.0331891 0.00565612 0.0202596 -0.0567868 -0.0439742 -0.0152036 0.004752 0.00944004 -0.0327253 0.00506687 -0.0317439 0.0166041 -0.0534141 -0.0147452 0.0190306 0.0230994 -0.0426923 -0.0380477 0.00393579 0.0179633 0.0472319 0.000695299 -0.00237881 -0.0143406 -0.0108679 -0.0111259 -0.047479 0.0409708 -0.00855624 0.00119993 0.00504722 0.0791272 0.0184957 -0.00596491 0.0266557 -0.0171049 -0.0454164 -0.0150019 -0.021535 0.0148149 0.0318285 0.00139285 -0.00813306 0.0111856 -0.00975261 -0.00283635 -0.0179537 -0.0202348 -0.0470465 0.0137361 0.0169546 0.0183158 -0.00190726 -0.000760189
internal_weight=7412 3204 4208 1250 1543 1954 835 2665 993 550 1682 962 910 576 992 983 309 674 415 1397 1345 994 400 550 721 444 402 199 334 213 886 495 83 148 461 628 482 176 541 288 258 204 351 163 241 285 294 270 433 292 141 264 148 281 253 163 434 136 264 195 281 201 122 128 203 104 122 111 226 218 108 172 175 290 153 105 136 170 187 118 208 82 146 137 90 106 128 114 208 164 174 115 141 105 180 99 89 259 151 87 113 165 105 104 89 156 90 153 107 83 82
internal_count=7412 3204 4208 1250 1543 1954 835 2665 993 550 1682 962 910 576 992 983 309 674 415 1397 1345 994 400 550 721 444 402 199 334 213 886 495 83 148 461 628 482 176 541 288 258 204 351 163 241 285 294 270 433 292 141 264 148 281 253 163 434 136 264 195 281 201 122 128 203 104 122 111 226 218 108 172 175 290 153 105 136 170 187 118 208 82 146 137 90 106 128 114 208 164 174 115 141 105 180 99 89 259 151 87 113 165 105 104 89 156 90 153 107 83 82
is_linear=0
shrinkage=0.06


Tree=10
num_leaves=112
num_cat=0
split_feature=3 3 3 9 3 3 3 3 9 5 4 1 5 9 9 3 6 9 9 1 1 3 9 8 9 6 6 9 9 9 2 9 5 1 5 3 9 9 6 9 9 9 1 6 9 9 5 9 2 9 9 1 2 1 9 3 0 3 1 0 0 1 9 9 9 9 9 6 3 9 0 8 9 3 9 3 9 9 3 9 2 3 1 2 1 6 3 3 9 2 3 3 9 1 3 9 6 3 3 3 1 9 9 5 5 3 3 3 9 5 4
split_gain=1162.99 258.444 180.955 59.4087 43.7832 28.8344 19.0927 18.1935 18.1139 14.0812 10.761 13.893 24.5289 10.6963 10.4359 9.75136 9.07696 9.04856 8.03179 6.82654 9.60519 6.61457 6.36134 6.07088 5.41844 5.05776 4.94504 4.6695 4.41756 9.29629 4.37255 4.26096 5.56735 4.02722 4.48038 4.00693 3.78869 3.44501 3.31186 3.29109 3.229 3.10468 2.59746 2.53976 3.14851 3.42465 3.00634 2.52177 2.41687 2.40328 2.40065 2.25035 2.20166 2.12196 1.9744 1.9178 1.87935 1.78288 1.56162 1.55266 1.75835 1.49515 1.47111 1.47024 1.45523 1.41372 1.27205 1.25513 1.25111 1.20313 1.18828 0.956693 0.949746 0.88882 0.887848 0.870966 0.87083 1.41043 0.813377 2.15277 0.723401 1.10015 0.842223 0.708709 0.677356 0.631094 0.629388 0.611428 0.599522 0.594224 0.586305 0.56785 0.549201 0.531772 0.512031 1.2859 0.488285 0.445963 0.443932 0.426346 0.423917 0.376224 0.702323 1.25606 0.371335 0.366078 0.356237 0.354564 0.351443 0.316726 0.299578
